svm_type c_svc
kernel_type linear
nr_class 2
total_sv 84
rho 0.739367
label -1 1
probA 0
probB -0.691485
nr_sv 56 28
SV
0.08082519733675828 1:0.00063613232 2:0.035835454 3:0.41687871 4:0.40924512 5:0.096480068 6:0.029686175 7:0.0057251908 8:0.0019083969 9:0.0016963528 10:0.0019083969 11:0.0012722646 12:0.16327396 13:0.53901612 14:0.17514843 15:0.07697201 16:0.034139101 17:0.0042408821 18:0.0027565734 19:0.0019083969 20:0.0012722646 21:0.24003393 22:0.21119593 23:0.11535199 24:0.090542833 25:0.059160305 26:0.075063613 27:0.10708227 28:0.079092451 29:0.019083969 30:0.0033927057 31:0.00063613232 32:0.035835454 33:0.41687871 34:0.40924512 35:0.096480068 36:0.029686175 37:0.0057251908 38:0.0019083969 39:0.0016963528 40:0.0019083969 41:0.0012722646 42:0.16327396 43:0.53901612 44:0.17514843 45:0.07697201 46:0.034139101 47:0.0042408821 48:0.0027565734 49:0.0019083969 50:0.0012722646 51:0.24003393 52:0.21119593 53:0.11535199 54:0.090542833 55:0.059160305 56:0.075063613 57:0.10708227 58:0.079092451 59:0.019083969 60:0.0033927057 61:0.00063613232 62:0.0023324852 63:0.016327396 64:0.050466497 65:0.18299406 66:0.29898219 67:0.14800679 68:0.2408821 69:0.056403732 70:0.0029686175 71:0.00063613232 72:0.00063613232 73:0.023536896 74:0.081424936 75:0.14949109 76:0.42387617 77:0.20695505 78:0.098600509 79:0.0078456319 80:0.0069974555 81:0.037743851 82:0.054919423 83:0.089058524 84:0.20907549 85:0.19889737 86:0.17175573 87:0.13888889 88:0.062553011 89:0.026081425 90:0.011026293 91:0.00063613232 92:0.0023324852 93:0.016327396 94:0.050466497 95:0.18299406 96:0.29898219 97:0.14800679 98:0.2408821 99:0.056403732 100:0.0029686175 101:0.00063613232 102:0.00063613232 103:0.023536896 104:0.081424936 105:0.14949109 106:0.42387617 107:0.20695505 108:0.098600509 109:0.0078456319 110:0.0069974555 111:0.037743851 112:0.054919423 113:0.089058524 114:0.20907549 115:0.19889737 116:0.17175573 117:0.13888889 118:0.062553011 119:0.026081425 120:0.011026293 121:0.0029686175 122:0.018235793 123:0.020992366 124:0.077608142 125:0.08163698 126:0.27565734 127:0.20992366 128:0.18320611 129:0.10220526 130:0.027565734 131:0.00063613232 132:0.012510602 133:0.017175573 134:0.10835454 135:0.1528838 136:0.22943172 137:0.28965225 138:0.13676845 139:0.039864292 140:0.012722646 141:0.026505513 142:0.064885496 143:0.035835454 144:0.027777778 145:0.11577608 146:0.14482612 147:0.20038168 148:0.20737913 149:0.14588634 150:0.030746395 151:0.0029686175 152:0.018235793 153:0.020992366 154:0.077608142 155:0.08163698 156:0.27565734 157:0.20992366 158:0.18320611 159:0.10220526 160:0.027565734 161:0.00063613232 162:0.012510602 163:0.017175573 164:0.10835454 165:0.1528838 166:0.22943172 167:0.28965225 168:0.13676845 169:0.039864292 170:0.012722646 171:0.026505513 172:0.064885496 173:0.035835454 174:0.027777778 175:0.11577608 176:0.14482612 177:0.20038168 178:0.20737913 179:0.14588634 180:0.030746395 181:0.0084817642 182:0.43617472 183:0.18108567 184:0.08418151 185:0.021204411 186:0.066157761 187:0.1331637 188:0.055131467 189:0.012298558 190:0.0021204411 191:0.21501272 192:0.23982188 193:0.14525021 194:0.099660729 195:0.024385072 196:0.022264631 197:0.087362171 198:0.10687023 199:0.05216285 200:0.0072094996 201:0.12022901 202:0.11407973 203:0.11174724 204:0.028201866 205:0.034775233 206:0.094359627 207:0.17705683 208:0.050466497 209:0.065945717 210:0.20313825 211:0.0084817642 212:0.43617472 213:0.18108567 214:0.08418151 215:0.021204411 216:0.066157761 217:0.1331637 218:0.055131467 219:0.012298558 220:0.0021204411 221:0.21501272 222:0.23982188 223:0.14525021 224:0.099660729 225:0.024385072 226:0.022264631 227:0.087362171 228:0.10687023 229:0.05216285 230:0.0072094996 231:0.12022901 232:0.11407973 233:0.11174724 234:0.028201866 235:0.034775233 236:0.094359627 237:0.17705683 238:0.050466497 239:0.065945717 240:0.20313825 241:0.033502969 242:0.46543681 243:0.22943172 244:0.14673452 245:0.069338422 246:0.03201866 247:0.01293469 248:0.0057251908 249:0.0031806616 250:0.0016963528 251:0.30746395 252:0.24236641 253:0.16306192 254:0.17196777 255:0.075275657 256:0.027565734 257:0.0038167939 258:0.0033927057 259:0.0031806616 260:0.0019083969 261:0.073791349 262:0.24851569 263:0.048346056 264:0.073579304 265:0.074851569 266:0.13464801 267:0.27120441 268:0.062765055 269:0.0076335878 270:0.0046649703 271:0.033502969 272:0.46543681 273:0.22943172 274:0.14673452 275:0.069338422 276:0.03201866 277:0.01293469 278:0.0057251908 279:0.0031806616 280:0.0016963528 281:0.30746395 282:0.24236641 283:0.16306192 284:0.17196777 285:0.075275657 286:0.027565734 287:0.0038167939 288:0.0033927057 289:0.0031806616 290:0.0019083969 291:0.073791349 292:0.24851569 293:0.048346056 294:0.073579304 295:0.074851569 296:0.13464801 297:0.27120441 298:0.062765055 299:0.0076335878 300:0.0046649703 301:0.045801527 302:0.42811705 303:0.28201866 304:0.084393554 305:0.034563189 306:0.038167939 307:0.031382528 308:0.02735369 309:0.022476675 310:0.0057251908 311:0.11026293 312:0.54601357 313:0.10856658 314:0.060008482 315:0.03307888 316:0.036471586 317:0.039016115 318:0.033927057 319:0.025869381 320:0.0067854114 321:0.31128075 322:0.24491094 323:0.043469042 324:0.045589483 325:0.048134012 326:0.068066158 327:0.078668363 328:0.065733673 329:0.046861747 330:0.047285835 331:0.045801527 332:0.42811705 333:0.28201866 334:0.084393554 335:0.034563189 336:0.038167939 337:0.031382528 338:0.02735369 339:0.022476675 340:0.0057251908 341:0.11026293 342:0.54601357 343:0.10856658 344:0.060008482 345:0.03307888 346:0.036471586 347:0.039016115 348:0.033927057 349:0.025869381 350:0.0067854114 351:0.31128075 352:0.24491094 353:0.043469042 354:0.045589483 355:0.048134012 356:0.068066158 357:0.078668363 358:0.065733673 359:0.046861747 360:0.047285835 
0.1575373709801722 1:0.006840796 2:0.23445274 3:0.54850746 4:0.14199834 5:0.055140962 6:0.0091210614 7:0.0016583748 8:0.0008291874 9:0.0004145937 10:0.0010364842 11:0.069444444 12:0.52114428 13:0.25766998 14:0.089344942 15:0.036898839 16:0.021766169 17:0.0014510779 18:0.0010364842 19:0.0004145937 20:0.0008291874 21:0.22470978 22:0.17578773 23:0.13308458 24:0.10344113 25:0.073175788 26:0.080845771 27:0.11297678 28:0.069237148 29:0.023217247 30:0.0035240464 31:0.006840796 32:0.23445274 33:0.54850746 34:0.14199834 35:0.055140962 36:0.0091210614 37:0.0016583748 38:0.0008291874 39:0.0004145937 40:0.0010364842 41:0.069444444 42:0.52114428 43:0.25766998 44:0.089344942 45:0.036898839 46:0.021766169 47:0.0014510779 48:0.0010364842 49:0.0004145937 50:0.0008291874 51:0.22470978 52:0.17578773 53:0.13308458 54:0.10344113 55:0.073175788 56:0.080845771 57:0.11297678 58:0.069237148 59:0.023217247 60:0.0035240464 61:0.0014510779 62:0.0043532338 63:0.069029851 64:0.08354063 65:0.15754561 66:0.37873134 67:0.12686567 68:0.14718076 69:0.026119403 70:0.0051824212 71:0.0043532338 72:0.010364842 73:0.051409619 74:0.15215589 75:0.2303068 76:0.44133499 77:0.074834163 78:0.020729685 79:0.0097429519 80:0.0047678275 81:0.040215589 82:0.04871476 83:0.10364842 84:0.24792703 85:0.1842869 86:0.17309287 87:0.11608624 88:0.064262023 89:0.014718076 90:0.0070480929 91:0.0014510779 92:0.0043532338 93:0.069029851 94:0.08354063 95:0.15754561 96:0.37873134 97:0.12686567 98:0.14718076 99:0.026119403 100:0.0051824212 101:0.0043532338 102:0.010364842 103:0.051409619 104:0.15215589 105:0.2303068 106:0.44133499 107:0.074834163 108:0.020729685 109:0.0097429519 110:0.0047678275 111:0.040215589 112:0.04871476 113:0.10364842 114:0.24792703 115:0.1842869 116:0.17309287 117:0.11608624 118:0.064262023 119:0.014718076 120:0.0070480929 121:0.0035240464 122:0.014925373 123:0.019900498 124:0.051409619 125:0.11919569 126:0.35219735 127:0.20750415 128:0.15008292 129:0.06384743 130:0.017412935 131:0.010572139 132:0.030887231 133:0.092661692 134:0.16811774 135:0.27529022 136:0.22864842 137:0.13536484 138:0.048092869 139:0.0097429519 140:0.00062189055 141:0.013681592 142:0.063432836 143:0.059079602 144:0.030472637 145:0.088308458 146:0.12997512 147:0.21600332 148:0.22450249 149:0.11919569 150:0.055348259 151:0.0035240464 152:0.014925373 153:0.019900498 154:0.051409619 155:0.11919569 156:0.35219735 157:0.20750415 158:0.15008292 159:0.06384743 160:0.017412935 161:0.010572139 162:0.030887231 163:0.092661692 164:0.16811774 165:0.27529022 166:0.22864842 167:0.13536484 168:0.048092869 169:0.0097429519 170:0.00062189055 171:0.013681592 172:0.063432836 173:0.059079602 174:0.030472637 175:0.088308458 176:0.12997512 177:0.21600332 178:0.22450249 179:0.11919569 180:0.055348259 181:0.17309287 182:0.37603648 183:0.12209784 184:0.055140962 185:0.054933665 186:0.12686567 187:0.081674959 188:0.008291874 189:0.0010364842 190:0.0008291874 191:0.37541459 192:0.12997512 193:0.15671642 194:0.068822554 195:0.044568823 196:0.13038972 197:0.07628524 198:0.016169154 199:0.0008291874 200:0.0008291874 201:0.082711443 202:0.1050995 203:0.12251244 204:0.033374793 205:0.037935323 206:0.1252073 207:0.1905058 208:0.047056385 209:0.15961857 210:0.095978441 211:0.17309287 212:0.37603648 213:0.12209784 214:0.055140962 215:0.054933665 216:0.12686567 217:0.081674959 218:0.008291874 219:0.0010364842 220:0.0008291874 221:0.37541459 222:0.12997512 223:0.15671642 224:0.068822554 225:0.044568823 226:0.13038972 227:0.07628524 228:0.016169154 229:0.0008291874 230:0.0008291874 231:0.082711443 232:0.1050995 233:0.12251244 234:0.033374793 235:0.037935323 236:0.1252073 237:0.1905058 238:0.047056385 239:0.15961857 240:0.095978441 241:0.0070480929 242:0.2568408 243:0.30700663 244:0.14676617 245:0.14821725 246:0.078565506 247:0.039800995 248:0.012645108 249:0.0024875622 250:0.00062189055 251:0.044568823 252:0.44444444 253:0.082711443 254:0.16376451 255:0.16397181 256:0.074419569 257:0.021973466 258:0.0016583748 259:0.0014510779 260:0.0010364842 261:0.065505804 262:0.22429519 263:0.042910448 264:0.068822554 265:0.06778607 266:0.065298507 267:0.14552239 268:0.27902156 269:0.036276949 270:0.0045605307 271:0.0070480929 272:0.2568408 273:0.30700663 274:0.14676617 275:0.14821725 276:0.078565506 277:0.039800995 278:0.012645108 279:0.0024875622 280:0.00062189055 281:0.044568823 282:0.44444444 283:0.082711443 284:0.16376451 285:0.16397181 286:0.074419569 287:0.021973466 288:0.0016583748 289:0.0014510779 290:0.0010364842 291:0.065505804 292:0.22429519 293:0.042910448 294:0.068822554 295:0.06778607 296:0.065298507 297:0.14552239 298:0.27902156 299:0.036276949 300:0.0045605307 301:0.010986733 302:0.15547264 303:0.56364013 304:0.076077944 305:0.061567164 306:0.029643449 307:0.045190713 308:0.03420398 309:0.020729685 310:0.0024875622 311:0.24398839 312:0.42350746 313:0.10800166 314:0.0526534 315:0.044154229 316:0.032752902 317:0.063432836 318:0.019693201 319:0.010364842 320:0.0014510779 321:0.25435323 322:0.27321725 323:0.048092869 324:0.055555556 325:0.039179104 326:0.081260365 327:0.084577114 328:0.057421227 329:0.072139303 330:0.03420398 331:0.010986733 332:0.15547264 333:0.56364013 334:0.076077944 335:0.061567164 336:0.029643449 337:0.045190713 338:0.03420398 339:0.020729685 340:0.0024875622 341:0.24398839 342:0.42350746 343:0.10800166 344:0.0526534 345:0.044154229 346:0.032752902 347:0.063432836 348:0.019693201 349:0.010364842 350:0.0014510779 351:0.25435323 352:0.27321725 353:0.048092869 354:0.055555556 355:0.039179104 356:0.081260365 357:0.084577114 358:0.057421227 359:0.072139303 360:0.03420398 
0.1698420305224035 1:0.0071548822 2:0.20223064 3:0.44612795 4:0.25631313 5:0.057239057 6:0.020833333 7:0.006523569 8:0.0012626263 9:0.0012626263 10:0.0010521886 11:0.0016835017 12:0.15488215 13:0.56923401 14:0.14983165 15:0.070496633 16:0.038510101 17:0.0073653199 18:0.0044191919 19:0.0023148148 20:0.0012626263 21:0.23021886 22:0.20475589 23:0.11931818 24:0.10248316 25:0.064393939 26:0.08543771 27:0.12478956 28:0.052819865 29:0.014099327 30:0.0016835017 31:0.0071548822 32:0.20223064 33:0.44612795 34:0.25631313 35:0.057239057 36:0.020833333 37:0.006523569 38:0.0012626263 39:0.0012626263 40:0.0010521886 41:0.0016835017 42:0.15488215 43:0.56923401 44:0.14983165 45:0.070496633 46:0.038510101 47:0.0073653199 48:0.0044191919 49:0.0023148148 50:0.0012626263 51:0.23021886 52:0.20475589 53:0.11931818 54:0.10248316 55:0.064393939 56:0.08543771 57:0.12478956 58:0.052819865 59:0.014099327 60:0.0016835017 61:0.00084175084 62:0.0077861953 63:0.06986532 64:0.090488215 65:0.29250842 66:0.34722222 67:0.10795455 68:0.072811448 69:0.0086279461 70:0.0018939394 71:0.0039983165 72:0.018308081 73:0.19507576 74:0.24095118 75:0.23947811 76:0.24579125 77:0.032407407 78:0.021675084 79:0.001473064 80:0.00084175084 81:0.036616162 82:0.039351852 83:0.10900673 84:0.24789562 85:0.18602694 86:0.19002525 87:0.11531987 88:0.049873737 89:0.018308081 90:0.0075757576 91:0.00084175084 92:0.0077861953 93:0.06986532 94:0.090488215 95:0.29250842 96:0.34722222 97:0.10795455 98:0.072811448 99:0.0086279461 100:0.0018939394 101:0.0039983165 102:0.018308081 103:0.19507576 104:0.24095118 105:0.23947811 106:0.24579125 107:0.032407407 108:0.021675084 109:0.001473064 110:0.00084175084 111:0.036616162 112:0.039351852 113:0.10900673 114:0.24789562 115:0.18602694 116:0.19002525 117:0.11531987 118:0.049873737 119:0.018308081 120:0.0075757576 121:0.022306397 122:0.045244108 123:0.12731481 124:0.12310606 125:0.21022727 126:0.19549663 127:0.15867003 128:0.073863636 129:0.017255892 130:0.026515152 131:0.014099327 132:0.033038721 133:0.091119529 134:0.15088384 135:0.25925926 136:0.27483165 137:0.14330808 138:0.025252525 139:0.0058922559 140:0.0023148148 141:0.065446128 142:0.04503367 143:0.029882155 144:0.061447811 145:0.074284512 146:0.24558081 147:0.25757576 148:0.14309764 149:0.038930976 150:0.038720539 151:0.022306397 152:0.045244108 153:0.12731481 154:0.12310606 155:0.21022727 156:0.19549663 157:0.15867003 158:0.073863636 159:0.017255892 160:0.026515152 161:0.014099327 162:0.033038721 163:0.091119529 164:0.15088384 165:0.25925926 166:0.27483165 167:0.14330808 168:0.025252525 169:0.0058922559 170:0.0023148148 171:0.065446128 172:0.04503367 173:0.029882155 174:0.061447811 175:0.074284512 176:0.24558081 177:0.25757576 178:0.14309764 179:0.038930976 180:0.038720539 181:0.095117845 182:0.40593434 183:0.13909933 184:0.055345118 185:0.030934343 186:0.078703704 187:0.12205387 188:0.063341751 189:0.0077861953 190:0.0016835017 191:0.32091751 192:0.13026094 193:0.15551347 194:0.090698653 195:0.021254209 196:0.042087542 197:0.13973064 198:0.075547138 199:0.021885522 200:0.0021043771 201:0.11363636 202:0.11153199 203:0.097853535 204:0.030513468 205:0.041456229 206:0.086279461 207:0.1763468 208:0.060606061 209:0.053872054 210:0.22790404 211:0.095117845 212:0.40593434 213:0.13909933 214:0.055345118 215:0.030934343 216:0.078703704 217:0.12205387 218:0.063341751 219:0.0077861953 220:0.0016835017 221:0.32091751 222:0.13026094 223:0.15551347 224:0.090698653 225:0.021254209 226:0.042087542 227:0.13973064 228:0.075547138 229:0.021885522 230:0.0021043771 231:0.11363636 232:0.11153199 233:0.097853535 234:0.030513468 235:0.041456229 236:0.086279461 237:0.1763468 238:0.060606061 239:0.053872054 240:0.22790404 241:0.011574074 242:0.27714646 243:0.32007576 244:0.15298822 245:0.15256734 246:0.045244108 247:0.024200337 248:0.01010101 249:0.0044191919 250:0.0016835017 251:0.015782828 252:0.4631734 253:0.16329966 254:0.19907407 255:0.12079125 256:0.026515152 257:0.0027356902 258:0.0044191919 259:0.0033670034 260:0.00084175084 261:0.063131313 262:0.23947811 263:0.055765993 264:0.061026936 265:0.088594276 266:0.15088384 267:0.28261785 268:0.046927609 269:0.0058922559 270:0.0056818182 271:0.011574074 272:0.27714646 273:0.32007576 274:0.15298822 275:0.15256734 276:0.045244108 277:0.024200337 278:0.01010101 279:0.0044191919 280:0.0016835017 281:0.015782828 282:0.4631734 283:0.16329966 284:0.19907407 285:0.12079125 286:0.026515152 287:0.0027356902 288:0.0044191919 289:0.0033670034 290:0.00084175084 291:0.063131313 292:0.23947811 293:0.055765993 294:0.061026936 295:0.088594276 296:0.15088384 297:0.28261785 298:0.046927609 299:0.0058922559 300:0.0056818182 301:0.12226431 302:0.51494108 303:0.13425926 304:0.083543771 305:0.032407407 306:0.037457912 307:0.037457912 308:0.021675084 309:0.013468013 310:0.0025252525 311:0.23737374 312:0.42760943 313:0.080597643 314:0.081228956 315:0.040193603 316:0.038930976 317:0.051767677 318:0.025462963 319:0.013047138 320:0.0037878788 321:0.20664983 322:0.3253367 323:0.036616162 324:0.048821549 325:0.042508418 326:0.055555556 327:0.090698653 328:0.060185185 329:0.07723064 330:0.056397306 331:0.12226431 332:0.51494108 333:0.13425926 334:0.083543771 335:0.032407407 336:0.037457912 337:0.037457912 338:0.021675084 339:0.013468013 340:0.0025252525 341:0.23737374 342:0.42760943 343:0.080597643 344:0.081228956 345:0.040193603 346:0.038930976 347:0.051767677 348:0.025462963 349:0.013047138 350:0.0037878788 351:0.20664983 352:0.3253367 353:0.036616162 354:0.048821549 355:0.042508418 356:0.055555556 357:0.090698653 358:0.060185185 359:0.07723064 360:0.056397306 
0.1367744079274404 1:0.0023504274 2:0.040384615 3:0.53098291 4:0.3215812 5:0.077136752 6:0.018589744 7:0.0036324786 8:0.0021367521 9:0.0021367521 10:0.0010683761 11:0.002991453 12:0.18141026 13:0.52222222 14:0.17628205 15:0.070726496 16:0.034401709 17:0.0057692308 18:0.0025641026 19:0.0027777778 20:0.00085470085 21:0.069444444 22:0.25790598 23:0.16153846 24:0.11260684 25:0.080982906 26:0.073717949 27:0.12435897 28:0.098931624 29:0.017307692 30:0.0032051282 31:0.0023504274 32:0.040384615 33:0.53098291 34:0.3215812 35:0.077136752 36:0.018589744 37:0.0036324786 38:0.0021367521 39:0.0021367521 40:0.0010683761 41:0.002991453 42:0.18141026 43:0.52222222 44:0.17628205 45:0.070726496 46:0.034401709 47:0.0057692308 48:0.0025641026 49:0.0027777778 50:0.00085470085 51:0.069444444 52:0.25790598 53:0.16153846 54:0.11260684 55:0.080982906 56:0.073717949 57:0.12435897 58:0.098931624 59:0.017307692 60:0.0032051282 61:0.00085470085 62:0.012820513 63:0.10192308 64:0.09957265 65:0.28611111 66:0.30854701 67:0.11111111 68:0.068162393 69:0.01025641 70:0.00064102564 71:0.0021367521 72:0.014316239 73:0.20470085 74:0.2215812 75:0.21452991 76:0.2775641 77:0.040598291 78:0.021794872 79:0.0021367521 80:0.00064102564 81:0.072649573 82:0.056837607 83:0.10598291 84:0.25042735 85:0.15576923 86:0.15918803 87:0.12136752 88:0.041025641 89:0.025 90:0.011752137 91:0.00085470085 92:0.012820513 93:0.10192308 94:0.09957265 95:0.28611111 96:0.30854701 97:0.11111111 98:0.068162393 99:0.01025641 100:0.00064102564 101:0.0021367521 102:0.014316239 103:0.20470085 104:0.2215812 105:0.21452991 106:0.2775641 107:0.040598291 108:0.021794872 109:0.0021367521 110:0.00064102564 111:0.072649573 112:0.056837607 113:0.10598291 114:0.25042735 115:0.15576923 116:0.15918803 117:0.12136752 118:0.041025641 119:0.025 120:0.011752137 121:0.0034188034 122:0.021153846 123:0.15683761 124:0.11153846 125:0.22799145 126:0.37713675 127:0.060042735 128:0.038034188 129:0.0023504274 130:0.0014957265 131:0.0079059829 132:0.031623932 133:0.090384615 134:0.15128205 135:0.20534188 136:0.29636752 137:0.16602564 138:0.041025641 139:0.0068376068 140:0.0032051282 141:0.016880342 142:0.061538462 143:0.056410256 144:0.050213675 145:0.098504274 146:0.16709402 147:0.22521368 148:0.20619658 149:0.066880342 150:0.051068376 151:0.0034188034 152:0.021153846 153:0.15683761 154:0.11153846 155:0.22799145 156:0.37713675 157:0.060042735 158:0.038034188 159:0.0023504274 160:0.0014957265 161:0.0079059829 162:0.031623932 163:0.090384615 164:0.15128205 165:0.20534188 166:0.29636752 167:0.16602564 168:0.041025641 169:0.0068376068 170:0.0032051282 171:0.016880342 172:0.061538462 173:0.056410256 174:0.050213675 175:0.098504274 176:0.16709402 177:0.22521368 178:0.20619658 179:0.066880342 180:0.051068376 181:0.016239316 182:0.43846154 183:0.15299145 184:0.10149573 185:0.014102564 186:0.044017094 187:0.13076923 188:0.065598291 189:0.028205128 190:0.0081196581 191:0.23931624 192:0.21153846 193:0.12521368 194:0.11517094 195:0.032051282 196:0.016880342 197:0.078418803 198:0.098504274 199:0.06965812 200:0.013247863 201:0.13568376 202:0.11004274 203:0.10042735 204:0.029059829 205:0.036111111 206:0.10747863 207:0.17564103 208:0.037820513 209:0.052991453 210:0.21474359 211:0.016239316 212:0.43846154 213:0.15299145 214:0.10149573 215:0.014102564 216:0.044017094 217:0.13076923 218:0.065598291 219:0.028205128 220:0.0081196581 221:0.23931624 222:0.21153846 223:0.12521368 224:0.11517094 225:0.032051282 226:0.016880342 227:0.078418803 228:0.098504274 229:0.06965812 230:0.013247863 231:0.13568376 232:0.11004274 233:0.10042735 234:0.029059829 235:0.036111111 236:0.10747863 237:0.17564103 238:0.037820513 239:0.052991453 240:0.21474359 241:0.031623932 242:0.38162393 243:0.25619658 244:0.15405983 245:0.11645299 246:0.046581197 247:0.0066239316 248:0.0023504274 249:0.0027777778 250:0.0017094017 251:0.084615385 252:0.42200855 253:0.10641026 254:0.25021368 255:0.10320513 256:0.023290598 257:0.0044871795 258:0.0019230769 259:0.0025641026 260:0.0012820513 261:0.083974359 262:0.22478632 263:0.051282051 264:0.074145299 265:0.078632479 266:0.1 267:0.23568376 268:0.13354701 269:0.012820513 270:0.0051282051 271:0.031623932 272:0.38162393 273:0.25619658 274:0.15405983 275:0.11645299 276:0.046581197 277:0.0066239316 278:0.0023504274 279:0.0027777778 280:0.0017094017 281:0.084615385 282:0.42200855 283:0.10641026 284:0.25021368 285:0.10320513 286:0.023290598 287:0.0044871795 288:0.0019230769 289:0.0025641026 290:0.0012820513 291:0.083974359 292:0.22478632 293:0.051282051 294:0.074145299 295:0.078632479 296:0.1 297:0.23568376 298:0.13354701 299:0.012820513 300:0.0051282051 301:0.0023504274 302:0.022863248 303:0.42457265 304:0.35576923 305:0.058333333 306:0.045512821 307:0.028846154 308:0.030769231 309:0.021794872 310:0.0091880342 311:0.022649573 312:0.48504274 313:0.23910256 314:0.078205128 315:0.047649573 316:0.030769231 317:0.040598291 318:0.032478632 319:0.020726496 320:0.0027777778 321:0.28867521 322:0.26944444 323:0.043803419 324:0.050213675 325:0.049358974 326:0.073504274 327:0.078418803 328:0.055769231 329:0.046367521 330:0.044444444 331:0.0023504274 332:0.022863248 333:0.42457265 334:0.35576923 335:0.058333333 336:0.045512821 337:0.028846154 338:0.030769231 339:0.021794872 340:0.0091880342 341:0.022649573 342:0.48504274 343:0.23910256 344:0.078205128 345:0.047649573 346:0.030769231 347:0.040598291 348:0.032478632 349:0.020726496 350:0.0027777778 351:0.28867521 352:0.26944444 353:0.043803419 354:0.050213675 355:0.049358974 356:0.073504274 357:0.078418803 358:0.055769231 359:0.046367521 360:0.044444444 
0.2990831490058911 1:0.037319763 2:0.40458015 3:0.42620865 4:0.098600509 5:0.023960984 6:0.0050890585 7:0.0014843087 8:0.00084817642 9:0.0010602205 10:0.00084817642 11:0.16878711 12:0.46882952 13:0.24236641 14:0.059160305 15:0.042620865 16:0.012510602 17:0.0019083969 18:0.0014843087 19:0.0012722646 20:0.0010602205 21:0.21522477 22:0.17684478 23:0.11365564 24:0.11068702 25:0.070398643 26:0.068278202 27:0.10474979 28:0.095631891 29:0.040712468 30:0.0038167939 31:0.037319763 32:0.40458015 33:0.42620865 34:0.098600509 35:0.023960984 36:0.0050890585 37:0.0014843087 38:0.00084817642 39:0.0010602205 40:0.00084817642 41:0.16878711 42:0.46882952 43:0.24236641 44:0.059160305 45:0.042620865 46:0.012510602 47:0.0019083969 48:0.0014843087 49:0.0012722646 50:0.0010602205 51:0.21522477 52:0.17684478 53:0.11365564 54:0.11068702 55:0.070398643 56:0.068278202 57:0.10474979 58:0.095631891 59:0.040712468 60:0.0038167939 61:0.0016963528 62:0.0023324852 63:0.040924512 64:0.057463953 65:0.22540288 66:0.16072943 67:0.35220526 68:0.097540288 69:0.053859203 70:0.0078456319 71:0.0048770144 72:0.015055131 73:0.050678541 74:0.37234945 75:0.24533503 76:0.18150975 77:0.11429177 78:0.010178117 79:0.0036047498 80:0.0021204411 81:0.06870229 82:0.04749788 83:0.10474979 84:0.19826124 85:0.22921968 86:0.14821883 87:0.12892282 88:0.044529262 89:0.018447837 90:0.011450382 91:0.0016963528 92:0.0023324852 93:0.040924512 94:0.057463953 95:0.22540288 96:0.16072943 97:0.35220526 98:0.097540288 99:0.053859203 100:0.0078456319 101:0.0048770144 102:0.015055131 103:0.050678541 104:0.37234945 105:0.24533503 106:0.18150975 107:0.11429177 108:0.010178117 109:0.0036047498 110:0.0021204411 111:0.06870229 112:0.04749788 113:0.10474979 114:0.19826124 115:0.22921968 116:0.14821883 117:0.12892282 118:0.044529262 119:0.018447837 120:0.011450382 121:0.012298558 122:0.051950806 123:0.22879559 124:0.18681086 125:0.18723494 126:0.29092451 127:0.024385072 128:0.015691264 129:0.00084817642 130:0.0010602205 131:0.00063613232 132:0.0021204411 133:0.12531807 134:0.17705683 135:0.20822731 136:0.41793893 137:0.052374894 138:0.013570823 139:0.0016963528 140:0.0010602205 141:0.0023324852 142:0.047073791 143:0.076759966 144:0.067854114 145:0.10114504 146:0.1851145 147:0.20631891 148:0.2192536 149:0.057675997 150:0.036471586 151:0.012298558 152:0.051950806 153:0.22879559 154:0.18681086 155:0.18723494 156:0.29092451 157:0.024385072 158:0.015691264 159:0.00084817642 160:0.0010602205 161:0.00063613232 162:0.0021204411 163:0.12531807 164:0.17705683 165:0.20822731 166:0.41793893 167:0.052374894 168:0.013570823 169:0.0016963528 170:0.0010602205 171:0.0023324852 172:0.047073791 173:0.076759966 174:0.067854114 175:0.10114504 176:0.1851145 177:0.20631891 178:0.2192536 179:0.057675997 180:0.036471586 181:0.044741306 182:0.41560645 183:0.17430025 184:0.082697201 185:0.019296014 186:0.030958439 187:0.084605598 188:0.087150127 189:0.049830365 190:0.010814249 191:0.23430874 192:0.22328244 193:0.12256149 194:0.1278626 195:0.027989822 196:0.021416455 197:0.077184054 198:0.082697201 199:0.071034775 200:0.011662426 201:0.11471586 202:0.12171332 203:0.096904156 204:0.034351145 205:0.030746395 206:0.11407973 207:0.19020356 208:0.042620865 209:0.038167939 210:0.21649703 211:0.044741306 212:0.41560645 213:0.17430025 214:0.082697201 215:0.019296014 216:0.030958439 217:0.084605598 218:0.087150127 219:0.049830365 220:0.010814249 221:0.23430874 222:0.22328244 223:0.12256149 224:0.1278626 225:0.027989822 226:0.021416455 227:0.077184054 228:0.082697201 229:0.071034775 230:0.011662426 231:0.11471586 232:0.12171332 233:0.096904156 234:0.034351145 235:0.030746395 236:0.11407973 237:0.19020356 238:0.042620865 239:0.038167939 240:0.21649703 241:0.021416455 242:0.2158609 243:0.30216285 244:0.15309584 245:0.14228159 246:0.089694656 247:0.043681086 248:0.025021204 249:0.0059372349 250:0.00084817642 251:0.15691264 252:0.36513995 253:0.055131467 254:0.15161154 255:0.097540288 256:0.12171332 257:0.036471586 258:0.012722646 259:0.0021204411 260:0.00063613232 261:0.089906701 262:0.221162 263:0.044529262 264:0.06764207 265:0.066793893 266:0.051950806 267:0.13231552 268:0.22709924 269:0.090754877 270:0.0078456319 271:0.021416455 272:0.2158609 273:0.30216285 274:0.15309584 275:0.14228159 276:0.089694656 277:0.043681086 278:0.025021204 279:0.0059372349 280:0.00084817642 281:0.15691264 282:0.36513995 283:0.055131467 284:0.15161154 285:0.097540288 286:0.12171332 287:0.036471586 288:0.012722646 289:0.0021204411 290:0.00063613232 291:0.089906701 292:0.221162 293:0.044529262 294:0.06764207 295:0.066793893 296:0.051950806 297:0.13231552 298:0.22709924 299:0.090754877 300:0.0078456319 301:0.012510602 302:0.34139101 303:0.42536047 304:0.071246819 305:0.042832909 306:0.03201866 307:0.023536896 308:0.033715013 309:0.012510602 310:0.0048770144 311:0.13973707 312:0.49766751 313:0.14906701 314:0.060644614 315:0.042832909 316:0.023960984 317:0.032230704 318:0.031382528 319:0.016963528 320:0.0055131467 321:0.38040712 322:0.20292621 323:0.050678541 324:0.043469042 325:0.04749788 326:0.090754877 327:0.062977099 328:0.042620865 329:0.063189143 330:0.01547922 331:0.012510602 332:0.34139101 333:0.42536047 334:0.071246819 335:0.042832909 336:0.03201866 337:0.023536896 338:0.033715013 339:0.012510602 340:0.0048770144 341:0.13973707 342:0.49766751 343:0.14906701 344:0.060644614 345:0.042832909 346:0.023960984 347:0.032230704 348:0.031382528 349:0.016963528 350:0.0055131467 351:0.38040712 352:0.20292621 353:0.050678541 354:0.043469042 355:0.04749788 356:0.090754877 357:0.062977099 358:0.042620865 359:0.063189143 360:0.01547922 
0.374014458122602 1:0.019214703 2:0.29030911 3:0.44820384 4:0.1773183 5:0.048036759 6:0.0081453634 7:0.0043859649 8:0.0018796992 9:0.0014619883 10:0.0010442774 11:0.13408521 12:0.57080201 13:0.18421053 14:0.059314954 15:0.040517962 16:0.0064745196 17:0.0012531328 18:0.0014619883 19:0.0012531328 20:0.00062656642 21:0.095446951 22:0.21157059 23:0.14933166 24:0.11111111 25:0.087301587 26:0.078738513 27:0.10756057 28:0.1163325 29:0.036340852 30:0.0062656642 31:0.019214703 32:0.29030911 33:0.44820384 34:0.1773183 35:0.048036759 36:0.0081453634 37:0.0043859649 38:0.0018796992 39:0.0014619883 40:0.0010442774 41:0.13408521 42:0.57080201 43:0.18421053 44:0.059314954 45:0.040517962 46:0.0064745196 47:0.0012531328 48:0.0014619883 49:0.0012531328 50:0.00062656642 51:0.095446951 52:0.21157059 53:0.14933166 54:0.11111111 55:0.087301587 56:0.078738513 57:0.10756057 58:0.1163325 59:0.036340852 60:0.0062656642 61:0.00083542189 62:0.0018796992 63:0.013784461 64:0.050334169 65:0.19778613 66:0.42209691 67:0.22076023 68:0.076441103 69:0.012322473 70:0.0037593985 71:0.003550543 72:0.020258981 73:0.041144528 74:0.13596491 75:0.19193818 76:0.4160401 77:0.12385129 78:0.049498747 79:0.013784461 80:0.003968254 81:0.046365915 82:0.062030075 83:0.11236424 84:0.17063492 85:0.23245614 86:0.17690058 87:0.10547201 88:0.062447786 89:0.021094403 90:0.010233918 91:0.00083542189 92:0.0018796992 93:0.013784461 94:0.050334169 95:0.19778613 96:0.42209691 97:0.22076023 98:0.076441103 99:0.012322473 100:0.0037593985 101:0.003550543 102:0.020258981 103:0.041144528 104:0.13596491 105:0.19193818 106:0.4160401 107:0.12385129 108:0.049498747 109:0.013784461 110:0.003968254 111:0.046365915 112:0.062030075 113:0.11236424 114:0.17063492 115:0.23245614 116:0.17690058 117:0.10547201 118:0.062447786 119:0.021094403 120:0.010233918 121:0.00083542189 122:0.00041771094 123:0.011278195 124:0.063700919 125:0.12301587 126:0.2997076 127:0.36173768 128:0.11319967 129:0.023809524 130:0.0022974102 131:0.0018796992 132:0.0031328321 133:0.037176274 134:0.27568922 135:0.45509607 136:0.20467836 137:0.018796992 138:0.0025062657 139:0.00020885547 140:0.00083542189 141:0.0016708438 142:0.0031328321 143:0.023391813 144:0.1163325 145:0.070802005 146:0.16207185 147:0.25522139 148:0.31725146 149:0.045530493 150:0.0045948204 151:0.00083542189 152:0.00041771094 153:0.011278195 154:0.063700919 155:0.12301587 156:0.2997076 157:0.36173768 158:0.11319967 159:0.023809524 160:0.0022974102 161:0.0018796992 162:0.0031328321 163:0.037176274 164:0.27568922 165:0.45509607 166:0.20467836 167:0.018796992 168:0.0025062657 169:0.00020885547 170:0.00083542189 171:0.0016708438 172:0.0031328321 173:0.023391813 174:0.1163325 175:0.070802005 176:0.16207185 177:0.25522139 178:0.31725146 179:0.045530493 180:0.0045948204 181:0.020467836 182:0.33312448 183:0.27005013 184:0.096282373 185:0.021094403 186:0.044903926 187:0.10254804 188:0.06871345 189:0.037593985 190:0.0052213868 191:0.38575606 192:0.13429407 193:0.1468254 194:0.065789474 195:0.016708438 196:0.043024227 197:0.12364244 198:0.059732665 199:0.021929825 200:0.0022974102 201:0.11946533 202:0.12635756 203:0.1031746 204:0.031119465 205:0.049916458 206:0.11904762 207:0.1697995 208:0.031746032 209:0.09502924 210:0.15434419 211:0.020467836 212:0.33312448 213:0.27005013 214:0.096282373 215:0.021094403 216:0.044903926 217:0.10254804 218:0.06871345 219:0.037593985 220:0.0052213868 221:0.38575606 222:0.13429407 223:0.1468254 224:0.065789474 225:0.016708438 226:0.043024227 227:0.12364244 228:0.059732665 229:0.021929825 230:0.0022974102 231:0.11946533 232:0.12635756 233:0.1031746 234:0.031119465 235:0.049916458 236:0.11904762 237:0.1697995 238:0.031746032 239:0.09502924 240:0.15434419 241:0.012740184 242:0.21052632 243:0.3719716 244:0.15998329 245:0.12677527 246:0.070802005 247:0.027777778 248:0.013157895 249:0.0048036759 250:0.0014619883 251:0.056808688 252:0.43943191 253:0.10902256 254:0.14807853 255:0.17815372 256:0.042606516 257:0.020676692 258:0.0020885547 259:0.0027151211 260:0.00041771094 261:0.081871345 262:0.24164578 263:0.049707602 264:0.060150376 265:0.072681704 266:0.074352548 267:0.17293233 268:0.22619048 269:0.016290727 270:0.0041771094 271:0.012740184 272:0.21052632 273:0.3719716 274:0.15998329 275:0.12677527 276:0.070802005 277:0.027777778 278:0.013157895 279:0.0048036759 280:0.0014619883 281:0.056808688 282:0.43943191 283:0.10902256 284:0.14807853 285:0.17815372 286:0.042606516 287:0.020676692 288:0.0020885547 289:0.0027151211 290:0.00041771094 291:0.081871345 292:0.24164578 293:0.049707602 294:0.060150376 295:0.072681704 296:0.074352548 297:0.17293233 298:0.22619048 299:0.016290727 300:0.0041771094 301:0.016708438 302:0.30492899 303:0.38408521 304:0.12614871 305:0.039891395 306:0.034252297 307:0.040100251 308:0.031537176 309:0.018170426 310:0.0041771094 311:0.053884712 312:0.46929825 313:0.24101921 314:0.074979114 315:0.032372598 316:0.03968254 317:0.038638262 318:0.027777778 319:0.01754386 320:0.0048036759 321:0.29741019 322:0.27736007 323:0.038011696 324:0.056808688 325:0.039473684 326:0.080618212 327:0.069757728 328:0.057435255 329:0.060568087 330:0.022556391 331:0.016708438 332:0.30492899 333:0.38408521 334:0.12614871 335:0.039891395 336:0.034252297 337:0.040100251 338:0.031537176 339:0.018170426 340:0.0041771094 341:0.053884712 342:0.46929825 343:0.24101921 344:0.074979114 345:0.032372598 346:0.03968254 347:0.038638262 348:0.027777778 349:0.01754386 350:0.0048036759 351:0.29741019 352:0.27736007 353:0.038011696 354:0.056808688 355:0.039473684 356:0.080618212 357:0.069757728 358:0.057435255 359:0.060568087 360:0.022556391 
0.1650453702976571 1:0.0066833751 2:0.15392648 3:0.52631579 4:0.22953216 5:0.058061821 6:0.019423559 7:0.003550543 8:0.0018796992 9:0.00020885547 10:0.00041771094 11:0.15100251 12:0.50250627 13:0.20008354 14:0.077276525 15:0.046157059 16:0.017126149 17:0.0020885547 18:0.0012531328 19:0.0012531328 20:0.0012531328 21:0.20050125 22:0.16771094 23:0.12949039 24:0.1031746 25:0.074770259 26:0.073517126 27:0.10296575 28:0.10442774 29:0.035296575 30:0.0081453634 31:0.0066833751 32:0.15392648 33:0.52631579 34:0.22953216 35:0.058061821 36:0.019423559 37:0.003550543 38:0.0018796992 39:0.00020885547 40:0.00041771094 41:0.15100251 42:0.50250627 43:0.20008354 44:0.077276525 45:0.046157059 46:0.017126149 47:0.0020885547 48:0.0012531328 49:0.0012531328 50:0.0012531328 51:0.20050125 52:0.16771094 53:0.12949039 54:0.1031746 55:0.074770259 56:0.073517126 57:0.10296575 58:0.10442774 59:0.035296575 60:0.0081453634 61:0.00020885547 62:0.0010442774 63:0.0089807853 64:0.054093567 65:0.19987469 66:0.32477026 67:0.27401838 68:0.11173768 69:0.022974102 70:0.0022974102 71:0.0025062657 72:0.016917293 73:0.05304929 74:0.14264829 75:0.18859649 76:0.43880535 77:0.10568087 78:0.041562239 79:0.007518797 80:0.0027151211 81:0.067878028 82:0.052631579 83:0.10839599 84:0.25605681 85:0.1679198 86:0.16269841 87:0.11027569 88:0.038638262 89:0.023182957 90:0.012322473 91:0.00020885547 92:0.0010442774 93:0.0089807853 94:0.054093567 95:0.19987469 96:0.32477026 97:0.27401838 98:0.11173768 99:0.022974102 100:0.0022974102 101:0.0025062657 102:0.016917293 103:0.05304929 104:0.14264829 105:0.18859649 106:0.43880535 107:0.10568087 108:0.041562239 109:0.007518797 110:0.0027151211 111:0.067878028 112:0.052631579 113:0.10839599 114:0.25605681 115:0.1679198 116:0.16269841 117:0.11027569 118:0.038638262 119:0.023182957 120:0.012322473 121:0.0022974102 122:0.038847118 123:0.18588137 124:0.31746032 125:0.34878864 126:0.090016708 127:0.012949039 128:0.0027151211 129:0.00020885547 130:0.00083542189 131:0.00062656642 132:0.018379282 133:0.11403509 134:0.22431078 135:0.43400167 136:0.18776107 137:0.013784461 138:0.0054302423 139:0.0010442774 140:0.00062656642 141:0.00041771094 142:0.0096073517 143:0.10233918 144:0.060776942 145:0.10254804 146:0.20551378 147:0.16332498 148:0.28550543 149:0.049916458 150:0.020050125 151:0.0022974102 152:0.038847118 153:0.18588137 154:0.31746032 155:0.34878864 156:0.090016708 157:0.012949039 158:0.0027151211 159:0.00020885547 160:0.00083542189 161:0.00062656642 162:0.018379282 163:0.11403509 164:0.22431078 165:0.43400167 166:0.18776107 167:0.013784461 168:0.0054302423 169:0.0010442774 170:0.00062656642 171:0.00041771094 172:0.0096073517 173:0.10233918 174:0.060776942 175:0.10254804 176:0.20551378 177:0.16332498 178:0.28550543 179:0.049916458 180:0.020050125 181:0.0056390977 182:0.21094403 183:0.3433584 184:0.12614871 185:0.043024227 186:0.049498747 187:0.11048454 188:0.065998329 189:0.038220551 190:0.0066833751 191:0.30827068 192:0.17335004 193:0.15559733 194:0.082706767 195:0.019632414 196:0.03091061 197:0.10338346 198:0.084586466 199:0.035714286 200:0.0058479532 201:0.106934 202:0.12969925 203:0.099206349 204:0.029657477 205:0.043024227 206:0.1219716 207:0.18170426 208:0.030284043 209:0.090434419 210:0.16708438 211:0.0056390977 212:0.21094403 213:0.3433584 214:0.12614871 215:0.043024227 216:0.049498747 217:0.11048454 218:0.065998329 219:0.038220551 220:0.0066833751 221:0.30827068 222:0.17335004 223:0.15559733 224:0.082706767 225:0.019632414 226:0.03091061 227:0.10338346 228:0.084586466 229:0.035714286 230:0.0058479532 231:0.106934 232:0.12969925 233:0.099206349 234:0.029657477 235:0.043024227 236:0.1219716 237:0.18170426 238:0.030284043 239:0.090434419 240:0.16708438 241:0.023182957 242:0.31161236 243:0.33103592 244:0.14995823 245:0.12113617 246:0.038011696 247:0.019214703 248:0.0033416876 249:0.0022974102 250:0.00020885547 251:0.055764411 252:0.45843776 253:0.12614871 254:0.18755221 255:0.12886383 256:0.034043442 257:0.0050125313 258:0.0025062657 259:0.0014619883 260:0.00020885547 261:0.077903091 262:0.2443609 263:0.04427736 264:0.062238931 265:0.079573935 266:0.10526316 267:0.25710109 268:0.11842105 269:0.0085630744 270:0.0022974102 271:0.023182957 272:0.31161236 273:0.33103592 274:0.14995823 275:0.12113617 276:0.038011696 277:0.019214703 278:0.0033416876 279:0.0022974102 280:0.00020885547 281:0.055764411 282:0.45843776 283:0.12614871 284:0.18755221 285:0.12886383 286:0.034043442 287:0.0050125313 288:0.0025062657 289:0.0014619883 290:0.00020885547 291:0.077903091 292:0.2443609 293:0.04427736 294:0.062238931 295:0.079573935 296:0.10526316 297:0.25710109 298:0.11842105 299:0.0085630744 300:0.0022974102 301:0.031746032 302:0.40643275 303:0.34899749 304:0.057435255 305:0.037385129 306:0.039055973 307:0.04887218 308:0.021929825 309:0.0050125313 310:0.0031328321 311:0.0045948204 312:0.45655806 313:0.28884712 314:0.083124478 315:0.042815372 316:0.042815372 317:0.053467001 318:0.018170426 319:0.0079365079 320:0.0016708438 321:0.30388471 322:0.25167084 323:0.044068505 324:0.05304929 325:0.045321637 326:0.079991646 327:0.069131161 328:0.056390977 329:0.060776942 330:0.035714286 331:0.031746032 332:0.40643275 333:0.34899749 334:0.057435255 335:0.037385129 336:0.039055973 337:0.04887218 338:0.021929825 339:0.0050125313 340:0.0031328321 341:0.0045948204 342:0.45655806 343:0.28884712 344:0.083124478 345:0.042815372 346:0.042815372 347:0.053467001 348:0.018170426 349:0.0079365079 350:0.0016708438 351:0.30388471 352:0.25167084 353:0.044068505 354:0.05304929 355:0.045321637 356:0.079991646 357:0.069131161 358:0.056390977 359:0.060776942 360:0.035714286 
0.05743711827249359 1:0.00021367521 2:0.011111111 3:0.31965812 4:0.46858974 5:0.1508547 6:0.035897436 7:0.0085470085 8:0.002991453 9:0.00085470085 10:0.0012820513 11:0.0019230769 12:0.088034188 13:0.61025641 14:0.18910256 15:0.075213675 16:0.023076923 17:0.0051282051 18:0.0034188034 19:0.002991453 20:0.00085470085 21:0.027564103 22:0.25918803 23:0.19337607 24:0.12051282 25:0.074145299 26:0.077136752 27:0.13867521 28:0.085897436 29:0.016666667 30:0.0068376068 31:0.00021367521 32:0.011111111 33:0.31965812 34:0.46858974 35:0.1508547 36:0.035897436 37:0.0085470085 38:0.002991453 39:0.00085470085 40:0.0012820513 41:0.0019230769 42:0.088034188 43:0.61025641 44:0.18910256 45:0.075213675 46:0.023076923 47:0.0051282051 48:0.0034188034 49:0.002991453 50:0.00085470085 51:0.027564103 52:0.25918803 53:0.19337607 54:0.12051282 55:0.074145299 56:0.077136752 57:0.13867521 58:0.085897436 59:0.016666667 60:0.0068376068 61:0.0010683761 62:0.0019230769 63:0.0064102564 64:0.034615385 65:0.13931624 66:0.27692308 67:0.30128205 68:0.18717949 69:0.042735043 70:0.0085470085 71:0.0036324786 72:0.0055555556 73:0.093589744 74:0.14059829 75:0.40918803 76:0.19529915 77:0.13290598 78:0.011752137 79:0.005982906 80:0.0014957265 81:0.047008547 82:0.072649573 83:0.13311966 84:0.22713675 85:0.17115385 86:0.13803419 87:0.11709402 88:0.041025641 89:0.030555556 90:0.022222222 91:0.0010683761 92:0.0019230769 93:0.0064102564 94:0.034615385 95:0.13931624 96:0.27692308 97:0.30128205 98:0.18717949 99:0.042735043 100:0.0085470085 101:0.0036324786 102:0.0055555556 103:0.093589744 104:0.14059829 105:0.40918803 106:0.19529915 107:0.13290598 108:0.011752137 109:0.005982906 110:0.0014957265 111:0.047008547 112:0.072649573 113:0.13311966 114:0.22713675 115:0.17115385 116:0.13803419 117:0.11709402 118:0.041025641 119:0.030555556 120:0.022222222 121:0.0034188034 122:0.0085470085 123:0.019871795 124:0.071581197 125:0.079059829 126:0.29850427 127:0.24551282 128:0.24081197 129:0.0085470085 130:0.024145299 131:0.011965812 132:0.026068376 133:0.078632479 134:0.15790598 135:0.22435897 136:0.42457265 137:0.052350427 138:0.021794872 139:0.0012820513 140:0.0010683761 141:0.012393162 142:0.085470085 143:0.051068376 144:0.044444444 145:0.088675214 146:0.18717949 147:0.30021368 148:0.18034188 149:0.029273504 150:0.020940171 151:0.0034188034 152:0.0085470085 153:0.019871795 154:0.071581197 155:0.079059829 156:0.29850427 157:0.24551282 158:0.24081197 159:0.0085470085 160:0.024145299 161:0.011965812 162:0.026068376 163:0.078632479 164:0.15790598 165:0.22435897 166:0.42457265 167:0.052350427 168:0.021794872 169:0.0012820513 170:0.0010683761 171:0.012393162 172:0.085470085 173:0.051068376 174:0.044444444 175:0.088675214 176:0.18717949 177:0.30021368 178:0.18034188 179:0.029273504 180:0.020940171 181:0.0040598291 182:0.050641026 183:0.43397436 184:0.17115385 185:0.051709402 186:0.022649573 187:0.08482906 188:0.12713675 189:0.051068376 190:0.0027777778 191:0.40641026 192:0.13354701 193:0.12735043 194:0.044871795 195:0.017094017 196:0.093803419 197:0.11431624 198:0.052136752 199:0.0098290598 200:0.00064102564 201:0.18098291 202:0.1017094 203:0.082692308 204:0.033974359 205:0.054059829 206:0.097008547 207:0.1517094 208:0.023504274 209:0.11132479 210:0.16303419 211:0.0040598291 212:0.050641026 213:0.43397436 214:0.17115385 215:0.051709402 216:0.022649573 217:0.08482906 218:0.12713675 219:0.051068376 220:0.0027777778 221:0.40641026 222:0.13354701 223:0.12735043 224:0.044871795 225:0.017094017 226:0.093803419 227:0.11431624 228:0.052136752 229:0.0098290598 230:0.00064102564 231:0.18098291 232:0.1017094 233:0.082692308 234:0.033974359 235:0.054059829 236:0.097008547 237:0.1517094 238:0.023504274 239:0.11132479 240:0.16303419 241:0.1042735 242:0.44102564 243:0.23952991 244:0.13952991 245:0.033760684 246:0.015811966 247:0.0091880342 248:0.0072649573 249:0.0053418803 250:0.0042735043 251:0.077777778 252:0.46559829 253:0.19700855 254:0.17136752 255:0.048717949 256:0.014316239 257:0.0064102564 258:0.013034188 259:0.0038461538 260:0.0019230769 261:0.090384615 262:0.22371795 263:0.070299145 264:0.072435897 265:0.069871795 266:0.19935897 267:0.22222222 268:0.027991453 269:0.008974359 270:0.01474359 271:0.1042735 272:0.44102564 273:0.23952991 274:0.13952991 275:0.033760684 276:0.015811966 277:0.0091880342 278:0.0072649573 279:0.0053418803 280:0.0042735043 281:0.077777778 282:0.46559829 283:0.19700855 284:0.17136752 285:0.048717949 286:0.014316239 287:0.0064102564 288:0.013034188 289:0.0038461538 290:0.0019230769 291:0.090384615 292:0.22371795 293:0.070299145 294:0.072435897 295:0.069871795 296:0.19935897 297:0.22222222 298:0.027991453 299:0.008974359 300:0.01474359 301:0.00042735043 302:0.025 303:0.49337607 304:0.26773504 305:0.067948718 306:0.051923077 307:0.036752137 308:0.038461538 309:0.017521368 310:0.00085470085 311:0.044444444 312:0.41559829 313:0.26666667 314:0.043589744 315:0.06474359 316:0.057051282 317:0.025641026 318:0.053418803 319:0.021794872 320:0.0070512821 321:0.15021368 322:0.35961538 323:0.063034188 324:0.038461538 325:0.056196581 326:0.048717949 327:0.094230769 328:0.055769231 329:0.073717949 330:0.060042735 331:0.00042735043 332:0.025 333:0.49337607 334:0.26773504 335:0.067948718 336:0.051923077 337:0.036752137 338:0.038461538 339:0.017521368 340:0.00085470085 341:0.044444444 342:0.41559829 343:0.26666667 344:0.043589744 345:0.06474359 346:0.057051282 347:0.025641026 348:0.053418803 349:0.021794872 350:0.0070512821 351:0.15021368 352:0.35961538 353:0.063034188 354:0.038461538 355:0.056196581 356:0.048717949 357:0.094230769 358:0.055769231 359:0.073717949 360:0.060042735 
1 1:0.0012919897 2:0.0090439276 3:0.39061154 4:0.40762274 5:0.15202412 6:0.024332472 7:0.0068906115 8:0.0036606374 9:0.0034453058 10:0.0010766581 11:0.0010766581 12:0.014427218 13:0.5374677 14:0.26830319 15:0.099267873 16:0.05620155 17:0.010551249 18:0.0055986219 19:0.0045219638 20:0.0025839793 21:0.040697674 22:0.26959518 23:0.18927649 24:0.10034453 25:0.082256675 26:0.084840655 27:0.14685616 28:0.066537468 29:0.012704565 30:0.0068906115 31:0.0012919897 32:0.0090439276 33:0.39061154 34:0.40762274 35:0.15202412 36:0.024332472 37:0.0068906115 38:0.0036606374 39:0.0034453058 40:0.0010766581 41:0.0010766581 42:0.014427218 43:0.5374677 44:0.26830319 45:0.099267873 46:0.05620155 47:0.010551249 48:0.0055986219 49:0.0045219638 50:0.0025839793 51:0.040697674 52:0.26959518 53:0.18927649 54:0.10034453 55:0.082256675 56:0.084840655 57:0.14685616 58:0.066537468 59:0.012704565 60:0.0068906115 61:0.00021533161 62:0.0010766581 63:0.014211886 64:0.037037037 65:0.16063738 66:0.29758829 67:0.19358312 68:0.22782084 69:0.062015504 70:0.0058139535 71:0.022394488 72:0.068906115 73:0.13544358 74:0.18281654 75:0.23105082 76:0.18647717 77:0.10206718 78:0.048018949 79:0.018087855 80:0.0047372954 81:0.051033592 82:0.081180017 83:0.13092162 84:0.27433247 85:0.15245478 86:0.14125754 87:0.087424634 88:0.035529716 89:0.030361757 90:0.015503876 91:0.00021533161 92:0.0010766581 93:0.014211886 94:0.037037037 95:0.16063738 96:0.29758829 97:0.19358312 98:0.22782084 99:0.062015504 100:0.0058139535 101:0.022394488 102:0.068906115 103:0.13544358 104:0.18281654 105:0.23105082 106:0.18647717 107:0.10206718 108:0.048018949 109:0.018087855 110:0.0047372954 111:0.051033592 112:0.081180017 113:0.13092162 114:0.27433247 115:0.15245478 116:0.14125754 117:0.087424634 118:0.035529716 119:0.030361757 120:0.015503876 121:0.0034453058 122:0.011197244 123:0.048018949 124:0.18540052 125:0.20004307 126:0.25602929 127:0.23966408 128:0.025624462 129:0.02540913 130:0.0051679587 131:0.0023686477 132:0.0023686477 133:0.023901809 134:0.093453919 135:0.14211886 136:0.26593454 137:0.28143842 138:0.12855297 139:0.046080965 140:0.013781223 141:0.040267011 142:0.090008613 143:0.021533161 144:0.031869078 145:0.10594315 146:0.22695952 147:0.20801034 148:0.18152455 149:0.054263566 150:0.039621016 151:0.0034453058 152:0.011197244 153:0.048018949 154:0.18540052 155:0.20004307 156:0.25602929 157:0.23966408 158:0.025624462 159:0.02540913 160:0.0051679587 161:0.0023686477 162:0.0023686477 163:0.023901809 164:0.093453919 165:0.14211886 166:0.26593454 167:0.28143842 168:0.12855297 169:0.046080965 170:0.013781223 171:0.040267011 172:0.090008613 173:0.021533161 174:0.031869078 175:0.10594315 176:0.22695952 177:0.20801034 178:0.18152455 179:0.054263566 180:0.039621016 181:0.039836348 182:0.44315245 183:0.16494401 184:0.048234281 185:0.019810508 186:0.05749354 187:0.11391042 188:0.074720069 189:0.031653747 190:0.0062446167 191:0.33333333 192:0.18583118 193:0.11347976 194:0.067614126 195:0.013135228 196:0.034668389 197:0.13221361 198:0.067614126 199:0.046296296 200:0.0058139535 201:0.18906115 202:0.097760551 203:0.080103359 204:0.03079242 205:0.048234281 206:0.10551249 207:0.14556417 208:0.02002584 209:0.11089578 210:0.17204996 211:0.039836348 212:0.44315245 213:0.16494401 214:0.048234281 215:0.019810508 216:0.05749354 217:0.11391042 218:0.074720069 219:0.031653747 220:0.0062446167 221:0.33333333 222:0.18583118 223:0.11347976 224:0.067614126 225:0.013135228 226:0.034668389 227:0.13221361 228:0.067614126 229:0.046296296 230:0.0058139535 231:0.18906115 232:0.097760551 233:0.080103359 234:0.03079242 235:0.048234281 236:0.10551249 237:0.14556417 238:0.02002584 239:0.11089578 240:0.17204996 241:0.031438415 242:0.35120586 243:0.31115418 244:0.20241171 245:0.04414298 246:0.022394488 247:0.013565891 248:0.0066752799 249:0.012704565 250:0.0043066322 251:0.14319552 252:0.39341085 253:0.17420327 254:0.18217054 255:0.057924203 256:0.016149871 257:0.0055986219 258:0.0045219638 259:0.017872524 260:0.004952627 261:0.087424634 262:0.22200689 263:0.066752799 264:0.065245478 265:0.07622739 266:0.19918174 267:0.22243755 268:0.029500431 269:0.010981912 270:0.020241171 271:0.031438415 272:0.35120586 273:0.31115418 274:0.20241171 275:0.04414298 276:0.022394488 277:0.013565891 278:0.0066752799 279:0.012704565 280:0.0043066322 281:0.14319552 282:0.39341085 283:0.17420327 284:0.18217054 285:0.057924203 286:0.016149871 287:0.0055986219 288:0.0045219638 289:0.017872524 290:0.004952627 291:0.087424634 292:0.22200689 293:0.066752799 294:0.065245478 295:0.07622739 296:0.19918174 297:0.22243755 298:0.029500431 299:0.010981912 300:0.020241171 301:0.00086132644 302:0.0010766581 303:0.10443583 304:0.49849268 305:0.1586994 306:0.086993971 307:0.063522825 308:0.043066322 309:0.033161068 310:0.0096899225 311:0.096468562 312:0.32170543 313:0.31438415 314:0.052325581 315:0.050602929 316:0.048018949 317:0.036175711 318:0.041774332 319:0.027347115 320:0.011197244 321:0.14341085 322:0.35314384 323:0.066106804 324:0.047588286 325:0.051033592 326:0.049741602 327:0.085271318 328:0.059216193 329:0.08957795 330:0.054909561 331:0.00086132644 332:0.0010766581 333:0.10443583 334:0.49849268 335:0.1586994 336:0.086993971 337:0.063522825 338:0.043066322 339:0.033161068 340:0.0096899225 341:0.096468562 342:0.32170543 343:0.31438415 344:0.052325581 345:0.050602929 346:0.048018949 347:0.036175711 348:0.041774332 349:0.027347115 350:0.011197244 351:0.14341085 352:0.35314384 353:0.066106804 354:0.047588286 355:0.051033592 356:0.049741602 357:0.085271318 358:0.059216193 359:0.08957795 360:0.054909561 
0.01943079484876573 1:0.0014957265 2:0.017307692 3:0.32393162 4:0.47008547 5:0.13782051 6:0.032692308 7:0.010470085 8:0.002991453 9:0.0021367521 10:0.0010683761 11:0.0040598291 12:0.21132479 13:0.48461538 14:0.19038462 15:0.073290598 16:0.026282051 17:0.0040598291 18:0.002991453 19:0.0014957265 20:0.0014957265 21:0.032264957 22:0.27713675 23:0.18675214 24:0.11880342 25:0.083760684 26:0.087820513 27:0.14145299 28:0.059188034 29:0.008974359 30:0.0038461538 31:0.0014957265 32:0.017307692 33:0.32393162 34:0.47008547 35:0.13782051 36:0.032692308 37:0.010470085 38:0.002991453 39:0.0021367521 40:0.0010683761 41:0.0040598291 42:0.21132479 43:0.48461538 44:0.19038462 45:0.073290598 46:0.026282051 47:0.0040598291 48:0.002991453 49:0.0014957265 50:0.0014957265 51:0.032264957 52:0.27713675 53:0.18675214 54:0.11880342 55:0.083760684 56:0.087820513 57:0.14145299 58:0.059188034 59:0.008974359 60:0.0038461538 61:0.0025641026 62:0.0072649573 63:0.048717949 64:0.18247863 65:0.32564103 66:0.27799145 67:0.11260684 68:0.036538462 69:0.0053418803 70:0.00085470085 71:0.002991453 72:0.021794872 73:0.075213675 74:0.33418803 75:0.21858974 76:0.16987179 77:0.14871795 78:0.016880342 79:0.010042735 80:0.0017094017 81:0.048931624 82:0.079059829 83:0.12350427 84:0.26666667 85:0.17692308 86:0.15149573 87:0.088888889 88:0.037179487 89:0.022008547 90:0.0053418803 91:0.0025641026 92:0.0072649573 93:0.048717949 94:0.18247863 95:0.32564103 96:0.27799145 97:0.11260684 98:0.036538462 99:0.0053418803 100:0.00085470085 101:0.002991453 102:0.021794872 103:0.075213675 104:0.33418803 105:0.21858974 106:0.16987179 107:0.14871795 108:0.016880342 109:0.010042735 110:0.0017094017 111:0.048931624 112:0.079059829 113:0.12350427 114:0.26666667 115:0.17692308 116:0.15149573 117:0.088888889 118:0.037179487 119:0.022008547 120:0.0053418803 121:0.019444444 122:0.022649573 123:0.061752137 124:0.25641026 125:0.21004274 126:0.18589744 127:0.18739316 128:0.020512821 129:0.013247863 130:0.022649573 131:0.0025641026 132:0.0049145299 133:0.026709402 134:0.091239316 135:0.16047009 136:0.23376068 137:0.28931624 138:0.1275641 139:0.05491453 140:0.0085470085 141:0.0079059829 142:0.027564103 143:0.094017094 144:0.032692308 145:0.068162393 146:0.21068376 147:0.27521368 148:0.20747863 149:0.061324786 150:0.014957265 151:0.019444444 152:0.022649573 153:0.061752137 154:0.25641026 155:0.21004274 156:0.18589744 157:0.18739316 158:0.020512821 159:0.013247863 160:0.022649573 161:0.0025641026 162:0.0049145299 163:0.026709402 164:0.091239316 165:0.16047009 166:0.23376068 167:0.28931624 168:0.1275641 169:0.05491453 170:0.0085470085 171:0.0079059829 172:0.027564103 173:0.094017094 174:0.032692308 175:0.068162393 176:0.21068376 177:0.27521368 178:0.20747863 179:0.061324786 180:0.014957265 181:0.02542735 182:0.41111111 183:0.20641026 184:0.050213675 185:0.028632479 186:0.075 187:0.10192308 188:0.073931624 189:0.025 190:0.0023504274 191:0.25405983 192:0.21709402 193:0.1474359 194:0.076709402 195:0.019230769 196:0.046581197 197:0.12863248 198:0.081837607 199:0.023504274 200:0.0049145299 201:0.15747863 202:0.1042735 203:0.092094017 204:0.03034188 205:0.040598291 206:0.099786325 207:0.16132479 208:0.030555556 209:0.084188034 210:0.19935897 211:0.02542735 212:0.41111111 213:0.20641026 214:0.050213675 215:0.028632479 216:0.075 217:0.10192308 218:0.073931624 219:0.025 220:0.0023504274 221:0.25405983 222:0.21709402 223:0.1474359 224:0.076709402 225:0.019230769 226:0.046581197 227:0.12863248 228:0.081837607 229:0.023504274 230:0.0049145299 231:0.15747863 232:0.1042735 233:0.092094017 234:0.03034188 235:0.040598291 236:0.099786325 237:0.16132479 238:0.030555556 239:0.084188034 240:0.19935897 241:0.041880342 242:0.24252137 243:0.36388889 244:0.17820513 245:0.098076923 246:0.035897436 247:0.019017094 248:0.0042735043 249:0.0096153846 250:0.0066239316 251:0.30128205 252:0.25405983 253:0.18717949 254:0.15705128 255:0.06025641 256:0.016025641 257:0.0064102564 258:0.0061965812 259:0.005982906 260:0.0055555556 261:0.09017094 262:0.22008547 263:0.061324786 264:0.074786325 265:0.068803419 266:0.17991453 267:0.24102564 268:0.041452991 269:0.0094017094 270:0.013034188 271:0.041880342 272:0.24252137 273:0.36388889 274:0.17820513 275:0.098076923 276:0.035897436 277:0.019017094 278:0.0042735043 279:0.0096153846 280:0.0066239316 281:0.30128205 282:0.25405983 283:0.18717949 284:0.15705128 285:0.06025641 286:0.016025641 287:0.0064102564 288:0.0061965812 289:0.005982906 290:0.0055555556 291:0.09017094 292:0.22008547 293:0.061324786 294:0.074786325 295:0.068803419 296:0.17991453 297:0.24102564 298:0.041452991 299:0.0094017094 300:0.013034188 301:0.0079059829 302:0.23910256 303:0.40277778 304:0.16260684 305:0.044017094 306:0.044230769 307:0.036111111 308:0.034615385 309:0.021367521 310:0.0072649573 311:0.11816239 312:0.51709402 313:0.098076923 314:0.079487179 315:0.032478632 316:0.044230769 317:0.049358974 318:0.029487179 319:0.02457265 320:0.0070512821 321:0.15705128 322:0.34978632 323:0.061752137 324:0.049145299 325:0.050213675 326:0.048504274 327:0.081837607 328:0.068803419 329:0.064102564 330:0.068803419 331:0.0079059829 332:0.23910256 333:0.40277778 334:0.16260684 335:0.044017094 336:0.044230769 337:0.036111111 338:0.034615385 339:0.021367521 340:0.0072649573 341:0.11816239 342:0.51709402 343:0.098076923 344:0.079487179 345:0.032478632 346:0.044230769 347:0.049358974 348:0.029487179 349:0.02457265 350:0.0070512821 351:0.15705128 352:0.34978632 353:0.061752137 354:0.049145299 355:0.050213675 356:0.048504274 357:0.081837607 358:0.068803419 359:0.064102564 360:0.068803419 
0.4334984908560013 1:0.49551282 2:0.41944444 3:0.036538462 4:0.027777778 5:0.013247863 6:0.0032051282 7:0.0021367521 8:0.0010683761 9:0.00064102564 10:0.00042735043 11:0.77799145 12:0.15961538 13:0.042948718 14:0.011538462 15:0.0038461538 16:0.00064102564 17:0.00042735043 18:0.0010683761 19:0.0014957265 20:0.00042735043 21:0.91047009 22:0.057905983 23:0.022863248 24:0.0038461538 25:0.00064102564 26:0.0014957265 27:0.00042735043 28:0.00021367521 29:0.00042735043 30:0.0017094017 31:0.49551282 32:0.41944444 33:0.036538462 34:0.027777778 35:0.013247863 36:0.0032051282 37:0.0021367521 38:0.0010683761 39:0.00064102564 40:0.00042735043 41:0.77799145 42:0.15961538 43:0.042948718 44:0.011538462 45:0.0038461538 46:0.00064102564 47:0.00042735043 48:0.0010683761 49:0.0014957265 50:0.00042735043 51:0.91047009 52:0.057905983 53:0.022863248 54:0.0038461538 55:0.00064102564 56:0.0014957265 57:0.00042735043 58:0.00021367521 59:0.00042735043 60:0.0017094017 61:0.0042735043 62:0.0091880342 63:0.068376068 64:0.13803419 65:0.29017094 66:0.14401709 67:0.13354701 68:0.13269231 69:0.079273504 70:0.00042735043 71:0.0047008547 72:0.023931624 73:0.16175214 74:0.19358974 75:0.13034188 76:0.17970085 77:0.17478632 78:0.064102564 79:0.026923077 80:0.04017094 81:0.046367521 82:0.095299145 83:0.24807692 84:0.27991453 85:0.12307692 86:0.091452991 87:0.057692308 88:0.005982906 89:0.026923077 90:0.025213675 91:0.0042735043 92:0.0091880342 93:0.068376068 94:0.13803419 95:0.29017094 96:0.14401709 97:0.13354701 98:0.13269231 99:0.079273504 100:0.00042735043 101:0.0047008547 102:0.023931624 103:0.16175214 104:0.19358974 105:0.13034188 106:0.17970085 107:0.17478632 108:0.064102564 109:0.026923077 110:0.04017094 111:0.046367521 112:0.095299145 113:0.24807692 114:0.27991453 115:0.12307692 116:0.091452991 117:0.057692308 118:0.005982906 119:0.026923077 120:0.025213675 121:0.051709402 123:0.062393162 124:0.060683761 125:0.3465812 126:0.16752137 127:0.14145299 128:0.10555556 129:0.052564103 130:0.011538462 131:0.031196581 132:0.029700855 134:0.33696581 136:0.22905983 137:0.20277778 138:0.08974359 139:0.045726496 140:0.03482906 141:0.031196581 142:0.031410256 143:0.0021367521 144:0.34850427 146:0.25726496 147:0.23397436 148:0.078205128 149:0.015811966 150:0.0014957265 151:0.051709402 153:0.062393162 154:0.060683761 155:0.3465812 156:0.16752137 157:0.14145299 158:0.10555556 159:0.052564103 160:0.011538462 161:0.031196581 162:0.029700855 164:0.33696581 166:0.22905983 167:0.20277778 168:0.08974359 169:0.045726496 170:0.03482906 171:0.031196581 172:0.031410256 173:0.0021367521 174:0.34850427 176:0.25726496 177:0.23397436 178:0.078205128 179:0.015811966 180:0.0014957265 181:0.13055556 182:0.073931624 183:0.16047009 184:0.026923077 185:0.10769231 186:0.11346154 187:0.098717949 188:0.15534188 189:0.10811966 190:0.024786325 191:0.12222222 192:0.23824786 193:0.015598291 194:0.075641026 195:0.12051282 196:0.097863248 197:0.13269231 198:0.062606838 199:0.12029915 200:0.014316239 201:0.12200855 202:0.23076923 203:0.024358974 204:0.068162393 205:0.12735043 206:0.048504274 207:0.16923077 208:0.075 209:0.082905983 210:0.051709402 211:0.13055556 212:0.073931624 213:0.16047009 214:0.026923077 215:0.10769231 216:0.11346154 217:0.098717949 218:0.15534188 219:0.10811966 220:0.024786325 221:0.12222222 222:0.23824786 223:0.015598291 224:0.075641026 225:0.12051282 226:0.097863248 227:0.13269231 228:0.062606838 229:0.12029915 230:0.014316239 231:0.12200855 232:0.23076923 233:0.024358974 234:0.068162393 235:0.12735043 236:0.048504274 237:0.16923077 238:0.075 239:0.082905983 240:0.051709402 241:0.028846154 242:0.3724359 243:0.10726496 244:0.047435897 245:0.13910256 246:0.16175214 247:0.052777778 248:0.070726496 249:0.014102564 250:0.0055555556 251:0.29081197 252:0.13717949 253:0.064529915 254:0.14145299 255:0.11602564 256:0.10064103 257:0.082905983 258:0.042094017 259:0.017735043 260:0.0066239316 261:0.22521368 262:0.25876068 263:0.062393162 264:0.13611111 265:0.10128205 266:0.066880342 267:0.082905983 268:0.042094017 269:0.017735043 270:0.0066239316 271:0.028846154 272:0.3724359 273:0.10726496 274:0.047435897 275:0.13910256 276:0.16175214 277:0.052777778 278:0.070726496 279:0.014102564 280:0.0055555556 281:0.29081197 282:0.13717949 283:0.064529915 284:0.14145299 285:0.11602564 286:0.10064103 287:0.082905983 288:0.042094017 289:0.017735043 290:0.0066239316 291:0.22521368 292:0.25876068 293:0.062393162 294:0.13611111 295:0.10128205 296:0.066880342 297:0.082905983 298:0.042094017 299:0.017735043 300:0.0066239316 301:0.0010683761 302:0.25641026 303:0.081837607 304:0.38782051 305:0.029273504 306:0.057905983 307:0.14786325 308:0.014957265 309:0.011538462 310:0.011324786 311:0.0010683761 312:0.49188034 313:0.12115385 314:0.089957265 315:0.052991453 316:0.083974359 317:0.11068376 318:0.047649573 319:0.00042735043 320:0.00021367521 321:0.00042735043 322:0.0079059829 323:0.31752137 324:0.30790598 325:0.057692308 326:0.09017094 327:0.125 328:0.029273504 329:0.063888889 330:0.00021367521 331:0.0010683761 332:0.25641026 333:0.081837607 334:0.38782051 335:0.029273504 336:0.057905983 337:0.14786325 338:0.014957265 339:0.011538462 340:0.011324786 341:0.0010683761 342:0.49188034 343:0.12115385 344:0.089957265 345:0.052991453 346:0.083974359 347:0.11068376 348:0.047649573 349:0.00042735043 350:0.00021367521 351:0.00042735043 352:0.0079059829 353:0.31752137 354:0.30790598 355:0.057692308 356:0.09017094 357:0.125 358:0.029273504 359:0.063888889 360:0.00021367521 
0.2203344478362962 1:0.42599826 2:0.34852431 3:0.15603299 4:0.016059028 5:0.023003472 6:0.014539931 7:0.0054253472 8:0.0041232639 9:0.0045572917 10:0.0017361111 11:0.55794271 12:0.29709201 13:0.082899306 14:0.022135417 15:0.011935764 16:0.016493056 17:0.0049913194 18:0.00390625 19:0.0021701389 20:0.00043402778 21:0.63237847 22:0.29405382 23:0.034288194 24:0.014539931 25:0.013020833 26:0.0088975694 27:0.0017361111 28:0.00021701389 30:0.00086805556 31:0.42599826 32:0.34852431 33:0.15603299 34:0.016059028 35:0.023003472 36:0.014539931 37:0.0054253472 38:0.0041232639 39:0.0045572917 40:0.0017361111 41:0.55794271 42:0.29709201 43:0.082899306 44:0.022135417 45:0.011935764 46:0.016493056 47:0.0049913194 48:0.00390625 49:0.0021701389 50:0.00043402778 51:0.63237847 52:0.29405382 53:0.034288194 54:0.014539931 55:0.013020833 56:0.0088975694 57:0.0017361111 58:0.00021701389 60:0.00086805556 61:0.0028211806 62:0.0086805556 63:0.059678819 64:0.085069444 65:0.31011285 66:0.41688368 67:0.0034722222 68:0.066840278 69:0.030381944 70:0.016059028 71:0.0028211806 73:0.013888889 74:0.39019097 75:0.12065972 76:0.140625 77:0.26649306 78:0.0062934028 79:0.035807292 80:0.023220486 81:0.0043402778 82:0.022569444 83:0.084201389 84:0.63997396 85:0.11740451 86:0.052951389 87:0.056857639 88:0.016927083 89:0.0028211806 90:0.001953125 91:0.0028211806 92:0.0086805556 93:0.059678819 94:0.085069444 95:0.31011285 96:0.41688368 97:0.0034722222 98:0.066840278 99:0.030381944 100:0.016059028 101:0.0028211806 103:0.013888889 104:0.39019097 105:0.12065972 106:0.140625 107:0.26649306 108:0.0062934028 109:0.035807292 110:0.023220486 111:0.0043402778 112:0.022569444 113:0.084201389 114:0.63997396 115:0.11740451 116:0.052951389 117:0.056857639 118:0.016927083 119:0.0028211806 120:0.001953125 121:0.064670139 123:0.050130208 124:0.032552083 125:0.19097222 126:0.37282986 127:0.18967014 128:0.077039931 129:0.010416667 130:0.01171875 131:0.034288194 132:0.043185764 133:0.0023871528 134:0.32118056 136:0.17078993 137:0.24587674 138:0.061414931 139:0.074652778 140:0.046223958 141:0.0023871528 142:0.034288194 143:0.047526042 144:0.0091145833 145:0.3266059 146:0.21657986 147:0.28081597 148:0.055989583 149:0.024522569 150:0.0021701389 151:0.064670139 153:0.050130208 154:0.032552083 155:0.19097222 156:0.37282986 157:0.18967014 158:0.077039931 159:0.010416667 160:0.01171875 161:0.034288194 162:0.043185764 163:0.0023871528 164:0.32118056 166:0.17078993 167:0.24587674 168:0.061414931 169:0.074652778 170:0.046223958 171:0.0023871528 172:0.034288194 173:0.047526042 174:0.0091145833 175:0.3266059 176:0.21657986 177:0.28081597 178:0.055989583 179:0.024522569 180:0.0021701389 181:0.10590278 182:0.10438368 183:0.16579861 184:0.067491319 185:0.098524306 186:0.16037326 187:0.16276042 188:0.11154514 189:0.019097222 190:0.0041232639 191:0.092230903 192:0.28038194 193:0.019748264 194:0.095920139 195:0.11349826 196:0.19118924 197:0.095052083 198:0.095052083 199:0.012803819 200:0.0041232639 201:0.14192708 202:0.23003472 203:0.047526042 204:0.12261285 205:0.061197917 206:0.16297743 207:0.11805556 208:0.097005208 209:0.014539931 210:0.0041232639 211:0.10590278 212:0.10438368 213:0.16579861 214:0.067491319 215:0.098524306 216:0.16037326 217:0.16276042 218:0.11154514 219:0.019097222 220:0.0041232639 221:0.092230903 222:0.28038194 223:0.019748264 224:0.095920139 225:0.11349826 226:0.19118924 227:0.095052083 228:0.095052083 229:0.012803819 230:0.0041232639 231:0.14192708 232:0.23003472 233:0.047526042 234:0.12261285 235:0.061197917 236:0.16297743 237:0.11805556 238:0.097005208 239:0.014539931 240:0.0041232639 241:0.071614583 242:0.31966146 243:0.13780382 244:0.057074653 245:0.16319444 246:0.10742188 247:0.068359375 248:0.051432292 249:0.016059028 250:0.0073784722 251:0.38085938 252:0.097439236 253:0.020399306 254:0.18793403 255:0.11306424 256:0.056640625 257:0.094401042 258:0.034071181 259:0.0060763889 260:0.0091145833 261:0.12304688 262:0.35525174 263:0.020399306 264:0.18337674 265:0.11176215 266:0.061848958 267:0.096137153 268:0.034505208 269:0.0045572917 270:0.0091145833 271:0.071614583 272:0.31966146 273:0.13780382 274:0.057074653 275:0.16319444 276:0.10742188 277:0.068359375 278:0.051432292 279:0.016059028 280:0.0073784722 281:0.38085938 282:0.097439236 283:0.020399306 284:0.18793403 285:0.11306424 286:0.056640625 287:0.094401042 288:0.034071181 289:0.0060763889 290:0.0091145833 291:0.12304688 292:0.35525174 293:0.020399306 294:0.18337674 295:0.11176215 296:0.061848958 297:0.096137153 298:0.034505208 299:0.0045572917 300:0.0091145833 301:0.0034722222 302:0.17057292 303:0.19249132 304:0.12803819 305:0.25564236 306:0.0034722222 307:0.095486111 308:0.035590278 309:0.084201389 310:0.031032986 311:0.0034722222 312:0.23177083 313:0.26953125 314:0.074869792 315:0.097005208 316:0.080078125 317:0.0054253472 318:0.16992188 319:0.033854167 320:0.034071181 321:0.067274306 322:0.30056424 323:0.24739583 324:0.065321181 325:0.027777778 326:0.034505208 327:0.070529514 328:0.054253472 329:0.039279514 330:0.093098958 331:0.0034722222 332:0.17057292 333:0.19249132 334:0.12803819 335:0.25564236 336:0.0034722222 337:0.095486111 338:0.035590278 339:0.084201389 340:0.031032986 341:0.0034722222 342:0.23177083 343:0.26953125 344:0.074869792 345:0.097005208 346:0.080078125 347:0.0054253472 348:0.16992188 349:0.033854167 350:0.034071181 351:0.067274306 352:0.30056424 353:0.24739583 354:0.065321181 355:0.027777778 356:0.034505208 357:0.070529514 358:0.054253472 359:0.039279514 360:0.093098958 
0.03127708039146051 1:0.43604651 2:0.34302326 3:0.15267011 4:0.022394488 5:0.016580534 6:0.017657192 7:0.0058139535 8:0.0030146425 9:0.0019379845 10:0.00086132644 11:0.55770887 12:0.33807063 13:0.046511628 14:0.024547804 15:0.016365202 16:0.010335917 17:0.0030146425 18:0.0025839793 19:0.00064599483 20:0.00021533161 21:0.59323859 22:0.32256675 23:0.037898363 24:0.023686477 25:0.012273902 26:0.0055986219 27:0.0021533161 28:0.0012919897 29:0.00086132644 30:0.00043066322 31:0.43604651 32:0.34302326 33:0.15267011 34:0.022394488 35:0.016580534 36:0.017657192 37:0.0058139535 38:0.0030146425 39:0.0019379845 40:0.00086132644 41:0.55770887 42:0.33807063 43:0.046511628 44:0.024547804 45:0.016365202 46:0.010335917 47:0.0030146425 48:0.0025839793 49:0.00064599483 50:0.00021533161 51:0.59323859 52:0.32256675 53:0.037898363 54:0.023686477 55:0.012273902 56:0.0055986219 57:0.0021533161 58:0.0012919897 59:0.00086132644 60:0.00043066322 61:0.0025839793 62:0.03079242 63:0.13996555 64:0.20714901 65:0.4127907 66:0.091300603 67:0.027347115 68:0.043281654 69:0.033807063 70:0.010981912 71:0.0025839793 72:0.012489233 73:0.17894057 74:0.33462532 75:0.14233419 76:0.20736434 77:0.060723514 78:0.037037037 79:0.010120586 80:0.013781223 81:0.041343669 82:0.080964686 83:0.25452196 84:0.37446167 85:0.095176572 86:0.066752799 87:0.044573643 88:0.0090439276 89:0.021533161 90:0.011627907 91:0.0025839793 92:0.03079242 93:0.13996555 94:0.20714901 95:0.4127907 96:0.091300603 97:0.027347115 98:0.043281654 99:0.033807063 100:0.010981912 101:0.0025839793 102:0.012489233 103:0.17894057 104:0.33462532 105:0.14233419 106:0.20736434 107:0.060723514 108:0.037037037 109:0.010120586 110:0.013781223 111:0.041343669 112:0.080964686 113:0.25452196 114:0.37446167 115:0.095176572 116:0.066752799 117:0.044573643 118:0.0090439276 119:0.021533161 120:0.011627907 121:0.04952627 122:0.0015073213 123:0.046511628 124:0.041989664 125:0.27627046 126:0.36477175 127:0.13264427 128:0.067183463 129:0.0092592593 130:0.010335917 131:0.025193798 132:0.031223084 133:0.00043066322 134:0.3624031 136:0.18087855 137:0.24956934 138:0.054263566 139:0.04672696 140:0.049310939 141:0.00043066322 142:0.025193798 143:0.04005168 144:0.011412575 145:0.36735573 146:0.20133506 147:0.28445306 148:0.049310939 149:0.01744186 150:0.0030146425 151:0.04952627 152:0.0015073213 153:0.046511628 154:0.041989664 155:0.27627046 156:0.36477175 157:0.13264427 158:0.067183463 159:0.0092592593 160:0.010335917 161:0.025193798 162:0.031223084 163:0.00043066322 164:0.3624031 166:0.18087855 167:0.24956934 168:0.054263566 169:0.04672696 170:0.049310939 171:0.00043066322 172:0.025193798 173:0.04005168 174:0.011412575 175:0.36735573 176:0.20133506 177:0.28445306 178:0.049310939 179:0.01744186 180:0.0030146425 181:0.087424634 182:0.091731266 183:0.19465978 184:0.049095607 185:0.12790698 186:0.14944014 187:0.14944014 188:0.12962963 189:0.017872524 190:0.0027993109 191:0.17980189 192:0.18712317 193:0.053186908 194:0.13049096 195:0.093023256 196:0.15590009 197:0.10486649 198:0.083548665 199:0.0094745909 200:0.0025839793 201:0.25839793 202:0.11606374 203:0.068475452 204:0.10766581 205:0.099267873 206:0.17269595 207:0.048880276 208:0.1130491 209:0.012919897 210:0.0025839793 211:0.087424634 212:0.091731266 213:0.19465978 214:0.049095607 215:0.12790698 216:0.14944014 217:0.14944014 218:0.12962963 219:0.017872524 220:0.0027993109 221:0.17980189 222:0.18712317 223:0.053186908 224:0.13049096 225:0.093023256 226:0.15590009 227:0.10486649 228:0.083548665 229:0.0094745909 230:0.0025839793 231:0.25839793 232:0.11606374 233:0.068475452 234:0.10766581 235:0.099267873 236:0.17269595 237:0.048880276 238:0.1130491 239:0.012919897 240:0.0025839793 241:0.12360034 242:0.26421189 243:0.13931955 244:0.072997416 245:0.10917313 246:0.13501292 247:0.035529716 248:0.094099914 249:0.018087855 250:0.0079672696 251:0.38393626 252:0.084409991 253:0.038544358 254:0.17571059 255:0.1164944 256:0.044573643 257:0.10314384 258:0.037252369 259:0.0053832903 260:0.010551249 261:0.2588286 262:0.24784668 263:0.058139535 264:0.11068045 265:0.12037037 266:0.082041344 267:0.068044789 268:0.036821705 269:0.0062446167 270:0.010981912 271:0.12360034 272:0.26421189 273:0.13931955 274:0.072997416 275:0.10917313 276:0.13501292 277:0.035529716 278:0.094099914 279:0.018087855 280:0.0079672696 281:0.38393626 282:0.084409991 283:0.038544358 284:0.17571059 285:0.1164944 286:0.044573643 287:0.10314384 288:0.037252369 289:0.0053832903 290:0.010551249 291:0.2588286 292:0.24784668 293:0.058139535 294:0.11068045 295:0.12037037 296:0.082041344 297:0.068044789 298:0.036821705 299:0.0062446167 300:0.010981912 301:0.26873385 302:0.078380706 303:0.33527132 304:0.059646856 305:0.068906115 306:0.041128338 307:0.088716624 308:0.037252369 309:0.021748493 310:0.00021533161 311:0.37790698 312:0.11477175 313:0.07881137 314:0.10034453 315:0.053186908 316:0.031223084 317:0.090654608 318:0.070413437 319:0.044573643 320:0.038113695 321:0.10185185 322:0.29328165 323:0.27282515 324:0.03079242 325:0.040482343 326:0.11864772 327:0.050172265 328:0.091515935 329:0.00021533161 330:0.00021533161 331:0.26873385 332:0.078380706 333:0.33527132 334:0.059646856 335:0.068906115 336:0.041128338 337:0.088716624 338:0.037252369 339:0.021748493 340:0.00021533161 341:0.37790698 342:0.11477175 343:0.07881137 344:0.10034453 345:0.053186908 346:0.031223084 347:0.090654608 348:0.070413437 349:0.044573643 350:0.038113695 351:0.10185185 352:0.29328165 353:0.27282515 354:0.03079242 355:0.040482343 356:0.11864772 357:0.050172265 358:0.091515935 359:0.00021533161 360:0.00021533161 
1 1:0.47374132 2:0.45225694 3:0.03125 4:0.024305556 5:0.0095486111 6:0.0054253472 7:0.0026041667 8:0.00043402778 9:0.00021701389 10:0.00021701389 11:0.38867188 12:0.47330729 13:0.086588542 14:0.023871528 15:0.015625 16:0.0078125 17:0.0028211806 18:0.00086805556 19:0.00021701389 20:0.00021701389 21:0.00021701389 22:0.61263021 23:0.32118056 24:0.037760417 25:0.014322917 26:0.0078125 27:0.0043402778 28:0.00086805556 29:0.00065104167 30:0.00021701389 31:0.47374132 32:0.45225694 33:0.03125 34:0.024305556 35:0.0095486111 36:0.0054253472 37:0.0026041667 38:0.00043402778 39:0.00021701389 40:0.00021701389 41:0.38867188 42:0.47330729 43:0.086588542 44:0.023871528 45:0.015625 46:0.0078125 47:0.0028211806 48:0.00086805556 49:0.00021701389 50:0.00021701389 51:0.00021701389 52:0.61263021 53:0.32118056 54:0.037760417 55:0.014322917 56:0.0078125 57:0.0043402778 58:0.00086805556 59:0.00065104167 60:0.00021701389 61:0.0023871528 62:0.027560764 63:0.030164931 64:0.27322049 65:0.094835069 66:0.42404514 67:0.0546875 68:0.045789931 69:0.027560764 70:0.019748264 71:0.0023871528 72:0.0082465278 73:0.18164062 74:0.22677951 75:0.11241319 76:0.34461806 77:0.049913194 78:0.017578125 79:0.034505208 80:0.021918403 81:0.03515625 82:0.067491319 83:0.24479167 84:0.39019097 85:0.1030816 86:0.065755208 87:0.04296875 88:0.0084635417 89:0.029296875 90:0.012803819 91:0.0023871528 92:0.027560764 93:0.030164931 94:0.27322049 95:0.094835069 96:0.42404514 97:0.0546875 98:0.045789931 99:0.027560764 100:0.019748264 101:0.0023871528 102:0.0082465278 103:0.18164062 104:0.22677951 105:0.11241319 106:0.34461806 107:0.049913194 108:0.017578125 109:0.034505208 110:0.021918403 111:0.03515625 112:0.067491319 113:0.24479167 114:0.39019097 115:0.1030816 116:0.065755208 117:0.04296875 118:0.0084635417 119:0.029296875 120:0.012803819 121:0.044487847 122:0.0021701389 123:0.044704861 124:0.039713542 125:0.26302083 126:0.34266493 127:0.17556424 128:0.071614583 129:0.0071614583 130:0.0088975694 131:0.024088542 132:0.028428819 133:0.00021701389 134:0.34830729 135:0.1781684 136:0.21527778 137:0.088541667 138:0.052517361 139:0.063802083 140:0.00065104167 141:0.024305556 142:0.038628472 143:0.009765625 144:0.36111111 145:0.21158854 146:0.26605903 147:0.075737847 148:0.0088975694 149:0.0032552083 150:0.00065104167 151:0.044487847 152:0.0021701389 153:0.044704861 154:0.039713542 155:0.26302083 156:0.34266493 157:0.17556424 158:0.071614583 159:0.0071614583 160:0.0088975694 161:0.024088542 162:0.028428819 163:0.00021701389 164:0.34830729 165:0.1781684 166:0.21527778 167:0.088541667 168:0.052517361 169:0.063802083 170:0.00065104167 171:0.024305556 172:0.038628472 173:0.009765625 174:0.36111111 175:0.21158854 176:0.26605903 177:0.075737847 178:0.0088975694 179:0.0032552083 180:0.00065104167 181:0.089409722 182:0.089409722 183:0.18988715 184:0.044053819 185:0.12934028 186:0.14887153 187:0.16623264 188:0.11762153 189:0.020833333 190:0.0043402778 191:0.16883681 192:0.19487847 193:0.046440972 194:0.13085938 195:0.090711806 196:0.16080729 197:0.098958333 198:0.092664931 199:0.011501736 200:0.0043402778 201:0.25520833 202:0.11436632 203:0.067491319 204:0.10394965 205:0.095920139 206:0.17990451 207:0.050130208 208:0.11263021 209:0.016059028 210:0.0043402778 211:0.089409722 212:0.089409722 213:0.18988715 214:0.044053819 215:0.12934028 216:0.14887153 217:0.16623264 218:0.11762153 219:0.020833333 220:0.0043402778 221:0.16883681 222:0.19487847 223:0.046440972 224:0.13085938 225:0.090711806 226:0.16080729 227:0.098958333 228:0.092664931 229:0.011501736 230:0.0043402778 231:0.25520833 232:0.11436632 233:0.067491319 234:0.10394965 235:0.095920139 236:0.17990451 237:0.050130208 238:0.11263021 239:0.016059028 240:0.0043402778 241:0.10872396 242:0.035373264 243:0.31119792 244:0.042534722 245:0.1812066 246:0.099826389 247:0.09765625 248:0.074001736 249:0.043836806 250:0.0056423611 251:0.23632812 252:0.18402778 253:0.0703125 254:0.125 255:0.11132812 256:0.10243056 257:0.079861111 258:0.072699653 259:0.010199653 260:0.0078125 261:0.27473958 262:0.21419271 263:0.050564236 264:0.12065972 265:0.11631944 266:0.097873264 267:0.072916667 268:0.034722222 269:0.0091145833 270:0.0088975694 271:0.10872396 272:0.035373264 273:0.31119792 274:0.042534722 275:0.1812066 276:0.099826389 277:0.09765625 278:0.074001736 279:0.043836806 280:0.0056423611 281:0.23632812 282:0.18402778 283:0.0703125 284:0.125 285:0.11132812 286:0.10243056 287:0.079861111 288:0.072699653 289:0.010199653 290:0.0078125 291:0.27473958 292:0.21419271 293:0.050564236 294:0.12065972 295:0.11631944 296:0.097873264 297:0.072916667 298:0.034722222 299:0.0091145833 300:0.0088975694 301:0.21375868 302:0.21940104 303:0.29340278 304:0.0049913194 305:0.12022569 306:0.089626736 307:0.033420139 308:0.023003472 309:0.001953125 310:0.00021701389 311:0.41666667 312:0.083984375 313:0.15885417 314:0.060763889 315:0.020182292 316:0.092013889 317:0.067274306 318:0.096788194 319:0.0032552083 320:0.00021701389 321:0.061414931 322:0.52604167 323:0.080295139 324:0.060763889 325:0.070746528 326:0.11219618 327:0.087673611 328:0.00043402778 329:0.00021701389 330:0.00021701389 331:0.21375868 332:0.21940104 333:0.29340278 334:0.0049913194 335:0.12022569 336:0.089626736 337:0.033420139 338:0.023003472 339:0.001953125 340:0.00021701389 341:0.41666667 342:0.083984375 343:0.15885417 344:0.060763889 345:0.020182292 346:0.092013889 347:0.067274306 348:0.096788194 349:0.0032552083 350:0.00021701389 351:0.061414931 352:0.52604167 353:0.080295139 354:0.060763889 355:0.070746528 356:0.11219618 357:0.087673611 358:0.00043402778 359:0.00021701389 360:0.00021701389 
0.5172946422790047 1:0.40891473 2:0.3910422 3:0.14965547 4:0.026055125 5:0.013996555 6:0.0047372954 7:0.0032299742 8:0.0012919897 9:0.00064599483 10:0.00043066322 11:0.55469423 12:0.35142119 13:0.044358312 14:0.020887166 15:0.016365202 16:0.0055986219 17:0.0045219638 18:0.0015073213 19:0.00021533161 20:0.00043066322 21:0.71920758 22:0.21210164 23:0.03208441 24:0.017011197 25:0.011412575 26:0.0047372954 27:0.0019379845 28:0.00086132644 29:0.00021533161 30:0.00043066322 31:0.40891473 32:0.3910422 33:0.14965547 34:0.026055125 35:0.013996555 36:0.0047372954 37:0.0032299742 38:0.0012919897 39:0.00064599483 40:0.00043066322 41:0.55469423 42:0.35142119 43:0.044358312 44:0.020887166 45:0.016365202 46:0.0055986219 47:0.0045219638 48:0.0015073213 49:0.00021533161 50:0.00043066322 51:0.71920758 52:0.21210164 53:0.03208441 54:0.017011197 55:0.011412575 56:0.0047372954 57:0.0019379845 58:0.00086132644 59:0.00021533161 60:0.00043066322 61:0.007751938 63:0.027347115 64:0.039836348 65:0.16537468 66:0.10099053 67:0.41322136 68:0.070628768 69:0.17204996 70:0.0027993109 71:0.0083979328 73:0.018518519 74:0.36972438 75:0.16149871 76:0.12489233 77:0.2622739 78:0.019164513 79:0.032730405 80:0.0027993109 81:0.010120586 82:0.019595177 83:0.08419466 84:0.62424634 85:0.13845823 86:0.027131783 87:0.053617571 88:0.019164513 89:0.020671835 90:0.0027993109 91:0.007751938 93:0.027347115 94:0.039836348 95:0.16537468 96:0.10099053 97:0.41322136 98:0.070628768 99:0.17204996 100:0.0027993109 101:0.0083979328 103:0.018518519 104:0.36972438 105:0.16149871 106:0.12489233 107:0.2622739 108:0.019164513 109:0.032730405 110:0.0027993109 111:0.010120586 112:0.019595177 113:0.08419466 114:0.62424634 115:0.13845823 116:0.027131783 117:0.053617571 118:0.019164513 119:0.020671835 120:0.0027993109 121:0.017011197 122:0.028208441 124:0.062446167 125:0.026055125 126:0.24806202 127:0.15030146 128:0.19444444 129:0.21748493 130:0.055986219 131:0.017011197 132:0.04414298 134:0.35271318 136:0.17269595 137:0.19293712 138:0.13975022 139:0.028639104 140:0.05211025 141:0.017011197 142:0.044573643 143:0.0043066322 145:0.35874246 146:0.19724376 148:0.24074074 149:0.13372093 150:0.0036606374 151:0.017011197 152:0.028208441 154:0.062446167 155:0.026055125 156:0.24806202 157:0.15030146 158:0.19444444 159:0.21748493 160:0.055986219 161:0.017011197 162:0.04414298 164:0.35271318 166:0.17269595 167:0.19293712 168:0.13975022 169:0.028639104 170:0.05211025 171:0.017011197 172:0.044573643 173:0.0043066322 175:0.35874246 176:0.19724376 178:0.24074074 179:0.13372093 180:0.0036606374 181:0.12295435 182:0.15956072 183:0.094099914 184:0.075581395 185:0.10766581 186:0.13264427 187:0.15267011 188:0.12618432 189:0.025193798 190:0.0034453058 191:0.12187769 192:0.23169681 193:0.028854436 194:0.11068045 195:0.10055986 196:0.14513351 197:0.11154177 198:0.11326443 199:0.031653747 200:0.0047372954 201:0.11283376 202:0.24074074 203:0.060508183 204:0.082256675 205:0.1001292 206:0.16020672 207:0.093669251 208:0.11089578 209:0.036175711 210:0.0025839793 211:0.12295435 212:0.15956072 213:0.094099914 214:0.075581395 215:0.10766581 216:0.13264427 217:0.15267011 218:0.12618432 219:0.025193798 220:0.0034453058 221:0.12187769 222:0.23169681 223:0.028854436 224:0.11068045 225:0.10055986 226:0.14513351 227:0.11154177 228:0.11326443 229:0.031653747 230:0.0047372954 231:0.11283376 232:0.24074074 233:0.060508183 234:0.082256675 235:0.1001292 236:0.16020672 237:0.093669251 238:0.11089578 239:0.036175711 240:0.0025839793 241:0.055340224 242:0.35745047 243:0.12252369 244:0.020456503 245:0.13673557 246:0.10701981 247:0.1205857 248:0.04414298 249:0.022394488 250:0.01335056 251:0.3413006 252:0.10400517 253:0.085055986 254:0.10529716 255:0.12101637 256:0.098191214 257:0.074935401 258:0.049310939 259:0.010335917 260:0.010551249 261:0.18453919 262:0.28789836 263:0.057924203 264:0.15848407 265:0.10723514 266:0.05878553 267:0.10508183 268:0.020887166 269:0.0086132644 270:0.010551249 271:0.055340224 272:0.35745047 273:0.12252369 274:0.020456503 275:0.13673557 276:0.10701981 277:0.1205857 278:0.04414298 279:0.022394488 280:0.01335056 281:0.3413006 282:0.10400517 283:0.085055986 284:0.10529716 285:0.12101637 286:0.098191214 287:0.074935401 288:0.049310939 289:0.010335917 290:0.010551249 291:0.18453919 292:0.28789836 293:0.057924203 294:0.15848407 295:0.10723514 296:0.05878553 297:0.10508183 298:0.020887166 299:0.0086132644 300:0.010551249 301:0.22114556 302:0.27260982 303:0.23277347 304:0.090223945 305:0.098621878 306:0.08161068 307:0.0015073213 308:0.00086132644 309:0.00021533161 310:0.00043066322 311:0.52002584 312:0.1035745 313:0.11132644 314:0.13630491 315:0.12252369 316:0.0032299742 317:0.0015073213 318:0.00086132644 319:0.00021533161 320:0.00043066322 321:0.53208441 322:0.13802756 323:0.07881137 324:0.1627907 325:0.081180017 326:0.0047372954 327:0.0012919897 328:0.00043066322 329:0.00021533161 330:0.00043066322 331:0.22114556 332:0.27260982 333:0.23277347 334:0.090223945 335:0.098621878 336:0.08161068 337:0.0015073213 338:0.00086132644 339:0.00021533161 340:0.00043066322 341:0.52002584 342:0.1035745 343:0.11132644 344:0.13630491 345:0.12252369 346:0.0032299742 347:0.0015073213 348:0.00086132644 349:0.00021533161 350:0.00043066322 351:0.53208441 352:0.13802756 353:0.07881137 354:0.1627907 355:0.081180017 356:0.0047372954 357:0.0012919897 358:0.00043066322 359:0.00021533161 360:0.00043066322 
0.2749691494394145 1:0.54328165 2:0.35917313 3:0.047372954 4:0.021748493 5:0.01873385 6:0.0047372954 7:0.0036606374 8:0.00064599483 9:0.00021533161 10:0.00043066322 11:0.54026701 12:0.38738157 13:0.029931094 14:0.016795866 15:0.016149871 16:0.0047372954 17:0.0032299742 18:0.00086132644 19:0.00021533161 20:0.00043066322 21:0.73858742 22:0.18087855 23:0.031869078 24:0.024547804 25:0.014211886 26:0.0043066322 27:0.0040913006 28:0.00064599483 29:0.00043066322 30:0.00043066322 31:0.54328165 32:0.35917313 33:0.047372954 34:0.021748493 35:0.01873385 36:0.0047372954 37:0.0036606374 38:0.00064599483 39:0.00021533161 40:0.00043066322 41:0.54026701 42:0.38738157 43:0.029931094 44:0.016795866 45:0.016149871 46:0.0047372954 47:0.0032299742 48:0.00086132644 49:0.00021533161 50:0.00043066322 51:0.73858742 52:0.18087855 53:0.031869078 54:0.024547804 55:0.014211886 56:0.0043066322 57:0.0040913006 58:0.00064599483 59:0.00043066322 60:0.00043066322 61:0.0036606374 62:0.012273902 63:0.035314384 64:0.057924203 65:0.30813953 66:0.20994832 67:0.21080965 68:0.10271318 69:0.056632214 70:0.0025839793 71:0.01205857 72:0.008828596 73:0.1873385 74:0.24095607 75:0.076012059 76:0.32428941 77:0.096683893 78:0.017011197 79:0.021533161 80:0.015288544 81:0.0012919897 82:0.015719208 83:0.033807063 84:0.28768303 85:0.36606374 86:0.19896641 87:0.044358312 88:0.029500431 89:0.019810508 90:0.0027993109 91:0.0036606374 92:0.012273902 93:0.035314384 94:0.057924203 95:0.30813953 96:0.20994832 97:0.21080965 98:0.10271318 99:0.056632214 100:0.0025839793 101:0.01205857 102:0.008828596 103:0.1873385 104:0.24095607 105:0.076012059 106:0.32428941 107:0.096683893 108:0.017011197 109:0.021533161 110:0.015288544 111:0.0012919897 112:0.015719208 113:0.033807063 114:0.28768303 115:0.36606374 116:0.19896641 117:0.044358312 118:0.029500431 119:0.019810508 120:0.0027993109 121:0.024978467 122:0.060077519 124:0.068906115 125:0.31933678 126:0.14211886 127:0.30770887 128:0.055124892 129:0.010551249 130:0.011197244 131:0.0015073213 132:0.023471146 133:0.063307494 134:0.0034453058 135:0.3296727 136:0.1709733 137:0.2336348 138:0.063092162 139:0.097329888 140:0.013565891 141:0.004952627 142:0.023471146 143:0.069982773 144:0.010766581 146:0.34496124 147:0.21791559 148:0.2329888 149:0.051248923 150:0.043712317 151:0.024978467 152:0.060077519 154:0.068906115 155:0.31933678 156:0.14211886 157:0.30770887 158:0.055124892 159:0.010551249 160:0.011197244 161:0.0015073213 162:0.023471146 163:0.063307494 164:0.0034453058 165:0.3296727 166:0.1709733 167:0.2336348 168:0.063092162 169:0.097329888 170:0.013565891 171:0.004952627 172:0.023471146 173:0.069982773 174:0.010766581 176:0.34496124 177:0.21791559 178:0.2329888 179:0.051248923 180:0.043712317 181:0.16537468 182:0.10292851 183:0.11563307 184:0.089362618 185:0.09086994 186:0.22200689 187:0.089147287 188:0.10163652 189:0.018949182 190:0.0040913006 191:0.11477175 192:0.24935401 193:0.023471146 194:0.09625323 195:0.09625323 196:0.15374677 197:0.10228252 198:0.11692506 199:0.042635659 200:0.0043066322 201:0.080318691 202:0.2827304 203:0.038975022 204:0.10615848 205:0.067614126 206:0.18130922 207:0.095822567 208:0.11369509 209:0.029285099 210:0.0040913006 211:0.16537468 212:0.10292851 213:0.11563307 214:0.089362618 215:0.09086994 216:0.22200689 217:0.089147287 218:0.10163652 219:0.018949182 220:0.0040913006 221:0.11477175 222:0.24935401 223:0.023471146 224:0.09625323 225:0.09625323 226:0.15374677 227:0.10228252 228:0.11692506 229:0.042635659 230:0.0043066322 231:0.080318691 232:0.2827304 233:0.038975022 234:0.10615848 235:0.067614126 236:0.18130922 237:0.095822567 238:0.11369509 239:0.029285099 240:0.0040913006 241:0.026485788 242:0.33699397 243:0.1580534 244:0.04952627 245:0.17398794 246:0.076012059 247:0.097114556 248:0.044573643 249:0.021963824 250:0.015288544 251:0.35594315 252:0.11347976 253:0.03875969 254:0.16085271 255:0.12704565 256:0.024332472 257:0.12790698 258:0.023686477 259:0.010981912 260:0.017011197 261:0.34237726 262:0.16580534 263:0.049310939 264:0.11154177 265:0.12704565 266:0.083333333 267:0.070413437 268:0.023686477 269:0.0094745909 270:0.017011197 271:0.026485788 272:0.33699397 273:0.1580534 274:0.04952627 275:0.17398794 276:0.076012059 277:0.097114556 278:0.044573643 279:0.021963824 280:0.015288544 281:0.35594315 282:0.11347976 283:0.03875969 284:0.16085271 285:0.12704565 286:0.024332472 287:0.12790698 288:0.023686477 289:0.010981912 290:0.017011197 291:0.34237726 292:0.16580534 293:0.049310939 294:0.11154177 295:0.12704565 296:0.083333333 297:0.070413437 298:0.023686477 299:0.0094745909 300:0.017011197 301:0.028639104 302:0.42937123 303:0.035745047 304:0.15159345 305:0.091515935 306:0.058570198 307:0.1416882 308:0.036821705 309:0.024763135 310:0.0012919897 311:0.018303187 312:0.19724376 313:0.33247201 314:0.035099053 315:0.10099053 316:0.066106804 317:0.047803618 318:0.070198105 319:0.13006029 320:0.0017226529 321:0.025624462 322:0.21597761 323:0.31029285 324:0.19379845 325:0.0017226529 326:0.042635659 327:0.16709733 328:0.03875969 329:0.0023686477 330:0.0017226529 331:0.028639104 332:0.42937123 333:0.035745047 334:0.15159345 335:0.091515935 336:0.058570198 337:0.1416882 338:0.036821705 339:0.024763135 340:0.0012919897 341:0.018303187 342:0.19724376 343:0.33247201 344:0.035099053 345:0.10099053 346:0.066106804 347:0.047803618 348:0.070198105 349:0.13006029 350:0.0017226529 351:0.025624462 352:0.21597761 353:0.31029285 354:0.19379845 355:0.0017226529 356:0.042635659 357:0.16709733 358:0.03875969 359:0.0023686477 360:0.0017226529 
0.3193824878803598 1:0.3812336 2:0.27515311 3:0.27471566 4:0.029527559 5:0.01312336 6:0.011373578 7:0.0076552931 8:0.0037182852 9:0.0019685039 10:0.0015310586 11:0.5279965 12:0.34601925 13:0.082020997 14:0.016185477 15:0.0074365704 16:0.011811024 17:0.0026246719 18:0.0028433946 19:0.0019685039 20:0.0010936133 21:0.076552931 22:0.61548556 23:0.23906387 24:0.026902887 25:0.019466317 26:0.010498688 27:0.0052493438 28:0.0026246719 29:0.0021872266 30:0.0019685039 31:0.3812336 32:0.27515311 33:0.27471566 34:0.029527559 35:0.01312336 36:0.011373578 37:0.0076552931 38:0.0037182852 39:0.0019685039 40:0.0015310586 41:0.5279965 42:0.34601925 43:0.082020997 44:0.016185477 45:0.0074365704 46:0.011811024 47:0.0026246719 48:0.0028433946 49:0.0019685039 50:0.0010936133 51:0.076552931 52:0.61548556 53:0.23906387 54:0.026902887 55:0.019466317 56:0.010498688 57:0.0052493438 58:0.0026246719 59:0.0021872266 60:0.0019685039 61:0.0010936133 62:0.0050306212 63:0.031714786 64:0.055555556 65:0.30446194 66:0.20975503 67:0.18700787 68:0.064085739 69:0.11964129 70:0.021653543 71:0.0028433946 72:0.008967629 73:0.12423447 74:0.25174978 75:0.10476815 76:0.16754156 77:0.1496063 78:0.12314086 79:0.015091864 80:0.052055993 81:0.042869641 82:0.06911636 83:0.22506562 84:0.32217848 85:0.16776028 86:0.062773403 87:0.046587927 88:0.014216973 89:0.015091864 90:0.034339458 91:0.0010936133 92:0.0050306212 93:0.031714786 94:0.055555556 95:0.30446194 96:0.20975503 97:0.18700787 98:0.064085739 99:0.11964129 100:0.021653543 101:0.0028433946 102:0.008967629 103:0.12423447 104:0.25174978 105:0.10476815 106:0.16754156 107:0.1496063 108:0.12314086 109:0.015091864 110:0.052055993 111:0.042869641 112:0.06911636 113:0.22506562 114:0.32217848 115:0.16776028 116:0.062773403 117:0.046587927 118:0.014216973 119:0.015091864 120:0.034339458 121:0.033245844 122:0.029527559 123:0.040463692 124:0.023403325 125:0.2876203 126:0.36220472 127:0.12532808 128:0.073709536 129:0.011592301 130:0.012904637 131:0.0028433946 132:0.033245844 133:0.038932633 135:0.31933508 136:0.17038495 137:0.22156605 138:0.082895888 139:0.10651794 140:0.024278215 141:0.0028433946 142:0.033245844 143:0.042432196 144:0.01399825 146:0.33420822 147:0.223972 148:0.2287839 149:0.071084864 150:0.049431321 151:0.033245844 152:0.029527559 153:0.040463692 154:0.023403325 155:0.2876203 156:0.36220472 157:0.12532808 158:0.073709536 159:0.011592301 160:0.012904637 161:0.0028433946 162:0.033245844 163:0.038932633 165:0.31933508 166:0.17038495 167:0.22156605 168:0.082895888 169:0.10651794 170:0.024278215 171:0.0028433946 172:0.033245844 173:0.042432196 174:0.01399825 176:0.33420822 177:0.223972 178:0.2287839 179:0.071084864 180:0.049431321 181:0.20428696 182:0.16382327 183:0.02384077 184:0.11417323 185:0.095144357 186:0.20888014 187:0.12248469 188:0.043088364 189:0.016404199 190:0.0078740157 191:0.17147857 192:0.18635171 193:0.066054243 194:0.083333333 195:0.12773403 196:0.17060367 197:0.11701662 198:0.064304462 199:0.0085301837 200:0.0045931759 201:0.21369204 202:0.15704287 203:0.048993876 204:0.087926509 205:0.13429571 206:0.16491689 207:0.10914261 208:0.069991251 209:0.0085301837 210:0.0054680665 211:0.20428696 212:0.16382327 213:0.02384077 214:0.11417323 215:0.095144357 216:0.20888014 217:0.12248469 218:0.043088364 219:0.016404199 220:0.0078740157 221:0.17147857 222:0.18635171 223:0.066054243 224:0.083333333 225:0.12773403 226:0.17060367 227:0.11701662 228:0.064304462 229:0.0085301837 230:0.0045931759 231:0.21369204 232:0.15704287 233:0.048993876 234:0.087926509 235:0.13429571 236:0.16491689 237:0.10914261 238:0.069991251 239:0.0085301837 240:0.0054680665 241:0.067804024 242:0.36854768 243:0.079833771 244:0.077646544 245:0.10564304 246:0.094706912 247:0.13954506 248:0.034776903 249:0.021872266 250:0.009623797 251:0.34251969 252:0.12029746 253:0.085958005 254:0.092519685 255:0.11023622 256:0.098862642 257:0.079833771 258:0.048775153 259:0.0098425197 260:0.011154856 261:0.35017498 262:0.14195101 263:0.056649169 264:0.15069991 265:0.094706912 266:0.057742782 267:0.10629921 268:0.024278215 269:0.0063429571 270:0.011154856 271:0.067804024 272:0.36854768 273:0.079833771 274:0.077646544 275:0.10564304 276:0.094706912 277:0.13954506 278:0.034776903 279:0.021872266 280:0.009623797 281:0.34251969 282:0.12029746 283:0.085958005 284:0.092519685 285:0.11023622 286:0.098862642 287:0.079833771 288:0.048775153 289:0.0098425197 290:0.011154856 291:0.35017498 292:0.14195101 293:0.056649169 294:0.15069991 295:0.094706912 296:0.057742782 297:0.10629921 298:0.024278215 299:0.0063429571 300:0.011154856 301:0.059055118 302:0.31736658 303:0.053805774 304:0.21391076 305:0.098425197 306:0.0444007 307:0.14041995 308:0.061461067 309:0.0030621172 310:0.0080927384 311:0.0052493438 312:0.16294838 313:0.36089239 314:0.039588801 315:0.1148294 316:0.061898513 317:0.039370079 318:0.077427822 319:0.13363955 320:0.0041557305 321:0.027340332 322:0.19422572 323:0.32502187 324:0.12401575 325:0.070209974 326:0.040463692 327:0.0723972 328:0.067804024 329:0.064523185 330:0.01399825 331:0.059055118 332:0.31736658 333:0.053805774 334:0.21391076 335:0.098425197 336:0.0444007 337:0.14041995 338:0.061461067 339:0.0030621172 340:0.0080927384 341:0.0052493438 342:0.16294838 343:0.36089239 344:0.039588801 345:0.1148294 346:0.061898513 347:0.039370079 348:0.077427822 349:0.13363955 350:0.0041557305 351:0.027340332 352:0.19422572 353:0.32502187 354:0.12401575 355:0.070209974 356:0.040463692 357:0.0723972 358:0.067804024 359:0.064523185 360:0.01399825 
