svm_type c_svc
kernel_type linear
nr_class 2
total_sv 60
rho -0.370229
label -1 1
probA 0
probB -0.558546
nr_sv 30 30
SV
0.003104108075962172 1:0.17686632 2:0.2046441 3:0.14192708 4:0.15190972 5:0.092447917 6:0.083116319 7:0.064887153 8:0.055121528 9:0.022786458 10:0.0062934028 11:0.27322049 12:0.203125 13:0.15299479 14:0.13650174 15:0.074001736 16:0.063802083 17:0.067491319 18:0.018229167 19:0.0084635417 20:0.0021701389 21:0.0049913194 22:0.015842014 23:0.051215278 24:0.15559896 25:0.31445312 26:0.28016493 27:0.12131076 28:0.045138889 29:0.0088975694 30:0.0023871528 31:0.17686632 32:0.2046441 33:0.14192708 34:0.15190972 35:0.092447917 36:0.083116319 37:0.064887153 38:0.055121528 39:0.022786458 40:0.0062934028 41:0.27322049 42:0.203125 43:0.15299479 44:0.13650174 45:0.074001736 46:0.063802083 47:0.067491319 48:0.018229167 49:0.0084635417 50:0.0021701389 51:0.0049913194 52:0.015842014 53:0.051215278 54:0.15559896 55:0.31445312 56:0.28016493 57:0.12131076 58:0.045138889 59:0.0088975694 60:0.0023871528 61:0.13194444 62:0.14800347 63:0.25694444 64:0.20290799 65:0.11762153 66:0.10590278 67:0.017361111 68:0.005859375 69:0.0075954861 70:0.005859375 71:0.041232639 72:0.23133681 73:0.29904514 74:0.19965278 75:0.11827257 76:0.080512153 77:0.009765625 78:0.0093315972 79:0.0060763889 80:0.0047743056 81:0.0023871528 82:0.028645833 83:0.21267361 84:0.30967882 85:0.16145833 86:0.20269097 87:0.069878472 88:0.01171875 89:0.00065104167 90:0.00021701389 91:0.13194444 92:0.14800347 93:0.25694444 94:0.20290799 95:0.11762153 96:0.10590278 97:0.017361111 98:0.005859375 99:0.0075954861 100:0.005859375 101:0.041232639 102:0.23133681 103:0.29904514 104:0.19965278 105:0.11827257 106:0.080512153 107:0.009765625 108:0.0093315972 109:0.0060763889 110:0.0047743056 111:0.0023871528 112:0.028645833 113:0.21267361 114:0.30967882 115:0.16145833 116:0.20269097 117:0.069878472 118:0.01171875 119:0.00065104167 120:0.00021701389 121:0.12847222 122:0.13324653 123:0.1328125 124:0.23328993 125:0.18706597 126:0.10199653 127:0.032118056 128:0.017361111 129:0.021701389 130:0.011935764 131:0.11132812 132:0.23155382 133:0.18815104 134:0.090711806 135:0.23763021 136:0.064019097 137:0.020616319 138:0.022569444 139:0.029730903 140:0.0036892361 141:0.0062934028 142:0.023220486 143:0.096137153 144:0.19639757 145:0.12217882 146:0.33463542 147:0.13563368 148:0.05078125 149:0.030598958 150:0.0041232639 151:0.12847222 152:0.13324653 153:0.1328125 154:0.23328993 155:0.18706597 156:0.10199653 157:0.032118056 158:0.017361111 159:0.021701389 160:0.011935764 161:0.11132812 162:0.23155382 163:0.18815104 164:0.090711806 165:0.23763021 166:0.064019097 167:0.020616319 168:0.022569444 169:0.029730903 170:0.0036892361 171:0.0062934028 172:0.023220486 173:0.096137153 174:0.19639757 175:0.12217882 176:0.33463542 177:0.13563368 178:0.05078125 179:0.030598958 180:0.0041232639 181:0.33615451 182:0.17057292 183:0.12456597 184:0.13867188 185:0.022135417 186:0.023654514 187:0.032552083 188:0.051866319 189:0.078559028 190:0.021267361 191:0.38888889 192:0.20920139 193:0.16688368 194:0.028211806 195:0.040147569 196:0.036024306 197:0.042534722 198:0.052951389 199:0.029513889 200:0.0056423611 201:0.0060763889 202:0.046006944 203:0.16731771 204:0.43337674 205:0.29144965 206:0.036892361 207:0.010850694 208:0.00390625 209:0.0036892361 210:0.00043402778 211:0.33615451 212:0.17057292 213:0.12456597 214:0.13867188 215:0.022135417 216:0.023654514 217:0.032552083 218:0.051866319 219:0.078559028 220:0.021267361 221:0.38888889 222:0.20920139 223:0.16688368 224:0.028211806 225:0.040147569 226:0.036024306 227:0.042534722 228:0.052951389 229:0.029513889 230:0.0056423611 231:0.0060763889 232:0.046006944 233:0.16731771 234:0.43337674 235:0.29144965 236:0.036892361 237:0.010850694 238:0.00390625 239:0.0036892361 240:0.00043402778 241:0.064887153 242:0.16775174 243:0.23828125 244:0.1234809 245:0.078993056 246:0.09765625 247:0.10264757 248:0.079427083 249:0.034722222 250:0.012152778 251:0.016710069 252:0.17447917 253:0.26388889 254:0.12456597 255:0.055772569 256:0.079644097 257:0.094618056 258:0.13888889 259:0.034071181 260:0.017361111 261:0.0023871528 262:0.010416667 263:0.057508681 264:0.18294271 265:0.19965278 266:0.33854167 267:0.17144097 268:0.030164931 269:0.005859375 270:0.0010850694 271:0.064887153 272:0.16775174 273:0.23828125 274:0.1234809 275:0.078993056 276:0.09765625 277:0.10264757 278:0.079427083 279:0.034722222 280:0.012152778 281:0.016710069 282:0.17447917 283:0.26388889 284:0.12456597 285:0.055772569 286:0.079644097 287:0.094618056 288:0.13888889 289:0.034071181 290:0.017361111 291:0.0023871528 292:0.010416667 293:0.057508681 294:0.18294271 295:0.19965278 296:0.33854167 297:0.17144097 298:0.030164931 299:0.005859375 300:0.0010850694 301:0.066840278 302:0.10742188 303:0.090060764 304:0.097439236 305:0.15711806 306:0.16840278 307:0.11154514 308:0.12478299 309:0.062717014 310:0.013671875 311:0.067491319 312:0.1078559 313:0.090928819 314:0.10590278 315:0.15082465 316:0.13628472 317:0.082682292 318:0.080729167 319:0.11046007 320:0.066840278 321:0.0021701389 322:0.021701389 323:0.070529514 324:0.21202257 325:0.35047743 326:0.27690972 327:0.054253472 328:0.0082465278 329:0.0030381944 330:0.00065104167 331:0.066840278 332:0.10742188 333:0.090060764 334:0.097439236 335:0.15711806 336:0.16840278 337:0.11154514 338:0.12478299 339:0.062717014 340:0.013671875 341:0.067491319 342:0.1078559 343:0.090928819 344:0.10590278 345:0.15082465 346:0.13628472 347:0.082682292 348:0.080729167 349:0.11046007 350:0.066840278 351:0.0021701389 352:0.021701389 353:0.070529514 354:0.21202257 355:0.35047743 356:0.27690972 357:0.054253472 358:0.0082465278 359:0.0030381944 360:0.00065104167 
0.1429843053364834 1:0.20898438 2:0.20182292 3:0.12695312 4:0.13780382 5:0.10221354 6:0.067274306 7:0.07421875 8:0.055989583 9:0.016059028 10:0.0086805556 11:0.25303819 12:0.1859809 13:0.13975694 14:0.11979167 15:0.1015625 16:0.059027778 17:0.062282986 18:0.057942708 19:0.015407986 20:0.0052083333 21:0.0095486111 22:0.020399306 23:0.088758681 24:0.26019965 25:0.3578559 26:0.19639757 27:0.047309028 28:0.014322917 29:0.0036892361 30:0.0015190972 31:0.20898438 32:0.20182292 33:0.12695312 34:0.13780382 35:0.10221354 36:0.067274306 37:0.07421875 38:0.055989583 39:0.016059028 40:0.0086805556 41:0.25303819 42:0.1859809 43:0.13975694 44:0.11979167 45:0.1015625 46:0.059027778 47:0.062282986 48:0.057942708 49:0.015407986 50:0.0052083333 51:0.0095486111 52:0.020399306 53:0.088758681 54:0.26019965 55:0.3578559 56:0.19639757 57:0.047309028 58:0.014322917 59:0.0036892361 60:0.0015190972 61:0.1000434 62:0.13107639 63:0.2890625 64:0.20377604 65:0.12087674 66:0.10850694 67:0.025607639 68:0.0056423611 69:0.0071614583 70:0.0082465278 71:0.074652778 72:0.17252604 73:0.28363715 74:0.20876736 75:0.10481771 76:0.11263021 77:0.021484375 78:0.0086805556 79:0.0047743056 80:0.0080295139 81:0.00086805556 82:0.0017361111 83:0.029947917 84:0.20377604 85:0.13736979 86:0.30664062 87:0.21875 88:0.080078125 89:0.017795139 90:0.0030381944 91:0.1000434 92:0.13107639 93:0.2890625 94:0.20377604 95:0.12087674 96:0.10850694 97:0.025607639 98:0.0056423611 99:0.0071614583 100:0.0082465278 101:0.074652778 102:0.17252604 103:0.28363715 104:0.20876736 105:0.10481771 106:0.11263021 107:0.021484375 108:0.0086805556 109:0.0047743056 110:0.0080295139 111:0.00086805556 112:0.0017361111 113:0.029947917 114:0.20377604 115:0.13736979 116:0.30664062 117:0.21875 118:0.080078125 119:0.017795139 120:0.0030381944 121:0.14105903 122:0.13932292 123:0.12977431 124:0.11783854 125:0.23654514 126:0.12586806 127:0.044053819 128:0.026909722 129:0.030164931 130:0.0084635417 131:0.12087674 132:0.23632812 133:0.087890625 134:0.15798611 135:0.11458333 136:0.18402778 137:0.054253472 138:0.01171875 139:0.023654514 140:0.0086805556 141:0.0015190972 142:0.017361111 143:0.084852431 144:0.19813368 145:0.11176215 146:0.31206597 147:0.13541667 148:0.092013889 149:0.035807292 150:0.011067708 151:0.14105903 152:0.13932292 153:0.12977431 154:0.11783854 155:0.23654514 156:0.12586806 157:0.044053819 158:0.026909722 159:0.030164931 160:0.0084635417 161:0.12087674 162:0.23632812 163:0.087890625 164:0.15798611 165:0.11458333 166:0.18402778 167:0.054253472 168:0.01171875 169:0.023654514 170:0.0086805556 171:0.0015190972 172:0.017361111 173:0.084852431 174:0.19813368 175:0.11176215 176:0.31206597 177:0.13541667 178:0.092013889 179:0.035807292 180:0.011067708 181:0.31966146 182:0.17361111 183:0.16688368 184:0.11762153 185:0.018663194 186:0.018229167 187:0.034071181 188:0.049262153 189:0.06640625 190:0.035590278 191:0.43684896 192:0.19900174 193:0.14084201 194:0.024305556 195:0.036675347 196:0.040364583 197:0.041449653 198:0.051432292 199:0.024739583 200:0.0043402778 201:0.0056423611 202:0.041883681 203:0.11610243 204:0.41210938 205:0.31901042 206:0.083333333 207:0.013237847 208:0.0065104167 209:0.0015190972 210:0.00065104167 211:0.31966146 212:0.17361111 213:0.16688368 214:0.11762153 215:0.018663194 216:0.018229167 217:0.034071181 218:0.049262153 219:0.06640625 220:0.035590278 221:0.43684896 222:0.19900174 223:0.14084201 224:0.024305556 225:0.036675347 226:0.040364583 227:0.041449653 228:0.051432292 229:0.024739583 230:0.0043402778 231:0.0056423611 232:0.041883681 233:0.11610243 234:0.41210938 235:0.31901042 236:0.083333333 237:0.013237847 238:0.0065104167 239:0.0015190972 240:0.00065104167 241:0.031467014 242:0.11935764 243:0.27994792 244:0.14040799 245:0.097005208 246:0.090711806 247:0.10460069 248:0.088541667 249:0.027994792 250:0.019965278 251:0.063368056 252:0.20377604 253:0.24131944 254:0.087022569 255:0.076388889 256:0.12369792 257:0.069010417 258:0.090711806 259:0.031684028 260:0.013020833 261:0.010416667 262:0.014756944 263:0.057074653 264:0.11892361 265:0.30425347 266:0.25889757 267:0.19704861 268:0.028645833 269:0.0078125 270:0.0021701389 271:0.031467014 272:0.11935764 273:0.27994792 274:0.14040799 275:0.097005208 276:0.090711806 277:0.10460069 278:0.088541667 279:0.027994792 280:0.019965278 281:0.063368056 282:0.20377604 283:0.24131944 284:0.087022569 285:0.076388889 286:0.12369792 287:0.069010417 288:0.090711806 289:0.031684028 290:0.013020833 291:0.010416667 292:0.014756944 293:0.057074653 294:0.11892361 295:0.30425347 296:0.25889757 297:0.19704861 298:0.028645833 299:0.0078125 300:0.0021701389 301:0.05859375 302:0.11154514 303:0.0859375 304:0.080295139 305:0.11458333 306:0.19010417 307:0.098741319 308:0.11697049 309:0.11979167 310:0.0234375 311:0.125 312:0.075954861 313:0.091796875 314:0.088975694 315:0.13020833 316:0.18055556 317:0.054036458 318:0.10481771 319:0.109375 320:0.039279514 321:0.0054253472 322:0.047960069 323:0.072482639 324:0.26302083 325:0.1953125 326:0.31597222 327:0.084635417 328:0.01171875 329:0.0030381944 330:0.00043402778 331:0.05859375 332:0.11154514 333:0.0859375 334:0.080295139 335:0.11458333 336:0.19010417 337:0.098741319 338:0.11697049 339:0.11979167 340:0.0234375 341:0.125 342:0.075954861 343:0.091796875 344:0.088975694 345:0.13020833 346:0.18055556 347:0.054036458 348:0.10481771 349:0.109375 350:0.039279514 351:0.0054253472 352:0.047960069 353:0.072482639 354:0.26302083 355:0.1953125 356:0.31597222 357:0.084635417 358:0.01171875 359:0.0030381944 360:0.00043402778 
0.8469474515646958 1:0.16167535 2:0.20334201 3:0.13888889 4:0.12868924 5:0.10329861 6:0.098090278 7:0.065538194 8:0.072265625 9:0.022135417 10:0.0060763889 11:0.29188368 12:0.17144097 13:0.11631944 14:0.11827257 15:0.093967014 16:0.060763889 17:0.091796875 18:0.036458333 19:0.013671875 20:0.0054253472 21:0.0026041667 22:0.0099826389 23:0.016710069 24:0.10112847 25:0.20898438 26:0.30360243 27:0.22786458 28:0.099392361 29:0.026475694 30:0.0032552083 31:0.16167535 32:0.20334201 33:0.13888889 34:0.12868924 35:0.10329861 36:0.098090278 37:0.065538194 38:0.072265625 39:0.022135417 40:0.0060763889 41:0.29188368 42:0.17144097 43:0.11631944 44:0.11827257 45:0.093967014 46:0.060763889 47:0.091796875 48:0.036458333 49:0.013671875 50:0.0054253472 51:0.0026041667 52:0.0099826389 53:0.016710069 54:0.10112847 55:0.20898438 56:0.30360243 57:0.22786458 58:0.099392361 59:0.026475694 60:0.0032552083 61:0.093315972 62:0.13628472 63:0.26388889 64:0.24327257 65:0.15147569 66:0.080946181 67:0.014756944 68:0.005859375 69:0.0056423611 70:0.0045572917 71:0.068142361 72:0.22786458 73:0.29210069 74:0.20681424 75:0.12022569 76:0.060546875 77:0.0093315972 78:0.0045572917 79:0.0047743056 80:0.0056423611 81:0.00086805556 82:0.0056423611 83:0.020182292 84:0.16731771 85:0.091579861 86:0.35546875 87:0.24978299 88:0.087890625 89:0.017361111 90:0.00390625 91:0.093315972 92:0.13628472 93:0.26388889 94:0.24327257 95:0.15147569 96:0.080946181 97:0.014756944 98:0.005859375 99:0.0056423611 100:0.0045572917 101:0.068142361 102:0.22786458 103:0.29210069 104:0.20681424 105:0.12022569 106:0.060546875 107:0.0093315972 108:0.0045572917 109:0.0047743056 110:0.0056423611 111:0.00086805556 112:0.0056423611 113:0.020182292 114:0.16731771 115:0.091579861 116:0.35546875 117:0.24978299 118:0.087890625 119:0.017361111 120:0.00390625 121:0.052517361 122:0.1875 123:0.12022569 124:0.16688368 125:0.14171007 126:0.18576389 127:0.070963542 128:0.046875 129:0.018663194 130:0.0088975694 131:0.018012153 132:0.24609375 133:0.18315972 134:0.053168403 135:0.15147569 136:0.20551215 137:0.056640625 138:0.054036458 139:0.022352431 140:0.0095486111 141:0.0067274306 142:0.013020833 143:0.063151042 144:0.33398438 145:0.16992188 146:0.12434896 147:0.23502604 148:0.041232639 149:0.0071614583 150:0.0054253472 151:0.052517361 152:0.1875 153:0.12022569 154:0.16688368 155:0.14171007 156:0.18576389 157:0.070963542 158:0.046875 159:0.018663194 160:0.0088975694 161:0.018012153 162:0.24609375 163:0.18315972 164:0.053168403 165:0.15147569 166:0.20551215 167:0.056640625 168:0.054036458 169:0.022352431 170:0.0095486111 171:0.0067274306 172:0.013020833 173:0.063151042 174:0.33398438 175:0.16992188 176:0.12434896 177:0.23502604 178:0.041232639 179:0.0071614583 180:0.0054253472 181:0.36176215 182:0.16471354 183:0.1421441 184:0.11783854 185:0.018229167 186:0.018663194 187:0.027777778 188:0.053819444 189:0.059244792 190:0.035807292 191:0.37282986 192:0.22981771 193:0.1733941 194:0.024956597 195:0.027994792 196:0.038194444 197:0.041232639 198:0.038411458 199:0.045572917 200:0.0075954861 201:0.012803819 202:0.052951389 203:0.046657986 204:0.28602431 205:0.36501736 206:0.19618056 207:0.028211806 208:0.0084635417 209:0.0028211806 210:0.00086805556 211:0.36176215 212:0.16471354 213:0.1421441 214:0.11783854 215:0.018229167 216:0.018663194 217:0.027777778 218:0.053819444 219:0.059244792 220:0.035807292 221:0.37282986 222:0.22981771 223:0.1733941 224:0.024956597 225:0.027994792 226:0.038194444 227:0.041232639 228:0.038411458 229:0.045572917 230:0.0075954861 231:0.012803819 232:0.052951389 233:0.046657986 234:0.28602431 235:0.36501736 236:0.19618056 237:0.028211806 238:0.0084635417 239:0.0028211806 240:0.00086805556 241:0.059244792 242:0.20551215 243:0.24891493 244:0.10199653 245:0.088107639 246:0.1000434 247:0.091362847 248:0.066623264 249:0.027994792 250:0.010199653 251:0.083984375 252:0.22070312 253:0.21549479 254:0.10568576 255:0.083984375 256:0.11675347 257:0.10199653 258:0.052951389 259:0.014756944 260:0.0036892361 261:0.0045572917 262:0.0017361111 263:0.0080295139 264:0.026692708 265:0.13389757 266:0.45681424 267:0.296875 268:0.062717014 269:0.0075954861 270:0.0010850694 271:0.059244792 272:0.20551215 273:0.24891493 274:0.10199653 275:0.088107639 276:0.1000434 277:0.091362847 278:0.066623264 279:0.027994792 280:0.010199653 281:0.083984375 282:0.22070312 283:0.21549479 284:0.10568576 285:0.083984375 286:0.11675347 287:0.10199653 288:0.052951389 289:0.014756944 290:0.0036892361 291:0.0045572917 292:0.0017361111 293:0.0080295139 294:0.026692708 295:0.13389757 296:0.45681424 297:0.296875 298:0.062717014 299:0.0075954861 300:0.0010850694 301:0.051649306 302:0.083333333 303:0.082465278 304:0.083116319 305:0.11653646 306:0.20203993 307:0.125 308:0.11957465 309:0.10460069 310:0.031684028 311:0.11393229 312:0.0703125 313:0.097439236 314:0.11154514 315:0.15082465 316:0.16167535 317:0.060546875 318:0.098741319 319:0.10720486 320:0.027777778 321:0.0054253472 322:0.015625 323:0.090277778 324:0.11805556 325:0.35720486 326:0.1781684 327:0.20442708 328:0.021484375 329:0.0091145833 330:0.00021701389 331:0.051649306 332:0.083333333 333:0.082465278 334:0.083116319 335:0.11653646 336:0.20203993 337:0.125 338:0.11957465 339:0.10460069 340:0.031684028 341:0.11393229 342:0.0703125 343:0.097439236 344:0.11154514 345:0.15082465 346:0.16167535 347:0.060546875 348:0.098741319 349:0.10720486 350:0.027777778 351:0.0054253472 352:0.015625 353:0.090277778 354:0.11805556 355:0.35720486 356:0.1781684 357:0.20442708 358:0.021484375 359:0.0091145833 360:0.00021701389 
0.4524178155610931 1:0.14707149 2:0.22265289 3:0.12510767 4:0.12015504 5:0.10486649 6:0.10292851 7:0.0708441 8:0.076012059 9:0.023040482 10:0.0073212748 11:0.24870801 12:0.18647717 13:0.11154177 14:0.11477175 15:0.1042205 16:0.071920758 17:0.091300603 18:0.05081826 19:0.013996555 20:0.0062446167 21:0.0034453058 22:0.028423773 23:0.23794143 24:0.54048234 25:0.16666667 26:0.021317829 27:0.00064599483 28:0.00064599483 29:0.00021533161 30:0.00021533161 31:0.14707149 32:0.22265289 33:0.12510767 34:0.12015504 35:0.10486649 36:0.10292851 37:0.0708441 38:0.076012059 39:0.023040482 40:0.0073212748 41:0.24870801 42:0.18647717 43:0.11154177 44:0.11477175 45:0.1042205 46:0.071920758 47:0.091300603 48:0.05081826 49:0.013996555 50:0.0062446167 51:0.0034453058 52:0.028423773 53:0.23794143 54:0.54048234 55:0.16666667 56:0.021317829 57:0.00064599483 58:0.00064599483 59:0.00021533161 60:0.00021533161 61:0.11111111 62:0.12618432 63:0.24698536 64:0.25839793 65:0.1498708 66:0.080103359 67:0.013565891 68:0.0047372954 69:0.004952627 70:0.0040913006 71:0.067183463 72:0.22394488 73:0.28940568 74:0.21705426 75:0.12230835 76:0.059000861 77:0.0083979328 78:0.0034453058 79:0.0045219638 80:0.0047372954 81:0.0021533161 82:0.015719208 83:0.097114556 84:0.18561585 85:0.36111111 86:0.24009475 87:0.077304048 88:0.016365202 89:0.003875969 90:0.00064599483 91:0.11111111 92:0.12618432 93:0.24698536 94:0.25839793 95:0.1498708 96:0.080103359 97:0.013565891 98:0.0047372954 99:0.004952627 100:0.0040913006 101:0.067183463 102:0.22394488 103:0.28940568 104:0.21705426 105:0.12230835 106:0.059000861 107:0.0083979328 108:0.0034453058 109:0.0045219638 110:0.0047372954 111:0.0021533161 112:0.015719208 113:0.097114556 114:0.18561585 115:0.36111111 116:0.24009475 117:0.077304048 118:0.016365202 119:0.003875969 120:0.00064599483 121:0.014211886 122:0.13824289 123:0.1914298 124:0.13781223 125:0.12726098 126:0.19918174 127:0.10142119 128:0.059646856 129:0.021533161 130:0.0092592593 131:0.0010766581 132:0.096037898 133:0.2792851 134:0.08290267 135:0.124677 136:0.19595177 137:0.084409991 138:0.10142119 139:0.020671835 140:0.013565891 141:0.0071059432 142:0.018303187 143:0.073212748 144:0.35874246 145:0.16774332 146:0.11498708 147:0.22114556 148:0.033807063 149:0.0015073213 150:0.0034453058 151:0.014211886 152:0.13824289 153:0.1914298 154:0.13781223 155:0.12726098 156:0.19918174 157:0.10142119 158:0.059646856 159:0.021533161 160:0.0092592593 161:0.0010766581 162:0.096037898 163:0.2792851 164:0.08290267 165:0.124677 166:0.19595177 167:0.084409991 168:0.10142119 169:0.020671835 170:0.013565891 171:0.0071059432 172:0.018303187 173:0.073212748 174:0.35874246 175:0.16774332 176:0.11498708 177:0.22114556 178:0.033807063 179:0.0015073213 180:0.0034453058 181:0.36907838 182:0.16645134 183:0.15719208 184:0.10723514 185:0.019595177 186:0.017657192 187:0.02411714 188:0.044788975 189:0.054478898 190:0.039405685 191:0.3787683 192:0.23492679 193:0.17980189 194:0.021317829 195:0.025193798 196:0.035960379 197:0.032515073 198:0.042420327 199:0.045219638 200:0.003875969 201:0.0023686477 202:0.029500431 203:0.053186908 204:0.20564169 205:0.48471146 206:0.18087855 207:0.029500431 208:0.010981912 209:0.0025839793 210:0.00064599483 211:0.36907838 212:0.16645134 213:0.15719208 214:0.10723514 215:0.019595177 216:0.017657192 217:0.02411714 218:0.044788975 219:0.054478898 220:0.039405685 221:0.3787683 222:0.23492679 223:0.17980189 224:0.021317829 225:0.025193798 226:0.035960379 227:0.032515073 228:0.042420327 229:0.045219638 230:0.003875969 231:0.0023686477 232:0.029500431 233:0.053186908 234:0.20564169 235:0.48471146 236:0.18087855 237:0.029500431 238:0.010981912 239:0.0025839793 240:0.00064599483 241:0.06546081 242:0.24203273 243:0.22803618 244:0.088501292 245:0.092161929 246:0.10206718 247:0.084625323 248:0.064599483 249:0.023040482 250:0.0094745909 251:0.08161068 252:0.23169681 253:0.19896641 254:0.099483204 255:0.070413437 256:0.11347976 257:0.097114556 258:0.06416882 259:0.033161068 260:0.0099052541 261:0.0066752799 262:0.01464255 263:0.048234281 264:0.20930233 265:0.37037037 266:0.31438415 267:0.032730405 268:0.0023686477 269:0.00086132644 270:0.00043066322 271:0.06546081 272:0.24203273 273:0.22803618 274:0.088501292 275:0.092161929 276:0.10206718 277:0.084625323 278:0.064599483 279:0.023040482 280:0.0094745909 281:0.08161068 282:0.23169681 283:0.19896641 284:0.099483204 285:0.070413437 286:0.11347976 287:0.097114556 288:0.06416882 289:0.033161068 290:0.0099052541 291:0.0066752799 292:0.01464255 293:0.048234281 294:0.20930233 295:0.37037037 296:0.31438415 297:0.032730405 298:0.0023686477 299:0.00086132644 300:0.00043066322 301:0.064599483 302:0.076658053 303:0.072782084 304:0.074289406 305:0.11778639 306:0.16774332 307:0.15956072 308:0.097975883 309:0.1294143 310:0.039190353 311:0.040482343 312:0.11670973 313:0.063522825 314:0.14319552 315:0.12273902 316:0.1621447 317:0.10551249 318:0.087209302 319:0.10055986 320:0.057924203 321:0.0096899225 322:0.016795866 323:0.12618432 324:0.13565891 325:0.16042205 326:0.3671404 327:0.11498708 328:0.062015504 329:0.0064599483 330:0.00064599483 331:0.064599483 332:0.076658053 333:0.072782084 334:0.074289406 335:0.11778639 336:0.16774332 337:0.15956072 338:0.097975883 339:0.1294143 340:0.039190353 341:0.040482343 342:0.11670973 343:0.063522825 344:0.14319552 345:0.12273902 346:0.1621447 347:0.10551249 348:0.087209302 349:0.10055986 350:0.057924203 351:0.0096899225 352:0.016795866 353:0.12618432 354:0.13565891 355:0.16042205 356:0.3671404 357:0.11498708 358:0.062015504 359:0.0064599483 360:0.00064599483 
0.1562421775711326 1:0.16688368 2:0.18467882 3:0.15321181 4:0.12109375 5:0.1000434 6:0.10872396 7:0.056206597 8:0.073133681 9:0.024305556 10:0.01171875 11:0.26649306 12:0.140625 13:0.15190972 14:0.11241319 15:0.10199653 16:0.073567708 17:0.049913194 18:0.073350694 19:0.017361111 20:0.012369792 21:0.0069444444 22:0.018012153 23:0.043185764 24:0.18424479 25:0.35915799 26:0.2202691 27:0.12261285 28:0.033203125 29:0.010850694 30:0.0015190972 31:0.16688368 32:0.18467882 33:0.15321181 34:0.12109375 35:0.1000434 36:0.10872396 37:0.056206597 38:0.073133681 39:0.024305556 40:0.01171875 41:0.26649306 42:0.140625 43:0.15190972 44:0.11241319 45:0.10199653 46:0.073567708 47:0.049913194 48:0.073350694 49:0.017361111 50:0.012369792 51:0.0069444444 52:0.018012153 53:0.043185764 54:0.18424479 55:0.35915799 56:0.2202691 57:0.12261285 58:0.033203125 59:0.010850694 60:0.0015190972 61:0.12565104 62:0.15169271 63:0.23828125 64:0.19813368 65:0.13107639 66:0.11197917 67:0.019748264 68:0.0084635417 69:0.0073784722 70:0.0075954861 71:0.095269097 72:0.15820312 73:0.29448785 74:0.18793403 75:0.10763889 76:0.12261285 77:0.011067708 78:0.0095486111 79:0.0067274306 80:0.0065104167 81:0.00086805556 82:0.00390625 83:0.029730903 84:0.17664931 85:0.28211806 86:0.29275174 87:0.16666667 88:0.038411458 89:0.0075954861 90:0.0013020833 91:0.12565104 92:0.15169271 93:0.23828125 94:0.19813368 95:0.13107639 96:0.11197917 97:0.019748264 98:0.0084635417 99:0.0073784722 100:0.0075954861 101:0.095269097 102:0.15820312 103:0.29448785 104:0.18793403 105:0.10763889 106:0.12261285 107:0.011067708 108:0.0095486111 109:0.0067274306 110:0.0065104167 111:0.00086805556 112:0.00390625 113:0.029730903 114:0.17664931 115:0.28211806 116:0.29275174 117:0.16666667 118:0.038411458 119:0.0075954861 120:0.0013020833 121:0.12369792 122:0.12586806 123:0.1312934 124:0.19184028 125:0.22265625 126:0.10069444 127:0.046006944 128:0.016927083 129:0.021050347 130:0.019965278 131:0.0043402778 132:0.11154514 133:0.20572917 134:0.16276042 135:0.24587674 136:0.16276042 137:0.051649306 138:0.026041667 139:0.02734375 140:0.001953125 141:0.022135417 142:0.087673611 143:0.20203993 144:0.12326389 145:0.20290799 146:0.13302951 147:0.12803819 148:0.065755208 149:0.031901042 150:0.0032552083 151:0.12369792 152:0.12586806 153:0.1312934 154:0.19184028 155:0.22265625 156:0.10069444 157:0.046006944 158:0.016927083 159:0.021050347 160:0.019965278 161:0.0043402778 162:0.11154514 163:0.20572917 164:0.16276042 165:0.24587674 166:0.16276042 167:0.051649306 168:0.026041667 169:0.02734375 170:0.001953125 171:0.022135417 172:0.087673611 173:0.20203993 174:0.12326389 175:0.20290799 176:0.13302951 177:0.12803819 178:0.065755208 179:0.031901042 180:0.0032552083 181:0.31163194 182:0.18880208 183:0.11480035 184:0.1343316 185:0.032335069 186:0.024305556 187:0.042100694 188:0.055121528 189:0.074435764 190:0.022135417 191:0.43033854 192:0.18880208 193:0.140625 194:0.033203125 195:0.045572917 196:0.04296875 197:0.042100694 198:0.056423611 199:0.016493056 200:0.0034722222 201:0.0049913194 202:0.024305556 203:0.087022569 204:0.29123264 205:0.39930556 206:0.15516493 207:0.023654514 208:0.010850694 209:0.0021701389 210:0.0013020833 211:0.31163194 212:0.18880208 213:0.11480035 214:0.1343316 215:0.032335069 216:0.024305556 217:0.042100694 218:0.055121528 219:0.074435764 220:0.022135417 221:0.43033854 222:0.18880208 223:0.140625 224:0.033203125 225:0.045572917 226:0.04296875 227:0.042100694 228:0.056423611 229:0.016493056 230:0.0034722222 231:0.0049913194 232:0.024305556 233:0.087022569 234:0.29123264 235:0.39930556 236:0.15516493 237:0.023654514 238:0.010850694 239:0.0021701389 240:0.0013020833 241:0.078125 242:0.21202257 243:0.22395833 244:0.10980903 245:0.0703125 246:0.096788194 247:0.10416667 248:0.069444444 249:0.030164931 250:0.0052083333 251:0.050347222 252:0.2016059 253:0.23611111 254:0.11132812 255:0.055772569 256:0.087456597 257:0.11002604 258:0.10655382 259:0.025173611 260:0.015625 261:0.0062934028 262:0.0088975694 263:0.02734375 264:0.036241319 265:0.21484375 266:0.35177951 267:0.22439236 268:0.11002604 269:0.016927083 270:0.0032552083 271:0.078125 272:0.21202257 273:0.22395833 274:0.10980903 275:0.0703125 276:0.096788194 277:0.10416667 278:0.069444444 279:0.030164931 280:0.0052083333 281:0.050347222 282:0.2016059 283:0.23611111 284:0.11132812 285:0.055772569 286:0.087456597 287:0.11002604 288:0.10655382 289:0.025173611 290:0.015625 291:0.0062934028 292:0.0088975694 293:0.02734375 294:0.036241319 295:0.21484375 296:0.35177951 297:0.22439236 298:0.11002604 299:0.016927083 300:0.0032552083 301:0.043185764 302:0.097873264 303:0.094835069 304:0.096571181 305:0.10525174 306:0.19748264 307:0.085720486 308:0.11414931 309:0.125 310:0.039930556 311:0.056857639 312:0.1171875 313:0.13259549 314:0.12890625 315:0.14366319 316:0.081597222 317:0.11132812 318:0.090060764 319:0.12391493 320:0.013888889 321:0.0017361111 322:0.0049913194 323:0.041883681 324:0.060763889 325:0.20225694 326:0.18229167 327:0.35742188 328:0.092013889 329:0.049479167 330:0.0071614583 331:0.043185764 332:0.097873264 333:0.094835069 334:0.096571181 335:0.10525174 336:0.19748264 337:0.085720486 338:0.11414931 339:0.125 340:0.039930556 341:0.056857639 342:0.1171875 343:0.13259549 344:0.12890625 345:0.14366319 346:0.081597222 347:0.11132812 348:0.090060764 349:0.12391493 350:0.013888889 351:0.0017361111 352:0.0049913194 353:0.041883681 354:0.060763889 355:0.20225694 356:0.18229167 357:0.35742188 358:0.092013889 359:0.049479167 360:0.0071614583 
0.5434084096329025 1:0.20421007 2:0.18381076 3:0.13498264 4:0.14409722 5:0.096354167 6:0.079427083 7:0.072482639 8:0.056857639 9:0.018012153 10:0.009765625 11:0.27213542 12:0.17382812 13:0.10329861 14:0.15342882 15:0.095269097 16:0.049696181 17:0.071831597 18:0.055338542 19:0.017144097 20:0.0080295139 21:0.0075954861 22:0.018663194 23:0.091796875 24:0.29036458 25:0.15625 26:0.2578125 27:0.13867188 28:0.030815972 29:0.0073784722 30:0.00065104167 31:0.20421007 32:0.18381076 33:0.13498264 34:0.14409722 35:0.096354167 36:0.079427083 37:0.072482639 38:0.056857639 39:0.018012153 40:0.009765625 41:0.27213542 42:0.17382812 43:0.10329861 44:0.15342882 45:0.095269097 46:0.049696181 47:0.071831597 48:0.055338542 49:0.017144097 50:0.0080295139 51:0.0075954861 52:0.018663194 53:0.091796875 54:0.29036458 55:0.15625 56:0.2578125 57:0.13867188 58:0.030815972 59:0.0073784722 60:0.00065104167 61:0.12282986 62:0.11002604 63:0.28797743 64:0.2109375 65:0.12717014 66:0.10698785 67:0.018446181 68:0.0065104167 69:0.0034722222 70:0.0056423611 71:0.077039931 72:0.1781684 73:0.34201389 74:0.16970486 75:0.15885417 76:0.053602431 77:0.0062934028 78:0.005859375 79:0.0036892361 80:0.0047743056 81:0.012369792 82:0.057725694 83:0.083116319 84:0.30251736 85:0.15711806 86:0.24739583 87:0.11653646 88:0.016493056 89:0.0043402778 90:0.0023871528 91:0.12282986 92:0.11002604 93:0.28797743 94:0.2109375 95:0.12717014 96:0.10698785 97:0.018446181 98:0.0065104167 99:0.0034722222 100:0.0056423611 101:0.077039931 102:0.1781684 103:0.34201389 104:0.16970486 105:0.15885417 106:0.053602431 107:0.0062934028 108:0.005859375 109:0.0036892361 110:0.0047743056 111:0.012369792 112:0.057725694 113:0.083116319 114:0.30251736 115:0.15711806 116:0.24739583 117:0.11653646 118:0.016493056 119:0.0043402778 120:0.0023871528 121:0.055121528 122:0.17513021 123:0.125 124:0.18532986 125:0.21788194 126:0.11653646 127:0.076388889 128:0.015842014 129:0.018012153 130:0.014756944 131:0.25455729 132:0.18923611 133:0.063368056 134:0.22764757 135:0.10373264 136:0.10655382 137:0.028428819 138:0.009765625 139:0.014539931 140:0.0021701389 141:0.024305556 142:0.085069444 143:0.17751736 144:0.31271701 145:0.13932292 146:0.12239583 147:0.12239583 148:0.010633681 149:0.0043402778 150:0.0013020833 151:0.055121528 152:0.17513021 153:0.125 154:0.18532986 155:0.21788194 156:0.11653646 157:0.076388889 158:0.015842014 159:0.018012153 160:0.014756944 161:0.25455729 162:0.18923611 163:0.063368056 164:0.22764757 165:0.10373264 166:0.10655382 167:0.028428819 168:0.009765625 169:0.014539931 170:0.0021701389 171:0.024305556 172:0.085069444 173:0.17751736 174:0.31271701 175:0.13932292 176:0.12239583 177:0.12239583 178:0.010633681 179:0.0043402778 180:0.0013020833 181:0.30273438 182:0.17513021 183:0.14474826 184:0.14908854 185:0.031032986 186:0.020616319 187:0.028862847 188:0.044487847 189:0.054904514 190:0.048394097 191:0.42447917 192:0.20855035 193:0.15169271 194:0.027126736 195:0.036458333 196:0.035373264 197:0.047743056 198:0.056206597 199:0.0088975694 200:0.0034722222 201:0.020833333 202:0.065538194 203:0.27387153 204:0.45399306 205:0.14800347 206:0.024522569 207:0.0075954861 208:0.0034722222 209:0.0013020833 210:0.00086805556 211:0.30273438 212:0.17513021 213:0.14474826 214:0.14908854 215:0.031032986 216:0.020616319 217:0.028862847 218:0.044487847 219:0.054904514 220:0.048394097 221:0.42447917 222:0.20855035 223:0.15169271 224:0.027126736 225:0.036458333 226:0.035373264 227:0.047743056 228:0.056206597 229:0.0088975694 230:0.0034722222 231:0.020833333 232:0.065538194 233:0.27387153 234:0.45399306 235:0.14800347 236:0.024522569 237:0.0075954861 238:0.0034722222 239:0.0013020833 240:0.00086805556 241:0.059461806 242:0.1733941 243:0.26888021 244:0.099826389 245:0.075737847 246:0.088975694 247:0.11501736 248:0.072916667 249:0.031684028 250:0.014105903 251:0.024088542 252:0.16731771 253:0.28385417 254:0.1171875 255:0.071614583 256:0.090711806 257:0.1000434 258:0.10329861 259:0.033854167 260:0.0080295139 261:0.001953125 262:0.010416667 263:0.029079861 264:0.090060764 265:0.16601562 266:0.33094618 267:0.29774306 268:0.064019097 269:0.0082465278 270:0.0015190972 271:0.059461806 272:0.1733941 273:0.26888021 274:0.099826389 275:0.075737847 276:0.088975694 277:0.11501736 278:0.072916667 279:0.031684028 280:0.014105903 281:0.024088542 282:0.16731771 283:0.28385417 284:0.1171875 285:0.071614583 286:0.090711806 287:0.1000434 288:0.10329861 289:0.033854167 290:0.0080295139 291:0.001953125 292:0.010416667 293:0.029079861 294:0.090060764 295:0.16601562 296:0.33094618 297:0.29774306 298:0.064019097 299:0.0082465278 300:0.0015190972 301:0.052734375 302:0.093532986 303:0.079210069 304:0.099826389 305:0.12196181 306:0.18554688 307:0.10026042 308:0.094401042 309:0.13042535 310:0.042100694 311:0.0015190972 312:0.12065972 313:0.088107639 314:0.12565104 315:0.095703125 316:0.18098958 317:0.092447917 318:0.1030816 319:0.092013889 320:0.099826389 321:0.0034722222 322:0.031032986 323:0.076605903 324:0.19661458 325:0.17751736 326:0.34505208 327:0.14605035 328:0.015625 329:0.0071614583 330:0.00086805556 331:0.052734375 332:0.093532986 333:0.079210069 334:0.099826389 335:0.12196181 336:0.18554688 337:0.10026042 338:0.094401042 339:0.13042535 340:0.042100694 341:0.0015190972 342:0.12065972 343:0.088107639 344:0.12565104 345:0.095703125 346:0.18098958 347:0.092447917 348:0.1030816 349:0.092013889 350:0.099826389 351:0.0034722222 352:0.031032986 353:0.076605903 354:0.19661458 355:0.17751736 356:0.34505208 357:0.14605035 358:0.015625 359:0.0071614583 360:0.00086805556 
0.8422172339307845 1:0.29495335 2:0.22201018 3:0.17663274 4:0.16051739 5:0.088210348 6:0.030322307 7:0.012298558 8:0.0061492791 9:0.0053011026 10:0.0036047498 11:0.42514843 12:0.22370653 13:0.17917727 14:0.10050891 15:0.035199321 16:0.017811705 17:0.0046649703 18:0.0061492791 19:0.0044529262 20:0.0031806616 21:0.3452078 22:0.28986429 23:0.18044953 24:0.10750636 25:0.037531807 26:0.020568278 27:0.0053011026 28:0.0055131467 29:0.0048770144 30:0.0031806616 31:0.29495335 32:0.22201018 33:0.17663274 34:0.16051739 35:0.088210348 36:0.030322307 37:0.012298558 38:0.0061492791 39:0.0053011026 40:0.0036047498 41:0.42514843 42:0.22370653 43:0.17917727 44:0.10050891 45:0.035199321 46:0.017811705 47:0.0046649703 48:0.0061492791 49:0.0044529262 50:0.0031806616 51:0.3452078 52:0.28986429 53:0.18044953 54:0.10750636 55:0.037531807 56:0.020568278 57:0.0053011026 58:0.0055131467 59:0.0048770144 60:0.0031806616 61:0.014206955 62:0.12425785 63:0.12680237 64:0.17408821 65:0.23770144 66:0.20695505 67:0.078244275 68:0.026505513 69:0.0089058524 70:0.0023324852 71:0.055343511 72:0.1692112 73:0.18278202 74:0.28117048 75:0.20949958 76:0.057675997 77:0.03307888 78:0.0091178965 79:0.0012722646 80:0.00084817642 81:0.0048770144 82:0.13719254 83:0.18850721 84:0.29749788 85:0.25508906 86:0.072519084 87:0.03201866 88:0.0097540288 89:0.0016963528 90:0.00084817642 91:0.014206955 92:0.12425785 93:0.12680237 94:0.17408821 95:0.23770144 96:0.20695505 97:0.078244275 98:0.026505513 99:0.0089058524 100:0.0023324852 101:0.055343511 102:0.1692112 103:0.18278202 104:0.28117048 105:0.20949958 106:0.057675997 107:0.03307888 108:0.0091178965 109:0.0012722646 110:0.00084817642 111:0.0048770144 112:0.13719254 113:0.18850721 114:0.29749788 115:0.25508906 116:0.072519084 117:0.03201866 118:0.0097540288 119:0.0016963528 120:0.00084817642 121:0.012298558 122:0.052798982 123:0.14058524 124:0.21374046 125:0.20377439 126:0.18384224 127:0.11938083 128:0.057463953 129:0.014418999 130:0.0016963528 131:0.011026293 132:0.10517388 133:0.20462256 134:0.16284987 135:0.22603902 136:0.16306192 137:0.069762511 138:0.044741306 139:0.0097540288 140:0.0029686175 141:0.01187447 142:0.15988126 143:0.18935539 144:0.19253605 145:0.22434266 146:0.12489398 147:0.063613232 148:0.025657337 149:0.0063613232 150:0.0014843087 151:0.012298558 152:0.052798982 153:0.14058524 154:0.21374046 155:0.20377439 156:0.18384224 157:0.11938083 158:0.057463953 159:0.014418999 160:0.0016963528 161:0.011026293 162:0.10517388 163:0.20462256 164:0.16284987 165:0.22603902 166:0.16306192 167:0.069762511 168:0.044741306 169:0.0097540288 170:0.0029686175 171:0.01187447 172:0.15988126 173:0.18935539 174:0.19253605 175:0.22434266 176:0.12489398 177:0.063613232 178:0.025657337 179:0.0063613232 180:0.0014843087 181:0.040712468 182:0.10326548 183:0.096480068 184:0.10899067 185:0.13698049 186:0.14334182 187:0.15500424 188:0.12659033 189:0.078456319 190:0.010178117 191:0.064673452 192:0.11980492 193:0.10750636 194:0.12171332 195:0.11407973 196:0.15076336 197:0.14058524 198:0.099024597 199:0.073579304 200:0.0082697201 201:0.062340967 202:0.11832061 203:0.12022901 204:0.11365564 205:0.10814249 206:0.16793893 207:0.13952502 208:0.098812553 209:0.062765055 210:0.0082697201 211:0.040712468 212:0.10326548 213:0.096480068 214:0.10899067 215:0.13698049 216:0.14334182 217:0.15500424 218:0.12659033 219:0.078456319 220:0.010178117 221:0.064673452 222:0.11980492 223:0.10750636 224:0.12171332 225:0.11407973 226:0.15076336 227:0.14058524 228:0.099024597 229:0.073579304 230:0.0082697201 231:0.062340967 232:0.11832061 233:0.12022901 234:0.11365564 235:0.10814249 236:0.16793893 237:0.13952502 238:0.098812553 239:0.062765055 240:0.0082697201 241:0.023960984 242:0.077396098 243:0.10687023 244:0.14779474 245:0.08524173 246:0.13273961 247:0.21268024 248:0.13464801 249:0.053859203 250:0.02480916 251:0.067005937 252:0.17133164 253:0.13379983 254:0.085877863 255:0.1115352 256:0.17048346 257:0.13061917 258:0.08163698 259:0.034775233 260:0.01293469 261:0.091603053 262:0.18744699 263:0.11704835 264:0.093935539 265:0.099024597 266:0.16242578 267:0.12256149 268:0.071670908 269:0.033290925 270:0.020992366 271:0.023960984 272:0.077396098 273:0.10687023 274:0.14779474 275:0.08524173 276:0.13273961 277:0.21268024 278:0.13464801 279:0.053859203 280:0.02480916 281:0.067005937 282:0.17133164 283:0.13379983 284:0.085877863 285:0.1115352 286:0.17048346 287:0.13061917 288:0.08163698 289:0.034775233 290:0.01293469 291:0.091603053 292:0.18744699 293:0.11704835 294:0.093935539 295:0.099024597 296:0.16242578 297:0.12256149 298:0.071670908 299:0.033290925 300:0.020992366 301:0.082697201 302:0.087150127 303:0.22858355 304:0.15330789 305:0.10178117 306:0.078880407 307:0.11747243 308:0.11938083 309:0.02841391 310:0.0023324852 311:0.10814249 312:0.18023749 313:0.25954198 314:0.088422392 315:0.057675997 316:0.093299406 317:0.12298558 318:0.071882952 319:0.015903308 320:0.0019083969 321:0.10856658 322:0.1961408 323:0.25593723 324:0.083333333 325:0.063401187 326:0.10008482 327:0.12425785 328:0.053647159 329:0.012722646 330:0.0019083969 331:0.082697201 332:0.087150127 333:0.22858355 334:0.15330789 335:0.10178117 336:0.078880407 337:0.11747243 338:0.11938083 339:0.02841391 340:0.0023324852 341:0.10814249 342:0.18023749 343:0.25954198 344:0.088422392 345:0.057675997 346:0.093299406 347:0.12298558 348:0.071882952 349:0.015903308 350:0.0019083969 351:0.10856658 352:0.1961408 353:0.25593723 354:0.083333333 355:0.063401187 356:0.10008482 357:0.12425785 358:0.053647159 359:0.012722646 360:0.0019083969 
0.1659980007629561 1:0.57200855 2:0.35897436 3:0.032051282 4:0.025 5:0.0068376068 6:0.0019230769 7:0.0014957265 8:0.0010683761 9:0.00042735043 10:0.00021367521 11:0.88397436 12:0.073290598 13:0.030982906 14:0.0061965812 15:0.002991453 16:0.00042735043 17:0.00021367521 18:0.00085470085 19:0.00085470085 20:0.00021367521 21:0.92478632 22:0.054487179 23:0.013675214 24:0.0036324786 25:0.00064102564 26:0.00042735043 27:0.00085470085 28:0.00021367521 29:0.00042735043 30:0.00085470085 31:0.57200855 32:0.35897436 33:0.032051282 34:0.025 35:0.0068376068 36:0.0019230769 37:0.0014957265 38:0.0010683761 39:0.00042735043 40:0.00021367521 41:0.88397436 42:0.073290598 43:0.030982906 44:0.0061965812 45:0.002991453 46:0.00042735043 47:0.00021367521 48:0.00085470085 49:0.00085470085 50:0.00021367521 51:0.92478632 52:0.054487179 53:0.013675214 54:0.0036324786 55:0.00064102564 56:0.00042735043 57:0.00085470085 58:0.00021367521 59:0.00042735043 60:0.00085470085 61:0.0047008547 62:0.0091880342 63:0.068803419 64:0.12286325 65:0.21495726 66:0.24594017 67:0.10790598 68:0.14871795 69:0.074145299 70:0.0027777778 71:0.0049145299 72:0.021153846 73:0.15405983 74:0.23247863 75:0.15726496 76:0.13547009 77:0.16837607 78:0.062820513 79:0.025854701 80:0.037606838 81:0.057264957 82:0.10982906 83:0.19081197 84:0.30512821 85:0.13141026 86:0.097649573 87:0.052991453 88:0.0085470085 89:0.025854701 90:0.020512821 91:0.0047008547 92:0.0091880342 93:0.068803419 94:0.12286325 95:0.21495726 96:0.24594017 97:0.10790598 98:0.14871795 99:0.074145299 100:0.0027777778 101:0.0049145299 102:0.021153846 103:0.15405983 104:0.23247863 105:0.15726496 106:0.13547009 107:0.16837607 108:0.062820513 109:0.025854701 110:0.037606838 111:0.057264957 112:0.10982906 113:0.19081197 114:0.30512821 115:0.13141026 116:0.097649573 117:0.052991453 118:0.0085470085 119:0.025854701 120:0.020512821 121:0.058760684 122:0.0010683761 123:0.069871795 124:0.05534188 125:0.36132479 126:0.28910256 127:0.10405983 128:0.05 129:0.0066239316 130:0.0038461538 131:0.037393162 132:0.026495726 133:0.0021367521 134:0.33760684 136:0.22521368 137:0.20534188 138:0.085042735 139:0.047649573 140:0.033119658 141:0.0010683761 142:0.0021367521 143:0.037393162 144:0.029273504 145:0.0051282051 146:0.35064103 147:0.25448718 148:0.23162393 149:0.072008547 150:0.016239316 151:0.058760684 152:0.0010683761 153:0.069871795 154:0.05534188 155:0.36132479 156:0.28910256 157:0.10405983 158:0.05 159:0.0066239316 160:0.0038461538 161:0.037393162 162:0.026495726 163:0.0021367521 164:0.33760684 166:0.22521368 167:0.20534188 168:0.085042735 169:0.047649573 170:0.033119658 171:0.0010683761 172:0.0021367521 173:0.037393162 174:0.029273504 175:0.0051282051 176:0.35064103 177:0.25448718 178:0.23162393 179:0.072008547 180:0.016239316 181:0.13226496 182:0.085470085 183:0.14615385 184:0.027777778 185:0.12692308 186:0.10641026 187:0.10064103 188:0.15128205 189:0.099145299 190:0.023931624 191:0.12136752 192:0.22905983 193:0.021153846 194:0.088247863 195:0.12350427 196:0.088675214 197:0.13440171 198:0.068376068 199:0.10982906 200:0.015384615 201:0.12991453 202:0.21324786 203:0.040598291 204:0.070299145 205:0.13098291 206:0.092094017 207:0.1224359 208:0.10854701 209:0.068376068 210:0.023504274 211:0.13226496 212:0.085470085 213:0.14615385 214:0.027777778 215:0.12692308 216:0.10641026 217:0.10064103 218:0.15128205 219:0.099145299 220:0.023931624 221:0.12136752 222:0.22905983 223:0.021153846 224:0.088247863 225:0.12350427 226:0.088675214 227:0.13440171 228:0.068376068 229:0.10982906 230:0.015384615 231:0.12991453 232:0.21324786 233:0.040598291 234:0.070299145 235:0.13098291 236:0.092094017 237:0.1224359 238:0.10854701 239:0.068376068 240:0.023504274 241:0.033547009 242:0.36730769 243:0.072222222 244:0.093803419 245:0.1241453 246:0.15106838 247:0.081196581 248:0.041025641 249:0.026068376 250:0.0096153846 251:0.30491453 252:0.10961538 253:0.076068376 254:0.13717949 255:0.11987179 256:0.10213675 257:0.083760684 258:0.050641026 259:0.010470085 260:0.0053418803 261:0.25833333 262:0.23034188 263:0.058119658 264:0.18525641 265:0.11089744 266:0.051495726 267:0.075641026 268:0.019017094 269:0.0072649573 270:0.0036324786 271:0.033547009 272:0.36730769 273:0.072222222 274:0.093803419 275:0.1241453 276:0.15106838 277:0.081196581 278:0.041025641 279:0.026068376 280:0.0096153846 281:0.30491453 282:0.10961538 283:0.076068376 284:0.13717949 285:0.11987179 286:0.10213675 287:0.083760684 288:0.050641026 289:0.010470085 290:0.0053418803 291:0.25833333 292:0.23034188 293:0.058119658 294:0.18525641 295:0.11089744 296:0.051495726 297:0.075641026 298:0.019017094 299:0.0072649573 300:0.0036324786 301:0.0068376068 302:0.12991453 303:0.23183761 304:0.34679487 305:0.035897436 306:0.15277778 307:0.076068376 308:0.0091880342 309:0.0098290598 310:0.00085470085 311:0.019017094 312:0.46260684 313:0.12051282 314:0.12222222 315:0.023076923 316:0.091239316 317:0.15491453 318:0.0047008547 319:0.00085470085 320:0.00085470085 321:0.00064102564 322:0.02991453 323:0.53418803 324:0.13354701 325:0.072649573 326:0.12884615 327:0.075641026 328:0.022222222 329:0.00064102564 330:0.0017094017 331:0.0068376068 332:0.12991453 333:0.23183761 334:0.34679487 335:0.035897436 336:0.15277778 337:0.076068376 338:0.0091880342 339:0.0098290598 340:0.00085470085 341:0.019017094 342:0.46260684 343:0.12051282 344:0.12222222 345:0.023076923 346:0.091239316 347:0.15491453 348:0.0047008547 349:0.00085470085 350:0.00085470085 351:0.00064102564 352:0.02991453 353:0.53418803 354:0.13354701 355:0.072649573 356:0.12884615 357:0.075641026 358:0.022222222 359:0.00064102564 360:0.0017094017 
0.265109893896139 1:0.23923342 2:0.53789836 3:0.16386736 4:0.027347115 5:0.019379845 6:0.0083979328 7:0.0023686477 8:0.00086132644 9:0.00043066322 10:0.00021533161 11:0.63975022 12:0.29952627 13:0.037898363 14:0.016149871 15:0.0047372954 16:0.00086132644 18:0.00043066322 19:0.00043066322 20:0.00021533161 21:0.76959518 22:0.1873385 23:0.031869078 24:0.0083979328 25:0.00064599483 26:0.0010766581 27:0.00043066322 29:0.00043066322 30:0.00021533161 31:0.23923342 32:0.53789836 33:0.16386736 34:0.027347115 35:0.019379845 36:0.0083979328 37:0.0023686477 38:0.00086132644 39:0.00043066322 40:0.00021533161 41:0.63975022 42:0.29952627 43:0.037898363 44:0.016149871 45:0.0047372954 46:0.00086132644 48:0.00043066322 49:0.00043066322 50:0.00021533161 51:0.76959518 52:0.1873385 53:0.031869078 54:0.0083979328 55:0.00064599483 56:0.0010766581 57:0.00043066322 59:0.00043066322 60:0.00021533161 61:0.0027993109 62:0.0073212748 63:0.021317829 64:0.17011197 65:0.207795 66:0.11175711 67:0.2213609 68:0.012919897 69:0.15245478 70:0.092161929 71:0.0032299742 72:0.015934539 73:0.15439276 74:0.20327304 75:0.12726098 76:0.18001723 77:0.166882 78:0.068044789 79:0.030361757 80:0.050602929 81:0.04005168 82:0.088070629 83:0.23212748 84:0.28660637 85:0.12316968 86:0.10142119 87:0.059431525 88:0.010981912 89:0.030361757 90:0.027777778 91:0.0027993109 92:0.0073212748 93:0.021317829 94:0.17011197 95:0.207795 96:0.11175711 97:0.2213609 98:0.012919897 99:0.15245478 100:0.092161929 101:0.0032299742 102:0.015934539 103:0.15439276 104:0.20327304 105:0.12726098 106:0.18001723 107:0.166882 108:0.068044789 109:0.030361757 110:0.050602929 111:0.04005168 112:0.088070629 113:0.23212748 114:0.28660637 115:0.12316968 116:0.10142119 117:0.059431525 118:0.010981912 119:0.030361757 120:0.027777778 121:0.051679587 123:0.063307494 124:0.043927649 125:0.33613264 126:0.15137812 127:0.14965547 128:0.11347976 129:0.075150732 130:0.015288544 131:0.030146425 132:0.027993109 133:0.00021533161 134:0.33548665 136:0.19724376 137:0.21339363 138:0.087209302 139:0.058570198 140:0.049741602 141:0.00021533161 142:0.030146425 143:0.030146425 144:0.0034453058 145:0.34323859 146:0.23234281 147:0.25775194 148:0.079457364 149:0.021317829 150:0.0019379845 151:0.051679587 153:0.063307494 154:0.043927649 155:0.33613264 156:0.15137812 157:0.14965547 158:0.11347976 159:0.075150732 160:0.015288544 161:0.030146425 162:0.027993109 163:0.00021533161 164:0.33548665 166:0.19724376 167:0.21339363 168:0.087209302 169:0.058570198 170:0.049741602 171:0.00021533161 172:0.030146425 173:0.030146425 174:0.0034453058 175:0.34323859 176:0.23234281 177:0.25775194 178:0.079457364 179:0.021317829 180:0.0019379845 181:0.1627907 182:0.11369509 183:0.099052541 184:0.062446167 185:0.10852713 186:0.208441 187:0.10465116 188:0.12424634 189:0.010551249 190:0.0055986219 191:0.13178295 192:0.22286822 193:0.034022394 194:0.12790698 195:0.054694229 196:0.14018088 197:0.12661499 198:0.10465116 199:0.054263566 200:0.0030146425 201:0.10314384 202:0.25150732 203:0.034022394 204:0.11326443 205:0.063092162 206:0.16365202 207:0.12962963 208:0.080103359 209:0.058570198 210:0.0030146425 211:0.1627907 212:0.11369509 213:0.099052541 214:0.062446167 215:0.10852713 216:0.208441 217:0.10465116 218:0.12424634 219:0.010551249 220:0.0055986219 221:0.13178295 222:0.22286822 223:0.034022394 224:0.12790698 225:0.054694229 226:0.14018088 227:0.12661499 228:0.10465116 229:0.054263566 230:0.0030146425 231:0.10314384 232:0.25150732 233:0.034022394 234:0.11326443 235:0.063092162 236:0.16365202 237:0.12962963 238:0.080103359 239:0.058570198 240:0.0030146425 241:0.020456503 242:0.38630491 243:0.10852713 244:0.031007752 245:0.1838932 246:0.11757106 247:0.082041344 248:0.044358312 249:0.01744186 250:0.0083979328 251:0.26270457 252:0.15374677 253:0.065891473 254:0.12919897 255:0.12144703 256:0.10874246 257:0.081180017 258:0.048449612 259:0.018949182 260:0.0096899225 261:0.22932817 262:0.24440138 263:0.056847545 264:0.13522825 265:0.10809647 266:0.067829457 267:0.080534022 268:0.048449612 269:0.019595177 270:0.0096899225 271:0.020456503 272:0.38630491 273:0.10852713 274:0.031007752 275:0.1838932 276:0.11757106 277:0.082041344 278:0.044358312 279:0.01744186 280:0.0083979328 281:0.26270457 282:0.15374677 283:0.065891473 284:0.12919897 285:0.12144703 286:0.10874246 287:0.081180017 288:0.048449612 289:0.018949182 290:0.0096899225 291:0.22932817 292:0.24440138 293:0.056847545 294:0.13522825 295:0.10809647 296:0.067829457 297:0.080534022 298:0.048449612 299:0.019595177 300:0.0096899225 301:0.00043066322 302:0.2704565 303:0.29478898 304:0.14857881 305:0.031223084 306:0.1539621 307:0.054909561 308:0.015288544 309:0.029931094 310:0.00043066322 311:0.00043066322 312:0.46899225 313:0.12489233 314:0.12962963 315:0.021533161 316:0.078596038 317:0.17312661 318:0.0021533161 319:0.00021533161 320:0.00043066322 321:0.00021533161 322:0.0092592593 323:0.53596038 324:0.07622739 325:0.11541774 326:0.11197244 327:0.052971576 328:0.0708441 329:0.02670112 330:0.00043066322 331:0.00043066322 332:0.2704565 333:0.29478898 334:0.14857881 335:0.031223084 336:0.1539621 337:0.054909561 338:0.015288544 339:0.029931094 340:0.00043066322 341:0.00043066322 342:0.46899225 343:0.12489233 344:0.12962963 345:0.021533161 346:0.078596038 347:0.17312661 348:0.0021533161 349:0.00021533161 350:0.00043066322 351:0.00021533161 352:0.0092592593 353:0.53596038 354:0.07622739 355:0.11541774 356:0.11197244 357:0.052971576 358:0.0708441 359:0.02670112 360:0.00043066322 
0.1445770399081933 1:0.3671875 2:0.53190104 3:0.048394097 4:0.031032986 5:0.011935764 6:0.0067274306 7:0.00086805556 8:0.00043402778 9:0.0010850694 10:0.00043402778 11:0.58355035 12:0.33528646 13:0.046875 14:0.022135417 15:0.0082465278 16:0.0017361111 17:0.00021701389 18:0.00043402778 19:0.00086805556 20:0.00065104167 21:0.72829861 22:0.22287326 23:0.035807292 24:0.0091145833 25:0.0013020833 26:0.00065104167 27:0.00043402778 28:0.00043402778 29:0.00043402778 30:0.00065104167 31:0.3671875 32:0.53190104 33:0.048394097 34:0.031032986 35:0.011935764 36:0.0067274306 37:0.00086805556 38:0.00043402778 39:0.0010850694 40:0.00043402778 41:0.58355035 42:0.33528646 43:0.046875 44:0.022135417 45:0.0082465278 46:0.0017361111 47:0.00021701389 48:0.00043402778 49:0.00086805556 50:0.00065104167 51:0.72829861 52:0.22287326 53:0.035807292 54:0.0091145833 55:0.0013020833 56:0.00065104167 57:0.00043402778 58:0.00043402778 59:0.00043402778 60:0.00065104167 61:0.001953125 62:0.034939236 63:0.030598958 64:0.24153646 65:0.10177951 66:0.36697049 67:0.15711806 68:0.053602431 69:0.010633681 70:0.00086805556 71:0.0080295139 72:0.012803819 73:0.18771701 74:0.22916667 75:0.1312934 76:0.075954861 77:0.19856771 78:0.060763889 79:0.041666667 80:0.054036458 81:0.011501736 82:0.012803819 83:0.19466146 84:0.38888889 85:0.19205729 86:0.067274306 87:0.056206597 89:0.041666667 90:0.034939236 91:0.001953125 92:0.034939236 93:0.030598958 94:0.24153646 95:0.10177951 96:0.36697049 97:0.15711806 98:0.053602431 99:0.010633681 100:0.00086805556 101:0.0080295139 102:0.012803819 103:0.18771701 104:0.22916667 105:0.1312934 106:0.075954861 107:0.19856771 108:0.060763889 109:0.041666667 110:0.054036458 111:0.011501736 112:0.012803819 113:0.19466146 114:0.38888889 115:0.19205729 116:0.067274306 117:0.056206597 119:0.041666667 120:0.034939236 121:0.032986111 122:0.037326389 124:0.10677083 125:0.29513889 126:0.10763889 127:0.30013021 128:0.078559028 129:0.023871528 130:0.017578125 131:0.0017361111 132:0.03125 133:0.0390625 134:0.0017361111 135:0.31662326 136:0.17317708 137:0.18880208 138:0.13324653 139:0.052734375 140:0.061631944 141:0.0034722222 142:0.03125 143:0.042534722 144:0.0086805556 145:0.32530382 146:0.21310764 147:0.23394097 148:0.12977431 149:0.0093315972 150:0.0026041667 151:0.032986111 152:0.037326389 154:0.10677083 155:0.29513889 156:0.10763889 157:0.30013021 158:0.078559028 159:0.023871528 160:0.017578125 161:0.0017361111 162:0.03125 163:0.0390625 164:0.0017361111 165:0.31662326 166:0.17317708 167:0.18880208 168:0.13324653 169:0.052734375 170:0.061631944 171:0.0034722222 172:0.03125 173:0.042534722 174:0.0086805556 175:0.32530382 176:0.21310764 177:0.23394097 178:0.12977431 179:0.0093315972 180:0.0026041667 181:0.021701389 182:0.20594618 183:0.16948785 184:0.037326389 185:0.12868924 186:0.18967014 187:0.14149306 188:0.084418403 189:0.016276042 190:0.0049913194 191:0.19010417 192:0.19227431 193:0.035590278 194:0.084852431 195:0.11197917 196:0.18706597 197:0.095052083 198:0.085069444 199:0.012803819 200:0.0052083333 201:0.052083333 202:0.29188368 203:0.090494792 204:0.12868924 205:0.093098958 206:0.16623264 207:0.089409722 208:0.074652778 209:0.010850694 210:0.0026041667 211:0.021701389 212:0.20594618 213:0.16948785 214:0.037326389 215:0.12868924 216:0.18967014 217:0.14149306 218:0.084418403 219:0.016276042 220:0.0049913194 221:0.19010417 222:0.19227431 223:0.035590278 224:0.084852431 225:0.11197917 226:0.18706597 227:0.095052083 228:0.085069444 229:0.012803819 230:0.0052083333 231:0.052083333 232:0.29188368 233:0.090494792 234:0.12868924 235:0.093098958 236:0.16623264 237:0.089409722 238:0.074652778 239:0.010850694 240:0.0026041667 241:0.071180556 242:0.36197917 243:0.074869792 244:0.10199653 245:0.18641493 246:0.088324653 247:0.071614583 248:0.028862847 249:0.012803819 250:0.001953125 251:0.32703993 252:0.10264757 253:0.074869792 254:0.10546875 255:0.13151042 256:0.083984375 257:0.089626736 258:0.0703125 259:0.0054253472 260:0.0091145833 261:0.069444444 262:0.38845486 263:0.046657986 264:0.10546875 265:0.13151042 266:0.083984375 267:0.090060764 268:0.059895833 269:0.015407986 270:0.0091145833 271:0.071180556 272:0.36197917 273:0.074869792 274:0.10199653 275:0.18641493 276:0.088324653 277:0.071614583 278:0.028862847 279:0.012803819 280:0.001953125 281:0.32703993 282:0.10264757 283:0.074869792 284:0.10546875 285:0.13151042 286:0.083984375 287:0.089626736 288:0.0703125 289:0.0054253472 290:0.0091145833 291:0.069444444 292:0.38845486 293:0.046657986 294:0.10546875 295:0.13151042 296:0.083984375 297:0.090060764 298:0.059895833 299:0.015407986 300:0.0091145833 301:0.0043402778 302:0.32052951 303:0.099609375 304:0.25520833 305:0.054904514 306:0.072699653 307:0.10503472 308:0.0095486111 309:0.054470486 310:0.023654514 311:0.018229167 312:0.19118924 313:0.32855903 314:0.062065972 315:0.07421875 316:0.090060764 317:0.0013020833 318:0.15104167 319:0.047526042 320:0.035807292 321:0.018229167 322:0.20507812 323:0.28493924 324:0.15125868 325:0.086371528 326:0.016927083 327:0.044053819 328:0.09375 329:0.048828125 330:0.050564236 331:0.0043402778 332:0.32052951 333:0.099609375 334:0.25520833 335:0.054904514 336:0.072699653 337:0.10503472 338:0.0095486111 339:0.054470486 340:0.023654514 341:0.018229167 342:0.19118924 343:0.32855903 344:0.062065972 345:0.07421875 346:0.090060764 347:0.0013020833 348:0.15104167 349:0.047526042 350:0.035807292 351:0.018229167 352:0.20507812 353:0.28493924 354:0.15125868 355:0.086371528 356:0.016927083 357:0.044053819 358:0.09375 359:0.048828125 360:0.050564236 
0.174554551245791 1:0.51929601 2:0.39715861 3:0.031170483 4:0.032230704 5:0.013146735 6:0.0025445293 7:0.0016963528 8:0.0010602205 9:0.0010602205 10:0.00063613232 11:0.79728584 12:0.15012723 13:0.031806616 14:0.014206955 15:0.0025445293 16:0.00084817642 17:0.00021204411 18:0.00084817642 19:0.00084817642 20:0.0012722646 21:0.91687871 22:0.055131467 23:0.021628499 24:0.0016963528 25:0.0010602205 26:0.00084817642 27:0.00063613232 28:0.00021204411 29:0.00063613232 30:0.0012722646 31:0.51929601 32:0.39715861 33:0.031170483 34:0.032230704 35:0.013146735 36:0.0025445293 37:0.0016963528 38:0.0010602205 39:0.0010602205 40:0.00063613232 41:0.79728584 42:0.15012723 43:0.031806616 44:0.014206955 45:0.0025445293 46:0.00084817642 47:0.00021204411 48:0.00084817642 49:0.00084817642 50:0.0012722646 51:0.91687871 52:0.055131467 53:0.021628499 54:0.0016963528 55:0.0010602205 56:0.00084817642 57:0.00063613232 58:0.00021204411 59:0.00063613232 60:0.0012722646 61:0.051314673 62:0.035835454 63:0.082273113 64:0.17154368 65:0.13061917 66:0.19189992 67:0.14991518 68:0.0089058524 69:0.13549618 70:0.042196777 71:0.019932146 72:0.19762511 73:0.23261238 74:0.11938083 75:0.12192536 76:0.18575064 77:0.048982188 78:0.033927057 79:0.036471586 80:0.0033927057 81:0.038804071 82:0.26696353 83:0.3778626 84:0.14949109 85:0.052586938 86:0.051526718 88:0.033927057 89:0.025445293 90:0.0033927057 91:0.051314673 92:0.035835454 93:0.082273113 94:0.17154368 95:0.13061917 96:0.19189992 97:0.14991518 98:0.0089058524 99:0.13549618 100:0.042196777 101:0.019932146 102:0.19762511 103:0.23261238 104:0.11938083 105:0.12192536 106:0.18575064 107:0.048982188 108:0.033927057 109:0.036471586 110:0.0033927057 111:0.038804071 112:0.26696353 113:0.3778626 114:0.14949109 115:0.052586938 116:0.051526718 118:0.033927057 119:0.025445293 120:0.0033927057 121:0.070186599 123:0.063825276 124:0.44126378 125:0.14100933 126:0.0971162 127:0.15542833 128:0.016963528 129:0.01187447 130:0.0023324852 131:0.03307888 132:0.046861747 134:0.37234945 135:0.19677693 136:0.17896522 137:0.098176421 138:0.045801527 139:0.025021204 140:0.0029686175 141:0.03307888 142:0.046861747 144:0.37468193 146:0.22455471 147:0.20271416 148:0.098812553 149:0.018023749 150:0.0012722646 151:0.070186599 153:0.063825276 154:0.44126378 155:0.14100933 156:0.0971162 157:0.15542833 158:0.016963528 159:0.01187447 160:0.0023324852 161:0.03307888 162:0.046861747 164:0.37234945 165:0.19677693 166:0.17896522 167:0.098176421 168:0.045801527 169:0.025021204 170:0.0029686175 171:0.03307888 172:0.046861747 174:0.37468193 176:0.22455471 177:0.20271416 178:0.098812553 179:0.018023749 180:0.0012722646 181:0.12001696 182:0.10559796 183:0.1403732 184:0.0485581 185:0.14079729 186:0.10114504 187:0.16412214 188:0.10262935 189:0.064885496 190:0.01187447 191:0.14143342 192:0.22073791 193:0.015903308 194:0.071034775 195:0.10814249 196:0.097964377 197:0.15882103 198:0.058948261 199:0.1062341 200:0.020780322 201:0.053011026 202:0.23134012 203:0.099448685 204:0.066369805 205:0.10771841 206:0.10114504 207:0.12192536 208:0.10644614 209:0.081849025 210:0.030746395 211:0.12001696 212:0.10559796 213:0.1403732 214:0.0485581 215:0.14079729 216:0.10114504 217:0.16412214 218:0.10262935 219:0.064885496 220:0.01187447 221:0.14143342 222:0.22073791 223:0.015903308 224:0.071034775 225:0.10814249 226:0.097964377 227:0.15882103 228:0.058948261 229:0.1062341 230:0.020780322 231:0.053011026 232:0.23134012 233:0.099448685 234:0.066369805 235:0.10771841 236:0.10114504 237:0.12192536 238:0.10644614 239:0.081849025 240:0.030746395 241:0.10708227 242:0.29071247 243:0.13146735 244:0.045377439 245:0.12553011 246:0.15776081 247:0.050254453 248:0.070186599 249:0.015055131 250:0.0065733673 251:0.37871077 252:0.087574215 253:0.04028838 254:0.12765055 255:0.13379983 256:0.089482612 257:0.080152672 258:0.039864292 259:0.015691264 260:0.0067854114 261:0.26187447 262:0.2446989 263:0.062553011 264:0.13019508 265:0.12277354 266:0.035411366 267:0.080152672 268:0.039864292 269:0.015691264 270:0.0067854114 271:0.10708227 272:0.29071247 273:0.13146735 274:0.045377439 275:0.12553011 276:0.15776081 277:0.050254453 278:0.070186599 279:0.015055131 280:0.0065733673 281:0.37871077 282:0.087574215 283:0.04028838 284:0.12765055 285:0.13379983 286:0.089482612 287:0.080152672 288:0.039864292 289:0.015691264 290:0.0067854114 291:0.26187447 292:0.2446989 293:0.062553011 294:0.13019508 295:0.12277354 296:0.035411366 297:0.080152672 298:0.039864292 299:0.015691264 300:0.0067854114 301:0.016115352 302:0.44253605 303:0.14546226 304:0.15076336 305:0.05322307 306:0.11747243 307:0.052798982 308:0.019508058 309:0.0016963528 310:0.00042408821 311:0.016115352 312:0.4749788 313:0.13782867 314:0.11280746 315:0.023324852 316:0.04495335 317:0.16157761 318:0.027777778 319:0.00021204411 320:0.00042408821 321:0.020992366 322:0.29813401 323:0.35687023 324:0.055979644 325:0.07230704 326:0.09245123 327:0.078668363 328:0.017175573 329:0.0065733673 330:0.00084817642 331:0.016115352 332:0.44253605 333:0.14546226 334:0.15076336 335:0.05322307 336:0.11747243 337:0.052798982 338:0.019508058 339:0.0016963528 340:0.00042408821 341:0.016115352 342:0.4749788 343:0.13782867 344:0.11280746 345:0.023324852 346:0.04495335 347:0.16157761 348:0.027777778 349:0.00021204411 350:0.00042408821 351:0.020992366 352:0.29813401 353:0.35687023 354:0.055979644 355:0.07230704 356:0.09245123 357:0.078668363 358:0.017175573 359:0.0065733673 360:0.00084817642 
0.1377298648359242 1:0.45811966 2:0.38910256 3:0.08974359 4:0.024786325 5:0.016880342 6:0.012179487 7:0.0038461538 8:0.0032051282 9:0.0014957265 10:0.00064102564 11:0.65961538 12:0.26538462 13:0.022435897 14:0.022435897 15:0.017521368 16:0.0070512821 17:0.0034188034 18:0.0014957265 19:0.00042735043 20:0.00021367521 21:0.63760684 22:0.28888889 23:0.032051282 24:0.022863248 25:0.01025641 26:0.0042735043 27:0.0019230769 28:0.0012820513 29:0.00042735043 30:0.00042735043 31:0.45811966 32:0.38910256 33:0.08974359 34:0.024786325 35:0.016880342 36:0.012179487 37:0.0038461538 38:0.0032051282 39:0.0014957265 40:0.00064102564 41:0.65961538 42:0.26538462 43:0.022435897 44:0.022435897 45:0.017521368 46:0.0070512821 47:0.0034188034 48:0.0014957265 49:0.00042735043 50:0.00021367521 51:0.63760684 52:0.28888889 53:0.032051282 54:0.022863248 55:0.01025641 56:0.0042735043 57:0.0019230769 58:0.0012820513 59:0.00042735043 60:0.00042735043 61:0.0025641026 62:0.030555556 63:0.10982906 64:0.18824786 65:0.44017094 66:0.10448718 67:0.036965812 68:0.04465812 69:0.030769231 70:0.011752137 71:0.0025641026 72:0.011324786 73:0.20277778 74:0.31452991 75:0.13931624 76:0.20982906 77:0.063247863 78:0.032692308 79:0.0094017094 80:0.014316239 81:0.028205128 82:0.079487179 83:0.27735043 84:0.36474359 85:0.098290598 86:0.06474359 87:0.043162393 88:0.0076923077 89:0.024145299 90:0.012179487 91:0.0025641026 92:0.030555556 93:0.10982906 94:0.18824786 95:0.44017094 96:0.10448718 97:0.036965812 98:0.04465812 99:0.030769231 100:0.011752137 101:0.0025641026 102:0.011324786 103:0.20277778 104:0.31452991 105:0.13931624 106:0.20982906 107:0.063247863 108:0.032692308 109:0.0094017094 110:0.014316239 111:0.028205128 112:0.079487179 113:0.27735043 114:0.36474359 115:0.098290598 116:0.06474359 117:0.043162393 118:0.0076923077 119:0.024145299 120:0.012179487 121:0.047435897 122:0.0014957265 123:0.05 124:0.041452991 125:0.26025641 126:0.3525641 127:0.15534188 128:0.071367521 129:0.0098290598 130:0.01025641 131:0.024358974 132:0.033547009 133:0.00042735043 134:0.36025641 136:0.17799145 137:0.23717949 138:0.068376068 139:0.044871795 140:0.052991453 141:0.00042735043 142:0.024358974 143:0.041666667 144:0.0087606838 145:0.36581197 146:0.19893162 147:0.27777778 148:0.062820513 149:0.015811966 150:0.0036324786 151:0.047435897 152:0.0014957265 153:0.05 154:0.041452991 155:0.26025641 156:0.3525641 157:0.15534188 158:0.071367521 159:0.0098290598 160:0.01025641 161:0.024358974 162:0.033547009 163:0.00042735043 164:0.36025641 166:0.17799145 167:0.23717949 168:0.068376068 169:0.044871795 170:0.052991453 171:0.00042735043 172:0.024358974 173:0.041666667 174:0.0087606838 175:0.36581197 176:0.19893162 177:0.27777778 178:0.062820513 179:0.015811966 180:0.0036324786 181:0.076709402 182:0.088888889 183:0.20448718 184:0.045940171 185:0.12820513 186:0.14935897 187:0.15277778 188:0.12905983 189:0.021367521 190:0.0032051282 191:0.16944444 192:0.19188034 193:0.051923077 194:0.13034188 195:0.096794872 196:0.15491453 197:0.10918803 198:0.082692308 199:0.01025641 200:0.0025641026 201:0.24487179 202:0.11923077 203:0.071581197 204:0.10747863 205:0.10363248 206:0.1707265 207:0.050213675 208:0.11410256 209:0.015598291 210:0.0025641026 211:0.076709402 212:0.088888889 213:0.20448718 214:0.045940171 215:0.12820513 216:0.14935897 217:0.15277778 218:0.12905983 219:0.021367521 220:0.0032051282 221:0.16944444 222:0.19188034 223:0.051923077 224:0.13034188 225:0.096794872 226:0.15491453 227:0.10918803 228:0.082692308 229:0.01025641 230:0.0025641026 231:0.24487179 232:0.11923077 233:0.071581197 234:0.10747863 235:0.10363248 236:0.1707265 237:0.050213675 238:0.11410256 239:0.015598291 240:0.0025641026 241:0.125 242:0.25 243:0.11367521 244:0.068589744 245:0.12115385 246:0.15576923 247:0.037820513 248:0.09957265 249:0.019230769 250:0.0091880342 251:0.36794872 252:0.076495726 253:0.035897436 254:0.18055556 255:0.11987179 256:0.050854701 257:0.11089744 258:0.038888889 259:0.0074786325 260:0.011111111 261:0.44230769 262:0.037820513 263:0.12735043 264:0.10940171 265:0.11367521 266:0.079273504 267:0.055128205 268:0.020726496 269:0.0083333333 270:0.005982906 271:0.125 272:0.25 273:0.11367521 274:0.068589744 275:0.12115385 276:0.15576923 277:0.037820513 278:0.09957265 279:0.019230769 280:0.0091880342 281:0.36794872 282:0.076495726 283:0.035897436 284:0.18055556 285:0.11987179 286:0.050854701 287:0.11089744 288:0.038888889 289:0.0074786325 290:0.011111111 291:0.44230769 292:0.037820513 293:0.12735043 294:0.10940171 295:0.11367521 296:0.079273504 297:0.055128205 298:0.020726496 299:0.0083333333 300:0.005982906 301:0.33760684 302:0.34209402 303:0.04508547 304:0.10576923 305:0.09017094 306:0.076068376 307:0.0014957265 308:0.00042735043 309:0.00064102564 310:0.00064102564 311:0.3957265 312:0.16324786 313:0.15470085 314:0.027136752 315:0.17371795 316:0.083333333 317:0.00042735043 318:0.00085470085 319:0.00042735043 320:0.00042735043 321:0.36538462 322:0.28205128 323:0.069871795 324:0.12008547 325:0.1258547 326:0.033547009 327:0.0014957265 328:0.00042735043 329:0.00064102564 330:0.00064102564 331:0.33760684 332:0.34209402 333:0.04508547 334:0.10576923 335:0.09017094 336:0.076068376 337:0.0014957265 338:0.00042735043 339:0.00064102564 340:0.00064102564 341:0.3957265 342:0.16324786 343:0.15470085 344:0.027136752 345:0.17371795 346:0.083333333 347:0.00042735043 348:0.00085470085 349:0.00042735043 350:0.00042735043 351:0.36538462 352:0.28205128 353:0.069871795 354:0.12008547 355:0.1258547 356:0.033547009 357:0.0014957265 358:0.00042735043 359:0.00064102564 360:0.00064102564 
0.144578463833739 1:0.40891473 2:0.3910422 3:0.14965547 4:0.026055125 5:0.013996555 6:0.0047372954 7:0.0032299742 8:0.0012919897 9:0.00064599483 10:0.00043066322 11:0.55469423 12:0.35142119 13:0.044358312 14:0.020887166 15:0.016365202 16:0.0055986219 17:0.0045219638 18:0.0015073213 19:0.00021533161 20:0.00043066322 21:0.71920758 22:0.21210164 23:0.03208441 24:0.017011197 25:0.011412575 26:0.0047372954 27:0.0019379845 28:0.00086132644 29:0.00021533161 30:0.00043066322 31:0.40891473 32:0.3910422 33:0.14965547 34:0.026055125 35:0.013996555 36:0.0047372954 37:0.0032299742 38:0.0012919897 39:0.00064599483 40:0.00043066322 41:0.55469423 42:0.35142119 43:0.044358312 44:0.020887166 45:0.016365202 46:0.0055986219 47:0.0045219638 48:0.0015073213 49:0.00021533161 50:0.00043066322 51:0.71920758 52:0.21210164 53:0.03208441 54:0.017011197 55:0.011412575 56:0.0047372954 57:0.0019379845 58:0.00086132644 59:0.00021533161 60:0.00043066322 61:0.007751938 63:0.027347115 64:0.039836348 65:0.16537468 66:0.10099053 67:0.41322136 68:0.070628768 69:0.17204996 70:0.0027993109 71:0.0083979328 73:0.018518519 74:0.36972438 75:0.16149871 76:0.12489233 77:0.2622739 78:0.019164513 79:0.032730405 80:0.0027993109 81:0.010120586 82:0.019595177 83:0.08419466 84:0.62424634 85:0.13845823 86:0.027131783 87:0.053617571 88:0.019164513 89:0.020671835 90:0.0027993109 91:0.007751938 93:0.027347115 94:0.039836348 95:0.16537468 96:0.10099053 97:0.41322136 98:0.070628768 99:0.17204996 100:0.0027993109 101:0.0083979328 103:0.018518519 104:0.36972438 105:0.16149871 106:0.12489233 107:0.2622739 108:0.019164513 109:0.032730405 110:0.0027993109 111:0.010120586 112:0.019595177 113:0.08419466 114:0.62424634 115:0.13845823 116:0.027131783 117:0.053617571 118:0.019164513 119:0.020671835 120:0.0027993109 121:0.017011197 122:0.028208441 124:0.062446167 125:0.026055125 126:0.24806202 127:0.15030146 128:0.19444444 129:0.21748493 130:0.055986219 131:0.017011197 132:0.04414298 134:0.35271318 136:0.17269595 137:0.19293712 138:0.13975022 139:0.028639104 140:0.05211025 141:0.017011197 142:0.044573643 143:0.0043066322 145:0.35874246 146:0.19724376 148:0.24074074 149:0.13372093 150:0.0036606374 151:0.017011197 152:0.028208441 154:0.062446167 155:0.026055125 156:0.24806202 157:0.15030146 158:0.19444444 159:0.21748493 160:0.055986219 161:0.017011197 162:0.04414298 164:0.35271318 166:0.17269595 167:0.19293712 168:0.13975022 169:0.028639104 170:0.05211025 171:0.017011197 172:0.044573643 173:0.0043066322 175:0.35874246 176:0.19724376 178:0.24074074 179:0.13372093 180:0.0036606374 181:0.12295435 182:0.15956072 183:0.094099914 184:0.075581395 185:0.10766581 186:0.13264427 187:0.15267011 188:0.12618432 189:0.025193798 190:0.0034453058 191:0.12187769 192:0.23169681 193:0.028854436 194:0.11068045 195:0.10055986 196:0.14513351 197:0.11154177 198:0.11326443 199:0.031653747 200:0.0047372954 201:0.11283376 202:0.24074074 203:0.060508183 204:0.082256675 205:0.1001292 206:0.16020672 207:0.093669251 208:0.11089578 209:0.036175711 210:0.0025839793 211:0.12295435 212:0.15956072 213:0.094099914 214:0.075581395 215:0.10766581 216:0.13264427 217:0.15267011 218:0.12618432 219:0.025193798 220:0.0034453058 221:0.12187769 222:0.23169681 223:0.028854436 224:0.11068045 225:0.10055986 226:0.14513351 227:0.11154177 228:0.11326443 229:0.031653747 230:0.0047372954 231:0.11283376 232:0.24074074 233:0.060508183 234:0.082256675 235:0.1001292 236:0.16020672 237:0.093669251 238:0.11089578 239:0.036175711 240:0.0025839793 241:0.055340224 242:0.35745047 243:0.12252369 244:0.020456503 245:0.13673557 246:0.10701981 247:0.1205857 248:0.04414298 249:0.022394488 250:0.01335056 251:0.3413006 252:0.10400517 253:0.085055986 254:0.10529716 255:0.12101637 256:0.098191214 257:0.074935401 258:0.049310939 259:0.010335917 260:0.010551249 261:0.18453919 262:0.28789836 263:0.057924203 264:0.15848407 265:0.10723514 266:0.05878553 267:0.10508183 268:0.020887166 269:0.0086132644 270:0.010551249 271:0.055340224 272:0.35745047 273:0.12252369 274:0.020456503 275:0.13673557 276:0.10701981 277:0.1205857 278:0.04414298 279:0.022394488 280:0.01335056 281:0.3413006 282:0.10400517 283:0.085055986 284:0.10529716 285:0.12101637 286:0.098191214 287:0.074935401 288:0.049310939 289:0.010335917 290:0.010551249 291:0.18453919 292:0.28789836 293:0.057924203 294:0.15848407 295:0.10723514 296:0.05878553 297:0.10508183 298:0.020887166 299:0.0086132644 300:0.010551249 301:0.22114556 302:0.27260982 303:0.23277347 304:0.090223945 305:0.098621878 306:0.08161068 307:0.0015073213 308:0.00086132644 309:0.00021533161 310:0.00043066322 311:0.52002584 312:0.1035745 313:0.11132644 314:0.13630491 315:0.12252369 316:0.0032299742 317:0.0015073213 318:0.00086132644 319:0.00021533161 320:0.00043066322 321:0.53208441 322:0.13802756 323:0.07881137 324:0.1627907 325:0.081180017 326:0.0047372954 327:0.0012919897 328:0.00043066322 329:0.00021533161 330:0.00043066322 331:0.22114556 332:0.27260982 333:0.23277347 334:0.090223945 335:0.098621878 336:0.08161068 337:0.0015073213 338:0.00086132644 339:0.00021533161 340:0.00043066322 341:0.52002584 342:0.1035745 343:0.11132644 344:0.13630491 345:0.12252369 346:0.0032299742 347:0.0015073213 348:0.00086132644 349:0.00021533161 350:0.00043066322 351:0.53208441 352:0.13802756 353:0.07881137 354:0.1627907 355:0.081180017 356:0.0047372954 357:0.0012919897 358:0.00043066322 359:0.00021533161 360:0.00043066322 
0.3544912353556609 1:0.51442722 2:0.36843239 3:0.067183463 4:0.017657192 5:0.019810508 6:0.007751938 7:0.0025839793 8:0.0012919897 9:0.00064599483 10:0.00021533161 11:0.52627046 12:0.28466839 13:0.12683032 14:0.020887166 15:0.014427218 16:0.016580534 17:0.004952627 18:0.0027993109 19:0.0017226529 20:0.00086132644 21:0.63264427 22:0.26055125 23:0.045865633 24:0.022825151 25:0.014427218 26:0.01744186 27:0.0030146425 28:0.0015073213 29:0.0012919897 30:0.00043066322 31:0.51442722 32:0.36843239 33:0.067183463 34:0.017657192 35:0.019810508 36:0.007751938 37:0.0025839793 38:0.0012919897 39:0.00064599483 40:0.00021533161 41:0.52627046 42:0.28466839 43:0.12683032 44:0.020887166 45:0.014427218 46:0.016580534 47:0.004952627 48:0.0027993109 49:0.0017226529 50:0.00086132644 51:0.63264427 52:0.26055125 53:0.045865633 54:0.022825151 55:0.014427218 56:0.01744186 57:0.0030146425 58:0.0015073213 59:0.0012919897 60:0.00043066322 61:0.0034453058 62:0.0092592593 63:0.040913006 64:0.067614126 65:0.16881998 66:0.35228252 67:0.208441 68:0.09625323 69:0.050172265 70:0.0027993109 71:0.0066752799 72:0.014427218 73:0.17183463 74:0.26464255 75:0.086778639 76:0.30663221 77:0.097114556 78:0.015719208 79:0.025839793 80:0.010335917 81:0.026055125 82:0.036821705 83:0.25150732 84:0.36757106 85:0.16149871 86:0.10766581 87:0.0075366064 88:0.015719208 89:0.022825151 90:0.0027993109 91:0.0034453058 92:0.0092592593 93:0.040913006 94:0.067614126 95:0.16881998 96:0.35228252 97:0.208441 98:0.09625323 99:0.050172265 100:0.0027993109 101:0.0066752799 102:0.014427218 103:0.17183463 104:0.26464255 105:0.086778639 106:0.30663221 107:0.097114556 108:0.015719208 109:0.025839793 110:0.010335917 111:0.026055125 112:0.036821705 113:0.25150732 114:0.36757106 115:0.16149871 116:0.10766581 117:0.0075366064 118:0.015719208 119:0.022825151 120:0.0027993109 121:0.072782084 122:0.00043066322 123:0.045650301 124:0.36843239 125:0.15331611 126:0.21360896 127:0.12101637 128:0.0045219638 129:0.010551249 130:0.0096899225 131:0.028854436 132:0.05081826 134:0.3583118 135:0.18023256 136:0.24375538 137:0.044788975 138:0.07751938 139:0.012489233 140:0.0032299742 141:0.028854436 142:0.052540913 143:0.013135228 145:0.36434109 146:0.21296296 148:0.24310939 149:0.041989664 150:0.043066322 151:0.072782084 152:0.00043066322 153:0.045650301 154:0.36843239 155:0.15331611 156:0.21360896 157:0.12101637 158:0.0045219638 159:0.010551249 160:0.0096899225 161:0.028854436 162:0.05081826 164:0.3583118 165:0.18023256 166:0.24375538 167:0.044788975 168:0.07751938 169:0.012489233 170:0.0032299742 171:0.028854436 172:0.052540913 173:0.013135228 175:0.36434109 176:0.21296296 178:0.24310939 179:0.041989664 180:0.043066322 181:0.16752799 182:0.095176572 183:0.1171404 184:0.081826012 185:0.10228252 186:0.21059432 187:0.09496124 188:0.11024978 189:0.017011197 190:0.0032299742 191:0.11154177 192:0.24827735 193:0.024332472 194:0.099267873 195:0.095176572 196:0.12618432 197:0.11843239 198:0.12575366 199:0.047803618 200:0.0032299742 201:0.21274763 202:0.15439276 203:0.04952627 204:0.090439276 205:0.10034453 206:0.18130922 207:0.052540913 208:0.12424634 209:0.031223084 210:0.0032299742 211:0.16752799 212:0.095176572 213:0.1171404 214:0.081826012 215:0.10228252 216:0.21059432 217:0.09496124 218:0.11024978 219:0.017011197 220:0.0032299742 221:0.11154177 222:0.24827735 223:0.024332472 224:0.099267873 225:0.095176572 226:0.12618432 227:0.11843239 228:0.12575366 229:0.047803618 230:0.0032299742 231:0.21274763 232:0.15439276 233:0.04952627 234:0.090439276 235:0.10034453 236:0.18130922 237:0.052540913 238:0.12424634 239:0.031223084 240:0.0032299742 241:0.10249785 242:0.29306632 243:0.11907838 244:0.053617571 245:0.1580534 246:0.093669251 247:0.099052541 248:0.045219638 249:0.021748493 250:0.013996555 251:0.34862188 252:0.12424634 253:0.030361757 254:0.15740741 255:0.12984496 256:0.029069767 257:0.13027562 258:0.024763135 259:0.011412575 260:0.013996555 261:0.34905254 262:0.15417743 263:0.055340224 264:0.10206718 265:0.12984496 266:0.087855297 267:0.071490095 268:0.024763135 269:0.011412575 270:0.013996555 271:0.10249785 272:0.29306632 273:0.11907838 274:0.053617571 275:0.1580534 276:0.093669251 277:0.099052541 278:0.045219638 279:0.021748493 280:0.013996555 281:0.34862188 282:0.12424634 283:0.030361757 284:0.15740741 285:0.12984496 286:0.029069767 287:0.13027562 288:0.024763135 289:0.011412575 290:0.013996555 291:0.34905254 292:0.15417743 293:0.055340224 294:0.10206718 295:0.12984496 296:0.087855297 297:0.071490095 298:0.024763135 299:0.011412575 300:0.013996555 301:0.008828596 302:0.22739018 303:0.24267873 304:0.039405685 305:0.20887166 306:0.060508183 307:0.052971576 308:0.12424634 309:0.031223084 310:0.003875969 311:0.0079672696 312:0.20822567 313:0.26356589 314:0.11477175 315:0.045865633 316:0.11089578 317:0.040697674 318:0.073858742 319:0.13049096 320:0.0036606374 321:0.0079672696 322:0.0034453058 323:0.52670112 324:0.12295435 325:0.082256675 326:0.039405685 327:0.061584841 328:0.13716624 329:0.015719208 330:0.0027993109 331:0.008828596 332:0.22739018 333:0.24267873 334:0.039405685 335:0.20887166 336:0.060508183 337:0.052971576 338:0.12424634 339:0.031223084 340:0.003875969 341:0.0079672696 342:0.20822567 343:0.26356589 344:0.11477175 345:0.045865633 346:0.11089578 347:0.040697674 348:0.073858742 349:0.13049096 350:0.0036606374 351:0.0079672696 352:0.0034453058 353:0.52670112 354:0.12295435 355:0.082256675 356:0.039405685 357:0.061584841 358:0.13716624 359:0.015719208 360:0.0027993109 
0.06874362464788764 1:0.00066137566 2:0.42614638 3:0.24140212 4:0.27358907 5:0.019400353 6:0.016534392 7:0.016313933 8:0.0028659612 9:0.0022045855 10:0.00088183422 11:0.010141093 12:0.61640212 13:0.30445326 14:0.028439153 15:0.015873016 16:0.013447972 17:0.0052910053 18:0.0037477954 19:0.001984127 20:0.00022045855 21:0.00022045855 22:0.30379189 23:0.5760582 24:0.058641975 25:0.028659612 26:0.017416226 27:0.0090388007 28:0.0037477954 29:0.001984127 30:0.00044091711 31:0.00066137566 32:0.42614638 33:0.24140212 34:0.27358907 35:0.019400353 36:0.016534392 37:0.016313933 38:0.0028659612 39:0.0022045855 40:0.00088183422 41:0.010141093 42:0.61640212 43:0.30445326 44:0.028439153 45:0.015873016 46:0.013447972 47:0.0052910053 48:0.0037477954 49:0.001984127 50:0.00022045855 51:0.00022045855 52:0.30379189 53:0.5760582 54:0.058641975 55:0.028659612 56:0.017416226 57:0.0090388007 58:0.0037477954 59:0.001984127 60:0.00044091711 61:0.0022045855 62:0.0094797178 63:0.037918871 64:0.063271605 65:0.30511464 66:0.19422399 67:0.18011464 68:0.082671958 69:0.10251323 70:0.022486772 71:0.0050705467 72:0.014109347 73:0.15806878 74:0.25440917 75:0.078042328 76:0.30092593 77:0.11992945 78:0.020282187 79:0.031305115 80:0.017857143 81:0.010582011 82:0.04122575 83:0.23544974 84:0.37367725 85:0.17085538 86:0.10273369 87:0.015652557 88:0.020282187 89:0.027336861 90:0.0022045855 91:0.0022045855 92:0.0094797178 93:0.037918871 94:0.063271605 95:0.30511464 96:0.19422399 97:0.18011464 98:0.082671958 99:0.10251323 100:0.022486772 101:0.0050705467 102:0.014109347 103:0.15806878 104:0.25440917 105:0.078042328 106:0.30092593 107:0.11992945 108:0.020282187 109:0.031305115 110:0.017857143 111:0.010582011 112:0.04122575 113:0.23544974 114:0.37367725 115:0.17085538 116:0.10273369 117:0.015652557 118:0.020282187 119:0.027336861 120:0.0022045855 121:0.069444444 123:0.041005291 124:0.022486772 125:0.28483245 126:0.3622134 127:0.097883598 128:0.078703704 129:0.016093474 130:0.027336861 131:0.026014109 132:0.048280423 134:0.30930335 135:0.17195767 136:0.23434744 137:0.069223986 138:0.11904762 139:0.020282187 140:0.0015432099 141:0.026014109 142:0.052469136 143:0.018077601 145:0.32826279 146:0.22508818 148:0.23655203 149:0.05180776 150:0.061728395 151:0.069444444 153:0.041005291 154:0.022486772 155:0.28483245 156:0.3622134 157:0.097883598 158:0.078703704 159:0.016093474 160:0.027336861 161:0.026014109 162:0.048280423 164:0.30930335 165:0.17195767 166:0.23434744 167:0.069223986 168:0.11904762 169:0.020282187 170:0.0015432099 171:0.026014109 172:0.052469136 173:0.018077601 175:0.32826279 176:0.22508818 178:0.23655203 179:0.05180776 180:0.061728395 181:0.21693122 182:0.063932981 183:0.11772487 184:0.062389771 185:0.13007055 186:0.18143739 187:0.12654321 188:0.066798942 189:0.02292769 190:0.011243386 191:0.19113757 192:0.18011464 193:0.046075838 194:0.1042769 195:0.12698413 196:0.15123457 197:0.12654321 198:0.059082892 199:0.0079365079 200:0.0066137566 201:0.2319224 202:0.15167549 203:0.049162257 204:0.077821869 205:0.14726631 206:0.15784832 207:0.10207231 208:0.069003527 209:0.0074955908 210:0.0057319224 211:0.21693122 212:0.063932981 213:0.11772487 214:0.062389771 215:0.13007055 216:0.18143739 217:0.12654321 218:0.066798942 219:0.02292769 220:0.011243386 221:0.19113757 222:0.18011464 223:0.046075838 224:0.1042769 225:0.12698413 226:0.15123457 227:0.12654321 228:0.059082892 229:0.0079365079 230:0.0066137566 231:0.2319224 232:0.15167549 233:0.049162257 234:0.077821869 235:0.14726631 236:0.15784832 237:0.10207231 238:0.069003527 239:0.0074955908 240:0.0057319224 241:0.089065256 242:0.3170194 243:0.10471781 244:0.047178131 245:0.16005291 246:0.091710758 247:0.096340388 248:0.053791887 249:0.024691358 250:0.015432099 251:0.35824515 252:0.12014991 253:0.028439153 254:0.15035273 255:0.12588183 256:0.026675485 257:0.12830688 258:0.031525573 259:0.014109347 260:0.016313933 261:0.34766314 262:0.15917108 263:0.049823633 264:0.1005291 265:0.12588183 266:0.080908289 267:0.080467372 268:0.031084656 269:0.0088183422 270:0.015652557 271:0.089065256 272:0.3170194 273:0.10471781 274:0.047178131 275:0.16005291 276:0.091710758 277:0.096340388 278:0.053791887 279:0.024691358 280:0.015432099 281:0.35824515 282:0.12014991 283:0.028439153 284:0.15035273 285:0.12588183 286:0.026675485 287:0.12830688 288:0.031525573 289:0.014109347 290:0.016313933 291:0.34766314 292:0.15917108 293:0.049823633 294:0.1005291 295:0.12588183 296:0.080908289 297:0.080467372 298:0.031084656 299:0.0088183422 300:0.015652557 301:0.0079365079 302:0.18518519 303:0.29166667 304:0.039462081 305:0.19554674 306:0.068342152 307:0.048280423 308:0.11529982 309:0.036375661 310:0.011904762 311:0.0079365079 313:0.44532628 314:0.087742504 315:0.092813051 316:0.055776014 317:0.069003527 318:0.033068783 319:0.14748677 320:0.060846561 321:0.0079365079 322:0.0026455026 323:0.17879189 324:0.48280423 325:0.077821869 326:0.0035273369 327:0.093253968 328:0.080026455 329:0.056657848 330:0.016534392 331:0.0079365079 332:0.18518519 333:0.29166667 334:0.039462081 335:0.19554674 336:0.068342152 337:0.048280423 338:0.11529982 339:0.036375661 340:0.011904762 341:0.0079365079 343:0.44532628 344:0.087742504 345:0.092813051 346:0.055776014 347:0.069003527 348:0.033068783 349:0.14748677 350:0.060846561 351:0.0079365079 352:0.0026455026 353:0.17879189 354:0.48280423 355:0.077821869 356:0.0035273369 357:0.093253968 358:0.080026455 359:0.056657848 360:0.016534392 
0.160312349758312 1:0.3812336 2:0.27515311 3:0.27471566 4:0.029527559 5:0.01312336 6:0.011373578 7:0.0076552931 8:0.0037182852 9:0.0019685039 10:0.0015310586 11:0.5279965 12:0.34601925 13:0.082020997 14:0.016185477 15:0.0074365704 16:0.011811024 17:0.0026246719 18:0.0028433946 19:0.0019685039 20:0.0010936133 21:0.076552931 22:0.61548556 23:0.23906387 24:0.026902887 25:0.019466317 26:0.010498688 27:0.0052493438 28:0.0026246719 29:0.0021872266 30:0.0019685039 31:0.3812336 32:0.27515311 33:0.27471566 34:0.029527559 35:0.01312336 36:0.011373578 37:0.0076552931 38:0.0037182852 39:0.0019685039 40:0.0015310586 41:0.5279965 42:0.34601925 43:0.082020997 44:0.016185477 45:0.0074365704 46:0.011811024 47:0.0026246719 48:0.0028433946 49:0.0019685039 50:0.0010936133 51:0.076552931 52:0.61548556 53:0.23906387 54:0.026902887 55:0.019466317 56:0.010498688 57:0.0052493438 58:0.0026246719 59:0.0021872266 60:0.0019685039 61:0.0010936133 62:0.0050306212 63:0.031714786 64:0.055555556 65:0.30446194 66:0.20975503 67:0.18700787 68:0.064085739 69:0.11964129 70:0.021653543 71:0.0028433946 72:0.008967629 73:0.12423447 74:0.25174978 75:0.10476815 76:0.16754156 77:0.1496063 78:0.12314086 79:0.015091864 80:0.052055993 81:0.042869641 82:0.06911636 83:0.22506562 84:0.32217848 85:0.16776028 86:0.062773403 87:0.046587927 88:0.014216973 89:0.015091864 90:0.034339458 91:0.0010936133 92:0.0050306212 93:0.031714786 94:0.055555556 95:0.30446194 96:0.20975503 97:0.18700787 98:0.064085739 99:0.11964129 100:0.021653543 101:0.0028433946 102:0.008967629 103:0.12423447 104:0.25174978 105:0.10476815 106:0.16754156 107:0.1496063 108:0.12314086 109:0.015091864 110:0.052055993 111:0.042869641 112:0.06911636 113:0.22506562 114:0.32217848 115:0.16776028 116:0.062773403 117:0.046587927 118:0.014216973 119:0.015091864 120:0.034339458 121:0.033245844 122:0.029527559 123:0.040463692 124:0.023403325 125:0.2876203 126:0.36220472 127:0.12532808 128:0.073709536 129:0.011592301 130:0.012904637 131:0.0028433946 132:0.033245844 133:0.038932633 135:0.31933508 136:0.17038495 137:0.22156605 138:0.082895888 139:0.10651794 140:0.024278215 141:0.0028433946 142:0.033245844 143:0.042432196 144:0.01399825 146:0.33420822 147:0.223972 148:0.2287839 149:0.071084864 150:0.049431321 151:0.033245844 152:0.029527559 153:0.040463692 154:0.023403325 155:0.2876203 156:0.36220472 157:0.12532808 158:0.073709536 159:0.011592301 160:0.012904637 161:0.0028433946 162:0.033245844 163:0.038932633 165:0.31933508 166:0.17038495 167:0.22156605 168:0.082895888 169:0.10651794 170:0.024278215 171:0.0028433946 172:0.033245844 173:0.042432196 174:0.01399825 176:0.33420822 177:0.223972 178:0.2287839 179:0.071084864 180:0.049431321 181:0.20428696 182:0.16382327 183:0.02384077 184:0.11417323 185:0.095144357 186:0.20888014 187:0.12248469 188:0.043088364 189:0.016404199 190:0.0078740157 191:0.17147857 192:0.18635171 193:0.066054243 194:0.083333333 195:0.12773403 196:0.17060367 197:0.11701662 198:0.064304462 199:0.0085301837 200:0.0045931759 201:0.21369204 202:0.15704287 203:0.048993876 204:0.087926509 205:0.13429571 206:0.16491689 207:0.10914261 208:0.069991251 209:0.0085301837 210:0.0054680665 211:0.20428696 212:0.16382327 213:0.02384077 214:0.11417323 215:0.095144357 216:0.20888014 217:0.12248469 218:0.043088364 219:0.016404199 220:0.0078740157 221:0.17147857 222:0.18635171 223:0.066054243 224:0.083333333 225:0.12773403 226:0.17060367 227:0.11701662 228:0.064304462 229:0.0085301837 230:0.0045931759 231:0.21369204 232:0.15704287 233:0.048993876 234:0.087926509 235:0.13429571 236:0.16491689 237:0.10914261 238:0.069991251 239:0.0085301837 240:0.0054680665 241:0.067804024 242:0.36854768 243:0.079833771 244:0.077646544 245:0.10564304 246:0.094706912 247:0.13954506 248:0.034776903 249:0.021872266 250:0.009623797 251:0.34251969 252:0.12029746 253:0.085958005 254:0.092519685 255:0.11023622 256:0.098862642 257:0.079833771 258:0.048775153 259:0.0098425197 260:0.011154856 261:0.35017498 262:0.14195101 263:0.056649169 264:0.15069991 265:0.094706912 266:0.057742782 267:0.10629921 268:0.024278215 269:0.0063429571 270:0.011154856 271:0.067804024 272:0.36854768 273:0.079833771 274:0.077646544 275:0.10564304 276:0.094706912 277:0.13954506 278:0.034776903 279:0.021872266 280:0.009623797 281:0.34251969 282:0.12029746 283:0.085958005 284:0.092519685 285:0.11023622 286:0.098862642 287:0.079833771 288:0.048775153 289:0.0098425197 290:0.011154856 291:0.35017498 292:0.14195101 293:0.056649169 294:0.15069991 295:0.094706912 296:0.057742782 297:0.10629921 298:0.024278215 299:0.0063429571 300:0.011154856 301:0.059055118 302:0.31736658 303:0.053805774 304:0.21391076 305:0.098425197 306:0.0444007 307:0.14041995 308:0.061461067 309:0.0030621172 310:0.0080927384 311:0.0052493438 312:0.16294838 313:0.36089239 314:0.039588801 315:0.1148294 316:0.061898513 317:0.039370079 318:0.077427822 319:0.13363955 320:0.0041557305 321:0.027340332 322:0.19422572 323:0.32502187 324:0.12401575 325:0.070209974 326:0.040463692 327:0.0723972 328:0.067804024 329:0.064523185 330:0.01399825 331:0.059055118 332:0.31736658 333:0.053805774 334:0.21391076 335:0.098425197 336:0.0444007 337:0.14041995 338:0.061461067 339:0.0030621172 340:0.0080927384 341:0.0052493438 342:0.16294838 343:0.36089239 344:0.039588801 345:0.1148294 346:0.061898513 347:0.039370079 348:0.077427822 349:0.13363955 350:0.0041557305 351:0.027340332 352:0.19422572 353:0.32502187 354:0.12401575 355:0.070209974 356:0.040463692 357:0.0723972 358:0.067804024 359:0.064523185 360:0.01399825 
0.1994568009685679 1:0.20008681 2:0.38389757 3:0.31835938 4:0.046440972 5:0.023871528 6:0.01171875 7:0.0078125 8:0.0045572917 9:0.0023871528 10:0.00086805556 11:0.22113715 12:0.39127604 13:0.28385417 14:0.040798611 15:0.024305556 16:0.016276042 17:0.013237847 18:0.0047743056 19:0.0028211806 20:0.0015190972 21:0.33767361 22:0.44900174 23:0.13975694 24:0.018229167 25:0.0234375 26:0.018229167 27:0.0054253472 28:0.0043402778 29:0.0028211806 30:0.0010850694 31:0.20008681 32:0.38389757 33:0.31835938 34:0.046440972 35:0.023871528 36:0.01171875 37:0.0078125 38:0.0045572917 39:0.0023871528 40:0.00086805556 41:0.22113715 42:0.39127604 43:0.28385417 44:0.040798611 45:0.024305556 46:0.016276042 47:0.013237847 48:0.0047743056 49:0.0028211806 50:0.0015190972 51:0.33767361 52:0.44900174 53:0.13975694 54:0.018229167 55:0.0234375 56:0.018229167 57:0.0054253472 58:0.0043402778 59:0.0028211806 60:0.0010850694 61:0.0086805556 62:0.012152778 63:0.0390625 64:0.018229167 65:0.17795139 66:0.20659722 67:0.3062066 68:0.10091146 69:0.088541667 70:0.041666667 71:0.0086805556 72:0.012152778 73:0.1015625 74:0.28407118 75:0.072699653 76:0.13541667 77:0.18207465 78:0.11111111 79:0.031467014 80:0.060763889 81:0.0086805556 83:0.039930556 84:0.18489583 85:0.43684896 86:0.15603299 87:0.052083333 88:0.050130208 89:0.020833333 90:0.050564236 91:0.0086805556 92:0.012152778 93:0.0390625 94:0.018229167 95:0.17795139 96:0.20659722 97:0.3062066 98:0.10091146 99:0.088541667 100:0.041666667 101:0.0086805556 102:0.012152778 103:0.1015625 104:0.28407118 105:0.072699653 106:0.13541667 107:0.18207465 108:0.11111111 109:0.031467014 110:0.060763889 111:0.0086805556 113:0.039930556 114:0.18489583 115:0.43684896 116:0.15603299 117:0.052083333 118:0.050130208 119:0.020833333 120:0.050564236 121:0.012586806 122:0.055338542 123:0.046875 124:0.052300347 125:0.30186632 126:0.31228299 127:0.072916667 128:0.099826389 129:0.025173611 130:0.020833333 131:0.0047743056 132:0.012369792 133:0.062934028 134:0.0034722222 135:0.30859375 136:0.19444444 137:0.22591146 138:0.072048611 139:0.084201389 140:0.03125 141:0.00086805556 142:0.0082465278 143:0.012369792 144:0.069010417 145:0.013888889 146:0.32508681 147:0.21788194 148:0.23806424 149:0.059027778 150:0.055555556 151:0.012586806 152:0.055338542 153:0.046875 154:0.052300347 155:0.30186632 156:0.31228299 157:0.072916667 158:0.099826389 159:0.025173611 160:0.020833333 161:0.0047743056 162:0.012369792 163:0.062934028 164:0.0034722222 165:0.30859375 166:0.19444444 167:0.22591146 168:0.072048611 169:0.084201389 170:0.03125 171:0.00086805556 172:0.0082465278 173:0.012369792 174:0.069010417 175:0.013888889 176:0.32508681 177:0.21788194 178:0.23806424 179:0.059027778 180:0.055555556 181:0.13020833 182:0.1703559 183:0.075086806 184:0.1078559 185:0.13628472 186:0.13845486 187:0.13324653 188:0.089192708 189:0.013454861 190:0.005859375 191:0.1391059 192:0.18250868 193:0.076605903 194:0.078559028 195:0.12673611 196:0.15820312 197:0.14322917 198:0.077256944 199:0.012152778 200:0.0056423611 201:0.15017361 202:0.18576389 203:0.074869792 204:0.052517361 205:0.14409722 206:0.15559896 207:0.11827257 208:0.097005208 209:0.012369792 210:0.0093315972 211:0.13020833 212:0.1703559 213:0.075086806 214:0.1078559 215:0.13628472 216:0.13845486 217:0.13324653 218:0.089192708 219:0.013454861 220:0.005859375 221:0.1391059 222:0.18250868 223:0.076605903 224:0.078559028 225:0.12673611 226:0.15820312 227:0.14322917 228:0.077256944 229:0.012152778 230:0.0056423611 231:0.15017361 232:0.18576389 233:0.074869792 234:0.052517361 235:0.14409722 236:0.15559896 237:0.11827257 238:0.097005208 239:0.012369792 240:0.0093315972 241:0.12673611 242:0.34765625 243:0.10069444 244:0.031901042 245:0.14301215 246:0.072916667 247:0.1171875 248:0.028428819 249:0.021701389 250:0.009765625 251:0.36197917 252:0.099392361 253:0.10069444 254:0.097873264 255:0.090060764 256:0.10286458 257:0.091145833 258:0.038845486 259:0.0086805556 260:0.0084635417 261:0.21050347 262:0.28645833 263:0.063368056 264:0.15386285 265:0.10872396 266:0.031901042 267:0.10525174 268:0.022786458 269:0.0099826389 270:0.0071614583 271:0.12673611 272:0.34765625 273:0.10069444 274:0.031901042 275:0.14301215 276:0.072916667 277:0.1171875 278:0.028428819 279:0.021701389 280:0.009765625 281:0.36197917 282:0.099392361 283:0.10069444 284:0.097873264 285:0.090060764 286:0.10286458 287:0.091145833 288:0.038845486 289:0.0086805556 290:0.0084635417 291:0.21050347 292:0.28645833 293:0.063368056 294:0.15386285 295:0.10872396 296:0.031901042 297:0.10525174 298:0.022786458 299:0.0099826389 300:0.0071614583 301:0.28537326 302:0.095052083 303:0.26388889 304:0.10525174 305:0.026475694 306:0.047743056 307:0.076388889 308:0.0056423611 309:0.078342014 310:0.015842014 311:0.0082465278 312:0.4047309 313:0.17230903 314:0.065972222 315:0.10047743 316:0.026041667 317:0.052951389 318:0.15277778 319:0.016276042 320:0.00021701389 321:0.0065104167 322:0.0060763889 323:0.23697917 324:0.29709201 325:0.18836806 326:0.042751736 327:0.052951389 328:0.15277778 329:0.016276042 330:0.00021701389 331:0.28537326 332:0.095052083 333:0.26388889 334:0.10525174 335:0.026475694 336:0.047743056 337:0.076388889 338:0.0056423611 339:0.078342014 340:0.015842014 341:0.0082465278 342:0.4047309 343:0.17230903 344:0.065972222 345:0.10047743 346:0.026041667 347:0.052951389 348:0.15277778 349:0.016276042 350:0.00021701389 351:0.0065104167 352:0.0060763889 353:0.23697917 354:0.29709201 355:0.18836806 356:0.042751736 357:0.052951389 358:0.15277778 359:0.016276042 360:0.00021701389 
0.506120425237132 1:0.031058618 2:0.49606299 3:0.19575678 4:0.2036308 5:0.034120735 6:0.017935258 7:0.008967629 8:0.0072178478 9:0.0037182852 10:0.0015310586 11:0.00043744532 12:0.37926509 13:0.28652668 14:0.24081365 15:0.03455818 16:0.022090989 17:0.012685914 18:0.012248469 19:0.0087489064 20:0.0026246719 21:0.04768154 22:0.49081365 23:0.34251969 24:0.049868766 25:0.025809274 26:0.015310586 27:0.018591426 28:0.0054680665 29:0.0030621172 30:0.00087489064 31:0.031058618 32:0.49606299 33:0.19575678 34:0.2036308 35:0.034120735 36:0.017935258 37:0.008967629 38:0.0072178478 39:0.0037182852 40:0.0015310586 41:0.00043744532 42:0.37926509 43:0.28652668 44:0.24081365 45:0.03455818 46:0.022090989 47:0.012685914 48:0.012248469 49:0.0087489064 50:0.0026246719 51:0.04768154 52:0.49081365 53:0.34251969 54:0.049868766 55:0.025809274 56:0.015310586 57:0.018591426 58:0.0054680665 59:0.0030621172 60:0.00087489064 61:0.010279965 62:0.016841645 63:0.020122485 64:0.039151356 65:0.089895013 66:0.29680665 67:0.3088364 68:0.096456693 69:0.092738408 70:0.028871391 71:0.010279965 72:0.00087489064 73:0.016622922 74:0.11548556 75:0.27099738 76:0.24693788 77:0.14523185 78:0.11854768 79:0.022528434 80:0.052493438 81:0.0015310586 82:0.0098425197 83:0.00065616798 84:0.03127734 85:0.20538058 86:0.56517935 87:0.084864392 88:0.043525809 89:0.018591426 90:0.039151356 91:0.010279965 92:0.016841645 93:0.020122485 94:0.039151356 95:0.089895013 96:0.29680665 97:0.3088364 98:0.096456693 99:0.092738408 100:0.028871391 101:0.010279965 102:0.00087489064 103:0.016622922 104:0.11548556 105:0.27099738 106:0.24693788 107:0.14523185 108:0.11854768 109:0.022528434 110:0.052493438 111:0.0015310586 112:0.0098425197 113:0.00065616798 114:0.03127734 115:0.20538058 116:0.56517935 117:0.084864392 118:0.043525809 119:0.018591426 120:0.039151356 121:0.016185477 122:0.050306212 123:0.048775153 124:0.0444007 125:0.33858268 126:0.33508311 127:0.045056868 128:0.080052493 129:0.022309711 130:0.019247594 131:0.0074365704 132:0.014654418 133:0.066491689 134:0.0041557305 135:0.3484252 136:0.1660105 137:0.26334208 138:0.041557305 139:0.059055118 140:0.028871391 141:0.00065616798 142:0.011592301 143:0.014654418 144:0.072834646 145:0.014435696 146:0.36548556 147:0.18657043 148:0.27427822 149:0.0279965 150:0.031496063 151:0.016185477 152:0.050306212 153:0.048775153 154:0.0444007 155:0.33858268 156:0.33508311 157:0.045056868 158:0.080052493 159:0.022309711 160:0.019247594 161:0.0074365704 162:0.014654418 163:0.066491689 164:0.0041557305 165:0.3484252 166:0.1660105 167:0.26334208 168:0.041557305 169:0.059055118 170:0.028871391 171:0.00065616798 172:0.011592301 173:0.014654418 174:0.072834646 175:0.014435696 176:0.36548556 177:0.18657043 178:0.27427822 179:0.0279965 180:0.031496063 181:0.12029746 182:0.13429571 183:0.12117235 184:0.11526684 185:0.14545057 186:0.13626422 187:0.13429571 188:0.081802275 189:0.0069991251 190:0.0041557305 191:0.12270341 192:0.22484689 193:0.049431321 194:0.087051619 195:0.13101487 196:0.16404199 197:0.1611986 198:0.046806649 199:0.010279965 200:0.0026246719 201:0.32174103 202:0.044838145 203:0.073709536 204:0.076334208 205:0.17147857 206:0.17454068 207:0.10761155 208:0.020997375 209:0.0063429571 210:0.0024059493 211:0.12029746 212:0.13429571 213:0.12117235 214:0.11526684 215:0.14545057 216:0.13626422 217:0.13429571 218:0.081802275 219:0.0069991251 220:0.0041557305 221:0.12270341 222:0.22484689 223:0.049431321 224:0.087051619 225:0.13101487 226:0.16404199 227:0.1611986 228:0.046806649 229:0.010279965 230:0.0026246719 231:0.32174103 232:0.044838145 233:0.073709536 234:0.076334208 235:0.17147857 236:0.17454068 237:0.10761155 238:0.020997375 239:0.0063429571 240:0.0024059493 241:0.066491689 242:0.41360455 243:0.093175853 244:0.050743657 245:0.094925634 246:0.11657918 247:0.11045494 248:0.02712161 249:0.019466317 250:0.0074365704 251:0.027777778 252:0.40463692 253:0.074146982 254:0.098206474 255:0.11351706 256:0.11657918 257:0.11417323 258:0.026246719 259:0.018372703 260:0.0063429571 261:0.00043744532 262:0.2075678 263:0.29155731 264:0.10345582 265:0.11526684 266:0.12051619 267:0.11745407 268:0.021872266 269:0.01727909 270:0.0045931759 271:0.066491689 272:0.41360455 273:0.093175853 274:0.050743657 275:0.094925634 276:0.11657918 277:0.11045494 278:0.02712161 279:0.019466317 280:0.0074365704 281:0.027777778 282:0.40463692 283:0.074146982 284:0.098206474 285:0.11351706 286:0.11657918 287:0.11417323 288:0.026246719 289:0.018372703 290:0.0063429571 291:0.00043744532 292:0.2075678 293:0.29155731 294:0.10345582 295:0.11526684 296:0.12051619 297:0.11745407 298:0.021872266 299:0.01727909 300:0.0045931759 301:0.0039370079 302:0.13670166 303:0.2432196 304:0.099956255 305:0.26662292 306:0.03368329 307:0.053587052 308:0.076334208 309:0.046150481 310:0.039807524 311:0.011373578 312:0.17519685 313:0.34711286 314:0.063648294 315:0.058180227 316:0.094925634 318:0.090769904 319:0.10958005 320:0.049212598 321:0.0078740157 323:0.03455818 324:0.22659668 325:0.29527559 326:0.17257218 327:0.012904637 328:0.091426072 329:0.10958005 330:0.049212598 331:0.0039370079 332:0.13670166 333:0.2432196 334:0.099956255 335:0.26662292 336:0.03368329 337:0.053587052 338:0.076334208 339:0.046150481 340:0.039807524 341:0.011373578 342:0.17519685 343:0.34711286 344:0.063648294 345:0.058180227 346:0.094925634 348:0.090769904 349:0.10958005 350:0.049212598 351:0.0078740157 353:0.03455818 354:0.22659668 355:0.29527559 356:0.17257218 357:0.012904637 358:0.091426072 359:0.10958005 360:0.049212598 
