svm_type c_svc
kernel_type linear
nr_class 2
total_sv 31
rho -0.641944
label -1 1
probA -5.3203
probB -0.395121
nr_sv 16 15
SV
0.09841183137344918 1:0.0021237864 2:0.10770631 3:0.4371966 4:0.25091019 5:0.084951456 6:0.041868932 7:0.038228155 8:0.020934466 9:0.0097087379 10:0.0063713592 11:0.30218447 12:0.25910194 13:0.19205097 14:0.069781553 15:0.031553398 16:0.050364078 17:0.044296117 18:0.027305825 19:0.018203883 20:0.005157767 21:0.19326456 22:0.29217233 23:0.25697816 24:0.075242718 25:0.041565534 26:0.048543689 27:0.038834951 28:0.028519417 29:0.017597087 30:0.0072815534 31:0.00060679612 32:0.0030339806 34:0.0012135922 35:0.24089806 36:0.34769417 37:0.12621359 38:0.083737864 39:0.13834951 40:0.058252427 41:0.0078883495 42:0.040351942 43:0.19660194 44:0.24848301 45:0.18932039 46:0.14532767 47:0.094356796 48:0.055218447 49:0.020631068 50:0.0018203883 51:0.30218447 52:0.25910194 53:0.19205097 54:0.069781553 55:0.031553398 56:0.050364078 57:0.044296117 58:0.027305825 59:0.018203883 60:0.005157767 61:0.029429612 62:0.14563107 63:0.16626214 64:0.1720267 65:0.28610437 66:0.12682039 67:0.040351942 68:0.027912621 69:0.0030339806 70:0.0024271845 71:0.1568568 72:0.08586165 73:0.064320388 74:0.099817961 75:0.1717233 76:0.14805825 77:0.13228155 78:0.077973301 79:0.048847087 80:0.014259709 81:0.14320388 82:0.092536408 83:0.070995146 84:0.10406553 85:0.19811893 86:0.1407767 87:0.13865291 88:0.069478155 89:0.037317961 90:0.0048543689 91:0.49150485 92:0.25121359 94:0.1868932 96:0.025485437 97:0.033980583 99:0.0084951456 100:0.0024271845 101:0.015776699 102:0.011832524 103:0.051881068 104:0.10588592 105:0.1714199 106:0.24696602 107:0.24575243 108:0.11377427 109:0.034283981 110:0.0024271845 111:0.1568568 112:0.08586165 113:0.064320388 114:0.099817961 115:0.1717233 116:0.14805825 117:0.13228155 118:0.077973301 119:0.048847087 120:0.014259709 121:0.03125 126:0.010315534 127:0.17870146 128:0.45449029 129:0.28640777 130:0.038834951 131:0.03125 136:0.1243932 137:0.29459951 138:0.30643204 139:0.16413835 140:0.079186893 141:0.57949029 142:0.38015777 143:0.0091019417 150:0.03125 151:0.03125 159:0.90321602 160:0.065533981 161:0.02184466 162:0.43901699 163:0.41353155 164:0.091019417 165:0.0033373786 170:0.03125 171:0.52973301 172:0.37864078 173:0.060376214 180:0.03125 181:0.0097087379 183:0.0057645631 184:0.18992718 185:0.28216019 186:0.22785194 187:0.16049757 188:0.068871359 189:0.03125 190:0.023968447 191:0.0097087379 193:0.00091019417 194:0.17354369 195:0.23118932 196:0.10740291 197:0.19417476 198:0.17779126 199:0.063713592 200:0.041565534 201:0.16019417 202:0.26699029 203:0.1092233 204:0.24787621 205:0.14411408 206:0.041262136 207:0.020631068 210:0.0097087379 211:0.0097087379 219:0.48300971 220:0.50728155 221:0.070084951 222:0.22117718 223:0.43992718 224:0.25515777 225:0.0039441748 230:0.0097087379 231:0.15716019 232:0.23938107 233:0.11650485 234:0.19417476 235:0.17779126 236:0.063713592 237:0.041565534 240:0.0097087379 241:0.0097087379 244:0.0072815534 245:0.2193568 246:0.33009709 247:0.095570388 248:0.17324029 249:0.1568568 250:0.0078883495 251:0.0097087379 254:0.0030339806 255:0.20206311 256:0.17839806 257:0.18658981 258:0.064927184 259:0.19478155 260:0.16049757 261:0.25879854 262:0.2970267 263:0.092536408 264:0.32008495 265:0.02184466 270:0.0097087379 271:0.0097087379 279:0.18932039 280:0.80097087 281:0.017900485 282:0.13713592 283:0.35588592 284:0.46086165 285:0.018507282 290:0.0097087379 291:0.24514563 292:0.26092233 293:0.10800971 294:0.21571602 295:0.16049757 300:0.0097087379 301:0.04065534 305:0.025182039 306:0.35163835 307:0.35194175 308:0.13258495 309:0.077366505 310:0.020631068 311:0.04065534 315:0.059162621 316:0.17354369 317:0.23695388 318:0.2339199 319:0.16959951 320:0.086165049 321:0.29338592 322:0.41322816 323:0.24180825 324:0.01092233 330:0.04065534 331:0.04065534 339:0.0024271845 340:0.95691748 341:0.08282767 342:0.20782767 343:0.49150485 344:0.17597087 345:0.0012135922 350:0.04065534 351:0.25364078 352:0.34192961 353:0.25333738 354:0.11043689 360:0.04065534 
0.1121642684685768 1:0.00089285714 2:0.0047619048 3:0.20386905 4:0.42946429 5:0.20416667 6:0.077380952 7:0.036011905 8:0.025 9:0.012797619 10:0.0056547619 11:0.23154762 12:0.21607143 13:0.19464286 14:0.10565476 15:0.06875 16:0.046130952 17:0.060714286 18:0.04047619 19:0.02172619 20:0.014285714 21:0.20357143 22:0.25208333 23:0.1985119 24:0.10059524 25:0.074404762 26:0.056845238 27:0.04702381 28:0.0375 29:0.016666667 30:0.012797619 31:0.0011904762 32:0.0098214286 34:0.40208333 35:0.31071429 36:0.17083333 37:0.057142857 38:0.03452381 39:0.011904762 40:0.0017857143 41:0.010416667 42:0.1875 43:0.2922619 44:0.25535714 45:0.15505952 46:0.08452381 47:0.011607143 48:0.0023809524 49:0.0005952381 50:0.00029761905 51:0.23154762 52:0.21607143 53:0.19464286 54:0.10565476 55:0.06875 56:0.046130952 57:0.060714286 58:0.04047619 59:0.02172619 60:0.014285714 61:0.0017857143 62:0.031547619 63:0.12440476 64:0.1264881 65:0.15833333 66:0.29375 67:0.14613095 68:0.072619048 69:0.03452381 70:0.010416667 71:0.081845238 72:0.11488095 73:0.058035714 74:0.096130952 75:0.087797619 76:0.18869048 77:0.17559524 78:0.097321429 79:0.067857143 80:0.031845238 81:0.038392857 82:0.13958333 83:0.067857143 84:0.076785714 85:0.11875 86:0.19434524 87:0.16041667 88:0.1110119 89:0.065178571 90:0.027678571 91:0.49166667 93:0.2797619 95:0.19285714 97:0.02202381 99:0.010714286 100:0.0029761905 101:0.0068452381 102:0.040178571 103:0.094940476 104:0.092857143 105:0.20863095 106:0.23303571 107:0.15892857 108:0.099404762 109:0.052380952 110:0.012797619 111:0.081845238 112:0.11488095 113:0.058035714 114:0.096130952 115:0.087797619 116:0.18869048 117:0.17559524 118:0.097321429 119:0.067857143 120:0.031845238 121:0.03125 126:0.014583333 127:0.3077381 128:0.42857143 129:0.18630952 130:0.031547619 131:0.03125 136:0.11011905 137:0.31755952 138:0.33392857 139:0.12380952 140:0.083333333 141:0.62797619 142:0.32767857 143:0.013095238 150:0.03125 151:0.03125 159:0.0083333333 160:0.96041667 161:0.094345238 162:0.54107143 163:0.28452381 164:0.047619048 165:0.0011904762 170:0.03125 171:0.51755952 172:0.38214286 173:0.069047619 180:0.03125 181:0.0095238095 182:0.0005952381 183:0.0125 184:0.22440476 185:0.26011905 186:0.23928571 187:0.14821429 188:0.057440476 189:0.036607143 190:0.011309524 191:0.0095238095 193:0.0056547619 194:0.21517857 195:0.19970238 196:0.10446429 197:0.26309524 198:0.13333333 199:0.044642857 200:0.024404762 201:0.1577381 202:0.26339286 203:0.10535714 204:0.28571429 205:0.11755952 206:0.050297619 207:0.010416667 210:0.0095238095 211:0.0095238095 219:0.46994048 220:0.52053571 221:0.0077380952 222:0.1139881 223:0.35833333 224:0.4360119 225:0.072321429 226:0.0020833333 230:0.0095238095 231:0.15416667 232:0.2264881 233:0.11964286 234:0.20833333 235:0.18809524 236:0.058630952 237:0.03452381 238:0.0005952381 240:0.0095238095 241:0.0095238095 244:0.0035714286 245:0.2922619 246:0.30386905 247:0.10416667 248:0.20327381 249:0.075 250:0.0083333333 251:0.0095238095 254:0.016964286 255:0.20416667 256:0.20654762 257:0.17291667 258:0.083928571 259:0.24613095 260:0.059821429 261:0.27678571 262:0.31815476 263:0.11279762 264:0.2764881 265:0.00625 270:0.0095238095 271:0.0095238095 279:0.016071429 280:0.97440476 281:0.0375 282:0.16577381 283:0.42261905 284:0.35 285:0.014583333 290:0.0095238095 291:0.25059524 292:0.2702381 293:0.13303571 294:0.2485119 295:0.088095238 300:0.0095238095 301:0.04047619 306:0.20863095 307:0.4889881 308:0.11428571 309:0.1125 310:0.035119048 311:0.04047619 315:0.025 316:0.099702381 317:0.29434524 318:0.27291667 319:0.15208333 320:0.11547619 321:0.22797619 322:0.48452381 323:0.24017857 324:0.0068452381 330:0.04047619 331:0.04047619 340:0.95952381 341:0.04077381 342:0.07797619 343:0.48511905 344:0.33571429 345:0.019940476 350:0.04047619 351:0.1625 352:0.46517857 353:0.25178571 354:0.080059524 360:0.04047619 
0.0816046563372724 1:0.0024038462 2:0.047475962 3:0.32361779 4:0.32241587 5:0.15925481 6:0.058293269 7:0.034855769 8:0.021935096 9:0.022235577 10:0.0075120192 11:0.13251202 12:0.32842548 13:0.2515024 14:0.068509615 15:0.055889423 16:0.041165865 17:0.057391827 18:0.037560096 19:0.019230769 20:0.0078125 21:0.15204327 22:0.296875 23:0.26772837 24:0.065204327 25:0.060997596 26:0.062199519 27:0.036057692 28:0.030048077 29:0.020733173 30:0.0081129808 31:0.0012019231 32:0.0084134615 33:0.03125 34:0.016826923 35:0.39302885 36:0.30829327 37:0.13701923 38:0.040865385 39:0.043269231 40:0.019831731 41:0.01171875 42:0.074819712 43:0.18209135 44:0.25480769 45:0.18539663 46:0.14032452 47:0.066706731 48:0.055889423 49:0.023137019 50:0.0051081731 51:0.13251202 52:0.32842548 53:0.2515024 54:0.068509615 55:0.055889423 56:0.041165865 57:0.057391827 58:0.037560096 59:0.019230769 60:0.0078125 61:0.056490385 62:0.16075721 63:0.11658654 64:0.14332933 65:0.24639423 66:0.17668269 67:0.052584135 68:0.035757212 69:0.0099158654 70:0.0015024038 71:0.15234375 72:0.084134615 73:0.073918269 74:0.10126202 75:0.13822115 76:0.15144231 77:0.14933894 78:0.10096154 79:0.042668269 80:0.0057091346 81:0.11147837 82:0.12109375 83:0.056189904 84:0.10456731 85:0.14753606 86:0.14032452 87:0.15294471 88:0.11688702 89:0.043569712 90:0.0054086538 91:0.44170673 92:0.25841346 94:0.20853365 96:0.052283654 97:0.027043269 99:0.0096153846 100:0.0024038462 101:0.0021033654 102:0.015925481 103:0.051382212 104:0.10817308 105:0.17457933 106:0.26592548 107:0.19290865 108:0.13731971 109:0.048677885 110:0.0030048077 111:0.15234375 112:0.084134615 113:0.073918269 114:0.10126202 115:0.13822115 116:0.15144231 117:0.14933894 118:0.10096154 119:0.042668269 120:0.0057091346 121:0.03125 126:0.00090144231 127:0.16165865 128:0.53395433 129:0.23557692 130:0.036658654 131:0.03125 136:0.11177885 137:0.29086538 138:0.33143029 139:0.16105769 140:0.073617788 141:0.6625601 142:0.30498798 143:0.0012019231 150:0.03125 151:0.03125 160:0.96875 161:0.026442308 162:0.3969351 163:0.43058894 164:0.10727163 165:0.0075120192 170:0.03125 171:0.52674279 172:0.40114183 173:0.040865385 180:0.03125 181:0.0096153846 182:0.0015024038 183:0.012319712 184:0.31730769 185:0.27283654 186:0.20643029 187:0.091045673 188:0.044471154 189:0.036959135 190:0.0075120192 191:0.0096153846 193:0.0057091346 194:0.19441106 195:0.22115385 196:0.10516827 197:0.22926683 198:0.125 199:0.060997596 200:0.048677885 201:0.13491587 202:0.28305288 203:0.11688702 204:0.26111779 205:0.12019231 206:0.065504808 207:0.0087139423 210:0.0096153846 211:0.0096153846 219:0.44891827 220:0.54146635 221:0.040865385 222:0.20342548 223:0.39362981 224:0.31580529 225:0.036658654 230:0.0096153846 231:0.13371394 232:0.25300481 233:0.11748798 234:0.19441106 235:0.16887019 236:0.070612981 237:0.051983173 238:0.00030048077 240:0.0096153846 241:0.0096153846 244:0.0093149038 245:0.28425481 246:0.26893029 247:0.15655048 248:0.21274038 249:0.053485577 250:0.0051081731 251:0.0096153846 254:0.050180288 255:0.2046274 256:0.21995192 257:0.090144231 258:0.094951923 259:0.30498798 260:0.025540865 261:0.27854567 262:0.27103365 263:0.096754808 264:0.33173077 265:0.012319712 270:0.0096153846 271:0.0096153846 279:0.049278846 280:0.94110577 281:0.021935096 282:0.14963942 283:0.33383413 284:0.46965144 285:0.015324519 290:0.0096153846 291:0.25480769 292:0.25991587 293:0.075721154 294:0.29987981 295:0.098557692 296:0.0015024038 300:0.0096153846 301:0.040564904 305:0.029747596 306:0.39963942 307:0.32331731 308:0.15024038 309:0.046274038 310:0.010216346 311:0.040564904 315:0.057992788 316:0.1469351 317:0.28725962 318:0.21905048 319:0.18689904 320:0.061298077 321:0.25390625 322:0.44260817 323:0.24579327 324:0.017127404 330:0.040564904 331:0.040564904 340:0.9594351 341:0.028545673 342:0.17007212 343:0.47295673 344:0.27133413 345:0.016526442 350:0.040564904 351:0.20492788 352:0.41676683 353:0.25240385 354:0.085336538 360:0.040564904 
0.03035959042673573 1:0.0018028846 2:0.024338942 3:0.32512019 4:0.30588942 5:0.16766827 6:0.069711538 7:0.041766827 8:0.029447115 9:0.024639423 10:0.0096153846 11:0.18870192 12:0.28425481 13:0.25300481 14:0.066105769 15:0.051682692 16:0.048377404 17:0.049879808 18:0.032451923 19:0.016526442 20:0.0090144231 21:0.11838942 22:0.30228365 23:0.30168269 24:0.063401442 25:0.059495192 26:0.061598558 27:0.032752404 28:0.033954327 29:0.016526442 30:0.0099158654 31:0.0036057692 33:0.013221154 34:0.020432692 35:0.013221154 36:0.37139423 37:0.34134615 38:0.11778846 39:0.050480769 40:0.068509615 41:0.0078125 42:0.050180288 43:0.18359375 44:0.3140024 45:0.19951923 46:0.13701923 47:0.063100962 48:0.027043269 49:0.015024038 50:0.0027043269 51:0.18870192 52:0.28425481 53:0.25300481 54:0.066105769 55:0.051682692 56:0.048377404 57:0.049879808 58:0.032451923 59:0.016526442 60:0.0090144231 61:0.024639423 62:0.12680288 63:0.14873798 64:0.22566106 65:0.21394231 66:0.15174279 67:0.076021635 68:0.020733173 69:0.0096153846 70:0.0021033654 71:0.1484375 72:0.090444712 73:0.076021635 74:0.099459135 75:0.16856971 76:0.14513221 77:0.12890625 78:0.095252404 79:0.042668269 80:0.0051081731 81:0.10997596 82:0.12199519 83:0.058894231 84:0.10276442 85:0.14873798 86:0.13822115 87:0.15594952 88:0.11237981 89:0.038461538 90:0.012620192 91:0.0048076923 92:0.0048076923 93:0.46274038 95:0.22956731 96:0.21514423 98:0.028846154 99:0.049278846 100:0.0048076923 101:0.0030048077 102:0.010817308 103:0.056790865 104:0.12469952 105:0.17878606 106:0.24338942 107:0.16466346 108:0.14543269 109:0.066105769 110:0.0063100962 111:0.1484375 112:0.090444712 113:0.076021635 114:0.099459135 115:0.16856971 116:0.14513221 117:0.12890625 118:0.095252404 119:0.042668269 120:0.0051081731 121:0.03125 126:0.0027043269 127:0.13792067 128:0.50450721 129:0.29417067 130:0.029447115 131:0.03125 136:0.10276442 137:0.32121394 138:0.28996394 139:0.1890024 140:0.065805288 141:0.63882212 142:0.32842548 143:0.0015024038 150:0.03125 151:0.03125 160:0.96875 161:0.01953125 162:0.40534856 163:0.43359375 164:0.10126202 165:0.0090144231 170:0.03125 171:0.49639423 172:0.43239183 173:0.039963942 180:0.03125 181:0.0096153846 182:0.00030048077 183:0.0090144231 184:0.27794471 185:0.2797476 186:0.22596154 187:0.10126202 188:0.041766827 189:0.048076923 190:0.0063100962 191:0.0096153846 193:0.0054086538 194:0.21754808 195:0.19951923 196:0.1108774 197:0.234375 198:0.11237981 199:0.073317308 200:0.036959135 201:0.12800481 202:0.28125 203:0.11388221 204:0.25901442 205:0.11929087 206:0.077223558 207:0.01171875 210:0.0096153846 211:0.0096153846 219:0.46875 220:0.52163462 221:0.059495192 222:0.21965144 223:0.36538462 224:0.32061298 225:0.024639423 226:0.00060096154 230:0.0096153846 231:0.13792067 232:0.24519231 233:0.11598558 234:0.18689904 235:0.16436298 236:0.081430288 237:0.057992788 238:0.00060096154 240:0.0096153846 241:0.0096153846 244:0.010216346 245:0.29296875 246:0.23347356 247:0.15594952 248:0.22536058 249:0.063401442 250:0.0090144231 251:0.0096153846 254:0.082932692 255:0.18179087 256:0.21754808 257:0.068209135 258:0.11838942 259:0.29116587 260:0.030348558 261:0.26923077 262:0.25841346 263:0.082331731 264:0.35997596 265:0.020432692 270:0.0096153846 271:0.0096153846 279:0.036057692 280:0.95432692 281:0.048978365 282:0.18239183 283:0.41286058 284:0.34465144 285:0.0015024038 290:0.0096153846 291:0.25390625 292:0.24939904 293:0.064603365 294:0.3188101 295:0.098557692 296:0.0051081731 300:0.0096153846 301:0.040564904 305:0.043870192 306:0.42487981 307:0.2593149 308:0.15264423 309:0.056790865 310:0.021935096 311:0.040564904 315:0.0703125 316:0.15685096 317:0.25600962 318:0.21003606 319:0.1953125 320:0.070913462 321:0.26201923 322:0.41376202 323:0.25210337 324:0.031550481 330:0.040564904 331:0.040564904 339:0.0012019231 340:0.95823317 341:0.049579327 342:0.17758413 343:0.55528846 344:0.17518029 345:0.0018028846 350:0.040564904 351:0.20522837 352:0.39393029 353:0.24669471 354:0.11358173 360:0.040564904 
0.1466764101990757 1:0.0036407767 2:0.10436893 3:0.34223301 4:0.29429612 5:0.11498786 6:0.061286408 7:0.033373786 8:0.019417476 9:0.020024272 10:0.0063713592 11:0.19993932 12:0.2818568 13:0.2345267 14:0.072208738 15:0.051881068 16:0.039441748 17:0.053701456 18:0.038834951 19:0.016990291 20:0.010618932 21:0.095873786 22:0.32979369 23:0.25849515 24:0.09526699 25:0.067050971 26:0.058555825 27:0.041262136 28:0.02973301 29:0.014563107 30:0.0094053398 31:0.00060679612 33:0.0097087379 34:0.028519417 35:0.011225728 36:0.39714806 37:0.3288835 38:0.15533981 39:0.02184466 40:0.046723301 41:0.0060679612 42:0.08282767 43:0.22421117 44:0.24120146 45:0.18143204 46:0.14259709 47:0.05157767 48:0.032463592 49:0.017900485 50:0.019720874 51:0.19993932 52:0.2818568 53:0.2345267 54:0.072208738 55:0.051881068 56:0.039441748 57:0.053701456 58:0.038834951 59:0.016990291 60:0.010618932 61:0.0091019417 62:0.078580097 63:0.15321602 64:0.13956311 65:0.23847087 66:0.20782767 67:0.11074029 68:0.04065534 69:0.015776699 70:0.0060679612 71:0.15807039 72:0.079186893 73:0.072512136 74:0.099514563 75:0.15078883 76:0.16535194 77:0.12166262 78:0.10497573 79:0.042779126 80:0.005157767 81:0.082220874 82:0.13592233 83:0.064623786 84:0.095873786 85:0.14199029 86:0.15503641 87:0.15958738 88:0.10831311 89:0.049150485 90:0.0072815534 91:0.42597087 93:0.22512136 95:0.25364078 97:0.044296117 99:0.044902913 100:0.0060679612 101:0.0039441748 102:0.019417476 103:0.093446602 104:0.13440534 105:0.17870146 106:0.25424757 107:0.19265777 108:0.10649272 109:0.015169903 110:0.0015169903 111:0.15807039 112:0.079186893 113:0.072512136 114:0.099514563 115:0.15078883 116:0.16535194 117:0.12166262 118:0.10497573 119:0.042779126 120:0.005157767 121:0.03125 126:0.00060679612 127:0.097390777 128:0.36680825 129:0.44963592 130:0.054308252 131:0.03125 136:0.094356796 137:0.26274272 138:0.37803398 139:0.13652913 140:0.097087379 141:0.69144417 142:0.27669903 143:0.00060679612 150:0.03125 151:0.03125 160:0.96875 161:0.097390777 162:0.60558252 163:0.21966019 164:0.046116505 170:0.03125 171:0.55279126 172:0.37985437 173:0.036104369 180:0.03125 181:0.0097087379 183:0.013046117 184:0.34860437 185:0.24908981 186:0.21086165 187:0.093446602 188:0.046419903 189:0.027002427 190:0.0018203883 191:0.0097087379 193:0.0018203883 194:0.18021845 195:0.21875 196:0.10224515 197:0.21419903 198:0.15139563 199:0.07038835 200:0.051274272 201:0.21055825 202:0.22239078 203:0.11407767 204:0.27305825 205:0.1089199 206:0.057038835 207:0.0042475728 210:0.0097087379 211:0.0097087379 219:0.050970874 220:0.93932039 221:0.020631068 222:0.21086165 223:0.34739078 224:0.36741505 225:0.043992718 230:0.0097087379 231:0.16838592 232:0.23240291 233:0.10224515 234:0.23300971 235:0.14532767 236:0.064623786 237:0.044296117 240:0.0097087379 241:0.0097087379 244:0.00060679612 245:0.22026699 246:0.32918689 247:0.079793689 248:0.25637136 249:0.093143204 250:0.01092233 251:0.0097087379 254:0.053398058 255:0.18325243 256:0.22754854 257:0.095570388 258:0.096480583 259:0.31067961 260:0.02336165 261:0.2651699 262:0.27942961 263:0.096480583 264:0.33980583 265:0.0094053398 270:0.0097087379 271:0.0097087379 279:0.029126214 280:0.96116505 281:0.080703883 282:0.1878034 283:0.5467233 284:0.1723301 285:0.0027305825 290:0.0097087379 291:0.24757282 292:0.26759709 293:0.073725728 294:0.32342233 295:0.076456311 296:0.0015169903 300:0.0097087379 301:0.04065534 305:0.0045509709 306:0.30825243 307:0.40382282 308:0.13925971 309:0.087378641 310:0.016080097 311:0.04065534 315:0.063410194 316:0.14927184 317:0.27154126 318:0.22451456 319:0.18901699 320:0.061589806 321:0.27396845 322:0.42718447 323:0.24271845 324:0.015473301 330:0.04065534 331:0.04065534 339:0.72633495 340:0.23300971 341:0.081614078 342:0.21632282 343:0.56401699 344:0.096177184 345:0.0012135922 350:0.04065534 351:0.21268204 352:0.41959951 353:0.2345267 354:0.092536408 360:0.04065534 
0.0128375414781189 1:0.055825243 2:0.34981796 3:0.35345874 4:0.11316748 5:0.040351942 6:0.026092233 7:0.040048544 8:0.010618932 9:0.0069781553 10:0.0036407767 11:0.30309466 12:0.19599515 13:0.24635922 14:0.052487864 15:0.047330097 16:0.042779126 17:0.04217233 18:0.038834951 19:0.018507282 20:0.01243932 21:0.24878641 22:0.23270631 23:0.26850728 24:0.05157767 25:0.048543689 26:0.058859223 27:0.033980583 28:0.033980583 29:0.016383495 30:0.0066747573 31:0.010315534 32:0.0036407767 33:0.31341019 34:0.34708738 35:0.1253034 36:0.056432039 37:0.099514563 38:0.042475728 39:0.00060679612 40:0.0012135922 41:0.0015169903 42:0.018507282 43:0.082220874 44:0.3592233 45:0.22421117 46:0.14684466 47:0.10133495 48:0.030946602 49:0.020934466 50:0.014259709 51:0.30309466 52:0.19599515 53:0.24635922 54:0.052487864 55:0.047330097 56:0.042779126 57:0.04217233 58:0.038834951 59:0.018507282 60:0.01243932 61:0.041565534 62:0.15776699 63:0.16656553 64:0.15989078 65:0.20631068 66:0.2023665 67:0.045206311 68:0.016990291 69:0.0027305825 70:0.00060679612 71:0.13834951 72:0.10042476 73:0.067657767 74:0.10527913 75:0.1253034 76:0.13167476 77:0.16444175 78:0.082220874 79:0.072815534 80:0.011832524 81:0.078883495 82:0.14229369 83:0.083434466 84:0.06098301 85:0.11438107 86:0.17627427 87:0.1256068 88:0.11134709 89:0.090412621 90:0.016383495 91:0.51820388 94:0.3131068 97:0.14502427 100:0.023665049 101:0.0045509709 102:0.005461165 103:0.046116505 104:0.11771845 105:0.19144417 106:0.25182039 107:0.15291262 108:0.11953883 109:0.08282767 110:0.027609223 111:0.13834951 112:0.10042476 113:0.067657767 114:0.10527913 115:0.1253034 116:0.13167476 117:0.16444175 118:0.082220874 119:0.072815534 120:0.011832524 121:0.03125 127:0.081917476 128:0.41565534 129:0.39593447 130:0.075242718 131:0.03125 136:0.07342233 137:0.30734223 138:0.35345874 139:0.13834951 140:0.096177184 141:0.71146845 142:0.25728155 150:0.03125 151:0.03125 159:0.51850728 160:0.45024272 161:0.14502427 162:0.55552184 163:0.21966019 164:0.045813107 165:0.0027305825 170:0.03125 171:0.60497573 172:0.33889563 173:0.024878641 180:0.03125 181:0.0097087379 182:0.00030339806 183:0.01243932 184:0.24029126 185:0.30309466 186:0.24029126 187:0.082524272 188:0.065837379 189:0.035800971 190:0.0097087379 191:0.0097087379 193:0.0018203883 194:0.16929612 195:0.23058252 196:0.10103155 197:0.19660194 198:0.17293689 199:0.062196602 200:0.055825243 201:0.11680825 202:0.30157767 203:0.1098301 204:0.27396845 205:0.11741505 206:0.065230583 207:0.005461165 210:0.0097087379 211:0.0097087379 219:0.42870146 220:0.56158981 221:0.069478155 222:0.27123786 223:0.41838592 224:0.21601942 225:0.013046117 226:0.0021237864 230:0.0097087379 231:0.099514563 232:0.28125 233:0.11741505 234:0.20115291 235:0.18143204 236:0.061589806 237:0.047936893 240:0.0097087379 241:0.0097087379 245:0.19356796 246:0.31887136 247:0.11559466 248:0.30612864 249:0.05157767 250:0.0045509709 251:0.0097087379 254:0.017597087 255:0.21723301 256:0.23756068 257:0.061589806 258:0.12287621 259:0.30400485 260:0.029429612 261:0.27700243 262:0.24696602 263:0.16504854 264:0.29399272 265:0.0072815534 270:0.0097087379 271:0.0097087379 279:0.030946602 280:0.95934466 281:0.09375 282:0.19538835 283:0.45661408 284:0.24332524 285:0.0012135922 290:0.0097087379 291:0.26243932 292:0.24757282 293:0.062803398 294:0.35679612 295:0.060679612 300:0.0097087379 301:0.04065534 305:0.058252427 306:0.47572816 307:0.23209951 308:0.13804612 309:0.046419903 310:0.0087985437 311:0.04065534 315:0.094053398 316:0.17050971 317:0.26911408 318:0.16686893 319:0.18871359 320:0.070084951 321:0.31341019 322:0.38531553 323:0.24575243 324:0.014866505 330:0.04065534 331:0.04065534 340:0.95934466 341:0.059769417 342:0.26790049 343:0.48331311 344:0.14805825 345:0.00030339806 350:0.04065534 351:0.28458738 352:0.37348301 353:0.23118932 354:0.070084951 360:0.04065534 
0.1223997233904679 1:0.03247549 2:0.35876225 3:0.30116422 4:0.16727941 5:0.049938725 6:0.026654412 7:0.034926471 8:0.017769608 9:0.0082720588 10:0.0027573529 11:0.29289216 12:0.20159314 13:0.25827206 14:0.054534314 15:0.044730392 16:0.039522059 17:0.052696078 18:0.028186275 19:0.016544118 20:0.011029412 21:0.25857843 22:0.22334559 23:0.25765931 24:0.069240196 25:0.045343137 26:0.040134804 27:0.040134804 28:0.030943627 29:0.020220588 30:0.01439951 31:0.4375 33:0.3247549 35:0.10539216 37:0.047794118 39:0.056372549 40:0.028186275 41:0.0042892157 42:0.034620098 43:0.14276961 44:0.23529412 45:0.23682598 46:0.18964461 47:0.079656863 48:0.048713235 49:0.022365196 50:0.0058210784 51:0.29289216 52:0.20159314 53:0.25827206 54:0.054534314 55:0.044730392 56:0.039522059 57:0.052696078 58:0.028186275 59:0.016544118 60:0.011029412 61:0.0027573529 62:0.054840686 63:0.19240196 64:0.15134804 65:0.29074755 66:0.24172794 67:0.042279412 68:0.016544118 69:0.006127451 70:0.0012254902 71:0.017463235 72:0.19209559 73:0.078431373 74:0.083639706 75:0.11917892 76:0.16268382 77:0.15379902 78:0.10140931 79:0.073529412 80:0.017769608 81:0.011642157 82:0.20006127 83:0.068321078 84:0.074754902 85:0.13112745 86:0.14859069 87:0.14522059 88:0.11243873 89:0.083639706 90:0.024203431 91:0.43627451 94:0.3002451 97:0.19485294 100:0.068627451 101:0.011948529 102:0.031862745 103:0.068014706 104:0.12683824 105:0.14583333 106:0.21997549 107:0.22518382 108:0.1216299 109:0.036458333 110:0.012254902 111:0.017463235 112:0.19209559 113:0.078431373 114:0.083639706 115:0.11917892 116:0.16268382 117:0.15379902 118:0.10140931 119:0.073529412 120:0.017769608 121:0.03125 125:0.0006127451 126:0.011642157 127:0.32322304 128:0.49295343 129:0.13235294 130:0.0079656863 131:0.03125 136:0.097732843 137:0.30545343 138:0.34681373 139:0.14797794 140:0.070772059 141:0.63694853 142:0.32873775 143:0.0030637255 150:0.03125 151:0.03125 160:0.96875 161:0.026960784 162:0.41329657 163:0.41115196 164:0.09620098 165:0.019914216 166:0.0012254902 170:0.03125 171:0.47303922 172:0.43688725 173:0.058823529 180:0.03125 181:0.0098039216 182:0.0006127451 183:0.0079656863 184:0.22947304 185:0.32536765 186:0.23008578 187:0.12530637 188:0.034926471 189:0.022671569 190:0.013786765 191:0.0098039216 193:0.0024509804 194:0.16605392 195:0.25275735 196:0.099571078 197:0.19056373 198:0.16973039 199:0.059436275 200:0.049632353 201:0.058823529 202:0.34466912 203:0.1216299 204:0.27113971 205:0.12928922 206:0.054227941 207:0.010416667 210:0.0098039216 211:0.0098039216 219:0.46997549 220:0.52022059 221:0.0030637255 222:0.038602941 223:0.19301471 224:0.43045343 225:0.3091299 226:0.01439951 227:0.0015318627 230:0.0098039216 231:0.054840686 232:0.31066176 233:0.13419118 234:0.18535539 235:0.19607843 236:0.063419118 237:0.04564951 240:0.0098039216 241:0.0098039216 245:0.058517157 246:0.29963235 247:0.20036765 248:0.13970588 249:0.21660539 250:0.075367647 251:0.0098039216 255:0.20680147 256:0.23345588 257:0.094362745 258:0.072610294 259:0.32598039 260:0.056985294 261:0.29901961 262:0.23039216 263:0.13082108 264:0.32781863 265:0.0021446078 270:0.0098039216 271:0.0098039216 278:0.018382353 279:0.90931373 280:0.0625 281:0.03247549 282:0.1439951 283:0.36519608 284:0.42953431 285:0.018995098 290:0.0098039216 291:0.26317402 292:0.25643382 293:0.065563725 294:0.36550245 295:0.039522059 300:0.0098039216 301:0.040747549 305:0.0079656863 306:0.3213848 307:0.35508578 308:0.16023284 309:0.089154412 310:0.025428922 311:0.040747549 315:0.095281863 316:0.19485294 317:0.25490196 318:0.1752451 319:0.20404412 320:0.034926471 321:0.30729167 322:0.38939951 323:0.24234069 324:0.020220588 330:0.040747549 331:0.040747549 339:0.0018382353 340:0.95741422 341:0.023590686 342:0.17248775 343:0.45128676 344:0.30055147 345:0.011335784 350:0.040747549 351:0.23192402 352:0.41636029 353:0.2098652 354:0.10110294 360:0.040747549 
0.09791525543351855 1:0.2009375 2:0.16375 3:0.16875 4:0.1028125 5:0.1240625 6:0.0775 7:0.08625 8:0.0465625 9:0.0215625 10:0.0078125 11:0.263125 12:0.1215625 13:0.159375 14:0.1059375 15:0.1059375 16:0.1078125 17:0.061875 18:0.033125 19:0.0228125 20:0.0184375 21:0.0021875 22:0.04 23:0.1821875 24:0.13 25:0.4165625 26:0.1809375 27:0.030625 28:0.0165625 29:0.000625 30:0.0003125 31:0.000625 32:0.02 33:0.046875 34:0.1059375 36:0.239375 37:0.3425 38:0.214375 39:0.0271875 40:0.003125 41:0.040625 42:0.143125 43:0.0465625 44:0.1575 45:0.1440625 46:0.1559375 47:0.155625 48:0.09 49:0.0465625 50:0.02 51:0.2009375 52:0.16375 53:0.16875 54:0.1028125 55:0.1240625 56:0.0775 57:0.08625 58:0.0465625 59:0.0215625 60:0.0078125 61:0.1428125 62:0.2228125 63:0.233125 64:0.17 65:0.090625 66:0.05125 67:0.023125 68:0.0146875 69:0.024375 70:0.0271875 71:0.0609375 72:0.3228125 73:0.276875 74:0.1221875 75:0.0890625 76:0.04875 77:0.015 78:0.0234375 79:0.02 80:0.0209375 81:0.0053125 82:0.0184375 83:0.2421875 84:0.1275 85:0.1775 86:0.2734375 87:0.073125 88:0.0703125 89:0.0096875 90:0.0025 91:0.000625 93:0.03625 94:0.0415625 95:0.2459375 96:0.230625 97:0.31375 98:0.0925 99:0.035 100:0.00375 101:0.038125 102:0.1240625 103:0.1209375 104:0.219375 105:0.2225 106:0.1259375 107:0.0696875 108:0.026875 109:0.0371875 110:0.0153125 111:0.1428125 112:0.2228125 113:0.233125 114:0.17 115:0.090625 116:0.05125 117:0.023125 118:0.0146875 119:0.024375 120:0.0271875 121:0.03125 125:0.00875 126:0.0828125 127:0.304375 128:0.3575 129:0.1184375 130:0.096875 131:0.03125 137:0.0271875 138:0.236875 139:0.5234375 140:0.18125 141:0.96875 150:0.03125 151:0.03125 160:0.96875 161:0.0425 162:0.1603125 163:0.5009375 164:0.1946875 165:0.0703125 170:0.03125 171:0.32375 172:0.5275 173:0.1175 180:0.03125 181:0.01 183:0.38625 184:0.211875 185:0.1459375 186:0.11125 187:0.02 188:0.0265625 189:0.0584375 190:0.0296875 191:0.01 194:0.4834375 195:0.223125 196:0.14375 197:0.0275 198:0.0409375 199:0.0396875 200:0.0315625 201:0.973125 202:0.016875 210:0.01 211:0.01 219:0.01625 220:0.97375 221:0.0271875 222:0.1409375 223:0.26875 224:0.1421875 225:0.106875 226:0.1634375 227:0.034375 228:0.0496875 229:0.0565625 230:0.01 231:0.42 232:0.178125 233:0.134375 234:0.1178125 235:0.0225 236:0.0175 237:0.0465625 238:0.0446875 239:0.0084375 240:0.01 241:0.01 243:0.005 244:0.1053125 245:0.3328125 246:0.214375 247:0.11 248:0.099375 249:0.09875 250:0.024375 251:0.01 255:0.0215625 256:0.3021875 257:0.319375 258:0.1028125 259:0.1540625 260:0.09 261:0.99 270:0.01 271:0.01 280:0.99 281:0.0340625 282:0.0671875 283:0.3121875 284:0.178125 285:0.145625 286:0.0896875 287:0.12625 288:0.036875 290:0.01 291:0.145625 292:0.38 293:0.18625 294:0.126875 295:0.1209375 296:0.0303125 300:0.01 301:0.0409375 304:0.0140625 305:0.2446875 306:0.1921875 307:0.211875 308:0.1215625 309:0.1615625 310:0.013125 311:0.0409375 316:0.148125 317:0.2771875 318:0.2521875 319:0.166875 320:0.1146875 321:0.9590625 330:0.0409375 331:0.0409375 340:0.9590625 341:0.055625 342:0.224375 343:0.2103125 344:0.1746875 345:0.131875 346:0.1546875 347:0.0075 350:0.0409375 351:0.30125 352:0.2909375 353:0.1646875 354:0.191875 355:0.0103125 360:0.0409375 
0.009053938075339718 1:0.21507353 2:0.17984069 3:0.14307598 4:0.10079657 5:0.10814951 6:0.071691176 7:0.086703431 8:0.036458333 9:0.035845588 10:0.022365196 11:0.090379902 12:0.28339461 13:0.17493873 14:0.098345588 15:0.10079657 16:0.078737745 17:0.064338235 18:0.054534314 19:0.021139706 20:0.033394608 21:0.0006127451 22:0.0030637255 23:0.0045955882 24:0.10998775 25:0.13633578 26:0.2622549 27:0.36734069 28:0.078431373 29:0.03002451 30:0.0073529412 31:0.006127451 32:0.020220588 33:0.027573529 34:0.17218137 36:0.41666667 37:0.25367647 38:0.09375 39:0.0073529412 40:0.0024509804 41:0.022058824 42:0.10416667 43:0.1528799 44:0.13541667 45:0.12377451 46:0.1060049 47:0.12071078 48:0.11734069 49:0.072610294 50:0.045036765 51:0.21507353 52:0.17984069 53:0.14307598 54:0.10079657 55:0.10814951 56:0.071691176 57:0.086703431 58:0.036458333 59:0.035845588 60:0.022365196 61:0.125 62:0.16329657 63:0.27113971 64:0.16973039 65:0.11580882 66:0.079963235 67:0.020526961 68:0.018995098 69:0.017156863 70:0.018382353 71:0.060968137 72:0.26439951 73:0.19117647 74:0.25765931 75:0.079656863 76:0.070465686 77:0.024816176 78:0.022058824 79:0.013480392 80:0.015318627 81:0.0018382353 82:0.010723039 83:0.072303922 84:0.26715686 85:0.18627451 86:0.30330882 87:0.12591912 88:0.026960784 89:0.0049019608 90:0.0006127451 91:0.0024509804 92:0.0012254902 93:0.0049019608 94:0.0073529412 95:0.030637255 96:0.26654412 97:0.26470588 98:0.26164216 99:0.13602941 100:0.024509804 101:0.027267157 102:0.091605392 103:0.12561275 104:0.23560049 105:0.20343137 106:0.15686275 107:0.081801471 108:0.036151961 109:0.026041667 110:0.015625 111:0.125 112:0.16329657 113:0.27113971 114:0.16973039 115:0.11580882 116:0.079963235 117:0.020526961 118:0.018995098 119:0.017156863 120:0.018382353 121:0.03125 125:0.035845588 126:0.16666667 127:0.31832108 128:0.30238971 129:0.11672794 130:0.02879902 131:0.03125 137:0.041360294 138:0.28339461 139:0.50612745 140:0.13786765 141:0.96875 150:0.03125 151:0.03125 160:0.96875 161:0.10079657 162:0.17218137 163:0.48039216 164:0.17800245 165:0.037377451 170:0.03125 171:0.41176471 172:0.47303922 173:0.083946078 180:0.03125 181:0.0098039216 183:0.37775735 184:0.23835784 185:0.16115196 186:0.12040441 187:0.012561275 188:0.011948529 189:0.032169118 190:0.035845588 191:0.0098039216 194:0.50704657 195:0.21783088 196:0.16605392 197:0.017156863 198:0.020833333 199:0.027573529 200:0.03370098 201:0.98253676 202:0.0076593137 210:0.0098039216 211:0.0098039216 219:0.0024509804 220:0.9877451 221:0.042892157 222:0.2221201 223:0.1841299 224:0.15747549 225:0.12714461 226:0.15808824 227:0.024816176 228:0.037683824 229:0.035845588 230:0.0098039216 231:0.40226716 232:0.2098652 233:0.14246324 234:0.14154412 235:0.010110294 236:0.011029412 237:0.022671569 238:0.041360294 239:0.0088848039 240:0.0098039216 241:0.0098039216 243:0.012254902 244:0.10386029 245:0.36060049 246:0.19056373 247:0.087622549 248:0.096507353 249:0.11243873 250:0.026348039 251:0.0098039216 255:0.047181373 256:0.36488971 257:0.23161765 258:0.1182598 259:0.16758578 260:0.060661765 261:0.98590686 262:0.0042892157 270:0.0098039216 271:0.0098039216 280:0.99019608 281:0.014705882 282:0.053002451 283:0.32506127 284:0.21660539 285:0.12530637 286:0.094362745 287:0.12009804 288:0.037377451 289:0.0036764706 290:0.0098039216 291:0.14031863 292:0.39001225 293:0.18382353 294:0.10171569 295:0.1439951 296:0.030330882 300:0.0098039216 301:0.040747549 305:0.13878676 306:0.19822304 307:0.20404412 308:0.17248775 309:0.13449755 310:0.11121324 311:0.040747549 316:0.12071078 317:0.27696078 318:0.27634804 319:0.17463235 320:0.11060049 321:0.95925245 330:0.040747549 331:0.040747549 340:0.95925245 341:0.030637255 342:0.13204657 343:0.16819853 344:0.22610294 345:0.19944853 346:0.17953431 347:0.023284314 350:0.040747549 351:0.27052696 352:0.27052696 353:0.2276348 354:0.18688725 355:0.0036764706 360:0.040747549 
0.01966571955825665 1:0.20668317 2:0.16491337 3:0.14325495 4:0.12252475 5:0.095915842 6:0.070544554 7:0.10024752 8:0.030631188 9:0.042388614 10:0.02289604 11:0.10612624 12:0.25371287 13:0.18997525 14:0.087871287 15:0.096225248 16:0.087252475 17:0.070544554 18:0.05105198 19:0.017945545 20:0.039294554 21:0.0012376238 22:0.0083539604 23:0.029393564 24:0.07085396 25:0.14449257 26:0.4637995 27:0.1615099 28:0.077042079 29:0.035891089 30:0.0074257426 31:0.0061881188 32:0.041460396 34:0.21534653 36:0.33787129 37:0.27289604 39:0.10767327 40:0.018564356 41:0.10736386 42:0.12778465 43:0.10550743 44:0.13799505 45:0.093440594 46:0.13087871 47:0.073329208 48:0.12159653 49:0.066831683 50:0.035272277 51:0.20668317 52:0.16491337 53:0.14325495 54:0.12252475 55:0.095915842 56:0.070544554 57:0.10024752 58:0.030631188 59:0.042388614 60:0.02289604 61:0.16460396 62:0.1667698 63:0.27537129 64:0.16212871 65:0.1095297 66:0.051670792 67:0.023824257 68:0.014851485 69:0.013613861 70:0.017636139 71:0.21225248 72:0.17450495 73:0.22122525 74:0.19492574 75:0.092821782 76:0.03279703 77:0.024133663 78:0.017326733 79:0.012066832 80:0.017945545 81:0.0034034653 82:0.005259901 83:0.077970297 84:0.12716584 85:0.30940594 86:0.16553218 87:0.2289604 88:0.047648515 89:0.029084158 90:0.0055693069 91:0.004950495 92:0.0086633663 93:0.025990099 94:0.048267327 95:0.15284653 96:0.28217822 97:0.28898515 98:0.15346535 99:0.028465347 100:0.0061881188 101:0.047648515 102:0.13954208 103:0.12035891 104:0.19956683 105:0.20513614 106:0.13149752 107:0.084467822 108:0.02970297 109:0.029084158 110:0.01299505 111:0.16460396 112:0.1667698 113:0.27537129 114:0.16212871 115:0.1095297 116:0.051670792 117:0.023824257 118:0.014851485 119:0.013613861 120:0.017636139 121:0.03125 125:0.075804455 126:0.15748762 127:0.39170792 128:0.21503713 129:0.099319307 130:0.029393564 131:0.03125 137:0.032178218 138:0.28836634 139:0.51175743 140:0.13644802 141:0.96875 150:0.03125 151:0.03125 160:0.96875 161:0.083230198 162:0.087561881 163:0.44430693 164:0.30167079 165:0.047029703 166:0.004950495 170:0.03125 171:0.35303218 172:0.52258663 173:0.093131188 180:0.03125 181:0.0099009901 183:0.38799505 184:0.2342203 185:0.1457302 186:0.13180693 187:0.012376238 188:0.013613861 189:0.031868812 190:0.032487624 191:0.0099009901 194:0.51392327 195:0.21875 196:0.1612005 197:0.017017327 198:0.01825495 199:0.026918317 200:0.034034653 201:0.98236386 202:0.0077351485 210:0.0099009901 211:0.0099009901 219:0.0024752475 220:0.98762376 221:0.05105198 222:0.20049505 223:0.21132426 224:0.15594059 225:0.12345297 226:0.15346535 227:0.025680693 228:0.039294554 229:0.029393564 230:0.0099009901 231:0.40779703 232:0.21441832 233:0.13861386 234:0.13768564 235:0.012066832 236:0.011138614 237:0.021039604 238:0.040222772 239:0.0071163366 240:0.0099009901 241:0.0099009901 243:0.0077351485 244:0.1042698 245:0.36788366 246:0.18811881 247:0.084467822 248:0.099319307 249:0.11757426 250:0.020730198 251:0.0099009901 255:0.037128713 256:0.38613861 257:0.22865099 258:0.11076733 259:0.16738861 260:0.060024752 261:0.98793317 262:0.0021658416 270:0.0099009901 271:0.0099009901 280:0.99009901 281:0.010519802 282:0.056002475 283:0.32766089 284:0.22122525 285:0.11417079 286:0.098081683 287:0.11571782 288:0.045792079 289:0.00092821782 290:0.0099009901 291:0.13892327 292:0.39665842 293:0.1772896 294:0.10705446 295:0.14387376 296:0.026299505 300:0.0099009901 301:0.040841584 305:0.12376238 306:0.20730198 307:0.19430693 308:0.1769802 309:0.1302599 310:0.12654703 311:0.040841584 316:0.11726485 317:0.28743812 318:0.27722772 319:0.17233911 320:0.10488861 321:0.95915842 330:0.040841584 331:0.040841584 340:0.95915842 341:0.030631188 342:0.1720297 343:0.18811881 344:0.21318069 345:0.18131188 346:0.17141089 347:0.0024752475 350:0.040841584 351:0.2657797 352:0.28465347 353:0.21813119 354:0.19059406 360:0.040841584 
0.1037084361806665 1:0.099514563 2:0.26365291 3:0.21875 4:0.10133495 5:0.11043689 6:0.098604369 7:0.06098301 8:0.036711165 9:0.0084951456 10:0.0015169903 11:0.0069781553 12:0.3288835 13:0.28398058 14:0.12075243 15:0.11680825 16:0.073118932 17:0.046419903 18:0.016686893 19:0.005461165 20:0.00091019417 21:0.0042475728 22:0.30006068 23:0.29520631 24:0.14532767 25:0.11559466 26:0.082220874 27:0.038531553 28:0.013046117 29:0.0039441748 30:0.0018203883 31:0.02184466 32:0.012742718 33:0.0012135922 36:0.0012135922 37:0.073118932 38:0.68658981 39:0.08131068 40:0.12196602 41:0.058252427 42:0.079490291 43:0.16413835 44:0.12317961 45:0.14472087 46:0.1404733 47:0.12075243 48:0.13228155 49:0.030946602 50:0.0057645631 51:0.14623786 52:0.28792476 53:0.17779126 54:0.10103155 55:0.091322816 56:0.096177184 57:0.058859223 58:0.034283981 59:0.005461165 60:0.00091019417 61:0.11225728 62:0.12105583 63:0.10770631 64:0.17354369 65:0.18598301 66:0.18507282 67:0.07493932 68:0.025485437 69:0.011832524 70:0.0021237864 71:0.081917476 72:0.16049757 73:0.13470874 74:0.1711165 75:0.23058252 76:0.13834951 77:0.039441748 78:0.027002427 79:0.012742718 80:0.0036407767 81:0.0036407767 82:0.19902913 83:0.17718447 84:0.19356796 85:0.25333738 86:0.091322816 87:0.03913835 88:0.027305825 89:0.01243932 90:0.0030339806 91:0.070995146 92:0.0012135922 97:0.5788835 98:0.22876214 99:0.067961165 100:0.052184466 101:0.017597087 102:0.039745146 103:0.14168689 104:0.22451456 105:0.13288835 106:0.11165049 107:0.17324029 108:0.1092233 109:0.040351942 110:0.0091019417 111:0.17475728 112:0.11256068 113:0.14563107 114:0.14775485 115:0.2032767 116:0.13076456 117:0.054308252 118:0.021237864 119:0.0078883495 120:0.0018203883 121:0.03125 127:0.14684466 128:0.48300971 129:0.28216019 130:0.056735437 131:0.03125 137:0.13470874 138:0.53640777 139:0.2663835 140:0.03125 141:0.080703883 142:0.45600728 143:0.36043689 144:0.066140777 145:0.005461165 150:0.03125 151:0.036104369 157:0.55491505 158:0.38592233 159:0.013349515 160:0.0097087379 161:0.65867718 162:0.31007282 170:0.03125 171:0.11377427 172:0.33525485 173:0.3288835 174:0.14654126 175:0.04368932 176:0.00060679612 180:0.03125 181:0.0097087379 185:0.005461165 186:0.12712379 187:0.14805825 188:0.25697816 189:0.33677184 190:0.11589806 191:0.0097087379 196:0.14532767 197:0.20691748 198:0.2193568 199:0.30279126 200:0.11589806 201:0.12742718 202:0.11680825 203:0.13501214 204:0.11862864 205:0.22512136 206:0.15169903 207:0.10042476 208:0.015169903 210:0.0097087379 211:0.023058252 212:0.0036407767 217:0.14866505 218:0.74393204 219:0.049150485 220:0.031553398 221:0.87712379 222:0.11316748 230:0.0097087379 231:0.087075243 232:0.077366505 233:0.076456311 234:0.14623786 235:0.1398665 236:0.22694175 237:0.14441748 238:0.080703883 239:0.011225728 240:0.0097087379 241:0.0097087379 245:0.024271845 246:0.18658981 247:0.21116505 248:0.19053398 249:0.3128034 250:0.064927184 251:0.0097087379 256:0.24302184 257:0.20661408 258:0.21207524 259:0.2496966 260:0.078883495 261:0.17415049 262:0.20813107 263:0.096480583 264:0.13501214 265:0.16717233 266:0.13501214 267:0.071601942 268:0.0027305825 270:0.0097087379 271:0.037621359 272:0.012135922 273:0.0012135922 274:0.0012135922 276:0.0012135922 277:0.54247573 278:0.37257282 279:0.014563107 280:0.016990291 281:0.74393204 282:0.24635922 290:0.0097087379 291:0.10406553 292:0.11347087 293:0.15716019 294:0.073118932 295:0.12105583 296:0.18082524 297:0.17566748 298:0.061286408 299:0.0036407767 300:0.0097087379 301:0.04065534 305:0.00060679612 306:0.060072816 307:0.3276699 308:0.26334951 309:0.23938107 310:0.068264563 311:0.04065534 316:0.061589806 317:0.46177184 318:0.1404733 319:0.2496966 320:0.045813107 321:0.10072816 322:0.41353155 323:0.12135922 324:0.087075243 325:0.1868932 326:0.048847087 327:0.00091019417 330:0.04065534 331:0.052791262 336:0.0048543689 337:0.5157767 338:0.41565534 339:0.0060679612 340:0.0048543689 341:0.69265777 342:0.26668689 350:0.04065534 351:0.044599515 352:0.14502427 353:0.29126214 354:0.14472087 355:0.090412621 356:0.17506068 357:0.067354369 358:0.00091019417 360:0.04065534 
0.04683532599895537 1:0.175625 2:0.4075 3:0.1484375 4:0.1246875 5:0.073125 6:0.036875 7:0.00625 8:0.006875 9:0.0103125 10:0.0103125 11:0.0396875 12:0.5890625 13:0.1740625 14:0.1109375 15:0.0453125 16:0.0103125 17:0.005625 18:0.0065625 19:0.0109375 20:0.0075 21:0.0171875 22:0.605 23:0.18 24:0.1134375 25:0.0440625 26:0.0103125 27:0.005 28:0.0096875 29:0.008125 30:0.0071875 31:0.035625 32:0.001875 37:0.199375 38:0.60625 39:0.0425 40:0.114375 41:0.0521875 42:0.185625 43:0.09 44:0.130625 45:0.195625 46:0.1190625 47:0.0903125 48:0.12875 49:0.0059375 50:0.001875 51:0.1725 52:0.41 53:0.1490625 54:0.1246875 55:0.073125 56:0.036875 57:0.00625 58:0.006875 59:0.0103125 60:0.0103125 61:0.0528125 62:0.163125 63:0.1253125 64:0.105 65:0.096875 66:0.1871875 67:0.1634375 68:0.07 69:0.0290625 70:0.0071875 71:0.0140625 72:0.1965625 73:0.1809375 74:0.1315625 75:0.126875 76:0.17875 77:0.108125 78:0.0384375 79:0.0178125 80:0.006875 81:0.00125 82:0.0171875 83:0.3225 84:0.1615625 85:0.1334375 86:0.2021875 87:0.100625 88:0.034375 89:0.019375 90:0.0075 91:0.038125 92:0.003125 96:0.005 97:0.5575 98:0.259375 99:0.075 100:0.061875 101:0.010625 102:0.02125 103:0.143125 104:0.100625 105:0.2184375 106:0.0628125 107:0.184375 108:0.1578125 109:0.0928125 110:0.008125 111:0.163125 112:0.125 113:0.1303125 114:0.0765625 115:0.125625 116:0.174375 117:0.1165625 118:0.0625 119:0.02 120:0.0059375 121:0.03125 127:0.1384375 128:0.44 129:0.3571875 130:0.033125 131:0.03125 137:0.143125 138:0.628125 139:0.1896875 140:0.0078125 141:0.069375 142:0.5096875 143:0.36125 144:0.0253125 145:0.003125 150:0.03125 151:0.035 157:0.093125 158:0.830625 159:0.02375 160:0.0175 161:0.6015625 162:0.3671875 170:0.03125 171:0.1015625 172:0.306875 173:0.4084375 174:0.1225 175:0.0278125 176:0.0015625 180:0.03125 181:0.01 184:0.000625 185:0.04625 186:0.30125 187:0.1596875 188:0.1565625 189:0.2240625 190:0.1015625 191:0.01 195:0.010625 196:0.3278125 197:0.211875 198:0.1321875 199:0.2159375 200:0.0915625 201:0.0059375 202:0.2025 203:0.229375 204:0.1415625 205:0.084375 206:0.21 207:0.06875 208:0.0475 210:0.01 211:0.1175 212:0.08125 217:0.2075 218:0.399375 219:0.078125 220:0.11625 221:0.9465625 222:0.0434375 230:0.01 231:0.0059375 232:0.1771875 233:0.2071875 234:0.1065625 235:0.1015625 236:0.148125 237:0.146875 238:0.0815625 239:0.015 240:0.01 241:0.01 246:0.2015625 247:0.1196875 248:0.224375 249:0.285 250:0.159375 251:0.01 256:0.2171875 257:0.158125 258:0.238125 259:0.25625 260:0.1203125 261:0.178125 262:0.1346875 263:0.12125 264:0.1515625 265:0.1575 266:0.18125 267:0.0628125 268:0.0028125 270:0.01 271:0.0175 272:0.0025 273:0.0025 276:0.01125 277:0.48125 278:0.44125 279:0.01125 280:0.0325 281:0.7415625 282:0.2484375 290:0.01 291:0.1075 292:0.1365625 293:0.0653125 294:0.088125 295:0.163125 296:0.160625 297:0.205 298:0.0628125 299:0.0009375 300:0.01 301:0.0409375 306:0.028125 307:0.3496875 308:0.249375 309:0.30875 310:0.023125 311:0.0409375 316:0.0159375 317:0.446875 318:0.1825 319:0.2909375 320:0.0228125 321:0.0490625 322:0.4040625 323:0.1346875 324:0.1146875 325:0.2259375 326:0.028125 327:0.0025 330:0.0409375 331:0.0534375 337:0.17625 338:0.7615625 339:0.0075 340:0.00125 341:0.59 342:0.3690625 350:0.0409375 351:0.0665625 352:0.2025 353:0.2365625 354:0.1128125 355:0.136875 356:0.18125 357:0.021875 358:0.000625 360:0.0409375 
0.0632657867835672 1:0.29528061 2:0.17538265 3:0.01690051 4:0.006377551 5:0.02869898 6:0.28093112 8:0.085459184 9:0.085140306 10:0.025829082 11:0.014987245 12:0.26881378 13:0.11096939 14:0.11798469 15:0.081632653 16:0.12755102 17:0.06122449 18:0.10586735 19:0.085140306 20:0.025829082 21:0.00031887755 22:0.017857143 23:0.12595663 24:0.35012755 25:0.22066327 26:0.0070153061 27:0.085459184 28:0.085140306 29:0.084821429 30:0.022640306 31:0.46524235 35:0.10395408 40:0.43080357 41:0.081632653 42:0.10012755 43:0.28348214 46:0.0022321429 47:0.19419643 48:0.12755102 49:0.081632653 50:0.12914541 51:0.014987245 52:0.26881378 53:0.11096939 54:0.11798469 55:0.081632653 56:0.12755102 57:0.06122449 58:0.10586735 59:0.085140306 60:0.025829082 61:0.31505102 62:0.098214286 63:0.12372449 64:0.092155612 65:0.06122449 66:0.18112245 67:0.093112245 69:0.027742347 70:0.0076530612 71:0.045280612 72:0.26052296 73:0.18431122 74:0.13233418 75:0.24649235 76:0.095663265 78:0.027742347 79:0.0066964286 80:0.00095663265 81:0.013711735 82:0.11575255 83:0.13616071 84:0.49330357 86:0.16422194 87:0.041454082 88:0.027742347 89:0.0066964286 90:0.00095663265 91:0.2869898 95:0.23565051 99:0.3622449 100:0.1151148 101:0.1151148 104:0.24936224 105:0.037627551 107:0.00095663265 108:0.034438776 109:0.34215561 110:0.22034439 111:0.045280612 112:0.26052296 113:0.18431122 114:0.13233418 115:0.24649235 116:0.095663265 118:0.027742347 119:0.0066964286 120:0.00095663265 121:0.03125 128:0.078125 129:0.49394133 130:0.39668367 131:0.03125 138:0.0015943878 139:0.35331633 140:0.61383929 141:0.96875 150:0.03125 151:0.03125 155:0.017219388 156:0.27742347 158:0.40720663 160:0.26690051 161:0.6463648 162:0.3223852 170:0.03125 171:0.96875 180:0.03125 181:0.010204082 185:0.1036352 186:0.31090561 187:0.14987245 188:0.24139031 189:0.15146684 190:0.03252551 191:0.010204082 196:0.44642857 197:0.11798469 198:0.2783801 199:0.125 200:0.022002551 201:0.94196429 202:0.047831633 210:0.010204082 211:0.010204082 216:0.10395408 218:0.035076531 220:0.85076531 221:0.90497449 222:0.084821429 230:0.010204082 231:0.92123724 232:0.068558673 240:0.010204082 241:0.010204082 246:0.15019133 247:0.37181122 248:0.23022959 249:0.17570153 250:0.061862245 251:0.010204082 256:0.23883929 257:0.31345663 258:0.2471301 259:0.13265306 260:0.057716837 261:0.98979592 270:0.010204082 271:0.010204082 275:0.0076530612 276:0.13392857 278:0.012117347 280:0.83609694 281:0.92251276 282:0.067283163 290:0.010204082 291:0.98820153 292:0.0015943878 300:0.010204082 301:0.041135204 307:0.38903061 308:0.36607143 309:0.14700255 310:0.056760204 311:0.041135204 317:0.12436224 318:0.58258929 319:0.18813776 320:0.06377551 321:0.9588648 330:0.041135204 331:0.041135204 336:0.28061224 338:0.13265306 340:0.54559949 341:0.875 342:0.083864796 350:0.041135204 351:0.9588648 360:0.041135204 
0.01741298826158678 1:0.046875 2:0.077240566 3:0.14622642 4:0.28360849 5:0.13354953 6:0.25589623 7:0.034492925 8:0.010613208 9:0.0070754717 10:0.0044221698 11:0.0032429245 12:0.11615566 13:0.16273585 14:0.38089623 15:0.17600236 16:0.12293632 17:0.017688679 18:0.010023585 19:0.0056014151 20:0.0047169811 21:0.041863208 22:0.19663915 23:0.41745283 24:0.28125 25:0.024174528 26:0.020341981 27:0.0056014151 28:0.0047169811 29:0.0058962264 30:0.0020636792 31:0.0076650943 34:0.045990566 35:0.02004717 36:0.1067217 37:0.31544811 38:0.14976415 39:0.31132075 40:0.043042453 41:0.0011792453 42:0.043632075 43:0.054834906 44:0.078714623 45:0.28007075 46:0.18160377 47:0.17216981 48:0.16627358 49:0.014445755 50:0.0070754717 51:0.046875 52:0.077240566 53:0.14622642 54:0.28360849 55:0.13354953 56:0.25589623 57:0.034492925 58:0.010613208 59:0.0070754717 60:0.0044221698 61:0.012382075 62:0.0064858491 63:0.11497642 64:0.081957547 65:0.017393868 66:0.22464623 67:0.16067217 68:0.14033019 69:0.10583726 70:0.1353184 71:0.012382075 72:0.0064858491 73:0.027122642 74:0.096698113 75:0.12824292 76:0.13826651 77:0.032429245 78:0.28066038 79:0.25353774 80:0.024174528 81:0.012382075 82:0.0067806604 83:0.036261792 84:0.23496462 85:0.12028302 86:0.19899764 87:0.23555425 88:0.13885613 89:0.012087264 90:0.0038325472 91:0.087264151 94:0.55542453 95:0.0053066038 96:0.091391509 97:0.25471698 100:0.0058962264 101:0.0058962264 103:0.017983491 104:0.16951651 105:0.082252358 106:0.20784198 107:0.25029481 108:0.23408019 109:0.02682783 110:0.0053066038 111:0.012382075 112:0.0064858491 113:0.11497642 114:0.081957547 115:0.017393868 116:0.22464623 117:0.16067217 118:0.14033019 119:0.10583726 120:0.1353184 121:0.03125 126:0.0032429245 127:0.13295991 128:0.35819575 129:0.24764151 130:0.22670991 131:0.03125 138:0.15801887 139:0.35819575 140:0.45253538 141:0.96875 150:0.03125 151:0.03125 155:0.11320755 158:0.47641509 159:0.23466981 160:0.14445755 161:0.57399764 162:0.39475236 170:0.03125 171:0.96875 180:0.03125 181:0.0094339623 183:0.0014740566 184:0.34257075 185:0.52948113 186:0.095813679 187:0.019162736 188:0.00088443396 189:0.00058962264 190:0.00058962264 191:0.0094339623 194:0.0085495283 195:0.69339623 196:0.28213443 197:0.0053066038 198:0.00029481132 199:0.00029481132 200:0.00058962264 201:0.98879717 202:0.0014740566 203:0.00029481132 210:0.0094339623 211:0.012971698 215:0.025353774 216:0.43543632 217:0.5209316 218:0.0029481132 219:0.0011792453 220:0.0011792453 221:0.17040094 222:0.53596698 223:0.24292453 224:0.04009434 225:0.0011792453 230:0.0094339623 231:0.96079009 232:0.028596698 233:0.0011792453 240:0.0094339623 241:0.0094339623 246:0.070165094 247:0.16450472 248:0.25707547 249:0.33313679 250:0.16568396 251:0.0094339623 257:0.084316038 258:0.15271226 259:0.42010613 260:0.3334316 261:0.99056604 270:0.0094339623 271:0.0094339623 278:0.049233491 279:0.12146226 280:0.81987028 281:0.11998821 282:0.56191038 283:0.30866745 290:0.0094339623 291:0.90389151 292:0.086674528 300:0.0094339623 301:0.040389151 306:0.034198113 307:0.44899764 308:0.32989387 309:0.12735849 310:0.019162736 311:0.040389151 317:0.51061321 318:0.28007075 319:0.12824292 320:0.040683962 321:0.95961085 330:0.040389151 331:0.040389151 335:0.008254717 336:0.043632075 338:0.39563679 339:0.39416274 340:0.11792453 341:0.16303066 342:0.78862028 343:0.0079599057 350:0.040389151 351:0.95961085 360:0.040389151 
0.2204843433625409 1:0.072061567 2:0.56203358 3:0.21595149 4:0.071128731 5:0.038945896 6:0.013526119 10:0.026352612 11:0.076026119 12:0.75139925 13:0.10774254 14:0.037080224 15:0.0013992537 20:0.026352612 21:0.52425373 22:0.36777052 23:0.0097947761 30:0.09818097 31:0.09818097 36:0.00093283582 37:0.00046641791 38:0.04244403 39:0.24860075 40:0.609375 41:0.027751866 42:0.083488806 43:0.18470149 44:0.24790112 45:0.21128731 46:0.099580224 47:0.058768657 48:0.014225746 49:0.00046641791 50:0.071828358 51:0.49673507 52:0.265625 53:0.065531716 54:0.043143657 55:0.028451493 56:0.0023320896 60:0.09818097 61:0.02238806 62:0.54617537 63:0.18283582 64:0.073227612 65:0.061333955 66:0.039878731 67:0.031949627 68:0.017257463 69:0.015391791 70:0.0095615672 71:0.059934701 72:0.53801306 73:0.18586754 74:0.077658582 75:0.051539179 76:0.032882463 77:0.01795709 78:0.018889925 79:0.012126866 80:0.005130597 81:0.005130597 82:0.021688433 83:0.38316231 84:0.40205224 85:0.14598881 86:0.021688433 87:0.011427239 88:0.0044309701 89:0.0032649254 90:0.0011660448 91:0.0027985075 93:0.0093283582 94:0.011660448 95:0.0027985075 96:0.010727612 97:0.30690299 98:0.39552239 99:0.25886194 100:0.0013992537 101:0.16068097 102:0.15974813 103:0.34444963 104:0.12010261 105:0.081623134 106:0.07136194 107:0.045475746 108:0.014225746 109:0.0016324627 110:0.00069962687 111:0.28801306 112:0.38875933 113:0.11590485 114:0.059468284 115:0.047807836 116:0.034514925 117:0.028451493 118:0.016091418 119:0.013059701 120:0.0079291045 121:0.034115139 122:0.391258 123:0.17697228 124:0.14285714 125:0.108742 126:0.052238806 127:0.018123667 128:0.036247335 129:0.02238806 130:0.017057569 131:0.0074626866 132:0.24946695 133:0.31769723 134:0.20788913 135:0.087420043 136:0.040511727 137:0.015991471 138:0.024520256 139:0.035181237 140:0.013859275 141:0.0031982942 142:0.0095948827 143:0.038379531 144:0.5565032 145:0.24200426 146:0.069296375 147:0.031982942 148:0.020255864 149:0.023454158 150:0.0053304904 151:0.0021321962 152:0.0021321962 153:0.017057569 155:0.017057569 156:0.0042643923 158:0.16950959 159:0.30597015 160:0.48187633 161:0.015991471 162:0.28571429 163:0.14605544 164:0.19083156 165:0.21321962 166:0.093816631 167:0.039445629 168:0.0095948827 169:0.0031982942 170:0.0021321962 171:0.045842217 172:0.41257996 173:0.1663113 174:0.12793177 175:0.11513859 176:0.039445629 177:0.020255864 178:0.033049041 179:0.02238806 180:0.017057569 181:0.01329291 182:0.18866604 183:0.11800373 184:0.11240672 185:0.079757463 186:0.045009328 187:0.16161381 188:0.21385261 189:0.034048507 190:0.033348881 191:0.0076958955 192:0.18773321 193:0.075093284 194:0.055503731 195:0.083488806 196:0.14738806 197:0.064365672 198:0.1016791 199:0.22061567 200:0.056436567 201:0.17094216 202:0.071828358 203:0.062966418 204:0.070429104 205:0.10844216 206:0.097714552 207:0.093283582 208:0.11473881 209:0.20032649 210:0.0093283582 211:0.46222015 212:0.053171642 213:0.0037313433 214:0.0032649254 215:0.0086287313 216:0.31739739 217:0.072294776 218:0.0027985075 219:0.0037313433 220:0.072761194 221:0.073927239 222:0.3542444 223:0.15834888 224:0.17374067 225:0.17140858 226:0.045708955 227:0.013759328 228:0.0013992537 230:0.0074626866 231:0.1639459 232:0.085820896 233:0.051772388 234:0.055037313 235:0.073460821 236:0.089552239 237:0.11497201 238:0.16977612 239:0.16184701 240:0.033815299 241:0.034981343 242:0.10774254 243:0.035914179 244:0.053871269 245:0.078125 246:0.041511194 247:0.34491604 248:0.037779851 249:0.057369403 250:0.20778918 251:0.018190299 252:0.14249067 253:0.068097015 254:0.080923507 255:0.19099813 256:0.21338619 257:0.023554104 258:0.070195896 259:0.13152985 260:0.060634328 261:0.21501866 262:0.070195896 263:0.076492537 264:0.32765858 265:0.16557836 266:0.062033582 267:0.0086287313 268:0.015158582 269:0.015858209 270:0.043376866 271:0.012126866 272:0.0065298507 274:0.0032649254 275:0.042677239 276:0.65811567 277:0.24790112 278:0.02005597 279:0.0065298507 280:0.0027985075 281:0.070662313 282:0.10074627 283:0.092583955 284:0.21035448 285:0.2838153 286:0.14179104 287:0.077658582 288:0.014692164 289:0.00023320896 290:0.0074626866 291:0.13059701 292:0.024020522 293:0.042677239 294:0.065998134 295:0.055270522 296:0.17000933 297:0.22224813 298:0.020522388 299:0.061100746 300:0.20755597 301:0.039445629 302:0.18763326 303:0.046908316 304:0.031982942 305:0.062899787 306:0.17803838 307:0.1663113 308:0.010660981 309:0.099147122 310:0.17697228 311:0.02771855 312:0.2249467 313:0.043710021 314:0.059701493 315:0.30170576 316:0.057569296 317:0.0085287846 318:0.051172708 319:0.14285714 320:0.082089552 321:0.21108742 322:0.10021322 323:0.067164179 324:0.29317697 325:0.085287846 326:0.074626866 327:0.061833689 328:0.010660981 329:0.015991471 330:0.079957356 331:0.011727079 334:0.0042643923 335:0.019189765 336:0.25053305 337:0.64392324 338:0.029850746 339:0.025586354 340:0.014925373 341:0.099147122 342:0.15031983 343:0.20362473 344:0.26012793 345:0.17057569 346:0.066098081 347:0.028784648 348:0.0095948827 349:0.0042643923 350:0.0074626866 351:0.19509595 352:0.052238806 353:0.037313433 354:0.040511727 355:0.056503198 356:0.2793177 357:0.045842217 358:0.011727079 359:0.10554371 360:0.17590618 
0.02100993258761242 1:0.010970745 2:0.0093085106 3:0.023271277 4:0.055851064 5:0.2130984 6:0.21343085 7:0.16356383 8:0.1825133 9:0.11735372 10:0.010638298 11:0.018617021 12:0.054853723 13:0.24069149 14:0.070478723 15:0.01662234 16:0.014295213 17:0.12533245 18:0.12898936 19:0.25232713 20:0.077792553 21:0.34242021 22:0.043882979 23:0.015625 24:0.0063164894 25:0.0076462766 26:0.091755319 27:0.17353723 28:0.23105053 29:0.080784574 30:0.006981383 31:0.022273936 36:0.16655585 37:0.38397606 38:0.29521277 39:0.064494681 40:0.067486702 41:0.1505984 42:0.26728723 43:0.14993351 44:0.02293883 45:0.008643617 46:0.0083111702 47:0.021609043 48:0.037234043 49:0.17021277 50:0.16323138 51:0.010970745 52:0.0093085106 53:0.023271277 54:0.055851064 55:0.20179521 56:0.17652926 57:0.13397606 58:0.24700798 59:0.12799202 60:0.013297872 61:0.0083111702 62:0.015625 63:0.058843085 64:0.11402926 65:0.13929521 66:0.2556516 67:0.24667553 68:0.13763298 69:0.020944149 70:0.0029920213 71:0.010970745 72:0.11635638 73:0.33843085 74:0.20046543 75:0.021941489 76:0.0089760638 77:0.0083111702 78:0.24567819 79:0.044547872 80:0.0043218085 81:0.17353723 82:0.49335106 83:0.018617021 84:0.0079787234 85:0.006981383 86:0.0073138298 87:0.017619681 88:0.050199468 89:0.19714096 90:0.027260638 91:0.074468085 92:0.0013297872 93:0.0013297872 96:0.18317819 97:0.54787234 98:0.025930851 99:0.065824468 100:0.10006649 101:0.050864362 102:0.17220745 103:0.062832447 104:0.017287234 105:0.021609043 106:0.017287234 107:0.088430851 108:0.23836436 109:0.29454787 110:0.036569149 111:0.0083111702 112:0.015625 113:0.058843085 114:0.11402926 115:0.13829787 116:0.23071809 117:0.11901596 118:0.19714096 119:0.11336436 120:0.0046542553 121:0.03125 122:0.001662234 123:0.03856383 124:0.047207447 125:0.013962766 126:0.0056515957 127:0.080784574 128:0.22074468 129:0.38164894 130:0.17852394 131:0.03125 133:0.00099734043 134:0.042553191 135:0.039228723 136:0.020944149 137:0.16090426 138:0.44182181 139:0.25531915 140:0.006981383 141:0.94980053 142:0.018949468 150:0.03125 151:0.03125 153:0.0013297872 154:0.0053191489 155:0.0099734043 156:0.0013297872 157:0.0026595745 158:0.028590426 159:0.42652926 160:0.49301862 161:0.025598404 162:0.03956117 163:0.031582447 164:0.017619681 165:0.16988032 166:0.64029255 167:0.044215426 170:0.03125 171:0.10139628 172:0.18484043 173:0.68218085 174:0.00033244681 180:0.03125 181:0.010638298 184:0.0043218085 185:0.028922872 186:0.10505319 187:0.11801862 188:0.36968085 189:0.33244681 190:0.030917553 191:0.010638298 194:0.047539894 195:0.20977394 196:0.1974734 197:0.046210106 198:0.20744681 199:0.2130984 200:0.067819149 201:0.39926862 202:0.066821809 203:0.0079787234 204:0.086768617 205:0.26928191 206:0.15924202 210:0.010638298 211:0.34840426 216:0.41289894 217:0.04787234 218:0.0026595745 219:0.0039893617 220:0.18417553 221:0.014960106 222:0.51030585 223:0.01662234 224:0.0046542553 225:0.10106383 226:0.14694149 227:0.14727394 228:0.047539894 230:0.010638298 231:0.059175532 232:0.1462766 233:0.20578457 234:0.36303191 235:0.21442819 236:0.00066489362 240:0.010638298 241:0.010638298 245:0.0046542553 246:0.060505319 247:0.30518617 248:0.18650266 249:0.40724734 250:0.025265957 251:0.010638298 254:0.00033244681 255:0.013630319 256:0.082779255 257:0.47706117 258:0.17353723 259:0.21077128 260:0.03125 261:0.0013297872 262:0.66289894 263:0.03125 264:0.07081117 265:0.22273936 266:0.00033244681 270:0.010638298 271:0.20711436 272:0.0026595745 276:0.64694149 277:0.060837766 278:0.0079787234 279:0.0039893617 280:0.070478723 281:0.036901596 282:0.25166223 283:0.017619681 284:0.013297872 285:0.0079787234 286:0.035571809 287:0.14295213 288:0.48238032 289:0.00066489362 290:0.010970745 291:0.022273936 292:0.15458777 293:0.63929521 294:0.16988032 295:0.0033244681 300:0.010638298 301:0.041555851 305:0.089760638 306:0.30551862 307:0.27327128 308:0.17985372 309:0.077792553 310:0.03224734 311:0.041555851 315:0.0046542553 316:0.20378989 317:0.45511968 318:0.15757979 319:0.093417553 320:0.043882979 321:0.95844415 330:0.041555851 331:0.041555851 340:0.95844415 341:0.038896277 342:0.12167553 343:0.20744681 344:0.31117021 345:0.25299202 346:0.024933511 347:0.0013297872 350:0.041555851 351:0.16389628 352:0.40392287 353:0.28956117 354:0.088430851 355:0.012632979 360:0.041555851 
-0.184886444332846 1:0.0093149038 2:0.13401442 3:0.38701923 4:0.2280649 5:0.15745192 6:0.047776442 7:0.017728365 8:0.012920673 9:0.0042067308 10:0.0015024038 11:0.0042067308 12:0.21905048 13:0.47115385 14:0.1733774 15:0.052283654 16:0.042067308 17:0.021033654 18:0.010216346 19:0.0054086538 20:0.0012019231 21:0.29567308 22:0.19831731 23:0.11298077 24:0.065504808 25:0.069711538 26:0.049579327 27:0.050180288 28:0.057091346 29:0.078725962 30:0.022235577 31:0.020432692 32:0.10216346 34:0.35096154 36:0.36057692 37:0.10697115 39:0.055288462 40:0.0036057692 41:0.023137019 42:0.21544471 43:0.23948317 44:0.12680288 45:0.055889423 46:0.065504808 47:0.10186298 48:0.070612981 49:0.07421875 50:0.027043269 51:0.29567308 52:0.19831731 53:0.11298077 54:0.065504808 55:0.069711538 56:0.049579327 57:0.050180288 58:0.057091346 59:0.078725962 60:0.022235577 61:0.038161058 62:0.061598558 63:0.11057692 64:0.32091346 65:0.16045673 66:0.15294471 67:0.12560096 68:0.01953125 69:0.0057091346 70:0.0045072115 71:0.0081129808 72:0.0234375 73:0.25120192 74:0.21995192 75:0.24789663 76:0.22175481 77:0.011117788 78:0.011418269 79:0.0024038462 80:0.0027043269 81:0.054387019 82:0.098557692 83:0.16045673 84:0.16947115 85:0.21574519 86:0.18359375 87:0.061298077 88:0.039362981 89:0.010516827 90:0.0066105769 91:0.0012019231 93:0.084134615 95:0.40865385 97:0.39783654 99:0.098557692 100:0.0096153846 101:0.024939904 102:0.059495192 103:0.076021635 104:0.11658654 105:0.16436298 106:0.16526442 107:0.20102163 108:0.1265024 109:0.049579327 110:0.016225962 111:0.054387019 112:0.098557692 113:0.16045673 114:0.16947115 115:0.21574519 116:0.18359375 117:0.061298077 118:0.039362981 119:0.010516827 120:0.0066105769 121:0.03125 128:0.024038462 129:0.5952524 130:0.34945913 131:0.03125 139:0.42367788 140:0.54507212 141:0.24459135 142:0.70643029 143:0.017728365 150:0.03125 151:0.032451923 153:0.021634615 155:0.3125 157:0.47295673 159:0.13401442 160:0.026442308 161:0.11358173 162:0.43389423 163:0.40414663 164:0.017127404 170:0.03125 171:0.24459135 172:0.70643029 173:0.017728365 180:0.03125 181:0.0096153846 184:0.36598558 185:0.35516827 186:0.11899038 187:0.021334135 188:0.067307692 189:0.045673077 190:0.015925481 191:0.0096153846 194:0.037560096 195:0.51923077 196:0.25540865 197:0.042367788 198:0.051983173 199:0.065805288 200:0.018028846 201:0.1484375 202:0.12319712 203:0.12409856 204:0.043269231 205:0.063100962 206:0.11808894 207:0.19831731 208:0.040564904 209:0.069411058 210:0.071514423 211:0.026442308 212:0.21634615 214:0.42728365 216:0.28425481 217:0.037259615 219:0.0072115385 220:0.0012019231 221:0.10486779 222:0.13070913 223:0.21814904 224:0.17367788 225:0.29447115 226:0.068509615 230:0.0096153846 231:0.1484375 232:0.12319712 233:0.12409856 234:0.043269231 235:0.063100962 236:0.11808894 237:0.19831731 238:0.040564904 239:0.069411058 240:0.071514423 241:0.0096153846 245:0.00030048077 246:0.058894231 247:0.45042067 248:0.27794471 249:0.12439904 250:0.078425481 251:0.0096153846 256:0.0051081731 257:0.53425481 258:0.14903846 259:0.18870192 260:0.11328125 261:0.085036058 262:0.24038462 263:0.086237981 264:0.088040865 265:0.097956731 266:0.20673077 267:0.1859976 270:0.0096153846 271:0.027644231 273:0.28786058 275:0.5234375 277:0.14903846 279:0.0096153846 280:0.0024038462 281:0.12469952 282:0.12530048 283:0.12049279 284:0.28064904 285:0.32151442 286:0.017728365 290:0.0096153846 291:0.085036058 292:0.24038462 293:0.086237981 294:0.088040865 295:0.097956731 296:0.20673077 297:0.1859976 300:0.0096153846 301:0.040564904 305:0.00030048077 306:0.39963942 307:0.39032452 308:0.11598558 309:0.042668269 310:0.010516827 311:0.040564904 317:0.4858774 318:0.30829327 319:0.093149038 320:0.072115385 321:0.40084135 322:0.17638221 323:0.099459135 324:0.054987981 325:0.070913462 326:0.10817308 327:0.048677885 330:0.040564904 331:0.063401442 333:0.19471154 335:0.44471154 337:0.26592548 339:0.028846154 340:0.0024038462 341:0.050180288 342:0.33623798 343:0.15144231 344:0.21153846 345:0.20823317 346:0.0018028846 350:0.040564904 351:0.40084135 352:0.17638221 353:0.099459135 354:0.054987981 355:0.070913462 356:0.10817308 357:0.048677885 360:0.040564904 
-0.0140335455715424 1:0.00091019417 2:0.0097087379 3:0.14623786 4:0.49029126 5:0.23058252 6:0.080400485 7:0.027002427 8:0.0072815534 9:0.0066747573 10:0.00091019417 11:0.00091019417 12:0.023968447 13:0.39229369 14:0.3595267 15:0.11589806 16:0.050970874 17:0.031553398 18:0.016686893 19:0.0063713592 20:0.0018203883 21:0.20873786 22:0.24362864 23:0.1398665 24:0.077366505 25:0.060679612 26:0.059162621 27:0.05309466 28:0.056128641 29:0.077973301 30:0.02336165 31:0.024878641 32:0.088895631 34:0.33737864 36:0.39532767 37:0.098907767 39:0.050970874 40:0.0036407767 41:0.013956311 42:0.077973301 43:0.36802184 44:0.13683252 45:0.058859223 46:0.075546117 47:0.089199029 48:0.092839806 49:0.07493932 50:0.011832524 51:0.20873786 52:0.24362864 53:0.1398665 54:0.077366505 55:0.060679612 56:0.059162621 57:0.05309466 58:0.056128641 59:0.077973301 60:0.02336165 61:0.0015169903 62:0.0045509709 63:0.051274272 64:0.054004854 65:0.2190534 66:0.35012136 67:0.14836165 68:0.13137136 69:0.035194175 70:0.0045509709 71:0.0030339806 72:0.024575243 73:0.22694175 74:0.22663835 75:0.41383495 76:0.070995146 77:0.022451456 78:0.0048543689 79:0.0048543689 80:0.0018203883 81:0.062196602 82:0.090109223 83:0.16444175 84:0.16929612 85:0.20995146 86:0.19174757 87:0.060072816 88:0.035497573 89:0.0081917476 90:0.0084951456 91:0.99878641 100:0.0012135922 101:0.0042475728 102:0.017293689 103:0.054915049 104:0.10740291 105:0.14745146 106:0.19690534 107:0.18234223 108:0.16383495 109:0.09223301 110:0.033373786 111:0.062196602 112:0.090109223 113:0.16444175 114:0.16929612 115:0.20995146 116:0.19174757 117:0.060072816 118:0.035497573 119:0.0081917476 120:0.0084951456 121:0.03125 128:0.035497573 129:0.60072816 130:0.33252427 131:0.03125 139:0.47026699 140:0.49848301 141:0.33282767 142:0.62257282 143:0.013349515 150:0.03125 151:0.032463592 153:0.017597087 155:0.32463592 157:0.47724515 159:0.12864078 160:0.019417476 161:0.093143204 162:0.41929612 163:0.4211165 164:0.035194175 170:0.03125 171:0.33282767 172:0.62257282 173:0.013349515 180:0.03125 181:0.0097087379 183:0.00060679612 184:0.31007282 185:0.39563107 186:0.12348301 187:0.030339806 188:0.035800971 189:0.069478155 190:0.024878641 191:0.0097087379 194:0.0015169903 195:0.52973301 196:0.22936893 197:0.095873786 198:0.024878641 199:0.077669903 200:0.03125 201:0.16838592 202:0.11771845 203:0.11953883 204:0.046723301 205:0.056735437 206:0.12135922 207:0.19660194 208:0.038531553 209:0.067657767 210:0.066747573 211:0.99878641 220:0.0012135922 221:0.11165049 222:0.1404733 223:0.21632282 224:0.16444175 225:0.28822816 226:0.068871359 227:0.00030339806 230:0.0097087379 231:0.16838592 232:0.11771845 233:0.11953883 234:0.046723301 235:0.056735437 236:0.12135922 237:0.19660194 238:0.038531553 239:0.067657767 240:0.066747573 241:0.0097087379 245:0.00030339806 246:0.057342233 247:0.45843447 248:0.27396845 249:0.13925971 250:0.06098301 251:0.0097087379 256:0.0033373786 257:0.5476335 258:0.1565534 259:0.17384709 260:0.1089199 261:0.089199029 262:0.23300971 263:0.097087379 264:0.094963592 265:0.099817961 266:0.19902913 267:0.17718447 270:0.0097087379 271:0.026092233 272:0.2657767 274:0.53519417 276:0.15230583 277:0.016990291 279:0.0024271845 280:0.0012135922 281:0.1092233 282:0.14563107 283:0.11468447 284:0.2193568 285:0.37985437 286:0.021541262 290:0.0097087379 291:0.089199029 292:0.23300971 293:0.097087379 294:0.094963592 295:0.099817961 296:0.19902913 297:0.17718447 300:0.0097087379 301:0.04065534 306:0.23695388 307:0.52518204 308:0.10831311 309:0.074635922 310:0.014259709 311:0.04065534 317:0.48149272 318:0.3121966 319:0.097390777 320:0.068264563 321:0.37803398 322:0.20479369 323:0.099817961 324:0.056432039 325:0.059162621 326:0.11316748 327:0.047936893 330:0.04065534 331:0.059466019 333:0.20813107 335:0.44660194 337:0.26395631 339:0.019417476 340:0.0024271845 341:0.1401699 342:0.33009709 343:0.125 344:0.19993932 345:0.16413835 350:0.04065534 351:0.37803398 352:0.20479369 353:0.099817961 354:0.056432039 355:0.059162621 356:0.11316748 357:0.047936893 360:0.04065534 
-0.09300448436457907 1:0.005157767 2:0.043992718 3:0.35649272 4:0.30279126 5:0.22633495 6:0.039745146 7:0.018203883 8:0.0048543689 9:0.0021237864 10:0.00030339806 11:0.0024271845 12:0.0045509709 13:0.22512136 14:0.54035194 15:0.10254854 16:0.073118932 17:0.040351942 18:0.0081917476 19:0.0027305825 20:0.00060679612 21:0.035194175 22:0.29308252 23:0.22330097 24:0.077366505 25:0.075546117 26:0.055521845 27:0.060072816 28:0.060072816 29:0.098604369 30:0.021237864 31:0.028519417 32:0.12924757 33:0.36893204 34:0.28701456 36:0.10497573 37:0.047330097 38:0.027305825 39:0.0036407767 40:0.0030339806 41:0.0024271845 42:0.00030339806 43:0.029429612 44:0.38197816 45:0.17566748 46:0.087682039 47:0.092839806 48:0.10649272 49:0.1089199 50:0.014259709 51:0.035194175 52:0.29308252 53:0.22330097 54:0.077366505 55:0.075546117 56:0.055521845 57:0.060072816 58:0.060072816 59:0.098604369 60:0.021237864 61:0.0012135922 62:0.010012136 63:0.071601942 64:0.09526699 65:0.32160194 66:0.32342233 67:0.095570388 68:0.067961165 69:0.011529126 70:0.0018203883 71:0.0069781553 72:0.034283981 73:0.22178398 74:0.18143204 75:0.24878641 76:0.23665049 77:0.035497573 78:0.026699029 79:0.0048543689 80:0.0030339806 81:0.05309466 82:0.084951456 83:0.13713592 84:0.19993932 85:0.17657767 86:0.18234223 87:0.070691748 88:0.047936893 89:0.033373786 90:0.013956311 91:0.0072815534 92:0.075849515 94:0.38076456 96:0.41049757 97:0.10497573 99:0.018203883 100:0.0024271845 101:0.015776699 102:0.045509709 103:0.08131068 104:0.10012136 105:0.1556432 106:0.21450243 107:0.21298544 108:0.11286408 109:0.051881068 110:0.0094053398 111:0.05309466 112:0.084951456 113:0.13713592 114:0.19993932 115:0.17657767 116:0.18234223 117:0.070691748 118:0.047936893 119:0.033373786 120:0.013956311 121:0.03125 128:0.052487864 129:0.80127427 130:0.11498786 131:0.03125 139:0.38440534 140:0.58434466 141:0.40412621 142:0.54793689 143:0.016686893 150:0.03125 151:0.03125 152:0.014259709 154:0.27305825 156:0.50606796 157:0.14502427 159:0.027912621 160:0.0024271845 161:0.10558252 162:0.52336165 163:0.33525485 164:0.0045509709 170:0.03125 171:0.40412621 172:0.54793689 173:0.016686893 180:0.03125 181:0.0097087379 184:0.10709951 185:0.61559466 186:0.1246966 187:0.03125 188:0.022451456 189:0.064320388 190:0.024878641 191:0.0097087379 194:0.00091019417 195:0.57190534 196:0.2345267 197:0.065837379 198:0.018507282 199:0.070084951 200:0.028519417 201:0.20084951 202:0.12742718 203:0.1089199 204:0.041262136 205:0.063713592 206:0.15382282 207:0.17566748 208:0.011529126 209:0.05157767 210:0.065230583 211:0.9993932 220:0.00060679612 221:0.049453883 222:0.1556432 223:0.19872573 224:0.17081311 225:0.28033981 226:0.13319175 227:0.0021237864 230:0.0097087379 231:0.20084951 232:0.12742718 233:0.1089199 234:0.041262136 235:0.063713592 236:0.15382282 237:0.17566748 238:0.011529126 239:0.05157767 240:0.065230583 241:0.0097087379 245:0.00030339806 246:0.095570388 247:0.55036408 248:0.16717233 249:0.14411408 250:0.03276699 251:0.0097087379 257:0.4538835 258:0.25121359 259:0.18901699 260:0.096177184 261:0.11498786 262:0.23847087 263:0.089502427 264:0.096177184 265:0.10133495 266:0.20175971 267:0.14805825 270:0.0097087379 271:0.02184466 273:0.19053398 276:0.48907767 278:0.28822816 280:0.010315534 281:0.063106796 282:0.20115291 283:0.10042476 284:0.15928398 285:0.42536408 286:0.040958738 290:0.0097087379 291:0.11498786 292:0.23847087 293:0.089502427 294:0.096177184 295:0.10133495 296:0.20175971 297:0.14805825 300:0.0097087379 301:0.04065534 306:0.17627427 307:0.5776699 308:0.12924757 309:0.068264563 310:0.0078883495 311:0.04065534 317:0.49089806 318:0.30491505 319:0.12894417 320:0.034587379 321:0.40746359 322:0.1720267 323:0.097997573 324:0.062196602 325:0.065230583 326:0.11256068 327:0.041868932 330:0.04065534 331:0.067961165 333:0.2342233 336:0.45691748 338:0.22754854 340:0.013349515 341:0.048847087 342:0.41201456 343:0.12166262 344:0.14927184 345:0.22633495 346:0.0012135922 350:0.04065534 351:0.40746359 352:0.1720267 353:0.097997573 354:0.062196602 355:0.065230583 356:0.11256068 357:0.041868932 360:0.04065534 
-0.001561627676684656 1:0.0024271845 2:0.0033373786 3:0.03125 4:0.41808252 5:0.28367718 6:0.16868932 7:0.056128641 8:0.017293689 9:0.013046117 10:0.0060679612 11:0.0024271845 12:0.0021237864 13:0.029429612 14:0.38804612 15:0.33131068 16:0.13834951 17:0.052487864 18:0.027912621 19:0.017293689 20:0.010618932 21:0.11195388 22:0.30218447 23:0.16080097 24:0.076456311 25:0.063410194 26:0.0625 27:0.055218447 28:0.086468447 29:0.077063107 30:0.0039441748 31:0.023058252 32:0.10497573 34:0.33495146 36:0.36529126 37:0.10740291 39:0.04368932 40:0.020631068 41:0.016686893 42:0.23331311 43:0.28610437 44:0.068871359 45:0.068567961 46:0.069174757 47:0.075242718 48:0.13106796 49:0.042779126 50:0.0081917476 51:0.11195388 52:0.30218447 53:0.16080097 54:0.076456311 55:0.063410194 56:0.0625 57:0.055218447 58:0.086468447 59:0.077063107 60:0.0039441748 61:0.0057645631 62:0.029429612 63:0.057949029 64:0.25667476 65:0.19265777 66:0.31826456 67:0.11589806 68:0.014866505 69:0.0078883495 70:0.00060679612 71:0.011832524 72:0.022451456 73:0.17445388 74:0.21753641 75:0.2648665 76:0.24544903 77:0.030036408 78:0.024271845 79:0.005461165 80:0.0036407767 81:0.035497573 82:0.10254854 83:0.1726335 84:0.17354369 85:0.16656553 86:0.19356796 87:0.067961165 88:0.046419903 89:0.030036408 90:0.011225728 91:0.0084951456 92:0.049757282 93:0.32645631 95:0.44356796 96:0.14259709 98:0.018203883 99:0.0097087379 100:0.0012135922 101:0.013349515 102:0.024878641 103:0.081614078 104:0.15807039 105:0.14199029 106:0.17506068 107:0.17081311 108:0.12682039 109:0.07493932 110:0.032463592 111:0.035497573 112:0.10254854 113:0.1726335 114:0.17354369 115:0.16656553 116:0.19356796 117:0.067961165 118:0.046419903 119:0.030036408 120:0.011225728 121:0.03125 128:0.011529126 129:0.70509709 130:0.25212379 131:0.03125 139:0.19144417 140:0.77730583 141:0.26365291 142:0.68416262 143:0.020934466 150:0.03125 151:0.03125 153:0.0060679612 155:0.26456311 157:0.5473301 159:0.13834951 160:0.01243932 161:0.091929612 162:0.53033981 163:0.33313107 164:0.013349515 170:0.03125 171:0.26365291 172:0.68416262 173:0.020934466 180:0.03125 181:0.0097087379 183:0.00060679612 184:0.24302184 185:0.46207524 186:0.15169903 187:0.019417476 188:0.033980583 189:0.064927184 190:0.014563107 191:0.0097087379 195:0.54217233 196:0.27760922 197:0.05309466 198:0.028519417 199:0.055825243 200:0.033070388 201:0.17384709 202:0.12378641 203:0.13076456 204:0.040958738 205:0.057342233 206:0.15291262 207:0.18325243 208:0.020934466 209:0.052791262 210:0.063410194 211:0.03276699 212:0.20570388 213:0.42961165 215:0.2493932 216:0.033980583 218:0.038834951 219:0.0084951456 220:0.0012135922 221:0.13865291 222:0.12803398 223:0.22906553 224:0.14593447 225:0.31371359 226:0.034890777 230:0.0097087379 231:0.17384709 232:0.12378641 233:0.13076456 234:0.040958738 235:0.057342233 236:0.15291262 237:0.18325243 238:0.020934466 239:0.052791262 240:0.063410194 241:0.0097087379 245:0.00060679612 246:0.087075243 247:0.53671117 248:0.22481796 249:0.1095267 250:0.031553398 251:0.0097087379 257:0.38319175 258:0.28337379 259:0.2032767 260:0.12044903 261:0.10679612 262:0.24544903 263:0.087075243 264:0.096177184 265:0.11256068 266:0.19599515 267:0.14623786 270:0.0097087379 271:0.04368932 272:0.21480583 274:0.46480583 276:0.25606796 277:0.017597087 279:0.0018203883 280:0.0012135922 281:0.046723301 282:0.19993932 283:0.10194175 284:0.17930825 285:0.3904733 286:0.07190534 290:0.0097087379 291:0.10679612 292:0.24544903 293:0.087075243 294:0.096177184 295:0.11256068 296:0.19599515 297:0.14623786 300:0.0097087379 301:0.04065534 305:0.0012135922 306:0.17748786 307:0.60679612 308:0.10709951 309:0.061893204 310:0.0048543689 311:0.04065534 317:0.3913835 318:0.4223301 319:0.1089199 320:0.036711165 321:0.38410194 322:0.20782767 323:0.094660194 324:0.058555825 325:0.06098301 326:0.12226942 327:0.030946602 330:0.04065534 331:0.99150485 340:0.0084951456 341:0.30339806 342:0.22936893 343:0.083434466 344:0.20843447 345:0.12803398 346:0.0066747573 350:0.04065534 351:0.38410194 352:0.20782767 353:0.094660194 354:0.058555825 355:0.06098301 356:0.12226942 357:0.030946602 360:0.04065534 
-0.02720098207975349 1:0.0012254902 2:0.003370098 3:0.041360294 4:0.33180147 5:0.29197304 6:0.22487745 7:0.061580882 8:0.027573529 9:0.012561275 10:0.0036764706 11:0.0021446078 12:0.0067401961 13:0.23345588 14:0.42095588 15:0.18658088 16:0.082107843 17:0.036764706 18:0.018995098 19:0.0076593137 20:0.0045955882 21:0.26593137 22:0.22671569 23:0.094669118 24:0.073529412 25:0.056678922 26:0.050857843 27:0.051470588 28:0.06004902 29:0.077818627 30:0.042279412 31:0.0085784314 32:0.087009804 34:0.33088235 36:0.38112745 37:0.125 39:0.06127451 40:0.006127451 41:0.011029412 42:0.088235294 43:0.36519608 44:0.10539216 45:0.066176471 46:0.064644608 47:0.084558824 48:0.094056373 49:0.087316176 50:0.033394608 51:0.26593137 52:0.22671569 53:0.094669118 54:0.073529412 55:0.056678922 56:0.050857843 57:0.051470588 58:0.06004902 59:0.077818627 60:0.042279412 61:0.0012254902 62:0.0070465686 63:0.069852941 64:0.085477941 65:0.30147059 66:0.33302696 67:0.11764706 68:0.075061275 69:0.0079656863 70:0.0012254902 71:0.011642157 72:0.017156863 73:0.21844363 74:0.23284314 75:0.23866422 76:0.23131127 77:0.023284314 78:0.019914216 79:0.0039828431 80:0.0027573529 81:0.059742647 82:0.083639706 83:0.20220588 84:0.17095588 85:0.17616422 86:0.17708333 87:0.054534314 88:0.041360294 89:0.024816176 90:0.009497549 91:0.0073529412 93:0.075980392 95:0.37867647 97:0.45710784 99:0.072303922 100:0.0085784314 101:0.0067401961 102:0.022058824 103:0.088235294 104:0.10661765 105:0.15594363 106:0.23008578 107:0.1528799 108:0.13848039 109:0.071384804 110:0.027573529 111:0.059742647 112:0.083639706 113:0.20220588 114:0.17095588 115:0.17616422 116:0.17708333 117:0.054534314 118:0.041360294 119:0.024816176 120:0.009497549 121:0.03125 128:0.011642157 129:0.61335784 130:0.34375 131:0.03125 139:0.25765931 140:0.71109069 141:0.16360294 142:0.74172794 143:0.063419118 150:0.03125 151:0.03125 152:0.030637255 154:0.35723039 156:0.49754902 157:0.069852941 159:0.011029412 160:0.0024509804 161:0.015318627 162:0.27757353 163:0.56495098 164:0.11090686 170:0.03125 171:0.16360294 172:0.74172794 173:0.063419118 180:0.03125 181:0.0098039216 184:0.17984069 185:0.54963235 186:0.13265931 187:0.015625 188:0.023284314 189:0.069240196 190:0.019914216 191:0.0098039216 195:0.53707108 196:0.26194853 197:0.07689951 198:0.020220588 199:0.058517157 200:0.035539216 201:0.1786152 202:0.13449755 203:0.10508578 204:0.04810049 205:0.053308824 206:0.17064951 207:0.17708333 208:0.015931373 209:0.044117647 210:0.072610294 211:0.037377451 213:0.16666667 215:0.45772059 217:0.28982843 219:0.03125 220:0.017156863 221:0.11090686 222:0.15226716 223:0.19822304 224:0.11060049 225:0.31985294 226:0.098345588 230:0.0098039216 231:0.1786152 232:0.13449755 233:0.10508578 234:0.04810049 235:0.053308824 236:0.17064951 237:0.17708333 238:0.015931373 239:0.044117647 240:0.072610294 241:0.0098039216 246:0.01317402 247:0.30300245 248:0.46415441 249:0.13357843 250:0.076286765 251:0.0098039216 257:0.36734069 258:0.30821078 259:0.19607843 260:0.11856618 261:0.10508578 262:0.23161765 263:0.093137255 264:0.10753676 265:0.10661765 266:0.19883578 267:0.1473652 270:0.0098039216 271:0.044117647 273:0.2120098 276:0.48713235 278:0.23651961 280:0.020220588 281:0.06127451 282:0.16207108 283:0.13449755 284:0.10998775 285:0.41482843 286:0.10753676 290:0.0098039216 291:0.10508578 292:0.23161765 293:0.093137255 294:0.10753676 295:0.10661765 296:0.19883578 297:0.1473652 300:0.0098039216 301:0.040747549 306:0.036458333 307:0.67892157 308:0.14981618 309:0.077818627 310:0.016237745 311:0.040747549 317:0.4151348 318:0.39859069 319:0.099877451 320:0.04564951 321:0.38020833 322:0.20435049 323:0.099877451 324:0.062806373 325:0.064644608 326:0.11519608 327:0.032169118 330:0.040747549 331:0.99877451 340:0.0012254902 341:0.33272059 342:0.20833333 343:0.083946078 344:0.21905637 345:0.11366422 346:0.0015318627 350:0.040747549 351:0.38020833 352:0.20435049 353:0.099877451 354:0.062806373 355:0.064644608 356:0.11519608 357:0.032169118 360:0.040747549 
-0.350940422117459 1:0.40078883 2:0.35406553 3:0.12682039 4:0.041565534 5:0.03125 6:0.02973301 7:0.0075849515 8:0.0039441748 9:0.0018203883 10:0.0024271845 11:0.31098301 12:0.52942961 13:0.081614078 14:0.032463592 15:0.02336165 16:0.011832524 17:0.005157767 18:0.0021237864 19:0.0018203883 20:0.0012135922 21:0.33980583 22:0.30734223 23:0.15533981 24:0.084648058 25:0.037621359 26:0.027609223 27:0.027912621 28:0.010315534 29:0.0057645631 30:0.0036407767 31:0.12135922 40:0.87864078 41:0.0060679612 42:0.0063713592 43:0.077063107 44:0.23270631 45:0.24271845 46:0.14987864 47:0.12621359 48:0.10527913 49:0.042475728 50:0.011225728 51:0.33980583 52:0.30734223 53:0.15533981 54:0.084648058 55:0.037621359 56:0.027609223 57:0.027912621 58:0.010315534 59:0.0057645631 60:0.0036407767 61:0.071298544 62:0.21541262 63:0.22845874 64:0.1398665 65:0.10072816 66:0.13925971 67:0.04065534 68:0.026699029 69:0.027305825 70:0.010315534 71:0.0075849515 72:0.14836165 73:0.38561893 74:0.17566748 75:0.16747573 76:0.068567961 77:0.011832524 78:0.019417476 79:0.011832524 80:0.0036407767 81:0.12651699 82:0.20964806 83:0.2184466 84:0.11589806 85:0.064320388 86:0.14563107 87:0.047330097 88:0.034890777 89:0.022754854 90:0.014563107 91:0.0084951456 92:0.075242718 94:0.28216019 96:0.13106796 97:0.27487864 99:0.18203883 100:0.046116505 101:0.045206311 102:0.067961165 103:0.19144417 104:0.15989078 105:0.14623786 106:0.10649272 107:0.13319175 108:0.11104369 109:0.025788835 110:0.012742718 111:0.12651699 112:0.20964806 113:0.2184466 114:0.11589806 115:0.064320388 116:0.14563107 117:0.047330097 118:0.034890777 119:0.022754854 120:0.014563107 121:0.03125 127:0.021541262 128:0.66929612 129:0.21207524 130:0.065837379 131:0.03125 138:0.0030339806 139:0.44265777 140:0.52305825 141:0.45631068 142:0.40139563 143:0.11104369 150:0.03125 151:0.045813107 160:0.95418689 161:0.070995146 162:0.54095874 163:0.31614078 164:0.04065534 170:0.03125 171:0.45631068 172:0.40139563 173:0.11104369 180:0.03125 181:0.0097087379 184:0.37166262 185:0.13925971 186:0.090412621 187:0.14229369 188:0.11832524 189:0.094963592 190:0.033373786 191:0.0097087379 194:0.00030339806 195:0.44235437 196:0.12651699 197:0.16353155 198:0.11438107 199:0.10133495 200:0.041868932 201:0.2648665 202:0.14927184 203:0.055825243 204:0.056735437 205:0.042779126 206:0.09375 207:0.14623786 208:0.12348301 209:0.057342233 210:0.0097087379 211:0.026092233 220:0.97390777 221:0.17748786 222:0.17415049 223:0.13743932 224:0.4690534 225:0.032160194 230:0.0097087379 231:0.2648665 232:0.14927184 233:0.055825243 234:0.056735437 235:0.042779126 236:0.09375 237:0.14623786 238:0.12348301 239:0.057342233 240:0.0097087379 241:0.0097087379 244:0.055521845 245:0.4996966 246:0.10709951 247:0.11438107 248:0.14350728 249:0.057645631 250:0.01243932 251:0.0097087379 255:0.037317961 256:0.5779733 257:0.13743932 258:0.16049757 259:0.0625 260:0.014563107 261:0.12044903 262:0.26304612 263:0.17506068 264:0.075242718 265:0.10254854 266:0.13622573 267:0.10103155 268:0.016686893 270:0.0097087379 271:0.0097087379 280:0.99029126 281:0.047936893 282:0.10800971 283:0.3913835 284:0.43841019 285:0.0045509709 290:0.0097087379 291:0.12044903 292:0.26304612 293:0.17506068 294:0.075242718 295:0.10254854 296:0.13622573 297:0.10103155 298:0.016686893 300:0.0097087379 301:0.04065534 305:0.10042476 306:0.31128641 307:0.24544903 308:0.11923544 309:0.14654126 310:0.036407767 311:0.04065534 316:0.0033373786 317:0.46055825 318:0.25485437 319:0.21632282 320:0.024271845 321:0.25212379 322:0.16777913 323:0.19356796 324:0.10072816 325:0.19356796 326:0.05157767 330:0.04065534 331:0.075242718 340:0.92475728 341:0.11529126 342:0.19599515 343:0.18567961 344:0.42293689 345:0.039441748 350:0.04065534 351:0.25212379 352:0.16777913 353:0.19356796 354:0.10072816 355:0.19356796 356:0.05157767 360:0.04065534 
-0.1665348384769121 1:0.50595238 2:0.32083333 3:0.085416667 4:0.039880952 5:0.023511905 6:0.011904762 7:0.0044642857 8:0.0026785714 9:0.0029761905 10:0.0023809524 11:0.10059524 12:0.75208333 13:0.095238095 14:0.02172619 15:0.014583333 16:0.0068452381 17:0.0041666667 18:0.0020833333 19:0.0023809524 20:0.00029761905 21:0.34761905 22:0.30416667 23:0.15535714 24:0.070833333 25:0.046428571 26:0.04077381 27:0.021428571 28:0.0053571429 29:0.0044642857 30:0.0035714286 31:0.088095238 40:0.91190476 41:0.022916667 42:0.12708333 43:0.17172619 44:0.16785714 45:0.18809524 46:0.1297619 47:0.10327381 48:0.057142857 49:0.024107143 50:0.0080357143 51:0.34761905 52:0.30416667 53:0.15535714 54:0.070833333 55:0.046428571 56:0.04077381 57:0.021428571 58:0.0053571429 59:0.0044642857 60:0.0035714286 61:0.10505952 62:0.19017857 63:0.22410714 64:0.13482143 65:0.07827381 66:0.18779762 67:0.049702381 68:0.011011905 69:0.013988095 70:0.0050595238 71:0.0044642857 72:0.011011905 73:0.11785714 74:0.16130952 75:0.40982143 76:0.12678571 77:0.12827381 78:0.016071429 79:0.019642857 80:0.0047619048 81:0.095238095 82:0.22410714 83:0.17589286 84:0.13125 85:0.11041667 86:0.13452381 87:0.082142857 88:0.016369048 89:0.014583333 90:0.01547619 91:0.050595238 93:0.23690476 95:0.18928571 97:0.27083333 99:0.1452381 100:0.10714286 101:0.017857143 102:0.093452381 103:0.16011905 104:0.18958333 105:0.14047619 106:0.12440476 107:0.14434524 108:0.10178571 109:0.025595238 110:0.0023809524 111:0.095238095 112:0.22410714 113:0.17589286 114:0.13125 115:0.11041667 116:0.13452381 117:0.082142857 118:0.016369048 119:0.014583333 120:0.01547619 121:0.03125 127:0.018452381 128:0.4985119 129:0.34672619 130:0.10505952 131:0.03125 138:0.01875 139:0.67440476 140:0.27559524 141:0.46875 142:0.41190476 143:0.088095238 150:0.03125 151:0.045535714 160:0.95446429 161:0.15833333 162:0.62142857 163:0.16220238 164:0.026785714 170:0.03125 171:0.46875 172:0.41190476 173:0.088095238 180:0.03125 181:0.0095238095 184:0.35892857 185:0.17678571 186:0.10595238 187:0.11488095 188:0.12053571 189:0.070238095 190:0.043154762 191:0.0095238095 194:0.00089285714 195:0.47440476 196:0.12291667 197:0.15863095 198:0.11488095 199:0.097321429 200:0.021428571 201:0.26696429 202:0.14434524 203:0.064285714 204:0.055654762 205:0.05952381 206:0.094642857 207:0.16428571 208:0.094345238 209:0.046428571 210:0.0095238095 211:0.039880952 220:0.96011905 221:0.10089286 222:0.21458333 223:0.1172619 224:0.42797619 225:0.1297619 230:0.0095238095 231:0.26696429 232:0.14434524 233:0.064285714 234:0.055654762 235:0.05952381 236:0.094642857 237:0.16428571 238:0.094345238 239:0.046428571 240:0.0095238095 241:0.0095238095 244:0.00029761905 245:0.46517857 246:0.16904762 247:0.1485119 248:0.15178571 249:0.049702381 250:0.005952381 251:0.0095238095 255:0.0095238095 256:0.60178571 257:0.16666667 258:0.14910714 259:0.056845238 260:0.006547619 261:0.13005952 262:0.28303571 263:0.15297619 264:0.099107143 265:0.12142857 266:0.15 267:0.049107143 268:0.0047619048 270:0.0095238095 271:0.010714286 280:0.98928571 281:0.033630952 282:0.12797619 283:0.31071429 284:0.49940476 285:0.01875 290:0.0095238095 291:0.13005952 292:0.28303571 293:0.15297619 294:0.099107143 295:0.12142857 296:0.15 297:0.049107143 298:0.0047619048 300:0.0095238095 301:0.04047619 305:0.042261905 306:0.41964286 307:0.28333333 308:0.078869048 309:0.11279762 310:0.022619048 311:0.04047619 317:0.41815476 318:0.39285714 319:0.11845238 320:0.030059524 321:0.29375 322:0.19702381 323:0.22619048 324:0.088690476 325:0.13690476 326:0.016964286 330:0.04047619 331:0.058333333 340:0.94166667 341:0.12083333 342:0.27291667 343:0.15982143 344:0.38958333 345:0.016369048 350:0.04047619 351:0.29375 352:0.19702381 353:0.22619048 354:0.088690476 355:0.13690476 356:0.016964286 360:0.04047619 
-0.006103585585597392 1:0.44356796 2:0.35709951 3:0.10740291 4:0.03276699 5:0.030036408 6:0.01092233 7:0.0091019417 8:0.0027305825 9:0.0033373786 10:0.0030339806 11:0.45631068 12:0.44023058 13:0.048543689 14:0.024271845 15:0.013046117 16:0.0060679612 17:0.0042475728 18:0.0030339806 19:0.0018203883 20:0.0024271845 21:0.35770631 22:0.29459951 23:0.16140777 24:0.07493932 25:0.041565534 26:0.034890777 27:0.02032767 28:0.0081917476 29:0.0033373786 30:0.0030339806 31:0.1092233 40:0.8907767 41:0.066444175 42:0.09375 43:0.2026699 44:0.14957524 45:0.1256068 46:0.15716019 47:0.083131068 48:0.071601942 49:0.046419903 50:0.0036407767 51:0.35770631 52:0.29459951 53:0.16140777 54:0.07493932 55:0.041565534 56:0.034890777 57:0.02032767 58:0.0081917476 59:0.0033373786 60:0.0030339806 61:0.031553398 62:0.19265777 63:0.20570388 64:0.12985437 65:0.15473301 66:0.14836165 67:0.055825243 68:0.036711165 69:0.023058252 70:0.021541262 71:0.0072815534 72:0.05006068 73:0.28853155 74:0.20873786 75:0.29550971 76:0.1098301 77:0.014563107 78:0.016080097 79:0.0072815534 80:0.0021237864 81:0.059466019 82:0.16322816 83:0.26425971 84:0.13076456 85:0.10740291 86:0.11529126 87:0.088288835 88:0.032160194 89:0.022148058 90:0.016990291 91:0.016990291 100:0.98300971 101:0.0063713592 102:0.015169903 103:0.06401699 104:0.17324029 105:0.1714199 106:0.2032767 107:0.14866505 108:0.13743932 109:0.056735437 110:0.023665049 111:0.059466019 112:0.16322816 113:0.26425971 114:0.13076456 115:0.10740291 116:0.11529126 117:0.088288835 118:0.032160194 119:0.022148058 120:0.016990291 121:0.03125 127:0.012742718 128:0.50758495 129:0.31432039 130:0.13410194 131:0.03125 138:0.00030339806 139:0.47542476 140:0.49302184 141:0.40442961 142:0.46359223 143:0.10072816 150:0.03125 151:0.043385922 160:0.95661408 161:0.11862864 162:0.61134709 163:0.19356796 164:0.045206311 170:0.03125 171:0.40442961 172:0.46359223 173:0.10072816 180:0.03125 181:0.0097087379 184:0.36620146 185:0.13713592 186:0.1413835 187:0.10770631 188:0.11043689 189:0.073118932 190:0.054308252 191:0.0097087379 195:0.35467233 196:0.22633495 197:0.14836165 198:0.1101335 199:0.089805825 200:0.06098301 201:0.2964199 202:0.11316748 203:0.061286408 204:0.057038835 205:0.060376214 206:0.12864078 207:0.13804612 208:0.097087379 209:0.038228155 210:0.0097087379 211:0.018203883 220:0.98179612 221:0.19933252 222:0.15351942 223:0.10558252 224:0.44720874 225:0.084648058 230:0.0097087379 231:0.2964199 232:0.11316748 233:0.061286408 234:0.057038835 235:0.060376214 236:0.12864078 237:0.13804612 238:0.097087379 239:0.038228155 240:0.0097087379 241:0.0097087379 245:0.27548544 246:0.36468447 247:0.11741505 248:0.12682039 249:0.088288835 250:0.017597087 251:0.0097087379 255:0.0060679612 256:0.60406553 257:0.13956311 258:0.17506068 259:0.050364078 260:0.015169903 261:0.13652913 262:0.26850728 263:0.16474515 264:0.10194175 265:0.11407767 266:0.14259709 267:0.056735437 268:0.005157767 270:0.0097087379 271:0.0097087379 280:0.99029126 281:0.073725728 282:0.16656553 283:0.38137136 284:0.36377427 285:0.0048543689 290:0.0097087379 291:0.13652913 292:0.26850728 293:0.16474515 294:0.10194175 295:0.11407767 296:0.14259709 297:0.056735437 298:0.005157767 300:0.0097087379 301:0.04065534 305:0.1098301 306:0.35679612 307:0.25637136 308:0.10345874 309:0.11498786 310:0.017900485 311:0.04065534 316:0.00060679612 317:0.38349515 318:0.40928398 319:0.15078883 320:0.015169903 321:0.27336165 322:0.20115291 323:0.20752427 324:0.099211165 325:0.15746359 326:0.020631068 330:0.04065534 331:0.075849515 340:0.92415049 341:0.15351942 342:0.21177184 343:0.20175971 344:0.35072816 345:0.041565534 350:0.04065534 351:0.27336165 352:0.20115291 353:0.20752427 354:0.099211165 355:0.15746359 356:0.020631068 360:0.04065534 
-0.01228974600001743 1:0.0055147059 2:0.070772059 3:0.4341299 4:0.28278186 5:0.068627451 6:0.065563725 7:0.040134804 8:0.017769608 9:0.011029412 10:0.0036764706 11:0.051470588 12:0.54626225 13:0.20741422 14:0.055759804 15:0.054840686 16:0.037071078 17:0.01807598 18:0.018382353 19:0.0067401961 20:0.0039828431 21:0.20526961 22:0.23223039 23:0.10692402 24:0.13664216 25:0.11090686 26:0.070772059 27:0.060355392 28:0.039522059 29:0.021139706 30:0.016237745 31:0.97794118 40:0.022058824 41:0.015318627 42:0.074754902 43:0.20772059 44:0.10416667 45:0.14185049 46:0.16758578 47:0.15410539 48:0.086090686 49:0.037683824 50:0.010723039 51:0.20526961 52:0.23223039 53:0.10692402 54:0.13664216 55:0.11090686 56:0.070772059 57:0.060355392 58:0.039522059 59:0.021139706 60:0.016237745 61:0.11060049 62:0.50765931 63:0.12745098 64:0.037071078 65:0.083026961 66:0.055759804 67:0.026348039 68:0.028186275 69:0.016237745 70:0.0076593137 71:0.030943627 72:0.5713848 73:0.11397059 74:0.071997549 75:0.051470588 76:0.060968137 77:0.045343137 78:0.03125 79:0.018688725 80:0.0039828431 81:0.13204657 82:0.26164216 83:0.099571078 84:0.15196078 85:0.080269608 86:0.042279412 87:0.054840686 88:0.090379902 89:0.049632353 90:0.037377451 91:0.98284314 100:0.017156863 101:0.017156863 102:0.060355392 103:0.068014706 104:0.18321078 105:0.10508578 106:0.12224265 107:0.18229167 108:0.17401961 109:0.077512255 110:0.010110294 111:0.13204657 112:0.26164216 113:0.099571078 114:0.15196078 115:0.080269608 116:0.042279412 117:0.054840686 118:0.090379902 119:0.049632353 120:0.037377451 121:0.03125 126:0.1841299 127:0.71629902 128:0.034620098 129:0.026654412 130:0.0070465686 131:0.03125 137:0.52512255 138:0.40563725 139:0.019301471 140:0.018688725 141:0.093443627 142:0.77757353 143:0.056066176 144:0.018382353 145:0.016544118 146:0.0067401961 150:0.03125 151:0.069240196 153:0.31801471 155:0.4129902 157:0.18627451 159:0.012254902 160:0.0012254902 161:0.036151961 162:0.35355392 163:0.54993873 164:0.029105392 170:0.03125 171:0.093443627 172:0.77757353 173:0.056066176 174:0.018382353 175:0.016544118 176:0.0067401961 180:0.03125 181:0.0098039216 183:0.0052083333 184:0.27573529 185:0.35845588 186:0.18167892 187:0.077512255 188:0.059742647 189:0.027879902 190:0.0039828431 191:0.0098039216 193:0.00091911765 194:0.19117647 195:0.28829657 196:0.29227941 197:0.099877451 198:0.070772059 199:0.038602941 200:0.0082720588 201:0.12071078 202:0.065870098 203:0.050857843 204:0.079656863 205:0.16911765 206:0.17463235 207:0.14767157 208:0.086703431 209:0.072303922 210:0.03247549 211:0.90992647 220:0.090073529 221:0.029411765 222:0.16053922 223:0.21354167 224:0.52757353 225:0.056678922 226:0.0024509804 230:0.0098039216 231:0.12071078 232:0.065870098 233:0.050857843 234:0.079656863 235:0.16911765 236:0.17463235 237:0.14767157 238:0.086703431 239:0.072303922 240:0.03247549 241:0.0098039216 245:0.40533088 246:0.12745098 247:0.26286765 248:0.10692402 249:0.075980392 250:0.011642157 251:0.0098039216 255:0.39215686 256:0.077818627 257:0.28492647 258:0.17371324 259:0.057598039 260:0.0039828431 261:0.29810049 262:0.054227941 263:0.051776961 264:0.035232843 265:0.054840686 266:0.18933824 267:0.21384804 268:0.087316176 269:0.0055147059 270:0.0098039216 271:0.94852941 280:0.051470588 281:0.18443627 282:0.25582108 283:0.44669118 284:0.10294118 285:0.00030637255 290:0.0098039216 291:0.29810049 292:0.054227941 293:0.051776961 294:0.035232843 295:0.054840686 296:0.18933824 297:0.21384804 298:0.087316176 299:0.0055147059 300:0.0098039216 301:0.040747549 305:0.0015318627 306:0.24509804 307:0.42095588 308:0.17830882 309:0.088848039 310:0.024509804 311:0.040747549 317:0.52971814 318:0.26746324 319:0.125 320:0.037071078 321:0.1439951 322:0.30606618 323:0.092218137 324:0.18137255 325:0.13664216 326:0.096507353 327:0.0024509804 330:0.040747549 331:0.96568627 340:0.034313725 341:0.04810049 342:0.19669118 343:0.5625 344:0.14644608 345:0.0055147059 350:0.040747549 351:0.1439951 352:0.30606618 353:0.092218137 354:0.18137255 355:0.13664216 356:0.096507353 357:0.0024509804 360:0.040747549 
