svm_type c_svc
kernel_type linear
nr_class 2
total_sv 39
rho -0.539871
label -1 1
probA -5.16472
probB -0.090148
nr_sv 23 16
SV
0.0235028233692867 1:0.0093149038 2:0.13401442 3:0.38701923 4:0.2280649 5:0.15745192 6:0.047776442 7:0.017728365 8:0.012920673 9:0.0042067308 10:0.0015024038 11:0.0042067308 12:0.21905048 13:0.47115385 14:0.1733774 15:0.052283654 16:0.042067308 17:0.021033654 18:0.010216346 19:0.0054086538 20:0.0012019231 21:0.29567308 22:0.19831731 23:0.11298077 24:0.065504808 25:0.069711538 26:0.049579327 27:0.050180288 28:0.057091346 29:0.078725962 30:0.022235577 31:0.020432692 32:0.10216346 34:0.35096154 36:0.36057692 37:0.10697115 39:0.055288462 40:0.0036057692 41:0.023137019 42:0.21544471 43:0.23948317 44:0.12680288 45:0.055889423 46:0.065504808 47:0.10186298 48:0.070612981 49:0.07421875 50:0.027043269 51:0.29567308 52:0.19831731 53:0.11298077 54:0.065504808 55:0.069711538 56:0.049579327 57:0.050180288 58:0.057091346 59:0.078725962 60:0.022235577 61:0.038161058 62:0.061598558 63:0.11057692 64:0.32091346 65:0.16045673 66:0.15294471 67:0.12560096 68:0.01953125 69:0.0057091346 70:0.0045072115 71:0.0081129808 72:0.0234375 73:0.25120192 74:0.21995192 75:0.24789663 76:0.22175481 77:0.011117788 78:0.011418269 79:0.0024038462 80:0.0027043269 81:0.054387019 82:0.098557692 83:0.16045673 84:0.16947115 85:0.21574519 86:0.18359375 87:0.061298077 88:0.039362981 89:0.010516827 90:0.0066105769 91:0.0012019231 93:0.084134615 95:0.40865385 97:0.39783654 99:0.098557692 100:0.0096153846 101:0.024939904 102:0.059495192 103:0.076021635 104:0.11658654 105:0.16436298 106:0.16526442 107:0.20102163 108:0.1265024 109:0.049579327 110:0.016225962 111:0.054387019 112:0.098557692 113:0.16045673 114:0.16947115 115:0.21574519 116:0.18359375 117:0.061298077 118:0.039362981 119:0.010516827 120:0.0066105769 121:0.03125 128:0.024038462 129:0.5952524 130:0.34945913 131:0.03125 139:0.42367788 140:0.54507212 141:0.24459135 142:0.70643029 143:0.017728365 150:0.03125 151:0.032451923 153:0.021634615 155:0.3125 157:0.47295673 159:0.13401442 160:0.026442308 161:0.11358173 162:0.43389423 163:0.40414663 164:0.017127404 170:0.03125 171:0.24459135 172:0.70643029 173:0.017728365 180:0.03125 181:0.0096153846 184:0.36598558 185:0.35516827 186:0.11899038 187:0.021334135 188:0.067307692 189:0.045673077 190:0.015925481 191:0.0096153846 194:0.037560096 195:0.51923077 196:0.25540865 197:0.042367788 198:0.051983173 199:0.065805288 200:0.018028846 201:0.1484375 202:0.12319712 203:0.12409856 204:0.043269231 205:0.063100962 206:0.11808894 207:0.19831731 208:0.040564904 209:0.069411058 210:0.071514423 211:0.026442308 212:0.21634615 214:0.42728365 216:0.28425481 217:0.037259615 219:0.0072115385 220:0.0012019231 221:0.10486779 222:0.13070913 223:0.21814904 224:0.17367788 225:0.29447115 226:0.068509615 230:0.0096153846 231:0.1484375 232:0.12319712 233:0.12409856 234:0.043269231 235:0.063100962 236:0.11808894 237:0.19831731 238:0.040564904 239:0.069411058 240:0.071514423 241:0.0096153846 245:0.00030048077 246:0.058894231 247:0.45042067 248:0.27794471 249:0.12439904 250:0.078425481 251:0.0096153846 256:0.0051081731 257:0.53425481 258:0.14903846 259:0.18870192 260:0.11328125 261:0.085036058 262:0.24038462 263:0.086237981 264:0.088040865 265:0.097956731 266:0.20673077 267:0.1859976 270:0.0096153846 271:0.027644231 273:0.28786058 275:0.5234375 277:0.14903846 279:0.0096153846 280:0.0024038462 281:0.12469952 282:0.12530048 283:0.12049279 284:0.28064904 285:0.32151442 286:0.017728365 290:0.0096153846 291:0.085036058 292:0.24038462 293:0.086237981 294:0.088040865 295:0.097956731 296:0.20673077 297:0.1859976 300:0.0096153846 301:0.040564904 305:0.00030048077 306:0.39963942 307:0.39032452 308:0.11598558 309:0.042668269 310:0.010516827 311:0.040564904 317:0.4858774 318:0.30829327 319:0.093149038 320:0.072115385 321:0.40084135 322:0.17638221 323:0.099459135 324:0.054987981 325:0.070913462 326:0.10817308 327:0.048677885 330:0.040564904 331:0.063401442 333:0.19471154 335:0.44471154 337:0.26592548 339:0.028846154 340:0.0024038462 341:0.050180288 342:0.33623798 343:0.15144231 344:0.21153846 345:0.20823317 346:0.0018028846 350:0.040564904 351:0.40084135 352:0.17638221 353:0.099459135 354:0.054987981 355:0.070913462 356:0.10817308 357:0.048677885 360:0.040564904 
0.08776758784209787 1:0.0074257426 2:0.016089109 3:0.083230198 4:0.38397277 5:0.28217822 6:0.12840347 7:0.050742574 8:0.032178218 9:0.012685644 10:0.0030940594 11:0.0021658416 12:0.0092821782 13:0.17326733 14:0.45049505 15:0.20266089 16:0.077351485 17:0.04115099 18:0.026299505 19:0.013923267 20:0.0034034653 21:0.025061881 22:0.32518564 23:0.21967822 24:0.068069307 25:0.075185644 26:0.060643564 27:0.054764851 28:0.065594059 29:0.076113861 30:0.02970297 31:0.0099009901 32:0.071782178 34:0.28774752 36:0.31868812 37:0.16212871 39:0.11881188 40:0.030940594 41:0.0068069307 42:0.012376238 43:0.038366337 44:0.32178218 45:0.19214109 46:0.08384901 47:0.068378713 48:0.088490099 49:0.14480198 50:0.043007426 51:0.025061881 52:0.32518564 53:0.21967822 54:0.068069307 55:0.075185644 56:0.060643564 57:0.054764851 58:0.065594059 59:0.076113861 60:0.02970297 61:0.0034034653 62:0.015779703 63:0.093131188 64:0.20946782 65:0.3335396 66:0.24102723 67:0.078589109 68:0.015160891 69:0.0055693069 70:0.0043316832 71:0.00092821782 72:0.035581683 73:0.25835396 74:0.20699257 75:0.3592203 76:0.099319307 77:0.016707921 78:0.013304455 79:0.0074257426 80:0.0021658416 81:0.034034653 82:0.087252475 83:0.11602723 84:0.19678218 85:0.17821782 86:0.20792079 87:0.091584158 88:0.043626238 89:0.03125 90:0.013304455 91:0.016089109 93:0.10086634 95:0.38428218 97:0.39232673 99:0.087871287 100:0.018564356 101:0.010519802 102:0.036819307 103:0.066212871 104:0.085086634 105:0.11788366 106:0.20699257 107:0.15903465 108:0.18533416 109:0.12778465 110:0.0043316832 111:0.034034653 112:0.087252475 113:0.11602723 114:0.19678218 115:0.17821782 116:0.20792079 117:0.091584158 118:0.043626238 119:0.03125 120:0.013304455 121:0.03125 128:0.011138614 129:0.56930693 130:0.38830446 131:0.03125 139:0.54022277 140:0.42852723 141:0.16274752 142:0.75030941 143:0.055693069 150:0.03125 151:0.034962871 153:0.027846535 155:0.42017327 157:0.42295792 159:0.081683168 160:0.012376238 161:0.096534653 162:0.52382426 163:0.33941832 164:0.0089727723 170:0.03125 171:0.16274752 172:0.75030941 173:0.055693069 180:0.03125 181:0.0099009901 183:0.00030940594 184:0.10334158 185:0.55105198 186:0.19925743 187:0.031559406 188:0.018873762 189:0.058787129 190:0.026918317 191:0.0099009901 195:0.56559406 196:0.23050743 197:0.085086634 198:0.012685644 199:0.0625 200:0.033725248 201:0.20730198 202:0.13335396 203:0.10860149 204:0.044863861 205:0.050433168 206:0.13087871 207:0.19461634 208:0.022586634 209:0.047957921 210:0.059405941 211:0.038366337 213:0.17512376 215:0.41893564 217:0.32425743 219:0.03960396 220:0.0037128713 221:0.13985149 222:0.14480198 223:0.1927599 224:0.14170792 225:0.29733911 226:0.071782178 227:0.0018564356 230:0.0099009901 231:0.20730198 232:0.13335396 233:0.10860149 234:0.044863861 235:0.050433168 236:0.13087871 237:0.19461634 238:0.022586634 239:0.047957921 240:0.059405941 241:0.0099009901 246:0.10024752 247:0.49195545 248:0.22339109 249:0.13304455 250:0.041460396 251:0.0099009901 257:0.3542698 258:0.3335396 259:0.17233911 260:0.1299505 261:0.14882426 262:0.2289604 263:0.093131188 264:0.090965347 265:0.10550743 266:0.19461634 267:0.12809406 270:0.0099009901 271:0.03960396 273:0.18997525 276:0.50061881 278:0.2450495 280:0.024752475 281:0.11633663 282:0.16800743 283:0.1200495 284:0.24907178 285:0.30352723 286:0.033106436 290:0.0099009901 291:0.14882426 292:0.2289604 293:0.093131188 294:0.090965347 295:0.10550743 296:0.19461634 297:0.12809406 300:0.0099009901 301:0.040841584 306:0.068688119 307:0.58941832 308:0.20575495 309:0.067141089 310:0.028155941 311:0.040841584 317:0.47060644 318:0.33694307 319:0.10798267 320:0.043626238 321:0.47772277 322:0.13366337 323:0.098081683 324:0.056930693 325:0.052289604 326:0.11664604 327:0.023824257 330:0.040841584 331:0.99938119 340:0.00061881188 341:0.25742574 342:0.2917698 343:0.08384901 344:0.21225248 345:0.11386139 350:0.040841584 351:0.47772277 352:0.13366337 353:0.098081683 354:0.056930693 355:0.052289604 356:0.11664604 357:0.023824257 360:0.040841584 
0.004684860644580663 1:0.0080357143 2:0.054761905 3:0.36636905 4:0.20119048 5:0.24613095 6:0.08125 7:0.01577381 8:0.015178571 9:0.0089285714 10:0.0023809524 11:0.019345238 12:0.39375 13:0.27440476 14:0.1485119 15:0.077678571 16:0.048809524 17:0.022619048 18:0.0092261905 19:0.0050595238 20:0.0005952381 21:0.25119048 22:0.23184524 23:0.096130952 24:0.07797619 25:0.048511905 26:0.058035714 27:0.049702381 28:0.077380952 29:0.097916667 30:0.011309524 31:0.021428571 32:0.1077381 34:0.33035714 36:0.36011905 37:0.11607143 39:0.05 40:0.014285714 41:0.018452381 42:0.1577381 43:0.32678571 44:0.074107143 45:0.055059524 46:0.076785714 47:0.10595238 48:0.10863095 49:0.067559524 50:0.0089285714 51:0.25119048 52:0.23184524 53:0.096130952 54:0.07797619 55:0.048511905 56:0.058035714 57:0.049702381 58:0.077380952 59:0.097916667 60:0.011309524 61:0.0089285714 62:0.066666667 63:0.083035714 64:0.31815476 65:0.18720238 66:0.25952381 67:0.064583333 68:0.0041666667 69:0.005952381 70:0.0017857143 71:0.0014880952 72:0.017261905 73:0.17857143 74:0.18541667 75:0.4889881 76:0.088690476 77:0.014285714 78:0.01547619 79:0.0071428571 80:0.0026785714 81:0.083035714 82:0.073809524 83:0.20803571 84:0.14464286 85:0.14761905 86:0.20892857 87:0.051488095 88:0.045535714 89:0.027380952 90:0.0095238095 91:0.0011904762 92:0.039285714 94:0.36607143 96:0.46011905 97:0.11428571 99:0.016666667 100:0.0023809524 101:0.02827381 102:0.046130952 103:0.069642857 104:0.14910714 105:0.12886905 106:0.19494048 107:0.19642857 108:0.10684524 109:0.060714286 110:0.019047619 111:0.083035714 112:0.073809524 113:0.20803571 114:0.14464286 115:0.14761905 116:0.20892857 117:0.051488095 118:0.045535714 119:0.027380952 120:0.0095238095 121:0.03125 128:0.0375 129:0.83035714 130:0.10089286 131:0.03125 139:0.40297619 140:0.56577381 141:0.2797619 142:0.67172619 143:0.017261905 150:0.03125 151:0.03125 152:0.019047619 154:0.27559524 156:0.48541667 157:0.16369048 159:0.023809524 160:0.0011904762 161:0.12321429 162:0.50625 163:0.32619048 164:0.013095238 170:0.03125 171:0.2797619 172:0.67172619 173:0.017261905 180:0.03125 181:0.0095238095 183:0.0005952381 184:0.22619048 185:0.51428571 186:0.11428571 187:0.019345238 188:0.032738095 189:0.066071429 190:0.016964286 191:0.0095238095 195:0.55803571 196:0.24732143 197:0.06547619 198:0.027083333 199:0.062797619 200:0.029761905 201:0.16130952 202:0.13035714 203:0.12857143 204:0.039285714 205:0.066666667 206:0.17321429 207:0.16815476 208:0.013690476 209:0.057440476 210:0.061309524 211:0.029761905 212:0.14404762 213:0.47321429 215:0.2922619 216:0.02797619 218:0.020833333 219:0.0095238095 220:0.0023809524 221:0.079761905 222:0.13660714 223:0.23214286 224:0.13779762 225:0.3125 226:0.091071429 227:0.0005952381 230:0.0095238095 231:0.16130952 232:0.13035714 233:0.12857143 234:0.039285714 235:0.066666667 236:0.17321429 237:0.16815476 238:0.013690476 239:0.057440476 240:0.061309524 241:0.0095238095 245:0.00029761905 246:0.041666667 247:0.55089286 248:0.1860119 249:0.16755952 250:0.044047619 251:0.0095238095 257:0.49940476 258:0.20089286 259:0.19047619 260:0.099702381 261:0.11041667 262:0.23720238 263:0.085119048 264:0.10178571 265:0.10238095 266:0.19732143 267:0.15625 270:0.0095238095 271:0.99880952 280:0.0011904762 281:0.027380952 282:0.17916667 283:0.14642857 284:0.11815476 285:0.4172619 286:0.10208333 290:0.0095238095 291:0.11041667 292:0.23720238 293:0.085119048 294:0.10178571 295:0.10238095 296:0.19732143 297:0.15625 300:0.0095238095 301:0.04047619 305:0.00029761905 306:0.022321429 307:0.72440476 308:0.10922619 309:0.088095238 310:0.015178571 311:0.04047619 317:0.41488095 318:0.39940476 319:0.11488095 320:0.030357143 321:0.36845238 322:0.22261905 323:0.086011905 324:0.068154762 325:0.069940476 326:0.097916667 327:0.046428571 330:0.04047619 331:0.072619048 333:0.19285714 335:0.38184524 337:0.31934524 339:0.031547619 340:0.0017857143 341:0.26130952 342:0.28839286 343:0.070833333 344:0.24404762 345:0.094345238 346:0.0005952381 350:0.04047619 351:0.36845238 352:0.22261905 353:0.086011905 354:0.068154762 355:0.069940476 356:0.097916667 357:0.046428571 360:0.04047619 
0.02162198744669089 1:0.0015024038 2:0.017427885 3:0.16887019 4:0.33112981 5:0.30558894 6:0.09765625 7:0.040865385 8:0.018629808 9:0.012620192 10:0.0057091346 11:0.0024038462 12:0.021935096 13:0.37740385 14:0.27554087 15:0.1781851 16:0.055588942 17:0.048677885 18:0.018028846 19:0.017127404 20:0.0051081731 21:0.24489183 22:0.23918269 23:0.098858173 24:0.077524038 25:0.065504808 26:0.056790865 27:0.052283654 28:0.10516827 29:0.056189904 30:0.0036057692 31:0.035456731 32:0.11388221 34:0.3046875 36:0.36688702 37:0.11959135 39:0.0390625 40:0.020432692 41:0.017127404 42:0.16135817 43:0.33413462 44:0.078725962 45:0.065805288 46:0.071514423 47:0.076622596 48:0.13040865 49:0.055588942 50:0.0087139423 51:0.24489183 52:0.23918269 53:0.098858173 54:0.077524038 55:0.065504808 56:0.056790865 57:0.052283654 58:0.10516827 59:0.056189904 60:0.0036057692 61:0.0036057692 62:0.028846154 63:0.15084135 64:0.12740385 65:0.34164663 66:0.27283654 67:0.046574519 68:0.022235577 69:0.0048076923 70:0.0012019231 71:0.0093149038 72:0.020733173 73:0.18780048 74:0.23377404 75:0.25450721 76:0.23617788 77:0.024338942 78:0.024939904 79:0.0048076923 80:0.0036057692 81:0.053185096 82:0.094651442 83:0.19230769 84:0.18299279 85:0.17758413 86:0.16887019 87:0.058894231 88:0.042367788 89:0.021634615 90:0.0075120192 91:0.0096153846 92:0.057692308 93:0.37259615 95:0.42938702 96:0.10667067 98:0.016826923 99:0.0060096154 100:0.0012019231 101:0.012019231 102:0.028245192 103:0.077223558 104:0.13311298 105:0.13822115 106:0.21875 107:0.15444712 108:0.12079327 109:0.083233173 110:0.033954327 111:0.053185096 112:0.094651442 113:0.19230769 114:0.18299279 115:0.17758413 116:0.16887019 117:0.058894231 118:0.042367788 119:0.021634615 120:0.0075120192 121:0.03125 128:0.0066105769 129:0.59855769 130:0.36358173 131:0.03125 139:0.23737981 140:0.73137019 141:0.21784856 142:0.72686298 143:0.024038462 150:0.03125 151:0.032451923 152:0.038762019 154:0.3359375 156:0.46153846 157:0.11628606 159:0.014423077 160:0.00060096154 161:0.018930288 162:0.48137019 163:0.39723558 164:0.071213942 170:0.03125 171:0.21784856 172:0.72686298 173:0.024038462 180:0.03125 181:0.0096153846 184:0.13311298 185:0.50661058 186:0.20102163 187:0.027043269 188:0.031550481 189:0.059495192 190:0.031550481 191:0.0096153846 194:0.00060096154 195:0.52584135 196:0.28034856 197:0.057091346 198:0.031550481 199:0.056790865 200:0.038161058 201:0.16526442 202:0.13641827 203:0.10817308 204:0.042367788 205:0.068209135 206:0.15504808 207:0.18179087 208:0.018028846 209:0.0625 210:0.062199519 211:0.99759615 220:0.0024038462 221:0.071814904 222:0.17127404 223:0.18960337 224:0.15174279 225:0.32902644 226:0.076021635 227:0.00090144231 230:0.0096153846 231:0.16526442 232:0.13641827 233:0.10817308 234:0.042367788 235:0.068209135 236:0.15504808 237:0.18179087 238:0.018028846 239:0.0625 240:0.062199519 241:0.0096153846 245:0.00060096154 246:0.12860577 247:0.5219351 248:0.19621394 249:0.12830529 250:0.014723558 251:0.0096153846 257:0.36298077 258:0.29206731 259:0.20402644 260:0.1313101 261:0.091646635 262:0.25210337 263:0.083834135 264:0.098257212 265:0.11027644 266:0.19831731 267:0.15594952 270:0.0096153846 271:0.99639423 280:0.0036057692 281:0.057391827 282:0.18359375 283:0.13972356 284:0.203125 285:0.3530649 286:0.053485577 290:0.0096153846 291:0.091646635 292:0.25210337 293:0.083834135 294:0.098257212 295:0.11027644 296:0.19831731 297:0.15594952 300:0.0096153846 301:0.040564904 306:0.025841346 307:0.71394231 308:0.12800481 309:0.078425481 310:0.013221154 311:0.040564904 317:0.39723558 318:0.42367788 319:0.10066106 320:0.037860577 321:0.3374399 322:0.2484976 323:0.094651442 324:0.061598558 325:0.065204327 326:0.109375 327:0.042668269 330:0.040564904 331:0.056189904 333:0.20552885 335:0.46544471 337:0.24519231 339:0.026442308 340:0.0012019231 341:0.30889423 342:0.23407452 343:0.087439904 344:0.20402644 345:0.125 350:0.040564904 351:0.3374399 352:0.2484976 353:0.094651442 354:0.061598558 355:0.065204327 356:0.109375 357:0.042668269 360:0.040564904 
0.01142177849301106 1:0.0024271845 2:0.0033373786 3:0.03125 4:0.41808252 5:0.28367718 6:0.16868932 7:0.056128641 8:0.017293689 9:0.013046117 10:0.0060679612 11:0.0024271845 12:0.0021237864 13:0.029429612 14:0.38804612 15:0.33131068 16:0.13834951 17:0.052487864 18:0.027912621 19:0.017293689 20:0.010618932 21:0.11195388 22:0.30218447 23:0.16080097 24:0.076456311 25:0.063410194 26:0.0625 27:0.055218447 28:0.086468447 29:0.077063107 30:0.0039441748 31:0.023058252 32:0.10497573 34:0.33495146 36:0.36529126 37:0.10740291 39:0.04368932 40:0.020631068 41:0.016686893 42:0.23331311 43:0.28610437 44:0.068871359 45:0.068567961 46:0.069174757 47:0.075242718 48:0.13106796 49:0.042779126 50:0.0081917476 51:0.11195388 52:0.30218447 53:0.16080097 54:0.076456311 55:0.063410194 56:0.0625 57:0.055218447 58:0.086468447 59:0.077063107 60:0.0039441748 61:0.0057645631 62:0.029429612 63:0.057949029 64:0.25667476 65:0.19265777 66:0.31826456 67:0.11589806 68:0.014866505 69:0.0078883495 70:0.00060679612 71:0.011832524 72:0.022451456 73:0.17445388 74:0.21753641 75:0.2648665 76:0.24544903 77:0.030036408 78:0.024271845 79:0.005461165 80:0.0036407767 81:0.035497573 82:0.10254854 83:0.1726335 84:0.17354369 85:0.16656553 86:0.19356796 87:0.067961165 88:0.046419903 89:0.030036408 90:0.011225728 91:0.0084951456 92:0.049757282 93:0.32645631 95:0.44356796 96:0.14259709 98:0.018203883 99:0.0097087379 100:0.0012135922 101:0.013349515 102:0.024878641 103:0.081614078 104:0.15807039 105:0.14199029 106:0.17506068 107:0.17081311 108:0.12682039 109:0.07493932 110:0.032463592 111:0.035497573 112:0.10254854 113:0.1726335 114:0.17354369 115:0.16656553 116:0.19356796 117:0.067961165 118:0.046419903 119:0.030036408 120:0.011225728 121:0.03125 128:0.011529126 129:0.70509709 130:0.25212379 131:0.03125 139:0.19144417 140:0.77730583 141:0.26365291 142:0.68416262 143:0.020934466 150:0.03125 151:0.03125 153:0.0060679612 155:0.26456311 157:0.5473301 159:0.13834951 160:0.01243932 161:0.091929612 162:0.53033981 163:0.33313107 164:0.013349515 170:0.03125 171:0.26365291 172:0.68416262 173:0.020934466 180:0.03125 181:0.0097087379 183:0.00060679612 184:0.24302184 185:0.46207524 186:0.15169903 187:0.019417476 188:0.033980583 189:0.064927184 190:0.014563107 191:0.0097087379 195:0.54217233 196:0.27760922 197:0.05309466 198:0.028519417 199:0.055825243 200:0.033070388 201:0.17384709 202:0.12378641 203:0.13076456 204:0.040958738 205:0.057342233 206:0.15291262 207:0.18325243 208:0.020934466 209:0.052791262 210:0.063410194 211:0.03276699 212:0.20570388 213:0.42961165 215:0.2493932 216:0.033980583 218:0.038834951 219:0.0084951456 220:0.0012135922 221:0.13865291 222:0.12803398 223:0.22906553 224:0.14593447 225:0.31371359 226:0.034890777 230:0.0097087379 231:0.17384709 232:0.12378641 233:0.13076456 234:0.040958738 235:0.057342233 236:0.15291262 237:0.18325243 238:0.020934466 239:0.052791262 240:0.063410194 241:0.0097087379 245:0.00060679612 246:0.087075243 247:0.53671117 248:0.22481796 249:0.1095267 250:0.031553398 251:0.0097087379 257:0.38319175 258:0.28337379 259:0.2032767 260:0.12044903 261:0.10679612 262:0.24544903 263:0.087075243 264:0.096177184 265:0.11256068 266:0.19599515 267:0.14623786 270:0.0097087379 271:0.04368932 272:0.21480583 274:0.46480583 276:0.25606796 277:0.017597087 279:0.0018203883 280:0.0012135922 281:0.046723301 282:0.19993932 283:0.10194175 284:0.17930825 285:0.3904733 286:0.07190534 290:0.0097087379 291:0.10679612 292:0.24544903 293:0.087075243 294:0.096177184 295:0.11256068 296:0.19599515 297:0.14623786 300:0.0097087379 301:0.04065534 305:0.0012135922 306:0.17748786 307:0.60679612 308:0.10709951 309:0.061893204 310:0.0048543689 311:0.04065534 317:0.3913835 318:0.4223301 319:0.1089199 320:0.036711165 321:0.38410194 322:0.20782767 323:0.094660194 324:0.058555825 325:0.06098301 326:0.12226942 327:0.030946602 330:0.04065534 331:0.99150485 340:0.0084951456 341:0.30339806 342:0.22936893 343:0.083434466 344:0.20843447 345:0.12803398 346:0.0066747573 350:0.04065534 351:0.38410194 352:0.20782767 353:0.094660194 354:0.058555825 355:0.06098301 356:0.12226942 357:0.030946602 360:0.04065534 
0.04124224383123449 1:0.0041666667 2:0.040178571 3:0.19732143 4:0.35238095 5:0.24940476 6:0.095238095 7:0.03422619 8:0.016071429 9:0.0089285714 10:0.0020833333 11:0.0071428571 12:0.23839286 13:0.38303571 14:0.19196429 15:0.082738095 16:0.05952381 17:0.024404762 18:0.0083333333 19:0.0029761905 20:0.0014880952 21:0.22291667 22:0.22857143 23:0.1 24:0.066666667 25:0.053869048 26:0.061309524 27:0.049702381 28:0.097321429 29:0.099107143 30:0.020535714 31:0.9952381 40:0.0047619048 41:0.041071429 42:0.19880952 43:0.20952381 44:0.078869048 45:0.093154762 46:0.07827381 47:0.088095238 48:0.13452381 49:0.071130952 50:0.006547619 51:0.22291667 52:0.22857143 53:0.1 54:0.066666667 55:0.053869048 56:0.061309524 57:0.049702381 58:0.097321429 59:0.099107143 60:0.020535714 61:0.0020833333 62:0.020535714 63:0.11160714 64:0.13214286 65:0.31904762 66:0.32470238 67:0.047619048 68:0.033035714 69:0.0074404762 70:0.0017857143 71:0.00029761905 72:0.0056547619 73:0.10178571 74:0.12767857 75:0.47857143 76:0.16994048 77:0.094940476 78:0.011309524 79:0.0089285714 80:0.00089285714 81:0.067261905 82:0.072619048 83:0.21488095 84:0.14613095 85:0.21458333 86:0.1672619 87:0.052678571 88:0.042261905 89:0.018452381 90:0.0038690476 91:0.016369048 92:0.1077381 94:0.37440476 96:0.38244048 97:0.083928571 99:0.02797619 100:0.0071428571 101:0.01577381 102:0.049404762 103:0.072619048 104:0.11220238 105:0.18303571 106:0.18928571 107:0.17321429 108:0.13869048 109:0.04077381 110:0.025 111:0.067261905 112:0.072619048 113:0.21488095 114:0.14613095 115:0.21458333 116:0.1672619 117:0.052678571 118:0.042261905 119:0.018452381 120:0.0038690476 121:0.03125 127:0.0017857143 128:0.023511905 129:0.63363095 130:0.30982143 131:0.03125 139:0.1422619 140:0.8264881 141:0.26964286 142:0.67857143 143:0.020535714 150:0.03125 151:0.03125 152:0.010714286 153:0.25416667 155:0.53244048 156:0.13214286 158:0.020238095 159:0.01547619 160:0.0035714286 161:0.1125 162:0.54255952 163:0.30892857 164:0.0047619048 170:0.03125 171:0.26964286 172:0.67857143 173:0.020535714 180:0.03125 181:0.0095238095 184:0.088988095 185:0.60238095 186:0.19494048 187:0.015178571 188:0.031845238 189:0.03452381 190:0.022619048 191:0.0095238095 195:0.57857143 196:0.26041667 197:0.061011905 198:0.017261905 199:0.047619048 200:0.025595238 201:0.17797619 202:0.1452381 203:0.1202381 204:0.039583333 205:0.057440476 206:0.16904762 207:0.18779762 208:0.010416667 209:0.041369048 210:0.050892857 211:0.010714286 213:0.1577381 215:0.47619048 217:0.33571429 219:0.018452381 220:0.0011904762 221:0.063690476 222:0.14017857 223:0.18511905 224:0.15 225:0.29970238 226:0.14434524 227:0.0074404762 230:0.0095238095 231:0.17797619 232:0.1452381 233:0.1202381 234:0.039583333 235:0.057440476 236:0.16904762 237:0.18779762 238:0.010416667 239:0.041369048 240:0.050892857 241:0.0095238095 246:0.046428571 247:0.52113095 248:0.26696429 249:0.11458333 250:0.041369048 251:0.0095238095 256:0.0005952381 257:0.38988095 258:0.32321429 259:0.17738095 260:0.099404762 261:0.10803571 262:0.26815476 263:0.083035714 264:0.1125 265:0.10892857 266:0.19017857 267:0.11964286 270:0.0095238095 271:0.99791667 280:0.0020833333 281:0.10446429 282:0.18363095 283:0.1327381 284:0.20535714 285:0.33005952 286:0.03422619 290:0.0095238095 291:0.10803571 292:0.26815476 293:0.083035714 294:0.1125 295:0.10892857 296:0.19017857 297:0.11964286 300:0.0095238095 301:0.04047619 305:0.0011904762 306:0.016964286 307:0.50089286 308:0.32886905 309:0.072619048 310:0.038988095 311:0.04047619 317:0.066666667 318:0.75178571 319:0.095238095 320:0.045833333 321:0.34404762 322:0.28541667 323:0.089880952 324:0.049702381 325:0.07202381 326:0.095238095 327:0.023214286 330:0.04047619 331:0.063690476 333:0.20238095 335:0.47946429 337:0.20684524 339:0.038095238 340:0.0095238095 341:0.32559524 342:0.2452381 343:0.097619048 344:0.20089286 345:0.088988095 346:0.0011904762 350:0.04047619 351:0.34404762 352:0.28541667 353:0.089880952 354:0.049702381 355:0.07202381 356:0.095238095 357:0.023214286 360:0.04047619 
0.0749948973538721 1:0.0159375 2:0.2096875 3:0.07625 4:0.119375 5:0.1175 6:0.058125 7:0.1084375 8:0.0825 9:0.111875 10:0.1003125 11:0.01 12:0.2959375 13:0.1446875 14:0.061875 15:0.04375 16:0.1040625 17:0.0153125 18:0.1128125 19:0.119375 20:0.0921875 21:0.0003125 22:0.0084375 23:0.071875 24:0.3284375 25:0.25125 27:0.110625 28:0.136875 29:0.0765625 30:0.015625 31:0.01 32:0.258125 35:0.118125 38:0.39625 39:0.17375 40:0.04375 41:0.17375 44:0.258125 47:0.306875 48:0.1040625 49:0.1121875 50:0.045 51:0.01 52:0.2959375 53:0.1446875 54:0.061875 55:0.0328125 56:0.1040625 57:0.0109375 58:0.0953125 59:0.1346875 60:0.1096875 61:0.0875 62:0.1190625 63:0.043125 65:0.115 66:0.281875 68:0.06125 69:0.1690625 70:0.123125 71:0.0015625 72:0.003125 73:0.140625 74:0.205 75:0.1515625 76:0.098125 77:0.1575 78:0.174375 79:0.0153125 80:0.0528125 81:0.0015625 82:0.0015625 83:0.03375 84:0.135625 85:0.2196875 86:0.506875 87:0.0175 88:0.0375 89:0.0175 90:0.0284375 91:0.2 95:0.236875 99:0.369375 100:0.19375 101:0.19375 102:0.0284375 103:0.0415625 104:0.13 107:0.2140625 108:0.2228125 109:0.16625 110:0.003125 111:0.0015625 112:0.003125 113:0.140625 114:0.205 115:0.1515625 116:0.098125 117:0.1575 118:0.174375 119:0.0153125 120:0.0528125 121:0.03125 128:0.155 129:0.5784375 130:0.2353125 131:0.03125 138:0.0025 139:0.4290625 140:0.5371875 141:0.96875 150:0.03125 151:0.03125 156:0.3684375 158:0.266875 160:0.3334375 161:0.8478125 162:0.1209375 170:0.03125 171:0.96875 180:0.03125 181:0.01 185:0.020625 186:0.2028125 187:0.2815625 188:0.228125 189:0.199375 190:0.0575 191:0.01 196:0.2234375 197:0.2815625 198:0.228125 199:0.199375 200:0.0575 201:0.98125 202:0.00875 210:0.01 211:0.01 216:0.155625 218:0.015 220:0.819375 221:0.955625 222:0.034375 230:0.01 231:0.969375 232:0.020625 240:0.01 241:0.01 246:0.0284375 247:0.448125 248:0.136875 249:0.241875 250:0.1346875 251:0.01 257:0.3353125 258:0.278125 259:0.256875 260:0.1196875 261:0.99 270:0.01 271:0.01 276:0.039375 277:0.05 279:0.723125 280:0.1775 281:0.8565625 282:0.1334375 290:0.01 291:0.99 300:0.01 301:0.0409375 307:0.2315625 308:0.5365625 309:0.1071875 310:0.08375 311:0.0409375 318:0.488125 319:0.29 320:0.1809375 321:0.9590625 330:0.0409375 331:0.0409375 336:0.165 337:0.356875 339:0.15625 340:0.2809375 341:0.825 342:0.1340625 350:0.0409375 351:0.9590625 360:0.0409375 
0.006961625697083475 1:0.024621212 2:0.23011364 3:0.16824495 4:0.046401515 5:0.030934343 6:0.067550505 7:0.097853535 8:0.12152778 9:0.13352273 10:0.079229798 11:0.015782828 12:0.25599747 13:0.16319444 14:0.069444444 15:0.041035354 16:0.085858586 17:0.0015782828 18:0.13667929 19:0.14488636 20:0.085542929 21:0.0012626263 22:0.0056818182 23:0.056818182 24:0.29261364 25:0.24589646 26:0.025883838 27:0.13920455 28:0.14709596 29:0.049242424 30:0.036300505 31:0.0075757576 32:0.40025253 35:0.073863636 38:0.46275253 39:0.051767677 40:0.0037878788 41:0.051767677 44:0.3844697 45:0.015782828 47:0.085542929 48:0.27935606 49:0.12373737 50:0.059343434 51:0.015782828 52:0.25599747 53:0.16319444 54:0.069444444 55:0.041035354 56:0.085858586 58:0.1344697 59:0.14646465 60:0.087752525 61:0.1104798 62:0.10511364 63:0.059343434 64:0.090593434 65:0.27872475 66:0.053661616 67:0.16287879 68:0.095012626 70:0.044191919 71:0.0047348485 72:0.15688131 73:0.18276515 74:0.13920455 75:0.15309343 76:0.11837121 77:0.16666667 78:0.022411616 79:0.037878788 80:0.017992424 81:0.0012626263 82:0.025883838 83:0.12310606 84:0.2427399 85:0.25126263 86:0.1875 87:0.065972222 88:0.047664141 89:0.017992424 90:0.036616162 91:0.23484848 95:0.19633838 99:0.33901515 100:0.22979798 101:0.17518939 102:0.054608586 103:0.029040404 104:0.10006313 105:0.10574495 107:0.041666667 108:0.16666667 109:0.29987374 110:0.027146465 111:0.0047348485 112:0.15688131 113:0.18276515 114:0.13920455 115:0.15309343 116:0.11837121 117:0.16666667 118:0.022411616 119:0.037878788 120:0.017992424 121:0.03125 128:0.090593434 129:0.5094697 130:0.36868687 131:0.03125 138:0.0056818182 139:0.36868687 140:0.59438131 141:0.96875 150:0.03125 151:0.03125 156:0.26231061 158:0.18308081 160:0.52335859 161:0.68402778 162:0.28472222 170:0.03125 171:0.96875 180:0.03125 181:0.01010101 186:0.32102273 187:0.18055556 188:0.22664141 189:0.2020202 190:0.059659091 191:0.01010101 196:0.21527778 197:0.28630051 198:0.16856061 199:0.26010101 200:0.059659091 201:0.98106061 202:0.0088383838 210:0.01010101 211:0.01010101 216:0.18055556 218:0.088383838 220:0.7209596 221:0.96685606 222:0.023042929 230:0.01010101 231:0.96433081 232:0.025568182 240:0.01010101 241:0.01010101 246:0.053661616 247:0.40214646 248:0.16887626 249:0.23768939 250:0.12752525 251:0.01010101 257:0.33238636 258:0.28882576 259:0.24116162 260:0.12752525 261:0.98989899 270:0.01010101 271:0.01010101 276:0.050505051 278:0.037878788 280:0.90151515 281:0.88099747 282:0.10890152 290:0.01010101 291:0.98989899 300:0.01010101 301:0.041035354 307:0.086489899 308:0.69191919 309:0.12342172 310:0.057133838 311:0.041035354 318:0.4302399 319:0.35069444 320:0.1780303 321:0.95896465 330:0.041035354 331:0.041035354 336:0.12184343 338:0.42487374 340:0.41224747 341:0.76104798 342:0.19791667 350:0.041035354 351:0.95896465 360:0.041035354 
0.01536072585195596 1:0.012626263 2:0.24494949 3:0.18939394 4:0.017676768 5:0.02020202 6:0.22474747 8:0.24905303 9:0.024621212 10:0.016729798 11:0.012626263 12:0.24494949 13:0.17171717 14:0.045454545 15:0.088383838 16:0.14646465 17:0.052714646 18:0.095328283 19:0.1104798 20:0.031881313 21:0.021464646 22:0.049242424 23:0.31818182 24:0.3030303 25:0.0050505051 26:0.19949495 27:0.067866162 28:0.011994949 29:0.009469697 30:0.014204545 31:0.4040404 35:0.045454545 39:0.43939394 40:0.11111111 41:0.095959596 42:0.015151515 44:0.16414141 45:0.23989899 47:0.0025252525 48:0.2020202 49:0.22222222 50:0.058080808 51:0.012626263 52:0.24494949 53:0.17171717 54:0.045454545 55:0.088383838 56:0.14646465 57:0.052714646 58:0.095328283 59:0.1104798 60:0.031881313 61:0.01010101 62:0.18686869 63:0.073232323 64:0.20012626 65:0.18686869 66:0.050505051 67:0.19444444 68:0.070707071 70:0.027146465 71:0.0050505051 72:0.12121212 73:0.26767677 74:0.10858586 75:0.10353535 76:0.25063131 77:0.098484848 78:0.0050505051 79:0.035353535 80:0.0044191919 81:0.015151515 82:0.073232323 83:0.19949495 84:0.47790404 86:0.13888889 87:0.025252525 88:0.060606061 89:0.0044191919 90:0.0050505051 91:0.18181818 95:0.22790404 99:0.29734848 100:0.29292929 101:0.17676768 102:0.11616162 104:0.01010101 105:0.17171717 108:0.039772727 109:0.32386364 110:0.16161616 111:0.0050505051 112:0.12121212 113:0.26767677 114:0.10858586 115:0.10353535 116:0.25063131 117:0.098484848 118:0.0050505051 119:0.035353535 120:0.0044191919 121:0.03125 128:0.11647727 129:0.59090909 130:0.26136364 131:0.03125 138:0.0012626263 139:0.23611111 140:0.73137626 141:0.96875 150:0.03125 151:0.03125 155:0.033143939 156:0.57575758 158:0.19949495 160:0.16035354 161:0.88510101 162:0.08364899 170:0.03125 171:0.96875 180:0.03125 181:0.01010101 186:0.40814394 187:0.087121212 188:0.19854798 189:0.20170455 190:0.094381313 191:0.01010101 196:0.17361111 197:0.32481061 198:0.10984848 199:0.28787879 200:0.09375 201:0.93907828 202:0.050820707 210:0.01010101 211:0.01010101 215:0.14141414 217:0.26515152 218:0.03030303 219:0.53282828 220:0.02020202 221:0.9135101 222:0.076388889 230:0.01010101 231:0.9157197 232:0.074179293 240:0.01010101 241:0.01010101 246:0.070707071 247:0.47695707 248:0.13699495 249:0.2092803 250:0.095959596 251:0.01010101 257:0.51325758 258:0.16729798 259:0.21338384 260:0.095959596 261:0.98989899 270:0.01010101 271:0.01010101 276:0.050505051 277:0.01010101 278:0.18308081 280:0.74621212 281:0.83617424 282:0.15372475 290:0.01010101 291:0.98989899 300:0.01010101 301:0.041035354 307:0.076388889 308:0.59911616 309:0.10164141 310:0.18181818 311:0.041035354 317:0.0031565657 318:0.53914141 319:0.23484848 320:0.18181818 321:0.95896465 330:0.041035354 331:0.041035354 336:0.12373737 338:0.1969697 340:0.63825758 341:0.83270202 342:0.12626263 350:0.041035354 351:0.95896465 360:0.041035354 
0.01388448541789004 1:0.32206633 2:0.091836735 3:0.0089285714 4:0.024872449 5:0.1307398 6:0.17155612 7:0.095344388 8:0.11383929 9:0.030931122 10:0.0098852041 11:0.31855867 12:0.086415816 13:0.039540816 14:0.13137755 15:0.14126276 16:0.018494898 17:0.09630102 18:0.12531888 19:0.037627551 20:0.0051020408 21:0.035076531 22:0.42283163 23:0.22576531 24:0.0089285714 25:0.10395408 26:0.10522959 27:0.039540816 28:0.020089286 29:0.021364796 30:0.017219388 31:0.45121173 34:0.031568878 37:0.4588648 39:0.056441327 40:0.0019132653 41:0.055803571 42:0.0006377551 43:0.044005102 44:0.088647959 45:0.31855867 47:0.025510204 48:0.32557398 49:0.13584184 50:0.0054209184 51:0.31855867 52:0.086415816 53:0.039540816 54:0.12978316 55:0.14126276 56:0.019770408 57:0.09630102 58:0.12563776 59:0.037627551 60:0.0051020408 61:0.25605867 62:0.037946429 63:0.21077806 64:0.125 65:0.067283163 66:0.17123724 67:0.080994898 68:0.0025510204 69:0.026785714 70:0.021364796 71:0.0025510204 72:0.010841837 73:0.14540816 74:0.30452806 75:0.058354592 76:0.096619898 77:0.21364796 78:0.069515306 79:0.01434949 80:0.084183673 81:0.010522959 82:0.054209184 83:0.22480867 84:0.48341837 85:0.084502551 86:0.017219388 87:0.066326531 88:0.011798469 89:0.01434949 90:0.032844388 91:0.28635204 95:0.140625 99:0.29783163 100:0.27519133 101:0.0625 102:0.21014031 103:0.027104592 104:0.010522959 105:0.25127551 108:0.051339286 109:0.25637755 110:0.1307398 111:0.0025510204 112:0.010841837 113:0.14540816 114:0.30452806 115:0.058354592 116:0.096619898 117:0.21364796 118:0.069515306 119:0.01434949 120:0.084183673 121:0.03125 128:0.041454082 129:0.62053571 130:0.3067602 131:0.03125 139:0.41517857 140:0.55357143 141:0.96875 150:0.03125 151:0.03125 155:0.014030612 156:0.42028061 158:0.41230867 160:0.1221301 161:0.92793367 162:0.040816327 170:0.03125 171:0.96875 180:0.03125 181:0.010204082 185:0.109375 186:0.43144133 187:0.12372449 188:0.20153061 189:0.09247449 190:0.03125 191:0.010204082 196:0.50318878 197:0.20089286 198:0.18112245 199:0.082270408 200:0.022321429 201:0.97066327 202:0.019132653 210:0.010204082 211:0.010204082 216:0.20663265 218:0.19387755 219:0.52200255 220:0.067283163 221:0.89445153 222:0.095344388 230:0.010204082 231:0.95727041 232:0.03252551 240:0.010204082 241:0.010204082 246:0.34470663 247:0.22991071 248:0.20950255 249:0.15497449 250:0.050701531 251:0.010204082 256:0.17028061 257:0.39764031 258:0.21747449 259:0.15593112 260:0.048469388 261:0.98979592 270:0.010204082 271:0.010204082 276:0.0031887755 277:0.14923469 279:0.61033163 280:0.22704082 281:0.83896684 282:0.15082908 290:0.010204082 291:0.98915816 292:0.0006377551 300:0.010204082 301:0.041135204 307:0.031887755 308:0.62818878 309:0.19068878 310:0.10809949 311:0.041135204 317:0.01307398 318:0.55357143 319:0.23501276 320:0.15720663 321:0.9588648 330:0.041135204 331:0.041135204 336:0.037627551 338:0.22767857 340:0.69355867 341:0.76434949 342:0.19451531 350:0.041135204 351:0.9588648 360:0.041135204 
0.05236184764873538 1:0.01 2:0.2475 3:0.105625 4:0.0803125 5:0.05375 6:0.05125 7:0.1528125 8:0.1325 9:0.1109375 10:0.0553125 11:0.01 12:0.2634375 13:0.1428125 14:0.065 15:0.0534375 16:0.1471875 17:0.1675 18:0.083125 19:0.0634375 20:0.0040625 21:0.0325 22:0.0515625 23:0.31 24:0.2365625 25:0.0196875 26:0.115625 27:0.0690625 28:0.0634375 29:0.0621875 30:0.039375 31:0.380625 35:0.075625 39:0.388125 40:0.155625 41:0.0953125 42:0.0603125 43:0.044375 44:0.0090625 45:0.3271875 47:0.000625 48:0.22 49:0.1225 50:0.120625 51:0.01 52:0.2634375 53:0.1428125 54:0.065 55:0.0534375 56:0.1471875 57:0.1675 58:0.083125 59:0.0634375 60:0.0040625 61:0.0021875 62:0.0078125 63:0.105 64:0.1671875 65:0.1096875 66:0.338125 67:0.0125 68:0.15 69:0.0909375 70:0.0165625 71:0.0021875 72:0.0084375 73:0.173125 74:0.2825 75:0.103125 76:0.04375 77:0.193125 78:0.1059375 79:0.005625 80:0.0821875 81:0.0021875 82:0.00875 83:0.191875 84:0.4596875 85:0.20875 86:0.025 87:0.05625 88:0.005 89:0.005625 90:0.036875 91:0.43375 95:0.184375 99:0.163125 100:0.21875 101:0.218125 102:0.000625 103:0.0425 104:0.109375 105:0.2796875 106:0.0021875 108:0.0453125 109:0.1059375 110:0.19625 111:0.0021875 112:0.0084375 113:0.173125 114:0.2825 115:0.103125 116:0.04375 117:0.193125 118:0.1059375 119:0.005625 120:0.0821875 121:0.03125 128:0.1715625 129:0.44375 130:0.3534375 131:0.03125 138:0.0078125 139:0.505 140:0.4559375 141:0.96875 150:0.03125 151:0.03125 155:0.09125 156:0.3334375 158:0.315 160:0.2290625 161:0.8325 162:0.13625 170:0.03125 171:0.96875 180:0.03125 181:0.01 185:0.0603125 186:0.3915625 187:0.1078125 188:0.24125 189:0.1575 190:0.0315625 191:0.01 196:0.3309375 197:0.2015625 198:0.225 199:0.18125 200:0.05125 201:0.98 202:0.01 210:0.01 211:0.01 215:0.02125 216:0.276875 218:0.09875 219:0.5471875 220:0.0459375 221:0.9353125 222:0.0546875 230:0.01 231:0.9584375 232:0.0315625 240:0.01 241:0.01 246:0.045625 247:0.4834375 248:0.13125 249:0.2525 250:0.0771875 251:0.01 257:0.46 258:0.2003125 259:0.2525 260:0.0771875 261:0.99 270:0.01 271:0.01 276:0.06875 280:0.92125 281:0.915 282:0.075 290:0.01 291:0.99 300:0.01 301:0.0409375 307:0.0225 308:0.62625 309:0.26375 310:0.0465625 311:0.0409375 317:0.02625 318:0.505625 319:0.3065625 320:0.120625 321:0.9590625 330:0.0409375 331:0.0409375 336:0.3725 338:0.253125 340:0.3334375 341:0.905625 342:0.0534375 350:0.0409375 351:0.9590625 360:0.0409375 
0.06643925670956477 1:0.28370098 2:0.073529412 3:0.06004902 4:0.070159314 5:0.051470588 6:0.16666667 7:0.010723039 8:0.13296569 9:0.074754902 10:0.075980392 11:0.30974265 12:0.091911765 13:0.10447304 14:0.073529412 15:0.093443627 16:0.024509804 17:0.12806373 18:0.090073529 19:0.074448529 20:0.0098039216 21:0.037071078 22:0.072303922 23:0.37224265 24:0.14828431 25:0.034313725 26:0.12132353 27:0.077205882 28:0.071997549 29:0.024816176 30:0.040441176 31:0.36397059 35:0.11397059 39:0.39828431 40:0.12377451 41:0.056372549 42:0.067401961 43:0.045036765 44:0.021752451 45:0.29718137 47:0.0006127451 48:0.24632353 49:0.093443627 50:0.171875 51:0.30974265 52:0.091911765 53:0.10447304 54:0.073529412 55:0.093443627 56:0.024509804 57:0.12806373 58:0.090073529 59:0.074448529 60:0.0098039216 61:0.073223039 62:0.17984069 63:0.11488971 64:0.17892157 65:0.18229167 66:0.019914216 67:0.15165441 68:0.085477941 69:0.0015318627 70:0.012254902 71:0.010110294 72:0.17371324 73:0.28645833 74:0.060968137 75:0.10569853 76:0.18841912 77:0.089767157 78:0.0055147059 79:0.075367647 80:0.0039828431 81:0.012561275 82:0.24938725 83:0.44883578 84:0.14828431 85:0.03002451 86:0.059742647 87:0.0024509804 88:0.0055147059 89:0.041666667 90:0.0015318627 91:0.37009804 95:0.2120098 99:0.15441176 100:0.26348039 101:0.26286765 102:0.0006127451 103:0.048713235 104:0.070772059 105:0.25061275 108:0.036151961 109:0.089767157 110:0.24050245 111:0.010110294 112:0.17371324 113:0.28645833 114:0.060968137 115:0.10569853 116:0.18841912 117:0.089767157 118:0.0055147059 119:0.075367647 120:0.0039828431 121:0.03125 128:0.27604167 129:0.54381127 130:0.14889706 131:0.03125 139:0.5189951 140:0.4497549 141:0.96875 150:0.03125 151:0.03125 155:0.083639706 156:0.41574755 158:0.23284314 160:0.23651961 161:0.76194853 162:0.20680147 170:0.03125 171:0.96875 180:0.03125 181:0.0098039216 185:0.022058824 186:0.2723652 187:0.20006127 188:0.23406863 189:0.19362745 190:0.068014706 191:0.0098039216 196:0.2935049 197:0.21415441 198:0.22089461 199:0.19362745 200:0.068014706 201:0.98651961 202:0.0036764706 210:0.0098039216 211:0.0098039216 215:0.28431373 216:0.0049019608 218:0.67279412 219:0.025735294 220:0.0024509804 221:0.93443627 222:0.055759804 230:0.0098039216 231:0.96354167 232:0.026654412 240:0.0098039216 241:0.0098039216 246:0.041666667 247:0.46170343 248:0.1439951 249:0.25091912 250:0.091911765 251:0.0098039216 257:0.44944853 258:0.19791667 259:0.25091912 260:0.091911765 261:0.99019608 270:0.0098039216 271:0.0098039216 276:0.046568627 280:0.94362745 281:0.84650735 282:0.14368873 290:0.0098039216 291:0.99019608 300:0.0098039216 301:0.040747549 307:0.33762255 308:0.41544118 309:0.14368873 310:0.0625 311:0.040747549 317:0.022058824 318:0.58057598 319:0.21905637 320:0.13756127 321:0.95925245 330:0.040747549 331:0.040747549 336:0.45802696 338:0.24816176 340:0.25306373 341:0.89276961 342:0.066482843 350:0.040747549 351:0.95925245 360:0.040747549 
0.03111906881545952 1:0.0009469697 2:0.009469697 3:0.27020202 4:0.11111111 5:0.19255051 6:0.011994949 7:0.1489899 8:0.0028409091 9:0.24589646 10:0.0059974747 11:0.11142677 12:0.18181818 13:0.16193182 14:0.099747475 15:0.025883838 16:0.31881313 17:0.087752525 18:0.0075757576 19:0.0034722222 20:0.0015782828 21:0.0097853535 22:0.10669192 23:0.28125 25:0.19349747 26:0.10385101 28:0.27430556 29:0.025883838 30:0.0047348485 31:0.0025252525 35:0.017045455 36:0.00063131313 37:0.0025252525 38:0.66098485 39:0.03030303 40:0.28598485 41:0.015151515 42:0.29513889 43:0.11837121 44:0.066287879 45:0.16035354 46:0.10227273 47:0.20517677 49:0.031881313 50:0.0053661616 51:0.0097853535 52:0.10290404 53:0.27872475 54:0.016729798 55:0.17613636 56:0.11805556 57:0.042929293 58:0.2405303 59:0.0082070707 60:0.0059974747 61:0.0031565657 63:0.06344697 64:0.13541667 65:0.078598485 66:0.29703283 67:0.18244949 68:0.20296717 69:0.035669192 70:0.0012626263 71:0.0028409091 72:0.00031565657 73:0.067234848 74:0.15877525 75:0.12184343 76:0.58459596 77:0.056818182 78:0.0044191919 79:0.00031565657 80:0.0028409091 81:0.00031565657 82:0.0009469697 83:0.009469697 84:0.038510101 85:0.19160354 86:0.38762626 87:0.25410354 88:0.11426768 90:0.0031565657 91:0.16098485 94:0.30050505 97:0.0050505051 100:0.5334596 101:0.29955808 102:0.0009469697 106:0.0047348485 107:0.14583333 108:0.041666667 109:0.4665404 110:0.040719697 111:0.0028409091 112:0.00031565657 113:0.06155303 114:0.12878788 115:0.04229798 116:0.31881313 117:0.20359848 118:0.20486111 119:0.033775253 120:0.0031565657 121:0.03125 127:0.047032828 128:0.44412879 129:0.40909091 130:0.068497475 131:0.03125 137:0.047032828 138:0.44412879 139:0.47064394 140:0.0069444444 141:0.96875 150:0.03125 151:0.03125 159:0.015151515 160:0.95359848 161:0.84406566 162:0.12468434 170:0.03125 171:0.96875 180:0.03125 181:0.01010101 186:0.0082070707 187:0.1780303 188:0.27114899 189:0.38667929 190:0.14583333 191:0.01010101 197:0.037247475 198:0.30618687 199:0.54229798 200:0.10416667 201:0.98989899 210:0.01010101 211:0.01010101 214:0.012626263 215:0.03219697 216:0.0088383838 218:0.45328283 219:0.35037879 220:0.13257576 221:0.46843434 222:0.44191919 223:0.079545455 230:0.01010101 231:0.98989899 240:0.01010101 241:0.01010101 246:0.1032197 247:0.33301768 248:0.13825758 249:0.21559343 250:0.19981061 251:0.01010101 256:0.0018939394 257:0.33112374 258:0.27651515 259:0.18592172 260:0.19444444 261:0.98989899 270:0.01010101 271:0.01010101 275:0.10227273 277:0.018939394 278:0.24684343 279:0.11363636 280:0.50820707 281:0.40183081 282:0.53188131 283:0.056186869 290:0.01010101 291:0.98421717 292:0.0056818182 300:0.01010101 301:0.041035354 305:0.0066287879 306:0.72253788 307:0.044823232 308:0.066603535 309:0.075441919 310:0.042929293 311:0.041035354 316:0.26736111 317:0.49179293 318:0.047979798 319:0.074810606 320:0.077020202 321:0.95896465 330:0.041035354 331:0.041035354 339:0.13573232 340:0.82323232 341:0.91193182 342:0.047032828 350:0.041035354 351:0.92771465 352:0.03125 360:0.041035354 
0.01641484047202157 1:0.0006377551 2:0.00031887755 3:0.015943878 4:0.057397959 5:0.33450255 6:0.016581633 7:0.16709184 8:0.12723214 9:0.050063776 10:0.23022959 11:0.0022321429 12:0.01307398 13:0.057397959 14:0.23501276 15:0.15816327 16:0.090561224 17:0.028061224 18:0.33896684 19:0.071109694 20:0.0054209184 21:0.00031887755 22:0.0022321429 23:0.01307398 24:0.06122449 25:0.32461735 26:0.17538265 27:0.13010204 28:0.27040816 29:0.018494898 30:0.0041454082 31:0.0038265306 35:0.011479592 38:0.6875 39:0.020408163 40:0.27678571 41:0.0054209184 42:0.13998724 43:0.28890306 44:0.013392857 45:0.069196429 46:0.16517857 47:0.089604592 48:0.20790816 50:0.020408163 51:0.0006377551 52:0.0022321429 53:0.071109694 54:0.2216199 55:0.11256378 56:0.17633929 57:0.0079719388 58:0.16868622 59:0.0086096939 60:0.23022959 61:0.0079719388 62:0.079719388 63:0.1533801 64:0.073979592 65:0.15880102 66:0.099170918 67:0.10809949 68:0.28858418 69:0.02997449 70:0.00031887755 71:0.0066964286 72:0.0012755102 73:0.07940051 74:0.18845663 75:0.12595663 76:0.18909439 77:0.35873724 78:0.049107143 79:0.00031887755 80:0.00095663265 81:0.0012755102 83:0.0070153061 84:0.058992347 85:0.19834184 86:0.31919643 87:0.34279337 88:0.071428571 90:0.00095663265 91:0.14413265 94:0.30357143 100:0.55229592 101:0.30357143 106:0.0006377551 107:0.020089286 108:0.1221301 109:0.3182398 110:0.23533163 111:0.0079719388 112:0.07940051 113:0.14158163 114:0.046556122 115:0.12818878 116:0.14955357 117:0.12755102 118:0.28890306 119:0.029336735 120:0.00095663265 121:0.03125 127:0.051977041 128:0.49904337 129:0.33960459 130:0.078125 131:0.03125 137:0.052614796 138:0.49904337 139:0.40210459 140:0.014987245 141:0.96875 150:0.03125 151:0.03125 158:0.86288265 159:0.10459184 160:0.0012755102 161:0.85778061 162:0.11096939 170:0.03125 171:0.96875 180:0.03125 181:0.010204082 186:0.0086096939 187:0.16996173 188:0.359375 189:0.24457908 190:0.20727041 191:0.010204082 197:0.030293367 198:0.265625 199:0.55133929 200:0.14253827 201:0.98979592 210:0.010204082 211:0.010204082 215:0.031887755 216:0.0089285714 217:0.006377551 218:0.36160714 219:0.36989796 220:0.21109694 221:0.34406888 222:0.48054847 223:0.16517857 230:0.010204082 231:0.98979592 240:0.010204082 241:0.010204082 246:0.22704082 247:0.35044643 248:0.10969388 249:0.14955357 250:0.15306122 251:0.010204082 256:0.019451531 257:0.53985969 258:0.15561224 259:0.14445153 260:0.13042092 261:0.98979592 270:0.010204082 271:0.010204082 275:0.075255102 278:0.29846939 279:0.50892857 280:0.10714286 281:0.46683673 282:0.48182398 283:0.041135204 290:0.010204082 291:0.93399235 292:0.055803571 300:0.010204082 301:0.041135204 305:0.022321429 306:0.71843112 307:0.04559949 308:0.039859694 309:0.076211735 310:0.056441327 311:0.041135204 315:0.0006377551 316:0.75 317:0.02869898 318:0.052295918 319:0.074936224 320:0.052295918 321:0.95471939 322:0.0041454082 330:0.041135204 331:0.041135204 335:0.029336735 338:0.78794643 339:0.12244898 340:0.019132653 341:0.90816327 342:0.050701531 350:0.041135204 351:0.89477041 352:0.064094388 360:0.041135204 
0.02345283977460867 1:0.066156915 2:0.04587766 3:0.1200133 4:0.24368351 5:0.083444149 6:0.27792553 7:0.1456117 8:0.012632979 9:0.0039893617 10:0.00066489362 11:0.078125 12:0.07712766 13:0.031582447 14:0.045545213 15:0.26961436 16:0.46110372 17:0.030585106 18:0.0036569149 19:0.0019946809 20:0.00066489362 21:0.0073138298 22:0.10904255 23:0.081117021 24:0.26761968 26:0.19115691 27:0.33078457 28:0.011303191 29:0.00099734043 30:0.00066489362 31:0.026595745 34:0.34973404 36:0.019946809 37:0.23005319 38:0.31781915 39:0.054521277 40:0.0013297872 41:0.06150266 42:0.075465426 43:0.11203457 44:0.21542553 45:0.25731383 46:0.068151596 47:0.070478723 48:0.029920213 49:0.094414894 50:0.015292553 51:0.066156915 52:0.04587766 53:0.1200133 54:0.24368351 55:0.083444149 56:0.27792553 57:0.1456117 58:0.012632979 59:0.0039893617 60:0.00066489362 61:0.00066489362 62:0.0063164894 63:0.10771277 64:0.11768617 65:0.043550532 66:0.075797872 67:0.49634309 68:0.0036569149 69:0.076462766 70:0.071808511 71:0.00066489362 72:0.0059840426 73:0.10704787 74:0.084109043 75:0.09474734 76:0.39295213 77:0.14860372 78:0.028922872 79:0.041888298 80:0.095079787 81:0.00099734043 82:0.0049867021 83:0.038896277 84:0.19448138 86:0.44481383 87:0.17619681 88:0.090425532 89:0.044215426 90:0.0049867021 91:0.071808511 93:0.19547872 95:0.049202128 98:0.64893617 100:0.034574468 101:0.19547872 105:0.020279255 106:0.0625 107:0.58277926 108:0.051196809 109:0.034574468 110:0.053191489 111:0.00066489362 112:0.0059840426 113:0.10505319 114:0.092420213 115:0.057845745 116:0.075465426 117:0.50831117 118:0.0023271277 119:0.080119681 120:0.071808511 121:0.03125 127:0.023603723 128:0.39660904 129:0.42819149 130:0.12034574 131:0.03125 137:0.023603723 138:0.39694149 139:0.49368351 140:0.054521277 141:0.96875 150:0.03125 151:0.03125 159:0.025265957 160:0.94348404 161:0.80585106 162:0.16289894 170:0.03125 171:0.96875 180:0.03125 181:0.010638298 186:0.047207447 187:0.10039894 188:0.42553191 189:0.26961436 190:0.14660904 191:0.010638298 197:0.10837766 198:0.32679521 199:0.45079787 200:0.10339096 201:0.9893617 210:0.010638298 211:0.010638298 214:0.0079787234 215:0.011968085 216:0.0013297872 218:0.27393617 219:0.28125 220:0.41289894 221:0.29920213 222:0.45279255 223:0.23736702 230:0.010638298 231:0.94647606 232:0.042885638 240:0.010638298 241:0.010638298 245:0.035239362 246:0.30285904 247:0.21775266 248:0.22672872 249:0.16888298 250:0.037898936 251:0.010638298 256:0.0026595745 257:0.35804521 258:0.25 259:0.17287234 260:0.20578457 261:0.9893617 270:0.010638298 271:0.010638298 275:0.039893617 278:0.22007979 279:0.48204787 280:0.24734043 281:0.26595745 282:0.61668883 283:0.10671543 290:0.010638298 291:0.8956117 292:0.09375 300:0.010638298 301:0.041555851 305:0.012632979 306:0.30053191 307:0.50332447 308:0.053523936 309:0.036901596 310:0.051529255 311:0.041555851 316:0.28324468 317:0.53324468 318:0.055851064 319:0.047539894 320:0.03856383 321:0.95844415 330:0.041555851 331:0.041555851 335:0.056515957 338:0.77759309 339:0.10039894 340:0.02393617 341:0.86336436 342:0.095079787 350:0.041555851 351:0.94547872 352:0.012965426 360:0.041555851 
0.1016375499173147 1:0.011842105 2:0.026973684 3:0.045065789 4:0.098355263 5:0.22434211 6:0.23256579 7:0.22006579 8:0.10822368 9:0.019078947 10:0.013486842 11:0.0085526316 12:0.018092105 13:0.045065789 14:0.061184211 15:0.10427632 16:0.34736842 17:0.22960526 18:0.12532895 19:0.034868421 20:0.025657895 21:0.0016447368 22:0.0125 23:0.020394737 24:0.086842105 25:0.33190789 26:0.38585526 27:0.09375 28:0.033552632 29:0.032894737 30:0.00065789474 31:0.0052631579 33:0.0013157895 34:0.021052632 36:0.088815789 37:0.36447368 38:0.40723684 39:0.098684211 40:0.013157895 41:0.024342105 42:0.018092105 43:0.067763158 44:0.14605263 45:0.074671053 46:0.092434211 47:0.38388158 48:0.10394737 49:0.080592105 50:0.0082236842 51:0.020723684 52:0.01875 53:0.044407895 54:0.21151316 55:0.11118421 56:0.23256579 57:0.28651316 58:0.041776316 59:0.019078947 60:0.013486842 61:0.0042763158 62:0.12105263 63:0.19440789 64:0.092434211 65:0.16677632 66:0.099013158 67:0.11052632 68:0.080592105 69:0.087828947 70:0.043092105 71:0.0042763158 72:0.046710526 73:0.13059211 74:0.24144737 75:0.11677632 76:0.13552632 77:0.13355263 78:0.070065789 79:0.11644737 80:0.0046052632 81:0.0065789474 82:0.035855263 83:0.092105263 84:0.18453947 85:0.30460526 86:0.10690789 87:0.052302632 88:0.175 89:0.040460526 90:0.0016447368 91:0.076315789 93:0.22828947 94:0.046052632 96:0.51381579 98:0.092105263 100:0.043421053 101:0.22828947 103:0.042105263 104:0.00032894737 105:0.20394737 106:0.24473684 107:0.053618421 108:0.12960526 109:0.077302632 110:0.020065789 111:0.0042763158 112:0.11480263 113:0.19013158 114:0.064802632 115:0.20493421 116:0.099013158 117:0.11052632 118:0.080592105 119:0.087828947 120:0.043092105 121:0.03125 127:0.040131579 128:0.34375 129:0.50493421 130:0.079934211 131:0.03125 138:0.36480263 139:0.46842105 140:0.13552632 141:0.96875 150:0.03125 151:0.03125 156:0.054934211 159:0.034868421 160:0.87894737 161:0.86348684 162:0.10526316 170:0.03125 171:0.96875 180:0.03125 181:0.010526316 186:0.032894737 187:0.22138158 188:0.25921053 189:0.30526316 190:0.17072368 191:0.010526316 197:0.067763158 198:0.19243421 199:0.47861842 200:0.25065789 201:0.98947368 210:0.010526316 211:0.010526316 216:0.019736842 217:0.0013157895 218:0.16447368 219:0.38421053 220:0.41973684 221:0.25888158 222:0.25 223:0.45 224:0.030592105 230:0.010526316 231:0.81875 232:0.17072368 240:0.010526316 241:0.010526316 246:0.094078947 247:0.34177632 248:0.24440789 249:0.22631579 250:0.082894737 251:0.010526316 257:0.19407895 258:0.36381579 259:0.24638158 260:0.18519737 261:0.98947368 270:0.010526316 271:0.010526316 278:0.17302632 279:0.056578947 280:0.75986842 281:0.62796053 282:0.31184211 283:0.049671053 290:0.010526316 291:0.96743421 292:0.022039474 300:0.010526316 301:0.041447368 305:0.032565789 306:0.65756579 307:0.15625 308:0.065460526 309:0.0375 310:0.0092105263 311:0.041447368 316:0.51677632 317:0.29769737 318:0.067763158 319:0.048355263 320:0.027960526 321:0.95855263 330:0.041447368 331:0.041447368 334:0.011842105 335:0.067763158 336:0.088815789 338:0.64144737 339:0.13947368 340:0.0092105263 341:0.58717105 342:0.36217105 343:0.0092105263 350:0.041447368 351:0.94243421 352:0.016118421 360:0.041447368 
0.01305365337201743 1:0.052083333 4:0.0052083333 5:0.078125 6:0.15071615 7:0.18391927 8:0.16992188 9:0.2874349 10:0.072591146 11:0.37565104 12:0.028971354 13:0.39811198 14:0.14518229 20:0.052083333 21:0.37760417 22:0.0061848958 23:0.20703125 24:0.35709635 30:0.052083333 31:0.052083333 37:0.40755208 38:0.42057292 39:0.109375 40:0.010416667 41:0.17838542 42:0.27929688 43:0.1110026 44:0.005859375 45:0.049479167 46:0.18522135 47:0.13867188 50:0.052083333 51:0.093424479 52:0.25553385 53:0.14941406 54:0.37695312 55:0.072591146 60:0.052083333 61:0.11783854 63:0.00032552083 64:0.013346354 65:0.03125 66:0.12597656 67:0.35481771 68:0.22102865 69:0.11621094 70:0.019205729 71:0.21191406 72:0.42480469 73:0.22233073 74:0.023111979 80:0.11783854 81:0.61751302 82:0.019856771 83:0.070638021 84:0.17415365 90:0.11783854 91:0.014322917 92:0.11783854 96:0.051432292 97:0.68815104 98:0.10091146 99:0.017578125 100:0.009765625 101:0.097330729 102:0.11393229 103:0.030924479 104:0.018554688 105:0.026367188 106:0.17382812 107:0.41699219 108:0.0042317708 110:0.11783854 111:0.018554688 112:0.17545573 113:0.51041667 114:0.16829427 115:0.0094401042 120:0.11783854 121:0.03125 123:0.031575521 124:0.034179688 125:0.041341146 126:0.10839844 127:0.23046875 128:0.31640625 129:0.17708333 130:0.029296875 131:0.03125 133:0.0029296875 134:0.020182292 135:0.037109375 136:0.041992188 137:0.14615885 138:0.49902344 139:0.203125 140:0.018229167 141:0.92513021 142:0.043619792 150:0.03125 151:0.03125 159:0.0234375 160:0.9453125 161:0.017903646 162:0.028320312 163:0.018880208 164:0.051757812 165:0.19335938 166:0.56217448 167:0.096354167 170:0.03125 171:0.067382812 172:0.16927083 173:0.56542969 174:0.16666667 180:0.03125 181:0.0625 184:0.00065104167 185:0.11621094 186:0.13867188 187:0.078450521 188:0.1640625 189:0.33040365 190:0.10904948 191:0.010416667 192:0.18815104 193:0.26660156 194:0.390625 195:0.092122396 200:0.052083333 201:0.40527344 202:0.059570312 203:0.013346354 204:0.30598958 205:0.15332031 210:0.0625 211:0.04296875 212:0.052083333 213:0.0013020833 216:0.23307292 217:0.24283854 218:0.13020833 219:0.16210938 220:0.13541667 221:0.17936198 222:0.29361979 223:0.010742188 224:0.054361979 225:0.15690104 226:0.11002604 227:0.072265625 228:0.060221354 230:0.0625 231:0.2171224 232:0.1077474 233:0.30240885 234:0.31022135 240:0.0625 241:0.041992188 243:0.00065104167 244:0.0026041667 245:0.0029296875 246:0.018880208 247:0.10026042 248:0.39257812 249:0.34505208 250:0.095052083 251:0.010416667 252:0.0091145833 253:0.76041667 254:0.18652344 255:0.001953125 260:0.031575521 261:0.72005208 262:0.065104167 263:0.036458333 264:0.13639323 270:0.041992188 271:0.010416667 272:0.031575521 277:0.75423177 278:0.078125 279:0.10449219 280:0.021158854 281:0.083984375 282:0.067382812 283:0.013671875 284:0.01171875 285:0.015299479 286:0.064778646 287:0.43164062 288:0.26953125 290:0.041992188 291:0.00390625 292:0.025716146 293:0.31119792 294:0.58658854 295:0.030598958 300:0.041992188 301:0.041341146 303:0.00032552083 304:0.00390625 305:0.12597656 306:0.30338542 307:0.38346354 308:0.095703125 309:0.033854167 310:0.012044271 311:0.041341146 313:0.00032552083 314:0.00032552083 315:0.14192708 316:0.44921875 317:0.24609375 318:0.072916667 319:0.036458333 320:0.011393229 321:0.036458333 322:0.91959635 323:0.0026041667 330:0.041341146 331:0.041341146 340:0.95865885 341:0.009765625 342:0.081705729 343:0.22851562 344:0.29882812 345:0.29915365 346:0.0390625 347:0.0009765625 348:0.00032552083 349:0.00032552083 350:0.041341146 351:0.015950521 352:0.29003906 353:0.52441406 354:0.10449219 355:0.0234375 356:0.00032552083 360:0.041341146 
0.01460425418750148 1:0.051546392 4:0.00096649485 5:0.090850515 6:0.15657216 7:0.17300258 8:0.16140464 9:0.27448454 10:0.09117268 11:0.38724227 12:0.019974227 13:0.41333763 14:0.12789948 20:0.051546392 21:0.39014175 22:0.006443299 23:0.16494845 24:0.3869201 30:0.051546392 31:0.051546392 37:0.39529639 38:0.43331186 39:0.11146907 40:0.0083762887 41:0.10502577 42:0.30219072 43:0.14658505 44:0.0080541237 45:0.053479381 46:0.1810567 47:0.15206186 50:0.051546392 51:0.1121134 52:0.24838918 53:0.14851804 54:0.36372423 55:0.075708763 60:0.051546392 61:0.11984536 63:0.0016108247 64:0.018041237 65:0.034471649 66:0.097938144 67:0.33666237 68:0.25096649 69:0.1185567 70:0.021907216 71:0.14884021 72:0.5128866 73:0.19716495 74:0.021262887 80:0.11984536 81:0.65109536 82:0.014497423 83:0.057345361 84:0.15721649 90:0.11984536 91:0.0006443299 92:0.11984536 96:0.080219072 97:0.67622423 98:0.086984536 99:0.023840206 100:0.012242268 101:0.11404639 102:0.081185567 103:0.022551546 104:0.02931701 105:0.046069588 106:0.1994201 107:0.38112113 108:0.006443299 110:0.11984536 111:0.025773196 112:0.11759021 113:0.54349227 114:0.18460052 115:0.0086984536 120:0.11984536 121:0.03125 122:0.00032216495 123:0.051224227 124:0.023840206 125:0.080219072 126:0.11630155 127:0.22197165 128:0.29220361 129:0.16011598 130:0.022551546 131:0.03125 133:0.0032216495 134:0.025773196 135:0.044136598 136:0.1001933 137:0.20425258 138:0.50451031 139:0.082474227 140:0.0041881443 141:0.94168814 142:0.027061856 150:0.03125 151:0.03125 159:0.039304124 160:0.92944588 161:0.030283505 162:0.028350515 163:0.023195876 164:0.074742268 165:0.19974227 166:0.52963918 167:0.082796392 170:0.03125 171:0.075386598 172:0.19136598 173:0.50032216 174:0.19845361 175:0.0032216495 180:0.03125 181:0.06185567 185:0.10695876 186:0.1378866 187:0.074420103 188:0.14722938 189:0.33054124 190:0.14110825 191:0.010309278 192:0.18395619 193:0.28608247 194:0.37757732 195:0.090528351 200:0.051546392 201:0.42847938 202:0.048002577 203:0.013853093 204:0.33279639 205:0.11501289 210:0.06185567 211:0.043170103 212:0.051546392 216:0.20876289 217:0.27770619 218:0.17686856 219:0.14722938 220:0.094716495 221:0.22132732 222:0.24130155 223:0.0070876289 224:0.056378866 225:0.16333763 226:0.10373711 227:0.070876289 228:0.074097938 230:0.06185567 231:0.2068299 232:0.10728093 233:0.28125 234:0.34278351 240:0.06185567 241:0.046391753 243:0.0022551546 244:0.0041881443 245:0.0016108247 246:0.019974227 247:0.10180412 248:0.38015464 249:0.34407216 250:0.099548969 251:0.010631443 252:0.015141753 253:0.76997423 254:0.16720361 255:0.00096649485 260:0.036082474 261:0.0048324742 262:0.79574742 263:0.024806701 264:0.12242268 265:0.0057989691 270:0.046391753 271:0.010309278 273:0.036082474 277:0.044780928 278:0.80444588 279:0.059278351 280:0.045103093 281:0.061533505 282:0.0625 283:0.014819588 284:0.011275773 285:0.012242268 286:0.054768041 287:0.43460052 288:0.30154639 290:0.046713918 291:0.0057989691 292:0.0080541237 293:0.15786082 294:0.65238402 295:0.12951031 300:0.046391753 301:0.041237113 303:0.00032216495 304:0.021907216 305:0.14078608 306:0.31411082 307:0.33118557 308:0.097293814 309:0.038981959 310:0.014175258 311:0.041237113 313:0.00032216495 314:0.0045103093 315:0.17106959 316:0.43653351 317:0.21875 318:0.077641753 319:0.037371134 320:0.012564433 321:0.91140464 322:0.046069588 323:0.0012886598 330:0.041237113 331:0.041237113 340:0.95876289 341:0.014175258 342:0.079896907 343:0.19039948 344:0.31475515 345:0.29864691 346:0.058956186 347:0.0019329897 350:0.041237113 351:0.0006443299 352:0.16237113 353:0.48743557 354:0.25515464 355:0.048002577 356:0.0051546392 360:0.041237113 
0.07965286689870171 1:0.018685567 2:0.070554124 3:0.058634021 4:0.16527062 5:0.15786082 6:0.044780928 7:0.09310567 8:0.19426546 9:0.15238402 10:0.044458763 11:0.069265464 12:0.11565722 13:0.2628866 14:0.0083762887 15:0.0032216495 16:0.011597938 17:0.02996134 18:0.14143041 19:0.28479381 20:0.072809278 21:0.28994845 22:0.15914948 23:0.006121134 24:0.0019329897 25:0.0019329897 26:0.0025773196 27:0.0025773196 28:0.011597938 29:0.18395619 30:0.34020619 31:0.22809278 32:0.26997423 33:0.2306701 34:0.15914948 35:0.038015464 36:0.038659794 37:0.024162371 38:0.0070876289 39:0.0028994845 40:0.0012886598 41:0.050579897 42:0.19587629 43:0.21907216 44:0.073775773 45:0.010953608 46:0.017719072 47:0.053157216 48:0.10115979 49:0.24516753 50:0.03253866 51:0.018685567 52:0.070554124 53:0.058634021 54:0.16527062 55:0.15786082 56:0.044780928 57:0.09310567 58:0.19426546 59:0.15238402 60:0.044458763 61:0.006443299 62:0.014175258 63:0.018685567 64:0.073453608 65:0.11146907 66:0.28608247 67:0.30734536 68:0.10115979 69:0.0625 70:0.018685567 71:0.0041881443 72:0.022551546 73:0.09375 74:0.5128866 75:0.086662371 76:0.0057989691 77:0.043170103 78:0.10534794 79:0.11243557 80:0.013208763 81:0.012564433 82:0.33118557 83:0.3630799 84:0.014497423 85:0.0093427835 86:0.0025773196 87:0.0051546392 88:0.016752577 89:0.10728093 90:0.13756443 91:0.0038659794 96:0.0045103093 97:0.78189433 98:0.13627577 99:0.043170103 100:0.030283505 101:0.050579897 102:0.12210052 103:0.063466495 104:0.030283505 105:0.021907216 106:0.031572165 107:0.070231959 108:0.18427835 109:0.40947165 110:0.016108247 111:0.006443299 112:0.014175258 113:0.018685567 114:0.073453608 115:0.10180412 116:0.29027062 117:0.31282216 118:0.10115979 119:0.0625 120:0.018685567 121:0.03125 122:0.00032216495 123:0.058311856 124:0.032860825 125:0.092139175 126:0.12918814 127:0.29993557 128:0.27448454 129:0.068621134 130:0.012886598 131:0.03125 133:0.0016108247 134:0.041237113 135:0.046391753 136:0.094716495 137:0.26804124 138:0.46005155 139:0.053479381 140:0.0032216495 141:0.21005155 142:0.75837629 143:0.00032216495 150:0.03125 151:0.03125 159:0.030927835 160:0.93782216 161:0.026417526 162:0.046713918 163:0.023518041 164:0.093427835 165:0.2628866 166:0.45393041 167:0.060244845 168:0.00096649485 169:0.0006443299 170:0.03125 171:0.089561856 172:0.17751289 173:0.49742268 174:0.2003866 175:0.0038659794 180:0.03125 181:0.010309278 185:0.12435567 186:0.12918814 187:0.072487113 188:0.2628866 189:0.34181701 190:0.058956186 191:0.010309278 194:0.010953608 195:0.19039948 196:0.13659794 197:0.11565722 198:0.02931701 199:0.32152062 200:0.18524485 201:0.42171392 202:0.042847938 203:0.015141753 204:0.39529639 205:0.11469072 210:0.010309278 211:0.038015464 216:0.19201031 217:0.27899485 218:0.18556701 219:0.16108247 220:0.1443299 221:0.13402062 222:0.38402062 223:0.017074742 224:0.024484536 225:0.16430412 226:0.1121134 227:0.071520619 228:0.082152062 230:0.010309278 231:0.20876289 232:0.10341495 233:0.39884021 234:0.27867268 240:0.010309278 241:0.010309278 243:0.00032216495 244:0.0022551546 245:0.0028994845 246:0.020940722 247:0.16559278 248:0.49130155 249:0.2748067 250:0.031572165 251:0.010309278 253:0.0006443299 254:0.00096649485 255:0.0086984536 256:0.16978093 257:0.56958763 258:0.06314433 259:0.13498711 260:0.041881443 261:0.0025773196 262:0.7876933 263:0.027384021 264:0.16108247 265:0.010953608 270:0.010309278 271:0.010309278 277:0.81765464 278:0.074097938 279:0.076675258 280:0.021262887 281:0.11759021 282:0.050902062 283:0.012564433 284:0.012564433 285:0.010953608 286:0.06378866 287:0.4742268 288:0.24645619 289:0.00032216495 290:0.010631443 291:0.0038659794 292:0.026739691 293:0.45650773 294:0.48002577 295:0.022551546 300:0.010309278 301:0.041237113 304:0.0038659794 305:0.12918814 306:0.2867268 307:0.32087629 308:0.17010309 309:0.036082474 310:0.011920103 311:0.041237113 314:0.0083762887 315:0.17010309 316:0.46423969 317:0.20650773 318:0.081829897 319:0.022551546 320:0.0051546392 321:0.9568299 322:0.0019329897 330:0.041237113 331:0.041237113 340:0.95876289 341:0.048002577 342:0.11662371 343:0.23840206 344:0.32152062 345:0.21552835 346:0.016752577 347:0.0019329897 350:0.041237113 351:0.1810567 352:0.46295103 353:0.26675258 354:0.038659794 355:0.0093427835 360:0.041237113 
0.03496914857576393 1:0.052631579 4:0.0065789474 5:0.076315789 6:0.12203947 7:0.23190789 8:0.060526316 9:0.27697368 10:0.17302632 11:0.38782895 12:0.027302632 13:0.38190789 14:0.15032895 20:0.052631579 21:0.39835526 22:0.0065789474 23:0.12664474 24:0.41578947 30:0.052631579 31:0.052631579 36:0.0052631579 37:0.72763158 38:0.18815789 39:0.014473684 40:0.011842105 41:0.050328947 42:0.28355263 43:0.21414474 44:0.0075657895 45:0.045065789 46:0.17203947 47:0.17434211 48:0.00032894737 50:0.052631579 51:0.082894737 52:0.21151316 53:0.16809211 54:0.31184211 55:0.17302632 60:0.052631579 61:0.11578947 64:0.017434211 65:0.045065789 66:0.13815789 67:0.33059211 68:0.22598684 69:0.10230263 70:0.024671053 71:0.36151316 72:0.27269737 73:0.22861842 74:0.021381579 80:0.11578947 81:0.61644737 82:0.021052632 83:0.046710526 84:0.2 90:0.11578947 91:0.0065789474 92:0.11578947 96:0.076315789 97:0.68355263 98:0.0875 99:0.014473684 100:0.015789474 101:0.025 102:0.17105263 103:0.044736842 104:0.018092105 105:0.03125 106:0.15131579 107:0.43026316 108:0.0125 110:0.11578947 111:0.030263158 112:0.18980263 113:0.50921053 114:0.14342105 115:0.011513158 120:0.11578947 121:0.03125 122:0.00065789474 123:0.047697368 124:0.035197368 125:0.055592105 126:0.13223684 127:0.30953947 128:0.31217105 129:0.059539474 130:0.016118421 131:0.03125 133:0.0023026316 134:0.024342105 135:0.048355263 136:0.035855263 137:0.16217105 138:0.56546053 139:0.11743421 140:0.012828947 141:0.076644737 142:0.89013158 143:0.0019736842 150:0.03125 151:0.03125 159:0.021381579 160:0.94736842 161:0.014473684 162:0.045723684 163:0.025986842 164:0.072039474 165:0.21875 166:0.51875 167:0.071052632 168:0.00065789474 169:0.00065789474 170:0.031907895 171:0.077960526 172:0.13388158 173:0.54473684 174:0.20657895 175:0.0055921053 180:0.03125 181:0.063157895 185:0.10098684 186:0.13914474 187:0.082236842 188:0.15493421 189:0.35361842 190:0.10592105 191:0.010526316 192:0.16447368 193:0.25953947 194:0.42894737 195:0.083881579 200:0.052631579 201:0.39309211 202:0.035855263 203:0.014144737 204:0.37796053 205:0.11578947 210:0.063157895 211:0.078947368 212:0.052631579 216:0.22763158 217:0.20986842 218:0.14013158 219:0.15 220:0.14078947 221:0.22796053 222:0.28190789 223:0.011184211 224:0.063486842 225:0.14967105 226:0.089802632 227:0.061513158 228:0.051315789 230:0.063157895 231:0.22631579 232:0.088157895 233:0.37335526 234:0.24901316 240:0.063157895 241:0.049013158 245:0.00065789474 246:0.0042763158 247:0.1125 248:0.38947368 249:0.35657895 250:0.0875 251:0.010526316 252:0.00065789474 253:0.73782895 254:0.2125 260:0.038486842 261:0.72894737 262:0.023355263 263:0.099013158 264:0.099671053 270:0.049013158 271:0.011842105 272:0.038486842 277:0.78552632 278:0.066447368 279:0.085526316 280:0.012171053 281:0.12697368 282:0.058223684 283:0.014144737 284:0.013486842 285:0.0092105263 286:0.046381579 287:0.37236842 288:0.31019737 290:0.049013158 291:0.021710526 292:0.35427632 293:0.52302632 294:0.051973684 300:0.049013158 301:0.041447368 305:0.011513158 306:0.15131579 307:0.30723684 308:0.33157895 309:0.13322368 310:0.023684211 311:0.041447368 315:0.00625 316:0.20592105 317:0.37697368 318:0.27368421 319:0.078947368 320:0.016776316 321:0.95822368 322:0.00032894737 330:0.041447368 331:0.041447368 340:0.95855263 341:0.026644737 342:0.087828947 343:0.23782895 344:0.35361842 345:0.24210526 346:0.0078947368 347:0.0026315789 350:0.041447368 351:0.13388158 352:0.50394737 353:0.29375 354:0.026973684 360:0.041447368 
0.06018704743853921 1:0.033163265 2:0.014030612 3:0.034119898 4:0.031887755 5:0.064413265 6:0.19164541 7:0.16836735 8:0.17984694 9:0.2598852 10:0.022640306 11:0.053890306 12:0.055165816 13:0.14859694 14:0.13584184 15:0.036989796 16:0.015943878 17:0.088647959 18:0.073341837 19:0.20471939 20:0.18686224 21:0.29368622 22:0.12308673 23:0.010522959 24:0.0095663265 25:0.0076530612 26:0.015625 27:0.13584184 28:0.16932398 29:0.17538265 30:0.059311224 31:0.013392857 36:0.22002551 37:0.28188776 38:0.28252551 39:0.098214286 40:0.10395408 41:0.17219388 42:0.32940051 43:0.062181122 44:0.0095663265 45:0.027104592 46:0.01434949 47:0.056122449 48:0.1434949 49:0.16167092 50:0.023915816 51:0.033163265 52:0.014030612 53:0.034119898 54:0.035395408 55:0.058035714 56:0.17697704 57:0.17442602 58:0.14190051 59:0.27359694 60:0.058354592 61:0.029017857 62:0.053252551 63:0.023915816 64:0.10299745 65:0.14285714 66:0.27295918 67:0.24170918 68:0.10873724 69:0.019451531 70:0.0051020408 71:0.043048469 72:0.086734694 73:0.29017857 74:0.29432398 75:0.048469388 76:0.0070153061 77:0.006377551 78:0.15880102 79:0.06122449 80:0.0038265306 81:0.17665816 82:0.57557398 83:0.0098852041 84:0.006377551 85:0.0057397959 86:0.0070153061 87:0.013711735 88:0.037627551 89:0.1307398 90:0.036670918 91:0.054846939 96:0.20216837 97:0.60012755 98:0.015943878 99:0.021683673 100:0.10522959 101:0.019451531 102:0.16772959 103:0.058354592 104:0.026147959 105:0.041135204 106:0.037308673 107:0.13807398 108:0.20663265 109:0.28380102 110:0.021364796 111:0.029017857 112:0.053252551 113:0.023915816 114:0.10299745 115:0.14285714 116:0.27168367 117:0.11894133 118:0.14317602 119:0.10554847 120:0.0086096939 121:0.03125 123:0.077168367 124:0.044642857 125:0.0070153061 126:0.048788265 127:0.26403061 128:0.26020408 129:0.22130102 130:0.04559949 131:0.03125 134:0.06377551 135:0.058354592 136:0.010522959 137:0.22353316 138:0.40975765 139:0.1377551 140:0.06505102 141:0.95089286 142:0.017857143 150:0.03125 151:0.03125 156:0.0038265306 158:0.042091837 159:0.045918367 160:0.87691327 161:0.021045918 162:0.077806122 163:0.022640306 164:0.020408163 165:0.2471301 166:0.48852041 167:0.09119898 170:0.03125 171:0.12468112 172:0.26626276 173:0.54846939 174:0.029336735 180:0.03125 181:0.010204082 183:0.0044642857 184:0.035714286 185:0.10204082 186:0.18494898 187:0.41868622 188:0.23820153 189:0.0047831633 190:0.00095663265 191:0.010204082 193:0.00031887755 194:0.060586735 195:0.19993622 196:0.24553571 197:0.030612245 198:0.20216837 199:0.14955357 200:0.10108418 201:0.46205357 202:0.073979592 203:0.0038265306 204:0.010841837 205:0.27646684 206:0.16262755 210:0.010204082 211:0.28571429 212:0.0025510204 216:0.48692602 217:0.041135204 218:0.0070153061 219:0.0025510204 220:0.17410714 221:0.021045918 222:0.43813776 223:0.013711735 224:0.018494898 225:0.087691327 226:0.16294643 227:0.15943878 228:0.088329082 230:0.010204082 231:0.036989796 232:0.13042092 233:0.18973214 234:0.34917092 235:0.21747449 236:0.066007653 240:0.010204082 241:0.010204082 243:0.016581633 244:0.023915816 245:0.01434949 246:0.097895408 247:0.25669643 248:0.3848852 249:0.1817602 250:0.013711735 251:0.010204082 252:0.00031887755 253:0.0089285714 254:0.03125 255:0.033482143 256:0.16964286 257:0.43654337 258:0.13839286 259:0.16071429 260:0.010522959 261:0.072704082 262:0.67059949 263:0.036989796 264:0.041135204 265:0.16836735 270:0.010204082 271:0.11607143 275:0.0012755102 276:0.71906888 277:0.065369898 278:0.010204082 279:0.012117347 280:0.075892857 281:0.021364796 282:0.17346939 283:0.029336735 284:0.019770408 285:0.034119898 286:0.060267857 287:0.16996173 288:0.47193878 289:0.0086096939 290:0.011160714 291:0.030612245 292:0.020727041 293:0.10108418 294:0.42729592 295:0.40082908 296:0.009247449 300:0.010204082 301:0.041135204 302:0.0041454082 303:0.010841837 304:0.019770408 305:0.12978316 306:0.2088648 307:0.31409439 308:0.15752551 309:0.081632653 310:0.032206633 311:0.041135204 312:0.0015943878 313:0.011798469 314:0.0070153061 315:0.18112245 316:0.44929847 317:0.15625 318:0.096938776 319:0.04815051 320:0.0066964286 321:0.01817602 322:0.92442602 323:0.016262755 330:0.041135204 331:0.041135204 337:0.0012755102 338:0.006377551 339:0.94961735 340:0.0015943878 341:0.0022321429 342:0.0025510204 343:0.0025510204 344:0.046556122 345:0.13998724 346:0.34375 347:0.36192602 348:0.058354592 349:0.0006377551 350:0.041454082 351:0.013392857 352:0.062818878 353:0.2471301 354:0.43080357 355:0.16358418 356:0.041135204 360:0.041135204 
0.05679367293072148 1:0.072061567 2:0.56203358 3:0.21595149 4:0.071128731 5:0.038945896 6:0.013526119 10:0.026352612 11:0.076026119 12:0.75139925 13:0.10774254 14:0.037080224 15:0.0013992537 20:0.026352612 21:0.52425373 22:0.36777052 23:0.0097947761 30:0.09818097 31:0.09818097 36:0.00093283582 37:0.00046641791 38:0.04244403 39:0.24860075 40:0.609375 41:0.027751866 42:0.083488806 43:0.18470149 44:0.24790112 45:0.21128731 46:0.099580224 47:0.058768657 48:0.014225746 49:0.00046641791 50:0.071828358 51:0.49673507 52:0.265625 53:0.065531716 54:0.043143657 55:0.028451493 56:0.0023320896 60:0.09818097 61:0.02238806 62:0.54617537 63:0.18283582 64:0.073227612 65:0.061333955 66:0.039878731 67:0.031949627 68:0.017257463 69:0.015391791 70:0.0095615672 71:0.059934701 72:0.53801306 73:0.18586754 74:0.077658582 75:0.051539179 76:0.032882463 77:0.01795709 78:0.018889925 79:0.012126866 80:0.005130597 81:0.005130597 82:0.021688433 83:0.38316231 84:0.40205224 85:0.14598881 86:0.021688433 87:0.011427239 88:0.0044309701 89:0.0032649254 90:0.0011660448 91:0.0027985075 93:0.0093283582 94:0.011660448 95:0.0027985075 96:0.010727612 97:0.30690299 98:0.39552239 99:0.25886194 100:0.0013992537 101:0.16068097 102:0.15974813 103:0.34444963 104:0.12010261 105:0.081623134 106:0.07136194 107:0.045475746 108:0.014225746 109:0.0016324627 110:0.00069962687 111:0.28801306 112:0.38875933 113:0.11590485 114:0.059468284 115:0.047807836 116:0.034514925 117:0.028451493 118:0.016091418 119:0.013059701 120:0.0079291045 121:0.034115139 122:0.391258 123:0.17697228 124:0.14285714 125:0.108742 126:0.052238806 127:0.018123667 128:0.036247335 129:0.02238806 130:0.017057569 131:0.0074626866 132:0.24946695 133:0.31769723 134:0.20788913 135:0.087420043 136:0.040511727 137:0.015991471 138:0.024520256 139:0.035181237 140:0.013859275 141:0.0031982942 142:0.0095948827 143:0.038379531 144:0.5565032 145:0.24200426 146:0.069296375 147:0.031982942 148:0.020255864 149:0.023454158 150:0.0053304904 151:0.0021321962 152:0.0021321962 153:0.017057569 155:0.017057569 156:0.0042643923 158:0.16950959 159:0.30597015 160:0.48187633 161:0.015991471 162:0.28571429 163:0.14605544 164:0.19083156 165:0.21321962 166:0.093816631 167:0.039445629 168:0.0095948827 169:0.0031982942 170:0.0021321962 171:0.045842217 172:0.41257996 173:0.1663113 174:0.12793177 175:0.11513859 176:0.039445629 177:0.020255864 178:0.033049041 179:0.02238806 180:0.017057569 181:0.01329291 182:0.18866604 183:0.11800373 184:0.11240672 185:0.079757463 186:0.045009328 187:0.16161381 188:0.21385261 189:0.034048507 190:0.033348881 191:0.0076958955 192:0.18773321 193:0.075093284 194:0.055503731 195:0.083488806 196:0.14738806 197:0.064365672 198:0.1016791 199:0.22061567 200:0.056436567 201:0.17094216 202:0.071828358 203:0.062966418 204:0.070429104 205:0.10844216 206:0.097714552 207:0.093283582 208:0.11473881 209:0.20032649 210:0.0093283582 211:0.46222015 212:0.053171642 213:0.0037313433 214:0.0032649254 215:0.0086287313 216:0.31739739 217:0.072294776 218:0.0027985075 219:0.0037313433 220:0.072761194 221:0.073927239 222:0.3542444 223:0.15834888 224:0.17374067 225:0.17140858 226:0.045708955 227:0.013759328 228:0.0013992537 230:0.0074626866 231:0.1639459 232:0.085820896 233:0.051772388 234:0.055037313 235:0.073460821 236:0.089552239 237:0.11497201 238:0.16977612 239:0.16184701 240:0.033815299 241:0.034981343 242:0.10774254 243:0.035914179 244:0.053871269 245:0.078125 246:0.041511194 247:0.34491604 248:0.037779851 249:0.057369403 250:0.20778918 251:0.018190299 252:0.14249067 253:0.068097015 254:0.080923507 255:0.19099813 256:0.21338619 257:0.023554104 258:0.070195896 259:0.13152985 260:0.060634328 261:0.21501866 262:0.070195896 263:0.076492537 264:0.32765858 265:0.16557836 266:0.062033582 267:0.0086287313 268:0.015158582 269:0.015858209 270:0.043376866 271:0.012126866 272:0.0065298507 274:0.0032649254 275:0.042677239 276:0.65811567 277:0.24790112 278:0.02005597 279:0.0065298507 280:0.0027985075 281:0.070662313 282:0.10074627 283:0.092583955 284:0.21035448 285:0.2838153 286:0.14179104 287:0.077658582 288:0.014692164 289:0.00023320896 290:0.0074626866 291:0.13059701 292:0.024020522 293:0.042677239 294:0.065998134 295:0.055270522 296:0.17000933 297:0.22224813 298:0.020522388 299:0.061100746 300:0.20755597 301:0.039445629 302:0.18763326 303:0.046908316 304:0.031982942 305:0.062899787 306:0.17803838 307:0.1663113 308:0.010660981 309:0.099147122 310:0.17697228 311:0.02771855 312:0.2249467 313:0.043710021 314:0.059701493 315:0.30170576 316:0.057569296 317:0.0085287846 318:0.051172708 319:0.14285714 320:0.082089552 321:0.21108742 322:0.10021322 323:0.067164179 324:0.29317697 325:0.085287846 326:0.074626866 327:0.061833689 328:0.010660981 329:0.015991471 330:0.079957356 331:0.011727079 334:0.0042643923 335:0.019189765 336:0.25053305 337:0.64392324 338:0.029850746 339:0.025586354 340:0.014925373 341:0.099147122 342:0.15031983 343:0.20362473 344:0.26012793 345:0.17057569 346:0.066098081 347:0.028784648 348:0.0095948827 349:0.0042643923 350:0.0074626866 351:0.19509595 352:0.052238806 353:0.037313433 354:0.040511727 355:0.056503198 356:0.2793177 357:0.045842217 358:0.011727079 359:0.10554371 360:0.17590618 
0.01244462679819263 1:0.02869898 2:0.015943878 3:0.030612245 4:0.069515306 5:0.140625 6:0.13584184 7:0.22098214 8:0.15975765 9:0.17920918 10:0.018813776 11:0.046556122 12:0.061862245 13:0.20535714 14:0.10140306 15:0.017538265 16:0.0076530612 17:0.044642857 18:0.077806122 19:0.26371173 20:0.17346939 21:0.28093112 22:0.13169643 23:0.014987245 24:0.0066964286 25:0.006377551 26:0.0086096939 27:0.061862245 28:0.15529337 29:0.22225765 30:0.11128827 31:0.021683673 36:0.29591837 37:0.29336735 38:0.18494898 39:0.073979592 40:0.13010204 41:0.082908163 42:0.36639031 43:0.10267857 44:0.011798469 45:0.0038265306 46:0.020408163 47:0.035395408 48:0.1377551 49:0.16039541 50:0.078443878 51:0.02869898 52:0.015943878 53:0.030612245 54:0.069515306 55:0.13584184 56:0.10778061 57:0.1192602 58:0.20631378 59:0.26721939 60:0.018813776 61:0.01690051 62:0.024553571 63:0.040178571 64:0.11862245 65:0.13871173 66:0.32621173 67:0.22735969 68:0.091836735 69:0.013392857 70:0.0022321429 71:0.020727041 72:0.067283163 73:0.20663265 74:0.42219388 75:0.051020408 76:0.006377551 77:0.0079719388 78:0.13743622 79:0.075255102 80:0.0051020408 81:0.09375 82:0.65019133 83:0.023915816 84:0.0070153061 85:0.0031887755 86:0.0051020408 87:0.0086096939 88:0.035714286 89:0.083545918 90:0.088966837 91:0.070153061 96:0.34311224 97:0.46875 98:0.010204082 99:0.049744898 100:0.058035714 101:0.019770408 102:0.092793367 103:0.092155612 104:0.016262755 105:0.02997449 106:0.044961735 107:0.061862245 108:0.21014031 109:0.3934949 110:0.038584184 111:0.01690051 112:0.024553571 113:0.040178571 114:0.11862245 115:0.13871173 116:0.30548469 117:0.13233418 118:0.14126276 119:0.079719388 120:0.0022321429 121:0.03125 122:0.0006377551 123:0.059311224 124:0.042091837 125:0.0076530612 126:0.073979592 127:0.21556122 128:0.29719388 129:0.23596939 130:0.036352041 131:0.03125 133:0.00095663265 134:0.031568878 135:0.06122449 136:0.013711735 137:0.11639031 138:0.45790816 139:0.22257653 140:0.064413265 141:0.83832908 142:0.13042092 150:0.03125 151:0.03125 153:0.0070153061 155:0.01307398 156:0.0012755102 157:0.0012755102 158:0.017219388 159:0.036989796 160:0.89190051 161:0.032206633 162:0.03125 163:0.033163265 164:0.043048469 165:0.1973852 166:0.58482143 167:0.046875 170:0.03125 171:0.10459184 172:0.17633929 173:0.64700255 174:0.040816327 180:0.03125 181:0.010204082 184:0.0038265306 185:0.041135204 186:0.12627551 187:0.29559949 188:0.33354592 189:0.18590561 190:0.0035076531 191:0.010204082 194:0.018494898 195:0.1505102 196:0.28507653 197:0.073979592 198:0.13137755 199:0.19515306 200:0.13520408 201:0.42729592 202:0.099170918 203:0.010841837 204:0.020408163 205:0.31409439 206:0.11798469 210:0.010204082 211:0.24744898 216:0.47704082 217:0.051020408 218:0.0025510204 219:0.014030612 220:0.20790816 221:0.006377551 222:0.34534439 223:0.11894133 224:0.0060586735 225:0.080357143 226:0.17602041 227:0.1505102 228:0.10618622 230:0.010204082 231:0.04432398 232:0.17857143 233:0.20216837 234:0.41964286 235:0.14508929 240:0.010204082 241:0.010204082 243:0.013392857 244:0.012117347 245:0.012117347 246:0.11957908 247:0.25797194 248:0.2783801 249:0.27391582 250:0.022321429 251:0.010204082 252:0.00095663265 253:0.010204082 254:0.01434949 255:0.028061224 256:0.16709184 257:0.44355867 258:0.16581633 259:0.15082908 260:0.0089285714 261:0.01817602 262:0.75159439 263:0.043367347 264:0.058992347 265:0.11766582 270:0.010204082 271:0.1122449 276:0.71875 277:0.09630102 278:0.0089285714 279:0.0051020408 280:0.058673469 281:0.069196429 282:0.11798469 283:0.013711735 284:0.023596939 285:0.025829082 286:0.056760204 287:0.25637755 288:0.42378827 289:0.0022321429 290:0.010522959 291:0.021364796 292:0.014987245 293:0.13042092 294:0.52646684 295:0.28922194 296:0.0073341837 300:0.010204082 301:0.041135204 302:0.0012755102 303:0.0073341837 304:0.077806122 305:0.14987245 306:0.30548469 307:0.20408163 308:0.13647959 309:0.057397959 310:0.019132653 311:0.041135204 313:0.0060586735 314:0.058992347 315:0.23660714 316:0.37914541 317:0.13998724 318:0.082908163 319:0.044005102 320:0.011160714 321:0.013711735 322:0.92729592 323:0.017857143 330:0.041135204 331:0.041135204 338:0.0006377551 339:0.0073341837 340:0.95089286 341:0.0012755102 342:0.02997449 343:0.09375 344:0.15880102 345:0.30357143 346:0.2997449 347:0.070153061 348:0.00031887755 349:0.00095663265 350:0.041454082 351:0.014668367 352:0.18494898 353:0.37372449 354:0.26945153 355:0.096938776 356:0.019132653 360:0.041135204 
-0.02491718040209031 1:0.027380952 2:0.2625 3:0.21636905 4:0.069047619 5:0.039880952 6:0.060119048 7:0.15119048 8:0.15178571 9:0.017857143 10:0.0038690476 11:0.12678571 12:0.30952381 13:0.14613095 14:0.055059524 15:0.054464286 16:0.11309524 17:0.16309524 18:0.022321429 19:0.0074404762 20:0.0020833333 21:0.21309524 22:0.2297619 23:0.1389881 24:0.082142857 25:0.08422619 26:0.1610119 27:0.072916667 28:0.010714286 29:0.0050595238 30:0.0020833333 31:0.0011904762 32:0.0035714286 33:0.0095238095 34:0.17172619 35:0.46875 36:0.17619048 37:0.13988095 38:0.020833333 39:0.0071428571 40:0.0011904762 41:0.01547619 42:0.044642857 43:0.058928571 44:0.13482143 45:0.15833333 46:0.13541667 47:0.13988095 48:0.21904762 49:0.06547619 50:0.02797619 51:0.027380952 52:0.2625 53:0.21636905 54:0.069047619 55:0.039880952 56:0.060119048 57:0.15119048 58:0.15178571 59:0.017857143 60:0.0038690476 61:0.029464286 62:0.044345238 63:0.083630952 64:0.21041667 65:0.19345238 66:0.15 67:0.060119048 68:0.1235119 69:0.086904762 70:0.018154762 71:0.005952381 72:0.050892857 73:0.099404762 74:0.23958333 75:0.21339286 76:0.13690476 77:0.13333333 78:0.08125 79:0.029166667 80:0.010119048 81:0.011607143 82:0.051488095 83:0.13065476 84:0.21190476 85:0.23809524 86:0.12619048 87:0.14702381 88:0.055952381 89:0.02202381 90:0.0050595238 91:0.0035714286 92:0.010714286 93:0.0047619048 94:0.35505952 95:0.34791667 96:0.13095238 97:0.12083333 98:0.013095238 99:0.010714286 100:0.0023809524 101:0.029166667 102:0.049702381 103:0.12440476 104:0.1327381 105:0.11696429 106:0.15654762 107:0.20178571 108:0.12619048 109:0.060119048 110:0.0023809524 111:0.029464286 112:0.044345238 113:0.083630952 114:0.21041667 115:0.19345238 116:0.15 117:0.060119048 118:0.1235119 119:0.086904762 120:0.018154762 121:0.03125 128:0.12410714 129:0.74761905 130:0.09702381 131:0.03125 138:0.10089286 139:0.81279762 140:0.055059524 141:0.20178571 142:0.71428571 143:0.049702381 144:0.0029761905 150:0.03125 151:0.03125 159:0.48154762 160:0.48720238 161:0.84017857 162:0.12857143 170:0.03125 171:0.16755952 172:0.58392857 173:0.2139881 174:0.0032738095 180:0.03125 181:0.0095238095 185:0.05297619 186:0.31845238 187:0.30089286 188:0.21160714 189:0.10029762 190:0.00625 191:0.0095238095 196:0.48571429 197:0.23154762 198:0.21458333 199:0.05297619 200:0.0056547619 201:0.31845238 202:0.25922619 203:0.12321429 204:0.1485119 205:0.10505952 206:0.02797619 207:0.0029761905 208:0.0044642857 209:0.0005952381 210:0.0095238095 211:0.079761905 212:0.020238095 216:0.0011904762 217:0.37380952 218:0.35059524 219:0.08452381 220:0.089880952 221:0.70833333 222:0.2797619 223:0.0023809524 230:0.0095238095 231:0.20803571 232:0.18869048 233:0.20744048 234:0.13541667 235:0.11517857 236:0.098809524 237:0.030654762 238:0.0020833333 239:0.0041666667 240:0.0095238095 241:0.0095238095 246:0.038095238 247:0.35089286 248:0.19761905 249:0.19940476 250:0.20446429 251:0.0095238095 256:0.075595238 257:0.38065476 258:0.17767857 259:0.23660714 260:0.11994048 261:0.15565476 262:0.29107143 263:0.10922619 264:0.12232143 265:0.15178571 266:0.15863095 267:0.0017857143 270:0.0095238095 271:0.010714286 278:0.0071428571 279:0.69404762 280:0.28809524 281:0.54196429 282:0.4485119 290:0.0095238095 291:0.068452381 292:0.22827381 293:0.16160714 294:0.11815476 295:0.13125 296:0.13452381 297:0.14464286 298:0.0035714286 300:0.0095238095 301:0.04047619 307:0.3327381 308:0.35 309:0.22946429 310:0.047321429 311:0.04047619 317:0.4172619 318:0.26160714 319:0.20119048 320:0.079464286 321:0.40267857 322:0.20178571 323:0.15863095 324:0.16636905 325:0.028571429 326:0.0014880952 330:0.04047619 331:0.04047619 338:0.0011904762 339:0.03452381 340:0.92380952 341:0.85922619 342:0.10029762 350:0.04047619 351:0.2014881 352:0.28720238 353:0.19404762 354:0.11577381 355:0.13244048 356:0.025892857 357:0.0026785714 360:0.04047619 
-0.2198885273508966 1:0.13076456 2:0.18507282 3:0.17900485 4:0.047936893 5:0.07342233 6:0.05006068 7:0.10315534 8:0.18234223 9:0.043385922 10:0.0048543689 11:0.10679612 12:0.22663835 13:0.14775485 14:0.086468447 15:0.064623786 16:0.0625 17:0.13470874 18:0.13561893 19:0.030643204 20:0.0042475728 21:0.10194175 22:0.23786408 23:0.14745146 24:0.096480583 25:0.087985437 26:0.10345874 27:0.11286408 28:0.087075243 29:0.022148058 30:0.0027305825 31:0.0097087379 32:0.10072816 33:0.11407767 34:0.30097087 35:0.07342233 36:0.082524272 37:0.28337379 38:0.014563107 39:0.018203883 40:0.0024271845 41:0.055218447 42:0.050667476 43:0.18901699 44:0.15291262 45:0.13683252 46:0.14411408 47:0.10588592 48:0.081614078 49:0.048240291 50:0.035497573 51:0.13076456 52:0.18507282 53:0.17900485 54:0.047936893 55:0.07342233 56:0.05006068 57:0.10315534 58:0.18234223 59:0.043385922 60:0.0048543689 61:0.014259709 62:0.037014563 63:0.20175971 64:0.12257282 65:0.17020631 66:0.20752427 67:0.10406553 68:0.098604369 69:0.033980583 70:0.010012136 71:0.015776699 72:0.055218447 73:0.16595874 74:0.22057039 75:0.17748786 76:0.16201456 77:0.11771845 78:0.054915049 79:0.022451456 80:0.0078883495 81:0.013349515 82:0.07038835 83:0.1868932 84:0.2023665 85:0.18112864 86:0.18567961 87:0.099817961 88:0.041868932 89:0.013349515 90:0.005157767 91:0.0024271845 92:0.0024271845 93:0.0072815534 94:0.055218447 95:0.19842233 96:0.19478155 97:0.37075243 98:0.038834951 99:0.11893204 100:0.01092233 101:0.0015169903 102:0.0057645631 103:0.015473301 104:0.092536408 105:0.21601942 106:0.27123786 107:0.17506068 108:0.17384709 109:0.045509709 110:0.0030339806 111:0.014259709 112:0.037014563 113:0.20175971 114:0.12257282 115:0.17020631 116:0.20752427 117:0.10406553 118:0.098604369 119:0.033980583 120:0.010012136 121:0.03125 128:0.13652913 129:0.62317961 130:0.20904126 131:0.03125 138:0.0075849515 139:0.59951456 140:0.36165049 141:0.52730583 142:0.43901699 143:0.0024271845 150:0.03125 151:0.03125 159:0.035194175 160:0.93355583 161:0.90139563 162:0.067354369 170:0.03125 171:0.43385922 172:0.41808252 173:0.11529126 174:0.0015169903 180:0.03125 181:0.0097087379 187:0.005157767 188:0.34921117 189:0.53701456 190:0.098907767 191:0.0097087379 198:0.10012136 199:0.75394417 200:0.13622573 201:0.43476942 202:0.47421117 203:0.08131068 210:0.0097087379 211:0.027912621 217:0.086165049 218:0.77184466 219:0.10072816 220:0.013349515 221:0.38561893 222:0.60345874 223:0.0012135922 230:0.0097087379 231:0.27336165 232:0.44114078 233:0.20722087 234:0.068567961 240:0.0097087379 241:0.0097087379 248:0.48604369 249:0.41140777 250:0.092839806 251:0.0097087379 258:0.00030339806 259:0.69842233 260:0.29156553 261:0.6407767 262:0.34951456 270:0.0097087379 271:0.02184466 272:0.0024271845 277:0.099514563 278:0.77912621 279:0.084951456 280:0.012135922 281:0.78913835 282:0.19993932 283:0.0012135922 290:0.0097087379 291:0.48543689 292:0.36468447 293:0.10012136 294:0.040048544 300:0.0097087379 301:0.04065534 308:0.027609223 309:0.67839806 310:0.25333738 311:0.04065534 319:0.50697816 320:0.4523665 321:0.78307039 322:0.17627427 330:0.04065534 331:0.095873786 332:0.015776699 336:0.0036407767 337:0.038834951 338:0.71541262 339:0.059466019 340:0.070995146 341:0.90958738 342:0.049757282 350:0.04065534 351:0.58586165 352:0.33616505 353:0.037317961 360:0.04065534 
-0.1365754213577796 1:0.029389881 2:0.10528274 3:0.28348214 4:0.36235119 5:0.092633929 6:0.046130952 7:0.050223214 8:0.019345238 9:0.0093005952 10:0.001860119 11:0.080357143 12:0.24962798 13:0.3344494 14:0.16108631 15:0.048363095 16:0.045014881 17:0.03608631 18:0.029761905 19:0.013392857 20:0.001860119 21:0.063244048 22:0.23400298 23:0.37202381 24:0.1499256 25:0.048735119 26:0.043526786 27:0.040178571 28:0.02827381 29:0.015252976 30:0.0048363095 31:0.0014880952 33:0.049107143 34:0.28125 35:0.60267857 36:0.050595238 37:0.0044642857 38:0.005952381 40:0.0044642857 41:0.021949405 42:0.041294643 43:0.04203869 44:0.10639881 45:0.25297619 46:0.22098214 47:0.14285714 48:0.12909226 49:0.035342262 50:0.0070684524 51:0.029389881 52:0.10528274 53:0.28348214 54:0.36235119 55:0.092633929 56:0.046130952 57:0.050223214 58:0.019345238 59:0.0093005952 60:0.001860119 61:0.016369048 62:0.075892857 63:0.084077381 64:0.21354167 65:0.29129464 66:0.1235119 67:0.063988095 68:0.053199405 69:0.053943452 70:0.024181548 71:0.032366071 72:0.14397321 73:0.3188244 74:0.28162202 75:0.053199405 76:0.05766369 77:0.058779762 78:0.021205357 79:0.022321429 80:0.010044643 81:0.052083333 82:0.20758929 83:0.39025298 84:0.15029762 85:0.072544643 86:0.049479167 87:0.036458333 88:0.024925595 89:0.009672619 90:0.0066964286 91:0.01264881 92:0.0029761905 93:0.005952381 97:0.0029761905 98:0.13616071 99:0.8139881 100:0.025297619 101:0.01264881 102:0.021949405 103:0.099702381 104:0.1421131 105:0.23139881 106:0.18229167 107:0.125 108:0.13578869 109:0.033110119 110:0.015997024 111:0.014508929 112:0.07514881 113:0.0859375 114:0.21354167 115:0.29203869 116:0.1235119 117:0.063988095 118:0.053199405 119:0.053943452 120:0.024181548 121:0.03125 127:0.25669643 128:0.61383929 129:0.040922619 130:0.057291667 131:0.03125 137:0.0074404762 138:0.85267857 139:0.0390625 140:0.069568452 141:0.85751488 142:0.035342262 143:0.069196429 144:0.0066964286 150:0.03125 151:0.098958333 152:0.032738095 153:0.0014880952 154:0.0044642857 156:0.021577381 157:0.076636905 158:0.60044643 159:0.049107143 160:0.11458333 161:0.96800595 162:0.00074404762 170:0.03125 171:0.82886905 172:0.056175595 173:0.04389881 174:0.039806548 180:0.03125 181:0.011904762 184:0.00037202381 185:0.014136905 186:0.023065476 187:0.38541667 188:0.25483631 189:0.19791667 190:0.11235119 191:0.011904762 195:0.0085565476 196:0.020833333 197:0.359375 198:0.26785714 199:0.20424107 200:0.12723214 201:0.018973214 202:0.011904762 203:0.38802083 204:0.22470238 205:0.19308036 206:0.1484375 207:0.0029761905 210:0.011904762 211:0.017857143 213:0.0026041667 216:0.019717262 217:0.5639881 218:0.36160714 219:0.025297619 220:0.0089285714 221:0.91964286 222:0.068452381 230:0.011904762 231:0.0093005952 232:0.018973214 233:0.21986607 234:0.25 235:0.21168155 236:0.15364583 237:0.12276786 238:0.001860119 240:0.011904762 241:0.011904762 246:0.017485119 247:0.38541667 248:0.31696429 249:0.21316964 250:0.055059524 251:0.011904762 257:0.4468006 258:0.30840774 259:0.18043155 260:0.052455357 261:0.43080357 262:0.29166667 263:0.16889881 264:0.079985119 265:0.016741071 270:0.011904762 271:0.052083333 272:0.020089286 273:0.0014880952 274:0.005952381 276:0.013392857 277:0.45535714 278:0.40252976 279:0.03422619 280:0.014880952 281:0.68973214 282:0.2905506 283:0.0078125 290:0.011904762 291:0.18266369 292:0.31473214 293:0.2016369 294:0.16331845 295:0.089285714 296:0.035714286 297:0.00074404762 300:0.011904762 301:0.042782738 306:0.096354167 307:0.38653274 308:0.14955357 309:0.16815476 310:0.15662202 311:0.042782738 317:0.45386905 318:0.203125 319:0.19345238 320:0.10677083 321:0.28534226 322:0.32403274 323:0.2094494 324:0.1108631 325:0.027529762 330:0.042782738 331:0.11644345 332:0.11235119 333:0.025297619 336:0.019717262 337:0.40922619 338:0.26636905 339:0.022321429 340:0.02827381 341:0.63764881 342:0.31956845 350:0.042782738 351:0.33556548 352:0.20349702 353:0.10602679 354:0.09858631 355:0.16666667 356:0.046875 360:0.042782738 
-0.01009140523733946 1:0.05006068 2:0.13774272 3:0.13925971 4:0.17748786 5:0.17688107 6:0.10770631 7:0.052487864 8:0.057645631 9:0.082220874 10:0.018507282 11:0.078580097 12:0.13501214 13:0.14411408 14:0.16686893 15:0.17445388 16:0.10497573 17:0.069478155 18:0.079793689 19:0.046116505 20:0.00060679612 21:0.017597087 22:0.12257282 23:0.13137136 24:0.18234223 25:0.20691748 26:0.14775485 27:0.073725728 28:0.063713592 29:0.053398058 30:0.00060679612 31:0.016990291 32:0.077063107 33:0.070691748 34:0.22269417 35:0.16838592 36:0.13410194 37:0.033980583 38:0.2348301 39:0.023665049 40:0.017597087 41:0.0012135922 42:0.018507282 43:0.030036408 44:0.24241505 45:0.26243932 46:0.13895631 47:0.13865291 48:0.083131068 49:0.067657767 50:0.016990291 51:0.05006068 52:0.13774272 53:0.13925971 54:0.17748786 55:0.17688107 56:0.10770631 57:0.052487864 58:0.057645631 59:0.082220874 60:0.018507282 61:0.005461165 62:0.037317961 63:0.036711165 64:0.23270631 65:0.33555825 66:0.1881068 67:0.073725728 68:0.026699029 69:0.048543689 70:0.015169903 71:0.017900485 72:0.027305825 73:0.023968447 74:0.25515777 75:0.2970267 76:0.17324029 77:0.11650485 78:0.030643204 79:0.041868932 80:0.016383495 81:0.015776699 82:0.026699029 83:0.054915049 84:0.28033981 85:0.26941748 86:0.16413835 87:0.097997573 88:0.045813107 89:0.033677184 90:0.011225728 91:0.014563107 92:0.078883495 93:0.23118932 94:0.068567961 95:0.35254854 96:0.14563107 97:0.095873786 98:0.0078883495 99:0.0024271845 100:0.0024271845 101:0.013652913 102:0.11680825 103:0.28458738 104:0.1401699 105:0.21025485 106:0.12955097 107:0.079490291 108:0.020934466 109:0.0033373786 110:0.0012135922 111:0.005461165 112:0.037317961 113:0.036711165 114:0.23270631 115:0.33555825 116:0.1881068 117:0.073725728 118:0.026699029 119:0.048543689 120:0.015169903 121:0.03125 128:0.015473301 129:0.51668689 130:0.43658981 131:0.03125 138:0.0018203883 139:0.40533981 140:0.56158981 141:0.40503641 142:0.56371359 150:0.03125 151:0.032463592 159:0.15746359 160:0.81007282 161:0.65412621 162:0.31462379 170:0.03125 171:0.11529126 172:0.51941748 173:0.33404126 180:0.03125 181:0.0097087379 188:0.2023665 189:0.3907767 190:0.39714806 191:0.0097087379 197:0.091322816 198:0.30279126 199:0.34253641 200:0.25364078 201:0.20722087 202:0.1723301 203:0.15503641 204:0.34617718 205:0.1092233 206:0.00030339806 210:0.0097087379 211:0.010315534 218:0.0018203883 219:0.80764563 220:0.18021845 221:0.62105583 222:0.36923544 230:0.0097087379 231:0.11953883 232:0.18021845 233:0.24575243 234:0.26122573 235:0.18234223 236:0.0012135922 240:0.0097087379 241:0.0097087379 248:0.37226942 249:0.32584951 250:0.29217233 251:0.0097087379 258:0.42020631 259:0.2038835 260:0.36620146 261:0.35376214 262:0.17536408 263:0.27882282 264:0.17991505 265:0.0024271845 270:0.0097087379 271:0.0097087379 279:0.42020631 280:0.57008495 281:0.87287621 282:0.11741505 290:0.0097087379 291:0.25849515 292:0.24180825 293:0.13956311 294:0.27063107 295:0.079793689 300:0.0097087379 301:0.04065534 307:0.10194175 308:0.36195388 309:0.26820388 310:0.22724515 311:0.04065534 317:0.1253034 318:0.3586165 319:0.29156553 320:0.18385922 321:0.34496359 322:0.14381068 323:0.26122573 324:0.20570388 325:0.0036407767 330:0.04065534 331:0.04065534 337:0.00060679612 338:0.26425971 339:0.68962379 340:0.0048543689 341:0.94993932 342:0.0094053398 350:0.04065534 351:0.16322816 352:0.2818568 353:0.11438107 354:0.28944175 355:0.1101335 356:0.00030339806 360:0.04065534 
-0.03740219156071721 1:0.11881188 2:0.16955446 3:0.15594059 4:0.12592822 5:0.076732673 6:0.072091584 7:0.071782178 8:0.10272277 9:0.10055693 10:0.0058787129 11:0.12685644 12:0.21936881 13:0.12747525 14:0.12654703 15:0.086633663 16:0.064356436 17:0.11231436 18:0.11819307 19:0.015160891 20:0.0030940594 21:0.063118812 22:0.20606436 23:0.18657178 24:0.14016089 25:0.12159653 26:0.10891089 27:0.080445545 28:0.083539604 29:0.0077351485 30:0.0018564356 31:0.0037128713 32:0.01980198 33:0.17512376 34:0.092821782 35:0.32735149 36:0.08539604 37:0.089108911 38:0.19678218 39:0.0061881188 40:0.0037128713 41:0.0074257426 42:0.01144802 43:0.07394802 44:0.058168317 45:0.25959158 46:0.16986386 47:0.13459158 48:0.13954208 49:0.11231436 50:0.033106436 51:0.11881188 52:0.16955446 53:0.15594059 54:0.12592822 55:0.076732673 56:0.072091584 57:0.071782178 58:0.10272277 59:0.10055693 60:0.0058787129 61:0.020111386 65:0.017326733 66:0.58292079 67:0.36757426 68:0.0018564356 70:0.010210396 71:0.030321782 77:0.00030940594 78:0.12190594 79:0.6772896 80:0.17017327 81:0.010210396 85:0.098081683 86:0.85643564 87:0.015160891 90:0.020111386 91:0.020111386 99:0.36757426 100:0.61231436 101:0.86602723 102:0.10365099 110:0.030321782 111:0.059405941 112:0.36726485 113:0.3644802 114:0.16738861 115:0.011138614 120:0.030321782 121:0.050123762 126:0.83570545 127:0.098700495 130:0.015470297 131:0.065594059 138:0.094368812 139:0.49628713 140:0.34375 141:0.0055693069 145:0.25556931 146:0.67883663 150:0.060024752 151:0.050123762 158:0.26732673 159:0.67264851 160:0.0099009901 161:0.9220297 162:0.012376238 170:0.065594059 171:0.35798267 172:0.49288366 173:0.082611386 174:0.00092821782 180:0.065594059 181:0.0099009901 186:0.00030940594 187:0.15934406 188:0.33477723 189:0.39016089 190:0.10550743 191:0.0099009901 196:0.0012376238 197:0.2967203 198:0.23731436 199:0.39789604 200:0.056930693 201:0.11417079 202:0.21039604 203:0.13737624 204:0.21194307 205:0.23329208 206:0.080136139 207:0.0027846535 210:0.0099009901 211:0.0099009901 219:0.43564356 220:0.55445545 221:0.83292079 222:0.15717822 230:0.0099009901 231:0.01980198 232:0.18193069 233:0.14139851 234:0.24876238 235:0.18780941 236:0.20018564 237:0.0095915842 238:0.00061881188 240:0.0099009901 241:0.084467822 246:0.35550743 247:0.3387995 248:0.19554455 250:0.025680693 251:0.096844059 256:0.013304455 257:0.00061881188 258:0.49752475 259:0.18378713 260:0.20792079 261:0.038985149 265:0.0021658416 266:0.58632426 267:0.29888614 268:0.0024752475 270:0.071163366 271:0.071163366 275:0.013304455 279:0.043316832 280:0.87221535 281:0.86943069 282:0.020420792 290:0.11014851 291:0.013304455 293:0.11355198 294:0.34405941 295:0.21813119 296:0.20946782 297:0.0046410891 300:0.096844059 301:0.059405941 305:0.0034034653 306:0.5154703 307:0.37128713 308:0.019492574 310:0.030940594 311:0.084777228 316:0.0055693069 317:0.061881188 318:0.47462871 319:0.23267327 320:0.1404703 321:0.024133663 325:0.16707921 326:0.51856436 327:0.2240099 330:0.066212871 331:0.053836634 335:0.0055693069 337:0.0024752475 338:0.52289604 339:0.38985149 340:0.025371287 341:0.69585396 342:0.22679455 350:0.077351485 351:0.01299505 354:0.0055693069 355:0.0034034653 356:0.5154703 357:0.37128713 358:0.019492574 360:0.071782178 
