svm_type c_svc
kernel_type linear
nr_class 2
total_sv 24
rho -1.02824
label -1 1
probA -4.91872
probB -0.0547859
nr_sv 13 11
SV
0.0509314812398435 1:0.0058210784 2:0.065257353 3:0.45128676 4:0.29810049 5:0.11029412 6:0.040134804 7:0.015012255 8:0.0055147059 9:0.0030637255 10:0.0055147059 11:0.0030637255 12:0.015012255 13:0.56801471 14:0.26593137 15:0.097426471 16:0.029718137 17:0.012561275 18:0.0024509804 19:0.0045955882 20:0.0012254902 21:0.031862745 22:0.17493873 23:0.21691176 24:0.21936275 25:0.10539216 26:0.1060049 27:0.070159314 28:0.048713235 29:0.022058824 30:0.0045955882 31:0.97058824 40:0.029411765 41:0.010416667 42:0.038296569 43:0.099877451 44:0.19332108 45:0.23651961 46:0.20680147 47:0.10477941 48:0.078737745 49:0.026041667 50:0.0052083333 51:0.031862745 52:0.17493873 53:0.21691176 54:0.21936275 55:0.10539216 56:0.1060049 57:0.070159314 58:0.048713235 59:0.022058824 60:0.0045955882 61:0.056985294 62:0.29442402 63:0.33333333 64:0.1495098 65:0.07935049 66:0.036151961 67:0.036151961 68:0.0088848039 69:0.0030637255 70:0.0021446078 71:0.0064338235 72:0.066482843 73:0.22671569 74:0.36151961 75:0.14491422 76:0.076593137 77:0.049632353 78:0.031862745 79:0.01685049 80:0.018995098 81:0.074754902 82:0.10876225 83:0.1060049 84:0.19240196 85:0.19852941 86:0.12775735 87:0.077512255 88:0.066176471 89:0.03125 90:0.01685049 91:0.97916667 100:0.020833333 101:0.018688725 102:0.030330882 103:0.062806373 104:0.093137255 105:0.087009804 106:0.19209559 107:0.2901348 108:0.13419118 109:0.076593137 110:0.015012255 111:0.074754902 112:0.10876225 113:0.1060049 114:0.19240196 115:0.19852941 116:0.12775735 117:0.077512255 118:0.066176471 119:0.03125 120:0.01685049 121:0.03125 125:0.00030637255 126:0.10998775 127:0.734375 128:0.10631127 129:0.015625 130:0.0021446078 131:0.03125 136:0.021139706 137:0.87561275 138:0.06495098 139:0.006127451 140:0.00091911765 141:0.050857843 142:0.56617647 143:0.33609069 144:0.015318627 145:0.00030637255 150:0.03125 151:0.99693627 160:0.0030637255 161:0.0012254902 162:0.027879902 163:0.57996324 164:0.3526348 165:0.0070465686 170:0.03125 171:0.050857843 172:0.56617647 173:0.33609069 174:0.015318627 175:0.00030637255 180:0.03125 181:0.0098039216 183:0.019301471 184:0.47579657 185:0.16697304 186:0.16084559 187:0.10723039 188:0.054840686 189:0.0042892157 190:0.00091911765 191:0.0098039216 194:0.37040441 195:0.24754902 196:0.16360294 197:0.13480392 198:0.06127451 199:0.011642157 200:0.00091911765 201:0.058823529 202:0.11397059 203:0.20220588 204:0.12928922 205:0.10324755 206:0.10968137 207:0.1216299 208:0.11151961 209:0.037377451 210:0.012254902 211:0.82536765 220:0.17463235 221:0.0027573529 222:0.078431373 223:0.3817402 224:0.4497549 225:0.077205882 226:0.00030637255 230:0.0098039216 231:0.058823529 232:0.11397059 233:0.20220588 234:0.12928922 235:0.10324755 236:0.10968137 237:0.1216299 238:0.11151961 239:0.037377451 240:0.012254902 241:0.0098039216 243:0.10386029 244:0.51746324 245:0.19025735 246:0.10447304 247:0.048406863 248:0.01317402 249:0.0064338235 250:0.006127451 251:0.0098039216 253:0.0012254902 254:0.45128676 255:0.28492647 256:0.15533088 257:0.069240196 258:0.015318627 259:0.0055147059 260:0.0073529412 261:0.095894608 262:0.18106618 263:0.18167892 264:0.13756127 265:0.12224265 266:0.13602941 267:0.079963235 268:0.038909314 269:0.0079656863 270:0.018688725 271:0.85723039 280:0.14276961 281:0.016544118 282:0.084558824 283:0.34191176 284:0.44730392 285:0.090992647 286:0.0088848039 290:0.0098039216 291:0.095894608 292:0.18106618 293:0.18167892 294:0.13756127 295:0.12224265 296:0.13602941 297:0.079963235 298:0.038909314 299:0.0079656863 300:0.018688725 301:0.040747549 304:0.00030637255 305:0.020526961 306:0.47058824 307:0.21139706 308:0.16605392 309:0.077818627 310:0.012561275 311:0.040747549 315:0.0015318627 316:0.23253676 317:0.42095588 318:0.24754902 319:0.045343137 320:0.011335784 321:0.16544118 322:0.2466299 323:0.18474265 324:0.14185049 325:0.18229167 326:0.038296569 330:0.040747549 331:0.94546569 340:0.054534314 341:0.0055147059 342:0.1182598 343:0.69669118 344:0.13511029 345:0.0036764706 350:0.040747549 351:0.16544118 352:0.2466299 353:0.18474265 354:0.14185049 355:0.18229167 356:0.038296569 360:0.040747549 
0.003582080699813319 1:0.24180825 2:0.1720267 3:0.076152913 4:0.094963592 5:0.092839806 6:0.10709951 7:0.062803398 8:0.084041262 9:0.045813107 10:0.022451456 11:0.30370146 12:0.16262136 13:0.13258495 14:0.1092233 15:0.088592233 16:0.047330097 17:0.045813107 18:0.068264563 19:0.019720874 20:0.022148058 21:0.20995146 22:0.25879854 23:0.13622573 24:0.12773058 25:0.075546117 26:0.040048544 27:0.051274272 28:0.059769417 29:0.01881068 30:0.02184466 31:0.0048543689 37:0.16990291 38:0.62135922 39:0.18446602 40:0.019417476 41:0.0060679612 42:0.064623786 43:0.16201456 44:0.15018204 45:0.074635922 46:0.095873786 47:0.15321602 48:0.11407767 49:0.1095267 50:0.069781553 51:0.24180825 52:0.1720267 53:0.076152913 54:0.094963592 55:0.092839806 56:0.10709951 57:0.062803398 58:0.084041262 59:0.045813107 60:0.022451456 61:0.02973301 62:0.15169903 63:0.18567961 64:0.13774272 65:0.097997573 66:0.14805825 67:0.12196602 68:0.060072816 69:0.041868932 70:0.025182039 71:0.055825243 72:0.22148058 73:0.14593447 74:0.13956311 75:0.099211165 76:0.13137136 77:0.11438107 78:0.028822816 79:0.040048544 80:0.02336165 81:0.064927184 82:0.22421117 83:0.17415049 84:0.11043689 85:0.12591019 86:0.10740291 87:0.10133495 88:0.037621359 89:0.033373786 90:0.020631068 91:0.0084951456 92:0.052184466 93:0.20752427 94:0.078883495 95:0.19174757 96:0.15473301 97:0.0625 98:0.1868932 99:0.04368932 100:0.013349515 101:0.0060679612 102:0.0072815534 103:0.047330097 104:0.090109223 105:0.15412621 106:0.19811893 107:0.1726335 108:0.19053398 109:0.11256068 110:0.021237864 111:0.02973301 112:0.15169903 113:0.18567961 114:0.13774272 115:0.097997573 116:0.14805825 117:0.12196602 118:0.060072816 119:0.041868932 120:0.025182039 121:0.03125 129:0.18294903 130:0.78580097 131:0.03125 139:0.34799757 140:0.62075243 141:0.88106796 142:0.087682039 150:0.03125 151:0.03125 159:0.017293689 160:0.95145631 161:0.75182039 162:0.21692961 170:0.03125 171:0.46389563 172:0.50485437 180:0.03125 181:0.0097087379 186:0.20084951 187:0.20661408 188:0.16838592 189:0.24757282 190:0.16686893 191:0.0097087379 196:0.25606796 197:0.21601942 198:0.13197816 199:0.24211165 200:0.14411408 201:0.22299757 202:0.19720874 203:0.068264563 204:0.094053398 205:0.10376214 206:0.17627427 207:0.10315534 208:0.024575243 210:0.0097087379 211:0.0097087379 217:0.0048543689 218:0.84466019 219:0.13470874 220:0.0060679612 221:0.80157767 222:0.18871359 230:0.0097087379 231:0.15351942 232:0.12864078 233:0.098604369 234:0.10679612 235:0.088288835 236:0.13592233 237:0.14745146 238:0.098604369 239:0.032463592 240:0.0097087379 241:0.0097087379 246:0.046116505 247:0.2648665 248:0.25546117 249:0.3131068 250:0.11074029 251:0.0097087379 256:0.01092233 257:0.31128641 258:0.30521845 259:0.27396845 260:0.088895631 261:0.17900485 262:0.23270631 263:0.23179612 264:0.14927184 265:0.16262136 266:0.034890777 270:0.0097087379 271:0.0097087379 279:0.47694175 280:0.51334951 281:0.72754854 282:0.26274272 290:0.0097087379 291:0.12773058 292:0.15230583 293:0.13895631 294:0.16140777 295:0.16171117 296:0.19720874 297:0.047936893 298:0.0030339806 300:0.0097087379 301:0.04065534 307:0.43052184 308:0.28489078 309:0.13258495 310:0.11134709 311:0.04065534 317:0.42475728 318:0.30582524 319:0.13076456 320:0.097997573 321:0.50758495 322:0.21966019 323:0.11680825 324:0.092536408 325:0.022754854 330:0.04065534 331:0.046723301 332:0.0024271845 337:0.072512136 338:0.74302184 339:0.13228155 340:0.0030339806 341:0.6881068 342:0.27123786 350:0.04065534 351:0.3282767 352:0.33161408 353:0.091322816 354:0.096783981 355:0.080097087 356:0.03125 360:0.04065534 
0.1092646805969305 1:0.26991422 2:0.25183824 3:0.17279412 4:0.090073529 5:0.056372549 6:0.082107843 7:0.041360294 8:0.020220588 9:0.011948529 10:0.003370098 11:0.33333333 12:0.27144608 13:0.097120098 14:0.082414216 15:0.075980392 16:0.077512255 17:0.022058824 18:0.022365196 19:0.012867647 20:0.0049019608 21:0.13419118 22:0.30422794 23:0.22487745 24:0.051776961 25:0.1182598 26:0.084865196 27:0.03125 28:0.026960784 29:0.01685049 30:0.0067401961 31:0.06372549 32:0.011029412 33:0.024509804 35:0.14644608 36:0.66145833 37:0.039522059 38:0.020220588 39:0.025735294 40:0.0073529412 41:0.17156863 42:0.003370098 43:0.3002451 44:0.25582108 45:0.10845588 46:0.06372549 47:0.068627451 48:0.021446078 49:0.003370098 50:0.003370098 51:0.33333333 52:0.27144608 53:0.097120098 54:0.082414216 55:0.075980392 56:0.077512255 57:0.022058824 58:0.022365196 59:0.012867647 60:0.0049019608 61:0.035845588 62:0.17156863 63:0.30055147 64:0.26623775 65:0.025735294 66:0.079044118 67:0.074754902 68:0.023897059 69:0.018995098 70:0.003370098 71:0.083639706 72:0.18198529 73:0.35477941 74:0.17432598 75:0.059742647 76:0.067708333 77:0.030637255 78:0.024203431 79:0.020833333 80:0.0021446078 81:0.10294118 82:0.14491422 83:0.3661152 84:0.19791667 85:0.074142157 86:0.073529412 87:0.024509804 88:0.009497549 89:0.0030637255 90:0.003370098 91:0.00091911765 93:0.097120098 94:0.26164216 100:0.64031863 101:0.0045955882 103:0.0015318627 104:0.19117647 105:0.21078431 106:0.33976716 107:0.16789216 108:0.044730392 109:0.034313725 110:0.0052083333 111:0.083639706 112:0.18198529 113:0.35477941 114:0.17432598 115:0.059742647 116:0.067708333 117:0.030637255 118:0.024203431 119:0.020833333 120:0.0021446078 121:0.03125 128:0.234375 129:0.62775735 130:0.10661765 131:0.03125 138:0.016544118 139:0.64522059 140:0.30698529 141:0.96875 150:0.03125 151:0.03125 159:0.73590686 160:0.23284314 161:0.85508578 162:0.11366422 170:0.03125 171:0.96875 180:0.03125 181:0.0098039216 185:0.30882353 186:0.18535539 187:0.13939951 188:0.14368873 189:0.13939951 190:0.073529412 191:0.0098039216 194:0.015012255 195:0.41115196 196:0.095588235 197:0.14031863 198:0.12285539 199:0.1161152 200:0.089154412 201:0.65716912 202:0.33302696 210:0.0098039216 211:0.0098039216 219:0.03002451 220:0.96017157 221:0.52297794 222:0.33547794 223:0.1317402 230:0.0098039216 231:0.49050245 232:0.24938725 233:0.2221201 234:0.028186275 240:0.0098039216 241:0.0098039216 245:0.030330882 246:0.52359069 247:0.12745098 248:0.16053922 249:0.10876225 250:0.039522059 251:0.0098039216 255:0.28339461 256:0.29595588 257:0.11121324 258:0.14920343 259:0.12438725 260:0.026041667 261:0.86642157 262:0.12377451 270:0.0098039216 271:0.0098039216 279:0.059129902 280:0.93106618 281:0.68627451 282:0.29840686 283:0.0055147059 290:0.0098039216 291:0.62867647 292:0.28676471 293:0.074754902 300:0.0098039216 301:0.040747549 305:0.0088848039 306:0.46507353 307:0.26378676 308:0.088848039 309:0.094669118 310:0.037990196 311:0.040747549 315:0.015625 316:0.52113971 317:0.2064951 318:0.088848039 319:0.083946078 320:0.043198529 321:0.92003676 322:0.039215686 330:0.040747549 331:0.040747549 337:0.0012254902 338:0.0012254902 339:0.096813725 340:0.85998775 341:0.45680147 342:0.49785539 343:0.0045955882 350:0.040747549 351:0.78308824 352:0.17463235 353:0.0015318627 360:0.040747549 
0.044641498295522 1:0.33261139 2:0.24257426 3:0.13180693 4:0.034962871 5:0.11076733 6:0.047029703 7:0.068688119 8:0.0089727723 9:0.020730198 10:0.0018564356 11:0.32487624 12:0.29579208 13:0.079826733 14:0.061881188 15:0.080445545 16:0.0625 17:0.056002475 18:0.016089109 19:0.016398515 20:0.0061881188 21:0.077042079 22:0.24783416 23:0.34220297 24:0.054455446 25:0.08230198 26:0.079517327 27:0.074257426 28:0.018564356 29:0.018873762 30:0.004950495 31:0.014851485 32:0.0043316832 35:0.9789604 37:0.0012376238 40:0.00061881188 41:0.0012376238 42:0.032178218 43:0.13613861 44:0.17976485 45:0.32704208 46:0.12190594 47:0.085705446 48:0.064665842 49:0.043626238 50:0.0077351485 51:0.32487624 52:0.29579208 53:0.079826733 54:0.061881188 55:0.080445545 56:0.0625 57:0.056002475 58:0.016089109 59:0.016398515 60:0.0061881188 61:0.033415842 62:0.19523515 63:0.35148515 64:0.20946782 65:0.058477723 66:0.078279703 67:0.041460396 68:0.022277228 69:0.005259901 70:0.0046410891 71:0.11200495 72:0.2914604 73:0.30012376 74:0.1042698 75:0.087561881 76:0.047339109 77:0.027227723 78:0.019492574 79:0.0058787129 80:0.0046410891 81:0.053217822 82:0.078589109 83:0.22339109 84:0.35983911 85:0.094368812 86:0.11417079 87:0.042079208 88:0.02134901 89:0.0092821782 90:0.0037128713 91:0.0043316832 92:0.1147896 93:0.18193069 94:0.02289604 96:0.66800743 100:0.0080445545 101:0.0043316832 103:0.04115099 104:0.29269802 105:0.38923267 106:0.13180693 107:0.096534653 108:0.038675743 109:0.0040222772 110:0.0015470297 111:0.11200495 112:0.2914604 113:0.30012376 114:0.1042698 115:0.087561881 116:0.047339109 117:0.027227723 118:0.019492574 119:0.0058787129 120:0.0046410891 121:0.03125 128:0.048576733 129:0.43811881 130:0.48205446 131:0.03125 138:0.0037128713 139:0.50402228 140:0.46101485 141:0.96875 150:0.03125 151:0.03125 158:0.34344059 159:0.49597772 160:0.12933168 161:0.7762995 162:0.1924505 170:0.03125 171:0.96875 180:0.03125 181:0.0099009901 184:0.0040222772 185:0.37747525 186:0.1197401 187:0.18316832 188:0.12283416 189:0.13861386 190:0.04424505 191:0.0099009901 194:0.020730198 195:0.42295792 196:0.084777228 197:0.1615099 198:0.11912129 199:0.1299505 200:0.05105198 201:0.65253713 202:0.33756188 210:0.0099009901 211:0.0099009901 219:0.10024752 220:0.88985149 221:0.56188119 222:0.3490099 223:0.079207921 230:0.0099009901 231:0.49350248 232:0.26113861 233:0.21225248 234:0.023205446 240:0.0099009901 241:0.0099009901 245:0.091584158 246:0.45266089 247:0.13335396 248:0.15006188 249:0.12592822 250:0.036509901 251:0.0099009901 255:0.31806931 256:0.25959158 257:0.098081683 258:0.16460396 259:0.11355198 260:0.036200495 261:0.85303218 262:0.13706683 270:0.0099009901 271:0.0099009901 279:0.12035891 280:0.8697401 281:0.64975248 282:0.33013614 283:0.010210396 290:0.0099009901 291:0.62964109 292:0.30352723 293:0.056930693 300:0.0099009901 301:0.040841584 305:0.0024752475 306:0.35086634 307:0.3595297 308:0.10674505 309:0.091584158 310:0.047957921 311:0.040841584 316:0.43193069 317:0.25278465 318:0.13366337 319:0.084777228 320:0.056002475 321:0.92326733 322:0.035891089 330:0.040841584 331:0.040841584 339:0.41243812 340:0.5467203 341:0.75340347 342:0.20575495 350:0.040841584 351:0.77691832 352:0.1822401 360:0.040841584 
0.1215512652031719 1:0.11111111 2:0.22222222 5:0.11111111 6:0.11111111 8:0.22222222 9:0.11111111 10:0.11111111 11:0.22222222 12:0.22222222 13:0.11111111 15:0.22222222 18:0.11111111 20:0.11111111 21:0.11111111 22:0.22222222 23:0.11111111 25:0.22222222 26:0.11111111 28:0.11111111 30:0.11111111 31:0.44444444 40:0.55555556 41:0.11111111 43:0.33333333 45:0.22222222 49:0.11111111 50:0.22222222 51:0.11111111 52:0.22222222 53:0.11111111 55:0.22222222 56:0.11111111 58:0.11111111 60:0.11111111 61:0.11111111 62:0.22222222 65:0.11111111 66:0.11111111 68:0.22222222 69:0.11111111 70:0.11111111 71:0.22222222 72:0.22222222 73:0.11111111 75:0.22222222 78:0.11111111 80:0.11111111 81:0.11111111 82:0.22222222 83:0.11111111 85:0.22222222 86:0.11111111 88:0.11111111 90:0.11111111 91:0.44444444 100:0.55555556 101:0.11111111 103:0.33333333 105:0.22222222 109:0.11111111 110:0.22222222 111:0.11111111 112:0.22222222 113:0.11111111 115:0.22222222 116:0.11111111 118:0.11111111 120:0.11111111 121:0.11111111 122:0.22222222 125:0.11111111 126:0.11111111 128:0.22222222 129:0.11111111 130:0.11111111 131:0.22222222 132:0.22222222 133:0.11111111 135:0.22222222 138:0.11111111 140:0.11111111 141:0.11111111 142:0.22222222 143:0.11111111 145:0.22222222 146:0.11111111 148:0.11111111 150:0.11111111 151:0.44444444 160:0.55555556 161:0.11111111 163:0.33333333 165:0.22222222 169:0.11111111 170:0.22222222 171:0.11111111 172:0.22222222 173:0.11111111 175:0.22222222 176:0.11111111 178:0.11111111 180:0.11111111 181:0.11111111 182:0.22222222 185:0.11111111 186:0.11111111 188:0.22222222 189:0.11111111 190:0.11111111 191:0.22222222 192:0.22222222 193:0.11111111 195:0.22222222 198:0.11111111 200:0.11111111 201:0.11111111 202:0.22222222 203:0.11111111 205:0.22222222 206:0.11111111 208:0.11111111 210:0.11111111 211:0.44444444 220:0.55555556 221:0.11111111 223:0.33333333 225:0.22222222 229:0.11111111 230:0.22222222 231:0.11111111 232:0.22222222 233:0.11111111 235:0.22222222 236:0.11111111 238:0.11111111 240:0.11111111 241:0.11111111 242:0.22222222 245:0.11111111 246:0.11111111 248:0.22222222 249:0.11111111 250:0.11111111 251:0.22222222 252:0.22222222 253:0.11111111 255:0.22222222 258:0.11111111 260:0.11111111 261:0.11111111 262:0.22222222 263:0.11111111 265:0.22222222 266:0.11111111 268:0.11111111 270:0.11111111 271:0.44444444 280:0.55555556 281:0.11111111 283:0.33333333 285:0.22222222 289:0.11111111 290:0.22222222 291:0.11111111 292:0.22222222 293:0.11111111 295:0.22222222 296:0.11111111 298:0.11111111 300:0.11111111 301:0.11111111 302:0.22222222 305:0.11111111 306:0.11111111 308:0.22222222 309:0.11111111 310:0.11111111 311:0.22222222 312:0.22222222 313:0.11111111 315:0.22222222 318:0.11111111 320:0.11111111 321:0.11111111 322:0.22222222 323:0.11111111 325:0.22222222 326:0.11111111 328:0.11111111 330:0.11111111 331:0.44444444 340:0.55555556 341:0.11111111 343:0.33333333 345:0.22222222 349:0.11111111 350:0.22222222 351:0.11111111 352:0.22222222 353:0.11111111 355:0.22222222 356:0.11111111 358:0.11111111 360:0.11111111 
0.01790059649749833 1:0.011642157 2:0.3526348 3:0.27359069 4:0.11488971 5:0.036458333 6:0.065257353 7:0.072610294 8:0.059436275 9:0.011029412 10:0.0024509804 11:0.15778186 12:0.36090686 13:0.20802696 14:0.047181373 15:0.075367647 16:0.073529412 17:0.046875 18:0.018382353 19:0.009497549 20:0.0024509804 21:0.13664216 22:0.22671569 23:0.34865196 24:0.075061275 25:0.070159314 26:0.068014706 27:0.04932598 28:0.016544118 29:0.006127451 30:0.0027573529 31:0.0085784314 33:0.021446078 34:0.0018382353 35:0.016237745 36:0.12316176 37:0.74417892 38:0.033088235 39:0.017156863 40:0.034313725 41:0.16544118 42:0.01317402 43:0.29718137 44:0.2879902 45:0.088848039 46:0.074448529 47:0.040441176 48:0.02879902 49:0.0027573529 50:0.00091911765 51:0.15778186 52:0.36090686 53:0.20802696 54:0.047181373 55:0.075367647 56:0.073529412 57:0.046875 58:0.018382353 59:0.009497549 60:0.0024509804 61:0.048713235 62:0.16881127 63:0.25183824 64:0.2533701 65:0.12591912 66:0.092830882 67:0.027879902 68:0.014093137 69:0.0098039216 70:0.0067401961 71:0.14828431 72:0.16574755 73:0.35631127 74:0.10539216 75:0.11948529 76:0.056985294 77:0.013786765 78:0.01807598 79:0.0067401961 80:0.0091911765 81:0.021752451 82:0.13694853 83:0.20373775 84:0.31464461 85:0.15992647 86:0.087316176 87:0.046262255 88:0.011642157 89:0.015012255 90:0.0027573529 91:0.0018382353 94:0.3002451 96:0.096813725 97:0.064644608 100:0.53645833 101:0.12622549 102:0.43167892 103:0.34558824 104:0.04442402 105:0.031862745 106:0.01317402 107:0.0045955882 108:0.00091911765 109:0.0012254902 110:0.00030637255 111:0.14828431 112:0.16574755 113:0.35631127 114:0.10539216 115:0.11948529 116:0.056985294 117:0.013786765 118:0.01807598 119:0.0067401961 120:0.0091911765 121:0.03125 128:0.23039216 129:0.62285539 130:0.11550245 131:0.03125 138:0.3370098 139:0.50459559 140:0.12714461 141:0.96875 150:0.03125 151:0.03125 159:0.73958333 160:0.22916667 161:0.70894608 162:0.25980392 170:0.03125 171:0.96875 180:0.03125 181:0.0098039216 184:0.070465686 185:0.40257353 186:0.19546569 187:0.15716912 188:0.13970588 189:0.023590686 190:0.0012254902 191:0.0098039216 194:0.14460784 195:0.31801471 196:0.10232843 197:0.19178922 198:0.12377451 199:0.10079657 200:0.0088848039 201:0.67095588 202:0.31862745 203:0.0006127451 210:0.0098039216 211:0.0098039216 219:0.066176471 220:0.92401961 221:0.37745098 222:0.40778186 223:0.20496324 230:0.0098039216 231:0.49908088 232:0.26930147 233:0.20373775 234:0.01807598 240:0.0098039216 241:0.0098039216 245:0.23131127 246:0.32598039 247:0.12867647 248:0.14522059 249:0.12867647 250:0.030330882 251:0.0098039216 255:0.41268382 256:0.15900735 257:0.11029412 258:0.15839461 259:0.10355392 260:0.046262255 261:0.81770833 262:0.17248775 270:0.0098039216 271:0.0098039216 279:0.35079657 280:0.63939951 281:0.65073529 282:0.31954657 283:0.019914216 290:0.0098039216 291:0.60416667 292:0.29595588 293:0.090073529 300:0.0098039216 301:0.040747549 306:0.33302696 307:0.33547794 308:0.16237745 309:0.10386029 310:0.024509804 311:0.040747549 316:0.33118873 317:0.29197304 318:0.1439951 319:0.11458333 320:0.077512255 321:0.94117647 322:0.01807598 330:0.040747549 331:0.040747549 339:0.072303922 340:0.88694853 341:0.60784314 342:0.35140931 350:0.040747549 351:0.73376225 352:0.2254902 360:0.040747549 
0.165447580065556 1:0.18658088 2:0.328125 3:0.18995098 4:0.038602941 5:0.052389706 6:0.072610294 7:0.052083333 8:0.063112745 9:0.012867647 10:0.0036764706 11:0.23897059 12:0.36550245 13:0.12591912 14:0.052389706 15:0.090992647 16:0.058517157 17:0.043198529 18:0.017463235 19:0.0042892157 20:0.0027573529 21:0.097426471 22:0.23897059 23:0.35202206 24:0.068627451 25:0.076286765 26:0.061887255 27:0.064031863 28:0.023590686 29:0.011948529 30:0.0052083333 31:0.014705882 32:0.022058824 33:0.022671569 35:0.83578431 37:0.034313725 38:0.016544118 39:0.034313725 40:0.019607843 41:0.1338848 42:0.075367647 43:0.29197304 44:0.2778799 45:0.10569853 46:0.067401961 47:0.023590686 48:0.016544118 49:0.0055147059 50:0.0021446078 51:0.23897059 52:0.36550245 53:0.12591912 54:0.052389706 55:0.090992647 56:0.058517157 57:0.043198529 58:0.017463235 59:0.0042892157 60:0.0027573529 61:0.041973039 62:0.15931373 63:0.1997549 64:0.27113971 65:0.12377451 66:0.1161152 67:0.047181373 68:0.022058824 69:0.010416667 70:0.0082720588 71:0.13602941 72:0.16053922 73:0.36550245 74:0.10140931 75:0.12071078 76:0.063112745 77:0.017156863 78:0.017463235 79:0.0064338235 80:0.011642157 81:0.056372549 82:0.10018382 83:0.38296569 84:0.17984069 85:0.14215686 86:0.074448529 87:0.032781863 88:0.017156863 89:0.012254902 90:0.0018382353 91:0.0024509804 93:0.21262255 94:0.024509804 95:0.066789216 97:0.69240196 100:0.0012254902 101:0.15104167 102:0.41789216 103:0.33792892 104:0.041360294 105:0.029411765 106:0.013786765 107:0.006127451 108:0.00091911765 109:0.0012254902 110:0.00030637255 111:0.13602941 112:0.16053922 113:0.36550245 114:0.10140931 115:0.12071078 116:0.063112745 117:0.017156863 118:0.017463235 119:0.0064338235 120:0.011642157 121:0.03125 128:0.234375 129:0.60845588 130:0.12591912 131:0.03125 138:0.34681373 139:0.49142157 140:0.13051471 141:0.96875 150:0.03125 151:0.03125 159:0.7622549 160:0.2064951 161:0.67738971 162:0.29136029 170:0.03125 171:0.96875 180:0.03125 181:0.0098039216 185:0.40226716 186:0.1338848 187:0.20006127 188:0.13633578 189:0.10355392 190:0.014093137 191:0.0098039216 194:0.015012255 195:0.38112745 196:0.12928922 197:0.15992647 198:0.10723039 199:0.12316176 200:0.074448529 201:0.67892157 202:0.31096814 203:0.00030637255 210:0.0098039216 211:0.0098039216 219:0.087622549 220:0.90257353 221:0.29993873 222:0.4721201 223:0.21691176 224:0.0012254902 230:0.0098039216 231:0.50551471 232:0.26501225 233:0.21292892 234:0.0067401961 240:0.0098039216 241:0.0098039216 245:0.23069853 246:0.31740196 247:0.11917892 248:0.14859069 249:0.13756127 250:0.036764706 251:0.0098039216 255:0.42003676 256:0.15441176 257:0.097120098 258:0.1596201 259:0.10784314 260:0.051164216 261:0.85477941 262:0.13541667 270:0.0098039216 271:0.0098039216 279:0.2879902 280:0.70220588 281:0.65747549 282:0.30698529 283:0.025735294 290:0.0098039216 291:0.62224265 292:0.28492647 293:0.083026961 300:0.0098039216 301:0.040747549 306:0.34344363 307:0.32536765 308:0.16268382 309:0.091605392 310:0.036151961 311:0.040747549 316:0.33823529 317:0.31862745 318:0.12898284 319:0.11672794 320:0.056678922 321:0.94240196 322:0.01685049 330:0.040747549 331:0.040747549 339:0.059742647 340:0.8995098 341:0.63265931 342:0.32598039 343:0.0006127451 350:0.040747549 351:0.73958333 352:0.21966912 360:0.040747549 
0.05685229034610006 1:0.024621212 2:0.23011364 3:0.16824495 4:0.045454545 5:0.030934343 6:0.054292929 7:0.10795455 8:0.11805556 9:0.13036616 10:0.089962121 11:0.015782828 12:0.25599747 13:0.16319444 14:0.049242424 15:0.051136364 16:0.098169192 17:0.0015782828 18:0.1322601 19:0.14109848 20:0.091540404 21:0.0012626263 22:0.0056818182 23:0.056818182 24:0.30271465 25:0.25820707 26:0.0056818182 27:0.13478535 28:0.14330808 29:0.049873737 30:0.041666667 31:0.0075757576 32:0.40025253 35:0.064393939 38:0.49242424 39:0.031565657 40:0.0037878788 41:0.031565657 44:0.3844697 45:0.015782828 47:0.091540404 48:0.27114899 49:0.14614899 50:0.059343434 51:0.015782828 52:0.25599747 53:0.16319444 54:0.049242424 55:0.051136364 56:0.098169192 58:0.13005051 59:0.14267677 60:0.09375 61:0.090277778 62:0.10511364 63:0.057449495 64:0.10921717 65:0.27525253 66:0.053661616 67:0.15467172 68:0.10890152 70:0.045454545 71:0.0047348485 72:0.15688131 73:0.18276515 74:0.13825758 75:0.10006313 76:0.16950758 77:0.17392677 78:0.019886364 79:0.037878788 80:0.016098485 81:0.0012626263 82:0.025883838 83:0.12310606 84:0.24179293 85:0.29734848 86:0.19381313 87:0.013888889 88:0.052714646 89:0.016098485 90:0.034090909 91:0.20707071 95:0.19128788 99:0.39457071 100:0.20707071 101:0.1322601 102:0.074810606 103:0.025252525 104:0.096275253 105:0.085542929 107:0.039772727 108:0.17392677 109:0.34501263 110:0.027146465 111:0.0047348485 112:0.15688131 113:0.18276515 114:0.13825758 115:0.10006313 116:0.16950758 117:0.17392677 118:0.019886364 119:0.037878788 120:0.016098485 121:0.03125 128:0.10037879 129:0.49589646 130:0.37247475 131:0.03125 138:0.0018939394 139:0.36837121 140:0.59848485 141:0.96875 150:0.03125 151:0.03125 156:0.27556818 158:0.16919192 160:0.5239899 161:0.68907828 162:0.27967172 170:0.03125 171:0.96875 180:0.03125 181:0.01010101 186:0.2790404 187:0.22253788 188:0.22537879 189:0.20170455 190:0.061237374 191:0.01010101 196:0.21527778 197:0.28630051 198:0.16887626 199:0.25820707 200:0.061237374 201:0.98263889 202:0.007260101 210:0.01010101 211:0.01010101 216:0.17171717 218:0.016414141 220:0.80176768 221:0.96685606 222:0.023042929 230:0.01010101 231:0.96875 232:0.02114899 240:0.01010101 241:0.01010101 246:0.0078914141 247:0.44034091 248:0.23295455 249:0.18371212 250:0.125 251:0.01010101 257:0.44002525 258:0.23642677 259:0.18844697 260:0.125 261:0.98989899 270:0.01010101 271:0.01010101 278:0.032828283 280:0.95707071 281:0.88604798 282:0.10385101 290:0.01010101 291:0.98989899 300:0.01010101 301:0.041035354 307:0.081123737 308:0.68686869 309:0.11016414 310:0.080808081 311:0.041035354 318:0.42487374 319:0.34943182 320:0.18465909 321:0.95896465 330:0.041035354 331:0.041035354 336:0.12184343 338:0.39709596 340:0.44002525 341:0.76388889 342:0.19507576 350:0.041035354 351:0.95896465 360:0.041035354 
0.05771592991371899 1:0.030671296 2:0.069733796 3:0.21325231 4:0.23119213 5:0.27835648 6:0.14641204 7:0.0060763889 8:0.0043402778 9:0.014178241 10:0.005787037 11:0.066550926 12:0.046006944 13:0.2337963 14:0.38657407 15:0.15364583 16:0.081886574 17:0.0063657407 18:0.0078125 19:0.011284722 20:0.0060763889 21:0.002025463 22:0.039351852 23:0.40046296 24:0.42997685 25:0.089409722 26:0.0046296296 27:0.009837963 28:0.0066550926 29:0.01099537 30:0.0066550926 31:0.017361111 32:0.0075231481 34:0.15393519 35:0.42158565 37:0.22685185 38:0.15393519 39:0.015046296 40:0.0037615741 41:0.017361111 42:0.0023148148 43:0.081018519 45:0.002025463 46:0.40133102 47:0.16030093 48:0.18287037 49:0.13049769 50:0.022280093 51:0.030671296 52:0.069733796 53:0.21325231 54:0.23119213 55:0.27835648 56:0.14641204 57:0.0060763889 58:0.0043402778 59:0.014178241 60:0.005787037 61:0.00086805556 62:0.0026041667 63:0.00086805556 64:0.14380787 65:0.1484375 66:0.2259838 67:0.16927083 68:0.091724537 69:0.15856481 70:0.05787037 71:0.00086805556 72:0.00086805556 73:0.0017361111 74:0.028935185 75:0.10648148 76:0.1796875 77:0.17621528 78:0.27806713 79:0.1796875 80:0.047453704 81:0.00086805556 82:0.00086805556 83:0.0017361111 84:0.0054976852 85:0.05931713 86:0.22858796 87:0.1484375 88:0.2271412 89:0.23148148 90:0.096064815 91:0.14814815 96:0.64351852 100:0.20833333 101:0.014756944 102:0.22251157 103:0.13541667 104:0.030381944 105:0.0092592593 106:0.069155093 107:0.21701389 108:0.098958333 109:0.079861111 110:0.12268519 111:0.00086805556 112:0.0026041667 113:0.00086805556 114:0.14380787 115:0.1484375 116:0.2259838 117:0.16927083 118:0.091724537 119:0.15856481 120:0.05787037 121:0.03125 127:0.06712963 128:0.31597222 129:0.26822917 130:0.31741898 131:0.03125 138:0.088252315 139:0.546875 140:0.33362269 141:0.96875 150:0.03125 151:0.03125 155:0.055555556 159:0.42592593 160:0.48726852 161:0.46643519 162:0.50231481 170:0.03125 171:0.96875 180:0.03125 181:0.0092592593 183:0.046296296 184:0.6634838 185:0.23900463 186:0.03587963 187:0.0023148148 188:0.0017361111 189:0.00086805556 190:0.0011574074 191:0.0092592593 194:0.55873843 195:0.41927083 196:0.0078125 197:0.0017361111 198:0.00086805556 199:0.0014467593 200:0.00086805556 201:0.984375 202:0.0040509259 203:0.0023148148 210:0.0092592593 211:0.019675926 213:0.0023148148 214:0.0023148148 216:0.09837963 217:0.39409722 218:0.21788194 219:0.25954861 220:0.005787037 221:0.16869213 222:0.50173611 223:0.25925926 224:0.059606481 225:0.0014467593 230:0.0092592593 231:0.94878472 232:0.038194444 233:0.0026041667 234:0.0011574074 240:0.0092592593 241:0.0092592593 246:0.089988426 247:0.1490162 248:0.23813657 249:0.32986111 250:0.18373843 251:0.0092592593 257:0.084780093 258:0.22540509 259:0.38454861 260:0.29600694 261:0.99074074 270:0.0092592593 271:0.0092592593 278:0.081597222 279:0.20949074 280:0.69965278 281:0.27112269 282:0.45630787 283:0.26331019 290:0.0092592593 291:0.91087963 292:0.079861111 300:0.0092592593 301:0.040219907 306:0.043981481 307:0.47453704 308:0.28443287 309:0.12615741 310:0.030671296 311:0.040219907 316:0.0083912037 317:0.47829861 318:0.30324074 319:0.14612269 320:0.023726852 321:0.95978009 330:0.040219907 331:0.040219907 336:0.0092592593 337:0.018518519 339:0.38310185 340:0.54890046 341:0.17274306 342:0.75231481 343:0.034722222 350:0.040219907 351:0.95978009 360:0.040219907 
0.008417772935326405 1:0.084862385 2:0.017775229 3:0.072534404 4:0.36811927 5:0.19982798 6:0.17574541 7:0.05934633 8:0.0040137615 9:0.004587156 10:0.013188073 11:0.0077408257 12:0.12241972 13:0.23480505 14:0.35693807 15:0.16829128 16:0.066513761 17:0.020642202 18:0.0020068807 19:0.0068807339 20:0.013761468 21:0.0014334862 22:0.057626147 23:0.37872706 24:0.47677752 25:0.05733945 26:0.0054472477 27:0.0043004587 28:0.0060206422 29:0.0077408257 30:0.004587156 31:0.001146789 33:0.010321101 36:0.095183486 37:0.23308486 38:0.38646789 39:0.22477064 40:0.049025229 41:0.001146789 42:0.080275229 43:0.0014334862 44:0.016915138 45:0.010607798 46:0.052178899 47:0.38044725 48:0.17459862 49:0.1978211 50:0.084575688 51:0.084862385 52:0.017775229 53:0.072534404 54:0.36811927 55:0.19982798 56:0.17574541 57:0.05934633 58:0.0040137615 59:0.004587156 60:0.013188073 61:0.001146789 62:0.010607798 63:0.034977064 64:0.11095183 65:0.16399083 66:0.24483945 67:0.13044725 68:0.1559633 69:0.13618119 70:0.010894495 71:0.001146789 72:0.001146789 73:0.0040137615 74:0.031536697 75:0.10263761 76:0.30103211 77:0.045011468 78:0.46473624 79:0.043864679 80:0.0048738532 81:0.001146789 82:0.001146789 83:0.0025802752 84:0.005733945 85:0.069094037 86:0.24455275 87:0.11725917 88:0.23824541 89:0.23107798 90:0.089162844 91:0.0091743119 95:0.1766055 98:0.61754587 99:0.003440367 100:0.19323394 101:0.11811927 102:0.17459862 103:0.13044725 104:0.055905963 105:0.32110092 106:0.073107798 107:0.12213303 108:0.00086009174 109:0.0025802752 110:0.001146789 111:0.001146789 112:0.0060206422 113:0.03956422 114:0.11095183 115:0.16399083 116:0.24483945 117:0.13044725 118:0.1559633 119:0.13618119 120:0.010894495 121:0.03125 126:0.00086009174 127:0.086009174 128:0.32425459 129:0.25917431 130:0.29845183 131:0.03125 137:0.001146789 138:0.098337156 139:0.55447248 140:0.31479358 141:0.96875 150:0.03125 151:0.03125 155:0.064220183 159:0.43233945 160:0.47219037 161:0.45527523 162:0.51347477 170:0.03125 171:0.96875 180:0.03125 181:0.0091743119 183:0.0625 184:0.66313073 185:0.23079128 186:0.028669725 187:0.0028669725 188:0.0014334862 189:0.0005733945 190:0.00086009174 191:0.0091743119 194:0.55877294 195:0.42115826 196:0.0060206422 197:0.0020068807 198:0.001146789 199:0.00086009174 200:0.00086009174 201:0.98595183 202:0.0031536697 203:0.0017201835 210:0.0091743119 211:0.010894495 215:0.0068807339 216:0.1141055 217:0.003440367 218:0.43520642 219:0.18663991 220:0.24283257 221:0.14850917 222:0.55619266 223:0.23021789 224:0.055045872 225:0.00086009174 230:0.0091743119 231:0.95642202 232:0.031536697 233:0.0020068807 234:0.00086009174 240:0.0091743119 241:0.0091743119 246:0.041571101 247:0.19954128 248:0.16399083 249:0.3856078 250:0.20011468 251:0.0091743119 257:0.079701835 258:0.22591743 259:0.39334862 260:0.2918578 261:0.99082569 270:0.0091743119 271:0.0091743119 278:0.11353211 279:0.21043578 280:0.6668578 281:0.21473624 282:0.50946101 283:0.26662844 290:0.0091743119 291:0.93405963 292:0.056766055 300:0.0091743119 301:0.040137615 306:0.046444954 307:0.48738532 308:0.27178899 309:0.12270642 310:0.031536697 311:0.040137615 316:0.0077408257 317:0.49369266 318:0.2815367 319:0.14478211 320:0.032110092 321:0.95986239 330:0.040137615 331:0.040137615 336:0.0091743119 337:0.026376147 339:0.43463303 340:0.4896789 341:0.16571101 342:0.76519495 343:0.028956422 350:0.040137615 351:0.95986239 360:0.040137615 
0.02706158675955558 1:0.030348558 2:0.079026442 3:0.28485577 4:0.13822115 5:0.19471154 6:0.17548077 7:0.036959135 8:0.030949519 9:0.022836538 10:0.0066105769 11:0.00030048077 13:0.0033052885 14:0.080829327 15:0.46634615 16:0.2515024 17:0.15955529 18:0.014723558 19:0.017427885 20:0.0060096154 21:0.00030048077 23:0.0063100962 24:0.28155048 25:0.42157452 26:0.234375 27:0.029146635 28:0.0090144231 29:0.0078125 30:0.0099158654 31:0.030048077 32:0.027043269 33:0.14483173 34:0.26862981 35:0.18329327 36:0.22776442 37:0.095552885 38:0.015625 39:0.0048076923 40:0.0024038462 41:0.030048077 43:0.021033654 44:0.052884615 45:0.21634615 46:0.22325721 47:0.19801683 48:0.18449519 49:0.026742788 50:0.047175481 51:0.030348558 52:0.079026442 53:0.28485577 54:0.13822115 55:0.19471154 56:0.17548077 57:0.036959135 58:0.030949519 59:0.022836538 60:0.0066105769 61:0.0036057692 62:0.031550481 63:0.12079327 64:0.0051081731 65:0.22115385 66:0.28155048 67:0.048076923 68:0.25871394 69:0.020733173 70:0.0087139423 71:0.0036057692 72:0.0018028846 73:0.027944712 74:0.059495192 75:0.069711538 76:0.14873798 77:0.039362981 78:0.29807692 79:0.28876202 80:0.0625 81:0.0012019231 82:0.0027043269 83:0.0036057692 84:0.030649038 85:0.20643029 86:0.073918269 87:0.21604567 88:0.30859375 89:0.1343149 90:0.022536058 91:0.11538462 95:0.52163462 96:0.012620192 98:0.057692308 99:0.28545673 100:0.0072115385 101:0.038762019 102:0.13882212 103:0.049278846 104:0.20402644 105:0.24278846 106:0.2578125 107:0.040564904 108:0.016526442 109:0.0030048077 110:0.0084134615 111:0.0036057692 112:0.031550481 113:0.12079327 114:0.0051081731 115:0.22115385 116:0.28155048 117:0.048076923 118:0.25871394 119:0.020733173 120:0.0087139423 121:0.03125 127:0.039663462 128:0.32151442 129:0.28094952 130:0.3266226 131:0.03125 138:0.070913462 139:0.39092548 140:0.50691106 141:0.96875 150:0.03125 151:0.03125 155:0.03125 158:0.42487981 159:0.34314904 160:0.16947115 161:0.43719952 162:0.53155048 170:0.03125 171:0.96875 180:0.03125 181:0.0096153846 183:0.20793269 184:0.67277644 185:0.086237981 186:0.013822115 187:0.0027043269 188:0.0015024038 189:0.0033052885 190:0.0021033654 191:0.0096153846 193:0.0012019231 194:0.75961538 195:0.21784856 196:0.0030048077 197:0.0027043269 198:0.0012019231 199:0.0030048077 200:0.0018028846 201:0.97896635 202:0.0051081731 203:0.0048076923 204:0.0015024038 210:0.0096153846 211:0.0096153846 214:0.0012019231 216:0.024038462 217:0.45192308 218:0.28064904 219:0.22295673 220:0.0096153846 221:0.44651442 222:0.37109375 223:0.11899038 224:0.048677885 225:0.0051081731 230:0.0096153846 231:0.92067308 232:0.060997596 233:0.0033052885 234:0.0048076923 235:0.00060096154 240:0.0096153846 241:0.0096153846 246:0.075120192 247:0.16586538 248:0.26682692 249:0.31189904 250:0.17067308 251:0.0096153846 257:0.0625 258:0.1655649 259:0.45973558 260:0.30258413 261:0.99038462 270:0.0096153846 271:0.0096153846 278:0.096754808 279:0.16887019 280:0.72475962 281:0.10396635 282:0.52764423 283:0.35877404 290:0.0096153846 291:0.89242788 292:0.097956731 300:0.0096153846 301:0.040564904 306:0.049579327 307:0.31159856 308:0.3344351 309:0.20643029 310:0.057391827 311:0.040564904 316:0.00030048077 317:0.25420673 318:0.4906851 319:0.17397837 320:0.040264423 321:0.9594351 330:0.040564904 331:0.040564904 336:0.0084134615 337:0.048076923 338:0.0012019231 339:0.29957933 340:0.60216346 341:0.045072115 342:0.8969351 343:0.017427885 350:0.040564904 351:0.9594351 360:0.040564904 
0.1445291800372796 1:0.011635638 2:0.020279255 3:0.055851064 4:0.26296543 5:0.12799202 6:0.29454787 7:0.13530585 8:0.062167553 9:0.025930851 10:0.0033244681 11:0.006981383 12:0.0046542553 14:0.1306516 15:0.13331117 16:0.1150266 17:0.49401596 18:0.068151596 19:0.015957447 20:0.03125 21:0.0093085106 22:0.025930851 23:0.075797872 24:0.42253989 25:0.39228723 26:0.034242021 27:0.029920213 28:0.0083111702 30:0.001662234 31:0.029920213 32:0.0013297872 33:0.10305851 34:0.098404255 35:0.019281915 36:0.33976064 37:0.36303191 38:0.031914894 39:0.010638298 40:0.0026595745 41:0.027593085 42:0.024933511 43:0.084773936 44:0.11835106 45:0.10771277 46:0.076462766 47:0.31416223 48:0.097074468 49:0.1349734 50:0.013962766 51:0.011635638 52:0.020279255 53:0.055851064 54:0.26296543 55:0.12799202 56:0.29454787 57:0.13530585 58:0.062167553 59:0.025930851 60:0.0033244681 61:0.0013297872 62:0.084109043 63:0.13763298 64:0.091090426 65:0.17985372 66:0.14494681 67:0.097074468 68:0.098736702 69:0.097406915 70:0.067819149 71:0.0013297872 72:0.029920213 73:0.099734043 74:0.20279255 75:0.13164894 76:0.16323138 77:0.15757979 78:0.11170213 79:0.073803191 80:0.028257979 81:0.0029920213 82:0.025598404 83:0.06150266 84:0.16023936 85:0.34109043 86:0.12034574 87:0.061170213 88:0.17586436 89:0.046210106 90:0.0049867021 91:0.021276596 94:0.029255319 96:0.16589096 98:0.60605053 99:0.12632979 100:0.051196809 101:0.14594415 103:0.051196809 104:0.19980053 105:0.26163564 106:0.18085106 107:0.08643617 108:0.069148936 109:0.001662234 110:0.0033244681 111:0.0013297872 112:0.062832447 113:0.13597074 114:0.072805851 115:0.22107713 116:0.14494681 117:0.097074468 118:0.098736702 119:0.097406915 120:0.067819149 121:0.03125 126:0.008643617 127:0.10139628 128:0.73071809 129:0.09474734 130:0.033244681 131:0.03125 137:0.019946809 138:0.55152926 139:0.38297872 140:0.014295213 141:0.96875 150:0.03125 151:0.03125 156:0.027925532 159:0.080452128 160:0.86037234 161:0.82380319 162:0.14494681 170:0.03125 171:0.96875 180:0.03125 181:0.010638298 185:0.00099734043 186:0.019946809 187:0.21476064 188:0.31117021 189:0.25664894 190:0.18583777 191:0.010638298 197:0.066821809 198:0.21509309 199:0.4375 200:0.26994681 201:0.9893617 210:0.010638298 211:0.010638298 213:0.0059840426 215:0.0059840426 216:0.0059840426 218:0.13131649 219:0.46010638 220:0.3799867 221:0.31216755 222:0.26329787 223:0.37333777 224:0.040558511 230:0.010638298 231:0.80352394 232:0.18583777 240:0.010638298 241:0.010638298 246:0.15492021 247:0.2862367 248:0.23304521 249:0.23337766 250:0.081781915 251:0.010638298 257:0.18384309 258:0.33011968 259:0.24667553 260:0.2287234 261:0.9893617 270:0.010638298 271:0.010638298 273:0.0033244681 278:0.12300532 279:0.037566489 280:0.82546543 281:0.13962766 282:0.65591755 283:0.19381649 290:0.010638298 291:0.94082447 292:0.048537234 300:0.010638298 301:0.041555851 305:0.033909574 306:0.52925532 307:0.26628989 308:0.070146277 309:0.036901596 310:0.021941489 311:0.041555851 316:0.19880319 317:0.61136968 318:0.063164894 319:0.047539894 320:0.037566489 321:0.95844415 330:0.041555851 331:0.041555851 336:0.12234043 339:0.39893617 340:0.43716755 341:0.55618351 342:0.40226064 350:0.041555851 351:0.94913564 352:0.0093085106 360:0.041555851 
0.036759257033414 1:0.0090277778 2:0.023958333 3:0.0125 4:0.016666667 5:0.25486111 6:0.16875 7:0.13159722 8:0.14479167 9:0.11979167 10:0.11805556 11:0.0090277778 13:0.023958333 14:0.086805556 15:0.16736111 16:0.29618056 17:0.14513889 18:0.041319444 19:0.15416667 20:0.076041667 21:0.0024305556 22:0.0065972222 23:0.0013888889 24:0.032291667 25:0.109375 26:0.30763889 27:0.27430556 28:0.15694444 29:0.10381944 30:0.0052083333 31:0.045138889 35:0.021527778 36:0.038888889 37:0.28263889 39:0.57152778 40:0.040277778 41:0.035416667 42:0.019097222 43:0.031597222 44:0.22152778 45:0.00069444444 46:0.103125 47:0.196875 48:0.23368056 49:0.14201389 50:0.015972222 51:0.0090277778 52:0.023958333 53:0.0125 54:0.016666667 55:0.25486111 56:0.16875 57:0.13159722 58:0.14479167 59:0.11979167 60:0.11805556 61:0.033333333 62:0.13472222 63:0.081944444 64:0.085763889 65:0.15659722 66:0.14375 67:0.045833333 68:0.178125 69:0.063541667 70:0.076388889 71:0.058680556 72:0.10069444 73:0.13611111 74:0.10104167 75:0.14270833 76:0.012847222 77:0.085069444 78:0.15277778 79:0.13125 80:0.078819444 81:0.00034722222 82:0.014236111 83:0.060763889 84:0.15416667 85:0.19027778 86:0.12673611 87:0.048611111 88:0.18784722 89:0.19375 90:0.023263889 91:0.023611111 95:0.055555556 97:0.15 98:0.054166667 99:0.44444444 100:0.27222222 101:0.15 104:0.032986111 105:0.26736111 106:0.22673611 107:0.20243056 108:0.037152778 109:0.063541667 110:0.019791667 111:0.045486111 112:0.1375 113:0.040972222 114:0.175 115:0.092708333 116:0.14444444 117:0.073958333 118:0.15 119:0.063541667 120:0.076388889 121:0.03125 127:0.088888889 128:0.11458333 129:0.58854167 130:0.17673611 131:0.03125 138:0.089583333 139:0.33819444 140:0.54097222 141:0.96875 150:0.03125 151:0.03125 156:0.13923611 159:0.12152778 160:0.70798611 161:0.73958333 162:0.22916667 170:0.03125 171:0.96875 180:0.03125 181:0.011111111 186:0.048958333 187:0.21180556 188:0.35381944 189:0.18263889 190:0.19166667 191:0.011111111 197:0.016319444 198:0.18402778 199:0.37708333 200:0.41145833 201:0.98888889 210:0.011111111 211:0.0125 213:0.0013888889 215:0.0013888889 217:0.0013888889 218:0.16041667 219:0.29305556 220:0.52986111 221:0.061111111 222:0.26388889 223:0.35729167 224:0.30659722 230:0.011111111 231:0.79722222 232:0.19166667 240:0.011111111 241:0.011111111 246:0.11944444 247:0.33229167 248:0.28611111 249:0.17534722 250:0.075694444 251:0.011111111 257:0.20347222 258:0.34375 259:0.225 260:0.21666667 261:0.98888889 270:0.011111111 271:0.011111111 277:0.0013888889 278:0.072222222 279:0.064583333 280:0.85069444 281:0.48402778 282:0.39930556 283:0.10555556 290:0.011111111 291:0.93923611 292:0.049652778 300:0.011111111 301:0.042013889 305:0.0027777778 306:0.098958333 307:0.58402778 308:0.21701389 309:0.032638889 310:0.022569444 311:0.042013889 316:0.046527778 317:0.79513889 318:0.05625 319:0.036111111 320:0.023958333 321:0.95798611 330:0.042013889 331:0.042013889 335:0.0048611111 336:0.020138889 337:0.046527778 339:0.22916667 340:0.65729167 341:0.35486111 342:0.60034722 343:0.0027777778 350:0.042013889 351:0.95798611 360:0.042013889 
-0.04389343320854594 1:0.033394608 2:0.15379902 3:0.16636029 4:0.14430147 5:0.11366422 6:0.13939951 7:0.14001225 8:0.057598039 9:0.034926471 10:0.016544118 11:0.068627451 12:0.27052696 13:0.12745098 14:0.16421569 15:0.20098039 16:0.079044118 17:0.052083333 18:0.022671569 19:0.0098039216 20:0.0045955882 21:0.0018382353 22:0.014093137 23:0.046262255 24:0.049938725 25:0.088235294 26:0.14460784 27:0.13112745 28:0.38694853 29:0.12867647 30:0.0082720588 31:0.021139706 32:0.081495098 33:0.1875 34:0.171875 36:0.15870098 37:0.23253676 38:0.093443627 39:0.043504902 40:0.0098039216 41:0.01807598 42:0.04442402 43:0.17463235 44:0.10447304 45:0.16053922 46:0.09129902 47:0.13265931 48:0.13265931 49:0.109375 50:0.031862745 51:0.033394608 52:0.15379902 53:0.16636029 54:0.14430147 55:0.11366422 56:0.13939951 57:0.14001225 58:0.057598039 59:0.034926471 60:0.016544118 61:0.085171569 62:0.22855392 63:0.21231618 64:0.14031863 65:0.059129902 66:0.056678922 67:0.047487745 68:0.058210784 69:0.095588235 70:0.016544118 71:0.026348039 72:0.19883578 73:0.26286765 74:0.15839461 75:0.090073529 76:0.04564951 77:0.072303922 78:0.063419118 79:0.065563725 80:0.016544118 81:0.0015318627 82:0.0045955882 83:0.054840686 84:0.11366422 85:0.21660539 86:0.41942402 87:0.125 88:0.055147059 89:0.006127451 90:0.0030637255 91:0.0012254902 92:0.023284314 93:0.1004902 94:0.25428922 95:0.20067402 96:0.27726716 97:0.094362745 98:0.03125 99:0.012254902 100:0.0049019608 101:0.010416667 102:0.077818627 103:0.20833333 104:0.16911765 105:0.17126225 106:0.089767157 107:0.071691176 108:0.09252451 109:0.086397059 110:0.022671569 111:0.085171569 112:0.22855392 113:0.21231618 114:0.14031863 115:0.059129902 116:0.056678922 117:0.047487745 118:0.058210784 119:0.095588235 120:0.016544118 121:0.03125 123:0.010416667 124:0.085477941 125:0.37561275 126:0.3348652 127:0.087928922 128:0.040441176 129:0.021446078 130:0.012561275 131:0.03125 135:0.015931373 136:0.27971814 137:0.38419118 138:0.234375 139:0.040134804 140:0.01439951 141:0.96875 150:0.03125 151:0.03125 159:0.0073529412 160:0.96139706 161:0.024509804 162:0.043504902 163:0.24877451 164:0.32720588 165:0.22640931 166:0.072303922 167:0.019914216 168:0.006127451 170:0.03125 171:0.090073529 172:0.55269608 173:0.24846814 174:0.053002451 175:0.023897059 176:0.0006127451 180:0.03125 181:0.0098039216 183:0.32935049 184:0.41758578 185:0.20343137 186:0.0042892157 187:0.0021446078 188:0.0079656863 189:0.01317402 190:0.012254902 191:0.0098039216 193:0.28186275 194:0.62867647 195:0.041666667 196:0.0052083333 197:0.006127451 198:0.0058210784 199:0.010723039 200:0.010110294 201:0.030943627 202:0.95343137 203:0.0058210784 210:0.0098039216 211:0.0098039216 219:0.93627451 220:0.053921569 221:0.0070465686 222:0.050551471 223:0.17984069 224:0.234375 225:0.26623775 226:0.20588235 227:0.017463235 228:0.0088848039 229:0.011335784 230:0.018382353 231:0.28308824 232:0.29932598 233:0.32873775 234:0.040747549 235:0.0027573529 236:0.0018382353 237:0.0064338235 238:0.0085784314 239:0.011335784 240:0.017156863 241:0.0098039216 245:0.026654412 246:0.16421569 247:0.086397059 248:0.15318627 249:0.35232843 250:0.20741422 251:0.0098039216 256:0.012254902 257:0.18504902 258:0.1216299 259:0.46966912 260:0.20159314 261:0.99019608 270:0.0098039216 271:0.0098039216 280:0.99019608 281:0.018995098 282:0.15134804 283:0.054534314 284:0.15747549 285:0.29656863 286:0.29810049 287:0.01317402 290:0.0098039216 291:0.1752451 292:0.11121324 293:0.30759804 294:0.39368873 295:0.0024509804 300:0.0098039216 301:0.040747549 305:0.13265931 306:0.19362745 307:0.035845588 308:0.14123775 309:0.3125 310:0.14338235 311:0.040747549 316:0.11519608 317:0.21660539 318:0.045343137 319:0.34221814 320:0.23988971 321:0.95925245 330:0.040747549 331:0.040747549 340:0.95925245 341:0.13419118 342:0.18167892 343:0.041973039 344:0.060661765 345:0.36917892 346:0.17156863 350:0.040747549 351:0.29534314 352:0.074448529 353:0.37683824 354:0.21262255 360:0.040747549 
-0.08285586542798508 1:0.063344595 2:0.41019144 3:0.15484234 4:0.095439189 5:0.088400901 6:0.067286036 7:0.076013514 8:0.025056306 9:0.015202703 10:0.004222973 11:0.044763514 12:0.19594595 13:0.37021396 14:0.16554054 15:0.078547297 16:0.089245495 17:0.026182432 18:0.018018018 19:0.0095720721 20:0.0019707207 21:0.0014076577 22:0.026463964 23:0.081644144 24:0.36627252 25:0.25703829 26:0.16244369 27:0.066441441 28:0.022240991 29:0.011824324 30:0.004222973 31:0.0056306306 32:0.0011261261 33:0.022522523 34:0.070945946 35:0.16216216 36:0.31756757 37:0.2240991 38:0.14414414 39:0.033783784 40:0.018018018 41:0.018581081 42:0.087556306 43:0.25394144 44:0.18581081 45:0.1295045 46:0.087274775 47:0.094876126 48:0.10613739 49:0.029560811 50:0.0067567568 51:0.063344595 52:0.41019144 53:0.15484234 54:0.095439189 55:0.088400901 56:0.067286036 57:0.076013514 58:0.025056306 59:0.015202703 60:0.004222973 61:0.029842342 62:0.066441441 63:0.26097973 64:0.19087838 65:0.10388514 66:0.14132883 67:0.096565315 68:0.054335586 69:0.038288288 70:0.017454955 71:0.030405405 72:0.046452703 73:0.077984234 74:0.32150901 75:0.1776464 76:0.16019144 77:0.085585586 78:0.065315315 79:0.033783784 80:0.0011261261 81:0.0033783784 82:0.033502252 83:0.059121622 84:0.1829955 85:0.37415541 86:0.21762387 87:0.091497748 88:0.032094595 89:0.0053490991 90:0.00028153153 91:0.0045045045 92:0.0045045045 93:0.048423423 94:0.015765766 95:0.067567568 96:0.28603604 97:0.15427928 98:0.26576577 99:0.10810811 100:0.045045045 101:0.0033783784 102:0.0064752252 103:0.023367117 104:0.068412162 105:0.2446509 106:0.1722973 107:0.15118243 108:0.1875 109:0.11993243 110:0.022804054 111:0.029842342 112:0.066441441 113:0.26097973 114:0.19087838 115:0.10388514 116:0.14132883 117:0.096565315 118:0.054335586 119:0.038288288 120:0.017454955 121:0.03125 124:0.035472973 125:0.09375 126:0.38597973 127:0.22888514 128:0.12415541 129:0.098536036 130:0.0019707207 131:0.03125 135:0.0033783784 136:0.043918919 137:0.15202703 138:0.53885135 139:0.21311937 140:0.017454955 141:0.96875 150:0.03125 151:0.03125 159:0.0050675676 160:0.96368243 161:0.010135135 162:0.033783784 163:0.23507883 164:0.40512387 165:0.26942568 166:0.015202703 170:0.03125 171:0.40737613 172:0.51745495 173:0.043918919 180:0.03125 181:0.009009009 185:0.23170045 186:0.069256757 187:0.033220721 188:0.14836712 189:0.3223536 190:0.18609234 191:0.009009009 196:0.0061936937 197:0.29251126 198:0.031531532 199:0.43327703 200:0.22747748 201:0.99099099 210:0.009009009 211:0.009009009 220:0.99099099 221:0.20326577 222:0.083333333 223:0.040822072 224:0.084177928 225:0.50816441 226:0.071227477 230:0.009009009 231:0.30489865 232:0.095157658 233:0.4740991 234:0.11683559 240:0.009009009 241:0.009009009 245:0.25788288 246:0.12668919 247:0.079673423 248:0.14780405 249:0.31221847 250:0.066722973 251:0.009009009 256:0.036036036 257:0.36570946 258:0.12753378 259:0.38316441 260:0.078547297 261:0.99099099 270:0.009009009 271:0.009009009 280:0.99099099 281:0.26801802 282:0.11120495 283:0.1044482 284:0.19650901 285:0.30602477 286:0.004786036 290:0.009009009 291:0.4009009 292:0.21114865 293:0.37584459 294:0.0030968468 300:0.009009009 301:0.039977477 304:0.009009009 305:0.42286036 306:0.21903153 307:0.17173423 308:0.067286036 309:0.044481982 310:0.025619369 311:0.039977477 316:0.31672297 317:0.32066441 318:0.22578829 319:0.057150901 320:0.039695946 321:0.96002252 330:0.039977477 331:0.039977477 340:0.96002252 341:0.2598536 342:0.22578829 343:0.21931306 344:0.15061937 345:0.068693694 346:0.035754505 350:0.039977477 351:0.57404279 352:0.27956081 353:0.088682432 354:0.017736486 360:0.039977477 
-0.05921318901320087 1:0.078589109 2:0.18966584 3:0.13613861 4:0.11417079 5:0.066212871 6:0.11417079 7:0.1200495 8:0.097462871 9:0.050123762 10:0.033415842 11:0.15934406 12:0.24164604 13:0.11602723 14:0.077351485 15:0.14325495 16:0.10705446 17:0.077970297 18:0.039294554 19:0.024752475 20:0.013304455 21:0.0043316832 22:0.031559406 23:0.11324257 24:0.066212871 25:0.12438119 26:0.10055693 27:0.17976485 28:0.29610149 29:0.077351485 30:0.0064975248 31:0.05414604 32:0.1355198 33:0.16955446 34:0.12592822 35:0.16460396 36:0.18069307 37:0.12128713 38:0.037128713 39:0.0099009901 40:0.0012376238 41:0.035272277 42:0.1457302 43:0.13211634 44:0.099319307 45:0.11386139 46:0.057549505 47:0.078589109 48:0.11850248 49:0.15841584 50:0.060643564 51:0.078589109 52:0.18966584 53:0.13613861 54:0.11417079 55:0.066212871 56:0.11417079 57:0.1200495 58:0.097462871 59:0.050123762 60:0.033415842 61:0.11169554 62:0.11293317 63:0.15779703 64:0.12902228 65:0.10117574 66:0.074257426 67:0.091893564 68:0.085086634 69:0.10612624 70:0.030012376 71:0.12314356 72:0.10581683 73:0.17048267 74:0.12407178 75:0.13675743 76:0.05259901 77:0.11324257 78:0.047339109 79:0.10055693 80:0.025990099 81:0.0021658416 82:0.011757426 83:0.047339109 84:0.19430693 85:0.1404703 86:0.34158416 87:0.17574257 88:0.063737624 89:0.021658416 90:0.0012376238 91:0.004950495 92:0.12469059 93:0.24535891 95:0.29826733 96:0.24938119 98:0.066212871 99:0.0068069307 100:0.0043316832 101:0.059405941 102:0.09220297 103:0.14449257 104:0.15655941 105:0.088799505 106:0.1092203 107:0.11231436 108:0.11045792 109:0.11355198 110:0.01299505 111:0.11169554 112:0.11293317 113:0.15779703 114:0.12902228 115:0.10117574 116:0.074257426 117:0.091893564 118:0.085086634 119:0.10612624 120:0.030012376 121:0.03125 124:0.18100248 125:0.30167079 126:0.23112624 127:0.14201733 128:0.055693069 129:0.042079208 130:0.015160891 131:0.03125 135:0.0095915842 136:0.47493812 137:0.31590347 138:0.11138614 139:0.050433168 140:0.0064975248 141:0.96875 150:0.03125 151:0.03125 160:0.96875 161:0.11819307 162:0.23762376 163:0.23360149 164:0.20668317 165:0.094059406 166:0.06095297 167:0.017636139 170:0.03125 171:0.38861386 172:0.32518564 173:0.17048267 174:0.058787129 175:0.025680693 180:0.03125 181:0.0099009901 183:0.30414604 184:0.3539604 185:0.15655941 186:0.020730198 187:0.037438119 188:0.043626238 189:0.039913366 190:0.033725248 191:0.0099009901 193:0.35643564 194:0.44956683 195:0.039913366 196:0.046720297 197:0.026608911 198:0.035272277 199:0.029084158 200:0.0064975248 201:0.10798267 202:0.86695545 203:0.015160891 210:0.0099009901 211:0.0099009901 219:0.50247525 220:0.48762376 221:0.043626238 222:0.13304455 223:0.23329208 224:0.23886139 225:0.16027228 226:0.027537129 227:0.033415842 228:0.061571782 229:0.044863861 230:0.023514851 231:0.33787129 232:0.29981436 233:0.16955446 234:0.018873762 235:0.017017327 236:0.034653465 237:0.036819307 238:0.027227723 239:0.038056931 240:0.020111386 241:0.0099009901 245:0.058168317 246:0.078279703 247:0.10024752 248:0.3592203 249:0.25618812 250:0.13799505 251:0.0099009901 256:0.033725248 257:0.10891089 258:0.24907178 259:0.4532797 260:0.14511139 261:0.99009901 270:0.0099009901 271:0.0099009901 279:0.0012376238 280:0.98886139 281:0.017636139 282:0.043935644 283:0.061262376 284:0.11138614 285:0.51825495 286:0.18564356 287:0.051980198 290:0.0099009901 291:0.097772277 292:0.11386139 293:0.52042079 294:0.21844059 295:0.03960396 300:0.0099009901 301:0.040841584 305:0.024752475 306:0.13644802 307:0.050123762 308:0.27970297 309:0.21534653 310:0.25278465 311:0.040841584 316:0.022277228 317:0.15284653 318:0.079826733 319:0.42110149 320:0.28310644 321:0.95915842 330:0.040841584 331:0.040841584 340:0.95915842 341:0.033106436 342:0.12654703 343:0.059715347 344:0.23669554 345:0.27382426 346:0.2292698 350:0.040841584 351:0.16955446 352:0.21256188 353:0.34313119 354:0.23391089 360:0.040841584 
-0.09470250410038512 1:0.47877358 2:0.13295991 3:0.14239387 4:0.060141509 5:0.039799528 6:0.043926887 7:0.048643868 8:0.019162736 9:0.020341981 10:0.013856132 11:0.5103184 12:0.18543632 13:0.092275943 14:0.049528302 15:0.047169811 16:0.053066038 17:0.02240566 18:0.017983491 19:0.012971698 20:0.0088443396 21:0.0029481132 22:0.02446934 23:0.53803066 24:0.18985849 25:0.15241745 26:0.058962264 27:0.018573113 28:0.0094339623 29:0.0029481132 30:0.0023584906 31:0.0041273585 32:0.056603774 34:0.17511792 36:0.24646226 37:0.44988208 39:0.047759434 40:0.02004717 41:0.25795991 42:0.13413915 43:0.064563679 44:0.15300708 45:0.10878538 46:0.068985849 47:0.045106132 48:0.05129717 49:0.076356132 50:0.039799528 51:0.47877358 52:0.13295991 53:0.14239387 54:0.060141509 55:0.039799528 56:0.043926887 57:0.048643868 58:0.019162736 59:0.020341981 60:0.013856132 61:0.21108491 62:0.19929245 63:0.24292453 64:0.17069575 65:0.065153302 66:0.045400943 67:0.015330189 68:0.014445755 69:0.021816038 70:0.013856132 71:0.21904481 72:0.24705189 73:0.24439858 74:0.10554245 75:0.09375 76:0.023290094 77:0.023290094 78:0.018867925 79:0.015625 80:0.0091391509 81:0.0067806604 82:0.21757075 83:0.39209906 84:0.089622642 85:0.14799528 86:0.086084906 87:0.02240566 88:0.029775943 89:0.0067806604 90:0.00088443396 91:0.0058962264 92:0.027712264 94:0.27240566 96:0.28301887 97:0.37146226 99:0.026533019 100:0.012971698 101:0.19516509 102:0.11350236 103:0.14121462 104:0.18366745 105:0.20194575 106:0.060141509 107:0.047759434 108:0.024764151 109:0.020636792 110:0.01120283 111:0.21108491 112:0.19929245 113:0.24292453 114:0.17069575 115:0.065153302 116:0.045400943 117:0.015330189 118:0.014445755 119:0.021816038 120:0.013856132 121:0.03125 128:0.095224057 129:0.61114387 130:0.26238208 131:0.03125 138:0.011497642 139:0.52918632 140:0.42806604 141:0.96875 150:0.03125 151:0.03125 160:0.96875 161:0.40507075 162:0.54569575 163:0.017983491 170:0.03125 171:0.93661557 172:0.032134434 180:0.03125 181:0.0094339623 183:0.032724057 184:0.4946934 185:0.048643868 186:0.051002358 187:0.042158019 188:0.053950472 189:0.13443396 190:0.13295991 191:0.0094339623 194:0.30955189 195:0.23054245 196:0.065153302 197:0.073997642 198:0.047464623 199:0.17040094 200:0.093455189 201:0.88649764 202:0.1040684 210:0.0094339623 211:0.0094339623 220:0.99056604 221:0.40919811 222:0.12647406 223:0.047169811 224:0.063089623 225:0.2370283 226:0.10760613 230:0.0094339623 231:0.52211085 232:0.049233491 233:0.048349057 234:0.042747642 235:0.048938679 236:0.092865566 237:0.18189858 238:0.0044221698 240:0.0094339623 241:0.0094339623 244:0.39091981 245:0.30395047 246:0.03125 247:0.022700472 248:0.036261792 249:0.10053066 250:0.10495283 251:0.0094339623 255:0.47936321 256:0.21933962 257:0.035082547 258:0.032134434 259:0.10347877 260:0.12116745 261:0.9896816 262:0.00088443396 270:0.0094339623 271:0.0094339623 280:0.99056604 281:0.19693396 282:0.3723467 283:0.14298349 284:0.045400943 285:0.1276533 286:0.10524764 290:0.0094339623 291:0.65389151 292:0.057193396 293:0.028596698 294:0.034198113 295:0.072818396 296:0.14357311 297:0.00029481132 300:0.0094339623 301:0.040389151 304:0.017688679 305:0.69722877 306:0.081367925 307:0.066627358 308:0.051886792 309:0.035377358 310:0.0094339623 311:0.040389151 316:0.62352594 317:0.16509434 318:0.080483491 319:0.06928066 320:0.021226415 321:0.95961085 330:0.040389151 331:0.040389151 340:0.95961085 341:0.61615566 342:0.14917453 343:0.109375 344:0.063679245 345:0.021226415 350:0.040389151 351:0.74380896 352:0.091391509 353:0.079599057 354:0.039209906 355:0.0056014151 360:0.040389151 
-0.1226653294795928 1:0.45502336 2:0.11390187 3:0.17435748 4:0.061623832 5:0.045852804 6:0.049649533 7:0.037383178 8:0.028037383 9:0.019567757 10:0.014602804 11:0.46495327 12:0.16150701 13:0.14865654 14:0.053446262 15:0.053446262 16:0.051693925 17:0.025408879 18:0.019859813 19:0.011974299 20:0.0090537383 21:0.018691589 22:0.41939252 23:0.22692757 24:0.19684579 25:0.066296729 26:0.045852804 27:0.018691589 28:0.0046728972 29:0.0017523364 30:0.00087616822 31:0.0011682243 32:0.0075934579 33:0.048481308 35:0.15245327 36:0.23014019 38:0.46086449 39:0.065420561 40:0.033878505 41:0.25204439 42:0.14953271 43:0.089077103 44:0.15829439 45:0.094334112 46:0.057535047 47:0.049357477 48:0.060455607 49:0.074766355 50:0.014602804 51:0.45502336 52:0.11390187 53:0.17435748 54:0.061623832 55:0.045852804 56:0.049649533 57:0.037383178 58:0.028037383 59:0.019567757 60:0.014602804 61:0.15070093 62:0.19626168 63:0.30636682 64:0.12908879 65:0.092873832 66:0.05286215 67:0.024824766 68:0.01489486 69:0.012266355 70:0.019859813 71:0.20823598 72:0.28446262 73:0.21553738 74:0.13989486 75:0.065712617 76:0.029205607 77:0.027161215 78:0.010806075 79:0.011974299 80:0.0070093458 81:0.0070093458 82:0.20940421 83:0.21787383 84:0.30344626 85:0.066296729 86:0.10630841 87:0.047021028 88:0.018399533 89:0.016939252 90:0.0073014019 91:0.0011682243 92:0.018691589 94:0.2739486 96:0.28563084 97:0.35630841 99:0.047897196 100:0.01635514 101:0.027453271 102:0.24561916 103:0.13171729 104:0.10630841 105:0.25204439 106:0.12938084 107:0.035338785 108:0.038843458 109:0.018107477 110:0.015186916 111:0.15070093 112:0.19626168 113:0.30636682 114:0.12908879 115:0.092873832 116:0.05286215 117:0.024824766 118:0.01489486 119:0.012266355 120:0.019859813 121:0.03125 127:0.0011682243 128:0.099883178 129:0.56688084 130:0.30081776 131:0.03125 138:0.00087616822 139:0.35514019 140:0.61273364 141:0.96875 150:0.03125 151:0.03125 160:0.96875 161:0.39135514 162:0.57009346 163:0.0073014019 170:0.03125 171:0.91997664 172:0.048773364 180:0.03125 181:0.0093457944 183:0.01489486 184:0.50788551 185:0.052278037 186:0.051401869 187:0.038551402 188:0.042932243 189:0.13288551 190:0.14982477 191:0.0093457944 194:0.31775701 195:0.22897196 196:0.068341121 197:0.0625 198:0.047021028 199:0.20473131 200:0.061331776 201:0.85367991 202:0.1369743 210:0.0093457944 211:0.0093457944 220:0.99065421 221:0.074766355 222:0.41939252 223:0.06921729 224:0.056074766 225:0.14369159 226:0.22751168 230:0.0093457944 231:0.52132009 232:0.052278037 233:0.047021028 234:0.040303738 235:0.037383178 236:0.10455607 237:0.17903037 238:0.0087616822 240:0.0093457944 241:0.0093457944 244:0.35046729 245:0.33703271 246:0.03125 247:0.028913551 248:0.043224299 249:0.095794393 250:0.10397196 251:0.0093457944 255:0.4541472 256:0.2473715 257:0.034462617 258:0.051985981 259:0.12908879 260:0.073598131 261:0.99065421 270:0.0093457944 271:0.0093457944 280:0.99065421 281:0.16384346 282:0.31454439 283:0.21728972 284:0.04760514 285:0.14456776 286:0.10280374 290:0.0093457944 291:0.64485981 292:0.060455607 293:0.03125 294:0.041764019 295:0.086740654 296:0.12558411 300:0.0093457944 301:0.040303738 305:0.61653037 306:0.16121495 307:0.066588785 308:0.058119159 309:0.038843458 310:0.018399533 311:0.040303738 316:0.53563084 317:0.24883178 318:0.075934579 319:0.071261682 320:0.028037383 321:0.95969626 330:0.040303738 331:0.040303738 340:0.95969626 341:0.59871495 342:0.17318925 343:0.1057243 344:0.062792056 345:0.019275701 350:0.040303738 351:0.73919393 352:0.10514019 353:0.075350467 354:0.038843458 355:0.0011682243 360:0.040303738 
-0.01824260096154543 1:0.36747685 2:0.1333912 3:0.19241898 4:0.090277778 5:0.047164352 6:0.050636574 7:0.043402778 8:0.032696759 9:0.026909722 10:0.015625 11:0.40943287 12:0.1478588 13:0.16203704 14:0.097800926 15:0.055844907 16:0.040798611 17:0.047164352 18:0.017361111 19:0.013310185 20:0.0083912037 21:0.00028935185 22:0.0005787037 23:0.085069444 24:0.3197338 25:0.22829861 26:0.20486111 27:0.07349537 28:0.055844907 29:0.024305556 30:0.0075231481 31:0.0005787037 32:0.0086805556 33:0.045138889 34:0.15306713 36:0.24450231 37:0.43952546 38:0.073784722 39:0.032407407 40:0.0023148148 41:0.09056713 42:0.23234954 43:0.1099537 44:0.15306713 45:0.1328125 46:0.088831019 47:0.038194444 48:0.05787037 49:0.064814815 50:0.031539352 51:0.36747685 52:0.1333912 53:0.19241898 54:0.090277778 55:0.047164352 56:0.050636574 57:0.043402778 58:0.032696759 59:0.026909722 60:0.015625 61:0.20659722 62:0.1802662 63:0.36747685 64:0.076388889 65:0.070891204 66:0.045717593 67:0.022569444 68:0.013020833 69:0.01244213 70:0.0046296296 71:0.16145833 72:0.1791088 73:0.35040509 74:0.1484375 75:0.095196759 76:0.021990741 77:0.016782407 78:0.012731481 79:0.0078125 80:0.0060763889 81:0.0043402778 82:0.15740741 83:0.27719907 84:0.31944444 85:0.069733796 86:0.092303241 87:0.046875 88:0.010706019 89:0.015625 90:0.0063657407 91:0.014467593 92:0.27835648 94:0.24479167 96:0.36950231 97:0.07494213 99:0.016782407 100:0.0011574074 101:0.21296296 102:0.033564815 103:0.17303241 104:0.15914352 105:0.18894676 106:0.13888889 107:0.049189815 108:0.028356481 109:0.012152778 110:0.0037615741 111:0.20659722 112:0.1802662 113:0.36747685 114:0.076388889 115:0.070891204 116:0.045717593 117:0.022569444 118:0.013020833 119:0.01244213 120:0.0046296296 121:0.03125 127:0.030092593 128:0.33478009 129:0.49652778 130:0.10734954 131:0.03125 138:0.0086805556 139:0.56336806 140:0.39670139 141:0.96875 150:0.03125 151:0.03125 160:0.96875 161:0.40422454 162:0.55613426 163:0.0083912037 170:0.03125 171:0.86140046 172:0.10734954 180:0.03125 181:0.0092592593 183:0.016203704 184:0.55121528 185:0.056423611 186:0.048032407 187:0.039351852 188:0.041377315 189:0.14322917 190:0.094907407 191:0.0092592593 194:0.50925926 195:0.084780093 196:0.0703125 197:0.063078704 198:0.0703125 199:0.16521991 200:0.027777778 201:0.88831019 202:0.10243056 210:0.0092592593 211:0.0092592593 220:0.99074074 221:0.2349537 222:0.32899306 223:0.064525463 224:0.049768519 225:0.15422454 226:0.15827546 230:0.0092592593 231:0.56221065 232:0.056134259 233:0.043981481 234:0.038773148 235:0.042824074 236:0.092881944 237:0.14496528 238:0.0089699074 240:0.0092592593 241:0.0092592593 244:0.29137731 245:0.42361111 246:0.035590278 247:0.036168981 248:0.040798611 249:0.05787037 250:0.10532407 251:0.0092592593 255:0.3208912 256:0.40133102 257:0.043113426 258:0.048611111 259:0.094618056 260:0.082175926 261:0.98958333 262:0.0011574074 270:0.0092592593 271:0.0092592593 280:0.99074074 281:0.19184028 282:0.37413194 283:0.17563657 284:0.060763889 285:0.13310185 286:0.055266204 290:0.0092592593 291:0.64988426 292:0.088831019 293:0.039351852 294:0.044270833 295:0.078125 296:0.090277778 300:0.0092592593 301:0.040219907 305:0.51128472 306:0.27835648 307:0.076099537 308:0.048900463 309:0.029513889 310:0.015625 311:0.040219907 316:0.33043981 317:0.4525463 318:0.080150463 319:0.068287037 320:0.028356481 321:0.95978009 330:0.040219907 331:0.040219907 340:0.95978009 341:0.6869213 342:0.13946759 343:0.086516204 344:0.043113426 345:0.0037615741 350:0.040219907 351:0.77459491 352:0.1087963 353:0.057581019 354:0.01880787 360:0.040219907 
-0.05177751473355077 1:0.12708333 2:0.3360119 3:0.091964286 4:0.099702381 5:0.10238095 6:0.06577381 7:0.053571429 8:0.063988095 9:0.047619048 10:0.011904762 11:0.26369048 12:0.19434524 13:0.11666667 14:0.094345238 15:0.10238095 16:0.05922619 17:0.04702381 18:0.058333333 19:0.045833333 20:0.018154762 21:0.00625 22:0.011904762 23:0.19107143 24:0.26547619 25:0.13303571 26:0.10535714 27:0.11130952 28:0.074107143 29:0.07797619 30:0.023511905 31:0.0011904762 32:0.041666667 33:0.14940476 34:0.41130952 36:0.28392857 37:0.05952381 38:0.035119048 39:0.014285714 40:0.0035714286 41:0.09375 42:0.13065476 43:0.16041667 44:0.20892857 45:0.093154762 46:0.0875 47:0.069940476 48:0.069642857 49:0.06547619 50:0.020535714 51:0.12708333 52:0.3360119 53:0.091964286 54:0.099702381 55:0.10238095 56:0.06577381 57:0.053571429 58:0.063988095 59:0.047619048 60:0.011904762 61:0.19761905 62:0.12440476 63:0.19583333 64:0.17202381 65:0.099702381 66:0.073809524 67:0.044047619 68:0.047619048 69:0.024107143 70:0.020833333 71:0.11160714 72:0.2514881 73:0.20565476 74:0.092559524 75:0.15744048 76:0.080357143 77:0.037202381 78:0.031547619 79:0.027083333 80:0.0050595238 81:0.064285714 82:0.18482143 83:0.23690476 84:0.13154762 85:0.17470238 86:0.10684524 87:0.025892857 88:0.046428571 89:0.025595238 90:0.0029761905 91:0.0023809524 92:0.10535714 94:0.35892857 96:0.3702381 97:0.11547619 99:0.03452381 100:0.013095238 101:0.063690476 102:0.11994048 103:0.1297619 104:0.13779762 105:0.22589286 106:0.14017857 107:0.094345238 108:0.033333333 109:0.044345238 110:0.010714286 111:0.19761905 112:0.12440476 113:0.19583333 114:0.17202381 115:0.099702381 116:0.073809524 117:0.044047619 118:0.047619048 119:0.024107143 120:0.020833333 121:0.03125 127:0.0029761905 128:0.30714286 129:0.48125 130:0.17738095 131:0.03125 138:0.13511905 139:0.60625 140:0.22738095 141:0.96875 150:0.03125 151:0.03125 160:0.96875 161:0.32559524 162:0.58660714 163:0.05625 164:0.00029761905 170:0.03125 171:0.76369048 172:0.20505952 180:0.03125 181:0.0095238095 183:0.26130952 184:0.23541667 185:0.086309524 186:0.10684524 187:0.085416667 188:0.069047619 189:0.10892857 190:0.037202381 191:0.0095238095 194:0.45505952 195:0.099404762 196:0.13363095 197:0.10208333 198:0.074702381 199:0.091964286 200:0.033630952 201:0.84494048 202:0.14553571 210:0.0095238095 211:0.0095238095 220:0.99047619 221:0.39910714 222:0.092559524 223:0.10863095 224:0.09702381 225:0.27678571 226:0.016369048 230:0.0095238095 231:0.46577381 232:0.074107143 233:0.092261905 234:0.094940476 235:0.064285714 236:0.06875 237:0.097619048 238:0.032142857 239:0.0005952381 240:0.0095238095 241:0.0095238095 244:0.19315476 245:0.35029762 246:0.14077381 247:0.051488095 248:0.14136905 249:0.080654762 250:0.032738095 251:0.0095238095 255:0.2672619 256:0.37827381 257:0.057440476 258:0.12857143 259:0.11785714 260:0.041071429 261:0.99047619 270:0.0095238095 271:0.0095238095 280:0.99047619 281:0.13333333 282:0.2875 283:0.25863095 284:0.093154762 285:0.19732143 286:0.020535714 290:0.0095238095 291:0.39315476 292:0.27440476 293:0.052380952 294:0.1375 295:0.10029762 296:0.032738095 300:0.0095238095 301:0.04047619 305:0.37291667 306:0.30565476 307:0.14017857 308:0.064880952 309:0.047916667 310:0.02797619 311:0.04047619 316:0.41458333 317:0.33660714 318:0.095535714 319:0.08125 320:0.031547619 321:0.95952381 330:0.04047619 331:0.04047619 340:0.95952381 341:0.43154762 342:0.30327381 343:0.14494048 344:0.076190476 345:0.0035714286 350:0.04047619 351:0.66071429 352:0.18035714 353:0.085416667 354:0.033035714 360:0.04047619 
-0.1278437564277475 1:0.079464286 2:0.25744048 3:0.17559524 4:0.092559524 5:0.09047619 6:0.07827381 7:0.064285714 8:0.058035714 9:0.079464286 10:0.024404762 11:0.0005952381 12:0.17470238 13:0.28214286 14:0.13214286 15:0.085714286 16:0.069940476 17:0.12380952 18:0.055357143 19:0.051488095 20:0.024107143 21:0.0005952381 22:0.00089285714 23:0.011309524 24:0.17708333 25:0.32053571 26:0.13839286 27:0.19345238 28:0.10565476 29:0.045833333 30:0.00625 31:0.0023809524 32:0.041071429 33:0.12767857 35:0.30059524 36:0.35803571 38:0.13214286 39:0.033333333 40:0.0047619048 41:0.038392857 42:0.16547619 43:0.19672619 44:0.14315476 45:0.14702381 46:0.091369048 47:0.070238095 48:0.075595238 49:0.059821429 50:0.012202381 51:0.079464286 52:0.25744048 53:0.17559524 54:0.092559524 55:0.09047619 56:0.07827381 57:0.064285714 58:0.058035714 59:0.079464286 60:0.024404762 61:0.081845238 62:0.16696429 63:0.20416667 64:0.1125 65:0.11934524 66:0.125 67:0.068452381 68:0.075892857 69:0.035416667 70:0.010416667 71:0.05 72:0.1952381 73:0.25059524 74:0.061607143 75:0.096130952 76:0.15982143 77:0.0625 78:0.09702381 79:0.024404762 80:0.0026785714 81:0.0068452381 82:0.0026785714 83:0.19613095 84:0.10982143 85:0.21130952 86:0.076190476 87:0.1625 88:0.084821429 89:0.10803571 90:0.041666667 91:0.0011904762 92:0.023214286 93:0.069047619 95:0.091964286 96:0.42797619 98:0.2889881 99:0.092857143 100:0.0047619048 101:0.043452381 102:0.10922619 103:0.15446429 104:0.14761905 105:0.2235119 106:0.11428571 107:0.077678571 108:0.076488095 109:0.049702381 110:0.0035714286 111:0.081845238 112:0.16696429 113:0.20416667 114:0.1125 115:0.11934524 116:0.125 117:0.068452381 118:0.075892857 119:0.035416667 120:0.010416667 121:0.03125 127:0.11458333 128:0.47738095 129:0.3327381 130:0.044047619 131:0.03125 138:0.022619048 139:0.66904762 140:0.27708333 141:0.96875 150:0.03125 151:0.03125 160:0.96875 161:0.29583333 162:0.59077381 163:0.082142857 170:0.03125 171:0.7827381 172:0.1860119 180:0.03125 181:0.0095238095 183:0.18988095 184:0.28244048 185:0.10952381 186:0.11517857 187:0.099107143 188:0.064583333 189:0.073809524 190:0.055952381 191:0.0095238095 194:0.41934524 195:0.14047619 196:0.15119048 197:0.11130952 198:0.067559524 199:0.05922619 200:0.041369048 201:0.9014881 202:0.088988095 210:0.0095238095 211:0.0095238095 220:0.99047619 221:0.33511905 222:0.12529762 223:0.07827381 224:0.15982143 225:0.23392857 226:0.058035714 230:0.0095238095 231:0.43511905 232:0.086309524 233:0.1110119 234:0.11011905 235:0.076488095 236:0.063095238 237:0.071130952 238:0.037202381 240:0.0095238095 241:0.0095238095 244:0.25267857 245:0.24821429 246:0.19166667 247:0.085416667 248:0.11577381 249:0.079464286 250:0.017261905 251:0.0095238095 255:0.26994048 256:0.33184524 257:0.1297619 258:0.14077381 259:0.09077381 260:0.027380952 261:0.99047619 270:0.0095238095 271:0.0095238095 280:0.99047619 281:0.13869048 282:0.17886905 283:0.26904762 284:0.16488095 285:0.17083333 286:0.068154762 290:0.0095238095 291:0.33482143 292:0.2985119 293:0.10446429 294:0.12738095 295:0.10238095 296:0.022916667 300:0.0095238095 301:0.04047619 305:0.38809524 306:0.22172619 307:0.15982143 308:0.095833333 309:0.057440476 310:0.036607143 311:0.04047619 316:0.098809524 317:0.48482143 318:0.20803571 319:0.10178571 320:0.066071429 321:0.95952381 330:0.04047619 331:0.04047619 340:0.95952381 341:0.34910714 342:0.21934524 343:0.23035714 344:0.12767857 345:0.033035714 350:0.04047619 351:0.55595238 352:0.23660714 353:0.1125 354:0.054464286 360:0.04047619 
-0.04985286921573528 1:0.092570755 2:0.25206368 3:0.16332547 4:0.16037736 5:0.065448113 6:0.084316038 7:0.066627358 8:0.068396226 9:0.028301887 10:0.018573113 11:0.00058962264 12:0.2134434 13:0.25943396 14:0.099941038 15:0.13915094 16:0.092570755 17:0.088738208 18:0.059846698 19:0.031544811 20:0.014740566 21:0.00058962264 22:0.00088443396 23:0.012676887 24:0.20017689 25:0.2396816 26:0.24557783 27:0.12323113 28:0.11291274 29:0.051591981 30:0.012676887 31:0.0011792453 33:0.050707547 34:0.14976415 36:0.29481132 37:0.30188679 38:0.1379717 39:0.050707547 40:0.012971698 41:0.0029481132 42:0.066627358 43:0.20636792 44:0.22523585 45:0.20224057 46:0.085790094 47:0.089917453 48:0.067806604 49:0.033313679 50:0.019752358 51:0.092570755 52:0.25206368 53:0.16332547 54:0.16037736 55:0.065448113 56:0.084316038 57:0.066627358 58:0.068396226 59:0.028301887 60:0.018573113 61:0.050117925 62:0.15742925 63:0.1821934 64:0.14268868 65:0.075176887 66:0.097877358 67:0.11586085 68:0.061910377 69:0.084610849 70:0.032134434 71:0.056014151 72:0.1875 73:0.19162736 74:0.084316038 75:0.076650943 76:0.19251179 77:0.052181604 78:0.075176887 79:0.054245283 80:0.029775943 81:0.0047169811 82:0.10524764 83:0.22435142 84:0.11379717 85:0.13325472 86:0.17216981 87:0.089917453 88:0.12441038 89:0.030955189 90:0.0011792453 91:0.016509434 92:0.044811321 93:0.086084906 95:0.44221698 96:0.27948113 98:0.099056604 99:0.028301887 100:0.0035377358 101:0.025058962 102:0.109375 103:0.17688679 104:0.12441038 105:0.23142689 106:0.10849057 107:0.097582547 108:0.069870283 109:0.053360849 110:0.0035377358 111:0.050117925 112:0.15742925 113:0.1821934 114:0.14268868 115:0.075176887 116:0.097877358 117:0.11586085 118:0.061910377 119:0.084610849 120:0.032134434 121:0.03125 127:0.12382075 128:0.48083726 129:0.28066038 130:0.083431604 131:0.03125 138:0.17334906 139:0.55306604 140:0.24233491 141:0.96875 150:0.03125 151:0.03125 160:0.96875 161:0.30454009 162:0.5728184 163:0.091391509 170:0.03125 171:0.69663915 172:0.27211085 180:0.03125 181:0.0094339623 183:0.22022406 184:0.21196934 185:0.1120283 186:0.12617925 187:0.10053066 188:0.05807783 189:0.085495283 190:0.076061321 191:0.0094339623 194:0.35495283 195:0.12293632 196:0.16391509 197:0.14003538 198:0.068101415 199:0.068691038 200:0.071933962 201:0.87588443 202:0.1146816 210:0.0094339623 211:0.0094339623 220:0.99056604 221:0.26768868 222:0.1432783 223:0.081367925 224:0.15448113 225:0.23349057 226:0.11025943 230:0.0094339623 231:0.39121462 232:0.090212264 233:0.11880896 234:0.12205189 235:0.071933962 236:0.056898585 237:0.08254717 238:0.056898585 240:0.0094339623 241:0.0094339623 244:0.26768868 245:0.22169811 246:0.19369104 247:0.10082547 248:0.11084906 249:0.076356132 250:0.019457547 251:0.0094339623 255:0.296875 256:0.31957547 257:0.1223467 258:0.14770047 259:0.077240566 260:0.02682783 261:0.99056604 270:0.0094339623 271:0.0094339623 280:0.99056604 281:0.20194575 282:0.14917453 283:0.25619104 284:0.17600236 285:0.14946934 286:0.057783019 290:0.0094339623 291:0.33962264 292:0.29628538 293:0.10731132 294:0.1067217 295:0.11173349 296:0.028596698 297:0.00029481132 300:0.0094339623 301:0.040389151 305:0.35347877 306:0.22965802 307:0.16745283 308:0.097287736 309:0.071049528 310:0.040683962 311:0.040389151 316:0.11497642 317:0.45135613 318:0.20489387 319:0.12146226 320:0.06692217 321:0.95961085 330:0.040389151 331:0.040389151 340:0.95961085 341:0.31397406 342:0.23378538 343:0.25648585 344:0.10908019 345:0.046285377 350:0.040389151 351:0.51061321 352:0.26149764 353:0.11674528 354:0.070165094 355:0.00058962264 360:0.040389151 
-0.1735511830698189 1:0.20451733 2:0.21596535 3:0.13644802 4:0.12066832 5:0.10457921 6:0.058168317 7:0.037747525 8:0.038366337 9:0.041769802 10:0.041769802 11:0.15470297 12:0.2447401 13:0.16769802 14:0.10643564 15:0.1352104 16:0.04424505 17:0.034344059 18:0.037747525 19:0.038675743 20:0.036200495 21:0.0055693069 22:0.033725248 23:0.17419554 24:0.33601485 25:0.14511139 26:0.22184406 27:0.065284653 28:0.012066832 29:0.0058787129 30:0.00030940594 31:0.025371287 32:0.066831683 33:0.24721535 35:0.37159653 36:0.21720297 38:0.050742574 39:0.01980198 40:0.0012376238 41:0.067141089 42:0.11757426 43:0.10705446 44:0.12933168 45:0.18347772 46:0.10581683 47:0.10303218 48:0.060643564 49:0.072710396 50:0.053217822 51:0.20451733 52:0.21596535 53:0.13644802 54:0.12066832 55:0.10457921 56:0.058168317 57:0.037747525 58:0.038366337 59:0.041769802 60:0.041769802 61:0.069306931 62:0.14108911 63:0.18966584 64:0.24350248 65:0.15284653 66:0.087252475 67:0.057549505 68:0.034653465 69:0.017945545 70:0.0061881188 71:0.07549505 72:0.18440594 73:0.17883663 74:0.18162129 75:0.12407178 76:0.14294554 77:0.060024752 78:0.032178218 79:0.016707921 80:0.0037128713 81:0.005259901 82:0.0625 83:0.1407797 84:0.16769802 85:0.26670792 86:0.1720297 87:0.063737624 88:0.065594059 89:0.046410891 90:0.0092821782 91:0.011757426 92:0.037747525 94:0.16522277 96:0.35643564 97:0.29764851 99:0.10767327 100:0.023514851 101:0.053527228 102:0.09220297 103:0.073019802 104:0.15686881 105:0.2082302 106:0.15160891 107:0.11788366 108:0.085086634 109:0.034344059 110:0.027227723 111:0.069306931 112:0.14108911 113:0.18966584 114:0.24350248 115:0.15284653 116:0.087252475 117:0.057549505 118:0.034653465 119:0.017945545 120:0.0061881188 121:0.03125 127:0.4950495 128:0.27691832 129:0.11757426 130:0.079207921 131:0.03125 138:0.5157797 139:0.31497525 140:0.13799505 141:0.96875 150:0.03125 151:0.03125 160:0.96875 161:0.35457921 162:0.38149752 163:0.21410891 164:0.018564356 170:0.03125 171:0.75340347 172:0.19121287 173:0.024133663 180:0.03125 181:0.0099009901 183:0.034962871 184:0.081373762 185:0.29455446 186:0.2447401 187:0.052908416 188:0.053527228 189:0.16058168 190:0.067450495 191:0.0099009901 194:0.076732673 195:0.44461634 196:0.15284653 197:0.073638614 198:0.12283416 199:0.090655941 200:0.028774752 201:0.77877475 202:0.21132426 210:0.0099009901 211:0.0099009901 220:0.99009901 221:0.047957921 222:0.043007426 223:0.16367574 224:0.37654703 225:0.31466584 226:0.04424505 230:0.0099009901 231:0.07240099 232:0.13923267 233:0.39789604 234:0.069616337 235:0.046410891 236:0.074876238 237:0.15315594 238:0.036509901 240:0.0099009901 241:0.0099009901 244:0.29795792 245:0.24195545 246:0.094678218 247:0.093440594 248:0.12190594 249:0.091274752 250:0.048886139 251:0.0099009901 255:0.37252475 256:0.19740099 257:0.11231436 258:0.15934406 259:0.10612624 260:0.042388614 261:0.9894802 262:0.00061881188 270:0.0099009901 271:0.0099009901 280:0.99009901 281:0.14418317 282:0.2862005 283:0.16058168 284:0.10365099 285:0.18657178 286:0.10891089 290:0.0099009901 291:0.42852723 292:0.14232673 293:0.10055693 294:0.11850248 295:0.12407178 296:0.072091584 297:0.0040222772 300:0.0099009901 301:0.040841584 305:0.068378713 306:0.40408416 307:0.25587871 308:0.11417079 309:0.077660891 310:0.038985149 311:0.040841584 316:0.018564356 317:0.50556931 318:0.2342203 319:0.12716584 320:0.073638614 321:0.95915842 330:0.040841584 331:0.040841584 340:0.95915842 341:0.041460396 342:0.44214109 343:0.31930693 344:0.12623762 345:0.030012376 350:0.040841584 351:0.44585396 352:0.33137376 353:0.11757426 354:0.0625 355:0.0018564356 360:0.040841584 
-0.02005695398562249 1:0.21086165 2:0.1875 3:0.15018204 4:0.11559466 5:0.11195388 6:0.056128641 7:0.034890777 8:0.038834951 9:0.057645631 10:0.036407767 11:0.073118932 12:0.31401699 13:0.13288835 14:0.17324029 15:0.089199029 16:0.073118932 17:0.030946602 18:0.058252427 19:0.037317961 20:0.017900485 21:0.0015169903 22:0.0024271845 23:0.067657767 24:0.15746359 25:0.23877427 26:0.17961165 27:0.16808252 28:0.14199029 29:0.033070388 30:0.0094053398 31:0.0024271845 32:0.029429612 33:0.27548544 35:0.30673544 36:0.2506068 38:0.093446602 39:0.038228155 40:0.0036407767 41:0.16717233 42:0.09375 43:0.15898058 44:0.12166262 45:0.12833738 46:0.082524272 47:0.073725728 48:0.05006068 49:0.074029126 50:0.049757282 51:0.21086165 52:0.1875 53:0.15018204 54:0.11559466 55:0.11195388 56:0.056128641 57:0.034890777 58:0.038834951 59:0.057645631 60:0.036407767 61:0.016990291 62:0.11438107 63:0.14745146 64:0.19478155 65:0.21359223 66:0.11741505 67:0.092536408 68:0.056432039 69:0.032463592 70:0.013956311 71:0.020934466 72:0.17597087 73:0.20175971 74:0.13592233 75:0.2506068 76:0.10527913 77:0.047633495 78:0.040958738 79:0.010315534 80:0.010618932 81:0.00060679612 82:0.0069781553 83:0.063410194 84:0.30370146 85:0.03276699 86:0.22026699 87:0.21510922 88:0.12682039 89:0.030036408 90:0.00030339806 91:0.0075849515 93:0.098604369 95:0.35194175 97:0.38895631 99:0.11711165 100:0.035800971 101:0.026395631 102:0.063106796 103:0.076456311 104:0.15898058 105:0.23907767 106:0.19569175 107:0.11923544 108:0.07190534 109:0.032160194 110:0.016990291 111:0.016990291 112:0.11438107 113:0.14745146 114:0.19478155 115:0.21359223 116:0.11741505 117:0.092536408 118:0.056432039 119:0.032463592 120:0.013956311 121:0.03125 126:0.021237864 127:0.49848301 128:0.25303398 129:0.12105583 130:0.07493932 131:0.03125 137:0.00030339806 138:0.61165049 139:0.24878641 140:0.10800971 141:0.96875 150:0.03125 151:0.03125 160:0.96875 161:0.35770631 162:0.43325243 163:0.15503641 164:0.022754854 170:0.03125 171:0.71359223 172:0.21783981 173:0.037317961 180:0.03125 181:0.0097087379 183:0.054004854 184:0.088592233 185:0.37591019 186:0.14441748 187:0.040351942 188:0.092536408 189:0.15412621 190:0.040351942 191:0.0097087379 194:0.093446602 195:0.42870146 196:0.13895631 197:0.071601942 198:0.12287621 199:0.098300971 200:0.036407767 201:0.84890777 202:0.1407767 203:0.00060679612 210:0.0097087379 211:0.0097087379 220:0.99029126 221:0.052487864 222:0.039441748 223:0.1407767 224:0.37105583 225:0.21480583 226:0.1717233 230:0.0097087379 231:0.085254854 232:0.15533981 233:0.36074029 234:0.068871359 235:0.041868932 236:0.089805825 237:0.14472087 238:0.04217233 239:0.0015169903 240:0.0097087379 241:0.0097087379 244:0.22421117 245:0.31462379 246:0.093143204 247:0.08131068 248:0.11893204 249:0.11377427 250:0.044296117 251:0.0097087379 255:0.34799757 256:0.2181432 257:0.13167476 258:0.15078883 259:0.10406553 260:0.037621359 261:0.99029126 270:0.0097087379 271:0.0097087379 280:0.99029126 281:0.22148058 282:0.26213592 283:0.1246966 284:0.11559466 285:0.16474515 286:0.10163835 290:0.0097087379 291:0.40716019 292:0.16626214 293:0.095570388 294:0.11680825 295:0.13652913 296:0.066140777 297:0.0018203883 300:0.0097087379 301:0.04065534 305:0.12651699 306:0.41656553 307:0.19872573 308:0.098300971 309:0.09375 310:0.025485437 311:0.04065534 316:0.094356796 317:0.44751214 318:0.27973301 319:0.084648058 320:0.05309466 321:0.95934466 330:0.04065534 331:0.04065534 340:0.95934466 341:0.077366505 342:0.27184466 343:0.43476942 344:0.13046117 345:0.044902913 350:0.04065534 351:0.27700243 352:0.44842233 353:0.14472087 354:0.081614078 355:0.0075849515 360:0.04065534 
