svm_type c_svc
kernel_type linear
nr_class 2
total_sv 64
rho -0.951893
label -1 1
probA -5.21061
probB 0.0501017
nr_sv 31 33
SV
0.6015593806580587 1:0.2296875 2:0.165 3:0.1396875 4:0.124375 5:0.095 6:0.0846875 7:0.079375 8:0.0296875 9:0.02625 10:0.02625 11:0.3059375 12:0.10875 13:0.1275 14:0.131875 15:0.0971875 16:0.05125 17:0.095625 18:0.026875 19:0.018125 20:0.036875 21:0.001875 22:0.0165625 23:0.0290625 24:0.2265625 25:0.1796875 26:0.2815625 27:0.189375 28:0.045 29:0.02875 30:0.0015625 31:0.005625 32:0.0075 33:0.068125 34:0.0825 35:0.2471875 36:0.2375 37:0.24875 38:0.0834375 39:0.008125 40:0.01125 41:0.0765625 42:0.0809375 43:0.1303125 44:0.1746875 45:0.110625 46:0.1390625 47:0.1346875 48:0.0690625 49:0.03625 50:0.0478125 51:0.2296875 52:0.165 53:0.1396875 54:0.124375 55:0.095 56:0.0846875 57:0.079375 58:0.0296875 59:0.02625 60:0.02625 61:0.15625 62:0.176875 63:0.2325 64:0.1946875 65:0.0875 66:0.0796875 67:0.0209375 68:0.01625 69:0.018125 70:0.0171875 71:0.1203125 72:0.231875 73:0.2909375 74:0.126875 75:0.1271875 76:0.0340625 77:0.0178125 78:0.0203125 79:0.019375 80:0.01125 81:0.000625 82:0.0109375 83:0.1125 84:0.14875 85:0.255625 86:0.168125 87:0.204375 88:0.0546875 89:0.0340625 90:0.0103125 91:0.049375 92:0.0603125 93:0.205625 94:0.23125 95:0.3040625 96:0.11375 97:0.020625 98:0.01125 99:0.0025 100:0.00125 101:0.0465625 102:0.05375 103:0.1228125 104:0.155625 105:0.2409375 106:0.1684375 107:0.10875 108:0.0490625 109:0.024375 110:0.0296875 111:0.15625 112:0.176875 113:0.2325 114:0.1946875 115:0.0875 116:0.0796875 117:0.0209375 118:0.01625 119:0.018125 120:0.0171875 121:0.03125 125:0.0325 126:0.19 127:0.3384375 128:0.26375 129:0.095 130:0.0490625 131:0.03125 137:0.12125 138:0.3228125 139:0.4125 140:0.1121875 141:0.96875 150:0.03125 151:0.03125 160:0.96875 161:0.1084375 162:0.148125 163:0.435625 164:0.2153125 165:0.06125 170:0.03125 171:0.4446875 172:0.42625 173:0.0978125 180:0.03125 181:0.01 183:0.3575 184:0.245 185:0.17125 186:0.133125 187:0.0128125 188:0.01125 189:0.02125 190:0.0378125 191:0.01 194:0.495625 195:0.2446875 196:0.1625 197:0.015625 198:0.0146875 199:0.0265625 200:0.0303125 201:0.971875 202:0.018125 210:0.01 211:0.01 219:0.0025 220:0.9875 221:0.0365625 222:0.18125 223:0.2021875 224:0.17125 225:0.1309375 226:0.1703125 227:0.0321875 228:0.0271875 229:0.038125 230:0.01 231:0.3971875 232:0.2115625 233:0.165 234:0.1309375 235:0.013125 236:0.01125 237:0.015 238:0.0378125 239:0.008125 240:0.01 241:0.01 243:0.0003125 244:0.0871875 245:0.36375 246:0.1909375 247:0.0915625 248:0.081875 249:0.1109375 250:0.0634375 251:0.01 255:0.0546875 256:0.3984375 257:0.2165625 258:0.1096875 259:0.158125 260:0.0525 261:0.99 270:0.01 271:0.01 280:0.99 281:0.0228125 282:0.0546875 283:0.251875 284:0.2571875 285:0.1240625 286:0.0871875 287:0.1234375 288:0.0634375 289:0.0053125 290:0.01 291:0.113125 292:0.4078125 293:0.1771875 294:0.0921875 295:0.13625 296:0.0634375 300:0.01 301:0.0409375 305:0.0965625 306:0.1975 307:0.1621875 308:0.21 309:0.149375 310:0.1434375 311:0.0409375 316:0.0921875 317:0.28625 318:0.2859375 319:0.1821875 320:0.1125 321:0.9590625 330:0.0409375 331:0.0409375 340:0.9590625 341:0.0396875 342:0.17125 343:0.1721875 344:0.2359375 345:0.186875 346:0.1503125 347:0.0028125 350:0.0409375 351:0.2121875 352:0.23125 353:0.300625 354:0.199375 355:0.015625 360:0.0409375 
0.5120981101356336 1:0.205 2:0.1921875 3:0.1484375 4:0.1178125 5:0.0953125 6:0.09375 7:0.0696875 8:0.03125 9:0.0209375 10:0.025625 11:0.1696875 12:0.21125 13:0.1721875 14:0.0884375 15:0.139375 16:0.0609375 17:0.08875 18:0.0265625 19:0.025 20:0.0178125 21:0.0065625 22:0.0084375 23:0.1340625 24:0.1534375 25:0.2065625 26:0.311875 27:0.1065625 28:0.06625 29:0.005625 30:0.000625 31:0.005 32:0.03625 33:0.14625 34:0.31 36:0.325 37:0.1375 38:0.03125 39:0.0025 40:0.00625 41:0.01875 42:0.074375 43:0.1125 44:0.1409375 45:0.188125 46:0.1259375 47:0.158125 48:0.109375 49:0.041875 50:0.03 51:0.205 52:0.1921875 53:0.1484375 54:0.1178125 55:0.0953125 56:0.09375 57:0.0696875 58:0.03125 59:0.0209375 60:0.025625 61:0.1265625 62:0.1653125 63:0.291875 64:0.1621875 65:0.1153125 66:0.0615625 67:0.0253125 68:0.018125 69:0.02 70:0.01375 71:0.1221875 72:0.263125 73:0.22375 74:0.180625 75:0.090625 76:0.0465625 77:0.020625 78:0.01625 79:0.0175 80:0.01875 81:0.0015625 82:0.055 83:0.070625 84:0.2425 85:0.1796875 86:0.2625 87:0.1403125 88:0.02125 89:0.0246875 90:0.001875 91:0.01 92:0.01 93:0.055 94:0.115 95:0.19875 96:0.16375 97:0.24375 98:0.1275 99:0.05625 100:0.02 101:0.014375 102:0.0875 103:0.0821875 104:0.1665625 105:0.308125 106:0.14125 107:0.099375 108:0.048125 109:0.025625 110:0.026875 111:0.1265625 112:0.1653125 113:0.291875 114:0.1621875 115:0.1153125 116:0.0615625 117:0.0253125 118:0.018125 119:0.02 120:0.01375 121:0.03125 125:0.0028125 126:0.1659375 127:0.296875 128:0.3184375 129:0.1096875 130:0.075 131:0.03125 137:0.1646875 138:0.5065625 139:0.2590625 140:0.0384375 141:0.96875 150:0.03125 151:0.03125 160:0.96875 161:0.1025 162:0.2353125 163:0.4034375 164:0.18125 165:0.04625 170:0.03125 171:0.4440625 172:0.430625 173:0.0940625 180:0.03125 181:0.01 183:0.373125 184:0.2315625 185:0.1659375 186:0.1303125 187:0.01125 188:0.013125 189:0.03125 190:0.0334375 191:0.01 194:0.5053125 195:0.225625 196:0.159375 197:0.0196875 198:0.0190625 199:0.026875 200:0.0340625 201:0.97875 202:0.01125 210:0.01 211:0.01 219:0.005625 220:0.984375 221:0.068125 222:0.1559375 223:0.225625 224:0.1690625 225:0.1371875 226:0.1434375 227:0.0221875 228:0.0309375 229:0.0375 230:0.01 231:0.3925 232:0.2121875 233:0.15625 234:0.136875 235:0.0115625 236:0.0128125 237:0.01875 238:0.041875 239:0.0071875 240:0.01 241:0.01 243:0.0140625 244:0.0821875 245:0.3690625 246:0.1965625 247:0.085 248:0.091875 249:0.1084375 250:0.0428125 251:0.01 255:0.079375 256:0.3703125 257:0.2228125 258:0.1090625 259:0.1871875 260:0.02125 261:0.99 270:0.01 271:0.01 280:0.99 281:0.015625 282:0.03125 283:0.066875 284:0.3034375 285:0.235625 286:0.115 287:0.1140625 288:0.1065625 289:0.0015625 290:0.01 291:0.1009375 292:0.413125 293:0.1934375 294:0.1003125 295:0.1340625 296:0.048125 300:0.01 301:0.0409375 305:0.13 306:0.17875 307:0.1609375 308:0.21625 309:0.1334375 310:0.1396875 311:0.0409375 316:0.0890625 317:0.285 318:0.2921875 319:0.175625 320:0.1171875 321:0.9590625 330:0.0409375 331:0.0409375 340:0.9590625 341:0.02125 342:0.165 343:0.1628125 344:0.2175 345:0.210625 346:0.180625 347:0.00125 350:0.0409375 351:0.2653125 352:0.2375 353:0.2790625 354:0.1771875 360:0.0409375 
0.1397183393154933 1:0.125 2:0.24907178 3:0.15903465 4:0.10086634 5:0.093440594 6:0.087561881 7:0.074257426 8:0.047957921 9:0.028774752 10:0.034034653 11:0.12716584 12:0.25897277 13:0.17079208 14:0.10736386 15:0.089108911 16:0.084467822 17:0.074876238 18:0.043316832 19:0.01980198 20:0.024133663 21:0.0012376238 22:0.0018564356 23:0.05414604 24:0.083539604 25:0.14356436 26:0.44337871 27:0.13490099 28:0.11540842 29:0.018873762 30:0.0030940594 31:0.029084158 32:0.042079208 33:0.14418317 34:0.41769802 35:0.25618812 36:0.089727723 37:0.013613861 38:0.004950495 39:0.0012376238 40:0.0012376238 41:0.022277228 42:0.11881188 43:0.12561881 44:0.13830446 45:0.13087871 46:0.1092203 47:0.1404703 48:0.095915842 49:0.072710396 50:0.045792079 51:0.125 52:0.24907178 53:0.15903465 54:0.10086634 55:0.093440594 56:0.087561881 57:0.074257426 58:0.047957921 59:0.028774752 60:0.034034653 61:0.15006188 62:0.16615099 63:0.24257426 64:0.18316832 65:0.12190594 66:0.067450495 67:0.016089109 68:0.016707921 69:0.014232673 70:0.021658416 71:0.057858911 72:0.27939356 73:0.28743812 74:0.15934406 75:0.10581683 76:0.044863861 77:0.013923267 78:0.019492574 79:0.01980198 80:0.012066832 81:0.0040222772 82:0.01980198 83:0.14882426 84:0.12097772 85:0.29826733 86:0.13428218 87:0.19647277 88:0.046101485 89:0.026299505 90:0.004950495 91:0.0024752475 92:0.0055693069 93:0.084777228 94:0.087252475 95:0.21658416 96:0.47339109 97:0.09529703 98:0.030940594 99:0.0024752475 100:0.0012376238 101:0.089418317 102:0.090037129 103:0.12933168 104:0.2237005 105:0.20513614 106:0.13490099 107:0.060024752 108:0.024443069 109:0.026299505 110:0.016707921 111:0.15006188 112:0.16615099 113:0.24257426 114:0.18316832 115:0.12190594 116:0.067450495 117:0.016089109 118:0.016707921 119:0.014232673 120:0.021658416 121:0.03125 125:0.026608911 126:0.14263614 127:0.32023515 128:0.31188119 129:0.10550743 130:0.061881188 131:0.03125 137:0.12654703 138:0.33694307 139:0.4112005 140:0.094059406 141:0.96875 150:0.03125 151:0.03125 160:0.96875 161:0.10179455 162:0.13892327 163:0.49071782 164:0.17852723 165:0.058787129 170:0.03125 171:0.42481436 172:0.44925743 173:0.094678218 180:0.03125 181:0.0099009901 183:0.39325495 184:0.2237005 185:0.1509901 186:0.12902228 187:0.011757426 188:0.012376238 189:0.030321782 190:0.038675743 191:0.0099009901 194:0.50835396 195:0.22153465 196:0.16058168 197:0.017636139 198:0.020730198 199:0.027846535 200:0.033415842 201:0.98174505 202:0.0083539604 210:0.0099009901 211:0.0099009901 219:0.016089109 220:0.9740099 221:0.013923267 222:0.16491337 223:0.23081683 224:0.15625 225:0.11881188 226:0.18719059 227:0.045173267 228:0.032487624 229:0.040532178 230:0.0099009901 231:0.38149752 232:0.22246287 233:0.1404703 234:0.14820545 235:0.012066832 236:0.011757426 237:0.021967822 238:0.04269802 239:0.0089727723 240:0.0099009901 241:0.0099009901 243:0.012685644 244:0.11169554 245:0.34839109 246:0.18904703 247:0.088180693 248:0.096844059 249:0.12097772 250:0.022277228 251:0.0099009901 255:0.040222772 256:0.37840347 257:0.21565594 258:0.12438119 259:0.1667698 260:0.064665842 261:0.98917079 262:0.00092821782 270:0.0099009901 271:0.0099009901 280:0.99009901 281:0.023824257 282:0.050433168 283:0.2654703 284:0.21008663 285:0.15872525 286:0.091893564 287:0.12716584 288:0.060024752 289:0.0024752475 290:0.0099009901 291:0.12438119 292:0.39139851 293:0.18873762 294:0.11231436 295:0.13985149 296:0.033415842 300:0.0099009901 301:0.040841584 305:0.14665842 306:0.17450495 307:0.19647277 308:0.20173267 309:0.12716584 310:0.11262376 311:0.040841584 315:0.0018564356 316:0.22555693 317:0.27134901 318:0.21596535 319:0.18626238 320:0.058168317 321:0.95915842 330:0.040841584 331:0.040841584 340:0.95915842 341:0.043007426 342:0.19090347 343:0.12840347 344:0.23143564 345:0.19399752 346:0.16398515 347:0.0074257426 350:0.040841584 351:0.27506188 352:0.24257426 353:0.24845297 354:0.19059406 355:0.0024752475 360:0.040841584 
0.3782182045798161 1:0.22375 2:0.348125 3:0.1628125 4:0.1528125 5:0.0821875 6:0.0240625 7:0.003125 8:0.000625 9:0.0009375 10:0.0015625 11:0.274375 12:0.39375 13:0.186875 14:0.09125 15:0.0390625 16:0.0096875 17:0.0021875 18:0.000625 19:0.0009375 20:0.00125 21:0.1890625 22:0.48875 23:0.1884375 24:0.095 25:0.0265625 26:0.008125 27:0.00125 28:0.000625 29:0.0009375 30:0.00125 31:0.01 37:0.315 38:0.4875 39:0.0725 40:0.115 41:0.0740625 42:0.188125 43:0.081875 44:0.1175 45:0.1765625 46:0.0925 47:0.1253125 48:0.1290625 49:0.0125 50:0.0025 51:0.27625 52:0.341875 53:0.143125 54:0.1453125 55:0.0690625 56:0.0190625 57:0.0021875 58:0.000625 59:0.0009375 60:0.0015625 61:0.0996875 62:0.126875 63:0.1309375 64:0.1321875 65:0.1865625 66:0.1590625 67:0.1 68:0.0484375 69:0.0121875 70:0.0040625 71:0.0225 72:0.221875 73:0.171875 74:0.1628125 75:0.1875 76:0.1425 77:0.0525 78:0.0246875 79:0.0115625 80:0.0021875 81:0.001875 82:0.099375 83:0.2446875 84:0.189375 85:0.240625 86:0.153125 87:0.03875 88:0.021875 89:0.008125 90:0.0021875 91:0.02 92:0.00625 96:0.00125 97:0.1525 98:0.63125 99:0.10625 100:0.0825 101:0.0471875 102:0.07625 103:0.121875 104:0.1965625 105:0.1303125 106:0.1440625 107:0.1709375 108:0.0703125 109:0.0353125 110:0.0071875 111:0.171875 112:0.1284375 113:0.13 114:0.0996875 115:0.2003125 116:0.1421875 117:0.0690625 118:0.04375 119:0.01125 120:0.0034375 121:0.03125 127:0.09625 128:0.4575 129:0.3525 130:0.0625 131:0.03125 136:0.0003125 137:0.145 138:0.5178125 139:0.2915625 140:0.0140625 141:0.0575 142:0.416875 143:0.433125 144:0.056875 145:0.004375 150:0.03125 151:0.03125 157:0.00125 158:0.07375 159:0.82875 160:0.065 161:0.7296875 162:0.2390625 170:0.03125 171:0.133125 172:0.316875 173:0.3675 174:0.1059375 175:0.0446875 176:0.000625 180:0.03125 181:0.01 185:0.0171875 186:0.155 187:0.150625 188:0.226875 189:0.3171875 190:0.123125 191:0.01 195:0.001875 196:0.1878125 197:0.2103125 198:0.1740625 199:0.3134375 200:0.1025 201:0.136875 202:0.121875 203:0.156875 204:0.11 205:0.1521875 206:0.195 207:0.0965625 208:0.020625 210:0.01 211:0.048125 217:0.073125 218:0.761875 219:0.078125 220:0.03875 221:0.9184375 222:0.0715625 230:0.01 231:0.093125 232:0.0971875 233:0.09 234:0.1271875 235:0.1296875 236:0.1965625 237:0.173125 238:0.0759375 239:0.0071875 240:0.01 241:0.01 245:0.0115625 246:0.2140625 247:0.1915625 248:0.1784375 249:0.275 250:0.119375 251:0.01 256:0.26375 257:0.1875 258:0.2146875 259:0.254375 260:0.0696875 261:0.176875 262:0.2 263:0.1 264:0.1459375 265:0.1578125 266:0.1475 267:0.0553125 268:0.0065625 270:0.01 271:0.03375 272:0.01 273:0.00125 276:0.00125 277:0.45125 278:0.44875 279:0.0275 280:0.02625 281:0.7765625 282:0.2134375 290:0.01 291:0.1365625 292:0.1525 293:0.1053125 294:0.0875 295:0.11375 296:0.150625 297:0.188125 298:0.0525 299:0.003125 300:0.01 301:0.0409375 306:0.00375 307:0.22 308:0.4 309:0.1784375 310:0.156875 311:0.0409375 316:0.0021875 317:0.369375 318:0.2765625 319:0.1771875 320:0.13375 321:0.053125 322:0.450625 323:0.1409375 324:0.0690625 325:0.21625 326:0.0271875 327:0.001875 330:0.0409375 331:0.0409375 334:0.00125 339:0.353125 340:0.6046875 341:0.7484375 342:0.210625 350:0.0409375 351:0.03 352:0.19375 353:0.2928125 354:0.13625 355:0.0928125 356:0.198125 357:0.0153125 360:0.0409375 
0.0232539869640767 1:0.12035891 2:0.42357673 3:0.18440594 4:0.16460396 5:0.081373762 6:0.018873762 7:0.0018564356 8:0.00092821782 9:0.0015470297 10:0.0024752475 11:0.28836634 12:0.40686881 13:0.1822401 14:0.084777228 15:0.027227723 16:0.004950495 17:0.00092821782 18:0.0012376238 19:0.0012376238 20:0.0021658416 21:0.12283416 22:0.55445545 23:0.18069307 24:0.10612624 25:0.024133663 26:0.0058787129 27:0.0012376238 28:0.0012376238 29:0.00092821782 30:0.0024752475 31:0.034344059 32:0.012376238 36:0.0024752475 37:0.057240099 38:0.68316832 39:0.079207921 40:0.13118812 41:0.063118812 42:0.05105198 43:0.18626238 44:0.074257426 45:0.20513614 46:0.12623762 47:0.13242574 48:0.1302599 49:0.027537129 50:0.0037128713 51:0.16460396 52:0.42233911 53:0.17667079 54:0.13428218 55:0.079826733 56:0.015470297 57:0.0018564356 58:0.00092821782 59:0.0015470297 60:0.0024752475 61:0.09375 62:0.11726485 63:0.12314356 64:0.1200495 65:0.15006188 66:0.20792079 67:0.10891089 68:0.052908416 69:0.021658416 70:0.0043316832 71:0.08539604 72:0.16181931 73:0.15934406 74:0.1717203 75:0.19832921 76:0.12716584 77:0.05259901 78:0.029393564 79:0.010519802 80:0.0037128713 81:0.0027846535 82:0.19894802 83:0.2082302 84:0.16707921 85:0.23143564 86:0.10148515 87:0.045173267 88:0.028774752 89:0.012376238 90:0.0037128713 91:0.068069307 92:0.0018564356 97:0.61509901 98:0.19183168 99:0.063737624 100:0.059405941 101:0.01980198 102:0.054455446 103:0.16027228 104:0.15532178 105:0.11571782 106:0.16924505 107:0.21596535 108:0.097772277 109:0.0077351485 110:0.0037128713 111:0.17852723 112:0.11602723 113:0.10767327 114:0.11788366 115:0.18811881 116:0.15284653 117:0.081683168 118:0.040532178 119:0.013304455 120:0.0034034653 121:0.03125 126:0.0030940594 127:0.12469059 128:0.48360149 129:0.31095297 130:0.046410891 131:0.03125 137:0.12035891 138:0.53186881 139:0.2865099 140:0.030012376 141:0.076732673 142:0.47679455 143:0.35179455 144:0.059096535 145:0.0043316832 150:0.03125 151:0.036200495 152:0.0012376238 157:0.099628713 158:0.79733911 159:0.060643564 160:0.004950495 161:0.86293317 162:0.10581683 170:0.03125 171:0.07394802 172:0.30816832 173:0.37159653 174:0.16862624 175:0.04424505 176:0.0021658416 180:0.03125 181:0.0099009901 185:0.0095915842 186:0.16274752 187:0.16243812 188:0.20482673 189:0.3174505 190:0.13304455 191:0.0099009901 195:0.0015470297 196:0.1822401 197:0.21472772 198:0.17079208 199:0.30105198 200:0.1197401 201:0.11571782 202:0.1144802 203:0.17759901 204:0.10303218 205:0.1667698 206:0.19430693 207:0.092512376 208:0.025680693 210:0.0099009901 211:0.035272277 212:0.0074257426 217:0.11571782 218:0.70235149 219:0.090965347 220:0.048267327 221:0.91553218 222:0.074566832 230:0.0099009901 231:0.090037129 232:0.094987624 233:0.11169554 234:0.10829208 235:0.12809406 236:0.22246287 237:0.14108911 238:0.087871287 239:0.0055693069 240:0.0099009901 241:0.0099009901 245:0.022586634 246:0.21627475 247:0.18193069 248:0.19740099 249:0.30662129 250:0.065284653 251:0.0099009901 256:0.2762995 257:0.17945545 258:0.2137995 259:0.2657797 260:0.054764851 261:0.20544554 262:0.17543317 263:0.091274752 264:0.13799505 265:0.15903465 266:0.14820545 267:0.066522277 268:0.0061881188 270:0.0099009901 271:0.043316832 272:0.0099009901 276:0.0024752475 277:0.48267327 278:0.43811881 279:0.0086633663 280:0.014851485 281:0.79053218 282:0.19956683 290:0.0099009901 291:0.11571782 292:0.13211634 293:0.12469059 294:0.079517327 295:0.12685644 296:0.15748762 297:0.18842822 298:0.060334158 299:0.004950495 300:0.0099009901 301:0.040841584 306:0.025990099 307:0.33570545 308:0.28341584 309:0.2710396 310:0.043007426 311:0.040841584 316:0.027537129 317:0.47339109 318:0.16305693 319:0.26887376 320:0.026299505 321:0.042079208 322:0.43100248 323:0.14882426 324:0.079517327 325:0.21318069 326:0.04269802 327:0.0018564356 330:0.040841584 331:0.040841584 337:0.0012376238 338:0.0037128713 339:0.46163366 340:0.49257426 341:0.80909653 342:0.15006188 350:0.040841584 351:0.055693069 352:0.18997525 353:0.28248762 354:0.10519802 355:0.1039604 356:0.19647277 357:0.024133663 358:0.0012376238 360:0.040841584 
0.07233950208893762 1:0.295625 2:0.3553125 3:0.1259375 4:0.1096875 5:0.07125 6:0.015625 7:0.005 8:0.005625 9:0.009375 10:0.0065625 11:0.543125 12:0.213125 13:0.123125 14:0.066875 15:0.02375 16:0.005625 17:0.0046875 18:0.0040625 19:0.00875 20:0.006875 21:0.4846875 22:0.25125 23:0.1503125 24:0.0640625 25:0.01875 26:0.0075 27:0.004375 28:0.0053125 29:0.008125 30:0.005625 31:0.025 32:0.0025 37:0.085 38:0.706875 39:0.061875 40:0.11875 41:0.03375 42:0.075 43:0.1975 44:0.10625 45:0.12 46:0.095 47:0.1775 48:0.1303125 49:0.0553125 50:0.009375 51:0.29375 52:0.3571875 53:0.1259375 54:0.1096875 55:0.07125 56:0.015625 57:0.005 58:0.005625 59:0.009375 60:0.0065625 61:0.0346875 62:0.154375 63:0.1403125 64:0.1415625 65:0.0940625 66:0.196875 67:0.1471875 68:0.065 69:0.0209375 70:0.005 71:0.1221875 72:0.2184375 73:0.13 74:0.1125 75:0.1828125 76:0.1321875 77:0.0621875 78:0.0240625 79:0.013125 80:0.0025 81:0.0021875 82:0.1778125 83:0.2315625 84:0.12875 85:0.16 86:0.194375 87:0.0640625 88:0.02375 89:0.0153125 90:0.0021875 91:0.0325 92:0.0125 97:0.14875 98:0.6425 99:0.08375 100:0.08 101:0.02125 102:0.0359375 103:0.1675 104:0.0940625 105:0.1628125 106:0.0925 107:0.221875 108:0.171875 109:0.028125 110:0.0040625 111:0.166875 112:0.14875 113:0.12375 114:0.0915625 115:0.1265625 116:0.1734375 117:0.1034375 118:0.0459375 119:0.01625 120:0.0034375 121:0.03125 126:0.0009375 127:0.1415625 128:0.48125 129:0.30375 130:0.04125 131:0.03125 137:0.1003125 138:0.5884375 139:0.266875 140:0.013125 141:0.0990625 142:0.5375 143:0.3034375 144:0.026875 145:0.001875 150:0.03125 151:0.035 154:0.0025 156:0.00375 157:0.0225 158:0.86 159:0.0675 160:0.00875 161:0.619375 162:0.349375 170:0.03125 171:0.04625 172:0.21375 173:0.431875 174:0.2253125 175:0.048125 176:0.0034375 180:0.03125 181:0.01 184:0.0009375 185:0.025625 186:0.3128125 187:0.1409375 188:0.1615625 189:0.2303125 190:0.1178125 191:0.01 195:0.01 196:0.3075 197:0.2103125 198:0.12375 199:0.229375 200:0.1090625 201:0.00625 202:0.1875 203:0.22125 204:0.145625 205:0.089375 206:0.215625 207:0.0859375 208:0.0384375 210:0.01 211:0.150625 212:0.0284375 217:0.119375 218:0.50875 219:0.100625 220:0.0921875 221:0.9228125 222:0.0671875 230:0.01 231:0.00625 232:0.1575 233:0.205625 234:0.1071875 235:0.109375 236:0.16375 237:0.1346875 238:0.088125 239:0.0175 240:0.01 241:0.01 245:0.016875 246:0.1825 247:0.1446875 248:0.2184375 249:0.30125 250:0.12625 251:0.01 256:0.24875 257:0.15375 258:0.2303125 259:0.2871875 260:0.07 261:0.190625 262:0.1365625 263:0.118125 264:0.14875 265:0.1575 266:0.1828125 267:0.0515625 268:0.0040625 270:0.01 271:0.01875 272:0.014375 276:0.0025 277:0.47875 278:0.441875 279:0.03 280:0.01375 281:0.7928125 282:0.1971875 290:0.01 291:0.1071875 292:0.13 293:0.088125 294:0.0834375 295:0.1640625 296:0.1609375 297:0.2015625 298:0.0534375 299:0.00125 300:0.01 301:0.0409375 306:0.001875 307:0.3178125 308:0.274375 309:0.320625 310:0.044375 311:0.0409375 316:0.0125 317:0.45625 318:0.1721875 319:0.2934375 320:0.0246875 321:0.06375 322:0.4209375 323:0.1203125 324:0.1278125 325:0.2015625 326:0.0228125 327:0.001875 330:0.0409375 331:0.0409375 339:0.38625 340:0.5728125 341:0.8028125 342:0.15625 350:0.0409375 351:0.0721875 352:0.2475 353:0.1940625 354:0.099375 355:0.2028125 356:0.1278125 357:0.015 358:0.0003125 360:0.0409375 
0.06848932977020378 1:0.22411616 2:0.085227273 3:0.0088383838 4:0.065972222 5:0.13194444 6:0.20486111 8:0.15561869 9:0.087752525 10:0.035669192 11:0.012310606 12:0.2572601 13:0.11458333 14:0.12973485 15:0.082386364 16:0.12468434 18:0.15561869 19:0.087752525 20:0.035669192 21:0.00031565657 22:0.020517677 23:0.13541667 24:0.33933081 25:0.21875 26:0.0066287879 27:0.15561869 28:0.087752525 29:0.033459596 30:0.002209596 31:0.28787879 35:0.03030303 39:0.59974747 40:0.082070707 41:0.082070707 43:0.0066287879 44:0.26893939 45:0.012310606 47:0.035669192 48:0.24337121 49:0.20707071 50:0.14393939 51:0.012310606 52:0.2572601 53:0.11458333 54:0.12973485 55:0.082386364 56:0.12468434 58:0.15561869 59:0.087752525 60:0.035669192 61:0.042929293 62:0.26388889 63:0.097537879 64:0.11868687 65:0.11142677 66:0.057765152 67:0.18497475 68:0.10416667 70:0.018623737 71:0.053661616 72:0.24936869 73:0.21559343 74:0.14520202 76:0.20801768 77:0.10953283 79:0.012941919 80:0.0056818182 81:0.0031565657 82:0.12373737 83:0.11710859 85:0.4542298 86:0.20138889 88:0.081755051 89:0.012941919 90:0.0056818182 91:0.33017677 95:0.18434343 99:0.34217172 100:0.14330808 101:0.14330808 104:0.29040404 105:0.039772727 108:0.018623737 109:0.31755051 110:0.19034091 111:0.053661616 112:0.24936869 113:0.21559343 114:0.14520202 116:0.20801768 117:0.10953283 119:0.012941919 120:0.0056818182 121:0.03125 128:0.062815657 129:0.53882576 130:0.36710859 131:0.03125 138:0.0025252525 139:0.36079545 140:0.60542929 141:0.96875 150:0.03125 151:0.03125 156:0.30397727 158:0.4135101 160:0.25126263 161:0.65593434 162:0.31281566 170:0.03125 171:0.96875 180:0.03125 181:0.01010101 185:0.018939394 186:0.39962121 187:0.14488636 188:0.24810606 189:0.15340909 190:0.024936869 191:0.01010101 195:0.0025252525 196:0.41603535 197:0.14015152 198:0.2405303 199:0.14520202 200:0.045454545 201:0.95517677 202:0.034722222 210:0.01010101 211:0.01010101 216:0.018939394 218:0.0012626263 220:0.96969697 221:0.85795455 222:0.13194444 230:0.01010101 231:0.88762626 232:0.10227273 240:0.01010101 241:0.01010101 246:0.13131313 247:0.39741162 248:0.1852904 249:0.15214646 250:0.12373737 251:0.01010101 256:0.27430556 257:0.25252525 258:0.22916667 259:0.15277778 260:0.081123737 261:0.98989899 270:0.01010101 271:0.01010101 276:0.16224747 278:0.013888889 280:0.81376263 281:0.93276515 282:0.057133838 290:0.01010101 291:0.98989899 300:0.01010101 301:0.041035354 307:0.24652778 308:0.44760101 309:0.13289141 310:0.13194444 311:0.041035354 317:0.031565657 318:0.59248737 319:0.15751263 320:0.17739899 321:0.95896465 330:0.041035354 331:0.041035354 336:0.36963384 337:0.01010101 338:0.15372475 340:0.42550505 341:0.86174242 342:0.097222222 350:0.041035354 351:0.95896465 360:0.041035354 
0.1172571076083356 1:0.225625 2:0.0875 3:0.01 4:0.2015625 5:0.08875 6:0.110625 7:0.18375 8:0.06625 9:0.0225 10:0.0034375 11:0.2696875 12:0.1140625 13:0.136875 14:0.0921875 15:0.11125 17:0.18375 18:0.06625 19:0.0225 20:0.0034375 21:0.0003125 22:0.0225 23:0.14 24:0.351875 25:0.2028125 26:0.0065625 27:0.18375 28:0.06625 29:0.0225 30:0.0034375 31:0.285 35:0.03875 39:0.59375 40:0.0825 41:0.0825 43:0.0065625 44:0.26875 45:0.0096875 47:0.0259375 48:0.25 49:0.2034375 50:0.153125 51:0.2696875 52:0.1140625 53:0.136875 54:0.0921875 55:0.11125 57:0.18375 58:0.06625 59:0.0225 60:0.0034375 61:0.0465625 62:0.25125 63:0.0940625 64:0.12375 65:0.1240625 66:0.056875 67:0.1878125 68:0.101875 70:0.01375 71:0.0571875 72:0.2440625 73:0.2009375 74:0.1221875 76:0.25375 77:0.108125 79:0.0075 80:0.00625 81:0.003125 82:0.128125 83:0.1353125 85:0.4946875 86:0.1809375 88:0.0440625 89:0.0075 90:0.00625 91:0.273125 95:0.235 99:0.35 100:0.141875 101:0.141875 104:0.2296875 105:0.0434375 108:0.01375 109:0.361875 110:0.209375 111:0.0571875 112:0.2440625 113:0.2009375 114:0.1221875 116:0.25375 117:0.108125 119:0.0075 120:0.00625 121:0.03125 128:0.0984375 129:0.4965625 130:0.37375 131:0.03125 138:0.0025 139:0.3884375 140:0.5778125 141:0.96875 150:0.03125 151:0.03125 155:0.025 156:0.315625 158:0.38 160:0.248125 161:0.6721875 162:0.2965625 170:0.03125 171:0.96875 180:0.03125 181:0.01 185:0.1003125 186:0.296875 187:0.135625 188:0.2575 189:0.170625 190:0.0290625 191:0.01 196:0.423125 197:0.1096875 198:0.3028125 199:0.1321875 200:0.0221875 201:0.94 202:0.05 210:0.01 211:0.01 216:0.085625 218:0.028125 220:0.87625 221:0.9121875 222:0.0778125 230:0.01 231:0.9178125 232:0.0721875 240:0.01 241:0.01 246:0.116875 247:0.4071875 248:0.181875 249:0.159375 250:0.1246875 251:0.01 256:0.2846875 257:0.2378125 258:0.224375 259:0.1559375 260:0.0871875 261:0.99 270:0.01 271:0.01 276:0.16125 278:0.0075 280:0.82125 281:0.95 282:0.04 290:0.01 291:0.99 300:0.01 301:0.0409375 307:0.5165625 308:0.246875 309:0.143125 310:0.0525 311:0.0409375 317:0.17875 318:0.536875 319:0.19 320:0.0534375 321:0.9590625 330:0.0409375 331:0.0409375 336:0.403125 338:0.134375 340:0.4215625 341:0.86875 342:0.0903125 350:0.0409375 351:0.9590625 360:0.0409375 
0.01934639888602162 1:0.28093112 2:0.15433673 3:0.016262755 4:0.058035714 5:0.14764031 6:0.14477041 7:0.095982143 8:0.072385204 9:0.026147959 10:0.0035076531 11:0.2713648 12:0.10714286 13:0.12276786 14:0.094706633 15:0.12436224 16:0.06122449 17:0.11639031 18:0.072385204 19:0.026147959 20:0.0035076531 21:0.017857143 22:0.12595663 23:0.35491071 24:0.21364796 25:0.0079719388 26:0.095982143 27:0.072385204 28:0.087372449 29:0.023596939 30:0.00031887755 31:0.4502551 35:0.082908163 40:0.46683673 41:0.081632653 42:0.097257653 43:0.2713648 46:0.0035076531 47:0.19451531 48:0.12436224 49:0.094706633 50:0.13265306 51:0.2713648 52:0.10714286 53:0.12276786 54:0.094706633 55:0.12436224 56:0.06122449 57:0.11639031 58:0.072385204 59:0.026147959 60:0.0035076531 61:0.39253827 62:0.088647959 63:0.1221301 64:0.066964286 65:0.021683673 66:0.18144133 67:0.086734694 69:0.02997449 70:0.0098852041 71:0.051658163 72:0.30070153 73:0.13998724 74:0.12117347 75:0.25446429 76:0.092155612 78:0.02997449 79:0.0089285714 80:0.00095663265 81:0.01434949 82:0.11862245 83:0.140625 84:0.54081633 86:0.11352041 87:0.032206633 88:0.02997449 89:0.0089285714 90:0.00095663265 91:0.34566327 95:0.24617347 99:0.3622449 100:0.045918367 101:0.045918367 104:0.30165816 105:0.044005102 107:0.00095663265 108:0.038903061 109:0.3466199 110:0.22193878 111:0.051658163 112:0.30070153 113:0.13998724 114:0.12117347 115:0.25446429 116:0.092155612 118:0.02997449 119:0.0089285714 120:0.00095663265 121:0.03125 128:0.086734694 129:0.47608418 130:0.40593112 131:0.03125 138:0.0015943878 139:0.36957908 140:0.59757653 141:0.96875 150:0.03125 151:0.03125 155:0.022321429 156:0.29145408 158:0.4119898 160:0.24298469 161:0.67697704 162:0.29177296 170:0.03125 171:0.96875 180:0.03125 181:0.010204082 185:0.094387755 186:0.32334184 187:0.14732143 188:0.2442602 189:0.15146684 190:0.029017857 191:0.010204082 196:0.41772959 197:0.14732143 198:0.23915816 199:0.14700255 200:0.038584184 201:0.94547194 202:0.04432398 210:0.010204082 211:0.010204082 216:0.09247449 218:0.020408163 220:0.87691327 221:0.91358418 222:0.076211735 230:0.010204082 231:0.92570153 232:0.064094388 240:0.010204082 241:0.010204082 246:0.10267857 247:0.4317602 248:0.19228316 249:0.17538265 250:0.087691327 251:0.010204082 256:0.25031888 257:0.28061224 258:0.24107143 259:0.14413265 260:0.073660714 261:0.98979592 270:0.010204082 271:0.010204082 275:0.0076530612 276:0.13903061 278:0.012755102 280:0.83035714 281:0.92633929 282:0.063456633 290:0.010204082 291:0.98979592 300:0.010204082 301:0.041135204 307:0.41964286 308:0.35586735 309:0.13998724 310:0.043367347 311:0.041135204 317:0.15019133 318:0.57844388 319:0.17984694 320:0.050382653 321:0.9588648 330:0.041135204 331:0.041135204 336:0.28985969 338:0.13137755 340:0.53762755 341:0.87882653 342:0.080038265 350:0.041135204 351:0.9588648 360:0.041135204 
0.1547074264177803 1:0.036033163 2:0.2401148 3:0.041772959 4:0.070790816 5:0.21683673 6:0.13169643 7:0.14572704 8:0.10044643 9:0.015943878 10:0.0006377551 11:0.056760204 12:0.30484694 13:0.022002551 14:0.19355867 15:0.12053571 16:0.02869898 17:0.25127551 18:0.014030612 19:0.0076530612 20:0.0006377551 21:0.0015943878 22:0.10172194 23:0.44610969 24:0.14158163 25:0.00095663265 26:0.12085459 27:0.10044643 28:0.036989796 29:0.017857143 30:0.031887755 31:0.0006377551 32:0.37181122 39:0.54081633 40:0.086734694 41:0.086734694 42:0.030612245 43:0.038903061 44:0.26626276 45:0.036033163 46:0.00031887755 47:0.01690051 48:0.21556122 49:0.26211735 50:0.046556122 51:0.056760204 52:0.30484694 53:0.022002551 54:0.19355867 55:0.12053571 56:0.02869898 57:0.25127551 58:0.014030612 59:0.0076530612 60:0.0006377551 61:0.0051020408 62:0.010204082 63:0.1122449 64:0.37755102 65:0.13010204 66:0.044005102 67:0.15688776 68:0.0051020408 69:0.13329082 70:0.025510204 71:0.0051020408 72:0.010204082 73:0.1122449 74:0.34183673 75:0.066326531 76:0.10969388 77:0.16645408 78:0.11096939 79:0.028061224 80:0.049107143 81:0.0051020408 82:0.051020408 83:0.22193878 84:0.46747449 85:0.13647959 87:0.064413265 88:0.0025510204 89:0.028061224 90:0.022959184 91:0.58163265 95:0.32653061 99:0.086734694 100:0.0051020408 101:0.0051020408 102:0.022959184 103:0.068877551 104:0.3622449 105:0.12244898 106:0.0051020408 108:0.026147959 109:0.11096939 110:0.27614796 111:0.0051020408 112:0.010204082 113:0.1122449 114:0.34183673 115:0.066326531 116:0.10969388 117:0.16645408 118:0.11096939 119:0.028061224 120:0.049107143 121:0.03125 128:0.089923469 129:0.59406888 130:0.28475765 131:0.03125 138:0.0025510204 139:0.72289541 140:0.24330357 141:0.96875 150:0.03125 151:0.03125 155:0.17889031 156:0.40274235 158:0.16326531 160:0.22385204 161:0.67729592 162:0.29145408 170:0.03125 171:0.96875 180:0.03125 181:0.010204082 186:0.37085459 187:0.2627551 188:0.16262755 189:0.13966837 190:0.053890306 191:0.010204082 196:0.21811224 197:0.40274235 198:0.11670918 199:0.19834184 200:0.053890306 201:0.97767857 202:0.012117347 210:0.010204082 211:0.010204082 216:0.24489796 217:0.013392857 220:0.7315051 221:0.91517857 222:0.074617347 230:0.010204082 231:0.96460459 232:0.025191327 240:0.010204082 241:0.010204082 246:0.25510204 247:0.34470663 248:0.23054847 249:0.12882653 250:0.030612245 251:0.010204082 256:0.081632653 257:0.50318878 258:0.14955357 259:0.18144133 260:0.073979592 261:0.98979592 270:0.010204082 271:0.010204082 279:0.73979592 280:0.25 281:0.93877551 282:0.051020408 290:0.010204082 291:0.98979592 300:0.010204082 301:0.041135204 307:0.15433673 308:0.40210459 309:0.20153061 310:0.20089286 311:0.041135204 317:0.0025510204 318:0.54464286 319:0.21077806 320:0.20089286 321:0.9588648 330:0.041135204 331:0.041135204 336:0.15688776 338:0.011798469 340:0.79017857 341:0.65529337 342:0.30357143 350:0.041135204 351:0.9588648 360:0.041135204 
0.1619294606184878 1:0.31528465 2:0.019183168 3:0.079826733 4:0.10488861 5:0.055074257 6:0.20451733 7:0.035581683 8:0.088490099 9:0.077351485 10:0.01980198 11:0.037128713 12:0.33230198 13:0.049195545 14:0.05259901 15:0.14418317 16:0.1299505 17:0.028465347 18:0.14480198 19:0.063737624 20:0.017636139 21:0.03279703 22:0.089108911 23:0.46070545 24:0.15222772 25:0.00061881188 26:0.082611386 27:0.021658416 28:0.041460396 29:0.072091584 30:0.046720297 31:0.38582921 35:0.12561881 39:0.33075495 40:0.15779703 41:0.076113861 42:0.081683168 43:0.073329208 44:0.015779703 45:0.2967203 48:0.10736386 49:0.26423267 50:0.084777228 51:0.037128713 52:0.33230198 53:0.049195545 54:0.05259901 55:0.14418317 56:0.1299505 57:0.028465347 58:0.14480198 59:0.063737624 60:0.017636139 61:0.004950495 62:0.12159653 63:0.25680693 64:0.14325495 65:0.15655941 66:0.10117574 67:0.012685644 68:0.16615099 69:0.031868812 70:0.004950495 71:0.0018564356 72:0.19430693 73:0.26206683 74:0.12097772 75:0.084777228 76:0.19647277 77:0.065903465 78:0.013304455 79:0.047029703 80:0.013304455 81:0.034962871 82:0.036819307 83:0.24443069 84:0.40903465 85:0.15191832 86:0.023205446 87:0.056930693 88:0.0083539604 89:0.015779703 90:0.018564356 91:0.50990099 95:0.23824257 99:0.17141089 100:0.080445545 101:0.079826733 102:0.0030940594 103:0.065594059 104:0.44183168 107:0.041769802 108:0.065903465 109:0.26701733 110:0.034962871 111:0.0018564356 112:0.19430693 113:0.26206683 114:0.12097772 115:0.084777228 116:0.19647277 117:0.065903465 118:0.013304455 119:0.047029703 120:0.013304455 121:0.03125 128:0.18131188 129:0.56002475 130:0.22741337 131:0.03125 139:0.20389851 140:0.76485149 141:0.96875 150:0.03125 151:0.03125 155:0.17512376 156:0.45451733 158:0.16460396 160:0.17450495 161:0.57673267 162:0.39201733 170:0.03125 171:0.96875 180:0.03125 181:0.0099009901 185:0.0625 186:0.41181931 187:0.097772277 188:0.22308168 189:0.14232673 190:0.05259901 191:0.0099009901 196:0.19554455 197:0.33075495 198:0.11602723 199:0.2605198 200:0.087252475 201:0.9634901 202:0.026608911 210:0.0099009901 211:0.0099009901 216:0.15965347 217:0.014851485 219:0.67264851 220:0.14294554 221:0.85365099 222:0.13644802 230:0.0099009901 231:0.94337871 232:0.046720297 240:0.0099009901 241:0.0099009901 246:0.34003713 247:0.23329208 248:0.27970297 249:0.11138614 250:0.025680693 251:0.0099009901 256:0.1615099 257:0.3957302 258:0.24876238 259:0.14789604 260:0.036200495 261:0.99009901 270:0.0099009901 271:0.0099009901 279:0.82178218 280:0.16831683 281:0.79610149 282:0.19399752 290:0.0099009901 291:0.99009901 300:0.0099009901 301:0.040841584 307:0.18564356 308:0.5207302 309:0.15872525 310:0.094059406 311:0.040841584 317:0.0027846535 318:0.53094059 319:0.23793317 320:0.1875 321:0.95915842 330:0.040841584 331:0.040841584 336:0.22648515 337:0.013613861 338:0.2759901 340:0.44306931 341:0.73174505 342:0.22741337 350:0.040841584 351:0.95915842 360:0.040841584 
0.1498748397554773 1:0.27753713 2:0.12283416 3:0.00061881188 4:0.1144802 5:0.079826733 6:0.072710396 7:0.15470297 8:0.10210396 9:0.060643564 10:0.014542079 11:0.29733911 12:0.17326733 13:0.020420792 14:0.095606436 15:0.084158416 16:0.016707921 17:0.11664604 18:0.11262376 19:0.065903465 20:0.017326733 21:0.024443069 22:0.34375 23:0.28279703 24:0.0055693069 25:0.13087871 26:0.10581683 27:0.081373762 28:0.015160891 29:0.0089727723 30:0.0012376238 31:0.43873762 33:0.030940594 36:0.42883663 37:0.074257426 38:0.025990099 40:0.0012376238 41:0.074257426 42:0.0080445545 43:0.030321782 44:0.39170792 45:0.0086633663 46:0.0034034653 47:0.079826733 48:0.30662129 49:0.071163366 50:0.025990099 51:0.2970297 52:0.17233911 53:0.020420792 54:0.069925743 55:0.085086634 56:0.04269802 57:0.11664604 58:0.11262376 59:0.065903465 60:0.017326733 61:0.097153465 62:0.25990099 63:0.12376238 65:0.10643564 66:0.18409653 68:0.021039604 69:0.12933168 70:0.078279703 71:0.14913366 72:0.26237624 73:0.12871287 74:0.094059406 76:0.12933168 77:0.17481436 78:0.0012376238 79:0.035272277 80:0.025061881 81:0.021039604 82:0.054455446 83:0.21844059 84:0.35272277 85:0.24907178 86:0.024752475 87:0.043316832 88:0.025061881 89:0.0012376238 90:0.0099009901 91:0.40965347 92:0.0012376238 95:0.31311881 99:0.16707921 100:0.10891089 101:0.10891089 103:0.053836634 104:0.27970297 105:0.076113861 108:0.049195545 109:0.2862005 110:0.1460396 111:0.14913366 112:0.26237624 113:0.12871287 114:0.094059406 116:0.12933168 117:0.17481436 118:0.0012376238 119:0.035272277 120:0.025061881 121:0.03125 128:0.10705446 129:0.55167079 130:0.31002475 131:0.03125 138:0.015470297 139:0.23174505 140:0.72153465 141:0.96875 150:0.03125 151:0.03125 155:0.01825495 156:0.43069307 158:0.29455446 160:0.22524752 161:0.67110149 162:0.29764851 170:0.03125 171:0.96875 180:0.03125 181:0.0099009901 185:0.0024752475 186:0.31157178 187:0.16429455 188:0.22308168 189:0.21101485 190:0.077660891 191:0.0099009901 196:0.18719059 197:0.29115099 198:0.15006188 199:0.28403465 200:0.077660891 201:0.98855198 202:0.0015470297 210:0.0099009901 211:0.0099009901 216:0.20173267 218:0.10891089 220:0.67945545 221:0.95915842 222:0.030940594 230:0.0099009901 231:0.93409653 232:0.056002475 240:0.0099009901 241:0.0099009901 247:0.44554455 248:0.11788366 249:0.27908416 250:0.14758663 251:0.0099009901 257:0.37933168 258:0.18409653 259:0.27908416 260:0.14758663 261:0.99009901 270:0.0099009901 271:0.0099009901 278:0.073019802 280:0.91707921 281:0.9325495 282:0.057549505 290:0.0099009901 291:0.99009901 300:0.0099009901 301:0.040841584 307:0.13675743 308:0.62840347 309:0.098081683 310:0.095915842 311:0.040841584 317:0.014851485 318:0.45977723 319:0.31095297 320:0.17357673 321:0.95915842 330:0.040841584 331:0.040841584 336:0.26608911 338:0.27413366 340:0.41893564 341:0.88923267 342:0.069925743 350:0.040841584 351:0.95915842 360:0.040841584 
0.1142966720118763 1:0.004375 2:0.065 3:0.4503125 4:0.3296875 5:0.0696875 6:0.0575 7:0.0109375 8:0.0059375 9:0.0021875 10:0.004375 11:0.0046875 12:0.010625 13:0.6153125 14:0.2384375 15:0.083125 16:0.0296875 17:0.0096875 18:0.001875 19:0.003125 20:0.0034375 21:0.024375 22:0.1765625 23:0.235 24:0.1940625 25:0.118125 26:0.1065625 27:0.0546875 28:0.0478125 29:0.0378125 30:0.005 31:0.89375 40:0.10625 41:0.001875 42:0.0184375 43:0.0859375 44:0.3103125 45:0.230625 46:0.188125 47:0.1225 48:0.0346875 49:0.005 50:0.0025 51:0.024375 52:0.1765625 53:0.235 54:0.1940625 55:0.118125 56:0.1065625 57:0.0546875 58:0.0478125 59:0.0378125 60:0.005 61:0.0046875 62:0.115625 63:0.4565625 64:0.190625 65:0.119375 66:0.0553125 67:0.034375 68:0.01375 69:0.0065625 70:0.003125 71:0.040625 72:0.1825 73:0.305625 74:0.234375 75:0.07 76:0.0903125 77:0.0290625 78:0.0228125 79:0.018125 80:0.0065625 81:0.0803125 82:0.1221875 83:0.1078125 84:0.265625 85:0.1296875 86:0.0909375 87:0.084375 88:0.0590625 89:0.0465625 90:0.0134375 91:0.97 100:0.03 101:0.0109375 102:0.035625 103:0.121875 104:0.1071875 105:0.2334375 106:0.2240625 107:0.168125 108:0.0828125 109:0.0140625 110:0.001875 111:0.0803125 112:0.1221875 113:0.1078125 114:0.265625 115:0.1296875 116:0.0909375 117:0.084375 118:0.0590625 119:0.0465625 120:0.0134375 121:0.03125 125:0.000625 126:0.03875 127:0.581875 128:0.323125 129:0.020625 130:0.00375 131:0.03125 136:0.0190625 137:0.8925 138:0.0484375 139:0.00625 140:0.0025 141:0.1184375 142:0.63375 143:0.2028125 144:0.01375 150:0.03125 151:0.99375 160:0.00625 161:0.0059375 162:0.3609375 163:0.5525 164:0.049375 170:0.03125 171:0.1184375 172:0.63375 173:0.2028125 174:0.01375 180:0.03125 181:0.01 184:0.1296875 185:0.48625 186:0.108125 187:0.1215625 188:0.0834375 189:0.0521875 190:0.00875 191:0.01 194:0.0003125 195:0.4965625 196:0.15875 197:0.136875 198:0.111875 199:0.0665625 200:0.0190625 201:0.0496875 202:0.1315625 203:0.2165625 204:0.13625 205:0.10875 206:0.115 207:0.1228125 208:0.085 209:0.02375 210:0.010625 211:0.89 220:0.11 221:0.054375 222:0.274375 223:0.3975 224:0.2475 225:0.015625 226:0.000625 230:0.01 231:0.0496875 232:0.1315625 233:0.2165625 234:0.13625 235:0.10875 236:0.115 237:0.1228125 238:0.085 239:0.02375 240:0.010625 241:0.01 243:0.0165625 244:0.568125 245:0.2053125 246:0.121875 247:0.0559375 248:0.014375 249:0.0025 250:0.0053125 251:0.01 253:0.000625 254:0.27625 255:0.4384375 256:0.168125 257:0.0778125 258:0.0190625 259:0.0028125 260:0.006875 261:0.1290625 262:0.22125 263:0.1765625 264:0.1253125 265:0.1446875 266:0.0959375 267:0.0696875 268:0.0196875 269:0.004375 270:0.0134375 271:0.8475 280:0.1525 281:0.0090625 282:0.1121875 283:0.4446875 284:0.363125 285:0.0578125 286:0.003125 290:0.01 291:0.1290625 292:0.22125 293:0.1765625 294:0.1253125 295:0.1446875 296:0.0959375 297:0.0696875 298:0.0196875 299:0.004375 300:0.0134375 301:0.0409375 305:0.006875 306:0.370625 307:0.3253125 308:0.210625 309:0.04125 310:0.004375 311:0.0409375 316:0.0059375 317:0.586875 318:0.2034375 319:0.155 320:0.0078125 321:0.085 322:0.288125 323:0.2325 324:0.1384375 325:0.189375 326:0.025625 330:0.0409375 331:0.98125 340:0.01875 341:0.0240625 342:0.2871875 343:0.6309375 344:0.016875 350:0.0409375 351:0.085 352:0.288125 353:0.2325 354:0.1384375 355:0.189375 356:0.025625 360:0.0409375 
0.06595359867057378 1:0.013257576 2:0.19034091 3:0.5072601 4:0.20833333 5:0.046401515 6:0.02114899 7:0.0059974747 8:0.0015782828 9:0.0034722222 10:0.002209596 11:0.0050505051 12:0.10574495 13:0.64993687 14:0.14046717 15:0.057449495 16:0.025568182 17:0.0091540404 18:0.0018939394 19:0.0031565657 20:0.0015782828 21:0.034406566 22:0.20991162 23:0.25189394 24:0.18181818 25:0.12342172 26:0.074179293 27:0.060921717 28:0.038510101 29:0.021780303 30:0.0031565657 31:0.98579545 40:0.014204545 41:0.009469697 42:0.053030303 43:0.18939394 44:0.21180556 45:0.13825758 46:0.15183081 47:0.13131313 48:0.072916667 49:0.035037879 50:0.0069444444 51:0.034406566 52:0.20991162 53:0.25189394 54:0.18181818 55:0.12342172 56:0.074179293 57:0.060921717 58:0.038510101 59:0.021780303 60:0.0031565657 61:0.01104798 62:0.088383838 63:0.32260101 64:0.30934343 65:0.11521465 66:0.066919192 67:0.043560606 68:0.024621212 69:0.013257576 70:0.0050505051 71:0.0069444444 72:0.063762626 73:0.47127525 74:0.21338384 75:0.075126263 76:0.095643939 77:0.03030303 78:0.029671717 79:0.010732323 80:0.0031565657 81:0.060290404 82:0.14299242 83:0.091856061 84:0.23958333 85:0.15467172 86:0.11521465 87:0.075126263 88:0.065656566 89:0.04040404 90:0.014204545 91:0.97253788 100:0.027462121 101:0.016729798 102:0.055239899 103:0.12373737 104:0.10763889 105:0.22411616 106:0.22632576 107:0.14741162 108:0.086489899 109:0.010416667 110:0.0018939394 111:0.060290404 112:0.14299242 113:0.091856061 114:0.23958333 115:0.15467172 116:0.11521465 117:0.075126263 118:0.065656566 119:0.04040404 120:0.014204545 121:0.03125 126:0.0031565657 127:0.11395202 128:0.64393939 129:0.19286616 130:0.014835859 131:0.03125 137:0.12847222 138:0.8125 139:0.022411616 140:0.0053661616 141:0.078598485 142:0.6584596 143:0.21811869 144:0.013573232 150:0.03125 151:0.98989899 160:0.01010101 161:0.053030303 162:0.65309343 163:0.24747475 164:0.014835859 165:0.00031565657 170:0.03125 171:0.078598485 172:0.6584596 173:0.21811869 174:0.013573232 180:0.03125 181:0.01010101 184:0.20864899 185:0.41414141 186:0.11931818 187:0.11742424 188:0.081123737 189:0.04229798 190:0.0069444444 191:0.01010101 194:0.00063131313 195:0.48390152 196:0.16666667 197:0.13731061 198:0.12215909 199:0.064393939 200:0.014835859 201:0.049873737 202:0.13099747 203:0.23263889 204:0.13320707 205:0.092171717 206:0.11268939 207:0.12689394 208:0.089330808 209:0.02114899 210:0.01104798 211:0.89267677 220:0.10732323 221:0.0091540404 222:0.23674242 223:0.38573232 224:0.33712121 225:0.020833333 226:0.00031565657 230:0.01010101 231:0.049873737 232:0.13099747 233:0.23263889 234:0.13320707 235:0.092171717 236:0.11268939 237:0.12689394 238:0.089330808 239:0.02114899 240:0.01104798 241:0.01010101 243:0.0075757576 244:0.58491162 245:0.20170455 246:0.11616162 247:0.059659091 248:0.011363636 249:0.0044191919 250:0.0041035354 251:0.01010101 254:0.30839646 255:0.40940657 256:0.17140152 257:0.076073232 258:0.013573232 259:0.0041035354 260:0.0069444444 261:0.10574495 262:0.23800505 263:0.16856061 264:0.13825758 265:0.14362374 266:0.10195707 267:0.067550505 268:0.017361111 269:0.0037878788 270:0.015151515 271:0.89015152 280:0.10984848 281:0.0097853535 282:0.10479798 283:0.45012626 284:0.36710859 285:0.057133838 286:0.0009469697 290:0.01010101 291:0.10574495 292:0.23800505 293:0.16856061 294:0.13825758 295:0.14362374 296:0.10195707 297:0.067550505 298:0.017361111 299:0.0037878788 300:0.015151515 301:0.041035354 306:0.1467803 307:0.49463384 308:0.20107323 309:0.10637626 310:0.01010101 311:0.041035354 316:0.0018939394 317:0.51104798 318:0.22948232 319:0.20044192 320:0.016098485 321:0.19255051 322:0.26388889 323:0.18308081 324:0.16445707 325:0.13762626 326:0.017361111 330:0.041035354 331:0.97348485 340:0.026515152 341:0.034090909 342:0.33996212 343:0.57039141 344:0.014520202 350:0.041035354 351:0.19255051 352:0.26388889 353:0.18308081 354:0.16445707 355:0.13762626 356:0.017361111 360:0.041035354 
0.006836139266437669 1:0.0030339806 2:0.0072815534 3:0.081007282 4:0.47299757 5:0.27518204 6:0.11650485 7:0.028216019 8:0.0075849515 9:0.005461165 10:0.0027305825 11:0.0027305825 12:0.0066747573 13:0.22390777 14:0.52730583 15:0.13167476 16:0.07038835 17:0.026395631 18:0.0042475728 19:0.0036407767 20:0.0030339806 21:0.1410801 22:0.20509709 23:0.16292476 24:0.11741505 25:0.10345874 26:0.070995146 27:0.086165049 28:0.072512136 29:0.031856796 30:0.0084951456 31:0.94660194 40:0.053398058 41:0.005461165 42:0.010618932 43:0.1410801 44:0.24180825 45:0.25091019 46:0.2648665 47:0.074332524 48:0.0072815534 49:0.0024271845 50:0.0012135922 51:0.1410801 52:0.20509709 53:0.16292476 54:0.11741505 55:0.10345874 56:0.070995146 57:0.086165049 58:0.072512136 59:0.031856796 60:0.0084951456 61:0.024878641 62:0.074332524 63:0.2651699 64:0.35740291 65:0.12226942 66:0.065533981 67:0.051274272 68:0.022451456 69:0.01092233 70:0.0057645631 71:0.016990291 72:0.11074029 73:0.38865291 74:0.29004854 75:0.095873786 76:0.04368932 77:0.028216019 78:0.014563107 79:0.0081917476 80:0.0030339806 81:0.055521845 82:0.038834951 83:0.11741505 84:0.33919903 85:0.15867718 86:0.15351942 87:0.055825243 88:0.047633495 89:0.025182039 90:0.0081917476 91:0.99453883 100:0.005461165 101:0.015776699 102:0.034587379 103:0.029429612 104:0.085254854 105:0.099514563 106:0.22481796 107:0.31978155 108:0.1410801 109:0.037014563 110:0.012742718 111:0.055521845 112:0.038834951 113:0.11741505 114:0.33919903 115:0.15867718 116:0.15351942 117:0.055825243 118:0.047633495 119:0.025182039 120:0.0081917476 121:0.03125 126:0.15048544 127:0.71662621 128:0.088895631 129:0.010315534 130:0.0024271845 131:0.03125 136:0.0027305825 137:0.7345267 138:0.21025485 139:0.018507282 140:0.0027305825 141:0.10436893 142:0.55794903 143:0.29338592 144:0.013046117 150:0.03125 151:0.98665049 160:0.013349515 161:0.0097087379 162:0.18082524 163:0.59708738 164:0.17597087 165:0.005157767 170:0.03125 171:0.10436893 172:0.55794903 173:0.29338592 174:0.013046117 180:0.03125 181:0.0097087379 183:0.019720874 184:0.50242718 185:0.17657767 186:0.091929612 187:0.11043689 188:0.058859223 189:0.022148058 190:0.0081917476 191:0.0097087379 194:0.19690534 195:0.43234223 196:0.12955097 197:0.11680825 198:0.077366505 199:0.028216019 200:0.0091019417 201:0.07493932 202:0.13258495 203:0.22572816 204:0.12742718 205:0.098907767 206:0.08434466 207:0.095570388 208:0.095570388 209:0.047633495 210:0.017293689 211:0.8131068 220:0.1868932 221:0.024271845 222:0.22239078 223:0.39563107 224:0.31856796 225:0.027609223 226:0.0018203883 230:0.0097087379 231:0.07493932 232:0.13258495 233:0.22572816 234:0.12742718 235:0.098907767 236:0.08434466 237:0.095570388 238:0.095570388 239:0.047633495 240:0.017293689 241:0.0097087379 243:0.00060679612 244:0.21632282 245:0.43082524 246:0.19144417 247:0.078883495 248:0.054915049 249:0.015776699 250:0.0015169903 251:0.0097087379 254:0.005461165 255:0.56098301 256:0.25424757 257:0.10254854 258:0.053701456 259:0.012135922 260:0.0012135922 261:0.099514563 262:0.24757282 263:0.16019417 264:0.13774272 265:0.16171117 266:0.10770631 267:0.060072816 268:0.014563107 269:0.0012135922 270:0.0097087379 271:0.88046117 280:0.11953883 281:0.046116505 282:0.18871359 283:0.53822816 284:0.20722087 285:0.0097087379 286:0.00030339806 290:0.0097087379 291:0.099514563 292:0.24757282 293:0.16019417 294:0.13774272 295:0.16171117 296:0.10770631 297:0.060072816 298:0.014563107 299:0.0012135922 300:0.0097087379 301:0.04065534 306:0.084648058 307:0.55066748 308:0.22603155 309:0.091019417 310:0.0069781553 311:0.04065534 317:0.028519417 318:0.65139563 319:0.18992718 320:0.089502427 321:0.28519417 322:0.22148058 323:0.1723301 324:0.16019417 325:0.11711165 326:0.0030339806 330:0.04065534 331:0.96783981 340:0.032160194 341:0.13501214 342:0.25637136 343:0.53489078 344:0.033070388 350:0.04065534 351:0.28519417 352:0.22148058 353:0.1723301 354:0.16019417 355:0.11711165 356:0.0030339806 360:0.04065534 
0.1146332560333534 1:0.012731481 2:0.0234375 3:0.19820602 4:0.11168981 5:0.3197338 6:0.28472222 7:0.02025463 8:0.005787037 9:0.011284722 10:0.012152778 11:0.11342593 12:0.10908565 13:0.15943287 14:0.48090278 15:0.040798611 16:0.070601852 17:0.0046296296 18:0.0083912037 19:0.0083912037 20:0.0043402778 21:0.0234375 22:0.13686343 23:0.68344907 24:0.10561343 25:0.024594907 26:0.00028935185 27:0.0066550926 28:0.0066550926 29:0.0083912037 30:0.0040509259 31:0.0069444444 35:0.028935185 36:0.043981481 37:0.44560185 39:0.41782407 40:0.056712963 41:0.0069444444 42:0.005787037 43:0.021990741 44:0.17447917 45:0.0017361111 46:0.0546875 47:0.28935185 48:0.098090278 49:0.25289352 50:0.094039352 51:0.012731481 52:0.0234375 53:0.19820602 54:0.11168981 55:0.3197338 56:0.28472222 57:0.02025463 58:0.005787037 59:0.011284722 60:0.012152778 61:0.011863426 62:0.028356481 63:0.24537037 64:0.019965278 65:0.14930556 66:0.14178241 67:0.13454861 68:0.13917824 69:0.12037037 70:0.0092592593 71:0.0017361111 72:0.0095486111 73:0.022569444 74:0.095196759 75:0.26157407 76:0.042534722 77:0.088831019 78:0.25434028 79:0.20109954 80:0.022569444 81:0.0023148148 82:0.015914352 83:0.08130787 84:0.14612269 86:0.18923611 87:0.14814815 88:0.27806713 89:0.13831019 90:0.0005787037 91:0.077546296 96:0.46875 97:0.0069444444 99:0.0092592593 100:0.4375 101:0.14265046 102:0.10821759 103:0.10358796 104:0.19039352 105:0.12847222 106:0.25636574 107:0.035300926 108:0.02025463 109:0.0054976852 110:0.0092592593 111:0.011863426 112:0.028356481 113:0.24537037 114:0.019965278 115:0.14930556 116:0.14178241 117:0.13454861 118:0.13917824 119:0.12037037 120:0.0092592593 121:0.03125 127:0.042824074 128:0.19097222 129:0.31626157 130:0.41869213 131:0.03125 138:0.086805556 139:0.32494213 140:0.55700231 141:0.96875 150:0.03125 151:0.03125 155:0.09837963 158:0.36747685 159:0.47395833 160:0.028935185 161:0.42939815 162:0.53935185 170:0.03125 171:0.96875 180:0.03125 181:0.0092592593 183:0.030671296 184:0.64265046 185:0.27633102 186:0.032118056 187:0.0043402778 188:0.0017361111 189:0.0017361111 190:0.0011574074 191:0.0092592593 194:0.328125 195:0.64467593 196:0.01099537 197:0.0026041667 198:0.0011574074 199:0.0014467593 200:0.0017361111 201:0.98292824 202:0.0046296296 203:0.0031828704 210:0.0092592593 211:0.0092592593 215:0.005787037 216:0.028935185 217:0.013888889 218:0.49594907 219:0.35474537 220:0.091435185 221:0.49826389 222:0.36082176 223:0.11111111 224:0.02025463 225:0.00028935185 230:0.0092592593 231:0.94965278 232:0.036458333 233:0.0034722222 234:0.0011574074 240:0.0092592593 241:0.0092592593 246:0.05787037 247:0.15943287 248:0.14959491 249:0.30671296 250:0.31712963 251:0.0092592593 256:0.00028935185 257:0.074074074 258:0.26273148 259:0.40277778 260:0.25086806 261:0.99074074 270:0.0092592593 271:0.0092592593 275:0.0046296296 276:0.033564815 278:0.13136574 279:0.26331019 280:0.55787037 281:0.19386574 282:0.47077546 283:0.32609954 290:0.0092592593 291:0.87326389 292:0.11747685 300:0.0092592593 301:0.040219907 306:0.073206019 307:0.53877315 308:0.1791088 309:0.11024306 310:0.058449074 311:0.040219907 316:0.021122685 317:0.51793981 318:0.28935185 319:0.089699074 320:0.041666667 321:0.95978009 330:0.040219907 331:0.040219907 335:0.0017361111 336:0.0063657407 338:0.38454861 339:0.40104167 340:0.16608796 341:0.41927083 342:0.47743056 343:0.063078704 350:0.040219907 351:0.95978009 360:0.040219907 
0.009674429960367451 1:0.0099299065 2:0.016647196 3:0.18574766 4:0.092581776 5:0.26577103 6:0.38171729 7:0.022488318 8:0.0067172897 9:0.0084696262 10:0.0099299065 11:0.11740654 12:0.086740654 13:0.13639019 14:0.51431075 15:0.049941589 16:0.07213785 17:0.0020443925 18:0.0090537383 19:0.007885514 20:0.004088785 21:0.01635514 22:0.13551402 23:0.70940421 24:0.09228972 25:0.023364486 27:0.0055490654 28:0.0067172897 29:0.0075934579 30:0.0032126168 31:0.0046728972 35:0.021028037 36:0.032126168 37:0.38668224 39:0.51168224 40:0.043808411 41:0.0046728972 43:0.017523364 44:0.066880841 45:0.11214953 46:0.013434579 47:0.026869159 48:0.2958528 49:0.32885514 50:0.13376168 51:0.0099299065 52:0.016647196 53:0.18574766 54:0.092581776 55:0.26577103 56:0.38171729 57:0.022488318 58:0.0067172897 59:0.0084696262 60:0.0099299065 61:0.035922897 62:0.11536215 63:0.10952103 64:0.19392523 65:0.016939252 66:0.13726636 67:0.15508178 68:0.12178738 69:0.10864486 70:0.0055490654 71:0.0081775701 72:0.018691589 73:0.096378505 74:0.23393692 75:0.074182243 76:0.080607477 77:0.25496495 78:0.20064252 79:0.028913551 80:0.0035046729 81:0.00058411215 82:0.018107477 83:0.072721963 84:0.17435748 86:0.16880841 87:0.14690421 88:0.26956776 89:0.14865654 90:0.00029205607 91:0.094626168 96:0.48919393 97:0.013434579 99:0.0017523364 100:0.40099299 101:0.12529206 102:0.10747664 103:0.10922897 104:0.32096963 105:0.050233645 106:0.22867991 107:0.042932243 108:0.010514019 109:0.0029205607 110:0.0017523364 111:0.035922897 112:0.11536215 113:0.10952103 114:0.19392523 115:0.016939252 116:0.13726636 117:0.15508178 118:0.12178738 119:0.10864486 120:0.0055490654 121:0.03125 127:0.03271028 128:0.10601636 129:0.35601636 130:0.47400701 131:0.03125 138:0.079439252 139:0.42318925 140:0.4661215 141:0.96875 150:0.03125 151:0.03125 155:0.089953271 158:0.38785047 159:0.46875 160:0.022196262 161:0.45035047 162:0.51839953 170:0.03125 171:0.96875 180:0.03125 181:0.0093457944 183:0.053738318 184:0.70911215 185:0.18925234 186:0.028621495 187:0.003796729 188:0.0020443925 189:0.0023364486 190:0.0017523364 191:0.0093457944 194:0.54059579 195:0.43545561 196:0.0070093458 197:0.0014602804 198:0.0020443925 199:0.0023364486 200:0.0017523364 201:0.9807243 202:0.0052570093 203:0.0046728972 210:0.0093457944 211:0.0093457944 215:0.0081775701 216:0.028621495 217:0.016939252 218:0.54906542 219:0.31191589 220:0.075934579 221:0.52745327 222:0.33615654 223:0.099007009 224:0.026869159 225:0.0011682243 230:0.0093457944 231:0.94450935 232:0.040011682 233:0.004088785 234:0.0020443925 240:0.0093457944 241:0.0093457944 246:0.06396028 247:0.17406542 248:0.17143692 249:0.28358645 250:0.29760514 251:0.0093457944 256:0.00029205607 257:0.074474299 258:0.19772196 259:0.40800234 260:0.31016355 261:0.99065421 270:0.0093457944 271:0.0093457944 275:0.0070093458 276:0.036799065 278:0.081191589 279:0.17932243 280:0.68633178 281:0.21203271 282:0.47634346 283:0.30227804 290:0.0093457944 291:0.89719626 292:0.093457944 300:0.0093457944 301:0.040303738 306:0.025408879 307:0.49153037 308:0.27132009 309:0.10251168 310:0.068925234 311:0.040303738 317:0.37149533 318:0.3916472 319:0.14748832 320:0.049065421 321:0.95969626 330:0.040303738 331:0.040303738 335:0.0011682243 336:0.0052570093 338:0.38989486 339:0.40858645 340:0.15478972 341:0.36360981 342:0.51898364 343:0.077102804 350:0.040303738 351:0.95969626 360:0.040303738 
0.02281998862296012 1:0.0019886364 2:0.015340909 3:0.066761364 4:0.24346591 5:0.13267045 6:0.415625 7:0.11306818 8:0.0042613636 9:0.0025568182 10:0.0042613636 11:0.0090909091 12:0.009375 13:0.16420455 14:0.11420455 15:0.18409091 16:0.45909091 17:0.050284091 18:0.0042613636 19:0.0039772727 20:0.0014204545 21:0.033238636 22:0.17159091 23:0.57698864 24:0.17443182 25:0.034090909 27:0.0028409091 28:0.0025568182 29:0.0028409091 30:0.0014204545 31:0.0045454545 34:0.045454545 35:0.063068182 36:0.40397727 37:0.023863636 38:0.42159091 39:0.026136364 40:0.011363636 41:0.0034090909 42:0.0039772727 43:0.048863636 44:0.028977273 45:0.21988636 46:0.014204545 47:0.060511364 48:0.334375 49:0.19744318 50:0.088352273 51:0.0019886364 52:0.015340909 53:0.066761364 54:0.24346591 55:0.13267045 56:0.415625 57:0.11306818 58:0.0042613636 59:0.0025568182 60:0.0042613636 61:0.011079545 62:0.019886364 63:0.042897727 64:0.26818182 65:0.015056818 66:0.25994318 67:0.11732955 68:0.075852273 69:0.037784091 70:0.15198864 71:0.0017045455 72:0.009375 73:0.019886364 74:0.037215909 75:0.13948864 76:0.24147727 77:0.13380682 78:0.063068182 79:0.20880682 80:0.14517045 81:0.0017045455 82:0.009375 83:0.025568182 84:0.079829545 86:0.27698864 87:0.18948864 88:0.11136364 89:0.203125 90:0.10255682 91:0.076704545 96:0.60909091 100:0.31420455 101:0.13295455 102:0.16392045 103:0.051420455 104:0.078409091 105:0.10255682 106:0.16079545 107:0.11960227 108:0.0079545455 109:0.15198864 110:0.030397727 111:0.011079545 112:0.019886364 113:0.042897727 114:0.26818182 115:0.015056818 116:0.25994318 117:0.11732955 118:0.075852273 119:0.037784091 120:0.15198864 121:0.03125 127:0.12272727 128:0.36022727 129:0.26164773 130:0.22414773 131:0.03125 138:0.15 139:0.34573864 140:0.47301136 141:0.96875 150:0.03125 151:0.03125 155:0.089204545 158:0.49772727 159:0.30511364 160:0.076704545 161:0.509375 162:0.459375 170:0.03125 171:0.96875 180:0.03125 181:0.0090909091 184:0.43153409 185:0.47982955 186:0.072159091 187:0.0048295455 188:0.0014204545 189:0.00056818182 190:0.00056818182 191:0.0090909091 194:0.088920455 195:0.75710227 196:0.14204545 197:0.00085227273 198:0.00085227273 199:0.00056818182 200:0.00056818182 201:0.98806818 202:0.0022727273 203:0.00056818182 210:0.0090909091 211:0.0090909091 215:0.0079545455 216:0.0375 218:0.45909091 219:0.25681818 220:0.22954545 221:0.45454545 222:0.35823864 223:0.16306818 224:0.015056818 230:0.0090909091 231:0.97159091 232:0.017897727 233:0.0014204545 240:0.0090909091 241:0.0090909091 246:0.05 247:0.19914773 248:0.17045455 249:0.29914773 250:0.27215909 251:0.0090909091 256:0.0017045455 257:0.074147727 258:0.30426136 259:0.36875 260:0.24204545 261:0.99090909 270:0.0090909091 271:0.0090909091 275:0.0022727273 276:0.0125 278:0.088636364 279:0.20795455 280:0.67954545 281:0.20227273 282:0.48806818 283:0.30056818 290:0.0090909091 291:0.90085227 292:0.090056818 300:0.0090909091 301:0.040056818 306:0.11335227 307:0.60142045 308:0.15255682 309:0.068465909 310:0.024147727 311:0.040056818 317:0.45880682 318:0.36960227 319:0.090056818 320:0.041477273 321:0.95994318 330:0.040056818 331:0.040056818 336:0.0011363636 338:0.50255682 339:0.37897727 340:0.077272727 341:0.39744318 342:0.5375 343:0.025 350:0.040056818 351:0.95994318 360:0.040056818 
0.4021297211141159 1:0.030671296 2:0.069733796 3:0.21325231 4:0.23119213 5:0.27835648 6:0.14641204 7:0.0060763889 8:0.0043402778 9:0.014178241 10:0.005787037 11:0.066550926 12:0.046006944 13:0.2337963 14:0.38657407 15:0.15364583 16:0.081886574 17:0.0063657407 18:0.0078125 19:0.011284722 20:0.0060763889 21:0.002025463 22:0.039351852 23:0.40046296 24:0.42997685 25:0.089409722 26:0.0046296296 27:0.009837963 28:0.0066550926 29:0.01099537 30:0.0066550926 31:0.017361111 32:0.0075231481 34:0.15393519 35:0.42158565 37:0.22685185 38:0.15393519 39:0.015046296 40:0.0037615741 41:0.017361111 42:0.0023148148 43:0.081018519 45:0.002025463 46:0.40133102 47:0.16030093 48:0.18287037 49:0.13049769 50:0.022280093 51:0.030671296 52:0.069733796 53:0.21325231 54:0.23119213 55:0.27835648 56:0.14641204 57:0.0060763889 58:0.0043402778 59:0.014178241 60:0.005787037 61:0.00086805556 62:0.0026041667 63:0.00086805556 64:0.14380787 65:0.1484375 66:0.2259838 67:0.16927083 68:0.091724537 69:0.15856481 70:0.05787037 71:0.00086805556 72:0.00086805556 73:0.0017361111 74:0.028935185 75:0.10648148 76:0.1796875 77:0.17621528 78:0.27806713 79:0.1796875 80:0.047453704 81:0.00086805556 82:0.00086805556 83:0.0017361111 84:0.0054976852 85:0.05931713 86:0.22858796 87:0.1484375 88:0.2271412 89:0.23148148 90:0.096064815 91:0.14814815 96:0.64351852 100:0.20833333 101:0.014756944 102:0.22251157 103:0.13541667 104:0.030381944 105:0.0092592593 106:0.069155093 107:0.21701389 108:0.098958333 109:0.079861111 110:0.12268519 111:0.00086805556 112:0.0026041667 113:0.00086805556 114:0.14380787 115:0.1484375 116:0.2259838 117:0.16927083 118:0.091724537 119:0.15856481 120:0.05787037 121:0.03125 127:0.06712963 128:0.31597222 129:0.26822917 130:0.31741898 131:0.03125 138:0.088252315 139:0.546875 140:0.33362269 141:0.96875 150:0.03125 151:0.03125 155:0.055555556 159:0.42592593 160:0.48726852 161:0.46643519 162:0.50231481 170:0.03125 171:0.96875 180:0.03125 181:0.0092592593 183:0.046296296 184:0.6634838 185:0.23900463 186:0.03587963 187:0.0023148148 188:0.0017361111 189:0.00086805556 190:0.0011574074 191:0.0092592593 194:0.55873843 195:0.41927083 196:0.0078125 197:0.0017361111 198:0.00086805556 199:0.0014467593 200:0.00086805556 201:0.984375 202:0.0040509259 203:0.0023148148 210:0.0092592593 211:0.019675926 213:0.0023148148 214:0.0023148148 216:0.09837963 217:0.39409722 218:0.21788194 219:0.25954861 220:0.005787037 221:0.16869213 222:0.50173611 223:0.25925926 224:0.059606481 225:0.0014467593 230:0.0092592593 231:0.94878472 232:0.038194444 233:0.0026041667 234:0.0011574074 240:0.0092592593 241:0.0092592593 246:0.089988426 247:0.1490162 248:0.23813657 249:0.32986111 250:0.18373843 251:0.0092592593 257:0.084780093 258:0.22540509 259:0.38454861 260:0.29600694 261:0.99074074 270:0.0092592593 271:0.0092592593 278:0.081597222 279:0.20949074 280:0.69965278 281:0.27112269 282:0.45630787 283:0.26331019 290:0.0092592593 291:0.91087963 292:0.079861111 300:0.0092592593 301:0.040219907 306:0.043981481 307:0.47453704 308:0.28443287 309:0.12615741 310:0.030671296 311:0.040219907 316:0.0083912037 317:0.47829861 318:0.30324074 319:0.14612269 320:0.023726852 321:0.95978009 330:0.040219907 331:0.040219907 336:0.0092592593 337:0.018518519 339:0.38310185 340:0.54890046 341:0.17274306 342:0.75231481 343:0.034722222 350:0.040219907 351:0.95978009 360:0.040219907 
0.09512253321246099 1:0.021521226 2:0.043926887 3:0.18425708 4:0.22228774 5:0.32783019 6:0.14033019 7:0.045400943 8:0.012087264 9:0.0011792453 10:0.0011792453 11:0.057783019 12:0.1067217 13:0.59492925 14:0.16686321 15:0.0058962264 16:0.054245283 17:0.01120283 18:0.0011792453 19:0.00088443396 20:0.00029481132 21:0.0064858491 22:0.11556604 23:0.38885613 24:0.42069575 25:0.04009434 26:0.011792453 27:0.014740566 28:0.00058962264 29:0.00088443396 30:0.00029481132 31:0.022995283 32:0.008254717 34:0.077830189 35:0.17806604 37:0.47169811 38:0.2004717 39:0.03125 40:0.0094339623 41:0.022995283 43:0.04245283 44:0.021816038 45:0.019457547 46:0.20607311 47:0.42099057 48:0.18337264 49:0.080483491 50:0.0023584906 51:0.021521226 52:0.043926887 53:0.18425708 54:0.22228774 55:0.32783019 56:0.14033019 57:0.045400943 58:0.012087264 59:0.0011792453 60:0.0011792453 61:0.0014740566 62:0.012087264 63:0.070754717 64:0.12824292 65:0.010908019 66:0.12676887 67:0.31544811 68:0.14563679 69:0.1509434 70:0.037735849 71:0.0014740566 72:0.0053066038 73:0.0067806604 74:0.049528302 75:0.080483491 76:0.08696934 77:0.16214623 78:0.27240566 79:0.26238208 80:0.072523585 81:0.0014740566 82:0.0053066038 83:0.0091391509 84:0.013561321 85:0.052771226 86:0.19988208 87:0.047759434 88:0.22287736 89:0.22612028 90:0.22110849 91:0.023584906 95:0.0094339623 97:0.66037736 100:0.30660377 101:0.051002358 102:0.16892689 103:0.014445755 104:0.0053066038 105:0.036261792 106:0.29893868 107:0.1196934 108:0.19929245 109:0.047169811 110:0.058962264 111:0.0014740566 112:0.012087264 113:0.070754717 114:0.12824292 115:0.010908019 116:0.12676887 117:0.31544811 118:0.14563679 119:0.1509434 120:0.037735849 121:0.03125 126:0.066037736 127:0.17511792 128:0.3098467 129:0.28301887 130:0.13472877 131:0.03125 137:0.008254717 138:0.31279481 139:0.48820755 140:0.15949292 141:0.96875 150:0.03125 151:0.03125 154:0.0094339623 155:0.10377358 158:0.43160377 159:0.39563679 160:0.028301887 161:0.5 162:0.46875 170:0.03125 171:0.96875 180:0.03125 181:0.0094339623 184:0.21137972 185:0.55925708 186:0.19870283 187:0.016804245 188:0.0032429245 189:0.00058962264 190:0.00058962264 191:0.0094339623 194:0.00088443396 195:0.62617925 196:0.35170991 197:0.0097287736 198:0.0011792453 199:0.00029481132 200:0.00058962264 201:0.98909198 202:0.0014740566 210:0.0094339623 211:0.0094339623 214:0.0023584906 215:0.064858491 216:0.021226415 217:0.0058962264 218:0.31721698 219:0.33608491 220:0.24292453 221:0.46580189 222:0.30070755 223:0.19752358 224:0.026533019 230:0.0094339623 231:0.96550708 232:0.024174528 233:0.00088443396 240:0.0094339623 241:0.0094339623 246:0.11762972 247:0.16096698 248:0.33637972 249:0.28744104 250:0.088148585 251:0.0094339623 257:0.11379717 258:0.21550708 259:0.45931604 260:0.20194575 261:0.99056604 270:0.0094339623 271:0.0094339623 279:0.10849057 280:0.88207547 281:0.21698113 282:0.31132075 283:0.40566038 284:0.056603774 290:0.0094339623 291:0.86733491 292:0.12323113 300:0.0094339623 301:0.040389151 307:0.46137972 308:0.29097877 309:0.19398585 310:0.013266509 311:0.040389151 317:0.26650943 318:0.53478774 319:0.13384434 320:0.02446934 321:0.95961085 330:0.040389151 331:0.040389151 335:0.015919811 338:0.0094339623 339:0.51886792 340:0.41538915 341:0.27417453 342:0.68307783 343:0.0023584906 350:0.040389151 351:0.95961085 360:0.040389151 
0.327174739900369 1:0.03380102 2:0.22512755 3:0.093431122 4:0.22130102 5:0.012117347 6:0.079081633 7:0.037308673 8:0.27423469 9:0.0095663265 10:0.014030612 11:0.034438776 12:0.24521684 13:0.15561224 14:0.10076531 15:0.037627551 16:0.34119898 17:0.05994898 18:0.01434949 19:0.0044642857 20:0.006377551 21:0.0006377551 22:0.015625 23:0.019770408 24:0.34693878 25:0.1817602 26:0.081632653 27:0.32334184 28:0.020089286 29:0.0076530612 30:0.0025510204 31:0.0070153061 32:0.62563776 35:0.020408163 38:0.010204082 39:0.081632653 40:0.25510204 41:0.14795918 42:0.25829082 43:0.0025510204 44:0.12149235 45:0.1747449 46:0.25733418 48:0.0051020408 49:0.019132653 50:0.013392857 51:0.03380102 52:0.22512755 53:0.093431122 54:0.22130102 55:0.012117347 56:0.079081633 57:0.037308673 58:0.27423469 59:0.0095663265 60:0.014030612 61:0.0019132653 63:0.024872449 64:0.15306122 65:0.055484694 66:0.27997449 67:0.17857143 68:0.25255102 69:0.051020408 70:0.0025510204 71:0.0019132653 73:0.027423469 74:0.15306122 75:0.11160714 76:0.29432398 77:0.35044643 78:0.048469388 79:0.0051020408 80:0.0076530612 81:0.00095663265 82:0.0035076531 83:0.010204082 84:0.12946429 86:0.41581633 87:0.28252551 88:0.1463648 89:0.0035076531 90:0.0076530612 91:0.1377551 94:0.30102041 100:0.56122449 101:0.29910714 102:0.0019132653 106:0.0051020408 107:0.0076530612 108:0.17346939 109:0.42602041 110:0.086734694 111:0.0019132653 113:0.024872449 114:0.14795918 115:0.035076531 116:0.30293367 117:0.17602041 118:0.25765306 119:0.045918367 120:0.0076530612 121:0.03125 127:0.028380102 128:0.42315051 129:0.44196429 130:0.075255102 131:0.03125 137:0.028380102 138:0.42315051 139:0.50829082 140:0.0089285714 141:0.96875 150:0.03125 151:0.03125 160:0.96875 161:0.86607143 162:0.10267857 170:0.03125 171:0.96875 180:0.03125 181:0.010204082 187:0.15784439 188:0.28539541 189:0.42155612 190:0.125 191:0.010204082 197:0.034438776 198:0.30548469 199:0.56919643 200:0.08067602 201:0.98979592 210:0.010204082 211:0.010204082 214:0.0095663265 215:0.019132653 218:0.38010204 219:0.45982143 220:0.12117347 221:0.43367347 222:0.47831633 223:0.077806122 230:0.010204082 231:0.98979592 240:0.010204082 241:0.010204082 246:0.084183673 247:0.29719388 248:0.15401786 249:0.24617347 250:0.20822704 251:0.010204082 256:0.0012755102 257:0.30293367 258:0.24266582 259:0.25924745 260:0.18367347 261:0.98979592 270:0.010204082 271:0.010204082 275:0.081632653 277:0.010204082 278:0.18877551 279:0.1122449 280:0.59693878 281:0.45567602 282:0.45248724 283:0.081632653 290:0.010204082 291:0.9872449 292:0.0025510204 300:0.010204082 301:0.041135204 305:0.0054209184 306:0.71269133 307:0.073022959 308:0.06122449 309:0.082589286 310:0.023915816 311:0.041135204 316:0.31345663 317:0.45376276 318:0.058354592 319:0.078125 320:0.055165816 321:0.95790816 322:0.00095663265 330:0.041135204 331:0.041135204 339:0.16294643 340:0.79591837 341:0.88360969 342:0.075255102 350:0.041135204 351:0.94834184 352:0.010522959 360:0.041135204 
0.03015446510381108 1:0.0009469697 2:0.009469697 3:0.27020202 4:0.11111111 5:0.19255051 6:0.011994949 7:0.1489899 8:0.0028409091 9:0.24589646 10:0.0059974747 11:0.11142677 12:0.18181818 13:0.16193182 14:0.099747475 15:0.025883838 16:0.31881313 17:0.087752525 18:0.0075757576 19:0.0034722222 20:0.0015782828 21:0.0097853535 22:0.10669192 23:0.28125 25:0.19349747 26:0.10385101 28:0.27430556 29:0.025883838 30:0.0047348485 31:0.0025252525 35:0.017045455 36:0.00063131313 37:0.0025252525 38:0.66098485 39:0.03030303 40:0.28598485 41:0.015151515 42:0.29513889 43:0.11837121 44:0.066287879 45:0.16035354 46:0.10227273 47:0.20517677 49:0.031881313 50:0.0053661616 51:0.0097853535 52:0.10290404 53:0.27872475 54:0.016729798 55:0.17613636 56:0.11805556 57:0.042929293 58:0.2405303 59:0.0082070707 60:0.0059974747 61:0.0031565657 63:0.06344697 64:0.13541667 65:0.078598485 66:0.29703283 67:0.18244949 68:0.20296717 69:0.035669192 70:0.0012626263 71:0.0028409091 72:0.00031565657 73:0.067234848 74:0.15877525 75:0.12184343 76:0.58459596 77:0.056818182 78:0.0044191919 79:0.00031565657 80:0.0028409091 81:0.00031565657 82:0.0009469697 83:0.009469697 84:0.038510101 85:0.19160354 86:0.38762626 87:0.25410354 88:0.11426768 90:0.0031565657 91:0.16098485 94:0.30050505 97:0.0050505051 100:0.5334596 101:0.29955808 102:0.0009469697 106:0.0047348485 107:0.14583333 108:0.041666667 109:0.4665404 110:0.040719697 111:0.0028409091 112:0.00031565657 113:0.06155303 114:0.12878788 115:0.04229798 116:0.31881313 117:0.20359848 118:0.20486111 119:0.033775253 120:0.0031565657 121:0.03125 127:0.047032828 128:0.44412879 129:0.40909091 130:0.068497475 131:0.03125 137:0.047032828 138:0.44412879 139:0.47064394 140:0.0069444444 141:0.96875 150:0.03125 151:0.03125 159:0.015151515 160:0.95359848 161:0.84406566 162:0.12468434 170:0.03125 171:0.96875 180:0.03125 181:0.01010101 186:0.0082070707 187:0.1780303 188:0.27114899 189:0.38667929 190:0.14583333 191:0.01010101 197:0.037247475 198:0.30618687 199:0.54229798 200:0.10416667 201:0.98989899 210:0.01010101 211:0.01010101 214:0.012626263 215:0.03219697 216:0.0088383838 218:0.45328283 219:0.35037879 220:0.13257576 221:0.46843434 222:0.44191919 223:0.079545455 230:0.01010101 231:0.98989899 240:0.01010101 241:0.01010101 246:0.1032197 247:0.33301768 248:0.13825758 249:0.21559343 250:0.19981061 251:0.01010101 256:0.0018939394 257:0.33112374 258:0.27651515 259:0.18592172 260:0.19444444 261:0.98989899 270:0.01010101 271:0.01010101 275:0.10227273 277:0.018939394 278:0.24684343 279:0.11363636 280:0.50820707 281:0.40183081 282:0.53188131 283:0.056186869 290:0.01010101 291:0.98421717 292:0.0056818182 300:0.01010101 301:0.041035354 305:0.0066287879 306:0.72253788 307:0.044823232 308:0.066603535 309:0.075441919 310:0.042929293 311:0.041035354 316:0.26736111 317:0.49179293 318:0.047979798 319:0.074810606 320:0.077020202 321:0.95896465 330:0.041035354 331:0.041035354 339:0.13573232 340:0.82323232 341:0.91193182 342:0.047032828 350:0.041035354 351:0.92771465 352:0.03125 360:0.041035354 
0.1506584914653791 1:0.084773936 2:0.088430851 3:0.11469415 4:0.1306516 5:0.26662234 6:0.23337766 7:0.070146277 8:0.0076462766 9:0.0023271277 10:0.0013297872 11:0.10505319 12:0.032579787 13:0.15890957 14:0.27227394 15:0.4162234 16:0.0076462766 17:0.0033244681 18:0.001662234 19:0.0013297872 20:0.00099734043 21:0.058178191 22:0.089760638 23:0.14760638 24:0.31615691 25:0.24135638 26:0.14295213 27:0.001662234 28:0.00099734043 29:0.00033244681 30:0.00099734043 31:0.03856383 35:0.27659574 36:0.042553191 37:0.12101064 38:0.029255319 39:0.34574468 40:0.1462766 41:0.083776596 42:0.037898936 43:0.087433511 44:0.13530585 45:0.24534574 46:0.13597074 47:0.071143617 48:0.11901596 49:0.074800532 50:0.0093085106 51:0.084773936 52:0.088430851 53:0.11469415 54:0.1306516 55:0.26662234 56:0.23337766 57:0.070146277 58:0.0076462766 59:0.0023271277 60:0.0013297872 61:0.11336436 62:0.041555851 63:0.054853723 64:0.069481383 65:0.31216755 66:0.16456117 67:0.097074468 68:0.018949468 69:0.047207447 70:0.080784574 71:0.050199468 72:0.10272606 73:0.078125 74:0.33444149 75:0.16356383 76:0.036236702 77:0.049202128 78:0.08643617 79:0.088763298 80:0.010305851 81:0.0076462766 82:0.045545213 83:0.12167553 84:0.4005984 85:0.18650266 86:0.080784574 87:0.13663564 88:0.018617021 89:0.001662234 90:0.00033244681 91:0.065159574 93:0.125 95:0.070478723 96:0.71276596 98:0.025265957 100:0.0013297872 101:0.125 104:0.001662234 105:0.021276596 106:0.083111702 107:0.56615691 108:0.063829787 109:0.028922872 110:0.11003989 111:0.10871011 112:0.025930851 113:0.064162234 114:0.065492021 115:0.32712766 116:0.16023936 117:0.10073138 118:0.019281915 119:0.047539894 120:0.080784574 121:0.03125 127:0.095079787 128:0.22340426 129:0.51296543 130:0.13730053 131:0.03125 138:0.31482713 139:0.42652926 140:0.22739362 141:0.96875 150:0.03125 151:0.03125 155:0.069148936 158:0.74135638 159:0.15691489 160:0.0013297872 161:0.78523936 162:0.18351064 170:0.03125 171:0.96875 180:0.03125 181:0.010638298 185:0.0013297872 186:0.049867021 187:0.12699468 188:0.3700133 189:0.26761968 190:0.17353723 191:0.010638298 197:0.064827128 198:0.28457447 199:0.43982713 200:0.20013298 201:0.9893617 210:0.010638298 211:0.010638298 214:0.0026595745 215:0.0093085106 216:0.01462766 217:0.0013297872 218:0.22273936 219:0.26529255 220:0.47340426 221:0.29554521 222:0.39461436 223:0.296875 224:0.0023271277 230:0.010638298 231:0.93949468 232:0.049867021 240:0.010638298 241:0.010638298 246:0.1456117 247:0.29288564 248:0.21742021 249:0.19647606 250:0.13696809 251:0.010638298 256:0.0026595745 257:0.33344415 258:0.26097074 259:0.17486702 260:0.21742021 261:0.9893617 270:0.010638298 271:0.010638298 275:0.02393617 278:0.1981383 279:0.091755319 280:0.67553191 281:0.24301862 282:0.61768617 283:0.12865691 290:0.010638298 291:0.89494681 292:0.094414894 300:0.010638298 301:0.041555851 305:0.00066489362 306:0.58410904 307:0.25797872 308:0.060837766 309:0.035904255 310:0.018949468 311:0.041555851 316:0.45212766 317:0.38264628 318:0.057513298 319:0.03856383 320:0.027593085 321:0.95844415 330:0.041555851 331:0.041555851 335:0.039228723 338:0.75897606 339:0.15492021 340:0.0053191489 341:0.70412234 342:0.25432181 350:0.041555851 351:0.95545213 352:0.0029920213 360:0.041555851 
0.3074984919247689 1:0.011842105 2:0.026973684 3:0.045065789 4:0.098355263 5:0.22434211 6:0.23256579 7:0.22006579 8:0.10822368 9:0.019078947 10:0.013486842 11:0.0085526316 12:0.018092105 13:0.045065789 14:0.061184211 15:0.10427632 16:0.34736842 17:0.22960526 18:0.12532895 19:0.034868421 20:0.025657895 21:0.0016447368 22:0.0125 23:0.020394737 24:0.086842105 25:0.33190789 26:0.38585526 27:0.09375 28:0.033552632 29:0.032894737 30:0.00065789474 31:0.0052631579 33:0.0013157895 34:0.021052632 36:0.088815789 37:0.36447368 38:0.40723684 39:0.098684211 40:0.013157895 41:0.024342105 42:0.018092105 43:0.067763158 44:0.14605263 45:0.074671053 46:0.092434211 47:0.38388158 48:0.10394737 49:0.080592105 50:0.0082236842 51:0.020723684 52:0.01875 53:0.044407895 54:0.21151316 55:0.11118421 56:0.23256579 57:0.28651316 58:0.041776316 59:0.019078947 60:0.013486842 61:0.0042763158 62:0.12105263 63:0.19440789 64:0.092434211 65:0.16677632 66:0.099013158 67:0.11052632 68:0.080592105 69:0.087828947 70:0.043092105 71:0.0042763158 72:0.046710526 73:0.13059211 74:0.24144737 75:0.11677632 76:0.13552632 77:0.13355263 78:0.070065789 79:0.11644737 80:0.0046052632 81:0.0065789474 82:0.035855263 83:0.092105263 84:0.18453947 85:0.30460526 86:0.10690789 87:0.052302632 88:0.175 89:0.040460526 90:0.0016447368 91:0.076315789 93:0.22828947 94:0.046052632 96:0.51381579 98:0.092105263 100:0.043421053 101:0.22828947 103:0.042105263 104:0.00032894737 105:0.20394737 106:0.24473684 107:0.053618421 108:0.12960526 109:0.077302632 110:0.020065789 111:0.0042763158 112:0.11480263 113:0.19013158 114:0.064802632 115:0.20493421 116:0.099013158 117:0.11052632 118:0.080592105 119:0.087828947 120:0.043092105 121:0.03125 127:0.040131579 128:0.34375 129:0.50493421 130:0.079934211 131:0.03125 138:0.36480263 139:0.46842105 140:0.13552632 141:0.96875 150:0.03125 151:0.03125 156:0.054934211 159:0.034868421 160:0.87894737 161:0.86348684 162:0.10526316 170:0.03125 171:0.96875 180:0.03125 181:0.010526316 186:0.032894737 187:0.22138158 188:0.25921053 189:0.30526316 190:0.17072368 191:0.010526316 197:0.067763158 198:0.19243421 199:0.47861842 200:0.25065789 201:0.98947368 210:0.010526316 211:0.010526316 216:0.019736842 217:0.0013157895 218:0.16447368 219:0.38421053 220:0.41973684 221:0.25888158 222:0.25 223:0.45 224:0.030592105 230:0.010526316 231:0.81875 232:0.17072368 240:0.010526316 241:0.010526316 246:0.094078947 247:0.34177632 248:0.24440789 249:0.22631579 250:0.082894737 251:0.010526316 257:0.19407895 258:0.36381579 259:0.24638158 260:0.18519737 261:0.98947368 270:0.010526316 271:0.010526316 278:0.17302632 279:0.056578947 280:0.75986842 281:0.62796053 282:0.31184211 283:0.049671053 290:0.010526316 291:0.96743421 292:0.022039474 300:0.010526316 301:0.041447368 305:0.032565789 306:0.65756579 307:0.15625 308:0.065460526 309:0.0375 310:0.0092105263 311:0.041447368 316:0.51677632 317:0.29769737 318:0.067763158 319:0.048355263 320:0.027960526 321:0.95855263 330:0.041447368 331:0.041447368 334:0.011842105 335:0.067763158 336:0.088815789 338:0.64144737 339:0.13947368 340:0.0092105263 341:0.58717105 342:0.36217105 343:0.0092105263 350:0.041447368 351:0.94243421 352:0.016118421 360:0.041447368 
0.1311320034065965 1:0.0030241935 2:0.068548387 3:0.085013441 4:0.12668011 5:0.26579301 6:0.16129032 7:0.25268817 8:0.022177419 9:0.012096774 10:0.002688172 11:0.0030241935 12:0.05813172 13:0.057459677 14:0.10920699 15:0.043682796 16:0.11592742 17:0.23319892 18:0.31283602 19:0.03561828 20:0.030913978 21:0.0030241935 22:0.052755376 23:0.099126344 24:0.12701613 25:0.10584677 26:0.26848118 27:0.29704301 28:0.039314516 29:0.0060483871 30:0.001344086 31:0.33602151 32:0.021505376 33:0.62768817 36:0.012096774 38:0.001344086 40:0.001344086 41:0.070228495 42:0.076948925 43:0.17204301 44:0.21236559 45:0.048387097 46:0.37231183 48:0.012096774 49:0.022849462 50:0.012768817 51:0.0030241935 52:0.068548387 53:0.085013441 54:0.12668011 55:0.26579301 56:0.16129032 57:0.25268817 58:0.022177419 59:0.012096774 60:0.002688172 61:0.086021505 62:0.13541667 63:0.036962366 64:0.061491935 65:0.067540323 66:0.19153226 67:0.2718414 68:0.14112903 70:0.0080645161 71:0.001344086 73:0.11290323 74:0.1374328 75:0.13373656 76:0.12668011 77:0.30913978 78:0.16801075 80:0.010752688 81:0.001344086 82:0.027217742 83:0.011760753 84:0.14751344 85:0.18850806 86:0.42439516 87:0.17271505 88:0.010416667 89:0.010752688 90:0.0053763441 91:0.086021505 96:0.086021505 97:0.24731183 98:0.5483871 100:0.032258065 101:0.1374328 102:0.10987903 103:0.043010753 104:0.043010753 105:0.032258065 107:0.069892473 108:0.52150538 109:0.041666667 110:0.001344086 111:0.11122312 112:0.098790323 113:0.10450269 114:0.046034946 115:0.10181452 116:0.11659946 117:0.2718414 118:0.14112903 120:0.0080645161 121:0.03125 127:0.088709677 128:0.2859543 129:0.29469086 130:0.29939516 131:0.03125 138:0.20262097 139:0.45866935 140:0.30745968 141:0.96875 150:0.03125 151:0.03125 156:0.2688172 160:0.6999328 161:0.96875 170:0.03125 171:0.96875 180:0.03125 181:0.010752688 185:0.002688172 186:0.016129032 187:0.18380376 188:0.38239247 189:0.31485215 190:0.08938172 191:0.010752688 197:0.042674731 198:0.11525538 199:0.60651882 200:0.22479839 201:0.98924731 210:0.010752688 211:0.010752688 213:0.010752688 215:0.002688172 217:0.0053763441 218:0.2016129 219:0.44892473 220:0.31989247 221:0.31048387 222:0.4327957 223:0.21975806 224:0.026209677 230:0.010752688 231:0.94018817 232:0.04905914 240:0.010752688 241:0.010752688 247:0.22748656 248:0.30342742 249:0.28830645 250:0.17002688 251:0.010752688 256:0.043010753 257:0.42473118 258:0.18951613 259:0.23185484 260:0.10013441 261:0.98924731 270:0.010752688 271:0.010752688 278:0.1827957 279:0.6344086 280:0.17204301 281:0.4811828 282:0.50806452 290:0.010752688 291:0.98924731 300:0.010752688 301:0.041666667 305:0.0043682796 306:0.46975806 307:0.25974462 308:0.071908602 309:0.090053763 310:0.0625 311:0.041666667 315:0.0030241935 316:0.55880376 317:0.18010753 318:0.098790323 319:0.088037634 320:0.029569892 321:0.95564516 322:0.002688172 330:0.041666667 331:0.041666667 336:0.098790323 339:0.18951613 340:0.67002688 341:0.75235215 342:0.20598118 350:0.041666667 351:0.92708333 352:0.03125 360:0.041666667 
0.08474449253008244 1:0.0014044944 2:0.016853933 3:0.019662921 4:0.014044944 5:0.25210674 6:0.25316011 7:0.16292135 8:0.2054073 9:0.06741573 10:0.0070224719 11:0.0010533708 12:0.0003511236 13:0.016853933 15:0.042134831 16:0.12640449 17:0.32724719 18:0.2633427 19:0.16467697 20:0.057935393 21:0.0010533708 22:0.0003511236 23:0.025280899 24:0.011235955 25:0.49824438 26:0.38483146 27:0.073384831 28:0.003511236 29:0.00070224719 30:0.0014044944 31:0.0014044944 32:0.0084269663 33:0.0056179775 34:0.00070224719 35:0.066713483 36:0.030898876 37:0.62780899 38:0.1741573 39:0.077247191 40:0.0070224719 41:0.044241573 42:0.0077247191 43:0.018258427 44:0.23595506 45:0.12640449 46:0.10639045 47:0.29248596 48:0.088483146 49:0.058988764 50:0.021067416 51:0.0014044944 52:0.016853933 53:0.019662921 54:0.014044944 55:0.25210674 56:0.25316011 57:0.16292135 58:0.2054073 59:0.06741573 60:0.0070224719 61:0.10884831 62:0.16151685 63:0.16397472 64:0.13939607 65:0.18469101 66:0.069873596 67:0.11973315 68:0.02247191 69:0.028089888 70:0.0014044944 71:0.056179775 72:0.071629213 73:0.14992978 74:0.078651685 75:0.12816011 76:0.10674157 77:0.033005618 78:0.13412921 79:0.077247191 80:0.16432584 81:0.0056179775 82:0.023174157 83:0.1070927 84:0.14325843 85:0.21523876 86:0.076544944 87:0.04494382 88:0.23244382 89:0.12359551 90:0.028089888 91:0.039325843 93:0.28089888 94:0.0014044944 97:0.62640449 99:0.036516854 100:0.015449438 101:0.28089888 104:0.22752809 105:0.23314607 106:0.023876404 107:0.15168539 108:0.06741573 109:0.014044944 110:0.0014044944 111:0.10393258 112:0.15660112 113:0.16889045 114:0.1443118 115:0.18469101 116:0.069873596 117:0.11973315 118:0.02247191 119:0.028089888 120:0.0014044944 121:0.03125 126:0.029494382 127:0.26825843 128:0.52001404 129:0.14009831 130:0.010884831 131:0.03125 138:0.032303371 139:0.4315309 140:0.50491573 141:0.96875 150:0.03125 151:0.03125 155:0.12640449 158:0.084269663 159:0.65730337 160:0.10077247 161:0.78370787 162:0.17942416 163:0.0056179775 170:0.03125 171:0.96875 180:0.03125 181:0.011235955 185:0.0080758427 186:0.068117978 187:0.33146067 188:0.28546348 189:0.23103933 190:0.064606742 191:0.011235955 197:0.042837079 198:0.26509831 199:0.3184691 200:0.36235955 201:0.98876404 210:0.011235955 211:0.011235955 213:0.0014044944 214:0.0028089888 215:0.0014044944 216:0.0028089888 217:0.0014044944 218:0.21629213 219:0.63061798 220:0.13202247 221:0.29634831 222:0.22331461 223:0.36235955 224:0.10674157 230:0.011235955 231:0.8258427 232:0.16292135 240:0.011235955 241:0.011235955 246:0.051264045 247:0.4002809 248:0.1502809 249:0.32935393 250:0.05758427 251:0.011235955 257:0.1502809 258:0.31952247 259:0.29564607 260:0.22331461 261:0.98876404 270:0.011235955 271:0.011235955 276:0.0098314607 277:0.019662921 278:0.078651685 279:0.0042134831 280:0.87640449 281:0.53511236 282:0.3377809 283:0.1130618 284:0.0028089888 290:0.011235955 291:0.98455056 292:0.0042134831 300:0.011235955 301:0.042134831 305:0.0028089888 306:0.12710674 307:0.58356742 308:0.14115169 309:0.066713483 310:0.036516854 311:0.042134831 316:0.23876404 317:0.54213483 318:0.07619382 319:0.067064607 320:0.033707865 321:0.95786517 330:0.042134831 331:0.042134831 335:0.084269663 336:0.010533708 337:0.032303371 339:0.60674157 340:0.22401685 341:0.45646067 342:0.50140449 350:0.042134831 351:0.95786517 360:0.042134831 
0.07038108432955188 1:0.0020833333 2:0.010069444 3:0.011805556 4:0.042361111 5:0.11909722 6:0.29965278 7:0.23402778 8:0.16076389 9:0.10555556 10:0.014583333 11:0.0010416667 12:0.0017361111 13:0.009375 14:0.00625 15:0.038541667 16:0.29513889 17:0.39340278 18:0.16041667 19:0.078125 20:0.015972222 21:0.0010416667 22:0.0027777778 23:0.014930556 24:0.19166667 25:0.378125 26:0.39131944 27:0.017708333 29:0.0013888889 30:0.0010416667 31:0.0013888889 33:0.013888889 36:0.080555556 37:0.096180556 38:0.16701389 39:0.44444444 40:0.19652778 41:0.030902778 42:0.0065972222 43:0.042708333 44:0.14930556 45:0.19479167 46:0.16145833 47:0.22361111 48:0.14375 49:0.036111111 50:0.010763889 51:0.0020833333 52:0.010069444 53:0.011805556 54:0.042361111 55:0.11909722 56:0.29965278 57:0.23402778 58:0.16076389 59:0.10555556 60:0.014583333 61:0.10416667 62:0.16805556 63:0.13888889 64:0.066319444 65:0.094097222 66:0.21527778 67:0.021180556 68:0.12534722 69:0.042708333 70:0.023958333 71:0.10972222 72:0.14166667 73:0.086111111 74:0.1 75:0.11944444 76:0.036111111 77:0.12395833 78:0.094791667 79:0.14305556 80:0.045138889 81:0.0069444444 82:0.029166667 83:0.10243056 84:0.13854167 85:0.18854167 86:0.094791667 87:0.051041667 88:0.23263889 89:0.14895833 90:0.0069444444 91:0.082986111 93:0.23055556 95:0.022916667 97:0.59895833 100:0.064583333 101:0.23055556 104:0.0125 105:0.31875 106:0.16736111 107:0.014583333 108:0.16701389 109:0.066319444 110:0.022916667 111:0.089930556 112:0.16701389 113:0.14513889 114:0.075347222 115:0.094097222 116:0.21527778 117:0.021180556 118:0.12534722 119:0.042708333 120:0.023958333 121:0.03125 126:0.0027777778 127:0.11041667 128:0.62118056 129:0.19826389 130:0.036111111 131:0.03125 138:0.26909722 139:0.42361111 140:0.27604167 141:0.96875 150:0.03125 151:0.03125 155:0.13125 159:0.72881944 160:0.10868056 161:0.77777778 162:0.19097222 170:0.03125 171:0.96875 180:0.03125 181:0.011111111 185:0.0027777778 186:0.066666667 187:0.19305556 188:0.40034722 189:0.190625 190:0.13541667 191:0.011111111 197:0.040625 198:0.25833333 199:0.37708333 200:0.31284722 201:0.98888889 210:0.011111111 211:0.011111111 214:0.0013888889 215:0.0027777778 216:0.0027777778 218:0.14305556 219:0.45243056 220:0.38645833 221:0.27152778 222:0.27569444 223:0.35347222 224:0.088194444 230:0.011111111 231:0.85347222 232:0.13541667 240:0.011111111 241:0.011111111 246:0.053819444 247:0.40416667 248:0.15625 249:0.30902778 250:0.065625 251:0.011111111 257:0.24479167 258:0.28159722 259:0.23715278 260:0.22534722 261:0.98888889 270:0.011111111 271:0.011111111 276:0.0076388889 277:0.031944444 278:0.08125 279:0.0375 280:0.83055556 281:0.55763889 282:0.32395833 283:0.10520833 284:0.0020833333 290:0.011111111 291:0.97638889 292:0.0125 300:0.011111111 301:0.042013889 305:0.0097222222 306:0.26041667 307:0.496875 308:0.090625 309:0.078125 310:0.022222222 311:0.042013889 316:0.43784722 317:0.34756944 318:0.080902778 319:0.069444444 320:0.022222222 321:0.95798611 330:0.042013889 331:0.042013889 335:0.0875 336:0.010416667 337:0.041666667 339:0.51944444 340:0.29895833 341:0.44861111 342:0.509375 350:0.042013889 351:0.95763889 352:0.00034722222 360:0.042013889 
0.02590525599379215 1:0.01690051 2:0.080038265 3:0.060905612 4:0.094706633 5:0.21619898 6:0.064413265 7:0.10618622 8:0.16517857 9:0.15656888 10:0.038903061 11:0.031568878 12:0.1151148 13:0.29336735 14:0.030612245 15:0.0025510204 16:0.0095663265 17:0.038903061 18:0.17538265 19:0.26817602 20:0.034757653 21:0.30133929 22:0.1619898 23:0.0060586735 24:0.0015943878 25:0.0022321429 26:0.0035076531 27:0.0025510204 28:0.027423469 29:0.30389031 30:0.18941327 31:0.046556122 32:0.42857143 33:0.11352041 34:0.21364796 35:0.072704082 36:0.068877551 37:0.035076531 38:0.006377551 39:0.0057397959 40:0.0089285714 41:0.057397959 42:0.18526786 43:0.21396684 44:0.05994898 45:0.021045918 46:0.016262755 47:0.058035714 48:0.072704082 49:0.20089286 50:0.11447704 51:0.01690051 52:0.080038265 53:0.060905612 54:0.094706633 55:0.21619898 56:0.064413265 57:0.10618622 58:0.16517857 59:0.15656888 60:0.038903061 61:0.028380102 62:0.021683673 63:0.017857143 64:0.086096939 65:0.20503827 66:0.32334184 67:0.21014031 68:0.080357143 69:0.022959184 70:0.0041454082 71:0.023915816 72:0.050382653 73:0.21524235 74:0.43845663 75:0.034119898 76:0.017219388 77:0.084183673 78:0.11288265 79:0.020727041 80:0.002869898 81:0.00031887755 82:0.032206633 83:0.67091837 84:0.053571429 85:0.0082908163 86:0.0038265306 87:0.0041454082 88:0.025510204 89:0.086734694 90:0.11447704 91:0.015306122 96:0.095663265 97:0.74808673 98:0.09630102 99:0.033163265 100:0.011479592 101:0.07557398 102:0.10491071 103:0.042729592 104:0.044642857 105:0.032206633 106:0.043367347 107:0.24968112 108:0.40178571 109:0.0047831633 110:0.00031887755 111:0.028380102 112:0.021683673 113:0.017857143 114:0.084502551 115:0.19515306 116:0.33163265 117:0.21332908 118:0.080357143 119:0.022959184 120:0.0041454082 121:0.03125 122:0.00095663265 123:0.084502551 124:0.021683673 125:0.097257653 126:0.13998724 127:0.24043367 128:0.28061224 129:0.080357143 130:0.022959184 131:0.03125 133:0.0031887755 134:0.014030612 135:0.059630102 136:0.039859694 137:0.14572704 138:0.24202806 139:0.39190051 140:0.072385204 141:0.80325255 142:0.16485969 143:0.0006377551 150:0.03125 151:0.03125 159:0.086734694 160:0.88201531 161:0.012755102 162:0.077806122 163:0.012755102 164:0.04942602 165:0.19387755 166:0.39190051 167:0.22704082 168:0.0031887755 170:0.03125 171:0.10331633 172:0.17091837 173:0.45535714 174:0.23214286 175:0.0070153061 180:0.03125 181:0.010204082 185:0.11033163 186:0.10554847 187:0.068239796 188:0.20057398 189:0.37691327 190:0.12818878 191:0.010204082 194:0.015625 195:0.18207908 196:0.14477041 197:0.12244898 198:0.047193878 199:0.32493622 200:0.15274235 201:0.43144133 202:0.041135204 203:0.01434949 204:0.3494898 205:0.1533801 210:0.010204082 211:0.030612245 216:0.23341837 217:0.26913265 218:0.16326531 219:0.17665816 220:0.12691327 221:0.171875 222:0.3380102 223:0.012436224 224:0.044005102 225:0.12595663 226:0.10554847 227:0.1036352 228:0.088329082 230:0.010204082 231:0.19547194 232:0.095982143 233:0.38807398 234:0.31026786 240:0.010204082 241:0.010204082 243:0.002869898 244:0.0019132653 245:0.0022321429 246:0.027742347 247:0.18048469 248:0.4588648 249:0.25382653 250:0.061862245 251:0.010204082 253:0.00095663265 254:0.0035076531 255:0.017538265 256:0.26753827 257:0.50255102 258:0.076211735 259:0.11479592 260:0.0066964286 261:0.072066327 262:0.7471301 263:0.023278061 264:0.14445153 265:0.002869898 270:0.010204082 271:0.010204082 276:0.0089285714 277:0.84534439 278:0.10522959 279:0.020089286 280:0.010204082 281:0.073022959 282:0.073341837 283:0.012436224 284:0.0089285714 285:0.016581633 286:0.054528061 287:0.46747449 288:0.28156888 289:0.0015943878 290:0.010522959 291:0.0047831633 292:0.011160714 293:0.26116071 294:0.63042092 295:0.082270408 300:0.010204082 301:0.041135204 304:0.066007653 305:0.18271684 306:0.33450255 307:0.26658163 308:0.075892857 309:0.023596939 310:0.0095663265 311:0.041135204 314:0.04942602 315:0.34279337 316:0.34917092 317:0.13424745 318:0.064413265 319:0.017857143 320:0.00095663265 321:0.95727041 322:0.0015943878 330:0.041135204 331:0.041135204 340:0.9588648 341:0.06377551 342:0.14253827 343:0.23756378 344:0.30803571 345:0.17857143 346:0.025829082 347:0.0025510204 350:0.041135204 351:0.20121173 352:0.42570153 353:0.26403061 354:0.047193878 355:0.020408163 356:0.00031887755 360:0.041135204 
0.008866874900206325 1:0.052083333 4:0.0052083333 5:0.078125 6:0.15071615 7:0.18391927 8:0.16992188 9:0.2874349 10:0.072591146 11:0.37565104 12:0.028971354 13:0.39811198 14:0.14518229 20:0.052083333 21:0.37760417 22:0.0061848958 23:0.20703125 24:0.35709635 30:0.052083333 31:0.052083333 37:0.40755208 38:0.42057292 39:0.109375 40:0.010416667 41:0.17838542 42:0.27929688 43:0.1110026 44:0.005859375 45:0.049479167 46:0.18522135 47:0.13867188 50:0.052083333 51:0.093424479 52:0.25553385 53:0.14941406 54:0.37695312 55:0.072591146 60:0.052083333 61:0.11783854 63:0.00032552083 64:0.013346354 65:0.03125 66:0.12597656 67:0.35481771 68:0.22102865 69:0.11621094 70:0.019205729 71:0.21191406 72:0.42480469 73:0.22233073 74:0.023111979 80:0.11783854 81:0.61751302 82:0.019856771 83:0.070638021 84:0.17415365 90:0.11783854 91:0.014322917 92:0.11783854 96:0.051432292 97:0.68815104 98:0.10091146 99:0.017578125 100:0.009765625 101:0.097330729 102:0.11393229 103:0.030924479 104:0.018554688 105:0.026367188 106:0.17382812 107:0.41699219 108:0.0042317708 110:0.11783854 111:0.018554688 112:0.17545573 113:0.51041667 114:0.16829427 115:0.0094401042 120:0.11783854 121:0.03125 123:0.031575521 124:0.034179688 125:0.041341146 126:0.10839844 127:0.23046875 128:0.31640625 129:0.17708333 130:0.029296875 131:0.03125 133:0.0029296875 134:0.020182292 135:0.037109375 136:0.041992188 137:0.14615885 138:0.49902344 139:0.203125 140:0.018229167 141:0.92513021 142:0.043619792 150:0.03125 151:0.03125 159:0.0234375 160:0.9453125 161:0.017903646 162:0.028320312 163:0.018880208 164:0.051757812 165:0.19335938 166:0.56217448 167:0.096354167 170:0.03125 171:0.067382812 172:0.16927083 173:0.56542969 174:0.16666667 180:0.03125 181:0.0625 184:0.00065104167 185:0.11621094 186:0.13867188 187:0.078450521 188:0.1640625 189:0.33040365 190:0.10904948 191:0.010416667 192:0.18815104 193:0.26660156 194:0.390625 195:0.092122396 200:0.052083333 201:0.40527344 202:0.059570312 203:0.013346354 204:0.30598958 205:0.15332031 210:0.0625 211:0.04296875 212:0.052083333 213:0.0013020833 216:0.23307292 217:0.24283854 218:0.13020833 219:0.16210938 220:0.13541667 221:0.17936198 222:0.29361979 223:0.010742188 224:0.054361979 225:0.15690104 226:0.11002604 227:0.072265625 228:0.060221354 230:0.0625 231:0.2171224 232:0.1077474 233:0.30240885 234:0.31022135 240:0.0625 241:0.041992188 243:0.00065104167 244:0.0026041667 245:0.0029296875 246:0.018880208 247:0.10026042 248:0.39257812 249:0.34505208 250:0.095052083 251:0.010416667 252:0.0091145833 253:0.76041667 254:0.18652344 255:0.001953125 260:0.031575521 261:0.72005208 262:0.065104167 263:0.036458333 264:0.13639323 270:0.041992188 271:0.010416667 272:0.031575521 277:0.75423177 278:0.078125 279:0.10449219 280:0.021158854 281:0.083984375 282:0.067382812 283:0.013671875 284:0.01171875 285:0.015299479 286:0.064778646 287:0.43164062 288:0.26953125 290:0.041992188 291:0.00390625 292:0.025716146 293:0.31119792 294:0.58658854 295:0.030598958 300:0.041992188 301:0.041341146 303:0.00032552083 304:0.00390625 305:0.12597656 306:0.30338542 307:0.38346354 308:0.095703125 309:0.033854167 310:0.012044271 311:0.041341146 313:0.00032552083 314:0.00032552083 315:0.14192708 316:0.44921875 317:0.24609375 318:0.072916667 319:0.036458333 320:0.011393229 321:0.036458333 322:0.91959635 323:0.0026041667 330:0.041341146 331:0.041341146 340:0.95865885 341:0.009765625 342:0.081705729 343:0.22851562 344:0.29882812 345:0.29915365 346:0.0390625 347:0.0009765625 348:0.00032552083 349:0.00032552083 350:0.041341146 351:0.015950521 352:0.29003906 353:0.52441406 354:0.10449219 355:0.0234375 356:0.00032552083 360:0.041341146 
0.001049815788165911 1:0.051546392 4:0.00096649485 5:0.090850515 6:0.15657216 7:0.17300258 8:0.16140464 9:0.27448454 10:0.09117268 11:0.38724227 12:0.019974227 13:0.41333763 14:0.12789948 20:0.051546392 21:0.39014175 22:0.006443299 23:0.16494845 24:0.3869201 30:0.051546392 31:0.051546392 37:0.39529639 38:0.43331186 39:0.11146907 40:0.0083762887 41:0.10502577 42:0.30219072 43:0.14658505 44:0.0080541237 45:0.053479381 46:0.1810567 47:0.15206186 50:0.051546392 51:0.1121134 52:0.24838918 53:0.14851804 54:0.36372423 55:0.075708763 60:0.051546392 61:0.11984536 63:0.0016108247 64:0.018041237 65:0.034471649 66:0.097938144 67:0.33666237 68:0.25096649 69:0.1185567 70:0.021907216 71:0.14884021 72:0.5128866 73:0.19716495 74:0.021262887 80:0.11984536 81:0.65109536 82:0.014497423 83:0.057345361 84:0.15721649 90:0.11984536 91:0.0006443299 92:0.11984536 96:0.080219072 97:0.67622423 98:0.086984536 99:0.023840206 100:0.012242268 101:0.11404639 102:0.081185567 103:0.022551546 104:0.02931701 105:0.046069588 106:0.1994201 107:0.38112113 108:0.006443299 110:0.11984536 111:0.025773196 112:0.11759021 113:0.54349227 114:0.18460052 115:0.0086984536 120:0.11984536 121:0.03125 122:0.00032216495 123:0.051224227 124:0.023840206 125:0.080219072 126:0.11630155 127:0.22197165 128:0.29220361 129:0.16011598 130:0.022551546 131:0.03125 133:0.0032216495 134:0.025773196 135:0.044136598 136:0.1001933 137:0.20425258 138:0.50451031 139:0.082474227 140:0.0041881443 141:0.94168814 142:0.027061856 150:0.03125 151:0.03125 159:0.039304124 160:0.92944588 161:0.030283505 162:0.028350515 163:0.023195876 164:0.074742268 165:0.19974227 166:0.52963918 167:0.082796392 170:0.03125 171:0.075386598 172:0.19136598 173:0.50032216 174:0.19845361 175:0.0032216495 180:0.03125 181:0.06185567 185:0.10695876 186:0.1378866 187:0.074420103 188:0.14722938 189:0.33054124 190:0.14110825 191:0.010309278 192:0.18395619 193:0.28608247 194:0.37757732 195:0.090528351 200:0.051546392 201:0.42847938 202:0.048002577 203:0.013853093 204:0.33279639 205:0.11501289 210:0.06185567 211:0.043170103 212:0.051546392 216:0.20876289 217:0.27770619 218:0.17686856 219:0.14722938 220:0.094716495 221:0.22132732 222:0.24130155 223:0.0070876289 224:0.056378866 225:0.16333763 226:0.10373711 227:0.070876289 228:0.074097938 230:0.06185567 231:0.2068299 232:0.10728093 233:0.28125 234:0.34278351 240:0.06185567 241:0.046391753 243:0.0022551546 244:0.0041881443 245:0.0016108247 246:0.019974227 247:0.10180412 248:0.38015464 249:0.34407216 250:0.099548969 251:0.010631443 252:0.015141753 253:0.76997423 254:0.16720361 255:0.00096649485 260:0.036082474 261:0.0048324742 262:0.79574742 263:0.024806701 264:0.12242268 265:0.0057989691 270:0.046391753 271:0.010309278 273:0.036082474 277:0.044780928 278:0.80444588 279:0.059278351 280:0.045103093 281:0.061533505 282:0.0625 283:0.014819588 284:0.011275773 285:0.012242268 286:0.054768041 287:0.43460052 288:0.30154639 290:0.046713918 291:0.0057989691 292:0.0080541237 293:0.15786082 294:0.65238402 295:0.12951031 300:0.046391753 301:0.041237113 303:0.00032216495 304:0.021907216 305:0.14078608 306:0.31411082 307:0.33118557 308:0.097293814 309:0.038981959 310:0.014175258 311:0.041237113 313:0.00032216495 314:0.0045103093 315:0.17106959 316:0.43653351 317:0.21875 318:0.077641753 319:0.037371134 320:0.012564433 321:0.91140464 322:0.046069588 323:0.0012886598 330:0.041237113 331:0.041237113 340:0.95876289 341:0.014175258 342:0.079896907 343:0.19039948 344:0.31475515 345:0.29864691 346:0.058956186 347:0.0019329897 350:0.041237113 351:0.0006443299 352:0.16237113 353:0.48743557 354:0.25515464 355:0.048002577 356:0.0051546392 360:0.041237113 
