svm_type c_svc
kernel_type linear
nr_class 2
total_sv 63
rho -1.19805
label -1 1
probA 0
probB 0.153913
nr_sv 31 32
SV
0.7415548909766768 1:0.19402985 2:0.3878524 3:0.31239635 4:0.066127695 5:0.026119403 6:0.0087064677 7:0.0016583748 8:0.0020729685 9:0.00020729685 10:0.0008291874 11:0.24564677 12:0.18470149 13:0.24792703 14:0.19485904 15:0.088308458 16:0.026119403 17:0.0093283582 18:0.0012437811 19:0.0008291874 20:0.0010364842 21:0.25082919 22:0.19921227 23:0.24875622 24:0.20335821 25:0.065091211 26:0.023217247 27:0.0062189055 28:0.0014510779 29:0.0010364842 30:0.0008291874 31:0.19402985 32:0.3878524 33:0.31239635 34:0.066127695 35:0.026119403 36:0.0087064677 37:0.0016583748 38:0.0020729685 39:0.00020729685 40:0.0008291874 41:0.24564677 42:0.18470149 43:0.24792703 44:0.19485904 45:0.088308458 46:0.026119403 47:0.0093283582 48:0.0012437811 49:0.0008291874 50:0.0010364842 51:0.25082919 52:0.19921227 53:0.24875622 54:0.20335821 55:0.065091211 56:0.023217247 57:0.0062189055 58:0.0014510779 59:0.0010364842 60:0.0008291874 61:0.0014510779 62:0.036276949 63:0.18138474 64:0.20169983 65:0.28876451 66:0.22657546 67:0.0460199 68:0.012852405 69:0.0039386401 70:0.0010364842 71:0.12541459 72:0.11878109 73:0.21994196 74:0.22201493 75:0.13101161 76:0.10302653 77:0.03752073 78:0.020522388 79:0.011608624 80:0.010157546 81:0.12064677 82:0.12458541 83:0.12914594 84:0.24689055 85:0.1975539 86:0.10572139 87:0.036484245 88:0.017827529 89:0.013681592 90:0.0074626866 91:0.0014510779 92:0.036276949 93:0.18138474 94:0.20169983 95:0.28876451 96:0.22657546 97:0.0460199 98:0.012852405 99:0.0039386401 100:0.0010364842 101:0.12541459 102:0.11878109 103:0.21994196 104:0.22201493 105:0.13101161 106:0.10302653 107:0.03752073 108:0.020522388 109:0.011608624 110:0.010157546 111:0.12064677 112:0.12458541 113:0.12914594 114:0.24689055 115:0.1975539 116:0.10572139 117:0.036484245 118:0.017827529 119:0.013681592 120:0.0074626866 121:0.027985075 122:0.10924544 123:0.25456053 124:0.29436153 125:0.21123549 126:0.065713101 127:0.014925373 128:0.0093283582 129:0.011608624 130:0.0010364842 131:0.07960199 132:0.041666667 133:0.18014096 134:0.11712272 135:0.24212272 136:0.14386401 137:0.14863184 138:0.030679934 139:0.01513267 140:0.0010364842 141:0.068822554 142:0.052238806 143:0.18864013 144:0.17806799 145:0.20978441 146:0.17806799 147:0.095356551 148:0.01513267 149:0.012852405 150:0.0010364842 151:0.027985075 152:0.10924544 153:0.25456053 154:0.29436153 155:0.21123549 156:0.065713101 157:0.014925373 158:0.0093283582 159:0.011608624 160:0.0010364842 161:0.07960199 162:0.041666667 163:0.18014096 164:0.11712272 165:0.24212272 166:0.14386401 167:0.14863184 168:0.030679934 169:0.01513267 170:0.0010364842 171:0.068822554 172:0.052238806 173:0.18864013 174:0.17806799 175:0.20978441 176:0.17806799 177:0.095356551 178:0.01513267 179:0.012852405 180:0.0010364842 181:0.11090381 182:0.2300995 183:0.093698176 184:0.070895522 185:0.12458541 186:0.15547264 187:0.074419569 188:0.075248756 189:0.054726368 190:0.0099502488 191:0.11007463 192:0.11629353 193:0.11235489 194:0.085406302 195:0.039179104 196:0.051409619 197:0.20584577 198:0.12852405 199:0.076492537 200:0.074419569 201:0.11774461 202:0.12147595 203:0.11359867 204:0.082504146 205:0.030058043 206:0.05721393 207:0.20895522 208:0.12023217 209:0.075456053 210:0.072761194 211:0.11090381 212:0.2300995 213:0.093698176 214:0.070895522 215:0.12458541 216:0.15547264 217:0.074419569 218:0.075248756 219:0.054726368 220:0.0099502488 221:0.11007463 222:0.11629353 223:0.11235489 224:0.085406302 225:0.039179104 226:0.051409619 227:0.20584577 228:0.12852405 229:0.076492537 230:0.074419569 231:0.11774461 232:0.12147595 233:0.11359867 234:0.082504146 235:0.030058043 236:0.05721393 237:0.20895522 238:0.12023217 239:0.075456053 240:0.072761194 241:0.11401327 242:0.21475954 243:0.13329187 244:0.11691542 245:0.09079602 246:0.10178275 247:0.096807629 248:0.069029851 249:0.048092869 250:0.014510779 251:0.13474295 252:0.13868159 253:0.098880597 254:0.05327529 255:0.083747927 256:0.10696517 257:0.16065506 258:0.11629353 259:0.085613599 260:0.021144279 261:0.14531509 262:0.14158375 263:0.08747927 264:0.059286899 265:0.091832504 266:0.13515755 267:0.12396352 268:0.11359867 269:0.076077944 270:0.025704809 271:0.11401327 272:0.21475954 273:0.13329187 274:0.11691542 275:0.09079602 276:0.10178275 277:0.096807629 278:0.069029851 279:0.048092869 280:0.014510779 281:0.13474295 282:0.13868159 283:0.098880597 284:0.05327529 285:0.083747927 286:0.10696517 287:0.16065506 288:0.11629353 289:0.085613599 290:0.021144279 291:0.14531509 292:0.14158375 293:0.08747927 294:0.059286899 295:0.091832504 296:0.13515755 297:0.12396352 298:0.11359867 299:0.076077944 300:0.025704809 301:0.2106136 302:0.18946932 303:0.23631841 304:0.1511194 305:0.05327529 306:0.043325041 307:0.068822554 308:0.0263267 309:0.015754561 310:0.0049751244 311:0.24834163 312:0.035240464 313:0.18242123 314:0.16563018 315:0.10986733 316:0.095149254 317:0.069859038 318:0.055348259 319:0.034618574 320:0.0035240464 321:0.2431592 322:0.039593698 323:0.19651741 324:0.16397181 325:0.10841625 326:0.096393035 327:0.059701493 328:0.069859038 329:0.018864013 330:0.0035240464 331:0.2106136 332:0.18946932 333:0.23631841 334:0.1511194 335:0.05327529 336:0.043325041 337:0.068822554 338:0.0263267 339:0.015754561 340:0.0049751244 341:0.24834163 342:0.035240464 343:0.18242123 344:0.16563018 345:0.10986733 346:0.095149254 347:0.069859038 348:0.055348259 349:0.034618574 350:0.0035240464 351:0.2431592 352:0.039593698 353:0.19651741 354:0.16397181 355:0.10841625 356:0.096393035 357:0.059701493 358:0.069859038 359:0.018864013 360:0.0035240464 
0.849774260162058 1:0.13765432 2:0.3281893 3:0.39279835 4:0.092386831 5:0.028806584 6:0.011728395 7:0.0061728395 8:0.0012345679 9:0.00041152263 10:0.00061728395 11:0.24341564 12:0.17510288 13:0.22037037 14:0.19238683 15:0.10246914 16:0.041152263 17:0.018312757 18:0.0047325103 19:0.0012345679 20:0.00082304527 21:0.2063786 22:0.17263374 23:0.23374486 24:0.2281893 25:0.11028807 26:0.027160494 27:0.015020576 28:0.0051440329 29:0.00061728395 30:0.00082304527 31:0.13765432 32:0.3281893 33:0.39279835 34:0.092386831 35:0.028806584 36:0.011728395 37:0.0061728395 38:0.0012345679 39:0.00041152263 40:0.00061728395 41:0.24341564 42:0.17510288 43:0.22037037 44:0.19238683 45:0.10246914 46:0.041152263 47:0.018312757 48:0.0047325103 49:0.0012345679 50:0.00082304527 51:0.2063786 52:0.17263374 53:0.23374486 54:0.2281893 55:0.11028807 56:0.027160494 57:0.015020576 58:0.0051440329 59:0.00061728395 60:0.00082304527 61:0.0018518519 62:0.024279835 63:0.1462963 64:0.16378601 65:0.26748971 66:0.28230453 67:0.079012346 68:0.028395062 69:0.0049382716 70:0.0016460905 71:0.053497942 72:0.16296296 73:0.11893004 74:0.27674897 75:0.14588477 76:0.12201646 77:0.065020576 78:0.026131687 79:0.021193416 80:0.0076131687 81:0.031893004 82:0.16378601 83:0.089300412 84:0.21728395 85:0.2399177 86:0.12880658 87:0.072222222 88:0.027777778 89:0.017283951 90:0.011728395 91:0.0018518519 92:0.024279835 93:0.1462963 94:0.16378601 95:0.26748971 96:0.28230453 97:0.079012346 98:0.028395062 99:0.0049382716 100:0.0016460905 101:0.053497942 102:0.16296296 103:0.11893004 104:0.27674897 105:0.14588477 106:0.12201646 107:0.065020576 108:0.026131687 109:0.021193416 110:0.0076131687 111:0.031893004 112:0.16378601 113:0.089300412 114:0.21728395 115:0.2399177 116:0.12880658 117:0.072222222 118:0.027777778 119:0.017283951 120:0.011728395 121:0.016666667 122:0.12572016 123:0.17777778 124:0.36502058 125:0.22901235 126:0.070781893 127:0.010493827 128:0.0026748971 129:0.0010288066 130:0.00082304527 131:0.066666667 132:0.063168724 133:0.097736626 134:0.10473251 135:0.21049383 136:0.23744856 137:0.19032922 138:0.022839506 139:0.0051440329 140:0.0014403292 141:0.065432099 142:0.064403292 143:0.12592593 144:0.11296296 145:0.30576132 146:0.22716049 147:0.082304527 148:0.010288066 149:0.0043209877 150:0.0014403292 151:0.016666667 152:0.12572016 153:0.17777778 154:0.36502058 155:0.22901235 156:0.070781893 157:0.010493827 158:0.0026748971 159:0.0010288066 160:0.00082304527 161:0.066666667 162:0.063168724 163:0.097736626 164:0.10473251 165:0.21049383 166:0.23744856 167:0.19032922 168:0.022839506 169:0.0051440329 170:0.0014403292 171:0.065432099 172:0.064403292 173:0.12592593 174:0.11296296 175:0.30576132 176:0.22716049 177:0.082304527 178:0.010288066 179:0.0043209877 180:0.0014403292 181:0.10288066 182:0.23312757 183:0.087860082 184:0.055144033 185:0.16748971 186:0.14259259 187:0.071604938 188:0.092798354 189:0.039917695 190:0.0065843621 191:0.11399177 192:0.10946502 193:0.11666667 194:0.077366255 195:0.030452675 196:0.069958848 197:0.23333333 198:0.11049383 199:0.088888889 200:0.049382716 201:0.11872428 202:0.11769547 203:0.10720165 204:0.080041152 205:0.02654321 206:0.065226337 207:0.24773663 208:0.096707819 209:0.090534979 210:0.049588477 211:0.10288066 212:0.23312757 213:0.087860082 214:0.055144033 215:0.16748971 216:0.14259259 217:0.071604938 218:0.092798354 219:0.039917695 220:0.0065843621 221:0.11399177 222:0.10946502 223:0.11666667 224:0.077366255 225:0.030452675 226:0.069958848 227:0.23333333 228:0.11049383 229:0.088888889 230:0.049382716 231:0.11872428 232:0.11769547 233:0.10720165 234:0.080041152 235:0.02654321 236:0.065226337 237:0.24773663 238:0.096707819 239:0.090534979 240:0.049588477 241:0.15082305 242:0.21419753 243:0.1436214 244:0.11049383 245:0.096707819 246:0.13477366 247:0.081893004 248:0.061728395 249:0.0051440329 250:0.00061728395 251:0.13662551 252:0.12695473 253:0.093209877 254:0.058230453 255:0.076748971 256:0.10349794 257:0.15720165 258:0.118107 259:0.10185185 260:0.027572016 261:0.13168724 262:0.13580247 263:0.088271605 264:0.06563786 265:0.087654321 266:0.11193416 267:0.13374486 268:0.10761317 269:0.097325103 270:0.040329218 271:0.15082305 272:0.21419753 273:0.1436214 274:0.11049383 275:0.096707819 276:0.13477366 277:0.081893004 278:0.061728395 279:0.0051440329 280:0.00061728395 281:0.13662551 282:0.12695473 283:0.093209877 284:0.058230453 285:0.076748971 286:0.10349794 287:0.15720165 288:0.118107 289:0.10185185 290:0.027572016 291:0.13168724 292:0.13580247 293:0.088271605 294:0.06563786 295:0.087654321 296:0.11193416 297:0.13374486 298:0.10761317 299:0.097325103 300:0.040329218 301:0.25 302:0.28868313 303:0.18024691 304:0.069547325 305:0.052263374 306:0.059053498 307:0.042386831 308:0.038271605 309:0.01563786 310:0.003909465 311:0.23353909 312:0.036213992 313:0.17839506 314:0.17098765 315:0.11481481 316:0.08436214 317:0.060699588 318:0.064814815 319:0.044444444 320:0.011728395 321:0.23580247 322:0.038271605 323:0.20699588 324:0.14897119 325:0.12283951 326:0.077572016 327:0.059670782 328:0.07037037 329:0.027777778 330:0.011728395 331:0.25 332:0.28868313 333:0.18024691 334:0.069547325 335:0.052263374 336:0.059053498 337:0.042386831 338:0.038271605 339:0.01563786 340:0.003909465 341:0.23353909 342:0.036213992 343:0.17839506 344:0.17098765 345:0.11481481 346:0.08436214 347:0.060699588 348:0.064814815 349:0.044444444 350:0.011728395 351:0.23580247 352:0.038271605 353:0.20699588 354:0.14897119 355:0.12283951 356:0.077572016 357:0.059670782 358:0.07037037 359:0.027777778 360:0.011728395 
0.6953060500440885 1:0.0096153846 2:0.49017094 3:0.30448718 4:0.092094017 5:0.05982906 6:0.024145299 7:0.011324786 8:0.0042735043 9:0.002991453 10:0.0010683761 11:0.21645299 12:0.31581197 13:0.13974359 14:0.11559829 15:0.09508547 16:0.05491453 17:0.032264957 18:0.016452991 19:0.011538462 20:0.0021367521 21:0.27008547 22:0.33311966 23:0.15448718 24:0.11196581 25:0.067948718 26:0.034188034 27:0.016025641 28:0.0066239316 29:0.0034188034 30:0.0021367521 31:0.0096153846 32:0.49017094 33:0.30448718 34:0.092094017 35:0.05982906 36:0.024145299 37:0.011324786 38:0.0042735043 39:0.002991453 40:0.0010683761 41:0.21645299 42:0.31581197 43:0.13974359 44:0.11559829 45:0.09508547 46:0.05491453 47:0.032264957 48:0.016452991 49:0.011538462 50:0.0021367521 51:0.27008547 52:0.33311966 53:0.15448718 54:0.11196581 55:0.067948718 56:0.034188034 57:0.016025641 58:0.0066239316 59:0.0034188034 60:0.0021367521 61:0.00064102564 62:0.0025641026 63:0.0064102564 64:0.049786325 65:0.18205128 66:0.29807692 67:0.29209402 68:0.13482906 69:0.031196581 70:0.0023504274 71:0.0010683761 72:0.0038461538 73:0.012393162 74:0.14038462 75:0.087179487 76:0.18183761 77:0.23119658 78:0.19487179 79:0.11517094 80:0.032051282 81:0.0010683761 82:0.0032051282 83:0.0051282051 84:0.11645299 85:0.090811966 86:0.12606838 87:0.24636752 88:0.23803419 89:0.13162393 90:0.041239316 91:0.00064102564 92:0.0025641026 93:0.0064102564 94:0.049786325 95:0.18205128 96:0.29807692 97:0.29209402 98:0.13482906 99:0.031196581 100:0.0023504274 101:0.0010683761 102:0.0038461538 103:0.012393162 104:0.14038462 105:0.087179487 106:0.18183761 107:0.23119658 108:0.19487179 109:0.11517094 110:0.032051282 111:0.0010683761 112:0.0032051282 113:0.0051282051 114:0.11645299 115:0.090811966 116:0.12606838 117:0.24636752 118:0.23803419 119:0.13162393 120:0.041239316 121:0.0014957265 122:0.0038461538 123:0.015384615 124:0.014316239 125:0.26837607 126:0.50747863 127:0.1465812 128:0.02457265 129:0.012820513 130:0.0051282051 131:0.0017094017 132:0.014529915 133:0.011538462 134:0.0012820513 135:0.17777778 136:0.27393162 137:0.32521368 138:0.096581197 139:0.058333333 140:0.039102564 141:0.0017094017 142:0.012820513 143:0.012393162 144:0.0017094017 145:0.12478632 146:0.26688034 147:0.33333333 148:0.13055556 149:0.067521368 150:0.048290598 151:0.0014957265 152:0.0038461538 153:0.015384615 154:0.014316239 155:0.26837607 156:0.50747863 157:0.1465812 158:0.02457265 159:0.012820513 160:0.0051282051 161:0.0017094017 162:0.014529915 163:0.011538462 164:0.0012820513 165:0.17777778 166:0.27393162 167:0.32521368 168:0.096581197 169:0.058333333 170:0.039102564 171:0.0017094017 172:0.012820513 173:0.012393162 174:0.0017094017 175:0.12478632 176:0.26688034 177:0.33333333 178:0.13055556 179:0.067521368 180:0.048290598 181:0.0076923077 182:0.21324786 183:0.17948718 184:0.23290598 185:0.12628205 186:0.088675214 187:0.097863248 188:0.051282051 189:0.0023504274 190:0.00021367521 191:0.067307692 192:0.17371795 193:0.10405983 194:0.063034188 195:0.11047009 196:0.19594017 197:0.10149573 198:0.087820513 199:0.094444444 200:0.0017094017 201:0.054273504 202:0.18547009 203:0.11196581 204:0.060897436 205:0.12222222 206:0.19209402 207:0.098931624 208:0.10598291 209:0.066880342 210:0.0012820513 211:0.0076923077 212:0.21324786 213:0.17948718 214:0.23290598 215:0.12628205 216:0.088675214 217:0.097863248 218:0.051282051 219:0.0023504274 220:0.00021367521 221:0.067307692 222:0.17371795 223:0.10405983 224:0.063034188 225:0.11047009 226:0.19594017 227:0.10149573 228:0.087820513 229:0.094444444 230:0.0017094017 231:0.054273504 232:0.18547009 233:0.11196581 234:0.060897436 235:0.12222222 236:0.19209402 237:0.098931624 238:0.10598291 239:0.066880342 240:0.0012820513 241:0.042094017 242:0.21431624 243:0.20833333 244:0.073717949 245:0.13525641 246:0.14807692 247:0.076282051 248:0.048931624 249:0.032051282 250:0.020940171 251:0.13247863 252:0.087606838 253:0.14123932 254:0.099358974 255:0.043376068 256:0.10149573 257:0.22008547 258:0.083760684 259:0.058760684 260:0.031837607 261:0.13290598 262:0.10576923 263:0.15726496 264:0.070299145 265:0.062393162 266:0.10918803 267:0.20106838 268:0.076923077 269:0.06025641 270:0.023931624 271:0.042094017 272:0.21431624 273:0.20833333 274:0.073717949 275:0.13525641 276:0.14807692 277:0.076282051 278:0.048931624 279:0.032051282 280:0.020940171 281:0.13247863 282:0.087606838 283:0.14123932 284:0.099358974 285:0.043376068 286:0.10149573 287:0.22008547 288:0.083760684 289:0.058760684 290:0.031837607 291:0.13290598 292:0.10576923 293:0.15726496 294:0.070299145 295:0.062393162 296:0.10918803 297:0.20106838 298:0.076923077 299:0.06025641 300:0.023931624 301:0.033974359 302:0.2957265 303:0.29059829 304:0.09508547 305:0.07008547 306:0.088461538 307:0.070940171 308:0.03525641 309:0.014316239 310:0.0055555556 311:0.038034188 312:0.065598291 313:0.21068376 314:0.21709402 315:0.098504274 316:0.082692308 317:0.11089744 318:0.082692308 319:0.072222222 320:0.021581197 321:0.043589744 322:0.086111111 323:0.21944444 324:0.23311966 325:0.069444444 326:0.063888889 327:0.12051282 328:0.079059829 329:0.060897436 330:0.023931624 331:0.033974359 332:0.2957265 333:0.29059829 334:0.09508547 335:0.07008547 336:0.088461538 337:0.070940171 338:0.03525641 339:0.014316239 340:0.0055555556 341:0.038034188 342:0.065598291 343:0.21068376 344:0.21709402 345:0.098504274 346:0.082692308 347:0.11089744 348:0.082692308 349:0.072222222 350:0.021581197 351:0.043589744 352:0.086111111 353:0.21944444 354:0.23311966 355:0.069444444 356:0.063888889 357:0.12051282 358:0.079059829 359:0.060897436 360:0.023931624 
0.02238940888960998 1:0.002991453 2:0.44102564 3:0.37179487 4:0.10854701 5:0.041025641 6:0.018162393 7:0.011752137 8:0.0023504274 9:0.0010683761 10:0.0012820513 11:0.22820513 12:0.31495726 13:0.1474359 14:0.12393162 15:0.098504274 16:0.045726496 17:0.022863248 18:0.014529915 19:0.0025641026 20:0.0012820513 21:0.3292735 22:0.29380342 23:0.19764957 24:0.10042735 25:0.049358974 26:0.017735043 27:0.0070512821 28:0.0025641026 29:0.00064102564 30:0.0014957265 31:0.002991453 32:0.44102564 33:0.37179487 34:0.10854701 35:0.041025641 36:0.018162393 37:0.011752137 38:0.0023504274 39:0.0010683761 40:0.0012820513 41:0.22820513 42:0.31495726 43:0.1474359 44:0.12393162 45:0.098504274 46:0.045726496 47:0.022863248 48:0.014529915 49:0.0025641026 50:0.0012820513 51:0.3292735 52:0.29380342 53:0.19764957 54:0.10042735 55:0.049358974 56:0.017735043 57:0.0070512821 58:0.0025641026 59:0.00064102564 60:0.0014957265 61:0.0010683761 62:0.0027777778 63:0.020940171 64:0.12286325 65:0.21752137 66:0.42115385 67:0.15940171 68:0.043376068 69:0.0079059829 70:0.002991453 71:0.0061965812 72:0.0079059829 73:0.038675214 74:0.13333333 75:0.079059829 76:0.21153846 77:0.21773504 78:0.15 79:0.10705128 80:0.048504274 81:0.0047008547 82:0.0085470085 83:0.021367521 84:0.13675214 85:0.063888889 86:0.17200855 87:0.2275641 88:0.18888889 89:0.1267094 90:0.04957265 91:0.0010683761 92:0.0027777778 93:0.020940171 94:0.12286325 95:0.21752137 96:0.42115385 97:0.15940171 98:0.043376068 99:0.0079059829 100:0.002991453 101:0.0061965812 102:0.0079059829 103:0.038675214 104:0.13333333 105:0.079059829 106:0.21153846 107:0.21773504 108:0.15 109:0.10705128 110:0.048504274 111:0.0047008547 112:0.0085470085 113:0.021367521 114:0.13675214 115:0.063888889 116:0.17200855 117:0.2275641 118:0.18888889 119:0.1267094 120:0.04957265 121:0.0027777778 122:0.0040598291 123:0.011538462 124:0.011965812 125:0.28824786 126:0.51517094 127:0.12542735 128:0.025854701 129:0.010683761 130:0.0042735043 131:0.0036324786 132:0.018376068 133:0.0070512821 134:0.0017094017 135:0.20470085 136:0.31965812 137:0.29487179 138:0.073290598 139:0.048931624 140:0.027777778 141:0.0038461538 142:0.013888889 143:0.011111111 144:0.0014957265 145:0.20641026 146:0.31175214 147:0.31196581 148:0.064316239 149:0.050854701 150:0.024358974 151:0.0027777778 152:0.0040598291 153:0.011538462 154:0.011965812 155:0.28824786 156:0.51517094 157:0.12542735 158:0.025854701 159:0.010683761 160:0.0042735043 161:0.0036324786 162:0.018376068 163:0.0070512821 164:0.0017094017 165:0.20470085 166:0.31965812 167:0.29487179 168:0.073290598 169:0.048931624 170:0.027777778 171:0.0038461538 172:0.013888889 173:0.011111111 174:0.0014957265 175:0.20641026 176:0.31175214 177:0.31196581 178:0.064316239 179:0.050854701 180:0.024358974 181:0.0098290598 182:0.17884615 183:0.21559829 184:0.20512821 185:0.13653846 186:0.090384615 187:0.074145299 188:0.075 189:0.013675214 190:0.00085470085 191:0.03482906 192:0.1508547 193:0.12542735 194:0.064102564 195:0.058333333 196:0.22286325 197:0.10918803 198:0.082692308 199:0.083333333 200:0.068376068 201:0.031196581 202:0.16709402 203:0.11816239 204:0.060470085 205:0.06025641 206:0.21538462 207:0.12948718 208:0.075641026 209:0.086111111 210:0.056196581 211:0.0098290598 212:0.17884615 213:0.21559829 214:0.20512821 215:0.13653846 216:0.090384615 217:0.074145299 218:0.075 219:0.013675214 220:0.00085470085 221:0.03482906 222:0.1508547 223:0.12542735 224:0.064102564 225:0.058333333 226:0.22286325 227:0.10918803 228:0.082692308 229:0.083333333 230:0.068376068 231:0.031196581 232:0.16709402 233:0.11816239 234:0.060470085 235:0.06025641 236:0.21538462 237:0.12948718 238:0.075641026 239:0.086111111 240:0.056196581 241:0.063461538 242:0.2258547 243:0.17457265 244:0.093589744 245:0.16196581 246:0.13119658 247:0.06965812 248:0.050641026 249:0.02542735 250:0.0036324786 251:0.12371795 252:0.10598291 253:0.1474359 254:0.079487179 255:0.040598291 256:0.1508547 257:0.20021368 258:0.074358974 259:0.053205128 260:0.024145299 261:0.1232906 262:0.11538462 263:0.16153846 264:0.061324786 265:0.040811966 266:0.16025641 267:0.18675214 268:0.072435897 269:0.047863248 270:0.03034188 271:0.063461538 272:0.2258547 273:0.17457265 274:0.093589744 275:0.16196581 276:0.13119658 277:0.06965812 278:0.050641026 279:0.02542735 280:0.0036324786 281:0.12371795 282:0.10598291 283:0.1474359 284:0.079487179 285:0.040598291 286:0.1508547 287:0.20021368 288:0.074358974 289:0.053205128 290:0.024145299 291:0.1232906 292:0.11538462 293:0.16153846 294:0.061324786 295:0.040811966 296:0.16025641 297:0.18675214 298:0.072435897 299:0.047863248 300:0.03034188 301:0.041239316 302:0.19337607 303:0.38504274 304:0.092521368 305:0.072222222 306:0.07542735 307:0.059401709 308:0.056196581 309:0.017307692 310:0.0072649573 311:0.03482906 312:0.066025641 313:0.21153846 314:0.19508547 315:0.12222222 316:0.070940171 317:0.12606838 318:0.082905983 319:0.067948718 320:0.022435897 321:0.04017094 322:0.077350427 323:0.2292735 324:0.18589744 325:0.10982906 326:0.099786325 327:0.10128205 328:0.063461538 329:0.07008547 330:0.022863248 331:0.041239316 332:0.19337607 333:0.38504274 334:0.092521368 335:0.072222222 336:0.07542735 337:0.059401709 338:0.056196581 339:0.017307692 340:0.0072649573 341:0.03482906 342:0.066025641 343:0.21153846 344:0.19508547 345:0.12222222 346:0.070940171 347:0.12606838 348:0.082905983 349:0.067948718 350:0.022435897 351:0.04017094 352:0.077350427 353:0.2292735 354:0.18589744 355:0.10982906 356:0.099786325 357:0.10128205 358:0.063461538 359:0.07008547 360:0.022863248 
0.6965948538291845 1:0.14707149 2:0.22265289 3:0.12510767 4:0.12015504 5:0.10486649 6:0.10292851 7:0.0708441 8:0.076012059 9:0.023040482 10:0.0073212748 11:0.24870801 12:0.18647717 13:0.11154177 14:0.11477175 15:0.1042205 16:0.071920758 17:0.091300603 18:0.05081826 19:0.013996555 20:0.0062446167 21:0.0034453058 22:0.028423773 23:0.23794143 24:0.54048234 25:0.16666667 26:0.021317829 27:0.00064599483 28:0.00064599483 29:0.00021533161 30:0.00021533161 31:0.14707149 32:0.22265289 33:0.12510767 34:0.12015504 35:0.10486649 36:0.10292851 37:0.0708441 38:0.076012059 39:0.023040482 40:0.0073212748 41:0.24870801 42:0.18647717 43:0.11154177 44:0.11477175 45:0.1042205 46:0.071920758 47:0.091300603 48:0.05081826 49:0.013996555 50:0.0062446167 51:0.0034453058 52:0.028423773 53:0.23794143 54:0.54048234 55:0.16666667 56:0.021317829 57:0.00064599483 58:0.00064599483 59:0.00021533161 60:0.00021533161 61:0.11111111 62:0.12618432 63:0.24698536 64:0.25839793 65:0.1498708 66:0.080103359 67:0.013565891 68:0.0047372954 69:0.004952627 70:0.0040913006 71:0.067183463 72:0.22394488 73:0.28940568 74:0.21705426 75:0.12230835 76:0.059000861 77:0.0083979328 78:0.0034453058 79:0.0045219638 80:0.0047372954 81:0.0021533161 82:0.015719208 83:0.097114556 84:0.18561585 85:0.36111111 86:0.24009475 87:0.077304048 88:0.016365202 89:0.003875969 90:0.00064599483 91:0.11111111 92:0.12618432 93:0.24698536 94:0.25839793 95:0.1498708 96:0.080103359 97:0.013565891 98:0.0047372954 99:0.004952627 100:0.0040913006 101:0.067183463 102:0.22394488 103:0.28940568 104:0.21705426 105:0.12230835 106:0.059000861 107:0.0083979328 108:0.0034453058 109:0.0045219638 110:0.0047372954 111:0.0021533161 112:0.015719208 113:0.097114556 114:0.18561585 115:0.36111111 116:0.24009475 117:0.077304048 118:0.016365202 119:0.003875969 120:0.00064599483 121:0.014211886 122:0.13824289 123:0.1914298 124:0.13781223 125:0.12726098 126:0.19918174 127:0.10142119 128:0.059646856 129:0.021533161 130:0.0092592593 131:0.0010766581 132:0.096037898 133:0.2792851 134:0.08290267 135:0.124677 136:0.19595177 137:0.084409991 138:0.10142119 139:0.020671835 140:0.013565891 141:0.0071059432 142:0.018303187 143:0.073212748 144:0.35874246 145:0.16774332 146:0.11498708 147:0.22114556 148:0.033807063 149:0.0015073213 150:0.0034453058 151:0.014211886 152:0.13824289 153:0.1914298 154:0.13781223 155:0.12726098 156:0.19918174 157:0.10142119 158:0.059646856 159:0.021533161 160:0.0092592593 161:0.0010766581 162:0.096037898 163:0.2792851 164:0.08290267 165:0.124677 166:0.19595177 167:0.084409991 168:0.10142119 169:0.020671835 170:0.013565891 171:0.0071059432 172:0.018303187 173:0.073212748 174:0.35874246 175:0.16774332 176:0.11498708 177:0.22114556 178:0.033807063 179:0.0015073213 180:0.0034453058 181:0.36907838 182:0.16645134 183:0.15719208 184:0.10723514 185:0.019595177 186:0.017657192 187:0.02411714 188:0.044788975 189:0.054478898 190:0.039405685 191:0.3787683 192:0.23492679 193:0.17980189 194:0.021317829 195:0.025193798 196:0.035960379 197:0.032515073 198:0.042420327 199:0.045219638 200:0.003875969 201:0.0023686477 202:0.029500431 203:0.053186908 204:0.20564169 205:0.48471146 206:0.18087855 207:0.029500431 208:0.010981912 209:0.0025839793 210:0.00064599483 211:0.36907838 212:0.16645134 213:0.15719208 214:0.10723514 215:0.019595177 216:0.017657192 217:0.02411714 218:0.044788975 219:0.054478898 220:0.039405685 221:0.3787683 222:0.23492679 223:0.17980189 224:0.021317829 225:0.025193798 226:0.035960379 227:0.032515073 228:0.042420327 229:0.045219638 230:0.003875969 231:0.0023686477 232:0.029500431 233:0.053186908 234:0.20564169 235:0.48471146 236:0.18087855 237:0.029500431 238:0.010981912 239:0.0025839793 240:0.00064599483 241:0.06546081 242:0.24203273 243:0.22803618 244:0.088501292 245:0.092161929 246:0.10206718 247:0.084625323 248:0.064599483 249:0.023040482 250:0.0094745909 251:0.08161068 252:0.23169681 253:0.19896641 254:0.099483204 255:0.070413437 256:0.11347976 257:0.097114556 258:0.06416882 259:0.033161068 260:0.0099052541 261:0.0066752799 262:0.01464255 263:0.048234281 264:0.20930233 265:0.37037037 266:0.31438415 267:0.032730405 268:0.0023686477 269:0.00086132644 270:0.00043066322 271:0.06546081 272:0.24203273 273:0.22803618 274:0.088501292 275:0.092161929 276:0.10206718 277:0.084625323 278:0.064599483 279:0.023040482 280:0.0094745909 281:0.08161068 282:0.23169681 283:0.19896641 284:0.099483204 285:0.070413437 286:0.11347976 287:0.097114556 288:0.06416882 289:0.033161068 290:0.0099052541 291:0.0066752799 292:0.01464255 293:0.048234281 294:0.20930233 295:0.37037037 296:0.31438415 297:0.032730405 298:0.0023686477 299:0.00086132644 300:0.00043066322 301:0.064599483 302:0.076658053 303:0.072782084 304:0.074289406 305:0.11778639 306:0.16774332 307:0.15956072 308:0.097975883 309:0.1294143 310:0.039190353 311:0.040482343 312:0.11670973 313:0.063522825 314:0.14319552 315:0.12273902 316:0.1621447 317:0.10551249 318:0.087209302 319:0.10055986 320:0.057924203 321:0.0096899225 322:0.016795866 323:0.12618432 324:0.13565891 325:0.16042205 326:0.3671404 327:0.11498708 328:0.062015504 329:0.0064599483 330:0.00064599483 331:0.064599483 332:0.076658053 333:0.072782084 334:0.074289406 335:0.11778639 336:0.16774332 337:0.15956072 338:0.097975883 339:0.1294143 340:0.039190353 341:0.040482343 342:0.11670973 343:0.063522825 344:0.14319552 345:0.12273902 346:0.1621447 347:0.10551249 348:0.087209302 349:0.10055986 350:0.057924203 351:0.0096899225 352:0.016795866 353:0.12618432 354:0.13565891 355:0.16042205 356:0.3671404 357:0.11498708 358:0.062015504 359:0.0064599483 360:0.00064599483 
0.5692605239790464 1:0.16102431 2:0.20182292 3:0.15039062 4:0.13020833 5:0.12565104 6:0.072699653 7:0.075086806 8:0.060980903 9:0.016710069 10:0.0054253472 11:0.27300347 12:0.20073785 13:0.13671875 14:0.11349826 15:0.10047743 16:0.054470486 17:0.068793403 18:0.038845486 19:0.0086805556 20:0.0047743056 21:0.0017361111 22:0.0047743056 23:0.012152778 24:0.023003472 25:0.13606771 26:0.32595486 27:0.27582465 28:0.16059028 29:0.047526042 30:0.012369792 31:0.16102431 32:0.20182292 33:0.15039062 34:0.13020833 35:0.12565104 36:0.072699653 37:0.075086806 38:0.060980903 39:0.016710069 40:0.0054253472 41:0.27300347 42:0.20073785 43:0.13671875 44:0.11349826 45:0.10047743 46:0.054470486 47:0.068793403 48:0.038845486 49:0.0086805556 50:0.0047743056 51:0.0017361111 52:0.0047743056 53:0.012152778 54:0.023003472 55:0.13606771 56:0.32595486 57:0.27582465 58:0.16059028 59:0.047526042 60:0.012369792 61:0.10655382 62:0.13671875 63:0.28624132 64:0.19618056 65:0.14952257 66:0.096137153 67:0.010416667 68:0.0067274306 69:0.0071614583 70:0.0043402778 71:0.036024306 72:0.2124566 73:0.1937934 74:0.27235243 75:0.11371528 76:0.12977431 77:0.022569444 78:0.0054253472 79:0.0065104167 80:0.0073784722 81:0.0010850694 82:0.014322917 83:0.0546875 84:0.19878472 85:0.35177951 86:0.24544271 87:0.10026042 88:0.027777778 89:0.0049913194 90:0.00086805556 91:0.10655382 92:0.13671875 93:0.28624132 94:0.19618056 95:0.14952257 96:0.096137153 97:0.010416667 98:0.0067274306 99:0.0071614583 100:0.0043402778 101:0.036024306 102:0.2124566 103:0.1937934 104:0.27235243 105:0.11371528 106:0.12977431 107:0.022569444 108:0.0054253472 109:0.0065104167 110:0.0073784722 111:0.0010850694 112:0.014322917 113:0.0546875 114:0.19878472 115:0.35177951 116:0.24544271 117:0.10026042 118:0.027777778 119:0.0049913194 120:0.00086805556 121:0.037977431 122:0.19249132 123:0.12217882 124:0.16124132 125:0.25282118 126:0.13302951 127:0.037760417 128:0.0234375 129:0.027126736 130:0.011935764 131:0.076605903 132:0.24869792 133:0.15668403 134:0.25282118 135:0.10177951 136:0.099175347 137:0.026041667 138:0.028211806 139:0.0078125 140:0.0021701389 141:0.0052083333 142:0.018446181 143:0.059461806 144:0.18988715 145:0.15277778 146:0.36979167 147:0.10655382 148:0.072916667 149:0.018663194 150:0.0062934028 151:0.037977431 152:0.19249132 153:0.12217882 154:0.16124132 155:0.25282118 156:0.13302951 157:0.037760417 158:0.0234375 159:0.027126736 160:0.011935764 161:0.076605903 162:0.24869792 163:0.15668403 164:0.25282118 165:0.10177951 166:0.099175347 167:0.026041667 168:0.028211806 169:0.0078125 170:0.0021701389 171:0.0052083333 172:0.018446181 173:0.059461806 174:0.18988715 175:0.15277778 176:0.36979167 177:0.10655382 178:0.072916667 179:0.018663194 180:0.0062934028 181:0.32378472 182:0.17534722 183:0.12695312 184:0.1328125 185:0.031467014 186:0.025824653 187:0.038628472 188:0.051866319 189:0.075520833 190:0.017795139 191:0.42881944 192:0.18185764 193:0.15169271 194:0.031684028 195:0.041015625 196:0.040798611 197:0.045572917 198:0.049913194 199:0.023220486 200:0.0054253472 201:0.0054253472 202:0.033637153 203:0.12000868 204:0.47309028 205:0.28255208 206:0.059461806 207:0.016276042 208:0.005859375 209:0.0030381944 210:0.00065104167 211:0.32378472 212:0.17534722 213:0.12695312 214:0.1328125 215:0.031467014 216:0.025824653 217:0.038628472 218:0.051866319 219:0.075520833 220:0.017795139 221:0.42881944 222:0.18185764 223:0.15169271 224:0.031684028 225:0.041015625 226:0.040798611 227:0.045572917 228:0.049913194 229:0.023220486 230:0.0054253472 231:0.0054253472 232:0.033637153 233:0.12000868 234:0.47309028 235:0.28255208 236:0.059461806 237:0.016276042 238:0.005859375 239:0.0030381944 240:0.00065104167 241:0.060763889 242:0.1484375 243:0.27213542 244:0.11024306 245:0.079427083 246:0.10416667 247:0.094401042 248:0.078776042 249:0.033854167 250:0.017795139 251:0.087890625 252:0.27018229 253:0.16514757 254:0.10134549 255:0.067708333 256:0.10460069 257:0.10590278 258:0.068359375 259:0.021918403 260:0.0069444444 261:0.0013020833 262:0.0013020833 263:0.012369792 264:0.027126736 265:0.19205729 266:0.4047309 267:0.29470486 268:0.059895833 269:0.0054253472 270:0.0010850694 271:0.060763889 272:0.1484375 273:0.27213542 274:0.11024306 275:0.079427083 276:0.10416667 277:0.094401042 278:0.078776042 279:0.033854167 280:0.017795139 281:0.087890625 282:0.27018229 283:0.16514757 284:0.10134549 285:0.067708333 286:0.10460069 287:0.10590278 288:0.068359375 289:0.021918403 290:0.0069444444 291:0.0013020833 292:0.0013020833 293:0.012369792 294:0.027126736 295:0.19205729 296:0.4047309 297:0.29470486 298:0.059895833 299:0.0054253472 300:0.0010850694 301:0.049913194 302:0.096137153 303:0.094401042 304:0.099609375 305:0.11827257 306:0.18185764 307:0.098090278 308:0.084201389 309:0.14756944 310:0.029947917 311:0.030381944 312:0.12955729 313:0.067274306 314:0.12738715 315:0.14518229 316:0.1469184 317:0.075086806 318:0.087022569 319:0.078993056 320:0.11219618 321:0.00043402778 322:0.00043402778 323:0.010199653 324:0.019314236 325:0.17578125 326:0.13194444 327:0.31228299 328:0.14800347 329:0.18424479 330:0.017361111 331:0.049913194 332:0.096137153 333:0.094401042 334:0.099609375 335:0.11827257 336:0.18185764 337:0.098090278 338:0.084201389 339:0.14756944 340:0.029947917 341:0.030381944 342:0.12955729 343:0.067274306 344:0.12738715 345:0.14518229 346:0.1469184 347:0.075086806 348:0.087022569 349:0.078993056 350:0.11219618 351:0.00043402778 352:0.00043402778 353:0.010199653 354:0.019314236 355:0.17578125 356:0.13194444 357:0.31228299 358:0.14800347 359:0.18424479 360:0.017361111 
0.5219518503891855 1:0.00043066322 2:0.00021533161 3:0.13587425 4:0.39147287 5:0.22825151 6:0.14793282 7:0.040482343 8:0.023471146 9:0.020671835 10:0.011197244 11:0.00043066322 12:0.00043066322 13:0.49677003 14:0.26830319 15:0.12618432 16:0.046511628 17:0.020887166 18:0.013996555 19:0.019164513 20:0.0073212748 21:0.00043066322 22:0.00043066322 23:0.51679587 24:0.26012059 25:0.12015504 26:0.044358312 27:0.01873385 28:0.014211886 29:0.017226529 30:0.0075366064 31:0.00043066322 32:0.00021533161 33:0.13587425 34:0.39147287 35:0.22825151 36:0.14793282 37:0.040482343 38:0.023471146 39:0.020671835 40:0.011197244 41:0.00043066322 42:0.00043066322 43:0.49677003 44:0.26830319 45:0.12618432 46:0.046511628 47:0.020887166 48:0.013996555 49:0.019164513 50:0.0073212748 51:0.00043066322 52:0.00043066322 53:0.51679587 54:0.26012059 55:0.12015504 56:0.044358312 57:0.01873385 58:0.014211886 59:0.017226529 60:0.0075366064 61:0.066752799 62:0.11778639 63:0.11907838 64:0.1375969 65:0.22351421 66:0.20736434 67:0.080964686 68:0.035529716 69:0.0094745909 70:0.0019379845 71:0.011843239 72:0.16537468 73:0.15137812 74:0.208441 75:0.24547804 76:0.13049096 77:0.053402239 78:0.022825151 79:0.0083979328 80:0.0023686477 81:0.0043066322 82:0.096037898 83:0.18927649 84:0.25279931 85:0.27390181 86:0.10572782 87:0.052540913 88:0.018087855 89:0.0058139535 90:0.0015073213 91:0.066752799 92:0.11778639 93:0.11907838 94:0.1375969 95:0.22351421 96:0.20736434 97:0.080964686 98:0.035529716 99:0.0094745909 100:0.0019379845 101:0.011843239 102:0.16537468 103:0.15137812 104:0.208441 105:0.24547804 106:0.13049096 107:0.053402239 108:0.022825151 109:0.0083979328 110:0.0023686477 111:0.0043066322 112:0.096037898 113:0.18927649 114:0.25279931 115:0.27390181 116:0.10572782 117:0.052540913 118:0.018087855 119:0.0058139535 120:0.0015073213 121:0.0071059432 122:0.054694229 123:0.19745909 124:0.2207149 125:0.19293712 126:0.16408269 127:0.099913867 128:0.036391042 129:0.02411714 130:0.0025839793 131:0.004952627 132:0.11886305 133:0.19164513 134:0.20348837 135:0.23083549 136:0.1457795 137:0.061584841 138:0.035314384 139:0.0060292851 140:0.0015073213 141:0.0040913006 142:0.1205857 143:0.18712317 144:0.16408269 145:0.25667528 146:0.1586994 147:0.066752799 148:0.033807063 149:0.0062446167 150:0.0019379845 151:0.0071059432 152:0.054694229 153:0.19745909 154:0.2207149 155:0.19293712 156:0.16408269 157:0.099913867 158:0.036391042 159:0.02411714 160:0.0025839793 161:0.004952627 162:0.11886305 163:0.19164513 164:0.20348837 165:0.23083549 166:0.1457795 167:0.061584841 168:0.035314384 169:0.0060292851 170:0.0015073213 171:0.0040913006 172:0.1205857 173:0.18712317 174:0.16408269 175:0.25667528 176:0.1586994 177:0.066752799 178:0.033807063 179:0.0062446167 180:0.0019379845 181:0.0064599483 182:0.072566753 183:0.1457795 184:0.11132644 185:0.1212317 186:0.15676141 187:0.15762274 188:0.13587425 189:0.085055986 190:0.0073212748 191:0.003875969 192:0.053402239 193:0.18346253 194:0.14685616 195:0.13587425 196:0.12360034 197:0.17204996 198:0.10701981 199:0.068690784 200:0.0051679587 201:0.003875969 202:0.091515935 203:0.16472868 204:0.15762274 205:0.12790698 206:0.1212317 207:0.16666667 208:0.098406546 209:0.06287683 210:0.0051679587 211:0.0064599483 212:0.072566753 213:0.1457795 214:0.11132644 215:0.1212317 216:0.15676141 217:0.15762274 218:0.13587425 219:0.085055986 220:0.0073212748 221:0.003875969 222:0.053402239 223:0.18346253 224:0.14685616 225:0.13587425 226:0.12360034 227:0.17204996 228:0.10701981 229:0.068690784 230:0.0051679587 231:0.003875969 232:0.091515935 233:0.16472868 234:0.15762274 235:0.12790698 236:0.1212317 237:0.16666667 238:0.098406546 239:0.06287683 240:0.0051679587 241:0.041559001 242:0.096899225 243:0.12898363 244:0.082041344 245:0.093669251 246:0.14147287 247:0.20951766 248:0.13221361 249:0.051679587 250:0.021963824 251:0.088501292 252:0.15676141 253:0.099698536 254:0.07213609 255:0.11606374 256:0.17958656 257:0.14039621 258:0.091731266 259:0.044358312 260:0.010766581 261:0.10551249 262:0.18906115 263:0.079242033 264:0.093023256 265:0.12855297 266:0.16128338 267:0.1089578 268:0.080103359 269:0.046080965 270:0.0081826012 271:0.041559001 272:0.096899225 273:0.12898363 274:0.082041344 275:0.093669251 276:0.14147287 277:0.20951766 278:0.13221361 279:0.051679587 280:0.021963824 281:0.088501292 282:0.15676141 283:0.099698536 284:0.07213609 285:0.11606374 286:0.17958656 287:0.14039621 288:0.091731266 289:0.044358312 290:0.010766581 291:0.10551249 292:0.18906115 293:0.079242033 294:0.093023256 295:0.12855297 296:0.16128338 297:0.1089578 298:0.080103359 299:0.046080965 300:0.0081826012 301:0.053832903 302:0.089147287 303:0.19358312 304:0.19832041 305:0.11046512 306:0.10508183 307:0.12962963 308:0.10508183 309:0.01205857 310:0.0027993109 311:0.082472007 312:0.17764858 313:0.28229974 314:0.088070629 315:0.069982773 316:0.13630491 317:0.12187769 318:0.034883721 319:0.0047372954 320:0.0017226529 321:0.081395349 322:0.18992248 323:0.28768303 324:0.082472007 325:0.081395349 326:0.14211886 327:0.10745047 328:0.020241171 329:0.0051679587 330:0.0021533161 331:0.053832903 332:0.089147287 333:0.19358312 334:0.19832041 335:0.11046512 336:0.10508183 337:0.12962963 338:0.10508183 339:0.01205857 340:0.0027993109 341:0.082472007 342:0.17764858 343:0.28229974 344:0.088070629 345:0.069982773 346:0.13630491 347:0.12187769 348:0.034883721 349:0.0047372954 350:0.0017226529 351:0.081395349 352:0.18992248 353:0.28768303 354:0.082472007 355:0.081395349 356:0.14211886 357:0.10745047 358:0.020241171 359:0.0051679587 360:0.0021533161 
0.01872919175170134 1:0.0012722646 2:0.00084817642 4:0.010602205 5:0.45822731 6:0.27099237 7:0.19698897 8:0.041772689 9:0.014418999 10:0.0048770144 11:0.0012722646 12:0.00084817642 15:0.51696353 16:0.29792197 17:0.13422392 18:0.031382528 19:0.011026293 20:0.0063613232 21:0.0012722646 22:0.00063613232 23:0.00021204411 25:0.48579304 26:0.31467345 27:0.14609839 28:0.033927057 29:0.012086514 30:0.0053011026 31:0.0012722646 32:0.00084817642 34:0.010602205 35:0.45822731 36:0.27099237 37:0.19698897 38:0.041772689 39:0.014418999 40:0.0048770144 41:0.0012722646 42:0.00084817642 45:0.51696353 46:0.29792197 47:0.13422392 48:0.031382528 49:0.011026293 50:0.0063613232 51:0.0012722646 52:0.00063613232 53:0.00021204411 55:0.48579304 56:0.31467345 57:0.14609839 58:0.033927057 59:0.012086514 60:0.0053011026 61:0.023536896 62:0.11005089 63:0.14503817 64:0.17048346 65:0.25763359 66:0.19380831 67:0.063613232 68:0.028837998 69:0.0061492791 70:0.00084817642 71:0.02014419 72:0.20271416 73:0.19168787 74:0.31806616 75:0.18638677 76:0.04749788 77:0.025233249 78:0.0072094996 79:0.00042408821 80:0.00063613232 81:0.016115352 82:0.15903308 83:0.19274809 84:0.32718405 85:0.21183206 86:0.059160305 87:0.023960984 88:0.0078456319 89:0.0014843087 90:0.00063613232 91:0.023536896 92:0.11005089 93:0.14503817 94:0.17048346 95:0.25763359 96:0.19380831 97:0.063613232 98:0.028837998 99:0.0061492791 100:0.00084817642 101:0.02014419 102:0.20271416 103:0.19168787 104:0.31806616 105:0.18638677 106:0.04749788 107:0.025233249 108:0.0072094996 109:0.00042408821 110:0.00063613232 111:0.016115352 112:0.15903308 113:0.19274809 114:0.32718405 115:0.21183206 116:0.059160305 117:0.023960984 118:0.0078456319 119:0.0014843087 120:0.00063613232 121:0.034139101 122:0.022688719 123:0.086301951 124:0.19571671 125:0.23176421 126:0.16772689 127:0.13486005 128:0.076759966 129:0.043256997 130:0.0067854114 131:0.049406277 132:0.10517388 133:0.22328244 134:0.17196777 135:0.2177693 136:0.14143342 137:0.048982188 138:0.033927057 139:0.0063613232 140:0.0016963528 141:0.044741306 142:0.14143342 143:0.17133164 144:0.18235793 145:0.19274809 146:0.14631043 147:0.073579304 148:0.034775233 149:0.010814249 150:0.0019083969 151:0.034139101 152:0.022688719 153:0.086301951 154:0.19571671 155:0.23176421 156:0.16772689 157:0.13486005 158:0.076759966 159:0.043256997 160:0.0067854114 161:0.049406277 162:0.10517388 163:0.22328244 164:0.17196777 165:0.2177693 166:0.14143342 167:0.048982188 168:0.033927057 169:0.0063613232 170:0.0016963528 171:0.044741306 172:0.14143342 173:0.17133164 174:0.18235793 175:0.19274809 176:0.14631043 177:0.073579304 178:0.034775233 179:0.010814249 180:0.0019083969 181:0.078032231 182:0.093299406 183:0.078668363 184:0.10326548 185:0.15585242 186:0.15351993 187:0.16221374 188:0.11556404 189:0.051950806 190:0.0076335878 191:0.11005089 192:0.1096268 193:0.11471586 194:0.1024173 195:0.11450382 196:0.16030534 197:0.14016115 198:0.10793045 199:0.034987277 200:0.0053011026 201:0.12192536 202:0.10920271 203:0.11620017 204:0.10771841 205:0.10114504 206:0.1764207 207:0.12128923 208:0.11005089 209:0.030746395 210:0.0053011026 211:0.078032231 212:0.093299406 213:0.078668363 214:0.10326548 215:0.15585242 216:0.15351993 217:0.16221374 218:0.11556404 219:0.051950806 220:0.0076335878 221:0.11005089 222:0.1096268 223:0.11471586 224:0.1024173 225:0.11450382 226:0.16030534 227:0.14016115 228:0.10793045 229:0.034987277 230:0.0053011026 231:0.12192536 232:0.10920271 233:0.11620017 234:0.10771841 235:0.10114504 236:0.1764207 237:0.12128923 238:0.11005089 239:0.030746395 240:0.0053011026 241:0.022688719 242:0.085453774 243:0.15882103 244:0.12446989 245:0.095419847 246:0.16772689 247:0.19889737 248:0.10453774 249:0.028201866 250:0.013782867 251:0.057463953 252:0.17769296 253:0.15351993 254:0.087362171 255:0.12107718 256:0.17917727 257:0.12362171 258:0.068066158 259:0.019932146 260:0.012086514 261:0.06403732 262:0.20080577 263:0.15118745 264:0.097540288 265:0.11386768 266:0.17408821 267:0.1134436 268:0.0557676 269:0.02014419 270:0.0091178965 271:0.022688719 272:0.085453774 273:0.15882103 274:0.12446989 275:0.095419847 276:0.16772689 277:0.19889737 278:0.10453774 279:0.028201866 280:0.013782867 281:0.057463953 282:0.17769296 283:0.15351993 284:0.087362171 285:0.12107718 286:0.17917727 287:0.12362171 288:0.068066158 289:0.019932146 290:0.012086514 291:0.06403732 292:0.20080577 293:0.15118745 294:0.097540288 295:0.11386768 296:0.17408821 297:0.1134436 298:0.0557676 299:0.02014419 300:0.0091178965 301:0.033715013 302:0.10496183 303:0.17854114 304:0.15606446 305:0.15966921 306:0.088634436 307:0.10072095 308:0.12510602 309:0.043681086 310:0.0089058524 311:0.1206531 312:0.18787108 313:0.19868533 314:0.12256149 315:0.050254453 316:0.096480068 317:0.099872774 318:0.094783715 319:0.025233249 320:0.0036047498 321:0.13910093 322:0.2139525 323:0.20398643 324:0.085877863 325:0.065309584 326:0.084605598 327:0.10983885 328:0.075699746 329:0.019296014 330:0.0023324852 331:0.033715013 332:0.10496183 333:0.17854114 334:0.15606446 335:0.15966921 336:0.088634436 337:0.10072095 338:0.12510602 339:0.043681086 340:0.0089058524 341:0.1206531 342:0.18787108 343:0.19868533 344:0.12256149 345:0.050254453 346:0.096480068 347:0.099872774 348:0.094783715 349:0.025233249 350:0.0036047498 351:0.13910093 352:0.2139525 353:0.20398643 354:0.085877863 355:0.065309584 356:0.084605598 357:0.10983885 358:0.075699746 359:0.019296014 360:0.0023324852 
0.2228068874967624 1:0.00021533161 2:0.00021533161 3:0.00064599483 4:0.32988803 5:0.27993109 6:0.23062016 7:0.094099914 8:0.031869078 9:0.021533161 10:0.010981912 11:0.00021533161 12:0.00021533161 13:0.00043066322 14:0.47760551 15:0.27906977 16:0.14965547 17:0.04543497 18:0.017872524 19:0.019810508 20:0.0096899225 21:0.00021533161 22:0.00021533161 23:0.00064599483 24:0.55555556 25:0.2452627 26:0.12015504 27:0.036821705 28:0.015719208 29:0.017226529 30:0.0081826012 31:0.00021533161 32:0.00021533161 33:0.00064599483 34:0.32988803 35:0.27993109 36:0.23062016 37:0.094099914 38:0.031869078 39:0.021533161 40:0.010981912 41:0.00021533161 42:0.00021533161 43:0.00043066322 44:0.47760551 45:0.27906977 46:0.14965547 47:0.04543497 48:0.017872524 49:0.019810508 50:0.0096899225 51:0.00021533161 52:0.00021533161 53:0.00064599483 54:0.55555556 55:0.2452627 56:0.12015504 57:0.036821705 58:0.015719208 59:0.017226529 60:0.0081826012 61:0.052971576 62:0.11520241 63:0.12338501 64:0.18044789 65:0.23018949 66:0.17980189 67:0.070413437 68:0.035314384 69:0.010335917 70:0.0019379845 71:0.010766581 72:0.13049096 73:0.18173988 74:0.24677003 75:0.29457364 76:0.074935401 77:0.034883721 78:0.019595177 79:0.0053832903 80:0.00086132644 81:0.0051679587 82:0.1171404 83:0.23600345 84:0.27024117 85:0.25193798 86:0.076658053 87:0.026916451 88:0.013135228 89:0.0019379845 90:0.00086132644 91:0.052971576 92:0.11520241 93:0.12338501 94:0.18044789 95:0.23018949 96:0.17980189 97:0.070413437 98:0.035314384 99:0.010335917 100:0.0019379845 101:0.010766581 102:0.13049096 103:0.18173988 104:0.24677003 105:0.29457364 106:0.074935401 107:0.034883721 108:0.019595177 109:0.0053832903 110:0.00086132644 111:0.0051679587 112:0.1171404 113:0.23600345 114:0.27024117 115:0.25193798 116:0.076658053 117:0.026916451 118:0.013135228 119:0.0019379845 120:0.00086132644 121:0.015288544 122:0.021748493 123:0.09625323 124:0.20521102 125:0.22588286 126:0.16817399 127:0.14944014 128:0.071059432 129:0.038544358 130:0.0083979328 131:0.025839793 132:0.043066322 133:0.24031008 134:0.16343669 135:0.20499569 136:0.19186047 137:0.07751938 138:0.040267011 139:0.010335917 140:0.0023686477 141:0.026485788 142:0.11972438 143:0.21210164 144:0.17743325 145:0.18604651 146:0.15590009 147:0.085055986 148:0.028639104 149:0.0064599483 150:0.0021533161 151:0.015288544 152:0.021748493 153:0.09625323 154:0.20521102 155:0.22588286 156:0.16817399 157:0.14944014 158:0.071059432 159:0.038544358 160:0.0083979328 161:0.025839793 162:0.043066322 163:0.24031008 164:0.16343669 165:0.20499569 166:0.19186047 167:0.07751938 168:0.040267011 169:0.010335917 170:0.0023686477 171:0.026485788 172:0.11972438 173:0.21210164 174:0.17743325 175:0.18604651 176:0.15590009 177:0.085055986 178:0.028639104 179:0.0064599483 180:0.0021533161 181:0.046942291 182:0.10637382 183:0.10378984 184:0.10099053 185:0.14685616 186:0.13931955 187:0.18001723 188:0.10745047 189:0.059862188 190:0.0083979328 191:0.071274763 192:0.12919897 193:0.11670973 194:0.11993971 195:0.10809647 196:0.16192937 197:0.13888889 198:0.098406546 199:0.047372954 200:0.0081826012 201:0.041989664 202:0.14276486 203:0.13070629 204:0.11347976 205:0.10960379 206:0.17700258 207:0.13673557 208:0.095391904 209:0.04414298 210:0.0081826012 211:0.046942291 212:0.10637382 213:0.10378984 214:0.10099053 215:0.14685616 216:0.13931955 217:0.18001723 218:0.10745047 219:0.059862188 220:0.0083979328 221:0.071274763 222:0.12919897 223:0.11670973 224:0.11993971 225:0.10809647 226:0.16192937 227:0.13888889 228:0.098406546 229:0.047372954 230:0.0081826012 231:0.041989664 232:0.14276486 233:0.13070629 234:0.11347976 235:0.10960379 236:0.17700258 237:0.13673557 238:0.095391904 239:0.04414298 240:0.0081826012 241:0.056416882 242:0.10335917 243:0.15482343 244:0.074074074 245:0.10378984 246:0.18217054 247:0.17635659 248:0.10163652 249:0.03208441 250:0.015288544 251:0.090654608 252:0.18346253 253:0.10809647 254:0.085486649 255:0.11778639 256:0.17937123 257:0.12919897 258:0.068475452 259:0.026485788 260:0.010981912 261:0.14513351 262:0.18238587 263:0.094099914 264:0.092807924 265:0.12726098 266:0.15676141 267:0.11003445 268:0.057708872 269:0.022825151 270:0.010981912 271:0.056416882 272:0.10335917 273:0.15482343 274:0.074074074 275:0.10378984 276:0.18217054 277:0.17635659 278:0.10163652 279:0.03208441 280:0.015288544 281:0.090654608 282:0.18346253 283:0.10809647 284:0.085486649 285:0.11778639 286:0.17937123 287:0.12919897 288:0.068475452 289:0.026485788 290:0.010981912 291:0.14513351 292:0.18238587 293:0.094099914 294:0.092807924 295:0.12726098 296:0.15676141 297:0.11003445 298:0.057708872 299:0.022825151 300:0.010981912 301:0.04005168 302:0.083979328 303:0.18540052 304:0.17894057 305:0.14061154 306:0.089362618 307:0.11950904 308:0.1212317 309:0.035099053 310:0.0058139535 311:0.10594315 312:0.15783807 313:0.24074074 314:0.10766581 315:0.059216193 316:0.094745909 317:0.11886305 318:0.090008613 319:0.021533161 320:0.0034453058 321:0.11692506 322:0.19164513 323:0.24483204 324:0.075581395 325:0.069982773 326:0.10400517 327:0.1212317 328:0.055555556 329:0.017226529 330:0.0030146425 331:0.04005168 332:0.083979328 333:0.18540052 334:0.17894057 335:0.14061154 336:0.089362618 337:0.11950904 338:0.1212317 339:0.035099053 340:0.0058139535 341:0.10594315 342:0.15783807 343:0.24074074 344:0.10766581 345:0.059216193 346:0.094745909 347:0.11886305 348:0.090008613 349:0.021533161 350:0.0034453058 351:0.11692506 352:0.19164513 353:0.24483204 354:0.075581395 355:0.069982773 356:0.10400517 357:0.1212317 358:0.055555556 359:0.017226529 360:0.0030146425 
0.2303514038355112 1:0.00021204411 3:0.00042408821 4:0.15076336 5:0.39927905 6:0.26357082 7:0.13231552 8:0.030958439 9:0.01187447 10:0.010602205 11:0.00021204411 12:0.00021204411 13:0.00021204411 14:0.30852417 15:0.41645462 16:0.18469042 17:0.049406277 18:0.020992366 19:0.0095419847 20:0.0097540288 21:0.00021204411 22:0.00021204411 23:0.00021204411 24:0.33121289 25:0.40267176 26:0.18066158 27:0.046225615 28:0.02014419 29:0.0099660729 30:0.0084817642 31:0.00021204411 33:0.00042408821 34:0.15076336 35:0.39927905 36:0.26357082 37:0.13231552 38:0.030958439 39:0.01187447 40:0.010602205 41:0.00021204411 42:0.00021204411 43:0.00021204411 44:0.30852417 45:0.41645462 46:0.18469042 47:0.049406277 48:0.020992366 49:0.0095419847 50:0.0097540288 51:0.00021204411 52:0.00021204411 53:0.00021204411 54:0.33121289 55:0.40267176 56:0.18066158 57:0.046225615 58:0.02014419 59:0.0099660729 60:0.0084817642 61:0.042832909 62:0.13443596 63:0.1134436 64:0.20949958 65:0.24385072 66:0.1673028 67:0.059584394 68:0.023324852 69:0.0053011026 70:0.00042408821 71:0.013994911 72:0.1995335 73:0.21458863 74:0.26145038 75:0.22137405 76:0.055979644 77:0.022052587 78:0.0086938083 79:0.0016963528 80:0.00063613232 81:0.0074215437 82:0.14864292 83:0.20568278 84:0.30597964 85:0.23134012 86:0.063189143 87:0.025657337 88:0.0097540288 89:0.0016963528 90:0.00063613232 91:0.042832909 92:0.13443596 93:0.1134436 94:0.20949958 95:0.24385072 96:0.1673028 97:0.059584394 98:0.023324852 99:0.0053011026 100:0.00042408821 101:0.013994911 102:0.1995335 103:0.21458863 104:0.26145038 105:0.22137405 106:0.055979644 107:0.022052587 108:0.0086938083 109:0.0016963528 110:0.00063613232 111:0.0074215437 112:0.14864292 113:0.20568278 114:0.30597964 115:0.23134012 116:0.063189143 117:0.025657337 118:0.0097540288 119:0.0016963528 120:0.00063613232 121:0.019508058 122:0.036047498 123:0.11471586 124:0.24491094 125:0.19486853 126:0.17493639 127:0.13994911 128:0.044529262 129:0.025021204 130:0.0055131467 131:0.026081425 132:0.10941476 133:0.21416455 134:0.18044953 135:0.21225615 136:0.14800679 137:0.066581849 138:0.031594572 139:0.0086938083 140:0.0027565734 141:0.02735369 142:0.12150127 143:0.21119593 144:0.19274809 145:0.2177693 146:0.13888889 147:0.052586938 148:0.030746395 149:0.0057251908 150:0.0014843087 151:0.019508058 152:0.036047498 153:0.11471586 154:0.24491094 155:0.19486853 156:0.17493639 157:0.13994911 158:0.044529262 159:0.025021204 160:0.0055131467 161:0.026081425 162:0.10941476 163:0.21416455 164:0.18044953 165:0.21225615 166:0.14800679 167:0.066581849 168:0.031594572 169:0.0086938083 170:0.0027565734 171:0.02735369 172:0.12150127 173:0.21119593 174:0.19274809 175:0.2177693 176:0.13888889 177:0.052586938 178:0.030746395 179:0.0057251908 180:0.0014843087 181:0.056191688 182:0.10877863 183:0.073579304 184:0.12128923 185:0.14122137 186:0.19571671 187:0.15139949 188:0.095419847 189:0.047921968 190:0.0084817642 191:0.098176421 192:0.11832061 193:0.12277354 194:0.10708227 195:0.11620017 196:0.17281595 197:0.13040712 198:0.098176421 199:0.029686175 200:0.0063613232 201:0.10050891 202:0.11513995 203:0.1221374 204:0.10602205 205:0.13019508 206:0.16836302 207:0.12616624 208:0.09351145 209:0.031594572 210:0.0063613232 211:0.056191688 212:0.10877863 213:0.073579304 214:0.12128923 215:0.14122137 216:0.19571671 217:0.15139949 218:0.095419847 219:0.047921968 220:0.0084817642 221:0.098176421 222:0.11832061 223:0.12277354 224:0.10708227 225:0.11620017 226:0.17281595 227:0.13040712 228:0.098176421 229:0.029686175 230:0.0063613232 231:0.10050891 232:0.11513995 233:0.1221374 234:0.10602205 235:0.13019508 236:0.16836302 237:0.12616624 238:0.09351145 239:0.031594572 240:0.0063613232 241:0.024173028 242:0.079304495 243:0.12489398 244:0.13507209 245:0.091178965 246:0.1365564 247:0.22943172 248:0.11577608 249:0.039652248 250:0.023960984 251:0.055555556 252:0.17005937 253:0.13867684 254:0.087362171 255:0.10411366 256:0.1653944 257:0.14228159 258:0.084817642 259:0.031806616 260:0.019932146 261:0.098600509 262:0.19486853 263:0.10326548 264:0.10559796 265:0.10814249 266:0.16221374 267:0.10814249 268:0.072519084 269:0.026929601 270:0.019720102 271:0.024173028 272:0.079304495 273:0.12489398 274:0.13507209 275:0.091178965 276:0.1365564 277:0.22943172 278:0.11577608 279:0.039652248 280:0.023960984 281:0.055555556 282:0.17005937 283:0.13867684 284:0.087362171 285:0.10411366 286:0.1653944 287:0.14228159 288:0.084817642 289:0.031806616 290:0.019932146 291:0.098600509 292:0.19486853 293:0.10326548 294:0.10559796 295:0.10814249 296:0.16221374 297:0.10814249 298:0.072519084 299:0.026929601 300:0.019720102 301:0.072943172 302:0.085029686 303:0.19189992 304:0.14779474 305:0.13676845 306:0.076335878 307:0.099024597 308:0.11916879 309:0.059160305 310:0.01187447 311:0.10856658 312:0.19550466 313:0.1961408 314:0.12701442 315:0.0485581 316:0.097964377 317:0.10941476 318:0.087150127 319:0.026293469 320:0.0033927057 321:0.11895674 322:0.20165394 323:0.22582697 324:0.089482612 325:0.065521628 326:0.085029686 327:0.10093299 328:0.08418151 329:0.025657337 330:0.0027565734 331:0.072943172 332:0.085029686 333:0.19189992 334:0.14779474 335:0.13676845 336:0.076335878 337:0.099024597 338:0.11916879 339:0.059160305 340:0.01187447 341:0.10856658 342:0.19550466 343:0.1961408 344:0.12701442 345:0.0485581 346:0.097964377 347:0.10941476 348:0.087150127 349:0.026293469 350:0.0033927057 351:0.11895674 352:0.20165394 353:0.22582697 354:0.089482612 355:0.065521628 356:0.085029686 357:0.10093299 358:0.08418151 359:0.025657337 360:0.0027565734 
0.4464210020411548 1:0.00063613232 2:0.00063613232 4:0.050678541 5:0.46013571 6:0.27226463 7:0.15924512 8:0.036471586 9:0.014418999 10:0.0055131467 11:0.00063613232 12:0.00063613232 14:0.0067854114 15:0.59881255 16:0.25424088 17:0.096904156 18:0.026081425 19:0.011026293 20:0.0048770144 21:0.00063613232 22:0.00063613232 24:0.0014843087 25:0.60093299 26:0.2572095 27:0.098812553 28:0.02480916 29:0.010602205 30:0.0048770144 31:0.00063613232 32:0.00063613232 34:0.050678541 35:0.46013571 36:0.27226463 37:0.15924512 38:0.036471586 39:0.014418999 40:0.0055131467 41:0.00063613232 42:0.00063613232 44:0.0067854114 45:0.59881255 46:0.25424088 47:0.096904156 48:0.026081425 49:0.011026293 50:0.0048770144 51:0.00063613232 52:0.00063613232 54:0.0014843087 55:0.60093299 56:0.2572095 57:0.098812553 58:0.02480916 59:0.010602205 60:0.0048770144 61:0.0042408821 62:0.10687023 63:0.14482612 64:0.14991518 65:0.24173028 66:0.22349449 67:0.08057676 68:0.032442748 69:0.013570823 70:0.0023324852 71:0.0061492791 72:0.16899915 73:0.15245971 74:0.26908397 75:0.2807464 76:0.076759966 77:0.031806616 78:0.011662426 79:0.0014843087 80:0.00084817642 81:0.0036047498 82:0.10687023 83:0.20886344 84:0.30343511 85:0.27120441 86:0.060856658 87:0.031594572 88:0.010178117 89:0.0025445293 90:0.00084817642 91:0.0042408821 92:0.10687023 93:0.14482612 94:0.14991518 95:0.24173028 96:0.22349449 97:0.08057676 98:0.032442748 99:0.013570823 100:0.0023324852 101:0.0061492791 102:0.16899915 103:0.15245971 104:0.26908397 105:0.2807464 106:0.076759966 107:0.031806616 108:0.011662426 109:0.0014843087 110:0.00084817642 111:0.0036047498 112:0.10687023 113:0.20886344 114:0.30343511 115:0.27120441 116:0.060856658 117:0.031594572 118:0.010178117 119:0.0025445293 120:0.00084817642 121:0.041348601 122:0.061280746 123:0.1653944 124:0.20547074 125:0.18447837 126:0.15415606 127:0.11174724 128:0.050466497 129:0.021628499 130:0.004028838 131:0.031382528 132:0.060856658 133:0.26653944 134:0.18214589 135:0.21268024 136:0.16115352 137:0.049830365 138:0.028625954 139:0.0059372349 140:0.00084817642 141:0.044105174 142:0.17366412 143:0.17917727 144:0.20907549 145:0.21268024 146:0.11598813 147:0.049406277 148:0.010390161 149:0.0048770144 150:0.00063613232 151:0.041348601 152:0.061280746 153:0.1653944 154:0.20547074 155:0.18447837 156:0.15415606 157:0.11174724 158:0.050466497 159:0.021628499 160:0.004028838 161:0.031382528 162:0.060856658 163:0.26653944 164:0.18214589 165:0.21268024 166:0.16115352 167:0.049830365 168:0.028625954 169:0.0059372349 170:0.00084817642 171:0.044105174 172:0.17366412 173:0.17917727 174:0.20907549 175:0.21268024 176:0.11598813 177:0.049406277 178:0.010390161 179:0.0048770144 180:0.00063613232 181:0.057039864 182:0.10390161 183:0.085665818 184:0.10920271 185:0.14122137 186:0.17366412 187:0.15012723 188:0.1062341 189:0.064249364 190:0.0086938083 191:0.098388465 192:0.11895674 193:0.11005089 194:0.11407973 195:0.10326548 196:0.18235793 197:0.13019508 198:0.097540288 199:0.038167939 200:0.0069974555 201:0.10877863 202:0.12022901 203:0.11853265 204:0.11132316 205:0.10793045 206:0.16306192 207:0.13528414 208:0.09245123 209:0.035411366 210:0.0069974555 211:0.057039864 212:0.10390161 213:0.085665818 214:0.10920271 215:0.14122137 216:0.17366412 217:0.15012723 218:0.1062341 219:0.064249364 220:0.0086938083 221:0.098388465 222:0.11895674 223:0.11005089 224:0.11407973 225:0.10326548 226:0.18235793 227:0.13019508 228:0.097540288 229:0.038167939 230:0.0069974555 231:0.10877863 232:0.12022901 233:0.11853265 234:0.11132316 235:0.10793045 236:0.16306192 237:0.13528414 238:0.09245123 239:0.035411366 240:0.0069974555 241:0.026505513 242:0.089058524 243:0.13210348 244:0.1278626 245:0.091603053 246:0.1509754 247:0.21946565 248:0.1096268 249:0.032442748 250:0.020356234 251:0.066793893 252:0.18447837 253:0.12913486 254:0.090118745 255:0.10941476 256:0.16709075 257:0.13401187 258:0.074427481 259:0.027777778 260:0.016751484 261:0.086938083 262:0.19783715 263:0.12298558 264:0.096904156 265:0.11301951 266:0.16645462 267:0.11598813 268:0.059372349 269:0.023536896 270:0.016963528 271:0.026505513 272:0.089058524 273:0.13210348 274:0.1278626 275:0.091603053 276:0.1509754 277:0.21946565 278:0.1096268 279:0.032442748 280:0.020356234 281:0.066793893 282:0.18447837 283:0.12913486 284:0.090118745 285:0.10941476 286:0.16709075 287:0.13401187 288:0.074427481 289:0.027777778 290:0.016751484 291:0.086938083 292:0.19783715 293:0.12298558 294:0.096904156 295:0.11301951 296:0.16645462 297:0.11598813 298:0.059372349 299:0.023536896 300:0.016963528 301:0.086513995 302:0.088422392 303:0.21734521 304:0.17154368 305:0.08884648 306:0.078244275 307:0.11598813 308:0.11259542 309:0.035199321 310:0.0053011026 311:0.10644614 312:0.20504665 313:0.21543681 314:0.10368957 315:0.062553011 316:0.099660729 317:0.1115352 318:0.078032231 319:0.015055131 320:0.0025445293 321:0.1331637 322:0.19783715 323:0.23515691 324:0.078456319 325:0.070398643 326:0.094147583 327:0.11704835 328:0.057888041 329:0.013146735 330:0.0027565734 331:0.086513995 332:0.088422392 333:0.21734521 334:0.17154368 335:0.08884648 336:0.078244275 337:0.11598813 338:0.11259542 339:0.035199321 340:0.0053011026 341:0.10644614 342:0.20504665 343:0.21543681 344:0.10368957 345:0.062553011 346:0.099660729 347:0.1115352 348:0.078032231 349:0.015055131 350:0.0025445293 351:0.1331637 352:0.19783715 353:0.23515691 354:0.078456319 355:0.070398643 356:0.094147583 357:0.11704835 358:0.057888041 359:0.013146735 360:0.0027565734 
0.6094404671937774 1:0.00021533161 2:0.48277347 3:0.38608958 4:0.077734711 5:0.01873385 6:0.01873385 7:0.0096899225 8:0.0043066322 9:0.00086132644 10:0.00086132644 11:0.00021533161 12:0.624677 13:0.3079242 14:0.0333764 15:0.02002584 16:0.0096899225 17:0.0032299742 18:0.00043066322 20:0.00043066322 21:0.00043066322 22:0.91731266 23:0.05211025 24:0.022179156 25:0.0055986219 26:0.0010766581 27:0.00086132644 28:0.00021533161 30:0.00021533161 31:0.00021533161 32:0.48277347 33:0.38608958 34:0.077734711 35:0.01873385 36:0.01873385 37:0.0096899225 38:0.0043066322 39:0.00086132644 40:0.00086132644 41:0.00021533161 42:0.624677 43:0.3079242 44:0.0333764 45:0.02002584 46:0.0096899225 47:0.0032299742 48:0.00043066322 50:0.00043066322 51:0.00043066322 52:0.91731266 53:0.05211025 54:0.022179156 55:0.0055986219 56:0.0010766581 57:0.00086132644 58:0.00021533161 60:0.00021533161 61:0.0030146425 62:0.0079672696 63:0.024547804 64:0.16903531 65:0.24397071 66:0.086778639 67:0.23621878 68:0.0023686477 69:0.13975022 70:0.086347976 71:0.0034453058 72:0.018949182 73:0.17011197 74:0.23040482 75:0.13888889 76:0.12704565 77:0.17248062 78:0.069767442 79:0.025839793 80:0.043066322 81:0.044358312 82:0.10055986 83:0.20650301 84:0.31933678 85:0.12704565 86:0.08957795 87:0.052540913 88:0.011627907 89:0.025839793 90:0.022609819 91:0.0030146425 92:0.0079672696 93:0.024547804 94:0.16903531 95:0.24397071 96:0.086778639 97:0.23621878 98:0.0023686477 99:0.13975022 100:0.086347976 101:0.0034453058 102:0.018949182 103:0.17011197 104:0.23040482 105:0.13888889 106:0.12704565 107:0.17248062 108:0.069767442 109:0.025839793 110:0.043066322 111:0.044358312 112:0.10055986 113:0.20650301 114:0.31933678 115:0.12704565 116:0.08957795 117:0.052540913 118:0.011627907 119:0.025839793 120:0.022609819 121:0.049310939 122:0.00021533161 123:0.05878553 124:0.048234281 125:0.33419466 126:0.30577089 127:0.11800172 128:0.072782084 129:0.010551249 130:0.0021533161 131:0.028423773 132:0.026916451 133:0.00043066322 134:0.32708872 135:0.21167097 136:0.20241171 137:0.093238587 138:0.060508183 139:0.049095607 140:0.00021533161 141:0.00021533161 142:0.00043066322 143:0.028423773 144:0.029931094 145:0.0043066322 146:0.33979328 147:0.24784668 148:0.24440138 149:0.080749354 150:0.023901809 151:0.049310939 152:0.00021533161 153:0.05878553 154:0.048234281 155:0.33419466 156:0.30577089 157:0.11800172 158:0.072782084 159:0.010551249 160:0.0021533161 161:0.028423773 162:0.026916451 163:0.00043066322 164:0.32708872 165:0.21167097 166:0.20241171 167:0.093238587 168:0.060508183 169:0.049095607 170:0.00021533161 171:0.00021533161 172:0.00043066322 173:0.028423773 174:0.029931094 175:0.0043066322 176:0.33979328 177:0.24784668 178:0.24440138 179:0.080749354 180:0.023901809 181:0.14836348 182:0.06287683 183:0.1505168 184:0.058354866 185:0.12553833 186:0.10400517 187:0.16946598 188:0.11347976 189:0.060077519 190:0.0073212748 191:0.12962963 192:0.21899225 193:0.018518519 194:0.082472007 195:0.1205857 196:0.095176572 197:0.13415159 198:0.070198105 199:0.1083118 200:0.021963824 201:0.13479759 202:0.20650301 203:0.041774332 204:0.060077519 205:0.12919897 206:0.094099914 207:0.12144703 208:0.1083118 209:0.074720069 210:0.029069767 211:0.14836348 212:0.06287683 213:0.1505168 214:0.058354866 215:0.12553833 216:0.10400517 217:0.16946598 218:0.11347976 219:0.060077519 220:0.0073212748 221:0.12962963 222:0.21899225 223:0.018518519 224:0.082472007 225:0.1205857 226:0.095176572 227:0.13415159 228:0.070198105 229:0.1083118 230:0.021963824 231:0.13479759 232:0.20650301 233:0.041774332 234:0.060077519 235:0.12919897 236:0.094099914 237:0.12144703 238:0.1083118 239:0.074720069 240:0.029069767 241:0.015288544 242:0.36498708 243:0.098191214 244:0.048018949 245:0.19315245 246:0.11175711 247:0.080103359 248:0.065245478 249:0.017872524 250:0.0053832903 251:0.26313523 252:0.14298019 253:0.066106804 254:0.13522825 255:0.11477175 256:0.10874246 257:0.091300603 258:0.05081826 259:0.017657192 260:0.0092592593 261:0.22674419 262:0.23901809 263:0.13867356 264:0.1042205 265:0.11864772 266:0.090654608 267:0.051679587 268:0.021102498 269:0.0086132644 270:0.00064599483 271:0.015288544 272:0.36498708 273:0.098191214 274:0.048018949 275:0.19315245 276:0.11175711 277:0.080103359 278:0.065245478 279:0.017872524 280:0.0053832903 281:0.26313523 282:0.14298019 283:0.066106804 284:0.13522825 285:0.11477175 286:0.10874246 287:0.091300603 288:0.05081826 289:0.017657192 290:0.0092592593 291:0.22674419 292:0.23901809 293:0.13867356 294:0.1042205 295:0.11864772 296:0.090654608 297:0.051679587 298:0.021102498 299:0.0086132644 300:0.00064599483 301:0.10163652 302:0.21576227 303:0.38608958 304:0.032730405 305:0.16838932 306:0.070198105 307:0.012919897 308:0.010981912 309:0.00064599483 310:0.00064599483 311:0.24806202 312:0.27239449 313:0.15719208 314:0.056847545 315:0.090223945 316:0.16774332 317:0.0051679587 318:0.00086132644 319:0.00086132644 320:0.00064599483 321:0.29026701 322:0.32687339 323:0.10766581 324:0.12166236 325:0.085486649 326:0.06416882 327:0.0021533161 328:0.00064599483 329:0.00064599483 330:0.00043066322 331:0.10163652 332:0.21576227 333:0.38608958 334:0.032730405 335:0.16838932 336:0.070198105 337:0.012919897 338:0.010981912 339:0.00064599483 340:0.00064599483 341:0.24806202 342:0.27239449 343:0.15719208 344:0.056847545 345:0.090223945 346:0.16774332 347:0.0051679587 348:0.00086132644 349:0.00086132644 350:0.00064599483 351:0.29026701 352:0.32687339 353:0.10766581 354:0.12166236 355:0.085486649 356:0.06416882 357:0.0021533161 358:0.00064599483 359:0.00064599483 360:0.00043066322 
0.78375925299741 1:0.47374132 2:0.45225694 3:0.03125 4:0.024305556 5:0.0095486111 6:0.0054253472 7:0.0026041667 8:0.00043402778 9:0.00021701389 10:0.00021701389 11:0.38867188 12:0.47330729 13:0.086588542 14:0.023871528 15:0.015625 16:0.0078125 17:0.0028211806 18:0.00086805556 19:0.00021701389 20:0.00021701389 21:0.00021701389 22:0.61263021 23:0.32118056 24:0.037760417 25:0.014322917 26:0.0078125 27:0.0043402778 28:0.00086805556 29:0.00065104167 30:0.00021701389 31:0.47374132 32:0.45225694 33:0.03125 34:0.024305556 35:0.0095486111 36:0.0054253472 37:0.0026041667 38:0.00043402778 39:0.00021701389 40:0.00021701389 41:0.38867188 42:0.47330729 43:0.086588542 44:0.023871528 45:0.015625 46:0.0078125 47:0.0028211806 48:0.00086805556 49:0.00021701389 50:0.00021701389 51:0.00021701389 52:0.61263021 53:0.32118056 54:0.037760417 55:0.014322917 56:0.0078125 57:0.0043402778 58:0.00086805556 59:0.00065104167 60:0.00021701389 61:0.0023871528 62:0.027560764 63:0.030164931 64:0.27322049 65:0.094835069 66:0.42404514 67:0.0546875 68:0.045789931 69:0.027560764 70:0.019748264 71:0.0023871528 72:0.0082465278 73:0.18164062 74:0.22677951 75:0.11241319 76:0.34461806 77:0.049913194 78:0.017578125 79:0.034505208 80:0.021918403 81:0.03515625 82:0.067491319 83:0.24479167 84:0.39019097 85:0.1030816 86:0.065755208 87:0.04296875 88:0.0084635417 89:0.029296875 90:0.012803819 91:0.0023871528 92:0.027560764 93:0.030164931 94:0.27322049 95:0.094835069 96:0.42404514 97:0.0546875 98:0.045789931 99:0.027560764 100:0.019748264 101:0.0023871528 102:0.0082465278 103:0.18164062 104:0.22677951 105:0.11241319 106:0.34461806 107:0.049913194 108:0.017578125 109:0.034505208 110:0.021918403 111:0.03515625 112:0.067491319 113:0.24479167 114:0.39019097 115:0.1030816 116:0.065755208 117:0.04296875 118:0.0084635417 119:0.029296875 120:0.012803819 121:0.044487847 122:0.0021701389 123:0.044704861 124:0.039713542 125:0.26302083 126:0.34266493 127:0.17556424 128:0.071614583 129:0.0071614583 130:0.0088975694 131:0.024088542 132:0.028428819 133:0.00021701389 134:0.34830729 135:0.1781684 136:0.21527778 137:0.088541667 138:0.052517361 139:0.063802083 140:0.00065104167 141:0.024305556 142:0.038628472 143:0.009765625 144:0.36111111 145:0.21158854 146:0.26605903 147:0.075737847 148:0.0088975694 149:0.0032552083 150:0.00065104167 151:0.044487847 152:0.0021701389 153:0.044704861 154:0.039713542 155:0.26302083 156:0.34266493 157:0.17556424 158:0.071614583 159:0.0071614583 160:0.0088975694 161:0.024088542 162:0.028428819 163:0.00021701389 164:0.34830729 165:0.1781684 166:0.21527778 167:0.088541667 168:0.052517361 169:0.063802083 170:0.00065104167 171:0.024305556 172:0.038628472 173:0.009765625 174:0.36111111 175:0.21158854 176:0.26605903 177:0.075737847 178:0.0088975694 179:0.0032552083 180:0.00065104167 181:0.089409722 182:0.089409722 183:0.18988715 184:0.044053819 185:0.12934028 186:0.14887153 187:0.16623264 188:0.11762153 189:0.020833333 190:0.0043402778 191:0.16883681 192:0.19487847 193:0.046440972 194:0.13085938 195:0.090711806 196:0.16080729 197:0.098958333 198:0.092664931 199:0.011501736 200:0.0043402778 201:0.25520833 202:0.11436632 203:0.067491319 204:0.10394965 205:0.095920139 206:0.17990451 207:0.050130208 208:0.11263021 209:0.016059028 210:0.0043402778 211:0.089409722 212:0.089409722 213:0.18988715 214:0.044053819 215:0.12934028 216:0.14887153 217:0.16623264 218:0.11762153 219:0.020833333 220:0.0043402778 221:0.16883681 222:0.19487847 223:0.046440972 224:0.13085938 225:0.090711806 226:0.16080729 227:0.098958333 228:0.092664931 229:0.011501736 230:0.0043402778 231:0.25520833 232:0.11436632 233:0.067491319 234:0.10394965 235:0.095920139 236:0.17990451 237:0.050130208 238:0.11263021 239:0.016059028 240:0.0043402778 241:0.10872396 242:0.035373264 243:0.31119792 244:0.042534722 245:0.1812066 246:0.099826389 247:0.09765625 248:0.074001736 249:0.043836806 250:0.0056423611 251:0.23632812 252:0.18402778 253:0.0703125 254:0.125 255:0.11132812 256:0.10243056 257:0.079861111 258:0.072699653 259:0.010199653 260:0.0078125 261:0.27473958 262:0.21419271 263:0.050564236 264:0.12065972 265:0.11631944 266:0.097873264 267:0.072916667 268:0.034722222 269:0.0091145833 270:0.0088975694 271:0.10872396 272:0.035373264 273:0.31119792 274:0.042534722 275:0.1812066 276:0.099826389 277:0.09765625 278:0.074001736 279:0.043836806 280:0.0056423611 281:0.23632812 282:0.18402778 283:0.0703125 284:0.125 285:0.11132812 286:0.10243056 287:0.079861111 288:0.072699653 289:0.010199653 290:0.0078125 291:0.27473958 292:0.21419271 293:0.050564236 294:0.12065972 295:0.11631944 296:0.097873264 297:0.072916667 298:0.034722222 299:0.0091145833 300:0.0088975694 301:0.21375868 302:0.21940104 303:0.29340278 304:0.0049913194 305:0.12022569 306:0.089626736 307:0.033420139 308:0.023003472 309:0.001953125 310:0.00021701389 311:0.41666667 312:0.083984375 313:0.15885417 314:0.060763889 315:0.020182292 316:0.092013889 317:0.067274306 318:0.096788194 319:0.0032552083 320:0.00021701389 321:0.061414931 322:0.52604167 323:0.080295139 324:0.060763889 325:0.070746528 326:0.11219618 327:0.087673611 328:0.00043402778 329:0.00021701389 330:0.00021701389 331:0.21375868 332:0.21940104 333:0.29340278 334:0.0049913194 335:0.12022569 336:0.089626736 337:0.033420139 338:0.023003472 339:0.001953125 340:0.00021701389 341:0.41666667 342:0.083984375 343:0.15885417 344:0.060763889 345:0.020182292 346:0.092013889 347:0.067274306 348:0.096788194 349:0.0032552083 350:0.00021701389 351:0.061414931 352:0.52604167 353:0.080295139 354:0.060763889 355:0.070746528 356:0.11219618 357:0.087673611 358:0.00043402778 359:0.00021701389 360:0.00021701389 
0.4498997360230711 1:0.32881137 2:0.46339363 3:0.16515935 4:0.021533161 5:0.013135228 6:0.0036606374 7:0.0019379845 8:0.0019379845 9:0.00021533161 10:0.00021533161 11:0.5585702 12:0.34582257 13:0.047157623 14:0.02002584 15:0.016580534 16:0.0073212748 17:0.0017226529 18:0.0021533161 19:0.00043066322 20:0.00021533161 21:0.71899225 22:0.21533161 23:0.029715762 24:0.018087855 25:0.0094745909 26:0.0058139535 27:0.0015073213 28:0.00064599483 29:0.00021533161 30:0.00021533161 31:0.32881137 32:0.46339363 33:0.16515935 34:0.021533161 35:0.013135228 36:0.0036606374 37:0.0019379845 38:0.0019379845 39:0.00021533161 40:0.00021533161 41:0.5585702 42:0.34582257 43:0.047157623 44:0.02002584 45:0.016580534 46:0.0073212748 47:0.0017226529 48:0.0021533161 49:0.00043066322 50:0.00021533161 51:0.71899225 52:0.21533161 53:0.029715762 54:0.018087855 55:0.0094745909 56:0.0058139535 57:0.0015073213 58:0.00064599483 59:0.00021533161 60:0.00021533161 61:0.0068906115 63:0.02411714 64:0.034453058 65:0.17140396 66:0.11627907 67:0.40826873 68:0.058570198 69:0.17721792 70:0.0027993109 71:0.010335917 73:0.013781223 74:0.36520241 75:0.19896641 76:0.096468562 77:0.26270457 78:0.019810508 79:0.029931094 80:0.0027993109 81:0.01205857 82:0.0051679587 83:0.074074074 84:0.59431525 85:0.18001723 86:0.039621016 87:0.055986219 88:0.019810508 89:0.016149871 90:0.0027993109 91:0.0068906115 93:0.02411714 94:0.034453058 95:0.17140396 96:0.11627907 97:0.40826873 98:0.058570198 99:0.17721792 100:0.0027993109 101:0.010335917 103:0.013781223 104:0.36520241 105:0.19896641 106:0.096468562 107:0.26270457 108:0.019810508 109:0.029931094 110:0.0027993109 111:0.01205857 112:0.0051679587 113:0.074074074 114:0.59431525 115:0.18001723 116:0.039621016 117:0.055986219 118:0.019810508 119:0.016149871 120:0.0027993109 121:0.019595177 122:0.028854436 124:0.065891473 125:0.034022394 126:0.24720069 127:0.16838932 128:0.17614126 129:0.21124031 130:0.048664944 131:0.019595177 132:0.046942291 134:0.3535745 135:0.20262705 136:0.17678725 137:0.13652024 138:0.026055125 139:0.036175711 140:0.0017226529 141:0.019595177 142:0.048664944 143:0.0034453058 144:0.35701981 146:0.21813092 147:0.207795 148:0.13479759 149:0.008828596 150:0.0017226529 151:0.019595177 152:0.028854436 154:0.065891473 155:0.034022394 156:0.24720069 157:0.16838932 158:0.17614126 159:0.21124031 160:0.048664944 161:0.019595177 162:0.046942291 164:0.3535745 165:0.20262705 166:0.17678725 167:0.13652024 168:0.026055125 169:0.036175711 170:0.0017226529 171:0.019595177 172:0.048664944 173:0.0034453058 174:0.35701981 176:0.21813092 177:0.207795 178:0.13479759 179:0.008828596 180:0.0017226529 181:0.13565891 182:0.17269595 183:0.07622739 184:0.063307494 185:0.10120586 186:0.18819983 187:0.11455642 188:0.12080103 189:0.02540913 190:0.0019379845 191:0.11477175 192:0.2418174 193:0.022394488 194:0.10766581 195:0.10443583 196:0.14405685 197:0.124677 198:0.10745047 199:0.028208441 200:0.0045219638 201:0.11369509 202:0.2418174 203:0.05878553 204:0.074289406 205:0.10529716 206:0.15740741 207:0.10938846 208:0.099267873 209:0.03875969 210:0.0012919897 211:0.13565891 212:0.17269595 213:0.07622739 214:0.063307494 215:0.10120586 216:0.18819983 217:0.11455642 218:0.12080103 219:0.02540913 220:0.0019379845 221:0.11477175 222:0.2418174 223:0.022394488 224:0.10766581 225:0.10443583 226:0.14405685 227:0.124677 228:0.10745047 229:0.028208441 230:0.0045219638 231:0.11369509 232:0.2418174 233:0.05878553 234:0.074289406 235:0.10529716 236:0.15740741 237:0.10938846 238:0.099267873 239:0.03875969 240:0.0012919897 241:0.099913867 242:0.374677 243:0.068260121 244:0.041559001 245:0.13845823 246:0.092807924 247:0.12575366 248:0.035529716 249:0.016795866 250:0.0062446167 251:0.35572782 252:0.1035745 253:0.083118002 254:0.1171404 255:0.12661499 256:0.083763997 257:0.067183463 258:0.044788975 259:0.0083979328 260:0.0096899225 261:0.17829457 262:0.30878553 263:0.055340224 264:0.1791559 265:0.090008613 266:0.058354866 267:0.091085271 268:0.020887166 269:0.0083979328 270:0.0096899225 271:0.099913867 272:0.374677 273:0.068260121 274:0.041559001 275:0.13845823 276:0.092807924 277:0.12575366 278:0.035529716 279:0.016795866 280:0.0062446167 281:0.35572782 282:0.1035745 283:0.083118002 284:0.1171404 285:0.12661499 286:0.083763997 287:0.067183463 288:0.044788975 289:0.0083979328 290:0.0096899225 291:0.17829457 292:0.30878553 293:0.055340224 294:0.1791559 295:0.090008613 296:0.058354866 297:0.091085271 298:0.020887166 299:0.0083979328 300:0.0096899225 301:0.21274763 302:0.31890612 303:0.20585702 305:0.075150732 306:0.087855297 307:0.029285099 308:0.069767442 309:0.00021533161 310:0.00021533161 311:0.44035314 312:0.14664083 313:0.1294143 314:0.034668389 315:0.032299742 316:0.18906115 317:0.026485788 318:0.00064599483 319:0.00021533161 320:0.00021533161 321:0.29521964 322:0.34259259 323:0.039836348 324:0.077734711 325:0.059431525 326:0.1416882 327:0.043066322 329:0.00021533161 330:0.00021533161 331:0.21274763 332:0.31890612 333:0.20585702 335:0.075150732 336:0.087855297 337:0.029285099 338:0.069767442 339:0.00021533161 340:0.00021533161 341:0.44035314 342:0.14664083 343:0.1294143 344:0.034668389 345:0.032299742 346:0.18906115 347:0.026485788 348:0.00064599483 349:0.00021533161 350:0.00021533161 351:0.29521964 352:0.34259259 353:0.039836348 354:0.077734711 355:0.059431525 356:0.1416882 357:0.043066322 359:0.00021533161 360:0.00021533161 
0.2310470997092577 1:0.40180879 2:0.47006891 3:0.087424634 4:0.023040482 5:0.010120586 6:0.0040913006 7:0.0017226529 8:0.0010766581 9:0.00021533161 10:0.00043066322 11:0.25107666 12:0.53552972 13:0.15030146 14:0.032730405 15:0.01335056 16:0.0099052541 17:0.0058139535 18:0.00064599483 19:0.00021533161 20:0.00043066322 21:0.61972438 22:0.30641688 23:0.031653747 24:0.022394488 25:0.012489233 26:0.0030146425 27:0.0034453058 28:0.00021533161 29:0.00021533161 30:0.00043066322 31:0.40180879 32:0.47006891 33:0.087424634 34:0.023040482 35:0.010120586 36:0.0040913006 37:0.0017226529 38:0.0010766581 39:0.00021533161 40:0.00043066322 41:0.25107666 42:0.53552972 43:0.15030146 44:0.032730405 45:0.01335056 46:0.0099052541 47:0.0058139535 48:0.00064599483 49:0.00021533161 50:0.00043066322 51:0.61972438 52:0.30641688 53:0.031653747 54:0.022394488 55:0.012489233 56:0.0030146425 57:0.0034453058 58:0.00021533161 59:0.00021533161 60:0.00043066322 61:0.0045219638 63:0.027993109 64:0.036606374 65:0.16968131 66:0.092377261 67:0.44918174 68:0.049741602 69:0.16709733 70:0.0027993109 71:0.0051679587 73:0.016580534 74:0.39125754 75:0.13630491 76:0.11907838 77:0.27670112 78:0.021317829 79:0.03079242 80:0.0027993109 81:0.0068906115 82:0.014857881 83:0.069982773 84:0.62661499 85:0.14793282 86:0.035314384 87:0.053832903 88:0.021317829 89:0.020456503 90:0.0027993109 91:0.0045219638 93:0.027993109 94:0.036606374 95:0.16968131 96:0.092377261 97:0.44918174 98:0.049741602 99:0.16709733 100:0.0027993109 101:0.0051679587 103:0.016580534 104:0.39125754 105:0.13630491 106:0.11907838 107:0.27670112 108:0.021317829 109:0.03079242 110:0.0027993109 111:0.0068906115 112:0.014857881 113:0.069982773 114:0.62661499 115:0.14793282 116:0.035314384 117:0.053832903 118:0.021317829 119:0.020456503 120:0.0027993109 121:0.010551249 122:0.02670112 123:0.0012919897 124:0.067183463 125:0.032945736 126:0.30534022 127:0.1498708 128:0.2002584 129:0.15353144 130:0.052325581 131:0.011843239 132:0.050172265 134:0.35185185 136:0.17937123 137:0.19918174 138:0.13415159 139:0.024763135 140:0.048664944 141:0.011843239 142:0.050602929 143:0.0043066322 145:0.35788114 146:0.20047373 148:0.24354005 149:0.12812231 150:0.0032299742 151:0.010551249 152:0.02670112 153:0.0012919897 154:0.067183463 155:0.032945736 156:0.30534022 157:0.1498708 158:0.2002584 159:0.15353144 160:0.052325581 161:0.011843239 162:0.050172265 164:0.35185185 166:0.17937123 167:0.19918174 168:0.13415159 169:0.024763135 170:0.048664944 171:0.011843239 172:0.050602929 173:0.0043066322 175:0.35788114 176:0.20047373 178:0.24354005 179:0.12812231 180:0.0032299742 181:0.13329027 182:0.18604651 183:0.062661499 184:0.065030146 185:0.11003445 186:0.19422911 187:0.10185185 188:0.11434109 189:0.029069767 190:0.0034453058 191:0.10874246 192:0.24375538 193:0.02670112 194:0.10981912 195:0.10960379 196:0.15030146 197:0.1083118 198:0.11132644 199:0.02670112 200:0.0047372954 201:0.13199828 202:0.22049957 203:0.059431525 204:0.078596038 205:0.11003445 206:0.16946598 207:0.086778639 208:0.10206718 209:0.038544358 210:0.0025839793 211:0.13329027 212:0.18604651 213:0.062661499 214:0.065030146 215:0.11003445 216:0.19422911 217:0.10185185 218:0.11434109 219:0.029069767 220:0.0034453058 221:0.10874246 222:0.24375538 223:0.02670112 224:0.10981912 225:0.10960379 226:0.15030146 227:0.1083118 228:0.11132644 229:0.02670112 230:0.0047372954 231:0.13199828 232:0.22049957 233:0.059431525 234:0.078596038 235:0.11003445 236:0.16946598 237:0.086778639 238:0.10206718 239:0.038544358 240:0.0025839793 241:0.072566753 242:0.36563307 243:0.10163652 244:0.020241171 245:0.14556417 246:0.099913867 247:0.11369509 248:0.043712317 249:0.024547804 250:0.012489233 251:0.34797588 252:0.1089578 253:0.077950043 254:0.11003445 255:0.12037037 256:0.095822567 257:0.075581395 258:0.043712317 259:0.008828596 260:0.010766581 261:0.17571059 262:0.30663221 263:0.052540913 264:0.166882 265:0.099913867 266:0.059431525 267:0.099483204 268:0.019810508 269:0.008828596 270:0.010766581 271:0.072566753 272:0.36563307 273:0.10163652 274:0.020241171 275:0.14556417 276:0.099913867 277:0.11369509 278:0.043712317 279:0.024547804 280:0.012489233 281:0.34797588 282:0.1089578 283:0.077950043 284:0.11003445 285:0.12037037 286:0.095822567 287:0.075581395 288:0.043712317 289:0.008828596 290:0.010766581 291:0.17571059 292:0.30663221 293:0.052540913 294:0.166882 295:0.099913867 296:0.059431525 297:0.099483204 298:0.019810508 299:0.008828596 300:0.010766581 301:0.25796727 302:0.24655469 303:0.22028424 304:0.034022394 305:0.14018088 306:0.077088717 307:0.021963824 308:0.00086132644 309:0.00064599483 310:0.00043066322 311:0.51851852 312:0.11024978 313:0.096037898 314:0.045865633 315:0.19078381 316:0.035960379 317:0.00064599483 318:0.00086132644 319:0.00064599483 320:0.00043066322 321:0.28380706 322:0.32385874 323:0.080534022 324:0.11864772 325:0.15116279 326:0.039405685 327:0.00064599483 328:0.00086132644 329:0.00064599483 330:0.00043066322 331:0.25796727 332:0.24655469 333:0.22028424 334:0.034022394 335:0.14018088 336:0.077088717 337:0.021963824 338:0.00086132644 339:0.00064599483 340:0.00043066322 341:0.51851852 342:0.11024978 343:0.096037898 344:0.045865633 345:0.19078381 346:0.035960379 347:0.00064599483 348:0.00086132644 349:0.00064599483 350:0.00043066322 351:0.28380706 352:0.32385874 353:0.080534022 354:0.11864772 355:0.15116279 356:0.039405685 357:0.00064599483 358:0.00086132644 359:0.00064599483 360:0.00043066322 
0.444954179124203 1:0.021102498 2:0.3835056 3:0.28725237 4:0.24074074 5:0.038975022 6:0.015719208 7:0.0083979328 8:0.0019379845 9:0.0017226529 10:0.00064599483 11:0.072566753 12:0.45693368 13:0.34043928 14:0.092377261 15:0.0099052541 16:0.014857881 17:0.0073212748 18:0.0023686477 19:0.0021533161 20:0.0010766581 21:0.13738157 22:0.5333764 23:0.27260982 24:0.021748493 25:0.014427218 26:0.011197244 27:0.0053832903 28:0.0015073213 29:0.0012919897 30:0.0010766581 31:0.021102498 32:0.3835056 33:0.28725237 34:0.24074074 35:0.038975022 36:0.015719208 37:0.0083979328 38:0.0019379845 39:0.0017226529 40:0.00064599483 41:0.072566753 42:0.45693368 43:0.34043928 44:0.092377261 45:0.0099052541 46:0.014857881 47:0.0073212748 48:0.0023686477 49:0.0021533161 50:0.0010766581 51:0.13738157 52:0.5333764 53:0.27260982 54:0.021748493 55:0.014427218 56:0.011197244 57:0.0053832903 58:0.0015073213 59:0.0012919897 60:0.0010766581 61:0.0099052541 62:0.021963824 63:0.10529716 64:0.063953488 65:0.12833764 66:0.25753661 67:0.22222222 68:0.14298019 69:0.046080965 70:0.0017226529 71:0.0099052541 73:0.022394488 74:0.11778639 75:0.32041344 76:0.073643411 77:0.15740741 78:0.15611542 79:0.091731266 80:0.050602929 81:0.0099052541 82:0.0012919897 83:0.042850991 84:0.21339363 85:0.44939707 86:0.14491817 87:0.061800172 88:0.031007752 90:0.04543497 91:0.0099052541 92:0.021963824 93:0.10529716 94:0.063953488 95:0.12833764 96:0.25753661 97:0.22222222 98:0.14298019 99:0.046080965 100:0.0017226529 101:0.0099052541 103:0.022394488 104:0.11778639 105:0.32041344 106:0.073643411 107:0.15740741 108:0.15611542 109:0.091731266 110:0.050602929 111:0.0099052541 112:0.0012919897 113:0.042850991 114:0.21339363 115:0.44939707 116:0.14491817 117:0.061800172 118:0.031007752 120:0.04543497 121:0.037683032 122:0.049956934 123:0.0034453058 124:0.036175711 125:0.054694229 126:0.56309216 127:0.16903531 128:0.029500431 129:0.043281654 130:0.013135228 131:0.012704565 132:0.031653747 133:0.059000861 135:0.35378984 136:0.3044789 137:0.19982773 138:0.021317829 139:0.013781223 140:0.0034453058 141:0.012704565 142:0.031653747 143:0.068906115 144:0.02002584 146:0.36950904 147:0.30318691 148:0.1832472 149:0.0055986219 150:0.0051679587 151:0.037683032 152:0.049956934 153:0.0034453058 154:0.036175711 155:0.054694229 156:0.56309216 157:0.16903531 158:0.029500431 159:0.043281654 160:0.013135228 161:0.012704565 162:0.031653747 163:0.059000861 165:0.35378984 166:0.3044789 167:0.19982773 168:0.021317829 169:0.013781223 170:0.0034453058 171:0.012704565 172:0.031653747 173:0.068906115 174:0.02002584 176:0.36950904 177:0.30318691 178:0.1832472 179:0.0055986219 180:0.0051679587 181:0.093238587 182:0.15568475 183:0.15159345 184:0.094530577 185:0.13802756 186:0.13307494 187:0.080964686 188:0.11369509 189:0.033591731 190:0.0055986219 191:0.13458226 192:0.11412575 193:0.1457795 194:0.09496124 195:0.1369509 196:0.1416882 197:0.14556417 198:0.060723514 199:0.015503876 200:0.010120586 201:0.16472868 202:0.17764858 203:0.078165375 204:0.061584841 205:0.14814815 206:0.14298019 207:0.12596899 208:0.074720069 209:0.02002584 210:0.0060292851 211:0.093238587 212:0.15568475 213:0.15159345 214:0.094530577 215:0.13802756 216:0.13307494 217:0.080964686 218:0.11369509 219:0.033591731 220:0.0055986219 221:0.13458226 222:0.11412575 223:0.1457795 224:0.09496124 225:0.1369509 226:0.1416882 227:0.14556417 228:0.060723514 229:0.015503876 230:0.010120586 231:0.16472868 232:0.17764858 233:0.078165375 234:0.061584841 235:0.14814815 236:0.14298019 237:0.12596899 238:0.074720069 239:0.02002584 240:0.0060292851 241:0.05081826 242:0.44444444 243:0.084625323 244:0.053402239 245:0.09625323 246:0.094099914 247:0.11175711 248:0.031653747 249:0.021748493 250:0.011197244 251:0.37962963 252:0.083763997 253:0.051679587 254:0.15697674 255:0.093238587 256:0.057924203 257:0.11929371 258:0.028423773 259:0.0092592593 260:0.019810508 261:0.27842377 262:0.23664944 263:0.047803618 264:0.10917313 265:0.093238587 266:0.10378984 267:0.077304048 268:0.026485788 269:0.0081826012 270:0.018949182 271:0.05081826 272:0.44444444 273:0.084625323 274:0.053402239 275:0.09625323 276:0.094099914 277:0.11175711 278:0.031653747 279:0.021748493 280:0.011197244 281:0.37962963 282:0.083763997 283:0.051679587 284:0.15697674 285:0.093238587 286:0.057924203 287:0.11929371 288:0.028423773 289:0.0092592593 290:0.019810508 291:0.27842377 292:0.23664944 293:0.047803618 294:0.10917313 295:0.093238587 296:0.10378984 297:0.077304048 298:0.026485788 299:0.0081826012 300:0.018949182 301:0.35529716 302:0.20047373 303:0.19918174 304:0.022609819 305:0.051248923 306:0.090223945 307:0.051679587 308:0.028423773 309:0.00043066322 310:0.00043066322 311:0.25021533 312:0.28380706 313:0.12575366 314:0.095176572 315:0.022609819 316:0.1791559 317:0.040267011 318:0.0017226529 319:0.00064599483 320:0.00064599483 321:0.01464255 322:0.542205 323:0.18023256 324:0.039836348 325:0.053832903 326:0.1580534 327:0.0099052541 328:0.00043066322 329:0.00043066322 330:0.00043066322 331:0.35529716 332:0.20047373 333:0.19918174 334:0.022609819 335:0.051248923 336:0.090223945 337:0.051679587 338:0.028423773 339:0.00043066322 340:0.00043066322 341:0.25021533 342:0.28380706 343:0.12575366 344:0.095176572 345:0.022609819 346:0.1791559 347:0.040267011 348:0.0017226529 349:0.00064599483 350:0.00064599483 351:0.01464255 352:0.542205 353:0.18023256 354:0.039836348 355:0.053832903 356:0.1580534 357:0.0099052541 358:0.00043066322 359:0.00043066322 360:0.00043066322 
0.03220552698611841 1:0.23293963 2:0.26946632 3:0.23906387 4:0.19816273 5:0.023622047 6:0.014435696 7:0.01071741 8:0.0074365704 9:0.0032808399 10:0.00087489064 11:0.35279965 12:0.23272091 13:0.31408574 14:0.053368329 15:0.026246719 16:0.0045931759 17:0.0085301837 18:0.0045931759 19:0.0019685039 20:0.0010936133 21:0.48490814 22:0.29352581 23:0.14698163 24:0.035433071 25:0.013342082 26:0.009623797 27:0.010061242 28:0.0037182852 29:0.00087489064 30:0.0015310586 31:0.23293963 32:0.26946632 33:0.23906387 34:0.19816273 35:0.023622047 36:0.014435696 37:0.01071741 38:0.0074365704 39:0.0032808399 40:0.00087489064 41:0.35279965 42:0.23272091 43:0.31408574 44:0.053368329 45:0.026246719 46:0.0045931759 47:0.0085301837 48:0.0045931759 49:0.0019685039 50:0.0010936133 51:0.48490814 52:0.29352581 53:0.14698163 54:0.035433071 55:0.013342082 56:0.009623797 57:0.010061242 58:0.0037182852 59:0.00087489064 60:0.0015310586 61:0.010498688 62:0.015966754 63:0.018372703 64:0.061242345 65:0.16994751 66:0.23906387 67:0.24737533 68:0.10914261 69:0.086832896 70:0.041557305 71:0.01399825 73:0.015091864 74:0.11657918 75:0.32895888 76:0.20013123 77:0.13845144 78:0.10345582 79:0.052712161 80:0.030621172 81:0.01399825 82:0.0010936133 83:0.027340332 84:0.19313211 85:0.43175853 86:0.1515748 87:0.063210849 88:0.047900262 89:0.010498688 90:0.059492563 91:0.010498688 92:0.015966754 93:0.018372703 94:0.061242345 95:0.16994751 96:0.23906387 97:0.24737533 98:0.10914261 99:0.086832896 100:0.041557305 101:0.01399825 103:0.015091864 104:0.11657918 105:0.32895888 106:0.20013123 107:0.13845144 108:0.10345582 109:0.052712161 110:0.030621172 111:0.01399825 112:0.0010936133 113:0.027340332 114:0.19313211 115:0.43175853 116:0.1515748 117:0.063210849 118:0.047900262 119:0.010498688 120:0.059492563 121:0.029308836 122:0.036964129 123:0.0041557305 124:0.070866142 125:0.2944007 126:0.2123797 127:0.23512686 128:0.076552931 129:0.021653543 130:0.018591426 131:0.0034995626 132:0.029965004 133:0.056430446 135:0.30052493 136:0.28827647 137:0.22834646 138:0.034339458 139:0.043963255 140:0.014654418 141:0.0034995626 142:0.029965004 143:0.060367454 144:0.010498688 146:0.31649169 147:0.30446194 148:0.23250219 149:0.018372703 150:0.02384077 151:0.029308836 152:0.036964129 153:0.0041557305 154:0.070866142 155:0.2944007 156:0.2123797 157:0.23512686 158:0.076552931 159:0.021653543 160:0.018591426 161:0.0034995626 162:0.029965004 163:0.056430446 165:0.30052493 166:0.28827647 167:0.22834646 168:0.034339458 169:0.043963255 170:0.014654418 171:0.0034995626 172:0.029965004 173:0.060367454 174:0.010498688 176:0.31649169 177:0.30446194 178:0.23250219 179:0.018372703 180:0.02384077 181:0.084645669 182:0.043525809 183:0.19969379 184:0.1544182 185:0.11264217 186:0.13735783 187:0.15966754 188:0.0723972 189:0.029308836 190:0.0063429571 191:0.0067804024 192:0.16469816 193:0.18503937 194:0.11986002 195:0.12139108 196:0.16185477 197:0.15463692 198:0.059273841 199:0.021872266 200:0.0045931759 201:0.021653543 202:0.20975503 203:0.17344707 204:0.062992126 205:0.13210849 206:0.17738408 207:0.1312336 208:0.066272966 209:0.019466317 210:0.0056867892 211:0.084645669 212:0.043525809 213:0.19969379 214:0.1544182 215:0.11264217 216:0.13735783 217:0.15966754 218:0.0723972 219:0.029308836 220:0.0063429571 221:0.0067804024 222:0.16469816 223:0.18503937 224:0.11986002 225:0.12139108 226:0.16185477 227:0.15463692 228:0.059273841 229:0.021872266 230:0.0045931759 231:0.021653543 232:0.20975503 233:0.17344707 234:0.062992126 235:0.13210849 236:0.17738408 237:0.1312336 238:0.066272966 239:0.019466317 240:0.0056867892 241:0.021434821 242:0.44050744 243:0.083114611 244:0.05096238 245:0.12620297 246:0.10454943 247:0.083989501 248:0.054899388 249:0.025590551 250:0.0087489064 251:0.3600175 252:0.079396325 253:0.045056868 254:0.15857393 255:0.079177603 256:0.060586177 257:0.14151356 258:0.034776903 259:0.016841645 260:0.024059493 261:0.21369204 262:0.26727909 263:0.054024497 264:0.10804899 265:0.079177603 266:0.10826772 267:0.096894138 268:0.034339458 269:0.016185477 270:0.022090989 271:0.021434821 272:0.44050744 273:0.083114611 274:0.05096238 275:0.12620297 276:0.10454943 277:0.083989501 278:0.054899388 279:0.025590551 280:0.0087489064 281:0.3600175 282:0.079396325 283:0.045056868 284:0.15857393 285:0.079177603 286:0.060586177 287:0.14151356 288:0.034776903 289:0.016841645 290:0.024059493 291:0.21369204 292:0.26727909 293:0.054024497 294:0.10804899 295:0.079177603 296:0.10826772 297:0.096894138 298:0.034339458 299:0.016185477 300:0.022090989 301:0.38713911 302:0.2287839 303:0.11264217 304:0.083989501 305:0.10104987 306:0.048337708 307:0.034776903 308:0.001312336 309:0.0010936133 310:0.00087489064 311:0.46981627 312:0.17344707 313:0.085301837 314:0.031058618 315:0.1843832 316:0.051618548 317:0.0010936133 318:0.001312336 319:0.0010936133 320:0.00087489064 321:0.30030621 322:0.29811899 323:0.12860892 324:0.086614173 325:0.17257218 326:0.0094050744 327:0.0010936133 328:0.001312336 329:0.0010936133 330:0.00087489064 331:0.38713911 332:0.2287839 333:0.11264217 334:0.083989501 335:0.10104987 336:0.048337708 337:0.034776903 338:0.001312336 339:0.0010936133 340:0.00087489064 341:0.46981627 342:0.17344707 343:0.085301837 344:0.031058618 345:0.1843832 346:0.051618548 347:0.0010936133 348:0.001312336 349:0.0010936133 350:0.00087489064 351:0.30030621 352:0.29811899 353:0.12860892 354:0.086614173 355:0.17257218 356:0.0094050744 357:0.0010936133 358:0.001312336 359:0.0010936133 360:0.00087489064 
0.246543772407654 1:0.031933508 2:0.43853893 3:0.22769029 4:0.21456693 5:0.034776903 6:0.019466317 7:0.011373578 8:0.012029746 9:0.0076552931 10:0.0019685039 11:0.34951881 12:0.23425197 13:0.25896763 14:0.10083115 15:0.024278215 16:0.01071741 17:0.008967629 18:0.009623797 19:0.0017497813 20:0.0010936133 21:0.4903762 22:0.28608924 23:0.1467629 24:0.020997375 25:0.020997375 26:0.0094050744 27:0.012248469 28:0.010279965 29:0.0015310586 30:0.001312336 31:0.031933508 32:0.43853893 33:0.22769029 34:0.21456693 35:0.034776903 36:0.019466317 37:0.011373578 38:0.012029746 39:0.0076552931 40:0.0019685039 41:0.34951881 42:0.23425197 43:0.25896763 44:0.10083115 45:0.024278215 46:0.01071741 47:0.008967629 48:0.009623797 49:0.0017497813 50:0.0010936133 51:0.4903762 52:0.28608924 53:0.1467629 54:0.020997375 55:0.020997375 56:0.0094050744 57:0.012248469 58:0.010279965 59:0.0015310586 60:0.001312336 61:0.011373578 62:0.016185477 63:0.017060367 64:0.073928259 65:0.17541557 66:0.22353456 67:0.23447069 68:0.10958005 69:0.094925634 70:0.043525809 71:0.014873141 73:0.015310586 74:0.11373578 75:0.32480315 76:0.20166229 77:0.13145232 78:0.10629921 79:0.053149606 80:0.038713911 81:0.014873141 82:0.0010936133 83:0.027559055 84:0.18657043 85:0.42213473 86:0.15879265 87:0.064085739 88:0.04768154 89:0.014654418 90:0.062554681 91:0.011373578 92:0.016185477 93:0.017060367 94:0.073928259 95:0.17541557 96:0.22353456 97:0.23447069 98:0.10958005 99:0.094925634 100:0.043525809 101:0.014873141 103:0.015310586 104:0.11373578 105:0.32480315 106:0.20166229 107:0.13145232 108:0.10629921 109:0.053149606 110:0.038713911 111:0.014873141 112:0.0010936133 113:0.027559055 114:0.18657043 115:0.42213473 116:0.15879265 117:0.064085739 118:0.04768154 119:0.014654418 120:0.062554681 121:0.027777778 122:0.040463692 123:0.0034995626 124:0.075459318 125:0.27646544 126:0.20275591 127:0.24496938 128:0.082677165 129:0.021216098 130:0.024715661 131:0.0034995626 132:0.027777778 133:0.05839895 135:0.28412073 136:0.27974628 137:0.23512686 138:0.038713911 139:0.052930884 140:0.019685039 141:0.0034995626 142:0.027777778 143:0.062117235 144:0.010279965 146:0.29965004 147:0.29986877 148:0.24453193 149:0.023184602 150:0.029090114 151:0.027777778 152:0.040463692 153:0.0034995626 154:0.075459318 155:0.27646544 156:0.20275591 157:0.24496938 158:0.082677165 159:0.021216098 160:0.024715661 161:0.0034995626 162:0.027777778 163:0.05839895 165:0.28412073 166:0.27974628 167:0.23512686 168:0.038713911 169:0.052930884 170:0.019685039 171:0.0034995626 172:0.027777778 173:0.062117235 174:0.010279965 176:0.29965004 177:0.29986877 178:0.24453193 179:0.023184602 180:0.029090114 181:0.097550306 182:0.043525809 183:0.2335958 184:0.11286089 185:0.11745407 186:0.1660105 187:0.12510936 188:0.078302712 189:0.019247594 190:0.0063429571 191:0.10192476 192:0.15244969 193:0.14523185 194:0.087489064 195:0.17300962 196:0.14523185 197:0.13145232 198:0.045494313 199:0.014216973 200:0.0034995626 201:0.01727909 202:0.23075241 203:0.1708224 204:0.060367454 205:0.12926509 206:0.17825897 207:0.12489064 208:0.063648294 209:0.017060367 210:0.0076552931 211:0.097550306 212:0.043525809 213:0.2335958 214:0.11286089 215:0.11745407 216:0.1660105 217:0.12510936 218:0.078302712 219:0.019247594 220:0.0063429571 221:0.10192476 222:0.15244969 223:0.14523185 224:0.087489064 225:0.17300962 226:0.14523185 227:0.13145232 228:0.045494313 229:0.014216973 230:0.0034995626 231:0.01727909 232:0.23075241 233:0.1708224 234:0.060367454 235:0.12926509 236:0.17825897 237:0.12489064 238:0.063648294 239:0.017060367 240:0.0076552931 241:0.090113736 242:0.38188976 243:0.08223972 244:0.047462817 245:0.12489064 246:0.10258093 247:0.089020122 248:0.05096238 249:0.02055993 250:0.010279965 251:0.37117235 252:0.07895888 253:0.043525809 254:0.15682415 255:0.076115486 256:0.060804899 257:0.14085739 258:0.033464567 259:0.014654418 260:0.023622047 261:0.28521435 262:0.20734908 263:0.049431321 264:0.10848644 265:0.076115486 266:0.1071741 267:0.098425197 268:0.034776903 269:0.01312336 270:0.019903762 271:0.090113736 272:0.38188976 273:0.08223972 274:0.047462817 275:0.12489064 276:0.10258093 277:0.089020122 278:0.05096238 279:0.02055993 280:0.010279965 281:0.37117235 282:0.07895888 283:0.043525809 284:0.15682415 285:0.076115486 286:0.060804899 287:0.14085739 288:0.033464567 289:0.014654418 290:0.023622047 291:0.28521435 292:0.20734908 293:0.049431321 294:0.10848644 295:0.076115486 296:0.1071741 297:0.098425197 298:0.034776903 299:0.01312336 300:0.019903762 301:0.21894138 302:0.20231846 303:0.30664917 304:0.0032808399 305:0.089895013 306:0.097331584 307:0.0019685039 308:0.068897638 309:0.010061242 310:0.00065616798 311:0.36964129 312:0.23293963 313:0.073928259 314:0.054899388 315:0.023184602 316:0.18788276 317:0.05511811 318:0.00065616798 319:0.0010936133 320:0.00065616798 321:0.29658793 322:0.32458443 323:0.090988626 324:0.042213473 325:0.067585302 326:0.16579178 327:0.010498688 329:0.0010936133 330:0.00065616798 331:0.21894138 332:0.20231846 333:0.30664917 334:0.0032808399 335:0.089895013 336:0.097331584 337:0.0019685039 338:0.068897638 339:0.010061242 340:0.00065616798 341:0.36964129 342:0.23293963 343:0.073928259 344:0.054899388 345:0.023184602 346:0.18788276 347:0.05511811 348:0.00065616798 349:0.0010936133 350:0.00065616798 351:0.29658793 352:0.32458443 353:0.090988626 354:0.042213473 355:0.067585302 356:0.16579178 357:0.010498688 359:0.0010936133 360:0.00065616798 
