svm_type c_svc
kernel_type linear
nr_class 2
total_sv 61
rho -0.0348158
label -1 1
probA 0
probB -0.181989
nr_sv 32 29
SV
1 1:0.055976431 2:0.496633 3:0.30408249 4:0.088804714 5:0.036195286 6:0.0128367 7:0.0023148148 8:0.0018939394 9:0.0010521886 10:0.00021043771 11:0.16898148 12:0.5 13:0.19065657 14:0.085227273 15:0.036616162 16:0.011363636 17:0.0027356902 18:0.0027356902 19:0.0010521886 20:0.00063131313 21:0.22285354 22:0.18897306 23:0.12015993 24:0.098905724 25:0.064814815 26:0.061447811 27:0.10206229 28:0.10185185 29:0.034090909 30:0.0048400673 31:0.055976431 32:0.496633 33:0.30408249 34:0.088804714 35:0.036195286 36:0.0128367 37:0.0023148148 38:0.0018939394 39:0.0010521886 40:0.00021043771 41:0.16898148 42:0.5 43:0.19065657 44:0.085227273 45:0.036616162 46:0.011363636 47:0.0027356902 48:0.0027356902 49:0.0010521886 50:0.00063131313 51:0.22285354 52:0.18897306 53:0.12015993 54:0.098905724 55:0.064814815 56:0.061447811 57:0.10206229 58:0.10185185 59:0.034090909 60:0.0048400673 61:0.0033670034 62:0.0088383838 63:0.095328283 64:0.10143098 65:0.26683502 66:0.14962121 67:0.26914983 68:0.059974747 69:0.040193603 70:0.0052609428 71:0.0031565657 72:0.018518519 73:0.087752525 74:0.18202862 75:0.18497475 76:0.42361111 77:0.073653199 78:0.01746633 79:0.0046296296 80:0.0042087542 81:0.025883838 82:0.05513468 83:0.089015152 84:0.15382997 85:0.21022727 86:0.19255051 87:0.1266835 88:0.1026936 89:0.028619529 90:0.015361953 91:0.0033670034 92:0.0088383838 93:0.095328283 94:0.10143098 95:0.26683502 96:0.14962121 97:0.26914983 98:0.059974747 99:0.040193603 100:0.0052609428 101:0.0031565657 102:0.018518519 103:0.087752525 104:0.18202862 105:0.18497475 106:0.42361111 107:0.073653199 108:0.01746633 109:0.0046296296 110:0.0042087542 111:0.025883838 112:0.05513468 113:0.089015152 114:0.15382997 115:0.21022727 116:0.19255051 117:0.1266835 118:0.1026936 119:0.028619529 120:0.015361953 121:0.0033670034 122:0.016624579 123:0.010942761 124:0.071338384 125:0.089015152 126:0.25610269 127:0.20223064 128:0.19065657 129:0.12563131 130:0.034090909 131:0.00042087542 132:0.015361953 133:0.01746633 134:0.11069024 135:0.15803872 136:0.52420034 137:0.12289562 138:0.037457912 139:0.010942761 140:0.0025252525 141:0.012415825 142:0.065025253 143:0.039351852 144:0.033670034 145:0.10016835 146:0.1506734 147:0.19570707 148:0.19928451 149:0.14604377 150:0.057659933 151:0.0033670034 152:0.016624579 153:0.010942761 154:0.071338384 155:0.089015152 156:0.25610269 157:0.20223064 158:0.19065657 159:0.12563131 160:0.034090909 161:0.00042087542 162:0.015361953 163:0.01746633 164:0.11069024 165:0.15803872 166:0.52420034 167:0.12289562 168:0.037457912 169:0.010942761 170:0.0025252525 171:0.012415825 172:0.065025253 173:0.039351852 174:0.033670034 175:0.10016835 176:0.1506734 177:0.19570707 178:0.19928451 179:0.14604377 180:0.057659933 181:0.043139731 182:0.42592593 183:0.15803872 184:0.083754209 185:0.022516835 186:0.061658249 187:0.11952862 188:0.06797138 189:0.013888889 190:0.0035774411 191:0.36952862 192:0.1121633 193:0.15972222 194:0.074074074 195:0.019570707 196:0.056397306 197:0.13257576 198:0.065025253 199:0.0086279461 200:0.0023148148 201:0.098695286 202:0.10900673 203:0.11700337 204:0.028619529 205:0.035984848 206:0.091329966 207:0.19402357 208:0.054503367 209:0.065446128 210:0.20538721 211:0.043139731 212:0.42592593 213:0.15803872 214:0.083754209 215:0.022516835 216:0.061658249 217:0.11952862 218:0.06797138 219:0.013888889 220:0.0035774411 221:0.36952862 222:0.1121633 223:0.15972222 224:0.074074074 225:0.019570707 226:0.056397306 227:0.13257576 228:0.065025253 229:0.0086279461 230:0.0023148148 231:0.098695286 232:0.10900673 233:0.11700337 234:0.028619529 235:0.035984848 236:0.091329966 237:0.19402357 238:0.054503367 239:0.065446128 240:0.20538721 241:0.023779461 242:0.3543771 243:0.2594697 244:0.15909091 245:0.10164141 246:0.066287879 247:0.027146465 248:0.0058922559 249:0.0018939394 250:0.00042087542 251:0.32849327 252:0.18876263 253:0.1540404 254:0.13320707 255:0.13068182 256:0.047138047 257:0.011994949 258:0.0023148148 259:0.0016835017 260:0.0016835017 261:0.061447811 262:0.22011785 263:0.060606061 264:0.065656566 265:0.073442761 266:0.077020202 267:0.16077441 268:0.24452862 269:0.031355219 270:0.0050505051 271:0.023779461 272:0.3543771 273:0.2594697 274:0.15909091 275:0.10164141 276:0.066287879 277:0.027146465 278:0.0058922559 279:0.0018939394 280:0.00042087542 281:0.32849327 282:0.18876263 283:0.1540404 284:0.13320707 285:0.13068182 286:0.047138047 287:0.011994949 288:0.0023148148 289:0.0016835017 290:0.0016835017 291:0.061447811 292:0.22011785 293:0.060606061 294:0.065656566 295:0.073442761 296:0.077020202 297:0.16077441 298:0.24452862 299:0.031355219 300:0.0050505051 301:0.032617845 302:0.39709596 303:0.32954545 304:0.075968013 305:0.047348485 306:0.023779461 307:0.038930976 308:0.034511785 309:0.015151515 310:0.0050505051 311:0.28051347 312:0.41140572 313:0.09006734 314:0.064814815 315:0.034090909 316:0.030934343 317:0.048190236 318:0.02756734 319:0.010311448 320:0.0021043771 321:0.27777778 322:0.26936027 323:0.040824916 324:0.045454545 325:0.048400673 326:0.07996633 327:0.066708754 328:0.056818182 329:0.060185185 330:0.054503367 331:0.032617845 332:0.39709596 333:0.32954545 334:0.075968013 335:0.047348485 336:0.023779461 337:0.038930976 338:0.034511785 339:0.015151515 340:0.0050505051 341:0.28051347 342:0.41140572 343:0.09006734 344:0.064814815 345:0.034090909 346:0.030934343 347:0.048190236 348:0.02756734 349:0.010311448 350:0.0021043771 351:0.27777778 352:0.26936027 353:0.040824916 354:0.045454545 355:0.048400673 356:0.07996633 357:0.066708754 358:0.056818182 359:0.060185185 360:0.054503367 
0.4648091818877367 1:0.0084175084 2:0.18644781 3:0.54377104 4:0.1969697 5:0.04229798 6:0.014941077 7:0.0025252525 8:0.0021043771 9:0.0012626263 10:0.0012626263 11:0.0052609428 12:0.31797138 13:0.40698653 14:0.18350168 15:0.053872054 16:0.021043771 17:0.0067340067 18:0.001473064 19:0.0012626263 20:0.0018939394 21:0.23421717 22:0.20664983 23:0.12457912 24:0.091750842 25:0.071969697 26:0.10248316 27:0.11574074 28:0.04229798 29:0.0075757576 30:0.0027356902 31:0.0084175084 32:0.18644781 33:0.54377104 34:0.1969697 35:0.04229798 36:0.014941077 37:0.0025252525 38:0.0021043771 39:0.0012626263 40:0.0012626263 41:0.0052609428 42:0.31797138 43:0.40698653 44:0.18350168 45:0.053872054 46:0.021043771 47:0.0067340067 48:0.001473064 49:0.0012626263 50:0.0018939394 51:0.23421717 52:0.20664983 53:0.12457912 54:0.091750842 55:0.071969697 56:0.10248316 57:0.11574074 58:0.04229798 59:0.0075757576 60:0.0027356902 61:0.0039983165 62:0.01473064 63:0.10711279 64:0.13930976 65:0.17929293 66:0.34048822 67:0.11952862 68:0.086279461 69:0.006523569 70:0.0027356902 71:0.0025252525 72:0.0042087542 73:0.067550505 74:0.14667508 75:0.2020202 76:0.4581229 77:0.075757576 78:0.037247475 79:0.0052609428 80:0.00063131313 81:0.027988215 82:0.048400673 83:0.1026936 84:0.22453704 85:0.20664983 86:0.17255892 87:0.13720539 88:0.051136364 89:0.018097643 90:0.010732323 91:0.0039983165 92:0.01473064 93:0.10711279 94:0.13930976 95:0.17929293 96:0.34048822 97:0.11952862 98:0.086279461 99:0.006523569 100:0.0027356902 101:0.0025252525 102:0.0042087542 103:0.067550505 104:0.14667508 105:0.2020202 106:0.4581229 107:0.075757576 108:0.037247475 109:0.0052609428 110:0.00063131313 111:0.027988215 112:0.048400673 113:0.1026936 114:0.22453704 115:0.20664983 116:0.17255892 117:0.13720539 118:0.051136364 119:0.018097643 120:0.010732323 121:0.00084175084 122:0.0088383838 123:0.059132997 124:0.098063973 125:0.11574074 126:0.44928451 127:0.16224747 128:0.097853535 129:0.006523569 130:0.001473064 131:0.010732323 132:0.027988215 133:0.082281145 134:0.17171717 135:0.28051347 136:0.2388468 137:0.13657407 138:0.040193603 139:0.010942761 140:0.00021043771 141:0.025042088 142:0.079755892 143:0.033880471 144:0.021043771 145:0.084806397 146:0.1952862 147:0.14267677 148:0.25968013 149:0.12100168 150:0.036826599 151:0.00084175084 152:0.0088383838 153:0.059132997 154:0.098063973 155:0.11574074 156:0.44928451 157:0.16224747 158:0.097853535 159:0.006523569 160:0.001473064 161:0.010732323 162:0.027988215 163:0.082281145 164:0.17171717 165:0.28051347 166:0.2388468 167:0.13657407 168:0.040193603 169:0.010942761 170:0.00021043771 171:0.025042088 172:0.079755892 173:0.033880471 174:0.021043771 175:0.084806397 176:0.1952862 177:0.14267677 178:0.25968013 179:0.12100168 180:0.036826599 181:0.27504209 182:0.27209596 183:0.099116162 184:0.059343434 185:0.023779461 186:0.08543771 187:0.10795455 188:0.05239899 189:0.023358586 190:0.001473064 191:0.35921717 192:0.11132155 193:0.15467172 194:0.085016835 195:0.018728956 196:0.051767677 197:0.14372896 198:0.057239057 199:0.016203704 200:0.0021043771 201:0.098695286 202:0.11195286 203:0.10732323 204:0.035984848 205:0.027777778 206:0.096801347 207:0.1763468 208:0.065656566 209:0.051978114 210:0.22748316 211:0.27504209 212:0.27209596 213:0.099116162 214:0.059343434 215:0.023779461 216:0.08543771 217:0.10795455 218:0.05239899 219:0.023358586 220:0.001473064 221:0.35921717 222:0.11132155 223:0.15467172 224:0.085016835 225:0.018728956 226:0.051767677 227:0.14372896 228:0.057239057 229:0.016203704 230:0.0021043771 231:0.098695286 232:0.11195286 233:0.10732323 234:0.035984848 235:0.027777778 236:0.096801347 237:0.1763468 238:0.065656566 239:0.051978114 240:0.22748316 241:0.011784512 242:0.34238215 243:0.26346801 244:0.17613636 245:0.14436027 246:0.04229798 247:0.013468013 248:0.0031565657 249:0.0021043771 250:0.00084175084 251:0.41077441 252:0.12878788 253:0.16287879 254:0.19381313 255:0.071127946 256:0.024200337 257:0.0023148148 258:0.0027356902 259:0.0018939394 260:0.001473064 261:0.075968013 262:0.22706229 263:0.043981481 264:0.06712963 265:0.07996633 266:0.093223906 267:0.22579966 268:0.16982323 269:0.010521886 270:0.006523569 271:0.011784512 272:0.34238215 273:0.26346801 274:0.17613636 275:0.14436027 276:0.04229798 277:0.013468013 278:0.0031565657 279:0.0021043771 280:0.00084175084 281:0.41077441 282:0.12878788 283:0.16287879 284:0.19381313 285:0.071127946 286:0.024200337 287:0.0023148148 288:0.0027356902 289:0.0018939394 290:0.001473064 291:0.075968013 292:0.22706229 293:0.043981481 294:0.06712963 295:0.07996633 296:0.093223906 297:0.22579966 298:0.16982323 299:0.010521886 300:0.006523569 301:0.049242424 302:0.34848485 303:0.37184343 304:0.072180135 305:0.04040404 306:0.037457912 307:0.036826599 308:0.031565657 309:0.010311448 310:0.0016835017 311:0.23505892 312:0.44044613 313:0.10311448 314:0.048611111 315:0.053030303 316:0.030092593 317:0.061868687 318:0.019991582 319:0.0073653199 320:0.00042087542 321:0.2276936 322:0.3013468 323:0.046717172 324:0.056397306 325:0.043350168 326:0.070075758 327:0.086700337 328:0.063552189 329:0.074915825 330:0.029250842 331:0.049242424 332:0.34848485 333:0.37184343 334:0.072180135 335:0.04040404 336:0.037457912 337:0.036826599 338:0.031565657 339:0.010311448 340:0.0016835017 341:0.23505892 342:0.44044613 343:0.10311448 344:0.048611111 345:0.053030303 346:0.030092593 347:0.061868687 348:0.019991582 349:0.0073653199 350:0.00042087542 351:0.2276936 352:0.3013468 353:0.046717172 354:0.056397306 355:0.043350168 356:0.070075758 357:0.086700337 358:0.063552189 359:0.074915825 360:0.029250842 
0.0601467082002565 1:0.021416455 2:0.30089059 3:0.41581849 4:0.18193384 5:0.050890585 6:0.021204411 7:0.0033927057 8:0.0019083969 9:0.0012722646 10:0.0012722646 11:0.192324 12:0.48282443 13:0.18765903 14:0.070186599 15:0.043681086 16:0.015903308 17:0.0029686175 18:0.0027565734 19:0.00021204411 20:0.0014843087 21:0.22328244 22:0.17620865 23:0.12128923 24:0.10835454 25:0.069550466 26:0.062765055 27:0.1115352 28:0.097540288 29:0.027141645 30:0.0023324852 31:0.021416455 32:0.30089059 33:0.41581849 34:0.18193384 35:0.050890585 36:0.021204411 37:0.0033927057 38:0.0019083969 39:0.0012722646 40:0.0012722646 41:0.192324 42:0.48282443 43:0.18765903 44:0.070186599 45:0.043681086 46:0.015903308 47:0.0029686175 48:0.0027565734 49:0.00021204411 50:0.0014843087 51:0.22328244 52:0.17620865 53:0.12128923 54:0.10835454 55:0.069550466 56:0.062765055 57:0.1115352 58:0.097540288 59:0.027141645 60:0.0023324852 61:0.0074215437 62:0.0086938083 63:0.081424936 64:0.11047498 65:0.12913486 66:0.36174724 67:0.13761662 68:0.13464801 69:0.024385072 70:0.0044529262 71:0.0016963528 72:0.0033927057 73:0.077184054 74:0.14058524 75:0.23621713 76:0.41369805 77:0.079304495 78:0.041984733 79:0.0048770144 80:0.0010602205 81:0.02014419 82:0.059796438 83:0.096480068 84:0.18235793 85:0.24554707 86:0.16497031 87:0.13634436 88:0.064461408 89:0.022900763 90:0.0069974555 91:0.0074215437 92:0.0086938083 93:0.081424936 94:0.11047498 95:0.12913486 96:0.36174724 97:0.13761662 98:0.13464801 99:0.024385072 100:0.0044529262 101:0.0016963528 102:0.0033927057 103:0.077184054 104:0.14058524 105:0.23621713 106:0.41369805 107:0.079304495 108:0.041984733 109:0.0048770144 110:0.0010602205 111:0.02014419 112:0.059796438 113:0.096480068 114:0.18235793 115:0.24554707 116:0.16497031 117:0.13634436 118:0.064461408 119:0.022900763 120:0.0069974555 121:0.0082697201 122:0.019083969 123:0.029050042 124:0.13782867 125:0.091603053 126:0.41475827 127:0.16284987 128:0.11556404 129:0.011662426 130:0.0093299406 131:0.0027565734 132:0.0097540288 133:0.041984733 134:0.079728584 135:0.14843087 136:0.22201018 137:0.25021204 138:0.16412214 139:0.074427481 140:0.0065733673 141:0.01293469 142:0.068490246 143:0.0485581 144:0.058100085 145:0.11111111 146:0.25318066 147:0.19062765 148:0.18384224 149:0.05682782 150:0.016327396 151:0.0082697201 152:0.019083969 153:0.029050042 154:0.13782867 155:0.091603053 156:0.41475827 157:0.16284987 158:0.11556404 159:0.011662426 160:0.0093299406 161:0.0027565734 162:0.0097540288 163:0.041984733 164:0.079728584 165:0.14843087 166:0.22201018 167:0.25021204 168:0.16412214 169:0.074427481 170:0.0065733673 171:0.01293469 172:0.068490246 173:0.0485581 174:0.058100085 175:0.11111111 176:0.25318066 177:0.19062765 178:0.18384224 179:0.05682782 180:0.016327396 181:0.015267176 182:0.34817642 183:0.21543681 184:0.11323155 185:0.022900763 186:0.032866836 187:0.12913486 188:0.078456319 189:0.042620865 190:0.0019083969 191:0.36556404 192:0.088634436 193:0.16751484 194:0.070398643 195:0.03307888 196:0.021204411 197:0.097752332 198:0.095207803 199:0.050678541 200:0.0099660729 201:0.095207803 202:0.10899067 203:0.11407973 204:0.028625954 205:0.038592027 206:0.10517388 207:0.19847328 208:0.041560645 209:0.068914334 210:0.20038168 211:0.015267176 212:0.34817642 213:0.21543681 214:0.11323155 215:0.022900763 216:0.032866836 217:0.12913486 218:0.078456319 219:0.042620865 220:0.0019083969 221:0.36556404 222:0.088634436 223:0.16751484 224:0.070398643 225:0.03307888 226:0.021204411 227:0.097752332 228:0.095207803 229:0.050678541 230:0.0099660729 231:0.095207803 232:0.10899067 233:0.11407973 234:0.028625954 235:0.038592027 236:0.10517388 237:0.19847328 238:0.041560645 239:0.068914334 240:0.20038168 241:0.010814249 242:0.16497031 243:0.37892282 244:0.17408821 245:0.13019508 246:0.087362171 247:0.031382528 248:0.018659881 249:0.0021204411 250:0.0014843087 251:0.18384224 252:0.33248516 253:0.16603053 254:0.13613232 255:0.1365564 256:0.036895674 257:0.0038167939 258:0.0019083969 259:0.0012722646 260:0.0010602205 261:0.050890585 262:0.23791349 263:0.049194232 264:0.061068702 265:0.08418151 266:0.074427481 267:0.17175573 268:0.24703138 269:0.019720102 270:0.0038167939 271:0.010814249 272:0.16497031 273:0.37892282 274:0.17408821 275:0.13019508 276:0.087362171 277:0.031382528 278:0.018659881 279:0.0021204411 280:0.0014843087 281:0.18384224 282:0.33248516 283:0.16603053 284:0.13613232 285:0.1365564 286:0.036895674 287:0.0038167939 288:0.0019083969 289:0.0012722646 290:0.0010602205 291:0.050890585 292:0.23791349 293:0.049194232 294:0.061068702 295:0.08418151 296:0.074427481 297:0.17175573 298:0.24703138 299:0.019720102 300:0.0038167939 301:0.0036047498 302:0.14228159 303:0.54410517 304:0.11980492 305:0.046861747 306:0.046013571 307:0.036471586 308:0.049406277 309:0.0082697201 310:0.0031806616 311:0.011238338 312:0.43023749 313:0.32103478 314:0.055131467 315:0.043044953 316:0.041560645 317:0.051102629 318:0.038379983 319:0.0038167939 320:0.0044529262 321:0.27926209 322:0.26420696 323:0.041348601 324:0.053435115 325:0.044529262 326:0.086301951 327:0.071246819 328:0.059160305 329:0.071034775 330:0.029474131 331:0.0036047498 332:0.14228159 333:0.54410517 334:0.11980492 335:0.046861747 336:0.046013571 337:0.036471586 338:0.049406277 339:0.0082697201 340:0.0031806616 341:0.011238338 342:0.43023749 343:0.32103478 344:0.055131467 345:0.043044953 346:0.041560645 347:0.051102629 348:0.038379983 349:0.0038167939 350:0.0044529262 351:0.27926209 352:0.26420696 353:0.041348601 354:0.053435115 355:0.044529262 356:0.086301951 357:0.071246819 358:0.059160305 359:0.071034775 360:0.029474131 
0.7432528228391816 1:0.010178117 2:0.24660729 3:0.45525869 4:0.21162002 5:0.05322307 6:0.01653944 7:0.0029686175 8:0.0021204411 9:0.0010602205 10:0.00042408821 11:0.069550466 12:0.57972858 13:0.21692112 14:0.078032231 15:0.040924512 16:0.0089058524 17:0.0027565734 18:0.0019083969 19:0.0010602205 20:0.00021204411 21:0.23770144 22:0.18426633 23:0.11513995 24:0.098600509 25:0.072731128 26:0.095419847 27:0.12616624 28:0.058524173 29:0.0095419847 30:0.0019083969 31:0.010178117 32:0.24660729 33:0.45525869 34:0.21162002 35:0.05322307 36:0.01653944 37:0.0029686175 38:0.0021204411 39:0.0010602205 40:0.00042408821 41:0.069550466 42:0.57972858 43:0.21692112 44:0.078032231 45:0.040924512 46:0.0089058524 47:0.0027565734 48:0.0019083969 49:0.0010602205 50:0.00021204411 51:0.23770144 52:0.18426633 53:0.11513995 54:0.098600509 55:0.072731128 56:0.095419847 57:0.12616624 58:0.058524173 59:0.0095419847 60:0.0019083969 61:0.00084817642 62:0.0019083969 63:0.018235793 64:0.10390161 65:0.20653096 66:0.47010178 67:0.14800679 68:0.044105174 69:0.0050890585 70:0.0012722646 71:0.0050890585 72:0.012298558 73:0.05682782 74:0.13867684 75:0.21882952 76:0.38528414 77:0.11259542 78:0.051738762 79:0.014843087 80:0.0038167939 81:0.067430025 82:0.067217981 83:0.1403732 84:0.2678117 85:0.1673028 86:0.15458015 87:0.083969466 88:0.029262087 89:0.02014419 90:0.0019083969 91:0.00084817642 92:0.0019083969 93:0.018235793 94:0.10390161 95:0.20653096 96:0.47010178 97:0.14800679 98:0.044105174 99:0.0050890585 100:0.0012722646 101:0.0050890585 102:0.012298558 103:0.05682782 104:0.13867684 105:0.21882952 106:0.38528414 107:0.11259542 108:0.051738762 109:0.014843087 110:0.0038167939 111:0.067430025 112:0.067217981 113:0.1403732 114:0.2678117 115:0.1673028 116:0.15458015 117:0.083969466 118:0.029262087 119:0.02014419 120:0.0019083969 121:0.010178117 122:0.059584394 123:0.20313825 124:0.21628499 125:0.37277354 126:0.12001696 127:0.01293469 128:0.0033927057 129:0.0014843087 130:0.00021204411 131:0.0029686175 132:0.010390161 133:0.026293469 134:0.26696353 135:0.18765903 136:0.31212892 137:0.18278202 138:0.0078456319 139:0.0027565734 140:0.00021204411 141:0.024173028 142:0.094147583 143:0.051526718 144:0.054495335 145:0.14270568 146:0.19317218 147:0.235581 148:0.13104326 149:0.054071247 150:0.019083969 151:0.010178117 152:0.059584394 153:0.20313825 154:0.21628499 155:0.37277354 156:0.12001696 157:0.01293469 158:0.0033927057 159:0.0014843087 160:0.00021204411 161:0.0029686175 162:0.010390161 163:0.026293469 164:0.26696353 165:0.18765903 166:0.31212892 167:0.18278202 168:0.0078456319 169:0.0027565734 170:0.00021204411 171:0.024173028 172:0.094147583 173:0.051526718 174:0.054495335 175:0.14270568 176:0.19317218 177:0.235581 178:0.13104326 179:0.054071247 180:0.019083969 181:0.048134012 182:0.4245123 183:0.16581849 184:0.067430025 185:0.021416455 186:0.040076336 187:0.12044105 188:0.073155216 189:0.036047498 190:0.0029686175 191:0.38570823 192:0.12553011 193:0.12616624 194:0.073791349 195:0.015267176 196:0.033927057 197:0.11471586 198:0.078668363 199:0.039440204 200:0.0067854114 201:0.12086514 202:0.12892282 203:0.0971162 204:0.03201866 205:0.043044953 206:0.10474979 207:0.17726887 208:0.025869381 209:0.089270568 210:0.18087362 211:0.048134012 212:0.4245123 213:0.16581849 214:0.067430025 215:0.021416455 216:0.040076336 217:0.12044105 218:0.073155216 219:0.036047498 220:0.0029686175 221:0.38570823 222:0.12553011 223:0.12616624 224:0.073791349 225:0.015267176 226:0.033927057 227:0.11471586 228:0.078668363 229:0.039440204 230:0.0067854114 231:0.12086514 232:0.12892282 233:0.0971162 234:0.03201866 235:0.043044953 236:0.10474979 237:0.17726887 238:0.025869381 239:0.089270568 240:0.18087362 241:0.034351145 242:0.44486853 243:0.24787956 244:0.19338422 245:0.039440204 246:0.024597116 247:0.0055131467 248:0.0055131467 249:0.0031806616 250:0.0012722646 251:0.33502969 252:0.21840543 253:0.18002545 254:0.19380831 255:0.043469042 256:0.017175573 257:0.0042408821 258:0.0042408821 259:0.0021204411 260:0.0014843087 261:0.079940628 262:0.23515691 263:0.054071247 264:0.060008482 265:0.088210348 266:0.15118745 267:0.27184054 268:0.046013571 269:0.0078456319 270:0.0057251908 271:0.034351145 272:0.44486853 273:0.24787956 274:0.19338422 275:0.039440204 276:0.024597116 277:0.0055131467 278:0.0055131467 279:0.0031806616 280:0.0012722646 281:0.33502969 282:0.21840543 283:0.18002545 284:0.19380831 285:0.043469042 286:0.017175573 287:0.0042408821 288:0.0042408821 289:0.0021204411 290:0.0014843087 291:0.079940628 292:0.23515691 293:0.054071247 294:0.060008482 295:0.088210348 296:0.15118745 297:0.27184054 298:0.046013571 299:0.0078456319 300:0.0057251908 301:0.010390161 302:0.15542833 303:0.48939779 304:0.15627651 305:0.047285835 306:0.048770144 307:0.045589483 308:0.034351145 309:0.010814249 310:0.0016963528 311:0.061068702 312:0.41327396 313:0.27926209 314:0.065945717 315:0.050678541 316:0.033290925 317:0.040712468 318:0.032866836 319:0.018023749 320:0.0048770144 321:0.25657337 322:0.28986429 323:0.045165394 324:0.048770144 325:0.048134012 326:0.086513995 327:0.06764207 328:0.06509754 329:0.066369805 330:0.025869381 331:0.010390161 332:0.15542833 333:0.48939779 334:0.15627651 335:0.047285835 336:0.048770144 337:0.045589483 338:0.034351145 339:0.010814249 340:0.0016963528 341:0.061068702 342:0.41327396 343:0.27926209 344:0.065945717 345:0.050678541 346:0.033290925 347:0.040712468 348:0.032866836 349:0.018023749 350:0.0048770144 351:0.25657337 352:0.28986429 353:0.045165394 354:0.048770144 355:0.048134012 356:0.086513995 357:0.06764207 358:0.06509754 359:0.066369805 360:0.025869381 
0.05056196714302272 1:0.038429407 2:0.42773601 3:0.37176274 4:0.12030075 5:0.030492899 6:0.0083542189 7:0.0018796992 8:0.00020885547 10:0.00083542189 11:0.15643275 12:0.56599833 13:0.16666667 14:0.074561404 15:0.028404344 16:0.0041771094 17:0.0020885547 18:0.00083542189 20:0.00083542189 21:0.21115288 22:0.18943191 23:0.10568087 24:0.11675021 25:0.065998329 26:0.0839599 27:0.13053467 28:0.076649958 29:0.017961571 30:0.0018796992 31:0.038429407 32:0.42773601 33:0.37176274 34:0.12030075 35:0.030492899 36:0.0083542189 37:0.0018796992 38:0.00020885547 40:0.00083542189 41:0.15643275 42:0.56599833 43:0.16666667 44:0.074561404 45:0.028404344 46:0.0041771094 47:0.0020885547 48:0.00083542189 50:0.00083542189 51:0.21115288 52:0.18943191 53:0.10568087 54:0.11675021 55:0.065998329 56:0.0839599 57:0.13053467 58:0.076649958 59:0.017961571 60:0.0018796992 61:0.0020885547 62:0.0016708438 63:0.038011696 64:0.064954052 65:0.24227235 66:0.19966583 67:0.28947368 68:0.10275689 69:0.052422723 70:0.0066833751 71:0.003550543 72:0.011695906 73:0.054511278 74:0.14264829 75:0.21846282 76:0.42522974 77:0.087928154 78:0.043233083 79:0.010860485 80:0.0018796992 81:0.07101086 82:0.040309106 83:0.10735171 84:0.21136174 85:0.20509607 86:0.15434419 87:0.12176274 88:0.049498747 89:0.026106934 90:0.013157895 91:0.0020885547 92:0.0016708438 93:0.038011696 94:0.064954052 95:0.24227235 96:0.19966583 97:0.28947368 98:0.10275689 99:0.052422723 100:0.0066833751 101:0.003550543 102:0.011695906 103:0.054511278 104:0.14264829 105:0.21846282 106:0.42522974 107:0.087928154 108:0.043233083 109:0.010860485 110:0.0018796992 111:0.07101086 112:0.040309106 113:0.10735171 114:0.21136174 115:0.20509607 116:0.15434419 117:0.12176274 118:0.049498747 119:0.026106934 120:0.013157895 121:0.0010442774 122:0.020050125 123:0.17564745 124:0.32915622 125:0.32894737 126:0.11758563 127:0.025062657 128:0.0012531328 129:0.00041771094 130:0.00083542189 131:0.0010442774 132:0.00020885547 133:0.003968254 134:0.027777778 135:0.25710109 136:0.63220551 137:0.064536341 138:0.010233918 139:0.0020885547 140:0.00083542189 141:0.0016708438 142:0.00083542189 143:0.0286132 144:0.12364244 145:0.055764411 146:0.15497076 147:0.25626566 148:0.29239766 149:0.063074353 150:0.022765246 151:0.0010442774 152:0.020050125 153:0.17564745 154:0.32915622 155:0.32894737 156:0.11758563 157:0.025062657 158:0.0012531328 159:0.00041771094 160:0.00083542189 161:0.0010442774 162:0.00020885547 163:0.003968254 164:0.027777778 165:0.25710109 166:0.63220551 167:0.064536341 168:0.010233918 169:0.0020885547 170:0.00083542189 171:0.0016708438 172:0.00083542189 173:0.0286132 174:0.12364244 175:0.055764411 176:0.15497076 177:0.25626566 178:0.29239766 179:0.063074353 180:0.022765246 181:0.0073099415 182:0.2692147 183:0.30868839 184:0.11278195 185:0.027777778 186:0.021094403 187:0.068504595 188:0.096700084 189:0.067042607 190:0.020885547 191:0.35254804 192:0.1182122 193:0.16186299 194:0.074352548 195:0.028195489 196:0.021094403 197:0.079365079 198:0.098370927 199:0.054302423 200:0.011695906 201:0.12552214 202:0.11006683 203:0.11090226 204:0.029866332 205:0.045948204 206:0.11173768 207:0.18107769 208:0.026524645 209:0.080827068 210:0.17752715 211:0.0073099415 212:0.2692147 213:0.30868839 214:0.11278195 215:0.027777778 216:0.021094403 217:0.068504595 218:0.096700084 219:0.067042607 220:0.020885547 221:0.35254804 222:0.1182122 223:0.16186299 224:0.074352548 225:0.028195489 226:0.021094403 227:0.079365079 228:0.098370927 229:0.054302423 230:0.011695906 231:0.12552214 232:0.11006683 233:0.11090226 234:0.029866332 235:0.045948204 236:0.11173768 237:0.18107769 238:0.026524645 239:0.080827068 240:0.17752715 241:0.038429407 242:0.38157895 243:0.28383459 244:0.1641604 245:0.097535505 246:0.022347536 247:0.0058479532 248:0.0027151211 249:0.0022974102 250:0.0012531328 251:0.13575606 252:0.40183793 253:0.17230576 254:0.18024227 255:0.081035923 256:0.01984127 257:0.003968254 258:0.0025062657 259:0.0014619883 260:0.0010442774 261:0.087928154 262:0.23934837 263:0.05764411 264:0.064327485 265:0.068086884 266:0.13533835 267:0.27005013 268:0.067460317 269:0.0062656642 270:0.003550543 271:0.038429407 272:0.38157895 273:0.28383459 274:0.1641604 275:0.097535505 276:0.022347536 277:0.0058479532 278:0.0027151211 279:0.0022974102 280:0.0012531328 281:0.13575606 282:0.40183793 283:0.17230576 284:0.18024227 285:0.081035923 286:0.01984127 287:0.003968254 288:0.0025062657 289:0.0014619883 290:0.0010442774 291:0.087928154 292:0.23934837 293:0.05764411 294:0.064327485 295:0.068086884 296:0.13533835 297:0.27005013 298:0.067460317 299:0.0062656642 300:0.003550543 301:0.022765246 302:0.27944862 303:0.45175439 304:0.080618212 305:0.038847118 306:0.045739348 307:0.037385129 308:0.02443609 309:0.01566416 310:0.0033416876 311:0.047410192 312:0.43776107 313:0.27339181 314:0.073517126 315:0.04657477 316:0.034878864 317:0.049289891 318:0.027568922 319:0.007101086 320:0.0025062657 321:0.28696742 322:0.27589808 323:0.045112782 324:0.046365915 325:0.043441938 326:0.087301587 327:0.057017544 328:0.065998329 329:0.065162907 330:0.0267335 331:0.022765246 332:0.27944862 333:0.45175439 334:0.080618212 335:0.038847118 336:0.045739348 337:0.037385129 338:0.02443609 339:0.01566416 340:0.0033416876 341:0.047410192 342:0.43776107 343:0.27339181 344:0.073517126 345:0.04657477 346:0.034878864 347:0.049289891 348:0.027568922 349:0.007101086 350:0.0025062657 351:0.28696742 352:0.27589808 353:0.045112782 354:0.046365915 355:0.043441938 356:0.087301587 357:0.057017544 358:0.065998329 359:0.065162907 360:0.0267335 
0.2620520132639663 1:0.012086514 2:0.32145886 3:0.52565734 4:0.10644614 5:0.024173028 6:0.0044529262 7:0.0029686175 8:0.0010602205 9:0.00063613232 10:0.0010602205 11:0.0042408821 12:0.44062765 13:0.36365564 14:0.13231552 15:0.046013571 16:0.0069974555 17:0.0029686175 18:0.0014843087 19:0.0012722646 20:0.00042408821 21:0.17726887 22:0.22243427 23:0.12425785 24:0.10602205 25:0.065733673 26:0.099448685 27:0.14143342 28:0.052586938 29:0.0082697201 30:0.0025445293 31:0.012086514 32:0.32145886 33:0.52565734 34:0.10644614 35:0.024173028 36:0.0044529262 37:0.0029686175 38:0.0010602205 39:0.00063613232 40:0.0010602205 41:0.0042408821 42:0.44062765 43:0.36365564 44:0.13231552 45:0.046013571 46:0.0069974555 47:0.0029686175 48:0.0014843087 49:0.0012722646 50:0.00042408821 51:0.17726887 52:0.22243427 53:0.12425785 54:0.10602205 55:0.065733673 56:0.099448685 57:0.14143342 58:0.052586938 59:0.0082697201 60:0.0025445293 61:0.00084817642 63:0.0025445293 64:0.011450382 65:0.08057676 66:0.24872774 67:0.33502969 68:0.22964377 69:0.084605598 70:0.0065733673 71:0.0038167939 72:0.018447837 73:0.061704835 74:0.13549618 75:0.19508058 76:0.44698897 77:0.086301951 78:0.040076336 79:0.010178117 80:0.0019083969 81:0.040924512 82:0.058948261 83:0.12531807 84:0.23494487 85:0.18235793 86:0.16051739 87:0.1168363 88:0.040924512 89:0.02374894 90:0.01547922 91:0.00084817642 93:0.0025445293 94:0.011450382 95:0.08057676 96:0.24872774 97:0.33502969 98:0.22964377 99:0.084605598 100:0.0065733673 101:0.0038167939 102:0.018447837 103:0.061704835 104:0.13549618 105:0.19508058 106:0.44698897 107:0.086301951 108:0.040076336 109:0.010178117 110:0.0019083969 111:0.040924512 112:0.058948261 113:0.12531807 114:0.23494487 115:0.18235793 116:0.16051739 117:0.1168363 118:0.040924512 119:0.02374894 120:0.01547922 121:0.0033927057 122:0.0067854114 123:0.025657337 124:0.074639525 125:0.22158609 126:0.19253605 127:0.37298558 128:0.077184054 129:0.024385072 130:0.00084817642 131:0.0089058524 132:0.030958439 133:0.083757422 134:0.38422392 135:0.2678117 136:0.14906701 137:0.07336726 138:0.0012722646 139:0.00021204411 140:0.00042408821 141:0.013782867 142:0.075275657 143:0.064885496 144:0.041560645 145:0.091815098 146:0.20483461 147:0.15415606 148:0.27820187 149:0.056191688 150:0.019296014 151:0.0033927057 152:0.0067854114 153:0.025657337 154:0.074639525 155:0.22158609 156:0.19253605 157:0.37298558 158:0.077184054 159:0.024385072 160:0.00084817642 161:0.0089058524 162:0.030958439 163:0.083757422 164:0.38422392 165:0.2678117 166:0.14906701 167:0.07336726 168:0.0012722646 169:0.00021204411 170:0.00042408821 171:0.013782867 172:0.075275657 173:0.064885496 174:0.041560645 175:0.091815098 176:0.20483461 177:0.15415606 178:0.27820187 179:0.056191688 180:0.019296014 181:0.039652248 182:0.38761662 183:0.21310433 184:0.071246819 185:0.017175573 186:0.032442748 187:0.095843936 188:0.092239186 189:0.043681086 190:0.0069974555 191:0.24660729 192:0.2336726 193:0.14991518 194:0.076547922 195:0.023112807 196:0.028201866 197:0.1134436 198:0.091391009 199:0.031594572 200:0.0055131467 201:0.15203562 202:0.10814249 203:0.094783715 204:0.032230704 205:0.048770144 206:0.10581001 207:0.1692112 208:0.02480916 209:0.09245123 210:0.17175573 211:0.039652248 212:0.38761662 213:0.21310433 214:0.071246819 215:0.017175573 216:0.032442748 217:0.095843936 218:0.092239186 219:0.043681086 220:0.0069974555 221:0.24660729 222:0.2336726 223:0.14991518 224:0.076547922 225:0.023112807 226:0.028201866 227:0.1134436 228:0.091391009 229:0.031594572 230:0.0055131467 231:0.15203562 232:0.10814249 233:0.094783715 234:0.032230704 235:0.048770144 236:0.10581001 237:0.1692112 238:0.02480916 239:0.09245123 240:0.17175573 241:0.067430025 242:0.4120017 243:0.27586938 244:0.16772689 245:0.041348601 246:0.022476675 247:0.0036047498 248:0.004028838 249:0.0033927057 250:0.0021204411 251:0.42345208 252:0.16581849 253:0.17769296 254:0.16178965 255:0.042620865 256:0.016327396 257:0.004028838 258:0.0057251908 259:0.00042408821 260:0.0021204411 261:0.078244275 262:0.24512299 263:0.057463953 264:0.06764207 265:0.067430025 266:0.17430025 267:0.25084818 268:0.04389313 269:0.008057676 270:0.0069974555 271:0.067430025 272:0.4120017 273:0.27586938 274:0.16772689 275:0.041348601 276:0.022476675 277:0.0036047498 278:0.004028838 279:0.0033927057 280:0.0021204411 281:0.42345208 282:0.16581849 283:0.17769296 284:0.16178965 285:0.042620865 286:0.016327396 287:0.004028838 288:0.0057251908 289:0.00042408821 290:0.0021204411 291:0.078244275 292:0.24512299 293:0.057463953 294:0.06764207 295:0.067430025 296:0.17430025 297:0.25084818 298:0.04389313 299:0.008057676 300:0.0069974555 301:0.023324852 302:0.21522477 303:0.43871925 304:0.14206955 305:0.043469042 306:0.029686175 307:0.035411366 308:0.037107718 309:0.029262087 310:0.0057251908 311:0.040924512 312:0.42239186 313:0.27650551 314:0.076547922 315:0.05216285 316:0.03668363 317:0.035835454 318:0.035411366 319:0.021416455 320:0.0021204411 321:0.24597116 322:0.29389313 323:0.051102629 324:0.042408821 325:0.053011026 326:0.062553011 327:0.086938083 328:0.062977099 329:0.064673452 330:0.036471586 331:0.023324852 332:0.21522477 333:0.43871925 334:0.14206955 335:0.043469042 336:0.029686175 337:0.035411366 338:0.037107718 339:0.029262087 340:0.0057251908 341:0.040924512 342:0.42239186 343:0.27650551 344:0.076547922 345:0.05216285 346:0.03668363 347:0.035835454 348:0.035411366 349:0.021416455 350:0.0021204411 351:0.24597116 352:0.29389313 353:0.051102629 354:0.042408821 355:0.053011026 356:0.062553011 357:0.086938083 358:0.062977099 359:0.064673452 360:0.036471586 
0.1652930912555188 1:0.022435897 2:0.40149573 3:0.40961538 4:0.11068376 5:0.039316239 6:0.0079059829 7:0.0032051282 8:0.0027777778 9:0.0012820513 10:0.0012820513 11:0.0040598291 12:0.31260684 13:0.43952991 14:0.15064103 15:0.06517094 16:0.018589744 17:0.0034188034 18:0.0025641026 19:0.0019230769 20:0.0014957265 21:0.049786325 22:0.28632479 23:0.15277778 24:0.11025641 25:0.082051282 26:0.075 27:0.14273504 28:0.07991453 29:0.016025641 30:0.0051282051 31:0.022435897 32:0.40149573 33:0.40961538 34:0.11068376 35:0.039316239 36:0.0079059829 37:0.0032051282 38:0.0027777778 39:0.0012820513 40:0.0012820513 41:0.0040598291 42:0.31260684 43:0.43952991 44:0.15064103 45:0.06517094 46:0.018589744 47:0.0034188034 48:0.0025641026 49:0.0019230769 50:0.0014957265 51:0.049786325 52:0.28632479 53:0.15277778 54:0.11025641 55:0.082051282 56:0.075 57:0.14273504 58:0.07991453 59:0.016025641 60:0.0051282051 61:0.00021367521 62:0.0017094017 63:0.011324786 64:0.027991453 65:0.13376068 66:0.26923077 67:0.16452991 68:0.26303419 69:0.11794872 70:0.01025641 71:0.0034188034 72:0.019230769 73:0.063461538 74:0.13782051 75:0.21089744 76:0.43611111 77:0.085897436 78:0.027350427 79:0.010042735 80:0.0057692308 81:0.044871795 82:0.053418803 83:0.1267094 84:0.24700855 85:0.18162393 86:0.12692308 87:0.12371795 88:0.042307692 89:0.03034188 90:0.023076923 91:0.00021367521 92:0.0017094017 93:0.011324786 94:0.027991453 95:0.13376068 96:0.26923077 97:0.16452991 98:0.26303419 99:0.11794872 100:0.01025641 101:0.0034188034 102:0.019230769 103:0.063461538 104:0.13782051 105:0.21089744 106:0.43611111 107:0.085897436 108:0.027350427 109:0.010042735 110:0.0057692308 111:0.044871795 112:0.053418803 113:0.1267094 114:0.24700855 115:0.18162393 116:0.12692308 117:0.12371795 118:0.042307692 119:0.03034188 120:0.023076923 121:0.0017094017 122:0.0057692308 123:0.07991453 124:0.089529915 125:0.11773504 126:0.45854701 127:0.14252137 128:0.078418803 129:0.023717949 130:0.0021367521 131:0.0027777778 132:0.0047008547 133:0.020512821 134:0.073504274 135:0.15833333 136:0.23739316 137:0.30491453 138:0.13974359 139:0.041880342 140:0.016239316 141:0.0081196581 142:0.092307692 143:0.052777778 144:0.032264957 145:0.085897436 146:0.20961538 147:0.20940171 148:0.22713675 149:0.051068376 150:0.031410256 151:0.0017094017 152:0.0057692308 153:0.07991453 154:0.089529915 155:0.11773504 156:0.45854701 157:0.14252137 158:0.078418803 159:0.023717949 160:0.0021367521 161:0.0027777778 162:0.0047008547 163:0.020512821 164:0.073504274 165:0.15833333 166:0.23739316 167:0.30491453 168:0.13974359 169:0.041880342 170:0.016239316 171:0.0081196581 172:0.092307692 173:0.052777778 174:0.032264957 175:0.085897436 176:0.20961538 177:0.20940171 178:0.22713675 179:0.051068376 180:0.031410256 181:0.025641026 182:0.38098291 183:0.22115385 184:0.074786325 185:0.017094017 186:0.040811966 187:0.10021368 188:0.088888889 189:0.045299145 190:0.0051282051 191:0.40662393 192:0.11602564 193:0.11987179 194:0.063461538 195:0.018803419 196:0.046153846 197:0.12735043 198:0.066025641 199:0.029273504 200:0.0064102564 201:0.16559829 202:0.11111111 203:0.082692308 204:0.036324786 205:0.048504274 206:0.10662393 207:0.15705128 208:0.019230769 209:0.13482906 210:0.13803419 211:0.025641026 212:0.38098291 213:0.22115385 214:0.074786325 215:0.017094017 216:0.040811966 217:0.10021368 218:0.088888889 219:0.045299145 220:0.0051282051 221:0.40662393 222:0.11602564 223:0.11987179 224:0.063461538 225:0.018803419 226:0.046153846 227:0.12735043 228:0.066025641 229:0.029273504 230:0.0064102564 231:0.16559829 232:0.11111111 233:0.082692308 234:0.036324786 235:0.048504274 236:0.10662393 237:0.15705128 238:0.019230769 239:0.13482906 240:0.13803419 241:0.051923077 242:0.42179487 243:0.25598291 244:0.18589744 245:0.03482906 246:0.025854701 247:0.0072649573 248:0.0036324786 249:0.0087606838 250:0.0040598291 251:0.15128205 252:0.38461538 253:0.16282051 254:0.17991453 255:0.069230769 256:0.031196581 257:0.0044871795 258:0.0064102564 259:0.0072649573 260:0.0027777778 261:0.079273504 262:0.23376068 263:0.057478632 264:0.071794872 265:0.069017094 266:0.18226496 267:0.24444444 268:0.03974359 269:0.0096153846 270:0.012606838 271:0.051923077 272:0.42179487 273:0.25598291 274:0.18589744 275:0.03482906 276:0.025854701 277:0.0072649573 278:0.0036324786 279:0.0087606838 280:0.0040598291 281:0.15128205 282:0.38461538 283:0.16282051 284:0.17991453 285:0.069230769 286:0.031196581 287:0.0044871795 288:0.0064102564 289:0.0072649573 290:0.0027777778 291:0.079273504 292:0.23376068 293:0.057478632 294:0.071794872 295:0.069017094 296:0.18226496 297:0.24444444 298:0.03974359 299:0.0096153846 300:0.012606838 301:0.013888889 302:0.17029915 303:0.44081197 304:0.18568376 305:0.045726496 306:0.036965812 307:0.04017094 308:0.038461538 309:0.019871795 310:0.0081196581 311:0.039957265 312:0.40598291 313:0.28931624 314:0.050213675 315:0.052991453 316:0.053418803 317:0.020299145 318:0.051923077 319:0.024786325 320:0.011111111 321:0.21367521 322:0.31217949 323:0.051068376 324:0.042307692 325:0.052991453 326:0.058333333 327:0.086752137 328:0.062820513 329:0.07457265 330:0.045299145 331:0.013888889 332:0.17029915 333:0.44081197 334:0.18568376 335:0.045726496 336:0.036965812 337:0.04017094 338:0.038461538 339:0.019871795 340:0.0081196581 341:0.039957265 342:0.40598291 343:0.28931624 344:0.050213675 345:0.052991453 346:0.053418803 347:0.020299145 348:0.051923077 349:0.024786325 350:0.011111111 351:0.21367521 352:0.31217949 353:0.051068376 354:0.042307692 355:0.052991453 356:0.058333333 357:0.086752137 358:0.062820513 359:0.07457265 360:0.045299145 
0.04626237527506509 1:0.24081197 2:0.10940171 3:0.15512821 4:0.15128205 5:0.12692308 6:0.054700855 7:0.092094017 8:0.034401709 9:0.030128205 10:0.0051282051 11:0.29017094 12:0.085897436 13:0.24764957 14:0.10833333 15:0.093589744 16:0.077991453 17:0.046153846 18:0.027991453 19:0.018376068 20:0.0038461538 21:0.060897436 22:0.2232906 23:0.53440171 24:0.11752137 25:0.054700855 26:0.0079059829 27:0.00064102564 28:0.00042735043 30:0.00021367521 31:0.24081197 32:0.10940171 33:0.15512821 34:0.15128205 35:0.12692308 36:0.054700855 37:0.092094017 38:0.034401709 39:0.030128205 40:0.0051282051 41:0.29017094 42:0.085897436 43:0.24764957 44:0.10833333 45:0.093589744 46:0.077991453 47:0.046153846 48:0.027991453 49:0.018376068 50:0.0038461538 51:0.060897436 52:0.2232906 53:0.53440171 54:0.11752137 55:0.054700855 56:0.0079059829 57:0.00064102564 58:0.00042735043 60:0.00021367521 61:0.0055555556 62:0.15769231 63:0.33910256 64:0.074145299 65:0.13931624 66:0.16089744 67:0.043589744 68:0.028205128 69:0.027777778 70:0.023717949 71:0.01517094 72:0.0019230769 73:0.29487179 74:0.1542735 75:0.25534188 76:0.11132479 77:0.097863248 78:0.0051282051 79:0.055982906 80:0.0081196581 81:0.0057692308 82:0.016452991 83:0.069444444 84:0.14465812 86:0.3224359 87:0.31837607 88:0.086538462 89:0.028205128 90:0.0081196581 91:0.0055555556 92:0.15769231 93:0.33910256 94:0.074145299 95:0.13931624 96:0.16089744 97:0.043589744 98:0.028205128 99:0.027777778 100:0.023717949 101:0.01517094 102:0.0019230769 103:0.29487179 104:0.1542735 105:0.25534188 106:0.11132479 107:0.097863248 108:0.0051282051 109:0.055982906 110:0.0081196581 111:0.0057692308 112:0.016452991 113:0.069444444 114:0.14465812 116:0.3224359 117:0.31837607 118:0.086538462 119:0.028205128 120:0.0081196581 121:0.081196581 123:0.03974359 124:0.011965812 125:0.31025641 126:0.33461538 127:0.077991453 128:0.05042735 129:0.082478632 130:0.011324786 131:0.083760684 132:0.0017094017 133:0.35790598 134:0.2957265 135:0.029273504 136:0.026068376 137:0.094017094 138:0.041239316 139:0.04957265 140:0.020726496 141:0.0044871795 142:0.095940171 143:0.084615385 145:0.48290598 146:0.27542735 148:0.032051282 149:0.018376068 150:0.0061965812 151:0.081196581 153:0.03974359 154:0.011965812 155:0.31025641 156:0.33461538 157:0.077991453 158:0.05042735 159:0.082478632 160:0.011324786 161:0.083760684 162:0.0017094017 163:0.35790598 164:0.2957265 165:0.029273504 166:0.026068376 167:0.094017094 168:0.041239316 169:0.04957265 170:0.020726496 171:0.0044871795 172:0.095940171 173:0.084615385 175:0.48290598 176:0.27542735 178:0.032051282 179:0.018376068 180:0.0061965812 181:0.2707265 182:0.13354701 183:0.027991453 184:0.031623932 185:0.061752137 186:0.13034188 187:0.14423077 188:0.096367521 189:0.087179487 190:0.016239316 191:0.27008547 192:0.13440171 193:0.028846154 194:0.025213675 195:0.068376068 196:0.13632479 197:0.15384615 198:0.1224359 199:0.054273504 200:0.0061965812 201:0.0064102564 202:0.032478632 203:0.041452991 204:0.10192308 205:0.23760684 206:0.41923077 207:0.14786325 208:0.0094017094 209:0.0027777778 210:0.00085470085 211:0.2707265 212:0.13354701 213:0.027991453 214:0.031623932 215:0.061752137 216:0.13034188 217:0.14423077 218:0.096367521 219:0.087179487 220:0.016239316 221:0.27008547 222:0.13440171 223:0.028846154 224:0.025213675 225:0.068376068 226:0.13632479 227:0.15384615 228:0.1224359 229:0.054273504 230:0.0061965812 231:0.0064102564 232:0.032478632 233:0.041452991 234:0.10192308 235:0.23760684 236:0.41923077 237:0.14786325 238:0.0094017094 239:0.0027777778 240:0.00085470085 241:0.30747863 242:0.16025641 243:0.032692308 244:0.044444444 245:0.14722222 246:0.09508547 247:0.069871795 248:0.064529915 249:0.057264957 250:0.021153846 251:0.22991453 252:0.18974359 253:0.063675214 254:0.030555556 255:0.051282051 256:0.16282051 257:0.077136752 258:0.072222222 259:0.072649573 260:0.05 261:0.0034188034 262:0.017521368 263:0.037179487 264:0.031837607 265:0.06965812 266:0.33525641 267:0.30363248 268:0.15042735 269:0.042307692 270:0.0087606838 271:0.30747863 272:0.16025641 273:0.032692308 274:0.044444444 275:0.14722222 276:0.09508547 277:0.069871795 278:0.064529915 279:0.057264957 280:0.021153846 281:0.22991453 282:0.18974359 283:0.063675214 284:0.030555556 285:0.051282051 286:0.16282051 287:0.077136752 288:0.072222222 289:0.072649573 290:0.05 291:0.0034188034 292:0.017521368 293:0.037179487 294:0.031837607 295:0.06965812 296:0.33525641 297:0.30363248 298:0.15042735 299:0.042307692 300:0.0087606838 301:0.24679487 302:0.36004274 303:0.12435897 304:0.072863248 305:0.10897436 306:0.038675214 307:0.018162393 308:0.011324786 309:0.0066239316 310:0.012179487 311:0.24081197 312:0.29444444 313:0.17393162 314:0.058333333 315:0.093162393 316:0.082692308 317:0.023504274 318:0.0079059829 319:0.010683761 320:0.014529915 321:0.024786325 322:0.21196581 323:0.2982906 324:0.29444444 325:0.12286325 326:0.04017094 327:0.0044871795 328:0.0019230769 329:0.00021367521 330:0.00085470085 331:0.24679487 332:0.36004274 333:0.12435897 334:0.072863248 335:0.10897436 336:0.038675214 337:0.018162393 338:0.011324786 339:0.0066239316 340:0.012179487 341:0.24081197 342:0.29444444 343:0.17393162 344:0.058333333 345:0.093162393 346:0.082692308 347:0.023504274 348:0.0079059829 349:0.010683761 350:0.014529915 351:0.024786325 352:0.21196581 353:0.2982906 354:0.29444444 355:0.12286325 356:0.04017094 357:0.0044871795 358:0.0019230769 359:0.00021367521 360:0.00085470085 
0.6126029760760691 1:0.34375 2:0.29361979 3:0.15625 4:0.13802083 5:0.048394097 6:0.016059028 7:0.0021701389 9:0.0010850694 10:0.00065104167 11:0.34635417 12:0.34874132 13:0.18988715 14:0.075520833 15:0.030598958 16:0.0060763889 17:0.0010850694 18:0.0010850694 19:0.00021701389 20:0.00043402778 21:0.26801215 22:0.54470486 23:0.14409722 24:0.032118056 25:0.0062934028 26:0.0036892361 27:0.00086805556 30:0.00021701389 31:0.34375 32:0.29361979 33:0.15625 34:0.13802083 35:0.048394097 36:0.016059028 37:0.0021701389 39:0.0010850694 40:0.00065104167 41:0.34635417 42:0.34874132 43:0.18988715 44:0.075520833 45:0.030598958 46:0.0060763889 47:0.0010850694 48:0.0010850694 49:0.00021701389 50:0.00043402778 51:0.26801215 52:0.54470486 53:0.14409722 54:0.032118056 55:0.0062934028 56:0.0036892361 57:0.00086805556 60:0.00021701389 61:0.0069444444 62:0.047092014 63:0.16601562 64:0.30815972 65:0.12369792 66:0.20681424 67:0.068793403 68:0.052300347 69:0.013671875 70:0.0065104167 71:0.0049913194 72:0.10894097 73:0.18728299 74:0.23328993 75:0.098090278 76:0.24414062 77:0.053168403 78:0.042100694 79:0.022352431 80:0.0056423611 81:0.00021701389 82:0.015190972 83:0.043619792 84:0.16080729 85:0.32703993 86:0.35329861 87:0.048394097 88:0.034071181 89:0.010633681 90:0.0067274306 91:0.0069444444 92:0.047092014 93:0.16601562 94:0.30815972 95:0.12369792 96:0.20681424 97:0.068793403 98:0.052300347 99:0.013671875 100:0.0065104167 101:0.0049913194 102:0.10894097 103:0.18728299 104:0.23328993 105:0.098090278 106:0.24414062 107:0.053168403 108:0.042100694 109:0.022352431 110:0.0056423611 111:0.00021701389 112:0.015190972 113:0.043619792 114:0.16080729 115:0.32703993 116:0.35329861 117:0.048394097 118:0.034071181 119:0.010633681 120:0.0067274306 121:0.048394097 122:0.0013020833 123:0.082682292 124:0.037326389 125:0.37717014 126:0.25065104 127:0.05078125 128:0.070095486 129:0.041232639 130:0.040364583 131:0.064019097 132:0.00086805556 133:0.40277778 134:0.28125 135:0.018880208 136:0.031684028 137:0.09765625 138:0.048611111 139:0.013888889 140:0.040364583 141:0.0013020833 142:0.0045572917 143:0.062717014 144:0.058159722 146:0.53993056 147:0.25412326 148:0.037543403 149:0.022786458 150:0.018880208 151:0.048394097 152:0.0013020833 153:0.082682292 154:0.037326389 155:0.37717014 156:0.25065104 157:0.05078125 158:0.070095486 159:0.041232639 160:0.040364583 161:0.064019097 162:0.00086805556 163:0.40277778 164:0.28125 165:0.018880208 166:0.031684028 167:0.09765625 168:0.048611111 169:0.013888889 170:0.040364583 171:0.0013020833 172:0.0045572917 173:0.062717014 174:0.058159722 176:0.53993056 177:0.25412326 178:0.037543403 179:0.022786458 180:0.018880208 181:0.31575521 182:0.098090278 183:0.023871528 184:0.027560764 185:0.050998264 186:0.17057292 187:0.086588542 188:0.094184028 189:0.10177951 190:0.030598958 191:0.31054688 192:0.1000434 193:0.023871528 194:0.029079861 195:0.026692708 196:0.13628472 197:0.15581597 198:0.10026042 199:0.094184028 200:0.023220486 201:0.00390625 202:0.020616319 203:0.034071181 204:0.036241319 205:0.15993924 206:0.34657118 207:0.31358507 208:0.069010417 209:0.013671875 210:0.0023871528 211:0.31575521 212:0.098090278 213:0.023871528 214:0.027560764 215:0.050998264 216:0.17057292 217:0.086588542 218:0.094184028 219:0.10177951 220:0.030598958 221:0.31054688 222:0.1000434 223:0.023871528 224:0.029079861 225:0.026692708 226:0.13628472 227:0.15581597 228:0.10026042 229:0.094184028 230:0.023220486 231:0.00390625 232:0.020616319 233:0.034071181 234:0.036241319 235:0.15993924 236:0.34657118 237:0.31358507 238:0.069010417 239:0.013671875 240:0.0023871528 241:0.31228299 242:0.15169271 243:0.03125 244:0.034505208 245:0.11762153 246:0.12196181 247:0.10047743 248:0.065321181 249:0.053168403 250:0.01171875 251:0.22395833 252:0.18858507 253:0.068576389 254:0.027126736 255:0.041232639 256:0.16579861 257:0.087890625 258:0.080946181 259:0.080512153 260:0.035373264 261:0.00021701389 262:0.0075954861 263:0.029296875 264:0.027777778 265:0.065972222 266:0.30208333 267:0.29774306 268:0.18055556 269:0.076605903 270:0.012152778 271:0.31228299 272:0.15169271 273:0.03125 274:0.034505208 275:0.11762153 276:0.12196181 277:0.10047743 278:0.065321181 279:0.053168403 280:0.01171875 281:0.22395833 282:0.18858507 283:0.068576389 284:0.027126736 285:0.041232639 286:0.16579861 287:0.087890625 288:0.080946181 289:0.080512153 290:0.035373264 291:0.00021701389 292:0.0075954861 293:0.029296875 294:0.027777778 295:0.065972222 296:0.30208333 297:0.29774306 298:0.18055556 299:0.076605903 300:0.012152778 301:0.29492188 302:0.30360243 303:0.13498264 304:0.073784722 305:0.090928819 306:0.060980903 307:0.017361111 308:0.010199653 309:0.0093315972 310:0.00390625 311:0.25802951 312:0.29405382 313:0.16297743 314:0.060546875 315:0.067925347 316:0.10720486 317:0.021701389 318:0.0075954861 319:0.0082465278 320:0.01171875 321:0.00065104167 322:0.0021701389 323:0.009765625 324:0.20768229 325:0.23263889 326:0.296875 327:0.17230903 328:0.06640625 329:0.0093315972 330:0.0021701389 331:0.29492188 332:0.30360243 333:0.13498264 334:0.073784722 335:0.090928819 336:0.060980903 337:0.017361111 338:0.010199653 339:0.0093315972 340:0.00390625 341:0.25802951 342:0.29405382 343:0.16297743 344:0.060546875 345:0.067925347 346:0.10720486 347:0.021701389 348:0.0075954861 349:0.0082465278 350:0.01171875 351:0.00065104167 352:0.0021701389 353:0.009765625 354:0.20768229 355:0.23263889 356:0.296875 357:0.17230903 358:0.06640625 359:0.0093315972 360:0.0021701389 
0.1204555476713227 1:0.25430663 2:0.18819983 3:0.31718346 4:0.16042205 5:0.045004307 6:0.030577089 7:0.0036606374 9:0.00043066322 10:0.00021533161 11:0.29306632 12:0.23643411 13:0.23794143 14:0.14750215 15:0.046942291 16:0.034453058 17:0.0021533161 18:0.00086132644 20:0.00064599483 21:0.20305771 22:0.31115418 23:0.374677 24:0.080534022 25:0.023686477 26:0.003875969 27:0.0019379845 28:0.00021533161 29:0.00043066322 30:0.00043066322 31:0.25430663 32:0.18819983 33:0.31718346 34:0.16042205 35:0.045004307 36:0.030577089 37:0.0036606374 39:0.00043066322 40:0.00021533161 41:0.29306632 42:0.23643411 43:0.23794143 44:0.14750215 45:0.046942291 46:0.034453058 47:0.0021533161 48:0.00086132644 50:0.00064599483 51:0.20305771 52:0.31115418 53:0.374677 54:0.080534022 55:0.023686477 56:0.003875969 57:0.0019379845 58:0.00021533161 59:0.00043066322 60:0.00043066322 61:0.0047372954 62:0.27368648 63:0.18561585 64:0.075150732 65:0.166882 66:0.17377261 67:0.034668389 68:0.053617571 69:0.017657192 70:0.014211886 71:0.01873385 72:0.011197244 73:0.33570198 74:0.11347976 75:0.1375969 76:0.22351421 77:0.053832903 78:0.043066322 79:0.043927649 80:0.018949182 81:0.0032299742 82:0.0066752799 83:0.01744186 84:0.073212748 85:0.09754522 86:0.64125754 87:0.099698536 88:0.035529716 89:0.02002584 90:0.0053832903 91:0.0047372954 92:0.27368648 93:0.18561585 94:0.075150732 95:0.166882 96:0.17377261 97:0.034668389 98:0.053617571 99:0.017657192 100:0.014211886 101:0.01873385 102:0.011197244 103:0.33570198 104:0.11347976 105:0.1375969 106:0.22351421 107:0.053832903 108:0.043066322 109:0.043927649 110:0.018949182 111:0.0032299742 112:0.0066752799 113:0.01744186 114:0.073212748 115:0.09754522 116:0.64125754 117:0.099698536 118:0.035529716 119:0.02002584 120:0.0053832903 121:0.078165375 123:0.05749354 124:0.32795004 125:0.29414298 126:0.063953488 127:0.1124031 128:0.048449612 130:0.01744186 131:0.091515935 133:0.29844961 134:0.34625323 135:0.037683032 136:0.031653747 137:0.083333333 138:0.059862188 139:0.033807063 140:0.01744186 141:0.0015073213 142:0.10249785 143:0.063738157 144:0.42527993 146:0.34280792 147:0.04672696 148:0.013996555 149:0.0017226529 150:0.0017226529 151:0.078165375 153:0.05749354 154:0.32795004 155:0.29414298 156:0.063953488 157:0.1124031 158:0.048449612 160:0.01744186 161:0.091515935 163:0.29844961 164:0.34625323 165:0.037683032 166:0.031653747 167:0.083333333 168:0.059862188 169:0.033807063 170:0.01744186 171:0.0015073213 172:0.10249785 173:0.063738157 174:0.42527993 176:0.34280792 177:0.04672696 178:0.013996555 179:0.0017226529 180:0.0017226529 181:0.36326443 182:0.052971576 183:0.02670112 184:0.026055125 185:0.069121447 186:0.17549526 187:0.076873385 188:0.1171404 189:0.075581395 190:0.016795866 191:0.32278208 192:0.085486649 193:0.026055125 194:0.027562446 195:0.040913006 196:0.13307494 197:0.15159345 198:0.11563307 199:0.081826012 200:0.015073213 201:0.0043066322 202:0.015503876 203:0.043927649 204:0.062015504 205:0.32170543 206:0.37769165 207:0.12898363 208:0.042850991 209:0.0023686477 210:0.00064599483 211:0.36326443 212:0.052971576 213:0.02670112 214:0.026055125 215:0.069121447 216:0.17549526 217:0.076873385 218:0.1171404 219:0.075581395 220:0.016795866 221:0.32278208 222:0.085486649 223:0.026055125 224:0.027562446 225:0.040913006 226:0.13307494 227:0.15159345 228:0.11563307 229:0.081826012 230:0.015073213 231:0.0043066322 232:0.015503876 233:0.043927649 234:0.062015504 235:0.32170543 236:0.37769165 237:0.12898363 238:0.042850991 239:0.0023686477 240:0.00064599483 241:0.20198105 242:0.20607235 243:0.090439276 244:0.027993109 245:0.11046512 246:0.14448751 247:0.074935401 248:0.063953488 249:0.051464255 250:0.028208441 251:0.26055125 252:0.15740741 253:0.070628768 254:0.027777778 255:0.06955211 256:0.16257537 257:0.076442722 258:0.082687339 259:0.05620155 260:0.036175711 261:0.0019379845 262:0.0055986219 263:0.022394488 264:0.055340224 265:0.18238587 266:0.39556417 267:0.27282515 268:0.052325581 269:0.0090439276 270:0.0025839793 271:0.20198105 272:0.20607235 273:0.090439276 274:0.027993109 275:0.11046512 276:0.14448751 277:0.074935401 278:0.063953488 279:0.051464255 280:0.028208441 281:0.26055125 282:0.15740741 283:0.070628768 284:0.027777778 285:0.06955211 286:0.16257537 287:0.076442722 288:0.082687339 289:0.05620155 290:0.036175711 291:0.0019379845 292:0.0055986219 293:0.022394488 294:0.055340224 295:0.18238587 296:0.39556417 297:0.27282515 298:0.052325581 299:0.0090439276 300:0.0025839793 301:0.40762274 302:0.20757967 303:0.13199828 304:0.072566753 305:0.10099053 306:0.041343669 307:0.012489233 308:0.0081826012 309:0.0094745909 310:0.007751938 311:0.26550388 312:0.29478898 313:0.16817399 314:0.066968131 315:0.078165375 316:0.077950043 317:0.02002584 318:0.0086132644 319:0.0096899225 320:0.010120586 321:0.0012919897 322:0.0075366064 323:0.19401378 324:0.28983635 325:0.31718346 326:0.12037037 327:0.052540913 328:0.014857881 329:0.0012919897 330:0.0010766581 331:0.40762274 332:0.20757967 333:0.13199828 334:0.072566753 335:0.10099053 336:0.041343669 337:0.012489233 338:0.0081826012 339:0.0094745909 340:0.007751938 341:0.26550388 342:0.29478898 343:0.16817399 344:0.066968131 345:0.078165375 346:0.077950043 347:0.02002584 348:0.0086132644 349:0.0096899225 350:0.010120586 351:0.0012919897 352:0.0075366064 353:0.19401378 354:0.28983635 355:0.31718346 356:0.12037037 357:0.052540913 358:0.014857881 359:0.0012919897 360:0.0010766581 
0.572682163164263 1:0.32795004 2:0.13329027 3:0.26808786 4:0.1838932 5:0.040697674 6:0.039836348 7:0.0043066322 8:0.0010766581 9:0.00043066322 10:0.00043066322 11:0.34345392 12:0.29931094 13:0.14664083 14:0.13565891 15:0.048664944 16:0.021317829 17:0.003875969 18:0.00021533161 19:0.00043066322 20:0.00043066322 21:0.22286822 22:0.50172265 23:0.22502153 24:0.0374677 25:0.0092592593 26:0.0027993109 27:0.00021533161 28:0.00021533161 30:0.00043066322 31:0.32795004 32:0.13329027 33:0.26808786 34:0.1838932 35:0.040697674 36:0.039836348 37:0.0043066322 38:0.0010766581 39:0.00043066322 40:0.00043066322 41:0.34345392 42:0.29931094 43:0.14664083 44:0.13565891 45:0.048664944 46:0.021317829 47:0.003875969 48:0.00021533161 49:0.00043066322 50:0.00043066322 51:0.22286822 52:0.50172265 53:0.22502153 54:0.0374677 55:0.0092592593 56:0.0027993109 57:0.00021533161 58:0.00021533161 60:0.00043066322 61:0.0019379845 62:0.043927649 63:0.42161929 64:0.17571059 65:0.096037898 66:0.11886305 67:0.047157623 68:0.030577089 69:0.043927649 70:0.020241171 71:0.012919897 72:0.14771748 73:0.20327304 74:0.19336779 75:0.12424634 76:0.19229113 77:0.054263566 78:0.03208441 79:0.022394488 80:0.01744186 81:0.0027993109 82:0.010120586 83:0.04543497 84:0.15030146 85:0.33656331 86:0.34022394 87:0.060508183 88:0.033161068 89:0.014427218 90:0.0064599483 91:0.0019379845 92:0.043927649 93:0.42161929 94:0.17571059 95:0.096037898 96:0.11886305 97:0.047157623 98:0.030577089 99:0.043927649 100:0.020241171 101:0.012919897 102:0.14771748 103:0.20327304 104:0.19336779 105:0.12424634 106:0.19229113 107:0.054263566 108:0.03208441 109:0.022394488 110:0.01744186 111:0.0027993109 112:0.010120586 113:0.04543497 114:0.15030146 115:0.33656331 116:0.34022394 117:0.060508183 118:0.033161068 119:0.014427218 120:0.0064599483 121:0.069982773 122:0.10917313 123:0.085917313 124:0.292205 125:0.16365202 126:0.16666667 127:0.038975022 128:0.057278208 130:0.016149871 131:0.088070629 132:0.033161068 133:0.47717485 134:0.15633075 135:0.015719208 136:0.078380706 137:0.054478898 138:0.074504737 139:0.0043066322 140:0.017872524 141:0.00064599483 142:0.0017226529 143:0.0043066322 144:0.011843239 145:0.091515935 146:0.12101637 147:0.53122308 148:0.16881998 149:0.043712317 150:0.025193798 151:0.069982773 152:0.10917313 153:0.085917313 154:0.292205 155:0.16365202 156:0.16666667 157:0.038975022 158:0.057278208 160:0.016149871 161:0.088070629 162:0.033161068 163:0.47717485 164:0.15633075 165:0.015719208 166:0.078380706 167:0.054478898 168:0.074504737 169:0.0043066322 170:0.017872524 171:0.00064599483 172:0.0017226529 173:0.0043066322 174:0.011843239 175:0.091515935 176:0.12101637 177:0.53122308 178:0.16881998 179:0.043712317 180:0.025193798 181:0.21080965 182:0.19078381 183:0.035745047 184:0.025839793 185:0.041559001 186:0.14061154 187:0.12381568 188:0.095391904 189:0.1083118 190:0.027131783 191:0.20004307 192:0.20801034 193:0.030361757 194:0.020671835 195:0.033591731 196:0.14341085 197:0.15094746 198:0.11391042 199:0.085917313 200:0.013135228 201:0.0021533161 202:0.0066752799 203:0.037898363 204:0.090223945 205:0.17054264 206:0.47932817 207:0.1838932 208:0.024763135 209:0.0034453058 210:0.0010766581 211:0.21080965 212:0.19078381 213:0.035745047 214:0.025839793 215:0.041559001 216:0.14061154 217:0.12381568 218:0.095391904 219:0.1083118 220:0.027131783 221:0.20004307 222:0.20801034 223:0.030361757 224:0.020671835 225:0.033591731 226:0.14341085 227:0.15094746 228:0.11391042 229:0.085917313 230:0.013135228 231:0.0021533161 232:0.0066752799 233:0.037898363 234:0.090223945 235:0.17054264 236:0.47932817 237:0.1838932 238:0.024763135 239:0.0034453058 240:0.0010766581 241:0.28122308 242:0.14685616 243:0.067614126 244:0.025624462 245:0.092807924 246:0.13199828 247:0.075150732 248:0.08161068 249:0.052540913 250:0.044573643 251:0.28639104 252:0.14211886 253:0.060723514 254:0.023901809 255:0.05749354 256:0.17140396 257:0.062015504 258:0.085486649 259:0.07622739 260:0.034237726 261:0.0062446167 262:0.010335917 263:0.039836348 264:0.052971576 265:0.19745909 266:0.38070629 267:0.19509044 268:0.088070629 269:0.02411714 270:0.0051679587 271:0.28122308 272:0.14685616 273:0.067614126 274:0.025624462 275:0.092807924 276:0.13199828 277:0.075150732 278:0.08161068 279:0.052540913 280:0.044573643 281:0.28639104 282:0.14211886 283:0.060723514 284:0.023901809 285:0.05749354 286:0.17140396 287:0.062015504 288:0.085486649 289:0.07622739 290:0.034237726 291:0.0062446167 292:0.010335917 293:0.039836348 294:0.052971576 295:0.19745909 296:0.38070629 297:0.19509044 298:0.088070629 299:0.02411714 300:0.0051679587 301:0.30534022 302:0.30577089 303:0.12424634 304:0.071059432 305:0.10400517 306:0.04672696 307:0.017872524 308:0.0071059432 309:0.0068906115 310:0.010981912 311:0.25667528 312:0.28832903 313:0.17204996 314:0.06955211 315:0.078596038 316:0.083333333 317:0.022825151 318:0.0081826012 319:0.010981912 320:0.0094745909 321:0.0010766581 322:0.086132644 323:0.21511628 324:0.38716624 325:0.10809647 326:0.12790698 327:0.061584841 328:0.0092592593 329:0.0023686477 330:0.0012919897 331:0.30534022 332:0.30577089 333:0.12424634 334:0.071059432 335:0.10400517 336:0.04672696 337:0.017872524 338:0.0071059432 339:0.0068906115 340:0.010981912 341:0.25667528 342:0.28832903 343:0.17204996 344:0.06955211 345:0.078596038 346:0.083333333 347:0.022825151 348:0.0081826012 349:0.010981912 350:0.0094745909 351:0.0010766581 352:0.086132644 353:0.21511628 354:0.38716624 355:0.10809647 356:0.12790698 357:0.061584841 358:0.0092592593 359:0.0023686477 360:0.0012919897 
0.2500158183331926 1:0.3215812 2:0.2732906 3:0.17905983 4:0.14722222 5:0.05 6:0.025641026 7:0.0023504274 8:0.00064102564 10:0.00021367521 11:0.34786325 12:0.18867521 13:0.21025641 14:0.14615385 15:0.053632479 16:0.039102564 17:0.012820513 18:0.0012820513 20:0.00021367521 21:0.24444444 22:0.51452991 23:0.19957265 24:0.036752137 25:0.0023504274 26:0.0017094017 27:0.00042735043 30:0.00021367521 31:0.3215812 32:0.2732906 33:0.17905983 34:0.14722222 35:0.05 36:0.025641026 37:0.0023504274 38:0.00064102564 40:0.00021367521 41:0.34786325 42:0.18867521 43:0.21025641 44:0.14615385 45:0.053632479 46:0.039102564 47:0.012820513 48:0.0012820513 50:0.00021367521 51:0.24444444 52:0.51452991 53:0.19957265 54:0.036752137 55:0.0023504274 56:0.0017094017 57:0.00042735043 60:0.00021367521 61:0.095299145 62:0.13440171 63:0.34487179 64:0.051495726 65:0.14636752 66:0.094017094 67:0.050854701 68:0.027350427 69:0.047222222 70:0.0081196581 71:0.0061965812 72:0.10982906 73:0.34508547 74:0.15747863 75:0.21645299 76:0.061965812 77:0.036111111 78:0.043376068 79:0.020726496 80:0.0027777778 81:0.0012820513 82:0.0025641026 83:0.024358974 84:0.06474359 85:0.16730769 86:0.32606838 87:0.33098291 88:0.026068376 89:0.040598291 90:0.016025641 91:0.095299145 92:0.13440171 93:0.34487179 94:0.051495726 95:0.14636752 96:0.094017094 97:0.050854701 98:0.027350427 99:0.047222222 100:0.0081196581 101:0.0061965812 102:0.10982906 103:0.34508547 104:0.15747863 105:0.21645299 106:0.061965812 107:0.036111111 108:0.043376068 109:0.020726496 110:0.0027777778 111:0.0012820513 112:0.0025641026 113:0.024358974 114:0.06474359 115:0.16730769 116:0.32606838 117:0.33098291 118:0.026068376 119:0.040598291 120:0.016025641 121:0.0051282051 122:0.0014957265 123:0.09465812 124:0.095940171 125:0.081196581 126:0.49786325 127:0.03974359 128:0.11474359 129:0.064102564 130:0.0051282051 131:0.11709402 132:0.0044871795 133:0.46987179 134:0.17094017 135:0.017735043 136:0.030982906 137:0.098504274 138:0.040811966 139:0.037179487 140:0.012393162 141:0.005982906 142:0.12371795 143:0.044017094 145:0.54615385 146:0.23055556 148:0.031410256 149:0.011965812 150:0.0061965812 151:0.0051282051 152:0.0014957265 153:0.09465812 154:0.095940171 155:0.081196581 156:0.49786325 157:0.03974359 158:0.11474359 159:0.064102564 160:0.0051282051 161:0.11709402 162:0.0044871795 163:0.46987179 164:0.17094017 165:0.017735043 166:0.030982906 167:0.098504274 168:0.040811966 169:0.037179487 170:0.012393162 171:0.005982906 172:0.12371795 173:0.044017094 175:0.54615385 176:0.23055556 178:0.031410256 179:0.011965812 180:0.0061965812 181:0.28931624 182:0.11645299 183:0.026495726 184:0.032478632 185:0.055128205 186:0.1525641 187:0.10299145 188:0.10042735 189:0.10064103 190:0.023504274 191:0.26346154 192:0.13995726 193:0.026923077 194:0.027136752 195:0.039957265 196:0.11901709 197:0.16431624 198:0.10470085 199:0.095512821 200:0.019017094 201:0.0055555556 202:0.027136752 203:0.087179487 204:0.19188034 205:0.33547009 206:0.28269231 207:0.052350427 208:0.016666667 209:0.00064102564 210:0.00042735043 211:0.28931624 212:0.11645299 213:0.026495726 214:0.032478632 215:0.055128205 216:0.1525641 217:0.10299145 218:0.10042735 219:0.10064103 220:0.023504274 221:0.26346154 222:0.13995726 223:0.026923077 224:0.027136752 225:0.039957265 226:0.11901709 227:0.16431624 228:0.10470085 229:0.095512821 230:0.019017094 231:0.0055555556 232:0.027136752 233:0.087179487 234:0.19188034 235:0.33547009 236:0.28269231 237:0.052350427 238:0.016666667 239:0.00064102564 240:0.00042735043 241:0.30555556 242:0.12820513 243:0.057478632 244:0.027136752 245:0.097222222 246:0.1482906 247:0.079487179 248:0.052991453 249:0.065384615 250:0.038247863 251:0.23183761 252:0.19081197 253:0.054273504 254:0.030769231 255:0.048717949 256:0.17094017 257:0.076495726 258:0.073931624 259:0.07542735 260:0.046794872 261:0.008974359 262:0.026282051 263:0.041025641 264:0.070512821 265:0.37735043 266:0.27820513 267:0.1474359 268:0.039957265 269:0.0079059829 270:0.0023504274 271:0.30555556 272:0.12820513 273:0.057478632 274:0.027136752 275:0.097222222 276:0.1482906 277:0.079487179 278:0.052991453 279:0.065384615 280:0.038247863 281:0.23183761 282:0.19081197 283:0.054273504 284:0.030769231 285:0.048717949 286:0.17094017 287:0.076495726 288:0.073931624 289:0.07542735 290:0.046794872 291:0.008974359 292:0.026282051 293:0.041025641 294:0.070512821 295:0.37735043 296:0.27820513 297:0.1474359 298:0.039957265 299:0.0079059829 300:0.0023504274 301:0.29935897 302:0.28247863 303:0.14294872 304:0.063675214 305:0.10277778 306:0.057264957 307:0.019017094 308:0.012820513 309:0.0098290598 310:0.0098290598 311:0.25363248 312:0.31346154 313:0.15747863 314:0.063888889 315:0.11196581 316:0.05534188 317:0.014957265 318:0.010897436 319:0.0091880342 320:0.0091880342 321:0.0017094017 322:0.11282051 323:0.15299145 324:0.35235043 325:0.2034188 326:0.13653846 327:0.030769231 328:0.0079059829 329:0.0010683761 330:0.00042735043 331:0.29935897 332:0.28247863 333:0.14294872 334:0.063675214 335:0.10277778 336:0.057264957 337:0.019017094 338:0.012820513 339:0.0098290598 340:0.0098290598 341:0.25363248 342:0.31346154 343:0.15747863 344:0.063888889 345:0.11196581 346:0.05534188 347:0.014957265 348:0.010897436 349:0.0091880342 350:0.0091880342 351:0.0017094017 352:0.11282051 353:0.15299145 354:0.35235043 355:0.2034188 356:0.13653846 357:0.030769231 358:0.0079059829 359:0.0010683761 360:0.00042735043 
0.5325257624390217 1:0.34288194 2:0.33376736 3:0.19791667 4:0.089626736 5:0.028645833 6:0.005859375 7:0.00086805556 8:0.00021701389 10:0.00021701389 11:0.3500434 12:0.37087674 13:0.14865451 14:0.085286458 15:0.037326389 16:0.005859375 17:0.0015190972 18:0.00021701389 20:0.00021701389 21:0.24023438 22:0.60590278 23:0.1265191 24:0.022569444 25:0.0032552083 26:0.0010850694 28:0.00021701389 30:0.00021701389 31:0.34288194 32:0.33376736 33:0.19791667 34:0.089626736 35:0.028645833 36:0.005859375 37:0.00086805556 38:0.00021701389 40:0.00021701389 41:0.3500434 42:0.37087674 43:0.14865451 44:0.085286458 45:0.037326389 46:0.005859375 47:0.0015190972 48:0.00021701389 50:0.00021701389 51:0.24023438 52:0.60590278 53:0.1265191 54:0.022569444 55:0.0032552083 56:0.0010850694 58:0.00021701389 60:0.00021701389 61:0.017795139 62:0.22374132 63:0.31662326 64:0.073350694 65:0.20269097 66:0.096354167 68:0.045572917 69:0.013454861 70:0.010416667 71:0.0062934028 72:0.10915799 73:0.36523438 74:0.094401042 75:0.22916667 76:0.088324653 77:0.042317708 78:0.032335069 79:0.022352431 80:0.010416667 81:0.0067274306 82:0.016276042 83:0.042317708 84:0.16037326 85:0.37717014 86:0.35980903 87:0.027994792 88:0.0069444444 89:0.0010850694 90:0.0013020833 91:0.017795139 92:0.22374132 93:0.31662326 94:0.073350694 95:0.20269097 96:0.096354167 98:0.045572917 99:0.013454861 100:0.010416667 101:0.0062934028 102:0.10915799 103:0.36523438 104:0.094401042 105:0.22916667 106:0.088324653 107:0.042317708 108:0.032335069 109:0.022352431 110:0.010416667 111:0.0067274306 112:0.016276042 113:0.042317708 114:0.16037326 115:0.37717014 116:0.35980903 117:0.027994792 118:0.0069444444 119:0.0010850694 120:0.0013020833 121:0.055121528 122:0.0056423611 123:0.085069444 124:0.011067708 125:0.42513021 126:0.23415799 127:0.062282986 128:0.062934028 129:0.042100694 130:0.016493056 131:0.075086806 132:0.0026041667 133:0.44791667 134:0.22981771 135:0.032335069 136:0.024305556 137:0.1000434 138:0.055338542 139:0.016059028 140:0.016493056 141:0.00390625 142:0.012586806 143:0.092013889 144:0.059895833 146:0.56553819 147:0.20789931 148:0.039930556 149:0.015625 150:0.0026041667 151:0.055121528 152:0.0056423611 153:0.085069444 154:0.011067708 155:0.42513021 156:0.23415799 157:0.062282986 158:0.062934028 159:0.042100694 160:0.016493056 161:0.075086806 162:0.0026041667 163:0.44791667 164:0.22981771 165:0.032335069 166:0.024305556 167:0.1000434 168:0.055338542 169:0.016059028 170:0.016493056 171:0.00390625 172:0.012586806 173:0.092013889 174:0.059895833 176:0.56553819 177:0.20789931 178:0.039930556 179:0.015625 180:0.0026041667 181:0.29752604 182:0.11740451 183:0.029730903 184:0.024956597 185:0.063368056 186:0.20399306 187:0.084418403 188:0.10872396 189:0.060763889 190:0.0091145833 191:0.25043403 192:0.15842014 193:0.026909722 194:0.024088542 195:0.032335069 196:0.11588542 197:0.16948785 198:0.10221354 199:0.099609375 200:0.020616319 201:0.00390625 202:0.019965278 203:0.069661458 204:0.18164062 205:0.46440972 206:0.20377604 207:0.046223958 208:0.0065104167 209:0.0028211806 210:0.0010850694 211:0.29752604 212:0.11740451 213:0.029730903 214:0.024956597 215:0.063368056 216:0.20399306 217:0.084418403 218:0.10872396 219:0.060763889 220:0.0091145833 221:0.25043403 222:0.15842014 223:0.026909722 224:0.024088542 225:0.032335069 226:0.11588542 227:0.16948785 228:0.10221354 229:0.099609375 230:0.020616319 231:0.00390625 232:0.019965278 233:0.069661458 234:0.18164062 235:0.46440972 236:0.20377604 237:0.046223958 238:0.0065104167 239:0.0028211806 240:0.0010850694 241:0.29275174 242:0.15668403 243:0.046223958 244:0.029513889 245:0.15407986 246:0.10481771 247:0.083550347 248:0.077256944 249:0.049479167 250:0.0056423611 251:0.23220486 252:0.17903646 253:0.064887153 254:0.030815972 255:0.058159722 256:0.15429688 257:0.081814236 258:0.073784722 259:0.084418403 260:0.040581597 261:0.010850694 262:0.019314236 263:0.053385417 264:0.15342882 265:0.43923611 266:0.27126736 267:0.046006944 268:0.0052083333 269:0.00065104167 270:0.00065104167 271:0.29275174 272:0.15668403 273:0.046223958 274:0.029513889 275:0.15407986 276:0.10481771 277:0.083550347 278:0.077256944 279:0.049479167 280:0.0056423611 281:0.23220486 282:0.17903646 283:0.064887153 284:0.030815972 285:0.058159722 286:0.15429688 287:0.081814236 288:0.073784722 289:0.084418403 290:0.040581597 291:0.010850694 292:0.019314236 293:0.053385417 294:0.15342882 295:0.43923611 296:0.27126736 297:0.046006944 298:0.0052083333 299:0.00065104167 300:0.00065104167 301:0.2749566 302:0.33984375 303:0.12282986 304:0.077256944 305:0.10351562 306:0.046006944 307:0.013237847 308:0.0088975694 309:0.0091145833 310:0.0043402778 311:0.2749566 312:0.26497396 313:0.17860243 314:0.051866319 315:0.099175347 316:0.080729167 317:0.020833333 318:0.009765625 319:0.011935764 320:0.0071614583 321:0.00043402778 322:0.0062934028 323:0.19900174 324:0.30295139 325:0.30121528 326:0.13216146 327:0.040581597 328:0.013237847 329:0.0034722222 330:0.00065104167 331:0.2749566 332:0.33984375 333:0.12282986 334:0.077256944 335:0.10351562 336:0.046006944 337:0.013237847 338:0.0088975694 339:0.0091145833 340:0.0043402778 341:0.2749566 342:0.26497396 343:0.17860243 344:0.051866319 345:0.099175347 346:0.080729167 347:0.020833333 348:0.009765625 349:0.011935764 350:0.0071614583 351:0.00043402778 352:0.0062934028 353:0.19900174 354:0.30295139 355:0.30121528 356:0.13216146 357:0.040581597 358:0.013237847 359:0.0034722222 360:0.00065104167 
0.4316206869583962 1:0.21352841 2:0.28392706 3:0.16136556 4:0.16115352 5:0.096268024 6:0.031594572 7:0.021204411 8:0.0097540288 9:0.012722646 10:0.0084817642 11:0.44910941 12:0.22031383 13:0.14270568 14:0.094995759 15:0.036259542 16:0.016963528 17:0.012086514 18:0.010390161 19:0.0095419847 20:0.0076335878 21:0.43575064 22:0.24703138 23:0.14694656 24:0.083121289 25:0.031382528 26:0.018871925 27:0.0099660729 28:0.008057676 29:0.010178117 30:0.0086938083 31:0.21352841 32:0.28392706 33:0.16136556 34:0.16115352 35:0.096268024 36:0.031594572 37:0.021204411 38:0.0097540288 39:0.012722646 40:0.0084817642 41:0.44910941 42:0.22031383 43:0.14270568 44:0.094995759 45:0.036259542 46:0.016963528 47:0.012086514 48:0.010390161 49:0.0095419847 50:0.0076335878 51:0.43575064 52:0.24703138 53:0.14694656 54:0.083121289 55:0.031382528 56:0.018871925 57:0.0099660729 58:0.008057676 59:0.010178117 60:0.0086938083 61:0.070610687 62:0.10983885 63:0.10050891 64:0.1692112 65:0.1851145 66:0.21140797 67:0.099660729 68:0.035835454 69:0.013994911 70:0.0038167939 71:0.066157761 72:0.15966921 73:0.17281595 74:0.21988974 75:0.22603902 76:0.094147583 77:0.039864292 78:0.016115352 79:0.0042408821 80:0.0010602205 81:0.013570823 82:0.18002545 83:0.1961408 84:0.2735369 85:0.23494487 86:0.054071247 87:0.036047498 88:0.0089058524 89:0.0019083969 90:0.00084817642 91:0.070610687 92:0.10983885 93:0.10050891 94:0.1692112 95:0.1851145 96:0.21140797 97:0.099660729 98:0.035835454 99:0.013994911 100:0.0038167939 101:0.066157761 102:0.15966921 103:0.17281595 104:0.21988974 105:0.22603902 106:0.094147583 107:0.039864292 108:0.016115352 109:0.0042408821 110:0.0010602205 111:0.013570823 112:0.18002545 113:0.1961408 114:0.2735369 115:0.23494487 116:0.054071247 117:0.036047498 118:0.0089058524 119:0.0019083969 120:0.00084817642 121:0.016751484 122:0.041136556 123:0.17302799 124:0.17536047 125:0.20631891 126:0.16369805 127:0.12340967 128:0.057251908 129:0.029898219 130:0.013146735 131:0.021204411 132:0.15521628 133:0.17196777 134:0.20589483 135:0.19783715 136:0.14270568 137:0.057039864 138:0.037319763 139:0.0086938083 140:0.0021204411 141:0.020992366 142:0.1995335 143:0.14270568 144:0.17599661 145:0.21819338 146:0.14525021 147:0.052586938 148:0.036047498 149:0.0074215437 150:0.0012722646 151:0.016751484 152:0.041136556 153:0.17302799 154:0.17536047 155:0.20631891 156:0.16369805 157:0.12340967 158:0.057251908 159:0.029898219 160:0.013146735 161:0.021204411 162:0.15521628 163:0.17196777 164:0.20589483 165:0.19783715 166:0.14270568 167:0.057039864 168:0.037319763 169:0.0086938083 170:0.0021204411 171:0.020992366 172:0.1995335 173:0.14270568 174:0.17599661 175:0.21819338 176:0.14525021 177:0.052586938 178:0.036047498 179:0.0074215437 180:0.0012722646 181:0.033502969 182:0.096268024 183:0.10114504 184:0.10920271 185:0.14100933 186:0.16687871 187:0.15500424 188:0.11641221 189:0.074851569 190:0.0057251908 191:0.066793893 192:0.13019508 193:0.11238338 194:0.13401187 195:0.1187447 196:0.16666667 197:0.13104326 198:0.098600509 199:0.037319763 200:0.0042408821 201:0.075487701 202:0.12298558 203:0.1365564 204:0.12171332 205:0.10326548 206:0.18087362 207:0.12722646 208:0.093087362 209:0.035411366 210:0.0033927057 211:0.033502969 212:0.096268024 213:0.10114504 214:0.10920271 215:0.14100933 216:0.16687871 217:0.15500424 218:0.11641221 219:0.074851569 220:0.0057251908 221:0.066793893 222:0.13019508 223:0.11238338 224:0.13401187 225:0.1187447 226:0.16666667 227:0.13104326 228:0.098600509 229:0.037319763 230:0.0042408821 231:0.075487701 232:0.12298558 233:0.1365564 234:0.12171332 235:0.10326548 236:0.18087362 237:0.12722646 238:0.093087362 239:0.035411366 240:0.0033927057 241:0.042408821 242:0.086726039 243:0.12849873 244:0.10178117 245:0.10135708 246:0.13910093 247:0.21480068 248:0.12234945 249:0.043044953 250:0.019932146 251:0.069550466 252:0.16115352 253:0.12553011 254:0.073579304 255:0.11089907 256:0.18532655 257:0.14779474 258:0.079092451 259:0.037107718 260:0.0099660729 261:0.085877863 262:0.21310433 263:0.090966921 264:0.091391009 265:0.12743851 266:0.1581849 267:0.11047498 268:0.078456319 269:0.03668363 270:0.0074215437 271:0.042408821 272:0.086726039 273:0.12849873 274:0.10178117 275:0.10135708 276:0.13910093 277:0.21480068 278:0.12234945 279:0.043044953 280:0.019932146 281:0.069550466 282:0.16115352 283:0.12553011 284:0.073579304 285:0.11089907 286:0.18532655 287:0.14779474 288:0.079092451 289:0.037107718 290:0.0099660729 291:0.085877863 292:0.21310433 293:0.090966921 294:0.091391009 295:0.12743851 296:0.1581849 297:0.11047498 298:0.078456319 299:0.03668363 300:0.0074215437 301:0.074003393 302:0.08884648 303:0.21204411 304:0.18977947 305:0.093723494 306:0.091178965 307:0.13104326 308:0.10368957 309:0.014206955 310:0.0014843087 311:0.086938083 312:0.17514843 313:0.23091603 314:0.12828668 315:0.058100085 316:0.10559796 317:0.12086514 318:0.077608142 319:0.015055131 320:0.0014843087 321:0.10347752 322:0.20229008 323:0.25318066 324:0.074003393 325:0.078880407 326:0.10156913 327:0.11980492 328:0.054283291 329:0.011026293 330:0.0014843087 331:0.074003393 332:0.08884648 333:0.21204411 334:0.18977947 335:0.093723494 336:0.091178965 337:0.13104326 338:0.10368957 339:0.014206955 340:0.0014843087 341:0.086938083 342:0.17514843 343:0.23091603 344:0.12828668 345:0.058100085 346:0.10559796 347:0.12086514 348:0.077608142 349:0.015055131 350:0.0014843087 351:0.10347752 352:0.20229008 353:0.25318066 354:0.074003393 355:0.078880407 356:0.10156913 357:0.11980492 358:0.054283291 359:0.011026293 360:0.0014843087 
0.3382405753281343 1:0.0027151211 2:0.00062656642 3:0.0010442774 5:0.19903926 6:0.32184628 7:0.26984127 8:0.15309106 9:0.040935673 10:0.010860485 11:0.0029239766 12:0.00062656642 13:0.00083542189 15:0.24561404 16:0.41144528 17:0.23224728 18:0.072681704 19:0.027777778 20:0.0058479532 21:0.0027151211 22:0.0010442774 23:0.00041771094 24:0.00020885547 25:0.22535505 26:0.4713868 27:0.21679198 28:0.059106099 29:0.019005848 30:0.003968254 31:0.0027151211 32:0.00062656642 33:0.0010442774 35:0.19903926 36:0.32184628 37:0.26984127 38:0.15309106 39:0.040935673 40:0.010860485 41:0.0029239766 42:0.00062656642 43:0.00083542189 45:0.24561404 46:0.41144528 47:0.23224728 48:0.072681704 49:0.027777778 50:0.0058479532 51:0.0027151211 52:0.0010442774 53:0.00041771094 54:0.00020885547 55:0.22535505 56:0.4713868 57:0.21679198 58:0.059106099 59:0.019005848 60:0.003968254 61:0.021094403 62:0.13784461 63:0.13596491 64:0.17021721 65:0.20927318 66:0.21365915 67:0.064745196 68:0.035923141 69:0.010233918 70:0.0010442774 71:0.011278195 72:0.14974937 73:0.14724311 74:0.20279866 75:0.3377193 76:0.088972431 77:0.036758563 78:0.016081871 79:0.0081453634 80:0.0012531328 81:0.007518797 82:0.08625731 83:0.22096909 84:0.2195071 85:0.28571429 86:0.12238931 87:0.035296575 88:0.014411028 89:0.0068922306 90:0.0010442774 91:0.021094403 92:0.13784461 93:0.13596491 94:0.17021721 95:0.20927318 96:0.21365915 97:0.064745196 98:0.035923141 99:0.010233918 100:0.0010442774 101:0.011278195 102:0.14974937 103:0.14724311 104:0.20279866 105:0.3377193 106:0.088972431 107:0.036758563 108:0.016081871 109:0.0081453634 110:0.0012531328 111:0.007518797 112:0.08625731 113:0.22096909 114:0.2195071 115:0.28571429 116:0.12238931 117:0.035296575 118:0.014411028 119:0.0068922306 120:0.0010442774 121:0.049498747 122:0.035087719 123:0.093567251 124:0.24310777 125:0.19340017 126:0.14515455 127:0.13241437 128:0.063074353 129:0.032163743 130:0.012531328 131:0.070175439 132:0.12823726 133:0.20614035 134:0.16290727 135:0.19486216 136:0.13095238 137:0.063700919 138:0.031746032 139:0.0096073517 140:0.0016708438 141:0.06411863 142:0.17460317 143:0.19360902 144:0.18065998 145:0.20112782 146:0.10923141 147:0.043859649 148:0.026106934 149:0.0050125313 150:0.0016708438 151:0.049498747 152:0.035087719 153:0.093567251 154:0.24310777 155:0.19340017 156:0.14515455 157:0.13241437 158:0.063074353 159:0.032163743 160:0.012531328 161:0.070175439 162:0.12823726 163:0.20614035 164:0.16290727 165:0.19486216 166:0.13095238 167:0.063700919 168:0.031746032 169:0.0096073517 170:0.0016708438 171:0.06411863 172:0.17460317 173:0.19360902 174:0.18065998 175:0.20112782 176:0.10923141 177:0.043859649 178:0.026106934 179:0.0050125313 180:0.0016708438 181:0.050334169 182:0.11006683 183:0.082289056 184:0.092940685 185:0.1449457 186:0.14160401 187:0.16269841 188:0.12969925 189:0.072263993 190:0.013157895 191:0.1088137 192:0.11487051 193:0.10776942 194:0.11466165 195:0.10359231 196:0.15893901 197:0.14619883 198:0.10860485 199:0.032163743 200:0.0043859649 201:0.10776942 202:0.12552214 203:0.1182122 204:0.10004177 205:0.11487051 206:0.16165414 207:0.1280284 208:0.10672515 209:0.032790309 210:0.0043859649 211:0.050334169 212:0.11006683 213:0.082289056 214:0.092940685 215:0.1449457 216:0.14160401 217:0.16269841 218:0.12969925 219:0.072263993 220:0.013157895 221:0.1088137 222:0.11487051 223:0.10776942 224:0.11466165 225:0.10359231 226:0.15893901 227:0.14619883 228:0.10860485 229:0.032163743 230:0.0043859649 231:0.10776942 232:0.12552214 233:0.1182122 234:0.10004177 235:0.11487051 236:0.16165414 237:0.1280284 238:0.10672515 239:0.032790309 240:0.0043859649 241:0.026315789 242:0.071219716 243:0.17564745 244:0.12280702 245:0.099206349 246:0.14995823 247:0.19152047 248:0.11382623 249:0.03320802 250:0.016290727 251:0.031328321 252:0.14055973 253:0.20718463 254:0.085004177 255:0.1088137 256:0.14995823 257:0.14431913 258:0.088137009 259:0.029239766 260:0.015455305 261:0.082080201 262:0.2157477 263:0.12573099 264:0.09732665 265:0.10944027 266:0.15622389 267:0.10756057 268:0.064536341 269:0.026315789 270:0.015037594 271:0.026315789 272:0.071219716 273:0.17564745 274:0.12280702 275:0.099206349 276:0.14995823 277:0.19152047 278:0.11382623 279:0.03320802 280:0.016290727 281:0.031328321 282:0.14055973 283:0.20718463 284:0.085004177 285:0.1088137 286:0.14995823 287:0.14431913 288:0.088137009 289:0.029239766 290:0.015455305 291:0.082080201 292:0.2157477 293:0.12573099 294:0.09732665 295:0.10944027 296:0.15622389 297:0.10756057 298:0.064536341 299:0.026315789 300:0.015037594 301:0.051796157 302:0.11027569 303:0.17209691 304:0.15559733 305:0.14995823 306:0.073517126 307:0.091269841 308:0.10275689 309:0.076858814 310:0.015873016 311:0.12071846 312:0.19778613 313:0.15914787 314:0.14452799 315:0.061194653 316:0.066833751 317:0.093149541 318:0.094611529 319:0.051378446 320:0.010651629 321:0.13283208 322:0.21908939 323:0.18191312 324:0.11006683 325:0.056599833 326:0.074143693 327:0.090016708 328:0.087928154 329:0.04197995 330:0.0054302423 331:0.051796157 332:0.11027569 333:0.17209691 334:0.15559733 335:0.14995823 336:0.073517126 337:0.091269841 338:0.10275689 339:0.076858814 340:0.015873016 341:0.12071846 342:0.19778613 343:0.15914787 344:0.14452799 345:0.061194653 346:0.066833751 347:0.093149541 348:0.094611529 349:0.051378446 350:0.010651629 351:0.13283208 352:0.21908939 353:0.18191312 354:0.11006683 355:0.056599833 356:0.074143693 357:0.090016708 358:0.087928154 359:0.04197995 360:0.0054302423 
1 1:0.083984375 2:0.35677083 3:0.16102431 4:0.18815104 5:0.10546875 6:0.042534722 7:0.025824653 8:0.014756944 9:0.013237847 10:0.0082465278 11:0.40950521 12:0.24696181 13:0.15863715 14:0.091796875 15:0.030815972 16:0.022786458 17:0.0084635417 18:0.017361111 19:0.0084635417 20:0.0052083333 21:0.359375 22:0.30989583 23:0.15690104 24:0.080078125 25:0.03125 26:0.0234375 27:0.0088975694 28:0.016493056 29:0.0082465278 30:0.0054253472 31:0.083984375 32:0.35677083 33:0.16102431 34:0.18815104 35:0.10546875 36:0.042534722 37:0.025824653 38:0.014756944 39:0.013237847 40:0.0082465278 41:0.40950521 42:0.24696181 43:0.15863715 44:0.091796875 45:0.030815972 46:0.022786458 47:0.0084635417 48:0.017361111 49:0.0084635417 50:0.0052083333 51:0.359375 52:0.30989583 53:0.15690104 54:0.080078125 55:0.03125 56:0.0234375 57:0.0088975694 58:0.016493056 59:0.0082465278 60:0.0054253472 61:0.049696181 62:0.11371528 63:0.11762153 64:0.17209201 65:0.23220486 66:0.17643229 67:0.082248264 68:0.037326389 69:0.015625 70:0.0030381944 71:0.012369792 72:0.14257812 73:0.16276042 74:0.23958333 75:0.27734375 76:0.093967014 77:0.038194444 78:0.024522569 79:0.0073784722 80:0.0013020833 81:0.009765625 82:0.13519965 83:0.21354167 84:0.26432292 85:0.25043403 86:0.074001736 87:0.034288194 88:0.015407986 89:0.0021701389 90:0.00086805556 91:0.049696181 92:0.11371528 93:0.11762153 94:0.17209201 95:0.23220486 96:0.17643229 97:0.082248264 98:0.037326389 99:0.015625 100:0.0030381944 101:0.012369792 102:0.14257812 103:0.16276042 104:0.23958333 105:0.27734375 106:0.093967014 107:0.038194444 108:0.024522569 109:0.0073784722 110:0.0013020833 111:0.009765625 112:0.13519965 113:0.21354167 114:0.26432292 115:0.25043403 116:0.074001736 117:0.034288194 118:0.015407986 119:0.0021701389 120:0.00086805556 121:0.010199653 122:0.011501736 123:0.097873264 124:0.19466146 125:0.22113715 126:0.18098958 127:0.13823785 128:0.091145833 129:0.037760417 130:0.016493056 131:0.012803819 132:0.044053819 133:0.23567708 134:0.13346354 135:0.2109375 136:0.21332465 137:0.0859375 138:0.044053819 139:0.016493056 140:0.0032552083 141:0.013454861 142:0.11458333 143:0.18880208 144:0.16623264 145:0.21397569 146:0.17144097 147:0.086154514 148:0.034071181 149:0.0084635417 150:0.0028211806 151:0.010199653 152:0.011501736 153:0.097873264 154:0.19466146 155:0.22113715 156:0.18098958 157:0.13823785 158:0.091145833 159:0.037760417 160:0.016493056 161:0.012803819 162:0.044053819 163:0.23567708 164:0.13346354 165:0.2109375 166:0.21332465 167:0.0859375 168:0.044053819 169:0.016493056 170:0.0032552083 171:0.013454861 172:0.11458333 173:0.18880208 174:0.16623264 175:0.21397569 176:0.17144097 177:0.086154514 178:0.034071181 179:0.0084635417 180:0.0028211806 181:0.032118056 182:0.12912326 183:0.10698785 184:0.10047743 185:0.13997396 186:0.14887153 187:0.17708333 188:0.11263021 189:0.048611111 190:0.0041232639 191:0.068359375 192:0.13411458 193:0.12673611 194:0.12890625 195:0.10394965 196:0.15820312 197:0.14127604 198:0.09765625 199:0.034722222 200:0.0060763889 201:0.071397569 202:0.13411458 203:0.14040799 204:0.11306424 205:0.11024306 206:0.16796875 207:0.12955729 208:0.092447917 209:0.034722222 210:0.0060763889 211:0.032118056 212:0.12912326 213:0.10698785 214:0.10047743 215:0.13997396 216:0.14887153 217:0.17708333 218:0.11263021 219:0.048611111 220:0.0041232639 221:0.068359375 222:0.13411458 223:0.12673611 224:0.12890625 225:0.10394965 226:0.15820312 227:0.14127604 228:0.09765625 229:0.034722222 230:0.0060763889 231:0.071397569 232:0.13411458 233:0.14040799 234:0.11306424 235:0.11024306 236:0.16796875 237:0.12955729 238:0.092447917 239:0.034722222 240:0.0060763889 241:0.055338542 242:0.11653646 243:0.15386285 244:0.072699653 245:0.11783854 246:0.16927083 247:0.18576389 248:0.089192708 249:0.032118056 250:0.0073784722 251:0.12282986 252:0.18815104 253:0.096571181 254:0.086371528 255:0.14084201 256:0.16666667 257:0.12977431 258:0.042534722 259:0.022786458 260:0.0034722222 261:0.15234375 262:0.19118924 263:0.085286458 264:0.10221354 265:0.14301215 266:0.15668403 267:0.10872396 268:0.036458333 269:0.020616319 270:0.0034722222 271:0.055338542 272:0.11653646 273:0.15386285 274:0.072699653 275:0.11783854 276:0.16927083 277:0.18576389 278:0.089192708 279:0.032118056 280:0.0073784722 281:0.12282986 282:0.18815104 283:0.096571181 284:0.086371528 285:0.14084201 286:0.16666667 287:0.12977431 288:0.042534722 289:0.022786458 290:0.0034722222 291:0.15234375 292:0.19118924 293:0.085286458 294:0.10221354 295:0.14301215 296:0.15668403 297:0.10872396 298:0.036458333 299:0.020616319 300:0.0034722222 301:0.054904514 302:0.064453125 303:0.18641493 304:0.18793403 305:0.13302951 306:0.085720486 307:0.12630208 308:0.12065972 309:0.034939236 310:0.0056423611 311:0.095052083 312:0.16601562 313:0.25607639 314:0.094184028 315:0.073133681 316:0.10525174 317:0.13758681 318:0.057508681 319:0.012803819 320:0.0023871528 321:0.11067708 322:0.20052083 323:0.25 324:0.073784722 325:0.080295139 326:0.12217882 327:0.10872396 328:0.043402778 329:0.0088975694 330:0.0015190972 331:0.054904514 332:0.064453125 333:0.18641493 334:0.18793403 335:0.13302951 336:0.085720486 337:0.12630208 338:0.12065972 339:0.034939236 340:0.0056423611 341:0.095052083 342:0.16601562 343:0.25607639 344:0.094184028 345:0.073133681 346:0.10525174 347:0.13758681 348:0.057508681 349:0.012803819 350:0.0023871528 351:0.11067708 352:0.20052083 353:0.25 354:0.073784722 355:0.080295139 356:0.12217882 357:0.10872396 358:0.043402778 359:0.0088975694 360:0.0015190972 
0.00909924508258627 1:0.28307888 2:0.22943172 3:0.19635284 4:0.15776081 5:0.08524173 6:0.025233249 7:0.011450382 8:0.0048770144 9:0.0029686175 10:0.0036047498 11:0.47858355 12:0.22985581 13:0.15966921 14:0.081000848 15:0.022688719 16:0.014843087 17:0.0038167939 18:0.0044529262 19:0.0016963528 20:0.0033927057 21:0.44359627 22:0.2553011 23:0.15839695 24:0.093723494 25:0.021416455 26:0.014843087 27:0.0044529262 28:0.0038167939 29:0.0014843087 30:0.0029686175 31:0.28307888 32:0.22943172 33:0.19635284 34:0.15776081 35:0.08524173 36:0.025233249 37:0.011450382 38:0.0048770144 39:0.0029686175 40:0.0036047498 41:0.47858355 42:0.22985581 43:0.15966921 44:0.081000848 45:0.022688719 46:0.014843087 47:0.0038167939 48:0.0044529262 49:0.0016963528 50:0.0033927057 51:0.44359627 52:0.2553011 53:0.15839695 54:0.093723494 55:0.021416455 56:0.014843087 57:0.0044529262 58:0.0038167939 59:0.0014843087 60:0.0029686175 61:0.055343511 62:0.12319763 63:0.12383376 64:0.19083969 65:0.2158609 66:0.20186599 67:0.057675997 68:0.021416455 69:0.0076335878 70:0.0023324852 71:0.027565734 72:0.18256997 73:0.20801527 74:0.25 75:0.23409669 76:0.05682782 77:0.029262087 78:0.0076335878 79:0.0033927057 80:0.00063613232 81:0.0046649703 82:0.14546226 83:0.23621713 84:0.2553011 85:0.26314673 86:0.059584394 87:0.022688719 88:0.0099660729 89:0.0023324852 90:0.00063613232 91:0.055343511 92:0.12319763 93:0.12383376 94:0.19083969 95:0.2158609 96:0.20186599 97:0.057675997 98:0.021416455 99:0.0076335878 100:0.0023324852 101:0.027565734 102:0.18256997 103:0.20801527 104:0.25 105:0.23409669 106:0.05682782 107:0.029262087 108:0.0076335878 109:0.0033927057 110:0.00063613232 111:0.0046649703 112:0.14546226 113:0.23621713 114:0.2553011 115:0.26314673 116:0.059584394 117:0.022688719 118:0.0099660729 119:0.0023324852 120:0.00063613232 121:0.0095419847 122:0.06403732 123:0.22264631 124:0.16221374 125:0.18977947 126:0.14291773 127:0.11704835 128:0.047921968 129:0.035835454 130:0.008057676 131:0.008057676 132:0.17536047 133:0.18744699 134:0.23664122 135:0.20080577 136:0.1168363 137:0.046225615 138:0.022688719 139:0.0050890585 140:0.00084817642 141:0.016751484 142:0.20843936 143:0.18659881 144:0.22752332 145:0.18150975 146:0.12022901 147:0.043256997 148:0.01187447 149:0.0029686175 150:0.00084817642 151:0.0095419847 152:0.06403732 153:0.22264631 154:0.16221374 155:0.18977947 156:0.14291773 157:0.11704835 158:0.047921968 159:0.035835454 160:0.008057676 161:0.008057676 162:0.17536047 163:0.18744699 164:0.23664122 165:0.20080577 166:0.1168363 167:0.046225615 168:0.022688719 169:0.0050890585 170:0.00084817642 171:0.016751484 172:0.20843936 173:0.18659881 174:0.22752332 175:0.18150975 176:0.12022901 177:0.043256997 178:0.01187447 179:0.0029686175 180:0.00084817642 181:0.070186599 182:0.090118745 183:0.08418151 184:0.12828668 185:0.15733673 186:0.16984733 187:0.14864292 188:0.11195929 189:0.033715013 190:0.0057251908 191:0.10899067 192:0.10135708 193:0.12319763 194:0.11980492 195:0.14821883 196:0.1620017 197:0.11513995 198:0.0971162 199:0.020356234 200:0.0038167939 201:0.10390161 202:0.11365564 203:0.1293469 204:0.11938083 205:0.14694656 206:0.16984733 207:0.10941476 208:0.08778626 209:0.016327396 210:0.0033927057 211:0.070186599 212:0.090118745 213:0.08418151 214:0.12828668 215:0.15733673 216:0.16984733 217:0.14864292 218:0.11195929 219:0.033715013 220:0.0057251908 221:0.10899067 222:0.10135708 223:0.12319763 224:0.11980492 225:0.14821883 226:0.1620017 227:0.11513995 228:0.0971162 229:0.020356234 230:0.0038167939 231:0.10390161 232:0.11365564 233:0.1293469 234:0.11938083 235:0.14694656 236:0.16984733 237:0.10941476 238:0.08778626 239:0.016327396 240:0.0033927057 241:0.033927057 242:0.085029686 243:0.15670059 244:0.090118745 245:0.12510602 246:0.18447837 247:0.17578456 248:0.093723494 249:0.039228159 250:0.015903308 251:0.055343511 252:0.17239186 253:0.1187447 254:0.10326548 255:0.11556404 256:0.18066158 257:0.13698049 258:0.069974555 259:0.035835454 260:0.011238338 261:0.093299406 262:0.19804919 263:0.10326548 264:0.098176421 265:0.1509754 266:0.14100933 267:0.11047498 268:0.061280746 269:0.036471586 270:0.0069974555 271:0.033927057 272:0.085029686 273:0.15670059 274:0.090118745 275:0.12510602 276:0.18447837 277:0.17578456 278:0.093723494 279:0.039228159 280:0.015903308 281:0.055343511 282:0.17239186 283:0.1187447 284:0.10326548 285:0.11556404 286:0.18066158 287:0.13698049 288:0.069974555 289:0.035835454 290:0.011238338 291:0.093299406 292:0.19804919 293:0.10326548 294:0.098176421 295:0.1509754 296:0.14100933 297:0.11047498 298:0.061280746 299:0.036471586 300:0.0069974555 301:0.07697201 302:0.093299406 303:0.20949958 304:0.12659033 305:0.14016115 306:0.077608142 307:0.085877863 308:0.12340967 309:0.056191688 310:0.010390161 311:0.095631891 312:0.16645462 313:0.22752332 314:0.12722646 315:0.0557676 316:0.079092451 317:0.11450382 318:0.096268024 319:0.033502969 320:0.004028838 321:0.10284139 322:0.21310433 323:0.22709924 324:0.094571671 325:0.063613232 326:0.080788804 327:0.10538592 328:0.083545377 329:0.026081425 330:0.0029686175 331:0.07697201 332:0.093299406 333:0.20949958 334:0.12659033 335:0.14016115 336:0.077608142 337:0.085877863 338:0.12340967 339:0.056191688 340:0.010390161 341:0.095631891 342:0.16645462 343:0.22752332 344:0.12722646 345:0.0557676 346:0.079092451 347:0.11450382 348:0.096268024 349:0.033502969 350:0.004028838 351:0.10284139 352:0.21310433 353:0.22709924 354:0.094571671 355:0.063613232 356:0.080788804 357:0.10538592 358:0.083545377 359:0.026081425 360:0.0029686175 
1 1:0.27841391 2:0.23430874 3:0.1889313 4:0.15394402 5:0.094359627 6:0.026929601 7:0.011662426 8:0.0053011026 9:0.0027565734 10:0.0033927057 11:0.47667515 12:0.23091603 13:0.1475827 14:0.08778626 15:0.02735369 16:0.015691264 17:0.0036047498 18:0.0053011026 19:0.0016963528 20:0.0033927057 21:0.4586514 22:0.24787956 23:0.15436811 24:0.087362171 25:0.024173028 26:0.014843087 27:0.004028838 28:0.0044529262 29:0.0010602205 30:0.0031806616 31:0.27841391 32:0.23430874 33:0.1889313 34:0.15394402 35:0.094359627 36:0.026929601 37:0.011662426 38:0.0053011026 39:0.0027565734 40:0.0033927057 41:0.47667515 42:0.23091603 43:0.1475827 44:0.08778626 45:0.02735369 46:0.015691264 47:0.0036047498 48:0.0053011026 49:0.0016963528 50:0.0033927057 51:0.4586514 52:0.24787956 53:0.15436811 54:0.087362171 55:0.024173028 56:0.014843087 57:0.004028838 58:0.0044529262 59:0.0010602205 60:0.0031806616 61:0.091603053 62:0.13295165 63:0.13910093 64:0.16984733 65:0.23791349 66:0.15055131 67:0.048982188 68:0.020356234 69:0.0065733673 70:0.0021204411 71:0.047921968 72:0.18341815 73:0.2105598 74:0.2446989 75:0.21183206 76:0.068278202 77:0.021840543 78:0.0091178965 79:0.0012722646 80:0.0010602205 81:0.0061492791 82:0.15161154 83:0.21670908 84:0.29834606 85:0.22434266 86:0.068490246 87:0.02374894 88:0.0078456319 89:0.0016963528 90:0.0010602205 91:0.091603053 92:0.13295165 93:0.13910093 94:0.16984733 95:0.23791349 96:0.15055131 97:0.048982188 98:0.020356234 99:0.0065733673 100:0.0021204411 101:0.047921968 102:0.18341815 103:0.2105598 104:0.2446989 105:0.21183206 106:0.068278202 107:0.021840543 108:0.0091178965 109:0.0012722646 110:0.0010602205 111:0.0061492791 112:0.15161154 113:0.21670908 114:0.29834606 115:0.22434266 116:0.068490246 117:0.02374894 118:0.0078456319 119:0.0016963528 120:0.0010602205 121:0.0029686175 122:0.050678541 123:0.20483461 124:0.19592875 125:0.18002545 126:0.17875318 127:0.10771841 128:0.044741306 129:0.031594572 130:0.0027565734 131:0.0046649703 132:0.10029686 133:0.21289228 134:0.22052587 135:0.21077184 136:0.14864292 137:0.061492791 138:0.033290925 139:0.0053011026 140:0.0021204411 141:0.0061492791 142:0.19741306 143:0.18871925 144:0.21225615 145:0.2014419 146:0.11620017 147:0.054071247 148:0.017811705 149:0.004028838 150:0.0019083969 151:0.0029686175 152:0.050678541 153:0.20483461 154:0.19592875 155:0.18002545 156:0.17875318 157:0.10771841 158:0.044741306 159:0.031594572 160:0.0027565734 161:0.0046649703 162:0.10029686 163:0.21289228 164:0.22052587 165:0.21077184 166:0.14864292 167:0.061492791 168:0.033290925 169:0.0053011026 170:0.0021204411 171:0.0061492791 172:0.19741306 173:0.18871925 174:0.21225615 175:0.2014419 176:0.11620017 177:0.054071247 178:0.017811705 179:0.004028838 180:0.0019083969 181:0.060008482 182:0.09605598 183:0.08057676 184:0.12340967 185:0.16178965 186:0.1764207 187:0.15012723 188:0.11513995 189:0.030958439 190:0.0055131467 191:0.12001696 192:0.099660729 193:0.12362171 194:0.11938083 195:0.1528838 196:0.16094148 197:0.11323155 198:0.090330789 199:0.01653944 200:0.0033927057 201:0.10199321 202:0.11535199 203:0.12871077 204:0.12107718 205:0.15161154 206:0.18150975 207:0.099660729 208:0.082061069 209:0.014843087 210:0.0031806616 211:0.060008482 212:0.09605598 213:0.08057676 214:0.12340967 215:0.16178965 216:0.1764207 217:0.15012723 218:0.11513995 219:0.030958439 220:0.0055131467 221:0.12001696 222:0.099660729 223:0.12362171 224:0.11938083 225:0.1528838 226:0.16094148 227:0.11323155 228:0.090330789 229:0.01653944 230:0.0033927057 231:0.10199321 232:0.11535199 233:0.12871077 234:0.12107718 235:0.15161154 236:0.18150975 237:0.099660729 238:0.082061069 239:0.014843087 240:0.0031806616 241:0.033715013 242:0.07697201 243:0.15860899 244:0.10114504 245:0.12637829 246:0.17726887 247:0.1870229 248:0.088210348 249:0.038379983 250:0.012298558 251:0.062128923 252:0.1870229 253:0.10793045 254:0.10114504 255:0.12107718 256:0.19402036 257:0.11662426 258:0.065733673 259:0.039864292 260:0.0044529262 261:0.09351145 262:0.20780322 263:0.10114504 264:0.096692112 265:0.14991518 266:0.15882103 267:0.093723494 268:0.057463953 269:0.036895674 270:0.004028838 271:0.033715013 272:0.07697201 273:0.15860899 274:0.10114504 275:0.12637829 276:0.17726887 277:0.1870229 278:0.088210348 279:0.038379983 280:0.012298558 281:0.062128923 282:0.1870229 283:0.10793045 284:0.10114504 285:0.12107718 286:0.19402036 287:0.11662426 288:0.065733673 289:0.039864292 290:0.0044529262 291:0.09351145 292:0.20780322 293:0.10114504 294:0.096692112 295:0.14991518 296:0.15882103 297:0.093723494 298:0.057463953 299:0.036895674 300:0.004028838 301:0.077396098 302:0.087574215 303:0.21098388 304:0.13189143 305:0.13867684 306:0.078456319 307:0.099236641 308:0.11450382 309:0.051950806 310:0.0093299406 311:0.095419847 312:0.16815098 313:0.22688719 314:0.12701442 315:0.055979644 316:0.077184054 317:0.12340967 318:0.087574215 319:0.036047498 320:0.0023324852 321:0.10156913 322:0.20843936 323:0.23070399 324:0.095843936 325:0.062553011 326:0.094571671 327:0.10220526 328:0.078880407 329:0.022476675 330:0.0027565734 331:0.077396098 332:0.087574215 333:0.21098388 334:0.13189143 335:0.13867684 336:0.078456319 337:0.099236641 338:0.11450382 339:0.051950806 340:0.0093299406 341:0.095419847 342:0.16815098 343:0.22688719 344:0.12701442 345:0.055979644 346:0.077184054 347:0.12340967 348:0.087574215 349:0.036047498 350:0.0023324852 351:0.10156913 352:0.20843936 353:0.23070399 354:0.095843936 355:0.062553011 356:0.094571671 357:0.10220526 358:0.078880407 359:0.022476675 360:0.0027565734 
