svm_type c_svc
kernel_type linear
nr_class 2
total_sv 51
rho -0.940404
label -1 1
probA 0
probB -0.509496
nr_sv 29 22
SV
0.2182345393634267 1:0.0067854114 2:0.17769296 3:0.50551315 4:0.19508058 5:0.087150127 6:0.018659881 7:0.0057251908 8:0.0019083969 9:0.00063613232 10:0.00084817642 11:0.0086938083 12:0.37086514 13:0.39588634 14:0.16327396 15:0.044105174 16:0.011662426 17:0.0031806616 18:0.0012722646 19:0.00042408821 20:0.00063613232 21:0.14440204 22:0.17832909 23:0.14355386 24:0.15839695 25:0.11111111 26:0.1706955 27:0.084393554 28:0.0061492791 29:0.0016963528 30:0.0012722646 31:0.0067854114 32:0.17769296 33:0.50551315 34:0.19508058 35:0.087150127 36:0.018659881 37:0.0057251908 38:0.0019083969 39:0.00063613232 40:0.00084817642 41:0.0086938083 42:0.37086514 43:0.39588634 44:0.16327396 45:0.044105174 46:0.011662426 47:0.0031806616 48:0.0012722646 49:0.00042408821 50:0.00063613232 51:0.14440204 52:0.17832909 53:0.14355386 54:0.15839695 55:0.11111111 56:0.1706955 57:0.084393554 58:0.0061492791 59:0.0016963528 60:0.0012722646 61:0.0029686175 62:0.0038167939 63:0.021204411 64:0.10305344 65:0.42493639 66:0.29410517 67:0.1043257 68:0.03668363 69:0.0076335878 70:0.0012722646 71:0.0025445293 72:0.00084817642 73:0.0057251908 74:0.014843087 75:0.098600509 76:0.57124682 77:0.18235793 78:0.09245123 79:0.02735369 80:0.004028838 81:0.017175573 82:0.015055131 83:0.017387617 84:0.024597116 85:0.097328244 86:0.36471586 87:0.28922816 88:0.13825276 89:0.026081425 90:0.010178117 91:0.0029686175 92:0.0038167939 93:0.021204411 94:0.10305344 95:0.42493639 96:0.29410517 97:0.1043257 98:0.03668363 99:0.0076335878 100:0.0012722646 101:0.0025445293 102:0.00084817642 103:0.0057251908 104:0.014843087 105:0.098600509 106:0.57124682 107:0.18235793 108:0.09245123 109:0.02735369 110:0.004028838 111:0.017175573 112:0.015055131 113:0.017387617 114:0.024597116 115:0.097328244 116:0.36471586 117:0.28922816 118:0.13825276 119:0.026081425 120:0.010178117 121:0.01187447 122:0.15076336 123:0.51759966 124:0.24681934 125:0.057039864 126:0.011238338 127:0.0025445293 128:0.0010602205 129:0.00042408821 130:0.00063613232 131:0.0099660729 132:0.099660729 133:0.44296014 134:0.33566582 135:0.078668363 136:0.02480916 137:0.0048770144 138:0.0019083969 139:0.00084817642 140:0.00063613232 141:0.015691264 142:0.057888041 143:0.042196777 144:0.062765055 145:0.12531807 146:0.28986429 147:0.17005937 148:0.16369805 149:0.058524173 150:0.013994911 151:0.01187447 152:0.15076336 153:0.51759966 154:0.24681934 155:0.057039864 156:0.011238338 157:0.0025445293 158:0.0010602205 159:0.00042408821 160:0.00063613232 161:0.0099660729 162:0.099660729 163:0.44296014 164:0.33566582 165:0.078668363 166:0.02480916 167:0.0048770144 168:0.0019083969 169:0.00084817642 170:0.00063613232 171:0.015691264 172:0.057888041 173:0.042196777 174:0.062765055 175:0.12531807 176:0.28986429 177:0.17005937 178:0.16369805 179:0.058524173 180:0.013994911 181:0.010602205 182:0.38040712 183:0.15224767 184:0.090542833 185:0.085665818 186:0.10284139 187:0.084605598 188:0.054071247 189:0.029262087 190:0.0097540288 191:0.040712468 192:0.37298558 193:0.1293469 194:0.09245123 195:0.089058524 196:0.10262935 197:0.07230704 198:0.074003393 199:0.019083969 200:0.0074215437 201:0.079092451 202:0.11386768 203:0.14546226 204:0.1062341 205:0.090542833 206:0.087150127 207:0.08884648 208:0.1278626 209:0.1240458 210:0.036895674 211:0.010602205 212:0.38040712 213:0.15224767 214:0.090542833 215:0.085665818 216:0.10284139 217:0.084605598 218:0.054071247 219:0.029262087 220:0.0097540288 221:0.040712468 222:0.37298558 223:0.1293469 224:0.09245123 225:0.089058524 226:0.10262935 227:0.07230704 228:0.074003393 229:0.019083969 230:0.0074215437 231:0.079092451 232:0.11386768 233:0.14546226 234:0.1062341 235:0.090542833 236:0.087150127 237:0.08884648 238:0.1278626 239:0.1240458 240:0.036895674 241:0.069338422 242:0.36556404 243:0.14291773 244:0.13592027 245:0.096268024 246:0.06403732 247:0.042408821 248:0.054071247 249:0.02374894 250:0.0057251908 251:0.038167939 252:0.40161154 253:0.16433418 254:0.13379983 255:0.096692112 256:0.065945717 257:0.046861747 258:0.043469042 259:0.0076335878 260:0.0014843087 261:0.033715013 262:0.15712468 263:0.17726887 264:0.11535199 265:0.093299406 266:0.11704835 267:0.15118745 268:0.060856658 269:0.069762511 270:0.024385072 271:0.069338422 272:0.36556404 273:0.14291773 274:0.13592027 275:0.096268024 276:0.06403732 277:0.042408821 278:0.054071247 279:0.02374894 280:0.0057251908 281:0.038167939 282:0.40161154 283:0.16433418 284:0.13379983 285:0.096692112 286:0.065945717 287:0.046861747 288:0.043469042 289:0.0076335878 290:0.0014843087 291:0.033715013 292:0.15712468 293:0.17726887 294:0.11535199 295:0.093299406 296:0.11704835 297:0.15118745 298:0.060856658 299:0.069762511 300:0.024385072 301:0.36577608 302:0.38083121 303:0.13422392 304:0.022264631 305:0.018235793 306:0.020568278 307:0.032866836 308:0.019932146 309:0.0033927057 310:0.0019083969 311:0.35538592 312:0.3831637 313:0.097540288 314:0.065733673 315:0.017175573 316:0.024385072 317:0.032230704 318:0.017811705 319:0.0046649703 320:0.0019083969 321:0.17175573 322:0.322095 323:0.086938083 324:0.12955895 325:0.080788804 326:0.10602205 327:0.030322307 328:0.033715013 329:0.034987277 330:0.0038167939 331:0.36577608 332:0.38083121 333:0.13422392 334:0.022264631 335:0.018235793 336:0.020568278 337:0.032866836 338:0.019932146 339:0.0033927057 340:0.0019083969 341:0.35538592 342:0.3831637 343:0.097540288 344:0.065733673 345:0.017175573 346:0.024385072 347:0.032230704 348:0.017811705 349:0.0046649703 350:0.0019083969 351:0.17175573 352:0.322095 353:0.086938083 354:0.12955895 355:0.080788804 356:0.10602205 357:0.030322307 358:0.033715013 359:0.034987277 360:0.0038167939 
0.5901082831153821 1:0.0096899225 2:0.23514212 3:0.51055125 4:0.16386736 5:0.04952627 6:0.01464255 7:0.0047372954 8:0.0064599483 9:0.0034453058 10:0.0019379845 11:0.0071059432 12:0.15374677 13:0.56653747 14:0.19573643 15:0.047588286 16:0.012704565 17:0.0064599483 18:0.003875969 19:0.0045219638 20:0.0017226529 21:0.15245478 22:0.20262705 23:0.16063738 24:0.14039621 25:0.12898363 26:0.16731266 27:0.035529716 28:0.0064599483 29:0.0027993109 30:0.0027993109 31:0.0096899225 32:0.23514212 33:0.51055125 34:0.16386736 35:0.04952627 36:0.01464255 37:0.0047372954 38:0.0064599483 39:0.0034453058 40:0.0019379845 41:0.0071059432 42:0.15374677 43:0.56653747 44:0.19573643 45:0.047588286 46:0.012704565 47:0.0064599483 48:0.003875969 49:0.0045219638 50:0.0017226529 51:0.15245478 52:0.20262705 53:0.16063738 54:0.14039621 55:0.12898363 56:0.16731266 57:0.035529716 58:0.0064599483 59:0.0027993109 60:0.0027993109 61:0.0027993109 62:0.0071059432 63:0.058354866 64:0.24741602 65:0.4543497 66:0.16106804 67:0.045865633 68:0.013996555 69:0.0079672696 70:0.0010766581 71:0.0030146425 72:0.0010766581 73:0.01873385 74:0.22308355 75:0.42011197 76:0.20327304 77:0.10745047 78:0.014857881 79:0.0036606374 80:0.0047372954 81:0.010120586 82:0.012489233 83:0.013135228 84:0.017657192 85:0.086778639 86:0.3869509 87:0.27583979 88:0.15008613 89:0.028854436 90:0.018087855 91:0.0027993109 92:0.0071059432 93:0.058354866 94:0.24741602 95:0.4543497 96:0.16106804 97:0.045865633 98:0.013996555 99:0.0079672696 100:0.0010766581 101:0.0030146425 102:0.0010766581 103:0.01873385 104:0.22308355 105:0.42011197 106:0.20327304 107:0.10745047 108:0.014857881 109:0.0036606374 110:0.0047372954 111:0.010120586 112:0.012489233 113:0.013135228 114:0.017657192 115:0.086778639 116:0.3869509 117:0.27583979 118:0.15008613 119:0.028854436 120:0.018087855 121:0.012273902 122:0.060508183 123:0.23858742 124:0.49827735 125:0.12230835 126:0.047157623 127:0.017011197 128:0.0019379845 129:0.0010766581 130:0.00086132644 131:0.0096899225 132:0.093453919 133:0.39965547 134:0.37403101 135:0.089362618 136:0.026055125 137:0.0040913006 138:0.0025839793 139:0.00043066322 140:0.00064599483 141:0.017657192 142:0.043496985 143:0.028423773 144:0.051679587 145:0.1164944 146:0.29995693 147:0.20262705 148:0.14599483 149:0.074504737 150:0.019164513 151:0.012273902 152:0.060508183 153:0.23858742 154:0.49827735 155:0.12230835 156:0.047157623 157:0.017011197 158:0.0019379845 159:0.0010766581 160:0.00086132644 161:0.0096899225 162:0.093453919 163:0.39965547 164:0.37403101 165:0.089362618 166:0.026055125 167:0.0040913006 168:0.0025839793 169:0.00043066322 170:0.00064599483 171:0.017657192 172:0.043496985 173:0.028423773 174:0.051679587 175:0.1164944 176:0.29995693 177:0.20262705 178:0.14599483 179:0.074504737 180:0.019164513 181:0.10852713 182:0.34646856 183:0.11089578 184:0.080749354 185:0.074289406 186:0.10572782 187:0.088501292 188:0.055124892 189:0.018949182 190:0.010766581 191:0.03079242 192:0.37984496 193:0.13565891 194:0.088070629 195:0.094099914 196:0.091300603 197:0.089793282 198:0.062446167 199:0.020241171 200:0.007751938 201:0.073858742 202:0.1083118 203:0.15439276 204:0.11046512 205:0.085055986 206:0.083763997 207:0.09625323 208:0.12898363 209:0.12489233 210:0.034022394 211:0.10852713 212:0.34646856 213:0.11089578 214:0.080749354 215:0.074289406 216:0.10572782 217:0.088501292 218:0.055124892 219:0.018949182 220:0.010766581 221:0.03079242 222:0.37984496 223:0.13565891 224:0.088070629 225:0.094099914 226:0.091300603 227:0.089793282 228:0.062446167 229:0.020241171 230:0.007751938 231:0.073858742 232:0.1083118 233:0.15439276 234:0.11046512 235:0.085055986 236:0.083763997 237:0.09625323 238:0.12898363 239:0.12489233 240:0.034022394 241:0.11434109 242:0.35206718 243:0.15568475 244:0.13264427 245:0.077734711 246:0.048664944 247:0.067183463 248:0.042420327 249:0.0083979328 250:0.00086132644 251:0.035745047 252:0.43496985 253:0.16042205 254:0.1294143 255:0.091300603 256:0.052971576 257:0.051248923 258:0.035314384 259:0.0079672696 260:0.00064599483 261:0.029715762 262:0.12080103 263:0.16968131 264:0.12618432 265:0.099267873 266:0.10745047 267:0.14427218 268:0.082256675 269:0.058354866 270:0.062015504 271:0.11434109 272:0.35206718 273:0.15568475 274:0.13264427 275:0.077734711 276:0.048664944 277:0.067183463 278:0.042420327 279:0.0083979328 280:0.00086132644 281:0.035745047 282:0.43496985 283:0.16042205 284:0.1294143 285:0.091300603 286:0.052971576 287:0.051248923 288:0.035314384 289:0.0079672696 290:0.00064599483 291:0.029715762 292:0.12080103 293:0.16968131 294:0.12618432 295:0.099267873 296:0.10745047 297:0.14427218 298:0.082256675 299:0.058354866 300:0.062015504 301:0.57407407 302:0.23428079 303:0.083333333 304:0.019810508 305:0.01744186 306:0.032945736 307:0.028639104 308:0.0073212748 309:0.0015073213 310:0.00064599483 311:0.49354005 312:0.25559862 313:0.11003445 314:0.052971576 315:0.020456503 316:0.028208441 317:0.029931094 318:0.0064599483 319:0.0019379845 320:0.00086132644 321:0.19336779 322:0.29844961 323:0.091731266 324:0.11455642 325:0.088931955 326:0.11154177 327:0.030361757 328:0.037037037 329:0.031653747 330:0.0023686477 331:0.57407407 332:0.23428079 333:0.083333333 334:0.019810508 335:0.01744186 336:0.032945736 337:0.028639104 338:0.0073212748 339:0.0015073213 340:0.00064599483 341:0.49354005 342:0.25559862 343:0.11003445 344:0.052971576 345:0.020456503 346:0.028208441 347:0.029931094 348:0.0064599483 349:0.0019379845 350:0.00086132644 351:0.19336779 352:0.29844961 353:0.091731266 354:0.11455642 355:0.088931955 356:0.11154177 357:0.030361757 358:0.037037037 359:0.031653747 360:0.0023686477 
0.3863161899386343 1:0.013782867 2:0.32569975 3:0.52947413 4:0.078880407 5:0.019932146 6:0.0091178965 7:0.0069974555 8:0.0061492791 9:0.0065733673 10:0.0033927057 11:0.014843087 12:0.58693808 13:0.29961832 14:0.057463953 15:0.011662426 16:0.010390161 17:0.0069974555 18:0.0063613232 19:0.0033927057 20:0.0023324852 21:0.091815098 22:0.29050042 23:0.22413062 24:0.15351993 25:0.12128923 26:0.081212892 27:0.014206955 28:0.0091178965 29:0.0082697201 30:0.0059372349 31:0.013782867 32:0.32569975 33:0.52947413 34:0.078880407 35:0.019932146 36:0.0091178965 37:0.0069974555 38:0.0061492791 39:0.0065733673 40:0.0033927057 41:0.014843087 42:0.58693808 43:0.29961832 44:0.057463953 45:0.011662426 46:0.010390161 47:0.0069974555 48:0.0063613232 49:0.0033927057 50:0.0023324852 51:0.091815098 52:0.29050042 53:0.22413062 54:0.15351993 55:0.12128923 56:0.081212892 57:0.014206955 58:0.0091178965 59:0.0082697201 60:0.0059372349 61:0.0072094996 62:0.050678541 63:0.4245123 64:0.2750212 65:0.13210348 66:0.071246819 67:0.022052587 68:0.014206955 69:0.0023324852 70:0.00063613232 71:0.0093299406 72:0.038592027 73:0.40161154 74:0.25805768 75:0.12701442 76:0.10050891 77:0.022900763 78:0.03201866 79:0.0067854114 80:0.0031806616 81:0.0084817642 82:0.012510602 83:0.082697201 84:0.11195929 85:0.26229856 86:0.21734521 87:0.12955895 88:0.068066158 89:0.068490246 90:0.038592027 91:0.0072094996 92:0.050678541 93:0.4245123 94:0.2750212 95:0.13210348 96:0.071246819 97:0.022052587 98:0.014206955 99:0.0023324852 100:0.00063613232 101:0.0093299406 102:0.038592027 103:0.40161154 104:0.25805768 105:0.12701442 106:0.10050891 107:0.022900763 108:0.03201866 109:0.0067854114 110:0.0031806616 111:0.0084817642 112:0.012510602 113:0.082697201 114:0.11195929 115:0.26229856 116:0.21734521 117:0.12955895 118:0.068066158 119:0.068490246 120:0.038592027 121:0.0027565734 122:0.013994911 123:0.027141645 124:0.19762511 125:0.38952502 126:0.24681934 127:0.090966921 128:0.019932146 129:0.0084817642 130:0.0027565734 131:0.00021204411 132:0.0031806616 133:0.021840543 134:0.068914334 135:0.47879559 136:0.35135708 137:0.057888041 138:0.011238338 139:0.004028838 140:0.0025445293 141:0.01187447 142:0.037531807 143:0.027565734 144:0.020568278 145:0.041984733 146:0.22391858 147:0.31594572 148:0.22921968 149:0.08163698 150:0.0097540288 151:0.0027565734 152:0.013994911 153:0.027141645 154:0.19762511 155:0.38952502 156:0.24681934 157:0.090966921 158:0.019932146 159:0.0084817642 160:0.0027565734 161:0.00021204411 162:0.0031806616 163:0.021840543 164:0.068914334 165:0.47879559 166:0.35135708 167:0.057888041 168:0.011238338 169:0.004028838 170:0.0025445293 171:0.01187447 172:0.037531807 173:0.027565734 174:0.020568278 175:0.041984733 176:0.22391858 177:0.31594572 178:0.22921968 179:0.08163698 180:0.0097540288 181:0.0033927057 182:0.26229856 183:0.27311281 184:0.092663274 185:0.08524173 186:0.11089907 187:0.12022901 188:0.037743851 189:0.0095419847 190:0.0048770144 191:0.0019083969 192:0.33439355 193:0.18002545 194:0.1024173 195:0.11450382 196:0.097752332 197:0.11556404 198:0.033927057 199:0.010814249 200:0.0086938083 201:0.075699746 202:0.11513995 203:0.16327396 204:0.099236641 205:0.082061069 206:0.08884648 207:0.12001696 208:0.1259542 209:0.10941476 210:0.020356234 211:0.0033927057 212:0.26229856 213:0.27311281 214:0.092663274 215:0.08524173 216:0.11089907 217:0.12022901 218:0.037743851 219:0.0095419847 220:0.0048770144 221:0.0019083969 222:0.33439355 223:0.18002545 224:0.1024173 225:0.11450382 226:0.097752332 227:0.11556404 228:0.033927057 229:0.010814249 230:0.0086938083 231:0.075699746 232:0.11513995 233:0.16327396 234:0.099236641 235:0.082061069 236:0.08884648 237:0.12001696 238:0.1259542 239:0.10941476 240:0.020356234 241:0.15182358 242:0.35326548 243:0.17599661 244:0.12828668 245:0.10814249 246:0.060856658 247:0.015903308 248:0.0029686175 249:0.0016963528 250:0.0010602205 251:0.021840543 252:0.46819338 253:0.17387617 254:0.14249364 255:0.095207803 256:0.069126378 257:0.020568278 258:0.0063613232 259:0.0012722646 260:0.0010602205 261:0.11556404 262:0.19338422 263:0.10877863 264:0.1043257 265:0.11726039 266:0.14609839 267:0.11005089 268:0.091178965 269:0.011450382 270:0.0019083969 271:0.15182358 272:0.35326548 273:0.17599661 274:0.12828668 275:0.10814249 276:0.060856658 277:0.015903308 278:0.0029686175 279:0.0016963528 280:0.0010602205 281:0.021840543 282:0.46819338 283:0.17387617 284:0.14249364 285:0.095207803 286:0.069126378 287:0.020568278 288:0.0063613232 289:0.0012722646 290:0.0010602205 291:0.11556404 292:0.19338422 293:0.10877863 294:0.1043257 295:0.11726039 296:0.14609839 297:0.11005089 298:0.091178965 299:0.011450382 300:0.0019083969 301:0.0971162 302:0.48982188 303:0.1528838 304:0.14122137 305:0.025869381 306:0.027141645 307:0.02735369 308:0.020780322 309:0.013358779 310:0.0044529262 311:0.011238338 312:0.43935539 313:0.22476675 314:0.12807464 315:0.082273113 316:0.041772689 317:0.02014419 318:0.020780322 319:0.023960984 320:0.0076335878 321:0.16497031 322:0.20653096 323:0.11174724 324:0.1259542 325:0.08884648 326:0.10771841 327:0.086938083 328:0.054071247 329:0.034987277 330:0.018235793 331:0.0971162 332:0.48982188 333:0.1528838 334:0.14122137 335:0.025869381 336:0.027141645 337:0.02735369 338:0.020780322 339:0.013358779 340:0.0044529262 341:0.011238338 342:0.43935539 343:0.22476675 344:0.12807464 345:0.082273113 346:0.041772689 347:0.02014419 348:0.020780322 349:0.023960984 350:0.0076335878 351:0.16497031 352:0.20653096 353:0.11174724 354:0.1259542 355:0.08884648 356:0.10771841 357:0.086938083 358:0.054071247 359:0.034987277 360:0.018235793 
0.01659509297791611 1:0.40118745 2:0.084393554 3:0.039864292 4:0.12616624 5:0.12277354 6:0.095419847 7:0.078032231 8:0.046225615 9:0.0053011026 10:0.00063613232 11:0.45059372 12:0.11259542 13:0.12955895 14:0.10008482 15:0.080152672 16:0.071246819 17:0.040924512 18:0.013782867 19:0.00063613232 20:0.00042408821 21:0.43193384 22:0.1312553 23:0.14206955 24:0.10474979 25:0.076335878 26:0.065945717 27:0.037743851 28:0.0089058524 29:0.00063613232 30:0.00042408821 31:0.40118745 32:0.084393554 33:0.039864292 34:0.12616624 35:0.12277354 36:0.095419847 37:0.078032231 38:0.046225615 39:0.0053011026 40:0.00063613232 41:0.45059372 42:0.11259542 43:0.12955895 44:0.10008482 45:0.080152672 46:0.071246819 47:0.040924512 48:0.013782867 49:0.00063613232 50:0.00042408821 51:0.43193384 52:0.1312553 53:0.14206955 54:0.10474979 55:0.076335878 56:0.065945717 57:0.037743851 58:0.0089058524 59:0.00063613232 60:0.00042408821 61:0.033502969 62:0.086089907 63:0.13379983 64:0.11301951 65:0.14694656 66:0.14270568 67:0.16751484 68:0.089058524 69:0.0557676 70:0.031594572 71:0.04389313 72:0.13507209 73:0.1673028 74:0.17281595 75:0.14143342 76:0.16221374 77:0.096480068 78:0.034563189 79:0.021416455 80:0.02480916 81:0.020568278 82:0.12743851 83:0.15055131 84:0.18150975 85:0.13825276 86:0.17960136 87:0.10199321 88:0.044529262 89:0.029474131 90:0.026081425 91:0.033502969 92:0.086089907 93:0.13379983 94:0.11301951 95:0.14694656 96:0.14270568 97:0.16751484 98:0.089058524 99:0.0557676 100:0.031594572 101:0.04389313 102:0.13507209 103:0.1673028 104:0.17281595 105:0.14143342 106:0.16221374 107:0.096480068 108:0.034563189 109:0.021416455 110:0.02480916 111:0.020568278 112:0.12743851 113:0.15055131 114:0.18150975 115:0.13825276 116:0.17960136 117:0.10199321 118:0.044529262 119:0.029474131 120:0.026081425 121:0.041348601 122:0.03668363 123:0.2321883 124:0.15139949 125:0.20971162 126:0.1293469 127:0.11492791 128:0.037531807 129:0.044105174 130:0.0027565734 131:0.075699746 132:0.23854962 133:0.053647159 134:0.17769296 135:0.12234945 136:0.09245123 137:0.18617472 138:0.044317218 139:0.0063613232 140:0.0027565734 141:0.0061492791 142:0.077820187 143:0.24745547 144:0.09351145 145:0.11005089 146:0.13146735 147:0.13295165 148:0.1528838 149:0.042408821 150:0.0053011026 151:0.041348601 152:0.03668363 153:0.2321883 154:0.15139949 155:0.20971162 156:0.1293469 157:0.11492791 158:0.037531807 159:0.044105174 160:0.0027565734 161:0.075699746 162:0.23854962 163:0.053647159 164:0.17769296 165:0.12234945 166:0.09245123 167:0.18617472 168:0.044317218 169:0.0063613232 170:0.0027565734 171:0.0061492791 172:0.077820187 173:0.24745547 174:0.09351145 175:0.11005089 176:0.13146735 177:0.13295165 178:0.1528838 179:0.042408821 180:0.0053011026 181:0.089906701 182:0.057888041 183:0.06870229 184:0.074639525 185:0.086726039 186:0.10835454 187:0.055555556 188:0.092663274 189:0.18066158 190:0.18490246 191:0.11577608 192:0.067430025 193:0.1134436 194:0.049406277 195:0.072731128 196:0.083333333 197:0.059584394 198:0.12128923 199:0.19868533 200:0.11832061 201:0.12298558 202:0.087150127 203:0.11068702 204:0.03668363 205:0.07591179 206:0.078880407 207:0.081849025 208:0.12298558 209:0.17769296 210:0.10517388 211:0.089906701 212:0.057888041 213:0.06870229 214:0.074639525 215:0.086726039 216:0.10835454 217:0.055555556 218:0.092663274 219:0.18066158 220:0.18490246 221:0.11577608 222:0.067430025 223:0.1134436 224:0.049406277 225:0.072731128 226:0.083333333 227:0.059584394 228:0.12128923 229:0.19868533 230:0.11832061 231:0.12298558 232:0.087150127 233:0.11068702 234:0.03668363 235:0.07591179 236:0.078880407 237:0.081849025 238:0.12298558 239:0.17769296 240:0.10517388 241:0.031594572 242:0.081424936 243:0.089482612 244:0.077396098 245:0.060220526 246:0.10178117 247:0.16221374 248:0.1600933 249:0.13104326 250:0.10474979 251:0.042408821 252:0.10835454 253:0.099448685 254:0.077396098 255:0.076123834 256:0.10708227 257:0.14885496 258:0.10517388 259:0.12616624 260:0.10899067 261:0.045801527 262:0.11980492 263:0.10665818 264:0.10390161 265:0.066369805 266:0.12468193 267:0.12277354 268:0.12340967 269:0.10496183 270:0.08163698 271:0.031594572 272:0.081424936 273:0.089482612 274:0.077396098 275:0.060220526 276:0.10178117 277:0.16221374 278:0.1600933 279:0.13104326 280:0.10474979 281:0.042408821 282:0.10835454 283:0.099448685 284:0.077396098 285:0.076123834 286:0.10708227 287:0.14885496 288:0.10517388 289:0.12616624 290:0.10899067 291:0.045801527 292:0.11980492 293:0.10665818 294:0.10390161 295:0.066369805 296:0.12468193 297:0.12277354 298:0.12340967 299:0.10496183 300:0.08163698 301:0.10199321 302:0.25212044 303:0.12574215 304:0.075275657 305:0.11386768 306:0.091815098 307:0.16369805 308:0.042832909 309:0.021416455 310:0.011238338 311:0.20377439 312:0.24575912 313:0.084605598 314:0.075487701 315:0.097752332 316:0.12022901 317:0.11789652 318:0.023536896 319:0.021628499 320:0.0093299406 321:0.21374046 322:0.25551315 323:0.072519084 324:0.095207803 325:0.077396098 326:0.14079729 327:0.094571671 328:0.025233249 329:0.017387617 330:0.0076335878 331:0.10199321 332:0.25212044 333:0.12574215 334:0.075275657 335:0.11386768 336:0.091815098 337:0.16369805 338:0.042832909 339:0.021416455 340:0.011238338 341:0.20377439 342:0.24575912 343:0.084605598 344:0.075487701 345:0.097752332 346:0.12022901 347:0.11789652 348:0.023536896 349:0.021628499 350:0.0093299406 351:0.21374046 352:0.25551315 353:0.072519084 354:0.095207803 355:0.077396098 356:0.14079729 357:0.094571671 358:0.025233249 359:0.017387617 360:0.0076335878 
0.240904901798362 1:0.34732989 2:0.11778639 3:0.043281654 4:0.12295435 5:0.1294143 6:0.1035745 7:0.069121447 8:0.051464255 9:0.013996555 10:0.0010766581 11:0.457795 12:0.11821705 13:0.11692506 14:0.093884582 15:0.083118002 16:0.07213609 17:0.041343669 18:0.013996555 19:0.0015073213 20:0.0010766581 21:0.4829888 22:0.12726098 23:0.13329027 24:0.090439276 25:0.057924203 26:0.06546081 27:0.031869078 28:0.0086132644 29:0.0010766581 30:0.0010766581 31:0.34732989 32:0.11778639 33:0.043281654 34:0.12295435 35:0.1294143 36:0.1035745 37:0.069121447 38:0.051464255 39:0.013996555 40:0.0010766581 41:0.457795 42:0.11821705 43:0.11692506 44:0.093884582 45:0.083118002 46:0.07213609 47:0.041343669 48:0.013996555 49:0.0015073213 50:0.0010766581 51:0.4829888 52:0.12726098 53:0.13329027 54:0.090439276 55:0.057924203 56:0.06546081 57:0.031869078 58:0.0086132644 59:0.0010766581 60:0.0010766581 61:0.036821705 62:0.076873385 63:0.10206718 64:0.13910422 65:0.12790698 66:0.15977606 67:0.15891473 68:0.094530577 69:0.071705426 70:0.032299742 71:0.0075366064 72:0.11068045 73:0.16817399 74:0.14685616 75:0.15590009 76:0.19788975 77:0.10400517 78:0.048449612 79:0.028208441 80:0.032299742 81:0.0019379845 82:0.054478898 83:0.16020672 84:0.15676141 85:0.16795866 86:0.19056848 87:0.1375969 88:0.072566753 89:0.030146425 90:0.027777778 91:0.036821705 92:0.076873385 93:0.10206718 94:0.13910422 95:0.12790698 96:0.15977606 97:0.15891473 98:0.094530577 99:0.071705426 100:0.032299742 101:0.0075366064 102:0.11068045 103:0.16817399 104:0.14685616 105:0.15590009 106:0.19788975 107:0.10400517 108:0.048449612 109:0.028208441 110:0.032299742 111:0.0019379845 112:0.054478898 113:0.16020672 114:0.15676141 115:0.16795866 116:0.19056848 117:0.1375969 118:0.072566753 119:0.030146425 120:0.027777778 121:0.027993109 122:0.091085271 123:0.26765719 124:0.23212748 125:0.1457795 126:0.10637382 127:0.097329888 128:0.024763135 129:0.0047372954 130:0.0021533161 131:0.0040913006 132:0.098837209 133:0.2254522 134:0.072351421 135:0.19056848 136:0.12726098 137:0.16752799 138:0.072997416 139:0.034883721 140:0.0060292851 141:0.0051679587 142:0.13070629 143:0.20499569 144:0.061154177 145:0.20757967 146:0.16968131 147:0.10809647 148:0.099698536 149:0.0099052541 150:0.0030146425 151:0.027993109 152:0.091085271 153:0.26765719 154:0.23212748 155:0.1457795 156:0.10637382 157:0.097329888 158:0.024763135 159:0.0047372954 160:0.0021533161 161:0.0040913006 162:0.098837209 163:0.2254522 164:0.072351421 165:0.19056848 166:0.12726098 167:0.16752799 168:0.072997416 169:0.034883721 170:0.0060292851 171:0.0051679587 172:0.13070629 173:0.20499569 174:0.061154177 175:0.20757967 176:0.16968131 177:0.10809647 178:0.099698536 179:0.0099052541 180:0.0030146425 181:0.095607235 182:0.062230835 183:0.069336779 184:0.061584841 185:0.086563307 186:0.12187769 187:0.047803618 188:0.075366064 189:0.19035314 190:0.18927649 191:0.12575366 192:0.074720069 193:0.10142119 194:0.053402239 195:0.064814815 196:0.093884582 197:0.048018949 198:0.12553833 199:0.18195521 200:0.13049096 201:0.12015504 202:0.092161929 203:0.10874246 204:0.035099053 205:0.070198105 206:0.093023256 207:0.059431525 208:0.13608958 209:0.1791559 210:0.10594315 211:0.095607235 212:0.062230835 213:0.069336779 214:0.061584841 215:0.086563307 216:0.12187769 217:0.047803618 218:0.075366064 219:0.19035314 220:0.18927649 221:0.12575366 222:0.074720069 223:0.10142119 224:0.053402239 225:0.064814815 226:0.093884582 227:0.048018949 228:0.12553833 229:0.18195521 230:0.13049096 231:0.12015504 232:0.092161929 233:0.10874246 234:0.035099053 235:0.070198105 236:0.093023256 237:0.059431525 238:0.13608958 239:0.1791559 240:0.10594315 241:0.048664944 242:0.084409991 243:0.087855297 244:0.078165375 245:0.066968131 246:0.10551249 247:0.13630491 248:0.14534884 249:0.13393626 250:0.11283376 251:0.059431525 252:0.10400517 253:0.095176572 254:0.081180017 255:0.068260121 256:0.14384152 257:0.1171404 258:0.12489233 259:0.11369509 260:0.092377261 261:0.046942291 262:0.12403101 263:0.11003445 264:0.098837209 265:0.074289406 266:0.12661499 267:0.12446167 268:0.11670973 269:0.1130491 270:0.065030146 271:0.048664944 272:0.084409991 273:0.087855297 274:0.078165375 275:0.066968131 276:0.10551249 277:0.13630491 278:0.14534884 279:0.13393626 280:0.11283376 281:0.059431525 282:0.10400517 283:0.095176572 284:0.081180017 285:0.068260121 286:0.14384152 287:0.1171404 288:0.12489233 289:0.11369509 290:0.092377261 291:0.046942291 292:0.12403101 293:0.11003445 294:0.098837209 295:0.074289406 296:0.12661499 297:0.12446167 298:0.11670973 299:0.1130491 300:0.065030146 301:0.046080965 302:0.22695952 303:0.18432386 304:0.085486649 305:0.083118002 306:0.094530577 307:0.14233419 308:0.098621878 309:0.024978467 310:0.013565891 311:0.17592593 312:0.25904393 313:0.096037898 314:0.062661499 315:0.098406546 316:0.08828596 317:0.14728682 318:0.039836348 319:0.019810508 320:0.012704565 321:0.14362618 322:0.30986219 323:0.087209302 324:0.079026701 325:0.086132644 326:0.08290267 327:0.1464255 328:0.035529716 329:0.019164513 330:0.010120586 331:0.046080965 332:0.22695952 333:0.18432386 334:0.085486649 335:0.083118002 336:0.094530577 337:0.14233419 338:0.098621878 339:0.024978467 340:0.013565891 341:0.17592593 342:0.25904393 343:0.096037898 344:0.062661499 345:0.098406546 346:0.08828596 347:0.14728682 348:0.039836348 349:0.019810508 350:0.012704565 351:0.14362618 352:0.30986219 353:0.087209302 354:0.079026701 355:0.086132644 356:0.08290267 357:0.1464255 358:0.035529716 359:0.019164513 360:0.010120586 
0.161819222330688 1:0.41494401 2:0.076658053 3:0.040697674 4:0.12898363 5:0.11046512 6:0.078165375 7:0.073212748 8:0.054909561 9:0.019164513 10:0.0027993109 11:0.47846684 12:0.10314384 13:0.12403101 14:0.093023256 15:0.063522825 16:0.072782084 17:0.043927649 18:0.01744186 19:0.0027993109 20:0.00086132644 21:0.50452196 22:0.11993971 23:0.10852713 24:0.081180017 25:0.065030146 26:0.069767442 27:0.032299742 28:0.015073213 29:0.0027993109 30:0.00086132644 31:0.41494401 32:0.076658053 33:0.040697674 34:0.12898363 35:0.11046512 36:0.078165375 37:0.073212748 38:0.054909561 39:0.019164513 40:0.0027993109 41:0.47846684 42:0.10314384 43:0.12403101 44:0.093023256 45:0.063522825 46:0.072782084 47:0.043927649 48:0.01744186 49:0.0027993109 50:0.00086132644 51:0.50452196 52:0.11993971 53:0.10852713 54:0.081180017 55:0.065030146 56:0.069767442 57:0.032299742 58:0.015073213 59:0.0027993109 60:0.00086132644 61:0.042204996 62:0.082041344 63:0.10938846 64:0.11477175 65:0.125323 66:0.17054264 67:0.16817399 68:0.092161929 69:0.063953488 70:0.031438415 71:0.031438415 72:0.13070629 73:0.14944014 74:0.20650301 75:0.13867356 76:0.15439276 77:0.10271318 78:0.026270457 79:0.032299742 80:0.027562446 81:0.037037037 82:0.13501292 83:0.16451335 84:0.16429802 85:0.14491817 86:0.17398794 87:0.080749354 88:0.046511628 89:0.031438415 90:0.021533161 91:0.042204996 92:0.082041344 93:0.10938846 94:0.11477175 95:0.125323 96:0.17054264 97:0.16817399 98:0.092161929 99:0.063953488 100:0.031438415 101:0.031438415 102:0.13070629 103:0.14944014 104:0.20650301 105:0.13867356 106:0.15439276 107:0.10271318 108:0.026270457 109:0.032299742 110:0.027562446 111:0.037037037 112:0.13501292 113:0.16451335 114:0.16429802 115:0.14491817 116:0.17398794 117:0.080749354 118:0.046511628 119:0.031438415 120:0.021533161 121:0.029069767 122:0.15310078 123:0.38372093 124:0.20499569 125:0.13178295 126:0.074504737 127:0.018087855 128:0.0032299742 129:0.0010766581 130:0.00043066322 131:0.0034453058 132:0.19358312 133:0.15137812 134:0.17958656 135:0.22695952 136:0.12037037 137:0.098621878 138:0.018518519 139:0.004952627 140:0.0025839793 141:0.089362618 142:0.21813092 143:0.1035745 144:0.18173988 145:0.19121447 146:0.14814815 147:0.049956934 148:0.012704565 149:0.0030146425 150:0.0021533161 151:0.029069767 152:0.15310078 153:0.38372093 154:0.20499569 155:0.13178295 156:0.074504737 157:0.018087855 158:0.0032299742 159:0.0010766581 160:0.00043066322 161:0.0034453058 162:0.19358312 163:0.15137812 164:0.17958656 165:0.22695952 166:0.12037037 167:0.098621878 168:0.018518519 169:0.004952627 170:0.0025839793 171:0.089362618 172:0.21813092 173:0.1035745 174:0.18173988 175:0.19121447 176:0.14814815 177:0.049956934 178:0.012704565 179:0.0030146425 180:0.0021533161 181:0.083548665 182:0.067398794 183:0.076873385 184:0.059000861 185:0.090439276 186:0.13845823 187:0.05620155 188:0.082687339 189:0.18001723 190:0.16537468 191:0.13996555 192:0.083763997 193:0.098406546 194:0.039836348 195:0.078596038 196:0.090439276 197:0.051248923 198:0.1124031 199:0.17743325 200:0.12790698 201:0.13996555 202:0.087424634 203:0.10723514 204:0.032299742 205:0.06416882 206:0.10271318 207:0.05081826 208:0.12769165 209:0.15762274 210:0.13006029 211:0.083548665 212:0.067398794 213:0.076873385 214:0.059000861 215:0.090439276 216:0.13845823 217:0.05620155 218:0.082687339 219:0.18001723 220:0.16537468 221:0.13996555 222:0.083763997 223:0.098406546 224:0.039836348 225:0.078596038 226:0.090439276 227:0.051248923 228:0.1124031 229:0.17743325 230:0.12790698 231:0.13996555 232:0.087424634 233:0.10723514 234:0.032299742 235:0.06416882 236:0.10271318 237:0.05081826 238:0.12769165 239:0.15762274 240:0.13006029 241:0.064814815 242:0.082687339 243:0.071705426 244:0.06546081 245:0.07213609 246:0.094315245 247:0.13608958 248:0.16042205 249:0.13501292 250:0.11735573 251:0.065676141 252:0.099267873 253:0.079672696 254:0.086132644 255:0.077088717 256:0.10206718 257:0.12984496 258:0.11907838 259:0.1369509 260:0.1042205 261:0.069121447 262:0.11778639 263:0.10055986 264:0.085701981 265:0.075150732 266:0.11391042 267:0.096683893 268:0.13673557 269:0.11606374 270:0.08828596 271:0.064814815 272:0.082687339 273:0.071705426 274:0.06546081 275:0.07213609 276:0.094315245 277:0.13608958 278:0.16042205 279:0.13501292 280:0.11735573 281:0.065676141 282:0.099267873 283:0.079672696 284:0.086132644 285:0.077088717 286:0.10206718 287:0.12984496 288:0.11907838 289:0.1369509 290:0.1042205 291:0.069121447 292:0.11778639 293:0.10055986 294:0.085701981 295:0.075150732 296:0.11391042 297:0.096683893 298:0.13673557 299:0.11606374 300:0.08828596 301:0.082256675 302:0.23643411 303:0.14082687 304:0.084625323 305:0.10981912 306:0.073428079 307:0.18195521 308:0.051248923 309:0.027993109 310:0.011412575 311:0.20068906 312:0.24870801 313:0.075366064 314:0.09086994 315:0.079242033 316:0.12790698 317:0.125323 318:0.031869078 319:0.015503876 320:0.0045219638 321:0.22803618 322:0.23169681 323:0.086563307 324:0.09625323 325:0.061369509 326:0.125323 327:0.11886305 328:0.032515073 329:0.014857881 330:0.0045219638 331:0.082256675 332:0.23643411 333:0.14082687 334:0.084625323 335:0.10981912 336:0.073428079 337:0.18195521 338:0.051248923 339:0.027993109 340:0.011412575 341:0.20068906 342:0.24870801 343:0.075366064 344:0.09086994 345:0.079242033 346:0.12790698 347:0.125323 348:0.031869078 349:0.015503876 350:0.0045219638 351:0.22803618 352:0.23169681 353:0.086563307 354:0.09625323 355:0.061369509 356:0.125323 357:0.11886305 358:0.032515073 359:0.014857881 360:0.0045219638 
0.411112493651437 1:0.41128338 2:0.080964686 3:0.039836348 4:0.1171404 5:0.11455642 6:0.069336779 7:0.065245478 8:0.074504737 9:0.023040482 10:0.0040913006 11:0.47739018 12:0.10292851 13:0.11391042 14:0.094745909 15:0.069121447 16:0.065245478 17:0.048234281 18:0.021533161 19:0.0062446167 20:0.00064599483 21:0.49289406 22:0.11843239 23:0.1130491 24:0.083118002 25:0.068260121 26:0.062015504 27:0.043712317 28:0.013565891 29:0.0043066322 30:0.00064599483 31:0.41128338 32:0.080964686 33:0.039836348 34:0.1171404 35:0.11455642 36:0.069336779 37:0.065245478 38:0.074504737 39:0.023040482 40:0.0040913006 41:0.47739018 42:0.10292851 43:0.11391042 44:0.094745909 45:0.069121447 46:0.065245478 47:0.048234281 48:0.021533161 49:0.0062446167 50:0.00064599483 51:0.49289406 52:0.11843239 53:0.1130491 54:0.083118002 55:0.068260121 56:0.062015504 57:0.043712317 58:0.013565891 59:0.0043066322 60:0.00064599483 61:0.033161068 62:0.085055986 63:0.10551249 64:0.11821705 65:0.14793282 66:0.16580534 67:0.1703273 68:0.089362618 69:0.053186908 70:0.031438415 71:0.029285099 72:0.125323 73:0.17807924 74:0.17484927 75:0.17894057 76:0.13522825 77:0.098191214 78:0.028423773 79:0.038329027 80:0.01335056 81:0.034237726 82:0.16537468 83:0.12639966 84:0.19595177 85:0.14298019 86:0.17183463 87:0.086347976 88:0.030361757 89:0.038113695 90:0.0083979328 91:0.033161068 92:0.085055986 93:0.10551249 94:0.11821705 95:0.14793282 96:0.16580534 97:0.1703273 98:0.089362618 99:0.053186908 100:0.031438415 101:0.029285099 102:0.125323 103:0.17807924 104:0.17484927 105:0.17894057 106:0.13522825 107:0.098191214 108:0.028423773 109:0.038329027 110:0.01335056 111:0.034237726 112:0.16537468 113:0.12639966 114:0.19595177 115:0.14298019 116:0.17183463 117:0.086347976 118:0.030361757 119:0.038113695 120:0.0083979328 121:0.023901809 122:0.1375969 123:0.37596899 124:0.21533161 125:0.13587425 126:0.083333333 127:0.021748493 128:0.0036606374 129:0.0021533161 130:0.00043066322 131:0.0030146425 132:0.17980189 133:0.15676141 134:0.17764858 135:0.22911283 136:0.12360034 137:0.10271318 138:0.021963824 139:0.0036606374 140:0.0017226529 141:0.085055986 142:0.21167097 143:0.10486649 144:0.16666667 145:0.20327304 146:0.15568475 147:0.054263566 148:0.013565891 149:0.0032299742 150:0.0017226529 151:0.023901809 152:0.1375969 153:0.37596899 154:0.21533161 155:0.13587425 156:0.083333333 157:0.021748493 158:0.0036606374 159:0.0021533161 160:0.00043066322 161:0.0030146425 162:0.17980189 163:0.15676141 164:0.17764858 165:0.22911283 166:0.12360034 167:0.10271318 168:0.021963824 169:0.0036606374 170:0.0017226529 171:0.085055986 172:0.21167097 173:0.10486649 174:0.16666667 175:0.20327304 176:0.15568475 177:0.054263566 178:0.013565891 179:0.0032299742 180:0.0017226529 181:0.07881137 182:0.069121447 183:0.075150732 184:0.054263566 185:0.10378984 186:0.13242894 187:0.054909561 188:0.089362618 189:0.1920758 190:0.15008613 191:0.13329027 192:0.08161068 193:0.10465116 194:0.037898363 195:0.072782084 196:0.095822567 197:0.05081826 198:0.11434109 199:0.17571059 200:0.13307494 201:0.13501292 202:0.088931955 203:0.10572782 204:0.0374677 205:0.070628768 206:0.094745909 207:0.060508183 208:0.11089578 209:0.18927649 210:0.10680448 211:0.07881137 212:0.069121447 213:0.075150732 214:0.054263566 215:0.10378984 216:0.13242894 217:0.054909561 218:0.089362618 219:0.1920758 220:0.15008613 221:0.13329027 222:0.08161068 223:0.10465116 224:0.037898363 225:0.072782084 226:0.095822567 227:0.05081826 228:0.11434109 229:0.17571059 230:0.13307494 231:0.13501292 232:0.088931955 233:0.10572782 234:0.0374677 235:0.070628768 236:0.094745909 237:0.060508183 238:0.11089578 239:0.18927649 240:0.10680448 241:0.054263566 242:0.074720069 243:0.085271318 244:0.065676141 245:0.066968131 246:0.087424634 247:0.13845823 248:0.16020672 249:0.13867356 250:0.12833764 251:0.044788975 252:0.091946598 253:0.1001292 254:0.07213609 255:0.085701981 256:0.091300603 257:0.12898363 258:0.12639966 259:0.11886305 260:0.13975022 261:0.062661499 262:0.1035745 263:0.10852713 264:0.087639966 265:0.0708441 266:0.10228252 267:0.12338501 268:0.098837209 269:0.12209302 270:0.12015504 271:0.054263566 272:0.074720069 273:0.085271318 274:0.065676141 275:0.066968131 276:0.087424634 277:0.13845823 278:0.16020672 279:0.13867356 280:0.12833764 281:0.044788975 282:0.091946598 283:0.1001292 284:0.07213609 285:0.085701981 286:0.091300603 287:0.12898363 288:0.12639966 289:0.11886305 290:0.13975022 291:0.062661499 292:0.1035745 293:0.10852713 294:0.087639966 295:0.0708441 296:0.10228252 297:0.12338501 298:0.098837209 299:0.12209302 300:0.12015504 301:0.078380706 302:0.22825151 303:0.14061154 304:0.090654608 305:0.085701981 306:0.099267873 307:0.17614126 308:0.059862188 309:0.027347115 310:0.013781223 311:0.19982773 312:0.23751077 313:0.083548665 314:0.066968131 315:0.096683893 316:0.094099914 317:0.15590009 318:0.038544358 319:0.016149871 320:0.010766581 321:0.17527993 322:0.26313523 323:0.10034453 324:0.079457364 325:0.079242033 326:0.093884582 327:0.1464255 328:0.035314384 329:0.017872524 330:0.0090439276 331:0.078380706 332:0.22825151 333:0.14061154 334:0.090654608 335:0.085701981 336:0.099267873 337:0.17614126 338:0.059862188 339:0.027347115 340:0.013781223 341:0.19982773 342:0.23751077 343:0.083548665 344:0.066968131 345:0.096683893 346:0.094099914 347:0.15590009 348:0.038544358 349:0.016149871 350:0.010766581 351:0.17527993 352:0.26313523 353:0.10034453 354:0.079457364 355:0.079242033 356:0.093884582 357:0.1464255 358:0.035314384 359:0.017872524 360:0.0090439276 
0.2072302570209734 1:0.37121212 2:0.1026936 3:0.083754209 4:0.121633 5:0.12878788 6:0.10585017 7:0.069023569 8:0.016624579 9:0.00021043771 10:0.00021043771 11:0.43202862 12:0.097643098 13:0.14309764 14:0.10122054 15:0.096590909 16:0.052609428 17:0.059553872 18:0.016624579 19:0.00042087542 20:0.00021043771 21:0.42087542 22:0.13404882 23:0.14814815 24:0.1026936 25:0.088383838 26:0.04776936 27:0.046506734 28:0.010942761 29:0.00021043771 30:0.00042087542 31:0.37121212 32:0.1026936 33:0.083754209 34:0.121633 35:0.12878788 36:0.10585017 37:0.069023569 38:0.016624579 39:0.00021043771 40:0.00021043771 41:0.43202862 42:0.097643098 43:0.14309764 44:0.10122054 45:0.096590909 46:0.052609428 47:0.059553872 48:0.016624579 49:0.00042087542 50:0.00021043771 51:0.42087542 52:0.13404882 53:0.14814815 54:0.1026936 55:0.088383838 56:0.04776936 57:0.046506734 58:0.010942761 59:0.00021043771 60:0.00042087542 61:0.046506734 62:0.11784512 63:0.15888047 64:0.13762626 65:0.11426768 66:0.14835859 67:0.13425926 68:0.066287879 69:0.04040404 70:0.035563973 71:0.017255892 72:0.19402357 73:0.20054714 74:0.13552189 75:0.15004209 76:0.16035354 77:0.068602694 78:0.027777778 79:0.025883838 80:0.019991582 81:0.014941077 82:0.11026936 83:0.17739899 84:0.19949495 85:0.16393098 86:0.13888889 87:0.11069024 88:0.040193603 89:0.02293771 90:0.021254209 91:0.046506734 92:0.11784512 93:0.15888047 94:0.13762626 95:0.11426768 96:0.14835859 97:0.13425926 98:0.066287879 99:0.04040404 100:0.035563973 101:0.017255892 102:0.19402357 103:0.20054714 104:0.13552189 105:0.15004209 106:0.16035354 107:0.068602694 108:0.027777778 109:0.025883838 110:0.019991582 111:0.014941077 112:0.11026936 113:0.17739899 114:0.19949495 115:0.16393098 116:0.13888889 117:0.11069024 118:0.040193603 119:0.02293771 120:0.021254209 121:0.0029461279 122:0.0098905724 123:0.031355219 124:0.077651515 125:0.35963805 126:0.25799663 127:0.11868687 128:0.084385522 129:0.037037037 130:0.020412458 131:0.0012626263 132:0.09469697 133:0.27946128 134:0.082070707 135:0.13657407 136:0.16098485 137:0.10521886 138:0.063762626 139:0.055765993 140:0.02020202 141:0.013257576 142:0.11658249 143:0.17424242 144:0.13320707 145:0.09743266 146:0.18960438 147:0.10585017 148:0.079124579 149:0.070496633 150:0.02020202 151:0.0029461279 152:0.0098905724 153:0.031355219 154:0.077651515 155:0.35963805 156:0.25799663 157:0.11868687 158:0.084385522 159:0.037037037 160:0.020412458 161:0.0012626263 162:0.09469697 163:0.27946128 164:0.082070707 165:0.13657407 166:0.16098485 167:0.10521886 168:0.063762626 169:0.055765993 170:0.02020202 171:0.013257576 172:0.11658249 173:0.17424242 174:0.13320707 175:0.09743266 176:0.18960438 177:0.10585017 178:0.079124579 179:0.070496633 180:0.02020202 181:0.10395623 182:0.048821549 183:0.064393939 184:0.074915825 185:0.085648148 186:0.08543771 187:0.074915825 188:0.12689394 189:0.17929293 190:0.15572391 191:0.12394781 192:0.0753367 193:0.10585017 194:0.037457912 195:0.075968013 196:0.066708754 197:0.07996633 198:0.15635522 199:0.19002525 200:0.088383838 201:0.14309764 202:0.099116162 203:0.072180135 204:0.043350168 205:0.067550505 206:0.069023569 207:0.11994949 208:0.14330808 209:0.16645623 210:0.075968013 211:0.10395623 212:0.048821549 213:0.064393939 214:0.074915825 215:0.085648148 216:0.08543771 217:0.074915825 218:0.12689394 219:0.17929293 220:0.15572391 221:0.12394781 222:0.0753367 223:0.10585017 224:0.037457912 225:0.075968013 226:0.066708754 227:0.07996633 228:0.15635522 229:0.19002525 230:0.088383838 231:0.14309764 232:0.099116162 233:0.072180135 234:0.043350168 235:0.067550505 236:0.069023569 237:0.11994949 238:0.14330808 239:0.16645623 240:0.075968013 241:0.020622896 242:0.086279461 243:0.094065657 244:0.074494949 245:0.087962963 246:0.098274411 247:0.17340067 248:0.13236532 249:0.13026094 250:0.10227273 251:0.064604377 252:0.11090067 253:0.10016835 254:0.07723064 255:0.093644781 256:0.10984848 257:0.14646465 258:0.1026936 259:0.10353535 260:0.090909091 261:0.069234007 262:0.12794613 263:0.10037879 264:0.10816498 265:0.071969697 266:0.11363636 267:0.12352694 268:0.095749158 269:0.090277778 270:0.099116162 271:0.020622896 272:0.086279461 273:0.094065657 274:0.074494949 275:0.087962963 276:0.098274411 277:0.17340067 278:0.13236532 279:0.13026094 280:0.10227273 281:0.064604377 282:0.11090067 283:0.10016835 284:0.07723064 285:0.093644781 286:0.10984848 287:0.14646465 288:0.1026936 289:0.10353535 290:0.090909091 291:0.069234007 292:0.12794613 293:0.10037879 294:0.10816498 295:0.071969697 296:0.11363636 297:0.12352694 298:0.095749158 299:0.090277778 300:0.099116162 301:0.14457071 302:0.2388468 303:0.14057239 304:0.073863636 305:0.08733165 306:0.085227273 307:0.16035354 308:0.038930976 309:0.013257576 310:0.017045455 311:0.18539562 312:0.28472222 313:0.08543771 314:0.078493266 315:0.087962963 316:0.086069024 317:0.13762626 318:0.026725589 319:0.010732323 320:0.016835017 321:0.19760101 322:0.29608586 323:0.086279461 324:0.080387205 325:0.088594276 326:0.1104798 327:0.091750842 328:0.023358586 329:0.014099327 330:0.011363636 331:0.14457071 332:0.2388468 333:0.14057239 334:0.073863636 335:0.08733165 336:0.085227273 337:0.16035354 338:0.038930976 339:0.013257576 340:0.017045455 341:0.18539562 342:0.28472222 343:0.08543771 344:0.078493266 345:0.087962963 346:0.086069024 347:0.13762626 348:0.026725589 349:0.010732323 350:0.016835017 351:0.19760101 352:0.29608586 353:0.086279461 354:0.080387205 355:0.088594276 356:0.1104798 357:0.091750842 358:0.023358586 359:0.014099327 360:0.011363636 
1 1:0.24724343 2:0.16624258 3:0.064461408 4:0.075275657 5:0.094995759 6:0.10602205 7:0.092027142 8:0.079728584 9:0.0557676 10:0.018235793 11:0.33566582 12:0.11768448 13:0.094995759 14:0.10114504 15:0.10220526 16:0.067217981 17:0.07591179 18:0.034139101 19:0.051950806 20:0.019083969 21:0.35156913 22:0.1187447 23:0.10453774 24:0.11068702 25:0.075275657 26:0.075487701 27:0.071246819 28:0.026505513 29:0.046649703 30:0.019296014 31:0.24724343 32:0.16624258 33:0.064461408 34:0.075275657 35:0.094995759 36:0.10602205 37:0.092027142 38:0.079728584 39:0.0557676 40:0.018235793 41:0.33566582 42:0.11768448 43:0.094995759 44:0.10114504 45:0.10220526 46:0.067217981 47:0.07591179 48:0.034139101 49:0.051950806 50:0.019083969 51:0.35156913 52:0.1187447 53:0.10453774 54:0.11068702 55:0.075275657 56:0.075487701 57:0.071246819 58:0.026505513 59:0.046649703 60:0.019296014 61:0.023960984 62:0.11726039 63:0.13825276 64:0.14397795 65:0.12468193 66:0.11195929 67:0.14334182 68:0.11301951 69:0.053859203 70:0.029686175 71:0.0084817642 72:0.12637829 73:0.22052587 74:0.13379983 75:0.13676845 76:0.17302799 77:0.10687023 78:0.049194232 79:0.023324852 80:0.021628499 81:0.0021204411 82:0.066793893 83:0.19974555 84:0.17090755 85:0.14249364 86:0.13061917 87:0.13401187 88:0.094359627 89:0.034351145 90:0.024597116 91:0.023960984 92:0.11726039 93:0.13825276 94:0.14397795 95:0.12468193 96:0.11195929 97:0.14334182 98:0.11301951 99:0.053859203 100:0.029686175 101:0.0084817642 102:0.12637829 103:0.22052587 104:0.13379983 105:0.13676845 106:0.17302799 107:0.10687023 108:0.049194232 109:0.023324852 110:0.021628499 111:0.0021204411 112:0.066793893 113:0.19974555 114:0.17090755 115:0.14249364 116:0.13061917 117:0.13401187 118:0.094359627 119:0.034351145 120:0.024597116 121:0.01293469 122:0.047073791 123:0.14249364 124:0.30831213 125:0.24300254 126:0.10008482 127:0.058736217 128:0.051102629 129:0.022476675 130:0.013782867 131:0.0072094996 132:0.094359627 133:0.35262935 134:0.069126378 135:0.067854114 136:0.17217981 137:0.098388465 138:0.10284139 139:0.022688719 140:0.012722646 141:0.078032231 142:0.22519084 143:0.15564037 144:0.058524173 145:0.063189143 146:0.13719254 147:0.10538592 148:0.14715861 149:0.015691264 150:0.013994911 151:0.01293469 152:0.047073791 153:0.14249364 154:0.30831213 155:0.24300254 156:0.10008482 157:0.058736217 158:0.051102629 159:0.022476675 160:0.013782867 161:0.0072094996 162:0.094359627 163:0.35262935 164:0.069126378 165:0.067854114 166:0.17217981 167:0.098388465 168:0.10284139 169:0.022688719 170:0.012722646 171:0.078032231 172:0.22519084 173:0.15564037 174:0.058524173 175:0.063189143 176:0.13719254 177:0.10538592 178:0.14715861 179:0.015691264 180:0.013994911 181:0.014843087 182:0.025233249 183:0.086726039 184:0.14800679 185:0.096904156 186:0.079092451 187:0.081849025 188:0.17430025 189:0.21819338 190:0.074851569 191:0.0067854114 192:0.036259542 193:0.12107718 194:0.15542833 195:0.085453774 196:0.095419847 197:0.11810857 198:0.17854114 199:0.15903308 200:0.04389313 201:0.010390161 202:0.08884648 203:0.16115352 204:0.12192536 205:0.08884648 206:0.11089907 207:0.1331637 208:0.15797286 209:0.1062341 210:0.020568278 211:0.014843087 212:0.025233249 213:0.086726039 214:0.14800679 215:0.096904156 216:0.079092451 217:0.081849025 218:0.17430025 219:0.21819338 220:0.074851569 221:0.0067854114 222:0.036259542 223:0.12107718 224:0.15542833 225:0.085453774 226:0.095419847 227:0.11810857 228:0.17854114 229:0.15903308 230:0.04389313 231:0.010390161 232:0.08884648 233:0.16115352 234:0.12192536 235:0.08884648 236:0.11089907 237:0.1331637 238:0.15797286 239:0.1062341 240:0.020568278 241:0.04495335 242:0.020780322 243:0.070610687 244:0.15118745 245:0.1437659 246:0.16836302 247:0.20928753 248:0.12913486 249:0.044317218 250:0.017599661 251:0.045377439 252:0.026081425 253:0.10644614 254:0.13146735 255:0.13252757 256:0.21607294 257:0.1620017 258:0.1293469 259:0.036259542 260:0.014418999 261:0.044105174 262:0.018023749 263:0.062977099 264:0.13146735 265:0.15542833 266:0.12871077 267:0.19486853 268:0.18256997 269:0.068066158 270:0.013782867 271:0.04495335 272:0.020780322 273:0.070610687 274:0.15118745 275:0.1437659 276:0.16836302 277:0.20928753 278:0.12913486 279:0.044317218 280:0.017599661 281:0.045377439 282:0.026081425 283:0.10644614 284:0.13146735 285:0.13252757 286:0.21607294 287:0.1620017 288:0.1293469 289:0.036259542 290:0.014418999 291:0.044105174 292:0.018023749 293:0.062977099 294:0.13146735 295:0.15542833 296:0.12871077 297:0.19486853 298:0.18256997 299:0.068066158 300:0.013782867 301:0.04749788 302:0.083969466 303:0.067854114 304:0.14970314 305:0.13231552 306:0.20483461 307:0.14949109 308:0.059584394 309:0.065309584 310:0.039440204 311:0.067005937 312:0.092663274 313:0.091178965 314:0.17748092 315:0.18299406 316:0.19296014 317:0.060856658 318:0.072519084 319:0.039228159 320:0.023112807 321:0.055343511 322:0.058312129 323:0.1134436 324:0.12362171 325:0.18129771 326:0.16666667 327:0.12722646 328:0.1024173 329:0.032442748 330:0.039228159 331:0.04749788 332:0.083969466 333:0.067854114 334:0.14970314 335:0.13231552 336:0.20483461 337:0.14949109 338:0.059584394 339:0.065309584 340:0.039440204 341:0.067005937 342:0.092663274 343:0.091178965 344:0.17748092 345:0.18299406 346:0.19296014 347:0.060856658 348:0.072519084 349:0.039228159 350:0.023112807 351:0.055343511 352:0.058312129 353:0.1134436 354:0.12362171 355:0.18129771 356:0.16666667 357:0.12722646 358:0.1024173 359:0.032442748 360:0.039228159 
0.1376654918447245 1:0.29566498 2:0.10732323 3:0.059974747 4:0.086700337 5:0.093434343 6:0.10395623 7:0.089225589 8:0.088594276 9:0.045244108 10:0.029882155 11:0.31797138 12:0.12037037 13:0.090909091 14:0.10563973 15:0.11931818 16:0.072180135 17:0.080176768 18:0.035984848 19:0.045664983 20:0.011784512 21:0.33375421 22:0.12415825 23:0.10016835 24:0.12415825 25:0.081228956 26:0.080597643 27:0.075547138 28:0.028619529 29:0.041245791 30:0.010521886 31:0.29566498 32:0.10732323 33:0.059974747 34:0.086700337 35:0.093434343 36:0.10395623 37:0.089225589 38:0.088594276 39:0.045244108 40:0.029882155 41:0.31797138 42:0.12037037 43:0.090909091 44:0.10563973 45:0.11931818 46:0.072180135 47:0.080176768 48:0.035984848 49:0.045664983 50:0.011784512 51:0.33375421 52:0.12415825 53:0.10016835 54:0.12415825 55:0.081228956 56:0.080597643 57:0.075547138 58:0.028619529 59:0.041245791 60:0.010521886 61:0.010521886 62:0.14814815 63:0.17382155 64:0.14920034 65:0.10585017 66:0.09469697 67:0.10542929 68:0.13489057 69:0.051346801 70:0.026094276 71:0.035143098 72:0.19612795 73:0.16540404 74:0.12984007 75:0.13257576 76:0.15677609 77:0.09006734 78:0.049873737 79:0.025673401 80:0.018518519 81:0.014099327 82:0.12289562 83:0.20622896 84:0.13657407 85:0.15803872 86:0.097011785 87:0.13257576 88:0.077020202 89:0.034301347 90:0.021254209 91:0.010521886 92:0.14814815 93:0.17382155 94:0.14920034 95:0.10585017 96:0.09469697 97:0.10542929 98:0.13489057 99:0.051346801 100:0.026094276 101:0.035143098 102:0.19612795 103:0.16540404 104:0.12984007 105:0.13257576 106:0.15677609 107:0.09006734 108:0.049873737 109:0.025673401 110:0.018518519 111:0.014099327 112:0.12289562 113:0.20622896 114:0.13657407 115:0.15803872 116:0.097011785 117:0.13257576 118:0.077020202 119:0.034301347 120:0.021254209 121:0.013888889 122:0.065025253 123:0.15761785 124:0.30871212 125:0.22390572 126:0.095328283 127:0.053030303 128:0.044402357 129:0.021254209 130:0.016835017 131:0.013047138 132:0.11321549 133:0.34196128 134:0.066919192 135:0.076388889 136:0.17003367 137:0.081018519 138:0.098484848 139:0.02209596 140:0.016835017 141:0.018308081 142:0.21127946 143:0.21506734 144:0.073442761 145:0.063552189 146:0.097011785 147:0.15467172 148:0.11489899 149:0.033459596 150:0.018308081 151:0.013888889 152:0.065025253 153:0.15761785 154:0.30871212 155:0.22390572 156:0.095328283 157:0.053030303 158:0.044402357 159:0.021254209 160:0.016835017 161:0.013047138 162:0.11321549 163:0.34196128 164:0.066919192 165:0.076388889 166:0.17003367 167:0.081018519 168:0.098484848 169:0.02209596 170:0.016835017 171:0.018308081 172:0.21127946 173:0.21506734 174:0.073442761 175:0.063552189 176:0.097011785 177:0.15467172 178:0.11489899 179:0.033459596 180:0.018308081 181:0.0016835017 182:0.0058922559 183:0.065025253 184:0.22895623 185:0.13383838 186:0.10816498 187:0.16098485 188:0.1668771 189:0.1172138 190:0.011363636 191:0.0025252525 192:0.014099327 193:0.13236532 194:0.20054714 195:0.13236532 196:0.10900673 197:0.18329125 198:0.1780303 199:0.038510101 200:0.0092592593 201:0.0086279461 202:0.050715488 203:0.22895623 204:0.14793771 205:0.12941919 206:0.19612795 207:0.17529461 208:0.04503367 209:0.012205387 210:0.0056818182 211:0.0016835017 212:0.0058922559 213:0.065025253 214:0.22895623 215:0.13383838 216:0.10816498 217:0.16098485 218:0.1668771 219:0.1172138 220:0.011363636 221:0.0025252525 222:0.014099327 223:0.13236532 224:0.20054714 225:0.13236532 226:0.10900673 227:0.18329125 228:0.1780303 229:0.038510101 230:0.0092592593 231:0.0086279461 232:0.050715488 233:0.22895623 234:0.14793771 235:0.12941919 236:0.19612795 237:0.17529461 238:0.04503367 239:0.012205387 240:0.0056818182 241:0.049873737 242:0.049031987 243:0.11279461 244:0.11763468 245:0.14225589 246:0.13973064 247:0.21632997 248:0.094276094 249:0.034301347 250:0.043771044 251:0.052188552 252:0.040614478 253:0.078072391 254:0.13636364 255:0.12436869 256:0.15509259 257:0.20664983 258:0.12478956 259:0.051346801 260:0.030513468 261:0.050925926 262:0.033880471 263:0.046296296 264:0.13404882 265:0.14099327 266:0.15425084 267:0.23358586 268:0.12899832 269:0.071127946 270:0.0058922559 271:0.049873737 272:0.049031987 273:0.11279461 274:0.11763468 275:0.14225589 276:0.13973064 277:0.21632997 278:0.094276094 279:0.034301347 280:0.043771044 281:0.052188552 282:0.040614478 283:0.078072391 284:0.13636364 285:0.12436869 286:0.15509259 287:0.20664983 288:0.12478956 289:0.051346801 290:0.030513468 291:0.050925926 292:0.033880471 293:0.046296296 294:0.13404882 295:0.14099327 296:0.15425084 297:0.23358586 298:0.12899832 299:0.071127946 300:0.0058922559 301:0.076178451 302:0.08733165 303:0.070075758 304:0.14877946 305:0.20433502 306:0.17529461 307:0.11931818 308:0.06523569 309:0.04040404 310:0.013047138 311:0.073653199 312:0.064814815 313:0.08543771 314:0.096170034 315:0.32344276 316:0.12436869 317:0.1395202 318:0.035563973 319:0.038930976 320:0.018097643 321:0.095538721 322:0.041035354 323:0.060185185 324:0.15298822 325:0.27041246 326:0.13383838 327:0.15193603 328:0.043981481 329:0.038089226 330:0.011994949 331:0.076178451 332:0.08733165 333:0.070075758 334:0.14877946 335:0.20433502 336:0.17529461 337:0.11931818 338:0.06523569 339:0.04040404 340:0.013047138 341:0.073653199 342:0.064814815 343:0.08543771 344:0.096170034 345:0.32344276 346:0.12436869 347:0.1395202 348:0.035563973 349:0.038930976 350:0.018097643 351:0.095538721 352:0.041035354 353:0.060185185 354:0.15298822 355:0.27041246 356:0.13383838 357:0.15193603 358:0.043981481 359:0.038089226 360:0.011994949 
0.005785987489926237 1:0.016666667 2:0.31559829 3:0.25662393 4:0.10705128 5:0.091666667 6:0.10384615 7:0.10064103 8:0.0051282051 9:0.0023504274 10:0.00042735043 11:0.015598291 12:0.32115385 13:0.27200855 14:0.074786325 15:0.1008547 16:0.087820513 17:0.070940171 18:0.051709402 19:0.0042735043 20:0.00085470085 21:0.045299145 22:0.36452991 23:0.17457265 24:0.11688034 25:0.086538462 26:0.11111111 27:0.091666667 28:0.0064102564 29:0.0023504274 30:0.00064102564 31:0.016666667 32:0.31559829 33:0.25662393 34:0.10705128 35:0.091666667 36:0.10384615 37:0.10064103 38:0.0051282051 39:0.0023504274 40:0.00042735043 41:0.015598291 42:0.32115385 43:0.27200855 44:0.074786325 45:0.1008547 46:0.087820513 47:0.070940171 48:0.051709402 49:0.0042735043 50:0.00085470085 51:0.045299145 52:0.36452991 53:0.17457265 54:0.11688034 55:0.086538462 56:0.11111111 57:0.091666667 58:0.0064102564 59:0.0023504274 60:0.00064102564 61:0.021794872 62:0.13888889 63:0.13782051 64:0.33354701 65:0.19294872 66:0.095512821 67:0.063888889 68:0.0081196581 69:0.0057692308 70:0.0017094017 71:0.008974359 72:0.06474359 73:0.18440171 74:0.28782051 75:0.22628205 76:0.10811966 77:0.087606838 78:0.023290598 79:0.0072649573 80:0.0014957265 81:0.06474359 82:0.17008547 83:0.13354701 84:0.30235043 85:0.15662393 86:0.086538462 87:0.05534188 88:0.016880342 89:0.011965812 90:0.0019230769 91:0.021794872 92:0.13888889 93:0.13782051 94:0.33354701 95:0.19294872 96:0.095512821 97:0.063888889 98:0.0081196581 99:0.0057692308 100:0.0017094017 101:0.008974359 102:0.06474359 103:0.18440171 104:0.28782051 105:0.22628205 106:0.10811966 107:0.087606838 108:0.023290598 109:0.0072649573 110:0.0014957265 111:0.06474359 112:0.17008547 113:0.13354701 114:0.30235043 115:0.15662393 116:0.086538462 117:0.05534188 118:0.016880342 119:0.011965812 120:0.0019230769 121:0.22136752 122:0.14123932 123:0.20918803 124:0.18119658 125:0.00085470085 126:0.11217949 127:0.058547009 128:0.033974359 129:0.023931624 130:0.017521368 131:0.21196581 132:0.125 133:0.37735043 134:0.036538462 135:0.13589744 136:0.024145299 137:0.047008547 138:0.02457265 139:0.017094017 140:0.00042735043 141:0.026495726 142:0.10555556 143:0.14316239 144:0.14893162 145:0.19038462 146:0.22799145 147:0.097008547 148:0.050213675 149:0.0081196581 150:0.0021367521 151:0.22136752 152:0.14123932 153:0.20918803 154:0.18119658 155:0.00085470085 156:0.11217949 157:0.058547009 158:0.033974359 159:0.023931624 160:0.017521368 161:0.21196581 162:0.125 163:0.37735043 164:0.036538462 165:0.13589744 166:0.024145299 167:0.047008547 168:0.02457265 169:0.017094017 170:0.00042735043 171:0.026495726 172:0.10555556 173:0.14316239 174:0.14893162 175:0.19038462 176:0.22799145 177:0.097008547 178:0.050213675 179:0.0081196581 180:0.0021367521 181:0.3284188 182:0.1284188 183:0.24465812 184:0.16559829 185:0.099358974 186:0.017307692 187:0.0027777778 188:0.0025641026 189:0.0066239316 190:0.0042735043 191:0.325 192:0.1241453 193:0.18397436 194:0.1758547 195:0.11303419 196:0.061752137 197:0.0027777778 198:0.0032051282 199:0.0051282051 200:0.0051282051 201:0.30833333 202:0.16068376 203:0.26901709 204:0.17905983 205:0.063247863 206:0.0034188034 207:0.0027777778 208:0.0057692308 209:0.005982906 210:0.0017094017 211:0.3284188 212:0.1284188 213:0.24465812 214:0.16559829 215:0.099358974 216:0.017307692 217:0.0027777778 218:0.0025641026 219:0.0066239316 220:0.0042735043 221:0.325 222:0.1241453 223:0.18397436 224:0.1758547 225:0.11303419 226:0.061752137 227:0.0027777778 228:0.0032051282 229:0.0051282051 230:0.0051282051 231:0.30833333 232:0.16068376 233:0.26901709 234:0.17905983 235:0.063247863 236:0.0034188034 237:0.0027777778 238:0.0057692308 239:0.005982906 240:0.0017094017 241:0.098076923 242:0.31196581 243:0.087820513 244:0.098717949 245:0.10064103 246:0.076282051 247:0.066025641 248:0.086538462 249:0.05982906 250:0.014102564 251:0.25705128 252:0.17051282 253:0.073504274 254:0.06474359 255:0.11196581 256:0.091452991 257:0.061965812 258:0.083119658 259:0.066880342 260:0.018803419 261:0.22970085 262:0.17307692 263:0.080982906 264:0.086965812 265:0.084188034 266:0.086538462 267:0.11730769 268:0.085042735 269:0.042094017 270:0.014102564 271:0.098076923 272:0.31196581 273:0.087820513 274:0.098717949 275:0.10064103 276:0.076282051 277:0.066025641 278:0.086538462 279:0.05982906 280:0.014102564 281:0.25705128 282:0.17051282 283:0.073504274 284:0.06474359 285:0.11196581 286:0.091452991 287:0.061965812 288:0.083119658 289:0.066880342 290:0.018803419 291:0.22970085 292:0.17307692 293:0.080982906 294:0.086965812 295:0.084188034 296:0.086538462 297:0.11730769 298:0.085042735 299:0.042094017 300:0.014102564 301:0.23803419 302:0.22649573 303:0.14401709 304:0.044871795 305:0.068376068 306:0.039316239 307:0.053418803 308:0.10876068 309:0.072863248 310:0.0038461538 311:0.24722222 312:0.23098291 313:0.09017094 314:0.093803419 315:0.039316239 316:0.028846154 317:0.05534188 318:0.096153846 319:0.093589744 320:0.02457265 321:0.049358974 322:0.27179487 323:0.21495726 324:0.068376068 325:0.06517094 326:0.055982906 327:0.038888889 328:0.094444444 329:0.10021368 330:0.040811966 331:0.23803419 332:0.22649573 333:0.14401709 334:0.044871795 335:0.068376068 336:0.039316239 337:0.053418803 338:0.10876068 339:0.072863248 340:0.0038461538 341:0.24722222 342:0.23098291 343:0.09017094 344:0.093803419 345:0.039316239 346:0.028846154 347:0.05534188 348:0.096153846 349:0.093589744 350:0.02457265 351:0.049358974 352:0.27179487 353:0.21495726 354:0.068376068 355:0.06517094 356:0.055982906 357:0.038888889 358:0.094444444 359:0.10021368 360:0.040811966 
0.1480393538242503 1:0.019781145 2:0.053240741 3:0.33228114 4:0.19128788 5:0.087542088 6:0.089856902 7:0.12689394 8:0.073653199 9:0.02293771 10:0.0025252525 11:0.025883838 12:0.2516835 13:0.28829966 14:0.081649832 15:0.10332492 16:0.09280303 17:0.061026936 18:0.08733165 19:0.0069444444 20:0.0010521886 21:0.0086279461 22:0.27946128 23:0.25799663 24:0.12794613 25:0.12857744 26:0.12289562 27:0.058291246 28:0.013257576 29:0.0021043771 30:0.00084175084 31:0.019781145 32:0.053240741 33:0.33228114 34:0.19128788 35:0.087542088 36:0.089856902 37:0.12689394 38:0.073653199 39:0.02293771 40:0.0025252525 41:0.025883838 42:0.2516835 43:0.28829966 44:0.081649832 45:0.10332492 46:0.09280303 47:0.061026936 48:0.08733165 49:0.0069444444 50:0.0010521886 51:0.0086279461 52:0.27946128 53:0.25799663 54:0.12794613 55:0.12857744 56:0.12289562 57:0.058291246 58:0.013257576 59:0.0021043771 60:0.00084175084 61:0.020412458 62:0.14225589 63:0.21906566 64:0.19023569 65:0.21822391 66:0.098063973 67:0.048611111 68:0.042508418 69:0.01746633 70:0.0031565657 71:0.062289562 72:0.18813131 73:0.061868687 74:0.27588384 75:0.14814815 76:0.11405724 77:0.085858586 78:0.035563973 79:0.021675084 80:0.006523569 81:0.013047138 82:0.074074074 83:0.1651936 84:0.15993266 85:0.26557239 86:0.17781987 87:0.063131313 88:0.056186869 89:0.015782828 90:0.0092592593 91:0.020412458 92:0.14225589 93:0.21906566 94:0.19023569 95:0.21822391 96:0.098063973 97:0.048611111 98:0.042508418 99:0.01746633 100:0.0031565657 101:0.062289562 102:0.18813131 103:0.061868687 104:0.27588384 105:0.14814815 106:0.11405724 107:0.085858586 108:0.035563973 109:0.021675084 110:0.006523569 111:0.013047138 112:0.074074074 113:0.1651936 114:0.15993266 115:0.26557239 116:0.17781987 117:0.063131313 118:0.056186869 119:0.015782828 120:0.0092592593 121:0.0050505051 122:0.02020202 123:0.031144781 124:0.15698653 125:0.15972222 126:0.32975589 127:0.048821549 128:0.1327862 129:0.070496633 130:0.04503367 131:0.20538721 132:0.17255892 133:0.17845118 134:0.11910774 135:0.070496633 136:0.10921717 137:0.0496633 138:0.042718855 139:0.035143098 140:0.017255892 141:0.023569024 142:0.03956229 143:0.068181818 144:0.24200337 145:0.20349327 146:0.24137205 147:0.048821549 148:0.073021886 149:0.041877104 150:0.018097643 151:0.0050505051 152:0.02020202 153:0.031144781 154:0.15698653 155:0.15972222 156:0.32975589 157:0.048821549 158:0.1327862 159:0.070496633 160:0.04503367 161:0.20538721 162:0.17255892 163:0.17845118 164:0.11910774 165:0.070496633 166:0.10921717 167:0.0496633 168:0.042718855 169:0.035143098 170:0.017255892 171:0.023569024 172:0.03956229 173:0.068181818 174:0.24200337 175:0.20349327 176:0.24137205 177:0.048821549 178:0.073021886 179:0.041877104 180:0.018097643 181:0.38110269 182:0.13152357 183:0.2354798 184:0.15972222 185:0.082070707 186:0.0037878788 187:0.0010521886 188:0.0012626263 189:0.0023148148 190:0.0016835017 191:0.34638047 192:0.11237374 193:0.18686869 194:0.16287879 195:0.12689394 196:0.058080808 197:0.0012626263 198:0.0012626263 199:0.00063131313 200:0.0033670034 201:0.33522727 202:0.15088384 203:0.253367 204:0.19486532 205:0.053240741 206:0.0063131313 207:0.00084175084 208:0.0010521886 209:0.0018939394 210:0.0023148148 211:0.38110269 212:0.13152357 213:0.2354798 214:0.15972222 215:0.082070707 216:0.0037878788 217:0.0010521886 218:0.0012626263 219:0.0023148148 220:0.0016835017 221:0.34638047 222:0.11237374 223:0.18686869 224:0.16287879 225:0.12689394 226:0.058080808 227:0.0012626263 228:0.0012626263 229:0.00063131313 230:0.0033670034 231:0.33522727 232:0.15088384 233:0.253367 234:0.19486532 235:0.053240741 236:0.0063131313 237:0.00084175084 238:0.0010521886 239:0.0018939394 240:0.0023148148 241:0.18834175 242:0.20265152 243:0.089436027 244:0.10648148 245:0.11510943 246:0.096590909 247:0.10458754 248:0.053030303 249:0.036195286 250:0.0075757576 251:0.18497475 252:0.21927609 253:0.08270202 254:0.084806397 255:0.10206229 256:0.087542088 257:0.072180135 258:0.086069024 259:0.054713805 260:0.025673401 261:0.033249158 262:0.33059764 263:0.096380471 264:0.092592593 265:0.12015993 266:0.10921717 267:0.14457071 268:0.046506734 269:0.017887205 270:0.0088383838 271:0.18834175 272:0.20265152 273:0.089436027 274:0.10648148 275:0.11510943 276:0.096590909 277:0.10458754 278:0.053030303 279:0.036195286 280:0.0075757576 281:0.18497475 282:0.21927609 283:0.08270202 284:0.084806397 285:0.10206229 286:0.087542088 287:0.072180135 288:0.086069024 289:0.054713805 290:0.025673401 291:0.033249158 292:0.33059764 293:0.096380471 294:0.092592593 295:0.12015993 296:0.10921717 297:0.14457071 298:0.046506734 299:0.017887205 300:0.0088383838 301:0.25294613 302:0.20833333 303:0.14330808 304:0.065446128 305:0.04776936 306:0.035353535 307:0.064183502 308:0.049031987 309:0.10016835 310:0.033459596 311:0.2739899 312:0.23000842 313:0.087121212 314:0.091540404 315:0.030092593 316:0.026725589 317:0.054924242 318:0.086700337 319:0.096801347 320:0.02209596 321:0.20917508 322:0.21717172 323:0.13636364 324:0.087752525 325:0.043560606 326:0.033670034 327:0.075126263 328:0.077861953 329:0.08270202 330:0.036616162 331:0.25294613 332:0.20833333 333:0.14330808 334:0.065446128 335:0.04776936 336:0.035353535 337:0.064183502 338:0.049031987 339:0.10016835 340:0.033459596 341:0.2739899 342:0.23000842 343:0.087121212 344:0.091540404 345:0.030092593 346:0.026725589 347:0.054924242 348:0.086700337 349:0.096801347 350:0.02209596 351:0.20917508 352:0.21717172 353:0.13636364 354:0.087752525 355:0.043560606 356:0.033670034 357:0.075126263 358:0.077861953 359:0.08270202 360:0.036616162 
0.5803366792493931 1:0.021794872 2:0.097435897 3:0.36153846 4:0.1508547 5:0.087393162 6:0.099786325 7:0.083974359 8:0.077350427 9:0.017521368 10:0.0023504274 11:0.02457265 12:0.33055556 13:0.23311966 14:0.073076923 15:0.10918803 16:0.075213675 17:0.088247863 18:0.058547009 19:0.0066239316 20:0.00085470085 21:0.069444444 22:0.36217949 23:0.17628205 24:0.11816239 25:0.13632479 26:0.096153846 27:0.035683761 28:0.0042735043 29:0.00085470085 30:0.00064102564 31:0.021794872 32:0.097435897 33:0.36153846 34:0.1508547 35:0.087393162 36:0.099786325 37:0.083974359 38:0.077350427 39:0.017521368 40:0.0023504274 41:0.02457265 42:0.33055556 43:0.23311966 44:0.073076923 45:0.10918803 46:0.075213675 47:0.088247863 48:0.058547009 49:0.0066239316 50:0.00085470085 51:0.069444444 52:0.36217949 53:0.17628205 54:0.11816239 55:0.13632479 56:0.096153846 57:0.035683761 58:0.0042735043 59:0.00085470085 60:0.00064102564 61:0.088461538 62:0.16752137 63:0.11880342 64:0.26175214 65:0.096581197 66:0.078418803 67:0.084401709 68:0.058760684 69:0.030982906 70:0.014316239 71:0.05042735 72:0.18290598 73:0.18012821 74:0.16837607 75:0.19957265 76:0.081623932 77:0.063461538 78:0.05491453 79:0.015384615 80:0.0032051282 81:0.0091880342 82:0.069871795 83:0.16410256 84:0.15726496 85:0.26602564 86:0.16880342 87:0.076282051 88:0.056623932 89:0.022863248 90:0.008974359 91:0.088461538 92:0.16752137 93:0.11880342 94:0.26175214 95:0.096581197 96:0.078418803 97:0.084401709 98:0.058760684 99:0.030982906 100:0.014316239 101:0.05042735 102:0.18290598 103:0.18012821 104:0.16837607 105:0.19957265 106:0.081623932 107:0.063461538 108:0.05491453 109:0.015384615 110:0.0032051282 111:0.0091880342 112:0.069871795 113:0.16410256 114:0.15726496 115:0.26602564 116:0.16880342 117:0.076282051 118:0.056623932 119:0.022863248 120:0.008974359 121:0.0053418803 122:0.030769231 123:0.28012821 124:0.16880342 125:0.26047009 126:0.12564103 127:0.095726496 128:0.023717949 129:0.0091880342 130:0.00021367521 131:0.013247863 132:0.16260684 133:0.3508547 134:0.13076923 135:0.11559829 136:0.085042735 137:0.088888889 138:0.035470085 139:0.01474359 140:0.0027777778 141:0.075213675 142:0.06517094 143:0.19636752 144:0.33739316 145:0.1508547 146:0.044444444 147:0.11709402 148:0.0072649573 149:0.0036324786 150:0.0025641026 151:0.0053418803 152:0.030769231 153:0.28012821 154:0.16880342 155:0.26047009 156:0.12564103 157:0.095726496 158:0.023717949 159:0.0091880342 160:0.00021367521 161:0.013247863 162:0.16260684 163:0.3508547 164:0.13076923 165:0.11559829 166:0.085042735 167:0.088888889 168:0.035470085 169:0.01474359 170:0.0027777778 171:0.075213675 172:0.06517094 173:0.19636752 174:0.33739316 175:0.1508547 176:0.044444444 177:0.11709402 178:0.0072649573 179:0.0036324786 180:0.0025641026 181:0.37542735 182:0.13974359 183:0.2292735 184:0.17991453 185:0.06474359 186:0.0023504274 187:0.0019230769 188:0.0021367521 189:0.0032051282 190:0.0012820513 191:0.3525641 192:0.11025641 193:0.19786325 194:0.16816239 195:0.12222222 196:0.039957265 197:0.0017094017 198:0.0017094017 199:0.0027777778 200:0.0027777778 201:0.3241453 202:0.19423077 203:0.27051282 204:0.16495726 205:0.033974359 206:0.0034188034 207:0.0023504274 208:0.0023504274 209:0.0021367521 210:0.0019230769 211:0.37542735 212:0.13974359 213:0.2292735 214:0.17991453 215:0.06474359 216:0.0023504274 217:0.0019230769 218:0.0021367521 219:0.0032051282 220:0.0012820513 221:0.3525641 222:0.11025641 223:0.19786325 224:0.16816239 225:0.12222222 226:0.039957265 227:0.0017094017 228:0.0017094017 229:0.0027777778 230:0.0027777778 231:0.3241453 232:0.19423077 233:0.27051282 234:0.16495726 235:0.033974359 236:0.0034188034 237:0.0023504274 238:0.0023504274 239:0.0021367521 240:0.0019230769 241:0.11965812 242:0.25940171 243:0.094017094 244:0.10149573 245:0.10555556 246:0.10897436 247:0.089529915 248:0.055128205 249:0.051282051 250:0.014957265 251:0.1474359 252:0.24380342 253:0.087179487 254:0.083974359 255:0.099786325 256:0.084401709 257:0.077564103 258:0.096153846 259:0.058547009 260:0.021153846 261:0.028632479 262:0.31688034 263:0.094017094 264:0.11047009 265:0.085470085 266:0.12521368 267:0.14102564 268:0.056837607 269:0.028205128 270:0.013247863 271:0.11965812 272:0.25940171 273:0.094017094 274:0.10149573 275:0.10555556 276:0.10897436 277:0.089529915 278:0.055128205 279:0.051282051 280:0.014957265 281:0.1474359 282:0.24380342 283:0.087179487 284:0.083974359 285:0.099786325 286:0.084401709 287:0.077564103 288:0.096153846 289:0.058547009 290:0.021153846 291:0.028632479 292:0.31688034 293:0.094017094 294:0.11047009 295:0.085470085 296:0.12521368 297:0.14102564 298:0.056837607 299:0.028205128 300:0.013247863 301:0.2258547 302:0.25726496 303:0.13504274 304:0.053205128 305:0.042948718 306:0.057051282 307:0.046794872 308:0.10918803 309:0.05982906 310:0.012820513 311:0.24957265 312:0.25149573 313:0.075854701 314:0.095940171 315:0.033547009 316:0.027991453 317:0.05534188 318:0.093376068 319:0.097435897 320:0.019444444 321:0.22991453 322:0.25320513 323:0.072863248 324:0.086538462 325:0.042094017 326:0.057264957 327:0.055555556 328:0.080555556 329:0.097222222 330:0.024786325 331:0.2258547 332:0.25726496 333:0.13504274 334:0.053205128 335:0.042948718 336:0.057051282 337:0.046794872 338:0.10918803 339:0.05982906 340:0.012820513 341:0.24957265 342:0.25149573 343:0.075854701 344:0.095940171 345:0.033547009 346:0.027991453 347:0.05534188 348:0.093376068 349:0.097435897 350:0.019444444 351:0.22991453 352:0.25320513 353:0.072863248 354:0.086538462 355:0.042094017 356:0.057264957 357:0.055555556 358:0.080555556 359:0.097222222 360:0.024786325 
0.6534855862495044 1:0.013675214 2:0.022222222 3:0.23247863 4:0.28461538 5:0.084188034 6:0.07991453 7:0.09465812 8:0.084188034 9:0.071367521 10:0.032692308 11:0.016239316 12:0.20192308 13:0.28995726 14:0.095726496 15:0.069444444 16:0.094230769 17:0.077777778 18:0.068589744 19:0.067307692 20:0.018803419 21:0.010683761 22:0.087606838 23:0.37029915 24:0.15213675 25:0.077991453 26:0.13141026 27:0.094017094 28:0.063247863 29:0.010470085 30:0.0021367521 31:0.013675214 32:0.022222222 33:0.23247863 34:0.28461538 35:0.084188034 36:0.07991453 37:0.09465812 38:0.084188034 39:0.071367521 40:0.032692308 41:0.016239316 42:0.20192308 43:0.28995726 44:0.095726496 45:0.069444444 46:0.094230769 47:0.077777778 48:0.068589744 49:0.067307692 50:0.018803419 51:0.010683761 52:0.087606838 53:0.37029915 54:0.15213675 55:0.077991453 56:0.13141026 57:0.094017094 58:0.063247863 59:0.010470085 60:0.0021367521 61:0.0025641026 62:0.069444444 63:0.1965812 64:0.25641026 65:0.14615385 66:0.10021368 67:0.095299145 68:0.10448718 69:0.026923077 70:0.0019230769 71:0.0032051282 72:0.062179487 73:0.16517094 74:0.18034188 75:0.1792735 76:0.21773504 77:0.066239316 78:0.083547009 79:0.03482906 80:0.0074786325 81:0.0021367521 82:0.0066239316 83:0.066025641 84:0.22286325 85:0.29059829 86:0.20576923 87:0.10598291 88:0.074145299 89:0.018803419 90:0.0070512821 91:0.0025641026 92:0.069444444 93:0.1965812 94:0.25641026 95:0.14615385 96:0.10021368 97:0.095299145 98:0.10448718 99:0.026923077 100:0.0019230769 101:0.0032051282 102:0.062179487 103:0.16517094 104:0.18034188 105:0.1792735 106:0.21773504 107:0.066239316 108:0.083547009 109:0.03482906 110:0.0074786325 111:0.0021367521 112:0.0066239316 113:0.066025641 114:0.22286325 115:0.29059829 116:0.20576923 117:0.10598291 118:0.074145299 119:0.018803419 120:0.0070512821 121:0.27200855 122:0.19038462 123:0.18717949 124:0.14807692 125:0.12222222 126:0.031196581 127:0.042307692 128:0.0051282051 129:0.00085470085 130:0.00064102564 131:0.23055556 132:0.18824786 133:0.27094017 134:0.097649573 135:0.017948718 136:0.10982906 137:0.036324786 138:0.043162393 139:0.0044871795 140:0.00085470085 141:0.053205128 142:0.099358974 143:0.27115385 144:0.35128205 145:0.099786325 146:0.035683761 147:0.075213675 148:0.011324786 149:0.0025641026 150:0.00042735043 151:0.27200855 152:0.19038462 153:0.18717949 154:0.14807692 155:0.12222222 156:0.031196581 157:0.042307692 158:0.0051282051 159:0.00085470085 160:0.00064102564 161:0.23055556 162:0.18824786 163:0.27094017 164:0.097649573 165:0.017948718 166:0.10982906 167:0.036324786 168:0.043162393 169:0.0044871795 170:0.00085470085 171:0.053205128 172:0.099358974 173:0.27115385 174:0.35128205 175:0.099786325 176:0.035683761 177:0.075213675 178:0.011324786 179:0.0025641026 180:0.00042735043 181:0.31837607 182:0.1482906 183:0.21837607 184:0.22799145 185:0.075854701 186:0.0038461538 187:0.0021367521 188:0.0012820513 189:0.002991453 190:0.00085470085 191:0.33333333 192:0.11923077 193:0.1707265 194:0.17542735 195:0.12307692 196:0.071153846 197:0.0010683761 198:0.0014957265 199:0.0019230769 200:0.0025641026 201:0.33547009 202:0.13803419 203:0.29615385 204:0.19358974 205:0.027136752 206:0.0023504274 207:0.0023504274 208:0.0023504274 209:0.0017094017 210:0.00085470085 211:0.31837607 212:0.1482906 213:0.21837607 214:0.22799145 215:0.075854701 216:0.0038461538 217:0.0021367521 218:0.0012820513 219:0.002991453 220:0.00085470085 221:0.33333333 222:0.11923077 223:0.1707265 224:0.17542735 225:0.12307692 226:0.071153846 227:0.0010683761 228:0.0014957265 229:0.0019230769 230:0.0025641026 231:0.33547009 232:0.13803419 233:0.29615385 234:0.19358974 235:0.027136752 236:0.0023504274 237:0.0023504274 238:0.0023504274 239:0.0017094017 240:0.00085470085 241:0.09465812 242:0.31175214 243:0.082051282 244:0.11303419 245:0.089316239 246:0.095512821 247:0.066239316 248:0.092094017 249:0.046153846 250:0.0091880342 251:0.28632479 252:0.12606838 253:0.078205128 254:0.092307692 255:0.077136752 256:0.095940171 257:0.081196581 258:0.092735043 259:0.045299145 260:0.024786325 261:0.19529915 262:0.18846154 263:0.10982906 264:0.10811966 265:0.10769231 266:0.072863248 267:0.1042735 268:0.082051282 269:0.023717949 270:0.0076923077 271:0.09465812 272:0.31175214 273:0.082051282 274:0.11303419 275:0.089316239 276:0.095512821 277:0.066239316 278:0.092094017 279:0.046153846 280:0.0091880342 281:0.28632479 282:0.12606838 283:0.078205128 284:0.092307692 285:0.077136752 286:0.095940171 287:0.081196581 288:0.092735043 289:0.045299145 290:0.024786325 291:0.19529915 292:0.18846154 293:0.10982906 294:0.10811966 295:0.10769231 296:0.072863248 297:0.1042735 298:0.082051282 299:0.023717949 300:0.0076923077 301:0.26880342 302:0.21858974 303:0.10641026 304:0.085683761 305:0.033333333 306:0.038888889 307:0.051068376 308:0.10064103 309:0.086324786 310:0.01025641 311:0.27692308 312:0.20192308 313:0.10299145 314:0.097649573 315:0.03034188 316:0.028205128 317:0.060470085 318:0.058119658 319:0.10833333 320:0.035042735 321:0.19957265 322:0.20042735 323:0.16410256 324:0.1008547 325:0.041239316 326:0.026495726 327:0.071153846 328:0.09508547 329:0.083974359 330:0.017094017 331:0.26880342 332:0.21858974 333:0.10641026 334:0.085683761 335:0.033333333 336:0.038888889 337:0.051068376 338:0.10064103 339:0.086324786 340:0.01025641 341:0.27692308 342:0.20192308 343:0.10299145 344:0.097649573 345:0.03034188 346:0.028205128 347:0.060470085 348:0.058119658 349:0.10833333 350:0.035042735 351:0.19957265 352:0.20042735 353:0.16410256 354:0.1008547 355:0.041239316 356:0.026495726 357:0.071153846 358:0.09508547 359:0.083974359 360:0.017094017 
0.4766654980831962 1:0.018659881 2:0.026505513 3:0.22964377 4:0.26187447 5:0.081424936 6:0.10008482 7:0.074427481 8:0.085453774 9:0.073791349 10:0.048134012 11:0.023112807 12:0.2014419 13:0.22921968 14:0.15309584 15:0.07591179 16:0.089270568 17:0.077184054 18:0.058736217 19:0.063401187 20:0.028625954 21:0.01293469 22:0.10284139 23:0.31000848 24:0.20419847 25:0.085029686 26:0.084393554 27:0.13210348 28:0.050890585 29:0.01547922 30:0.0021204411 31:0.018659881 32:0.026505513 33:0.22964377 34:0.26187447 35:0.081424936 36:0.10008482 37:0.074427481 38:0.085453774 39:0.073791349 40:0.048134012 41:0.023112807 42:0.2014419 43:0.22921968 44:0.15309584 45:0.07591179 46:0.089270568 47:0.077184054 48:0.058736217 49:0.063401187 50:0.028625954 51:0.01293469 52:0.10284139 53:0.31000848 54:0.20419847 55:0.085029686 56:0.084393554 57:0.13210348 58:0.050890585 59:0.01547922 60:0.0021204411 61:0.0036047498 62:0.081424936 63:0.22794741 64:0.11450382 65:0.27120441 66:0.096692112 67:0.078456319 68:0.079516539 69:0.045165394 70:0.0014843087 71:0.0059372349 72:0.12150127 73:0.12277354 74:0.18977947 75:0.16094148 76:0.22476675 77:0.063613232 78:0.055131467 79:0.049406277 80:0.0061492791 81:0.0031806616 82:0.0082697201 83:0.080152672 84:0.21458863 85:0.15182358 86:0.36005089 87:0.064461408 88:0.079092451 89:0.031594572 90:0.0067854114 91:0.0036047498 92:0.081424936 93:0.22794741 94:0.11450382 95:0.27120441 96:0.096692112 97:0.078456319 98:0.079516539 99:0.045165394 100:0.0014843087 101:0.0059372349 102:0.12150127 103:0.12277354 104:0.18977947 105:0.16094148 106:0.22476675 107:0.063613232 108:0.055131467 109:0.049406277 110:0.0061492791 111:0.0031806616 112:0.0082697201 113:0.080152672 114:0.21458863 115:0.15182358 116:0.36005089 117:0.064461408 118:0.079092451 119:0.031594572 120:0.0067854114 121:0.057888041 122:0.25275657 123:0.36005089 124:0.12425785 125:0.019932146 126:0.14334182 127:0.022052587 128:0.018235793 129:0.0012722646 130:0.00021204411 131:0.25 132:0.19380831 133:0.26272265 134:0.091391009 135:0.0082697201 136:0.10877863 137:0.022476675 138:0.055555556 139:0.0059372349 140:0.0010602205 141:0.011450382 142:0.063189143 143:0.39588634 144:0.22201018 145:0.093087362 146:0.13676845 147:0.035411366 148:0.039228159 149:0.0027565734 150:0.00021204411 151:0.057888041 152:0.25275657 153:0.36005089 154:0.12425785 155:0.019932146 156:0.14334182 157:0.022052587 158:0.018235793 159:0.0012722646 160:0.00021204411 161:0.25 162:0.19380831 163:0.26272265 164:0.091391009 165:0.0082697201 166:0.10877863 167:0.022476675 168:0.055555556 169:0.0059372349 170:0.0010602205 171:0.011450382 172:0.063189143 173:0.39588634 174:0.22201018 175:0.093087362 176:0.13676845 177:0.035411366 178:0.039228159 179:0.0027565734 180:0.00021204411 181:0.32039864 182:0.14418999 183:0.21692112 184:0.24024597 185:0.070398643 186:0.0019083969 187:0.0010602205 188:0.00084817642 189:0.0029686175 190:0.0010602205 191:0.33354538 192:0.11132316 193:0.16836302 194:0.18087362 195:0.13083121 196:0.069126378 197:0.00063613232 198:0.0010602205 199:0.0014843087 200:0.0027565734 201:0.34075488 202:0.13464801 203:0.30491942 204:0.18787108 205:0.023960984 206:0.0021204411 207:0.00084817642 208:0.0016963528 209:0.0023324852 210:0.00084817642 211:0.32039864 212:0.14418999 213:0.21692112 214:0.24024597 215:0.070398643 216:0.0019083969 217:0.0010602205 218:0.00084817642 219:0.0029686175 220:0.0010602205 221:0.33354538 222:0.11132316 223:0.16836302 224:0.18087362 225:0.13083121 226:0.069126378 227:0.00063613232 228:0.0010602205 229:0.0014843087 230:0.0027565734 231:0.34075488 232:0.13464801 233:0.30491942 234:0.18787108 235:0.023960984 236:0.0021204411 237:0.00084817642 238:0.0016963528 239:0.0023324852 240:0.00084817642 241:0.11259542 242:0.29389313 243:0.08163698 244:0.094359627 245:0.10559796 246:0.10793045 247:0.062977099 248:0.083545377 249:0.048982188 250:0.0084817642 251:0.28710772 252:0.14800679 253:0.053647159 254:0.10199321 255:0.08418151 256:0.10029686 257:0.091815098 258:0.069126378 259:0.053435115 260:0.010390161 261:0.10156913 262:0.27989822 263:0.087574215 264:0.10665818 265:0.10877863 266:0.092027142 267:0.099872774 268:0.077820187 269:0.034139101 270:0.011662426 271:0.11259542 272:0.29389313 273:0.08163698 274:0.094359627 275:0.10559796 276:0.10793045 277:0.062977099 278:0.083545377 279:0.048982188 280:0.0084817642 281:0.28710772 282:0.14800679 283:0.053647159 284:0.10199321 285:0.08418151 286:0.10029686 287:0.091815098 288:0.069126378 289:0.053435115 290:0.010390161 291:0.10156913 292:0.27989822 293:0.087574215 294:0.10665818 295:0.10877863 296:0.092027142 297:0.099872774 298:0.077820187 299:0.034139101 300:0.011662426 301:0.2860475 302:0.21458863 303:0.10135708 304:0.074215437 305:0.039016115 306:0.043681086 307:0.051526718 308:0.12892282 309:0.053011026 310:0.0076335878 311:0.29707379 312:0.19529262 313:0.11089907 314:0.071882952 315:0.028837998 316:0.033927057 317:0.0485581 318:0.094995759 319:0.089694656 320:0.028837998 321:0.2519084 322:0.23536896 323:0.11089907 324:0.066369805 325:0.036047498 326:0.035199321 327:0.058736217 328:0.10559796 329:0.081000848 330:0.018871925 331:0.2860475 332:0.21458863 333:0.10135708 334:0.074215437 335:0.039016115 336:0.043681086 337:0.051526718 338:0.12892282 339:0.053011026 340:0.0076335878 341:0.29707379 342:0.19529262 343:0.11089907 344:0.071882952 345:0.028837998 346:0.033927057 347:0.0485581 348:0.094995759 349:0.089694656 350:0.028837998 351:0.2519084 352:0.23536896 353:0.11089907 354:0.066369805 355:0.036047498 356:0.035199321 357:0.058736217 358:0.10559796 359:0.081000848 360:0.018871925 
0.1660863853423959 1:0.013994911 2:0.02841391 3:0.35453774 4:0.16899915 5:0.078244275 6:0.094359627 7:0.078668363 8:0.10793045 9:0.056191688 10:0.018659881 11:0.017599661 12:0.21183206 13:0.21374046 14:0.1600933 15:0.079092451 16:0.090330789 17:0.078244275 18:0.060644614 19:0.06043257 20:0.027989822 21:0.0099660729 22:0.1024173 23:0.31022053 24:0.17090755 25:0.083969466 26:0.1187447 27:0.10687023 28:0.065945717 29:0.02480916 30:0.0061492791 31:0.013994911 32:0.02841391 33:0.35453774 34:0.16899915 35:0.078244275 36:0.094359627 37:0.078668363 38:0.10793045 39:0.056191688 40:0.018659881 41:0.017599661 42:0.21183206 43:0.21374046 44:0.1600933 45:0.079092451 46:0.090330789 47:0.078244275 48:0.060644614 49:0.06043257 50:0.027989822 51:0.0099660729 52:0.1024173 53:0.31022053 54:0.17090755 55:0.083969466 56:0.1187447 57:0.10687023 58:0.065945717 59:0.02480916 60:0.0061492791 61:0.0025445293 62:0.029898219 63:0.18469042 64:0.11747243 65:0.3163698 66:0.15161154 67:0.08163698 68:0.051314673 69:0.056191688 70:0.0082697201 71:0.0042408821 72:0.072094996 73:0.17514843 74:0.097328244 75:0.26865988 76:0.14800679 77:0.097752332 78:0.054071247 79:0.067217981 80:0.01547922 81:0.0025445293 82:0.0084817642 83:0.082485157 84:0.22540288 85:0.15373198 86:0.36111111 87:0.057463953 88:0.071458863 89:0.029262087 90:0.008057676 91:0.0025445293 92:0.029898219 93:0.18469042 94:0.11747243 95:0.3163698 96:0.15161154 97:0.08163698 98:0.051314673 99:0.056191688 100:0.0082697201 101:0.0042408821 102:0.072094996 103:0.17514843 104:0.097328244 105:0.26865988 106:0.14800679 107:0.097752332 108:0.054071247 109:0.067217981 110:0.01547922 111:0.0025445293 112:0.0084817642 113:0.082485157 114:0.22540288 115:0.15373198 116:0.36111111 117:0.057463953 118:0.071458863 119:0.029262087 120:0.008057676 121:0.31743003 122:0.19974555 123:0.17875318 124:0.11916879 125:0.015055131 126:0.099024597 127:0.036047498 128:0.019932146 129:0.013994911 130:0.00084817642 131:0.26357082 132:0.192324 133:0.15733673 134:0.19995759 135:0.010814249 136:0.083333333 137:0.044105174 138:0.031170483 139:0.012510602 140:0.0048770144 141:0.063401187 142:0.10368957 143:0.30301103 144:0.23388465 145:0.095419847 146:0.10114504 147:0.030110263 148:0.03562341 149:0.026505513 150:0.0072094996 151:0.31743003 152:0.19974555 153:0.17875318 154:0.11916879 155:0.015055131 156:0.099024597 157:0.036047498 158:0.019932146 159:0.013994911 160:0.00084817642 161:0.26357082 162:0.192324 163:0.15733673 164:0.19995759 165:0.010814249 166:0.083333333 167:0.044105174 168:0.031170483 169:0.012510602 170:0.0048770144 171:0.063401187 172:0.10368957 173:0.30301103 174:0.23388465 175:0.095419847 176:0.10114504 177:0.030110263 178:0.03562341 179:0.026505513 180:0.0072094996 181:0.32718405 182:0.13740458 183:0.22455471 184:0.22222222 185:0.078668363 186:0.0050890585 187:0.00063613232 188:0.00063613232 189:0.0014843087 190:0.0021204411 191:0.32654792 192:0.10517388 193:0.17027142 194:0.19147583 195:0.12892282 196:0.072094996 197:0.0012722646 198:0.00063613232 199:0.00042408821 200:0.0031806616 201:0.34160305 202:0.16051739 203:0.2860475 204:0.19062765 205:0.014418999 206:0.0023324852 207:0.00021204411 208:0.0012722646 209:0.0014843087 210:0.0014843087 211:0.32718405 212:0.13740458 213:0.22455471 214:0.22222222 215:0.078668363 216:0.0050890585 217:0.00063613232 218:0.00063613232 219:0.0014843087 220:0.0021204411 221:0.32654792 222:0.10517388 223:0.17027142 224:0.19147583 225:0.12892282 226:0.072094996 227:0.0012722646 228:0.00063613232 229:0.00042408821 230:0.0031806616 231:0.34160305 232:0.16051739 233:0.2860475 234:0.19062765 235:0.014418999 236:0.0023324852 237:0.00021204411 238:0.0012722646 239:0.0014843087 240:0.0014843087 241:0.10793045 242:0.29050042 243:0.080152672 244:0.094359627 245:0.13719254 246:0.10199321 247:0.081000848 248:0.055131467 249:0.03668363 250:0.015055131 251:0.27735369 252:0.14673452 253:0.062765055 254:0.10135708 255:0.099236641 256:0.10983885 257:0.065733673 258:0.07697201 259:0.051526718 260:0.0084817642 261:0.1942324 262:0.19020356 263:0.10326548 264:0.12001696 265:0.099872774 266:0.11429177 267:0.10453774 268:0.049194232 269:0.017387617 270:0.0069974555 271:0.10793045 272:0.29050042 273:0.080152672 274:0.094359627 275:0.13719254 276:0.10199321 277:0.081000848 278:0.055131467 279:0.03668363 280:0.015055131 281:0.27735369 282:0.14673452 283:0.062765055 284:0.10135708 285:0.099236641 286:0.10983885 287:0.065733673 288:0.07697201 289:0.051526718 290:0.0084817642 291:0.1942324 292:0.19020356 293:0.10326548 294:0.12001696 295:0.099872774 296:0.11429177 297:0.10453774 298:0.049194232 299:0.017387617 300:0.0069974555 301:0.29877014 302:0.19804919 303:0.10050891 304:0.076123834 305:0.032230704 306:0.031594572 307:0.048982188 308:0.091178965 309:0.10474979 310:0.017811705 311:0.31361323 312:0.17472434 313:0.11259542 314:0.072094996 315:0.030110263 316:0.032654792 317:0.043469042 318:0.090966921 319:0.094147583 320:0.03562341 321:0.24236641 322:0.19444444 323:0.13486005 324:0.087574215 325:0.039228159 326:0.021204411 327:0.06509754 328:0.10135708 329:0.095419847 330:0.018447837 331:0.29877014 332:0.19804919 333:0.10050891 334:0.076123834 335:0.032230704 336:0.031594572 337:0.048982188 338:0.091178965 339:0.10474979 340:0.017811705 341:0.31361323 342:0.17472434 343:0.11259542 344:0.072094996 345:0.030110263 346:0.032654792 347:0.043469042 348:0.090966921 349:0.094147583 350:0.03562341 351:0.24236641 352:0.19444444 353:0.13486005 354:0.087574215 355:0.039228159 356:0.021204411 357:0.06509754 358:0.10135708 359:0.095419847 360:0.018447837 
0.1959483852769215 1:0.014843087 2:0.040924512 3:0.22285835 4:0.26908397 5:0.089694656 6:0.12701442 7:0.097328244 8:0.06043257 9:0.068278202 10:0.0095419847 11:0.02735369 12:0.15860899 13:0.21967769 14:0.17239186 15:0.08163698 16:0.10008482 17:0.076335878 18:0.06043257 19:0.067217981 20:0.036259542 21:0.0078456319 22:0.13464801 23:0.24618321 24:0.16263783 25:0.081000848 26:0.11747243 27:0.10581001 28:0.071458863 29:0.059584394 30:0.013358779 31:0.014843087 32:0.040924512 33:0.22285835 34:0.26908397 35:0.089694656 36:0.12701442 37:0.097328244 38:0.06043257 39:0.068278202 40:0.0095419847 41:0.02735369 42:0.15860899 43:0.21967769 44:0.17239186 45:0.08163698 46:0.10008482 47:0.076335878 48:0.06043257 49:0.067217981 50:0.036259542 51:0.0078456319 52:0.13464801 53:0.24618321 54:0.16263783 55:0.081000848 56:0.11747243 57:0.10581001 58:0.071458863 59:0.059584394 60:0.013358779 61:0.0099660729 62:0.14906701 63:0.12425785 64:0.28519932 65:0.14228159 66:0.17578456 67:0.061916879 68:0.030746395 69:0.01547922 70:0.0053011026 71:0.0099660729 72:0.073579304 73:0.17726887 74:0.09351145 75:0.27290076 76:0.13040712 77:0.10644614 78:0.046437659 79:0.072094996 80:0.017387617 81:0.0021204411 82:0.058948261 83:0.19677693 84:0.15224767 85:0.25106022 86:0.18299406 87:0.050254453 88:0.063401187 89:0.02735369 90:0.014843087 91:0.0099660729 92:0.14906701 93:0.12425785 94:0.28519932 95:0.14228159 96:0.17578456 97:0.061916879 98:0.030746395 99:0.01547922 100:0.0053011026 101:0.0099660729 102:0.073579304 103:0.17726887 104:0.09351145 105:0.27290076 106:0.13040712 107:0.10644614 108:0.046437659 109:0.072094996 110:0.017387617 111:0.0021204411 112:0.058948261 113:0.19677693 114:0.15224767 115:0.25106022 116:0.18299406 117:0.050254453 118:0.063401187 119:0.02735369 120:0.014843087 121:0.028837998 122:0.085665818 123:0.24787956 124:0.18447837 125:0.15118745 126:0.12277354 127:0.092875318 128:0.029686175 129:0.035835454 130:0.020780322 131:0.063825276 132:0.21819338 133:0.2014419 134:0.1870229 135:0.11471586 136:0.094571671 137:0.016115352 138:0.029262087 139:0.048134012 140:0.026717557 141:0.030534351 142:0.050890585 143:0.10602205 144:0.22879559 145:0.19062765 146:0.14100933 147:0.086726039 148:0.026505513 149:0.10644614 150:0.032442748 151:0.028837998 152:0.085665818 153:0.24787956 154:0.18447837 155:0.15118745 156:0.12277354 157:0.092875318 158:0.029686175 159:0.035835454 160:0.020780322 161:0.063825276 162:0.21819338 163:0.2014419 164:0.1870229 165:0.11471586 166:0.094571671 167:0.016115352 168:0.029262087 169:0.048134012 170:0.026717557 171:0.030534351 172:0.050890585 173:0.10602205 174:0.22879559 175:0.19062765 176:0.14100933 177:0.086726039 178:0.026505513 179:0.10644614 180:0.032442748 181:0.2841391 182:0.11174724 183:0.058948261 184:0.1365564 185:0.10517388 186:0.10687023 187:0.13740458 188:0.046437659 189:0.01187447 190:0.00084817642 191:0.25614928 192:0.13189143 193:0.044105174 194:0.086301951 195:0.089270568 196:0.074851569 197:0.087574215 198:0.12913486 199:0.089270568 200:0.011450382 201:0.14482612 202:0.23049194 203:0.079516539 204:0.12362171 205:0.13189143 206:0.17005937 207:0.087998304 208:0.028625954 209:0.0023324852 210:0.00063613232 211:0.2841391 212:0.11174724 213:0.058948261 214:0.1365564 215:0.10517388 216:0.10687023 217:0.13740458 218:0.046437659 219:0.01187447 220:0.00084817642 221:0.25614928 222:0.13189143 223:0.044105174 224:0.086301951 225:0.089270568 226:0.074851569 227:0.087574215 228:0.12913486 229:0.089270568 230:0.011450382 231:0.14482612 232:0.23049194 233:0.079516539 234:0.12362171 235:0.13189143 236:0.17005937 237:0.087998304 238:0.028625954 239:0.0023324852 240:0.00063613232 241:0.093935539 242:0.30110263 243:0.10856658 244:0.11047498 245:0.10602205 246:0.11005089 247:0.056191688 248:0.061280746 249:0.037743851 250:0.014631043 251:0.18278202 252:0.2230704 253:0.099448685 254:0.1187447 255:0.075063613 256:0.073579304 257:0.1096268 258:0.057463953 259:0.039864292 260:0.020356234 261:0.022052587 262:0.34011874 263:0.11789652 264:0.069550466 265:0.12553011 266:0.096268024 267:0.10390161 268:0.082273113 269:0.030110263 270:0.012298558 271:0.093935539 272:0.30110263 273:0.10856658 274:0.11047498 275:0.10602205 276:0.11005089 277:0.056191688 278:0.061280746 279:0.037743851 280:0.014631043 281:0.18278202 282:0.2230704 283:0.099448685 284:0.1187447 285:0.075063613 286:0.073579304 287:0.1096268 288:0.057463953 289:0.039864292 290:0.020356234 291:0.022052587 292:0.34011874 293:0.11789652 294:0.069550466 295:0.12553011 296:0.096268024 297:0.10390161 298:0.082273113 299:0.030110263 300:0.012298558 301:0.3721374 302:0.23791349 303:0.070610687 304:0.049406277 305:0.031382528 306:0.029686175 307:0.043044953 308:0.091815098 309:0.047073791 310:0.026929601 311:0.38189143 312:0.18723494 313:0.11089907 314:0.057251908 315:0.024385072 316:0.023324852 317:0.037319763 318:0.079728584 319:0.064885496 320:0.03307888 321:0.30597964 322:0.1942324 323:0.12892282 324:0.086513995 325:0.032230704 326:0.023324852 327:0.050042409 328:0.058948261 329:0.10008482 330:0.019720102 331:0.3721374 332:0.23791349 333:0.070610687 334:0.049406277 335:0.031382528 336:0.029686175 337:0.043044953 338:0.091815098 339:0.047073791 340:0.026929601 341:0.38189143 342:0.18723494 343:0.11089907 344:0.057251908 345:0.024385072 346:0.023324852 347:0.037319763 348:0.079728584 349:0.064885496 350:0.03307888 351:0.30597964 352:0.1942324 353:0.12892282 354:0.086513995 355:0.032230704 356:0.023324852 357:0.050042409 358:0.058948261 359:0.10008482 360:0.019720102 
0.2270899880112832 1:0.023989899 2:0.03219697 3:0.28219697 4:0.20559764 5:0.121633 6:0.10143098 7:0.090909091 8:0.053240741 9:0.078072391 10:0.010732323 11:0.029671717 12:0.18392256 13:0.22348485 14:0.15172559 15:0.12542088 16:0.075757576 17:0.089646465 18:0.039772727 19:0.066919192 20:0.013678451 21:0.01010101 22:0.049873737 23:0.25147306 24:0.23127104 25:0.12436869 26:0.11005892 27:0.086279461 28:0.065656566 29:0.059132997 30:0.011784512 31:0.023989899 32:0.03219697 33:0.28219697 34:0.20559764 35:0.121633 36:0.10143098 37:0.090909091 38:0.053240741 39:0.078072391 40:0.010732323 41:0.029671717 42:0.18392256 43:0.22348485 44:0.15172559 45:0.12542088 46:0.075757576 47:0.089646465 48:0.039772727 49:0.066919192 50:0.013678451 51:0.01010101 52:0.049873737 53:0.25147306 54:0.23127104 55:0.12436869 56:0.11005892 57:0.086279461 58:0.065656566 59:0.059132997 60:0.011784512 61:0.038510101 62:0.17676768 63:0.26157407 64:0.20728114 65:0.13194444 66:0.065656566 67:0.041666667 68:0.044191919 69:0.025042088 70:0.0073653199 71:0.0044191919 72:0.12563131 73:0.23127104 74:0.2003367 75:0.18665825 76:0.128367 77:0.051136364 78:0.04503367 79:0.023569024 80:0.0035774411 81:0.02209596 82:0.18960438 83:0.14499158 84:0.24600168 85:0.20875421 86:0.066919192 87:0.054924242 88:0.035774411 89:0.02209596 90:0.0088383838 91:0.038510101 92:0.17676768 93:0.26157407 94:0.20728114 95:0.13194444 96:0.065656566 97:0.041666667 98:0.044191919 99:0.025042088 100:0.0073653199 101:0.0044191919 102:0.12563131 103:0.23127104 104:0.2003367 105:0.18665825 106:0.128367 107:0.051136364 108:0.04503367 109:0.023569024 110:0.0035774411 111:0.02209596 112:0.18960438 113:0.14499158 114:0.24600168 115:0.20875421 116:0.066919192 117:0.054924242 118:0.035774411 119:0.02209596 120:0.0088383838 121:0.121633 122:0.22895623 123:0.18771044 124:0.19823232 125:0.098484848 126:0.0092592593 127:0.057449495 128:0.052819865 129:0.035563973 130:0.0098905724 131:0.11574074 132:0.2209596 133:0.17087542 134:0.22685185 135:0.064604377 136:0.049452862 137:0.045664983 138:0.042929293 139:0.023569024 140:0.039351852 141:0.0058922559 142:0.033459596 143:0.14288721 144:0.22558923 145:0.1858165 146:0.18792088 147:0.090488215 148:0.035774411 149:0.036405724 150:0.055765993 151:0.121633 152:0.22895623 153:0.18771044 154:0.19823232 155:0.098484848 156:0.0092592593 157:0.057449495 158:0.052819865 159:0.035563973 160:0.0098905724 161:0.11574074 162:0.2209596 163:0.17087542 164:0.22685185 165:0.064604377 166:0.049452862 167:0.045664983 168:0.042929293 169:0.023569024 170:0.039351852 171:0.0058922559 172:0.033459596 173:0.14288721 174:0.22558923 175:0.1858165 176:0.18792088 177:0.090488215 178:0.035774411 179:0.036405724 180:0.055765993 181:0.099957912 182:0.27125421 183:0.045875421 184:0.074494949 185:0.078703704 186:0.12058081 187:0.13994108 188:0.1121633 189:0.053030303 190:0.0039983165 191:0.2422138 192:0.14351852 193:0.039983165 194:0.04040404 195:0.10290404 196:0.085016835 197:0.073442761 198:0.15572391 199:0.097643098 200:0.019149832 201:0.046296296 202:0.31460438 203:0.038720539 204:0.065025253 205:0.08733165 206:0.13341751 207:0.16603535 208:0.078493266 209:0.053872054 210:0.016203704 211:0.099957912 212:0.27125421 213:0.045875421 214:0.074494949 215:0.078703704 216:0.12058081 217:0.13994108 218:0.1121633 219:0.053030303 220:0.0039983165 221:0.2422138 222:0.14351852 223:0.039983165 224:0.04040404 225:0.10290404 226:0.085016835 227:0.073442761 228:0.15572391 229:0.097643098 230:0.019149832 231:0.046296296 232:0.31460438 233:0.038720539 234:0.065025253 235:0.08733165 236:0.13341751 237:0.16603535 238:0.078493266 239:0.053872054 240:0.016203704 241:0.14646465 242:0.2354798 243:0.14604377 244:0.11763468 245:0.1138468 246:0.10585017 247:0.060395623 248:0.044191919 249:0.023779461 250:0.0063131313 251:0.23947811 252:0.20159933 253:0.097011785 254:0.11468855 255:0.097222222 256:0.11700337 257:0.055765993 258:0.045244108 259:0.026304714 260:0.0056818182 261:0.15130471 262:0.23505892 263:0.1361532 264:0.12899832 265:0.08733165 266:0.092171717 267:0.079124579 268:0.064604377 269:0.019570707 270:0.0056818182 271:0.14646465 272:0.2354798 273:0.14604377 274:0.11763468 275:0.1138468 276:0.10585017 277:0.060395623 278:0.044191919 279:0.023779461 280:0.0063131313 281:0.23947811 282:0.20159933 283:0.097011785 284:0.11468855 285:0.097222222 286:0.11700337 287:0.055765993 288:0.045244108 289:0.026304714 290:0.0056818182 291:0.15130471 292:0.23505892 293:0.1361532 294:0.12899832 295:0.08733165 296:0.092171717 297:0.079124579 298:0.064604377 299:0.019570707 300:0.0056818182 301:0.36132155 302:0.22306397 303:0.092382155 304:0.067340067 305:0.025042088 306:0.025883838 307:0.043560606 308:0.070075758 309:0.076178451 310:0.015151515 311:0.42866162 312:0.15382997 313:0.09469697 314:0.066287879 315:0.020622896 316:0.018308081 317:0.026515152 318:0.03030303 319:0.088173401 320:0.07260101 321:0.18813131 322:0.3672138 323:0.10585017 324:0.055976431 325:0.034090909 326:0.02483165 327:0.03766835 328:0.098695286 329:0.081860269 330:0.0056818182 331:0.36132155 332:0.22306397 333:0.092382155 334:0.067340067 335:0.025042088 336:0.025883838 337:0.043560606 338:0.070075758 339:0.076178451 340:0.015151515 341:0.42866162 342:0.15382997 343:0.09469697 344:0.066287879 345:0.020622896 346:0.018308081 347:0.026515152 348:0.03030303 349:0.088173401 350:0.07260101 351:0.18813131 352:0.3672138 353:0.10585017 354:0.055976431 355:0.034090909 356:0.02483165 357:0.03766835 358:0.098695286 359:0.081860269 360:0.0056818182 
