svm_type c_svc
kernel_type linear
nr_class 2
total_sv 35
rho -1.28949
label -1 1
probA -4.99423
probB 0.0781285
nr_sv 11 24
SV
0.009264962836230916 1:0.00060679612 2:0.0015169903 3:0.026092233 4:0.28671117 5:0.2973301 6:0.28246359 7:0.063713592 8:0.037014563 9:0.0030339806 10:0.0015169903 11:0.00091019417 13:0.0091019417 14:0.24817961 15:0.47906553 16:0.11953883 17:0.10285194 18:0.024271845 19:0.013652913 20:0.0024271845 21:0.21632282 22:0.2339199 23:0.10618932 24:0.074332524 25:0.054915049 26:0.056735437 27:0.048543689 28:0.08434466 29:0.10679612 30:0.017900485 31:0.99271845 40:0.0072815534 41:0.0021237864 42:0.016990291 43:0.1101335 44:0.3598301 45:0.083434466 46:0.062196602 47:0.08434466 48:0.11984223 49:0.13956311 50:0.021541262 51:0.21632282 52:0.2339199 53:0.10618932 54:0.074332524 55:0.054915049 56:0.056735437 57:0.048543689 58:0.08434466 59:0.10679612 60:0.017900485 61:0.00091019417 62:0.0030339806 63:0.014866505 64:0.022451456 65:0.13743932 66:0.28307039 67:0.17870146 68:0.26304612 69:0.08586165 70:0.010618932 71:0.005461165 72:0.10285194 73:0.32038835 74:0.22572816 75:0.2651699 76:0.062196602 77:0.010618932 78:0.0057645631 79:0.0015169903 80:0.00030339806 81:0.065533981 82:0.086165049 83:0.20206311 84:0.16717233 85:0.13774272 86:0.18264563 87:0.073725728 88:0.044599515 89:0.029429612 90:0.01092233 91:0.012135922 93:0.093446602 95:0.33555825 97:0.39623786 99:0.14320388 100:0.019417476 101:0.010618932 102:0.046723301 103:0.10254854 104:0.14441748 105:0.15533981 106:0.18203883 107:0.19174757 108:0.12257282 109:0.040351942 110:0.0036407767 111:0.065533981 112:0.086165049 113:0.20206311 114:0.16717233 115:0.13774272 116:0.18264563 117:0.073725728 118:0.044599515 119:0.029429612 120:0.01092233 121:0.03125 128:0.049150485 129:0.69993932 130:0.21966019 131:0.03125 139:0.75303398 140:0.21571602 141:0.19842233 142:0.75091019 143:0.019417476 150:0.03125 151:0.032463592 152:0.050970874 154:0.29368932 156:0.47148058 157:0.13804612 159:0.011529126 160:0.0018203883 161:0.031856796 162:0.52700243 163:0.37621359 164:0.033677184 170:0.03125 171:0.19842233 172:0.75091019 173:0.019417476 180:0.03125 181:0.0097087379 183:0.0036407767 184:0.30400485 185:0.4848301 186:0.10254854 187:0.01092233 188:0.031856796 189:0.043082524 190:0.0094053398 191:0.0097087379 195:0.55491505 196:0.27336165 197:0.07342233 198:0.0084951456 199:0.045813107 200:0.034283981 201:0.22421117 202:0.14866505 203:0.088288835 204:0.046419903 205:0.067657767 206:0.14805825 207:0.1714199 208:0.014866505 209:0.028519417 210:0.061893204 211:0.023665049 213:0.20145631 215:0.42657767 217:0.2815534 219:0.052791262 220:0.013956311 221:0.10527913 222:0.18355583 223:0.18234223 224:0.10497573 225:0.29459951 226:0.11104369 227:0.0084951456 230:0.0097087379 231:0.22421117 232:0.14866505 233:0.088288835 234:0.046419903 235:0.067657767 236:0.14805825 237:0.1714199 238:0.014866505 239:0.028519417 240:0.061893204 241:0.0097087379 246:0.038531553 247:0.52487864 248:0.30916262 249:0.088288835 250:0.029429612 251:0.0097087379 257:0.37408981 258:0.33586165 259:0.18658981 260:0.09375 261:0.14866505 262:0.24120146 263:0.093446602 264:0.11286408 265:0.098300971 266:0.19235437 267:0.10345874 270:0.0097087379 271:0.023058252 273:0.20024272 275:0.53033981 277:0.23179612 279:0.012135922 280:0.0024271845 281:0.026092233 282:0.21328883 283:0.12985437 284:0.08131068 285:0.39168689 286:0.14775485 287:0.00030339806 290:0.0097087379 291:0.14866505 292:0.24120146 293:0.093446602 294:0.11286408 295:0.098300971 296:0.19235437 297:0.10345874 300:0.0097087379 301:0.04065534 306:0.048847087 307:0.69023058 308:0.13683252 309:0.069478155 310:0.013956311 311:0.04065534 317:0.55855583 318:0.27123786 319:0.10800971 320:0.021541262 321:0.43507282 322:0.18841019 323:0.10042476 324:0.059162621 325:0.048240291 326:0.1086165 327:0.019417476 330:0.04065534 331:0.99757282 340:0.0024271845 341:0.24271845 342:0.30552184 343:0.093446602 344:0.17354369 345:0.14259709 346:0.0015169903 350:0.04065534 351:0.43507282 352:0.18841019 353:0.10042476 354:0.059162621 355:0.048240291 356:0.1086165 357:0.019417476 360:0.04065534 
0.1225354756500971 1:0.062202381 2:0.31220238 3:0.21815476 4:0.082142857 5:0.0875 6:0.080357143 7:0.084821429 8:0.044642857 9:0.023809524 10:0.0041666667 11:0.028869048 12:0.28839286 13:0.1797619 14:0.15059524 15:0.10297619 16:0.12291667 17:0.064583333 18:0.038690476 19:0.017857143 20:0.0053571429 21:0.0032738095 22:0.0032738095 23:0.030357143 24:0.033630952 25:0.36755952 26:0.34732143 27:0.15863095 28:0.04047619 29:0.013690476 30:0.0017857143 31:0.036904762 32:0.064285714 33:0.19553571 34:0.0005952381 36:0.37142857 37:0.077380952 38:0.07202381 39:0.17113095 40:0.010714286 41:0.31279762 42:0.22559524 43:0.073214286 44:0.13452381 45:0.062797619 46:0.053869048 47:0.094642857 48:0.024404762 49:0.014880952 50:0.0032738095 51:0.028869048 52:0.28839286 53:0.23630952 54:0.11636905 55:0.091071429 56:0.081547619 57:0.084821429 58:0.044642857 59:0.023809524 60:0.0041666667 61:0.021428571 62:0.079761905 64:0.33809524 65:0.27321429 66:0.11755952 67:0.15595238 68:0.005952381 69:0.0053571429 70:0.0026785714 71:0.041666667 73:0.17738095 74:0.22767857 75:0.22529762 76:0.097321429 77:0.21011905 78:0.013095238 79:0.0026785714 80:0.0047619048 81:0.0020833333 82:0.045535714 83:0.056845238 84:0.37172619 85:0.45357143 86:0.055059524 87:0.0092261905 88:0.0053571429 90:0.0005952381 91:0.086309524 92:0.25297619 93:0.38511905 96:0.25952381 98:0.0089285714 99:0.0011904762 100:0.005952381 101:0.11071429 102:0.23095238 103:0.36964286 104:0.011309524 105:0.1264881 106:0.13690476 107:0.011607143 108:0.0005952381 109:0.0005952381 110:0.0011904762 111:0.041666667 113:0.17738095 114:0.22172619 115:0.22261905 116:0.10178571 117:0.21309524 118:0.013392857 119:0.0035714286 120:0.0047619048 121:0.03125 129:0.3875 130:0.58125 131:0.03125 139:0.21934524 140:0.74940476 141:0.96875 150:0.03125 151:0.03125 160:0.96875 161:0.74672619 162:0.22202381 170:0.03125 171:0.96875 180:0.03125 181:0.0095238095 185:0.46309524 186:0.11547619 187:0.027380952 188:0.17380952 189:0.17113095 190:0.039583333 191:0.0095238095 195:0.47738095 196:0.092559524 197:0.039880952 198:0.13065476 199:0.21458333 200:0.035416667 201:0.99047619 210:0.0095238095 211:0.0095238095 219:0.067857143 220:0.92261905 221:0.26488095 222:0.25625 223:0.058035714 224:0.061904762 225:0.17410714 226:0.15952381 227:0.01577381 230:0.0095238095 231:0.55863095 232:0.077678571 233:0.33422619 234:0.019940476 240:0.0095238095 241:0.0095238095 245:0.3702381 246:0.29672619 247:0.19107143 248:0.066369048 249:0.034821429 250:0.03125 251:0.0095238095 255:0.17232143 256:0.42619048 257:0.14642857 258:0.14642857 259:0.053571429 260:0.045535714 261:0.99047619 270:0.0095238095 271:0.0095238095 279:0.014583333 280:0.97589286 281:0.36190476 282:0.27232143 283:0.17916667 284:0.11875 285:0.049107143 286:0.0089285714 287:0.00029761905 290:0.0095238095 291:0.71875 292:0.21875 293:0.05297619 300:0.0095238095 301:0.04047619 306:0.038095238 307:0.43363095 308:0.23928571 309:0.18095238 310:0.067559524 311:0.04047619 317:0.44821429 318:0.2360119 319:0.17589286 320:0.099404762 321:0.95952381 330:0.04047619 331:0.04047619 339:0.2827381 340:0.67678571 341:0.57440476 342:0.23809524 343:0.14702381 350:0.04047619 351:0.8952381 352:0.064285714 360:0.04047619 
0.3623215886575736 1:0.17638221 2:0.12169471 3:0.21875 4:0.13341346 5:0.069411058 6:0.056189904 7:0.13701923 8:0.027944712 9:0.029447115 10:0.029747596 11:0.1484375 12:0.10096154 13:0.21814904 14:0.12169471 15:0.10637019 16:0.11328125 17:0.07421875 18:0.071514423 19:0.026742788 20:0.018629808 21:0.0015024038 22:0.0012019231 23:0.0060096154 24:0.15594952 25:0.17307692 26:0.24489183 27:0.28485577 28:0.039362981 29:0.077223558 30:0.015925481 31:0.0024038462 32:0.0072115385 33:0.13581731 34:0.039663462 35:0.10997596 37:0.41947115 38:0.11899038 39:0.051682692 40:0.11478365 41:0.072716346 42:0.49909856 43:0.13611779 44:0.11478365 45:0.053786058 46:0.05859375 47:0.049579327 48:0.0096153846 49:0.0036057692 50:0.0021033654 51:0.24759615 52:0.16045673 53:0.11658654 54:0.096153846 55:0.090745192 56:0.11778846 57:0.082632212 58:0.028846154 59:0.029447115 60:0.029747596 61:0.11328125 62:0.11598558 63:0.00060096154 64:0.07421875 65:0.0024038462 66:0.35877404 67:0.20372596 68:0.094951923 69:0.025540865 70:0.010516827 71:0.11388221 72:0.12620192 74:0.097956731 75:0.11418269 76:0.35637019 77:0.087740385 78:0.080528846 79:0.017127404 80:0.0060096154 81:0.0027043269 82:0.11117788 83:0.12860577 84:0.085637019 86:0.38040865 87:0.23497596 88:0.042067308 89:0.012019231 90:0.0024038462 91:0.30528846 92:0.13942308 93:0.38822115 96:0.16346154 98:0.0012019231 100:0.0024038462 101:0.11628606 102:0.11237981 103:0.14933894 104:0.44711538 105:0.019831731 106:0.0021033654 107:0.073918269 108:0.065805288 109:0.0063100962 110:0.0069110577 111:0.11388221 112:0.12620192 114:0.097956731 115:0.11418269 116:0.35336538 117:0.090745192 118:0.080528846 119:0.017127404 120:0.0060096154 121:0.03125 128:0.053786058 129:0.29206731 130:0.62289663 131:0.03125 139:0.23076923 140:0.73798077 141:0.96875 150:0.03125 151:0.03125 159:0.056189904 160:0.9125601 161:0.87830529 162:0.090444712 170:0.03125 171:0.96875 180:0.03125 181:0.0096153846 185:0.48317308 186:0.099459135 187:0.037860577 188:0.097355769 189:0.20282452 190:0.069711538 191:0.0096153846 195:0.4765625 196:0.089242788 197:0.044771635 198:0.05078125 199:0.2484976 200:0.080528846 201:0.99038462 210:0.0096153846 211:0.0096153846 219:0.13341346 220:0.85697115 221:0.32542067 222:0.19080529 223:0.072716346 224:0.069711538 225:0.17638221 226:0.15354567 227:0.0018028846 230:0.0096153846 231:0.56580529 232:0.084134615 233:0.3374399 234:0.0030048077 240:0.0096153846 241:0.0096153846 245:0.13221154 246:0.4780649 247:0.15685096 248:0.12169471 249:0.061598558 250:0.039963942 251:0.0096153846 255:0.26592548 256:0.37830529 257:0.17247596 258:0.087139423 259:0.064603365 260:0.021935096 261:0.99038462 270:0.0096153846 271:0.0096153846 279:0.0012019231 280:0.98918269 281:0.46183894 282:0.23978365 283:0.12920673 284:0.109375 285:0.048677885 286:0.0015024038 290:0.0096153846 291:0.74429087 292:0.19471154 293:0.051382212 300:0.0096153846 301:0.040564904 306:0.15805288 307:0.41346154 308:0.18419471 309:0.14783654 310:0.055889423 311:0.040564904 317:0.4858774 318:0.23106971 319:0.17127404 320:0.071213942 321:0.9594351 330:0.040564904 331:0.040564904 339:0.013221154 340:0.94621394 341:0.61899038 342:0.20673077 343:0.1328125 344:0.00090144231 350:0.040564904 351:0.90534856 352:0.054086538 360:0.040564904 
0.3228372282869729 1:0.19801402 2:0.22809579 3:0.044100467 4:0.17961449 5:0.1396028 6:0.043224299 7:0.081191589 8:0.039719626 9:0.03796729 10:0.0084696262 11:0.28417056 12:0.16705607 13:0.12675234 14:0.11974299 15:0.10776869 16:0.069801402 17:0.044976636 18:0.042348131 19:0.025992991 20:0.011390187 21:0.10309579 22:0.22751168 23:0.25525701 24:0.15771028 25:0.049357477 26:0.14865654 27:0.029497664 28:0.023948598 29:0.003796729 30:0.0011682243 31:0.19246495 33:0.028329439 34:0.0087616822 35:0.45093458 36:0.12383178 37:0.068341121 38:0.039719626 39:0.073598131 40:0.014018692 41:0.35017523 42:0.12879673 43:0.14106308 44:0.1515771 45:0.050525701 46:0.051109813 47:0.054614486 48:0.035630841 49:0.029497664 50:0.0070093458 51:0.28417056 52:0.16004673 53:0.066004673 54:0.20239486 55:0.093457944 56:0.038259346 57:0.077686916 58:0.043808411 59:0.025408879 60:0.0087616822 61:0.04760514 62:0.12353972 63:0.32389019 64:0.25846963 65:0.086156542 66:0.025116822 67:0.060455607 68:0.040303738 69:0.029205607 70:0.0052570093 71:0.094042056 72:0.2473715 73:0.27540888 74:0.1588785 75:0.099007009 76:0.042932243 77:0.047897196 78:0.021028037 79:0.011098131 80:0.0023364486 81:0.00087616822 82:0.004088785 83:0.0090537383 84:0.23656542 85:0.35893692 86:0.22751168 87:0.12149533 88:0.030957944 89:0.0067172897 90:0.003796729 91:0.0093457944 92:0.12704439 93:0.13084112 94:0.2526285 96:0.24649533 97:0.082943925 98:0.051401869 99:0.077102804 100:0.022196262 101:0.0070093458 102:0.082651869 103:0.26051402 104:0.26810748 105:0.13376168 106:0.1442757 107:0.051109813 108:0.028329439 109:0.020151869 110:0.004088785 111:0.094042056 112:0.21466121 113:0.27424065 114:0.14807243 115:0.11565421 116:0.056950935 117:0.02161215 118:0.040303738 119:0.029205607 120:0.0052570093 121:0.03125 128:0.14982477 129:0.44801402 130:0.37091121 131:0.03125 138:0.060747664 139:0.67494159 140:0.23306075 141:0.96875 150:0.03125 151:0.03125 160:0.96875 161:0.82096963 162:0.14778037 170:0.03125 171:0.96875 180:0.03125 181:0.0093457944 184:0.26080607 185:0.25321262 186:0.048189252 187:0.091997664 188:0.12733645 189:0.19772196 190:0.011390187 191:0.0093457944 194:0.17961449 195:0.3291472 196:0.038259346 197:0.040303738 198:0.16442757 199:0.18399533 200:0.054906542 201:0.99065421 210:0.0093457944 211:0.0093457944 220:0.99065421 221:0.45035047 222:0.065420561 223:0.036214953 224:0.066004673 225:0.14398364 226:0.17844626 227:0.050233645 230:0.0093457944 231:0.51781542 232:0.058411215 233:0.25204439 234:0.16238318 240:0.0093457944 241:0.0093457944 245:0.28767523 246:0.33936916 247:0.055198598 248:0.050525701 249:0.17990654 250:0.077978972 251:0.0093457944 255:0.35543224 256:0.25934579 257:0.066588785 258:0.056074766 259:0.19450935 260:0.058703271 261:0.99065421 270:0.0093457944 271:0.0093457944 279:0.3151285 280:0.6755257 281:0.46904206 282:0.11273364 283:0.10484813 284:0.08557243 285:0.18545561 286:0.033002336 290:0.0093457944 291:0.64661215 292:0.11507009 293:0.22897196 300:0.0093457944 301:0.040303738 305:0.0023364486 306:0.51606308 307:0.22838785 308:0.15274533 309:0.035630841 310:0.02453271 311:0.040303738 315:0.058411215 316:0.49620327 317:0.18165888 318:0.14778037 319:0.060163551 320:0.015478972 321:0.95969626 330:0.040303738 331:0.040303738 340:0.95969626 341:0.45239486 342:0.28504673 343:0.1416472 344:0.080607477 350:0.040303738 351:0.80549065 352:0.15274533 353:0.0014602804 360:0.040303738 
0.02208172809738109 1:0.23574029 2:0.21237864 3:0.097087379 4:0.2029733 5:0.084041262 6:0.077063107 7:0.054915049 8:0.024878641 9:0.0057645631 10:0.005157767 11:0.3434466 12:0.09526699 13:0.25333738 14:0.12196602 15:0.047936893 16:0.041565534 17:0.039441748 18:0.044296117 19:0.0060679612 20:0.0066747573 21:0.0018203883 22:0.026699029 23:0.18962379 24:0.27973301 25:0.19690534 26:0.064320388 27:0.18841019 28:0.03276699 29:0.016080097 30:0.0036407767 31:0.0012135922 32:0.14805825 33:0.078276699 34:0.019417476 35:0.31492718 36:0.11893204 37:0.22208738 38:0.075242718 39:0.013349515 40:0.0084951456 41:0.020631068 42:0.17961165 43:0.27123786 44:0.14927184 45:0.21237864 46:0.078276699 47:0.046419903 48:0.030643204 49:0.0078883495 50:0.0036407767 51:0.33737864 52:0.10740291 53:0.16383495 54:0.13834951 55:0.10376214 56:0.057645631 57:0.052487864 58:0.027609223 59:0.0063713592 60:0.005157767 61:0.0091019417 62:0.33768204 63:0.16656553 64:0.13683252 65:0.095570388 66:0.063713592 67:0.10194175 68:0.041565534 69:0.035194175 70:0.011832524 71:0.0091019417 72:0.11650485 73:0.33282767 74:0.25303398 75:0.068871359 76:0.093143204 77:0.084648058 78:0.024575243 79:0.011529126 80:0.0057645631 81:0.0033373786 82:0.027609223 83:0.032160194 84:0.13379854 85:0.33950243 86:0.28853155 87:0.097390777 88:0.04065534 89:0.023968447 90:0.013046117 91:0.093446602 92:0.33252427 93:0.0048543689 95:0.22451456 96:0.11771845 98:0.13592233 99:0.064320388 100:0.026699029 101:0.1092233 102:0.10133495 103:0.25728155 104:0.13197816 105:0.14290049 106:0.093446602 107:0.069478155 108:0.066140777 109:0.013349515 110:0.014866505 111:0.0091019417 112:0.11225728 113:0.31826456 114:0.20813107 115:0.097997573 116:0.063713592 117:0.10194175 118:0.041565534 119:0.035194175 120:0.011832524 121:0.03125 128:0.19235437 129:0.64502427 130:0.13137136 131:0.03125 138:0.10406553 139:0.70752427 140:0.15716019 141:0.96875 150:0.03125 151:0.03125 159:0.21996359 160:0.74878641 161:0.6407767 162:0.3279733 170:0.03125 171:0.96875 180:0.03125 181:0.0097087379 184:0.42688107 185:0.087985437 186:0.043992718 187:0.11953883 188:0.24817961 189:0.045206311 190:0.018507282 191:0.0097087379 194:0.39290049 195:0.11377427 196:0.033677184 197:0.064623786 198:0.27457524 199:0.08434466 200:0.026395631 201:0.98877427 202:0.0015169903 210:0.0097087379 211:0.0097087379 220:0.99029126 221:0.2023665 222:0.28246359 223:0.038834951 224:0.027002427 225:0.036407767 226:0.24787621 227:0.14927184 228:0.0060679612 230:0.0097087379 231:0.50303398 232:0.046723301 233:0.21541262 234:0.20661408 235:0.018507282 240:0.0097087379 241:0.0097087379 244:0.0063713592 245:0.39441748 246:0.15746359 247:0.040048544 248:0.15200243 249:0.16626214 250:0.073725728 251:0.0097087379 255:0.40321602 256:0.13925971 257:0.038531553 258:0.125 259:0.19690534 260:0.087378641 261:0.99029126 270:0.0097087379 271:0.0097087379 279:0.0012135922 280:0.98907767 281:0.28246359 282:0.18992718 283:0.076759709 284:0.067050971 285:0.23604369 286:0.11438107 287:0.023665049 290:0.0097087379 291:0.53398058 292:0.081614078 293:0.33282767 294:0.041868932 300:0.0097087379 301:0.04065534 305:0.17415049 306:0.36923544 307:0.2193568 308:0.046419903 309:0.10406553 310:0.046116505 311:0.04065534 315:0.16899272 316:0.39441748 317:0.19296117 318:0.059162621 319:0.10254854 320:0.041262136 321:0.95934466 330:0.04065534 331:0.04065534 339:0.044902913 340:0.91444175 341:0.26061893 342:0.38046117 343:0.11195388 344:0.10527913 345:0.095570388 346:0.005461165 350:0.04065534 351:0.73300971 352:0.16413835 353:0.062196602 360:0.04065534 
0.1566832715403111 1:0.28960396 2:0.16893564 3:0.12035891 4:0.20544554 5:0.08384901 6:0.057240099 7:0.035581683 8:0.021039604 9:0.010829208 10:0.0071163366 11:0.11386139 12:0.28558168 13:0.1720297 14:0.21751238 15:0.073329208 16:0.051670792 17:0.04115099 18:0.033725248 19:0.0043316832 20:0.0068069307 21:0.0092821782 22:0.13706683 23:0.064665842 24:0.55259901 25:0.055693069 26:0.10210396 27:0.060643564 28:0.012066832 29:0.0034034653 30:0.0024752475 31:0.032178218 32:0.025371287 33:0.017945545 34:0.4164604 35:0.047957921 36:0.37035891 37:0.065594059 38:0.011757426 39:0.004950495 40:0.0074257426 41:0.021039604 42:0.26454208 43:0.13490099 44:0.07240099 45:0.30105198 46:0.051361386 47:0.077351485 48:0.038985149 49:0.029393564 50:0.0089727723 51:0.28960396 52:0.14665842 53:0.14263614 54:0.20482673 55:0.084467822 56:0.052908416 57:0.039913366 58:0.021039604 59:0.010829208 60:0.0071163366 61:0.048576733 62:0.31868812 63:0.096844059 64:0.14016089 65:0.10891089 66:0.11695545 67:0.10303218 68:0.028155941 69:0.014851485 70:0.023824257 71:0.014232673 72:0.20049505 73:0.26237624 74:0.18100248 75:0.089727723 76:0.090965347 77:0.12716584 78:0.02970297 79:0.0015470297 80:0.0027846535 81:0.02134901 82:0.014232673 83:0.083539604 84:0.1924505 85:0.42048267 86:0.11850248 87:0.080136139 88:0.044554455 89:0.015470297 90:0.0092821782 91:0.13861386 93:0.1355198 94:0.037747525 95:0.40284653 96:0.12685644 97:0.023514851 98:0.10024752 99:0.012376238 100:0.022277228 101:0.18378713 102:0.19647277 103:0.14139851 104:0.11540842 105:0.10983911 106:0.081683168 107:0.064356436 108:0.067759901 109:0.034962871 110:0.0043316832 111:0.011757426 112:0.19399752 113:0.23824257 114:0.15965347 115:0.10643564 116:0.10705446 117:0.11355198 118:0.030631188 119:0.014851485 120:0.023824257 121:0.03125 128:0.12809406 129:0.70699257 130:0.13366337 131:0.03125 138:0.096225248 139:0.65841584 140:0.21410891 141:0.96875 150:0.03125 151:0.03125 159:0.77784653 160:0.19090347 161:0.24350248 162:0.65315594 163:0.072091584 170:0.03125 171:0.96875 180:0.03125 181:0.0099009901 184:0.38428218 185:0.14542079 186:0.038675743 187:0.050123762 188:0.32240099 189:0.031559406 190:0.017636139 191:0.0099009901 194:0.38335396 195:0.15563119 196:0.030321782 197:0.051670792 198:0.31373762 199:0.042079208 200:0.013304455 201:0.98731436 202:0.0027846535 210:0.0099009901 211:0.0099009901 220:0.99009901 221:0.065594059 222:0.34158416 223:0.12530941 224:0.037438119 225:0.033415842 226:0.20204208 227:0.17110149 228:0.013613861 230:0.0099009901 231:0.52475248 232:0.055693069 233:0.26268564 234:0.13428218 235:0.012685644 240:0.0099009901 241:0.0099009901 245:0.46967822 246:0.1147896 247:0.031868812 248:0.2082302 249:0.1095297 250:0.056002475 251:0.0099009901 255:0.46565594 256:0.10334158 257:0.04269802 258:0.17295792 259:0.13768564 260:0.067759901 261:0.99009901 270:0.0099009901 271:0.0099009901 280:0.99009901 281:0.31404703 282:0.18440594 283:0.068997525 284:0.078589109 285:0.18780941 286:0.12407178 287:0.032178218 290:0.0099009901 291:0.55878713 292:0.097153465 293:0.29053218 294:0.043626238 300:0.0099009901 301:0.040841584 305:0.07240099 306:0.3960396 307:0.26887376 308:0.036819307 309:0.085086634 310:0.099938119 311:0.040841584 315:0.07240099 316:0.42914604 317:0.23545792 318:0.038675743 319:0.079826733 320:0.10365099 321:0.95915842 330:0.040841584 331:0.040841584 340:0.95915842 341:0.43595297 342:0.20792079 343:0.10643564 344:0.09529703 345:0.098391089 346:0.015160891 350:0.040841584 351:0.72060644 352:0.13459158 353:0.1039604 360:0.040841584 
0.01552802861221905 1:0.24381188 2:0.35334158 3:0.16336634 4:0.12654703 5:0.08075495 6:0.027537129 7:0.0021658416 8:0.00092821782 9:0.00061881188 10:0.00092821782 11:0.23576733 12:0.42450495 13:0.19616337 14:0.10303218 15:0.025680693 16:0.012066832 17:0.00092821782 18:0.00061881188 19:0.00061881188 20:0.00061881188 21:0.11912129 22:0.50309406 23:0.20915842 24:0.11169554 25:0.041769802 26:0.012066832 27:0.0012376238 28:0.00061881188 29:0.00030940594 30:0.00092821782 31:0.016089109 32:0.0061881188 37:0.010519802 38:0.82147277 39:0.12128713 40:0.024443069 41:0.03125 42:0.070235149 43:0.14263614 44:0.086633663 45:0.089727723 46:0.11386139 47:0.19863861 48:0.1352104 49:0.093131188 50:0.038675743 51:0.2914604 52:0.34065594 53:0.15068069 54:0.11912129 55:0.073329208 56:0.020730198 57:0.0018564356 58:0.00061881188 59:0.00061881188 60:0.00092821782 61:0.10272277 62:0.1299505 63:0.10860149 64:0.11602723 65:0.14511139 66:0.1924505 67:0.11695545 68:0.062809406 69:0.020420792 70:0.004950495 71:0.11695545 72:0.16986386 73:0.12902228 74:0.15532178 75:0.19987624 76:0.12345297 77:0.061881188 78:0.023514851 79:0.016707921 80:0.0034034653 81:0.0015470297 82:0.091893564 83:0.23174505 84:0.15470297 85:0.19616337 86:0.21163366 87:0.063428218 88:0.029393564 89:0.014851485 90:0.0046410891 91:0.026608911 92:0.0012376238 97:0.17450495 98:0.61076733 99:0.098391089 100:0.088490099 101:0.030940594 102:0.034653465 103:0.11881188 104:0.11664604 105:0.11912129 106:0.1457302 107:0.12283416 108:0.1302599 109:0.14511139 110:0.035891089 111:0.15470297 112:0.12407178 113:0.10829208 114:0.10643564 115:0.16274752 116:0.16491337 117:0.11324257 118:0.042388614 119:0.019183168 120:0.0040222772 121:0.03125 127:0.16800743 128:0.47122525 129:0.28589109 130:0.043626238 131:0.03125 137:0.14913366 138:0.5105198 139:0.29053218 140:0.018564356 141:0.096844059 142:0.48050743 143:0.32735149 144:0.059096535 145:0.004950495 150:0.03125 151:0.03125 158:0.055693069 159:0.88830446 160:0.024752475 161:0.81992574 162:0.14882426 170:0.03125 171:0.13180693 172:0.31435644 173:0.33477723 174:0.14418317 175:0.04269802 176:0.00092821782 180:0.03125 181:0.0099009901 185:0.0086633663 186:0.15686881 187:0.14263614 188:0.24597772 189:0.3230198 190:0.11293317 191:0.0099009901 196:0.16893564 197:0.20482673 198:0.19399752 199:0.3125 200:0.10983911 201:0.11912129 202:0.10891089 203:0.16893564 204:0.11881188 205:0.17976485 206:0.18595297 207:0.093440594 208:0.015160891 210:0.0099009901 211:0.034653465 212:0.0024752475 217:0.16584158 218:0.71225248 219:0.043935644 220:0.040841584 221:0.90315594 222:0.086943069 230:0.0099009901 231:0.075804455 232:0.10024752 233:0.090965347 234:0.12716584 235:0.14511139 236:0.22648515 237:0.14294554 238:0.073329208 239:0.0080445545 240:0.0099009901 241:0.0099009901 245:0.015779703 246:0.21658416 247:0.19337871 248:0.1875 249:0.2914604 250:0.08539604 251:0.0099009901 255:0.00030940594 256:0.27939356 257:0.17821782 258:0.22215347 259:0.25216584 260:0.057858911 261:0.24164604 262:0.16027228 263:0.091584158 264:0.14356436 265:0.15037129 266:0.14665842 267:0.05105198 268:0.004950495 270:0.0099009901 271:0.024752475 272:0.0012376238 277:0.55693069 278:0.38242574 279:0.021039604 280:0.013613861 281:0.73205446 282:0.25804455 290:0.0099009901 291:0.14139851 292:0.12654703 293:0.12933168 294:0.078898515 295:0.11231436 296:0.16738861 297:0.16862624 298:0.061571782 299:0.0040222772 300:0.0099009901 301:0.040841584 306:0.005259901 307:0.20111386 308:0.38923267 309:0.20358911 310:0.15996287 311:0.040841584 316:0.013304455 317:0.42141089 318:0.20389851 319:0.21751238 320:0.10303218 321:0.086943069 322:0.4424505 323:0.11076733 324:0.11014851 325:0.19306931 326:0.015779703 330:0.040841584 331:0.040841584 338:0.014851485 339:0.89232673 340:0.051980198 341:0.77382426 342:0.18533416 350:0.040841584 351:0.048886139 352:0.17574257 353:0.29053218 354:0.12407178 355:0.12252475 356:0.1825495 357:0.014851485 360:0.040841584 
0.01483516638339848 1:0.14093137 2:0.29993873 3:0.24050245 4:0.12745098 5:0.10171569 6:0.068933824 7:0.017156863 8:0.0024509804 9:0.0006127451 10:0.00030637255 11:0.15655637 12:0.40563725 13:0.21231618 14:0.12408088 15:0.067401961 16:0.025428922 17:0.006127451 18:0.0018382353 19:0.00030637255 20:0.00030637255 21:0.012867647 22:0.51746324 23:0.24080882 24:0.11887255 25:0.077818627 26:0.024509804 27:0.0058210784 28:0.0012254902 29:0.00030637255 30:0.00030637255 31:0.022058824 32:0.006127451 37:0.020833333 38:0.78921569 39:0.083333333 40:0.078431373 41:0.039215686 42:0.073529412 43:0.1473652 44:0.12530637 45:0.14123775 46:0.18382353 47:0.11642157 48:0.1216299 49:0.041360294 50:0.010110294 51:0.12469363 52:0.31617647 53:0.24050245 54:0.12745098 55:0.10171569 56:0.068933824 57:0.017156863 58:0.0024509804 59:0.0006127451 60:0.00030637255 61:0.10416667 62:0.11488971 63:0.11366422 64:0.14368873 65:0.16666667 66:0.18014706 67:0.11151961 68:0.048713235 69:0.013786765 70:0.0027573529 71:0.16207108 72:0.14644608 73:0.12959559 74:0.1752451 75:0.18933824 76:0.10906863 77:0.050551471 78:0.024816176 79:0.010110294 80:0.0027573529 81:0.01685049 82:0.18627451 83:0.18137255 84:0.17340686 85:0.234375 86:0.13235294 87:0.041666667 88:0.020526961 89:0.010723039 90:0.0024509804 91:0.026960784 92:0.0024509804 97:0.19607843 98:0.60294118 99:0.083333333 100:0.088235294 101:0.031862745 102:0.03370098 103:0.10998775 104:0.1182598 105:0.1685049 106:0.10723039 107:0.13694853 108:0.15502451 109:0.10294118 110:0.035539216 111:0.14644608 112:0.12101716 113:0.12745098 114:0.11580882 115:0.17432598 116:0.1651348 117:0.091605392 118:0.043504902 119:0.012254902 120:0.0024509804 121:0.03125 127:0.15533088 128:0.47334559 129:0.29840686 130:0.041666667 131:0.03125 137:0.12622549 138:0.51102941 139:0.30698529 140:0.024509804 141:0.11366422 142:0.48468137 143:0.30882353 144:0.056985294 145:0.0045955882 150:0.03125 151:0.03125 158:0.083946078 159:0.86642157 160:0.018382353 161:0.83425245 162:0.13449755 170:0.03125 171:0.13082108 172:0.33792892 173:0.33425245 174:0.1317402 175:0.032781863 176:0.0012254902 180:0.03125 181:0.0098039216 185:0.010416667 186:0.13419118 187:0.13143382 188:0.25061275 189:0.32107843 190:0.14246324 191:0.0098039216 196:0.15042892 197:0.1908701 198:0.20710784 199:0.31219363 200:0.12959559 201:0.14368873 202:0.10661765 203:0.16207108 204:0.11580882 205:0.19332108 206:0.17064951 207:0.086397059 208:0.011642157 210:0.0098039216 211:0.038602941 212:0.0024509804 217:0.13235294 218:0.76654412 219:0.034926471 220:0.025122549 221:0.89828431 222:0.091911765 230:0.0098039216 231:0.10018382 232:0.077205882 233:0.085784314 234:0.14246324 235:0.15349265 236:0.21629902 237:0.13204657 238:0.078431373 239:0.0042892157 240:0.0098039216 241:0.0098039216 245:0.024509804 246:0.22610294 247:0.18290441 248:0.20251225 249:0.28952206 250:0.064644608 251:0.0098039216 255:0.0015318627 256:0.2901348 257:0.18198529 258:0.22150735 259:0.25030637 260:0.044730392 261:0.24142157 262:0.16605392 263:0.092218137 264:0.14460784 265:0.14981618 266:0.13939951 267:0.053615196 268:0.0030637255 270:0.0098039216 271:0.030637255 272:0.0024509804 277:0.58026961 278:0.3560049 279:0.014705882 280:0.015931373 281:0.73682598 282:0.2533701 290:0.0098039216 291:0.14644608 292:0.12132353 293:0.13051471 294:0.075061275 295:0.11979167 296:0.17156863 297:0.16084559 298:0.06127451 299:0.003370098 300:0.0098039216 301:0.040747549 306:0.015318627 307:0.24142157 308:0.36887255 309:0.21966912 310:0.11397059 311:0.040747549 316:0.025122549 317:0.46568627 318:0.16482843 319:0.23927696 320:0.064338235 321:0.087009804 322:0.44056373 323:0.11305147 324:0.11335784 325:0.18198529 326:0.022977941 327:0.00030637255 330:0.040747549 331:0.040747549 338:0.019607843 339:0.88327206 340:0.056372549 341:0.76409314 342:0.19515931 350:0.040747549 351:0.032781863 352:0.13817402 353:0.30851716 354:0.15318627 355:0.11397059 356:0.18198529 357:0.030330882 358:0.00030637255 360:0.040747549 
0.004377097356308213 1:0.11165049 2:0.22724515 3:0.21571602 4:0.11195388 5:0.11165049 6:0.10406553 7:0.067961165 8:0.041565534 9:0.0066747573 10:0.0015169903 11:0.0030339806 12:0.32706311 13:0.24059466 14:0.15776699 15:0.11104369 16:0.083434466 17:0.048847087 18:0.020934466 19:0.005157767 20:0.0021237864 21:0.0030339806 22:0.25576456 23:0.34617718 24:0.13652913 25:0.11680825 26:0.075242718 27:0.040048544 28:0.020631068 29:0.0033373786 30:0.0024271845 31:0.023058252 32:0.0060679612 37:0.082524272 38:0.70631068 39:0.10194175 40:0.080097087 41:0.033980583 42:0.092839806 43:0.14927184 44:0.12226942 45:0.13713592 46:0.14290049 47:0.13410194 48:0.14714806 49:0.034283981 50:0.0060679612 51:0.098300971 52:0.28125 53:0.19538835 54:0.10618932 55:0.10618932 56:0.094963592 57:0.067961165 58:0.041565534 59:0.0066747573 60:0.0015169903 61:0.066747573 62:0.13167476 63:0.11104369 64:0.12348301 65:0.22239078 66:0.19902913 67:0.092536408 68:0.041868932 69:0.0091019417 70:0.0021237864 71:0.016080097 72:0.2026699 73:0.14866505 74:0.21207524 75:0.22785194 76:0.11347087 77:0.04065534 78:0.029126214 79:0.0072815534 80:0.0021237864 81:0.005461165 82:0.18567961 83:0.21328883 84:0.22512136 85:0.23331311 86:0.082220874 87:0.036407767 88:0.015473301 89:0.0024271845 90:0.00060679612 91:0.04368932 92:0.0084951456 97:0.14441748 98:0.66019417 99:0.076456311 100:0.066747573 101:0.0024271845 102:0.037621359 103:0.11893204 104:0.10497573 105:0.11256068 106:0.11438107 107:0.16080097 108:0.11620146 109:0.17475728 110:0.057342233 111:0.13197816 112:0.11711165 113:0.11256068 114:0.14320388 115:0.22481796 116:0.15109223 117:0.078580097 118:0.030036408 119:0.0084951456 120:0.0021237864 121:0.03125 127:0.14502427 128:0.45934466 129:0.3118932 130:0.052487864 131:0.03125 137:0.18294903 138:0.50424757 139:0.2648665 140:0.016686893 141:0.12257282 142:0.46419903 143:0.33191748 144:0.047026699 145:0.0030339806 150:0.03125 151:0.03125 156:0.0012135922 157:0.17050971 158:0.76425971 159:0.023058252 160:0.0097087379 161:0.79035194 162:0.17839806 170:0.03125 171:0.1089199 172:0.34799757 173:0.32524272 174:0.14654126 175:0.038834951 176:0.0012135922 180:0.03125 181:0.0097087379 185:0.0072815534 186:0.13592233 187:0.13046117 188:0.24787621 189:0.33859223 190:0.13015777 191:0.0097087379 196:0.15412621 197:0.18658981 198:0.20418689 199:0.31614078 200:0.12924757 201:0.14290049 202:0.10740291 203:0.14714806 204:0.1243932 205:0.20964806 206:0.15473301 207:0.087682039 208:0.016383495 210:0.0097087379 211:0.031553398 212:0.018203883 217:0.21723301 218:0.68628641 219:0.035194175 220:0.011529126 221:0.86559466 222:0.1246966 230:0.0097087379 231:0.094356796 232:0.076456311 233:0.08434466 234:0.12894417 235:0.14775485 236:0.22481796 237:0.14441748 238:0.085558252 239:0.0036407767 240:0.0097087379 241:0.0097087379 245:0.016080097 246:0.19902913 247:0.21207524 248:0.15746359 249:0.27427184 250:0.13137136 251:0.0097087379 256:0.22239078 257:0.23300971 258:0.1714199 259:0.25667476 260:0.10679612 261:0.21480583 262:0.20964806 263:0.091019417 264:0.14350728 265:0.14714806 266:0.14381068 267:0.039441748 268:0.00091019417 270:0.0097087379 271:0.045509709 272:0.0018203883 273:0.0012135922 276:0.0012135922 277:0.54550971 278:0.33373786 279:0.041868932 280:0.029126214 281:0.75910194 282:0.23118932 290:0.0097087379 291:0.14229369 292:0.13834951 293:0.13106796 294:0.07493932 295:0.11862864 296:0.16777913 297:0.17020631 298:0.045509709 299:0.0015169903 300:0.0097087379 301:0.04065534 306:0.027305825 307:0.21480583 308:0.375 309:0.16656553 310:0.17566748 311:0.04065534 316:0.027912621 317:0.43234223 318:0.20873786 319:0.17324029 320:0.11711165 321:0.070691748 322:0.3898665 323:0.18143204 324:0.069174757 325:0.18234223 326:0.064623786 327:0.0012135922 330:0.04065534 331:0.050970874 332:0.0036407767 337:0.11468447 338:0.83009709 340:0.00060679612 341:0.58070388 342:0.37864078 350:0.04065534 351:0.024878641 352:0.079490291 353:0.24120146 354:0.26334951 355:0.10315534 356:0.15200243 357:0.094963592 358:0.00030339806 360:0.04065534 
0.1009238788511546 1:0.11850248 2:0.13675743 3:0.17914604 4:0.11602723 5:0.11262376 6:0.16862624 7:0.12747525 8:0.026918317 9:0.0071163366 10:0.0068069307 11:0.0015470297 12:0.22834158 13:0.21008663 14:0.12066832 15:0.1822401 16:0.15810644 17:0.067141089 18:0.020420792 19:0.0095915842 20:0.0018564356 21:0.0012376238 22:0.084158416 23:0.3644802 24:0.14542079 25:0.19152228 26:0.14944307 27:0.036509901 28:0.017636139 29:0.0083539604 30:0.0012376238 31:0.035272277 32:0.004950495 37:0.16831683 38:0.62438119 39:0.04950495 40:0.11757426 41:0.014232673 42:0.029393564 43:0.1825495 44:0.12190594 45:0.13056931 46:0.15439356 47:0.15346535 48:0.15996287 49:0.04950495 50:0.0040222772 51:0.12221535 52:0.18069307 53:0.1612005 54:0.098081683 55:0.12159653 56:0.16615099 57:0.1092203 58:0.026918317 59:0.0071163366 60:0.0068069307 61:0.024752475 62:0.12221535 63:0.125 64:0.15253713 65:0.29981436 66:0.22277228 67:0.038675743 68:0.0074257426 69:0.0040222772 70:0.0027846535 71:0.0064975248 72:0.11324257 73:0.15160891 74:0.21472772 75:0.33292079 76:0.15996287 77:0.0095915842 78:0.0061881188 79:0.0037128713 80:0.0015470297 81:0.0095915842 82:0.078589109 83:0.17017327 84:0.22679455 85:0.38861386 86:0.10705446 87:0.0099009901 88:0.0040222772 89:0.0040222772 90:0.0012376238 91:0.0037128713 92:0.004950495 97:0.055693069 98:0.85148515 99:0.064356436 100:0.01980198 101:0.0037128713 102:0.018873762 103:0.069925743 104:0.1924505 105:0.23050743 106:0.13118812 107:0.21875 108:0.071472772 109:0.046101485 110:0.017017327 111:0.075185644 112:0.13954208 113:0.12623762 114:0.17264851 115:0.31002475 116:0.14201733 117:0.021039604 118:0.0071163366 119:0.0037128713 120:0.0024752475 121:0.03125 127:0.1407797 128:0.51299505 129:0.25185644 130:0.063118812 131:0.03125 137:0.16800743 138:0.59034653 139:0.19678218 140:0.013613861 141:0.2032797 142:0.54888614 143:0.20358911 144:0.012376238 145:0.00061881188 150:0.03125 151:0.03125 158:0.42326733 159:0.53125 160:0.014232673 161:0.84282178 162:0.12592822 170:0.03125 171:0.2549505 172:0.41522277 173:0.20235149 174:0.089108911 175:0.0071163366 180:0.03125 181:0.0099009901 185:0.028155941 186:0.20637376 187:0.12933168 188:0.23855198 189:0.25742574 190:0.1302599 191:0.0099009901 195:0.00030940594 196:0.25835396 197:0.17481436 198:0.20018564 199:0.25618812 200:0.10024752 201:0.20668317 202:0.1302599 203:0.11850248 204:0.13459158 205:0.13273515 206:0.17110149 207:0.089108911 208:0.0071163366 210:0.0099009901 211:0.043935644 212:0.014851485 216:0.0012376238 217:0.23143564 218:0.64665842 219:0.034653465 220:0.027227723 221:0.88613861 222:0.1039604 230:0.0099009901 231:0.14356436 232:0.11664604 233:0.078589109 234:0.10365099 235:0.15996287 236:0.13706683 237:0.18131188 238:0.066522277 239:0.0027846535 240:0.0099009901 241:0.0099009901 246:0.020730198 247:0.37778465 248:0.23391089 249:0.28186881 250:0.075804455 251:0.0099009901 256:0.021967822 257:0.46689356 258:0.17326733 259:0.27784653 260:0.050123762 261:0.13490099 262:0.38706683 263:0.12345297 264:0.11912129 265:0.19152228 266:0.033106436 267:0.00092821782 270:0.0099009901 271:0.011138614 273:0.0024752475 277:0.0024752475 279:0.8230198 280:0.16089109 281:0.56311881 282:0.4269802 290:0.0099009901 291:0.066831683 292:0.28310644 293:0.1825495 294:0.11200495 295:0.13923267 296:0.17295792 297:0.032487624 298:0.00092821782 300:0.0099009901 301:0.040841584 306:0.20513614 307:0.39263614 308:0.20482673 309:0.07085396 310:0.085705446 311:0.040841584 316:0.2292698 317:0.45730198 318:0.1197401 319:0.08075495 320:0.072091584 321:0.33725248 322:0.34251238 323:0.10983911 324:0.035581683 325:0.081683168 326:0.051670792 327:0.00061881188 330:0.040841584 331:0.058168317 332:0.0061881188 337:0.25154703 338:0.55321782 339:0.091893564 340:0.038985149 341:0.76949257 342:0.18966584 350:0.040841584 351:0.1825495 352:0.27722772 353:0.22957921 354:0.10334158 355:0.035272277 356:0.067141089 357:0.056311881 358:0.0077351485 360:0.040841584 
0.2031918851561216 1:0.075849515 2:0.18385922 3:0.18082524 4:0.095873786 5:0.12257282 6:0.17415049 7:0.11104369 8:0.040958738 9:0.010012136 10:0.0048543689 11:0.15291262 12:0.23300971 13:0.1243932 14:0.12348301 15:0.13925971 16:0.125 17:0.070691748 18:0.017293689 19:0.0087985437 20:0.005157767 21:0.027305825 22:0.33222087 23:0.15776699 24:0.13592233 25:0.16899272 26:0.11741505 27:0.035800971 28:0.014563107 29:0.0084951456 30:0.0015169903 31:0.015169903 32:0.0024271845 37:0.13531553 38:0.67415049 39:0.066747573 40:0.10618932 41:0.012742718 42:0.030946602 43:0.19114078 44:0.094053398 45:0.11165049 46:0.13015777 47:0.11468447 48:0.22997573 49:0.072815534 50:0.011832524 51:0.19842233 52:0.17627427 53:0.11741505 54:0.094660194 55:0.14532767 56:0.12166262 57:0.10800971 58:0.024878641 59:0.0094053398 60:0.0039441748 61:0.02032767 62:0.11377427 63:0.11256068 64:0.13319175 65:0.18841019 66:0.29581311 67:0.10497573 68:0.014259709 69:0.0094053398 70:0.0072815534 71:0.005461165 72:0.10497573 73:0.15807039 74:0.17020631 75:0.3285801 76:0.19720874 77:0.017597087 78:0.0060679612 79:0.0063713592 80:0.005461165 81:0.0060679612 82:0.039441748 83:0.19114078 84:0.18841019 85:0.33616505 86:0.2038835 87:0.017900485 88:0.0066747573 89:0.0060679612 90:0.0042475728 91:0.0048543689 92:0.0024271845 96:0.0036407767 97:0.065533981 98:0.7961165 99:0.08131068 100:0.046116505 101:0.0084951456 102:0.024271845 103:0.11529126 104:0.084951456 105:0.2032767 106:0.22269417 107:0.16535194 108:0.11680825 109:0.05006068 110:0.0087985437 111:0.081917476 112:0.12773058 113:0.098907767 114:0.13379854 115:0.22967233 116:0.23816748 117:0.064623786 118:0.010012136 119:0.0078883495 120:0.0072815534 121:0.03125 127:0.17415049 128:0.4996966 129:0.25515777 130:0.039745146 131:0.03125 137:0.11741505 138:0.52973301 139:0.30036408 140:0.021237864 141:0.29004854 142:0.52639563 143:0.14411408 144:0.0081917476 150:0.03125 151:0.032463592 157:0.03276699 158:0.74696602 159:0.18537621 160:0.0024271845 161:0.64381068 162:0.32493932 170:0.03125 171:0.19690534 172:0.43082524 173:0.22087379 174:0.11498786 175:0.005157767 180:0.03125 181:0.0097087379 185:0.028519417 186:0.19842233 187:0.11771845 188:0.22815534 189:0.26820388 190:0.14927184 191:0.0097087379 196:0.2493932 197:0.17050971 198:0.19781553 199:0.25333738 200:0.11923544 201:0.19690534 202:0.1256068 203:0.11529126 204:0.12712379 205:0.12591019 206:0.18021845 207:0.10740291 208:0.011832524 210:0.0097087379 211:0.04368932 212:0.013349515 217:0.13834951 218:0.75485437 219:0.031553398 220:0.018203883 221:0.88531553 222:0.10497573 230:0.0097087379 231:0.13956311 232:0.11165049 233:0.073118932 234:0.10436893 235:0.14411408 236:0.14714806 237:0.18355583 238:0.083434466 239:0.0033373786 240:0.0097087379 241:0.0097087379 246:0.037621359 247:0.40716019 248:0.19811893 249:0.31098301 250:0.036407767 251:0.0097087379 256:0.046116505 257:0.45813107 258:0.16747573 259:0.28033981 260:0.038228155 261:0.13501214 262:0.37591019 263:0.1089199 264:0.13258495 265:0.19144417 266:0.040958738 267:0.005461165 270:0.0097087379 271:0.01092233 279:0.79004854 280:0.19902913 281:0.57008495 282:0.42020631 290:0.0097087379 291:0.055218447 292:0.25212379 293:0.1878034 294:0.11832524 295:0.16080097 296:0.17415049 297:0.038228155 298:0.0036407767 300:0.0097087379 301:0.04065534 306:0.18932039 307:0.34921117 308:0.2336165 309:0.066747573 310:0.12044903 311:0.04065534 316:0.19599515 317:0.45934466 318:0.11953883 319:0.072208738 320:0.11225728 321:0.32251214 322:0.33677184 323:0.10618932 324:0.035194175 325:0.091019417 326:0.064320388 327:0.0033373786 330:0.04065534 331:0.050364078 332:0.0036407767 337:0.24878641 338:0.56674757 339:0.1086165 340:0.02184466 341:0.77002427 342:0.18932039 350:0.04065534 351:0.17991505 352:0.25151699 353:0.22694175 354:0.10709951 355:0.035800971 356:0.077063107 357:0.067354369 358:0.013652913 360:0.04065534 
-0.03081823083748607 1:0.22411616 2:0.085227273 3:0.0088383838 4:0.065972222 5:0.13194444 6:0.20486111 8:0.15561869 9:0.087752525 10:0.035669192 11:0.012310606 12:0.2572601 13:0.11458333 14:0.12973485 15:0.082386364 16:0.12468434 18:0.15561869 19:0.087752525 20:0.035669192 21:0.00031565657 22:0.020517677 23:0.13541667 24:0.33933081 25:0.21875 26:0.0066287879 27:0.15561869 28:0.087752525 29:0.033459596 30:0.002209596 31:0.28787879 35:0.03030303 39:0.59974747 40:0.082070707 41:0.082070707 43:0.0066287879 44:0.26893939 45:0.012310606 47:0.035669192 48:0.24337121 49:0.20707071 50:0.14393939 51:0.012310606 52:0.2572601 53:0.11458333 54:0.12973485 55:0.082386364 56:0.12468434 58:0.15561869 59:0.087752525 60:0.035669192 61:0.042929293 62:0.26388889 63:0.097537879 64:0.11868687 65:0.11142677 66:0.057765152 67:0.18497475 68:0.10416667 70:0.018623737 71:0.053661616 72:0.24936869 73:0.21559343 74:0.14520202 76:0.20801768 77:0.10953283 79:0.012941919 80:0.0056818182 81:0.0031565657 82:0.12373737 83:0.11710859 85:0.4542298 86:0.20138889 88:0.081755051 89:0.012941919 90:0.0056818182 91:0.33017677 95:0.18434343 99:0.34217172 100:0.14330808 101:0.14330808 104:0.29040404 105:0.039772727 108:0.018623737 109:0.31755051 110:0.19034091 111:0.053661616 112:0.24936869 113:0.21559343 114:0.14520202 116:0.20801768 117:0.10953283 119:0.012941919 120:0.0056818182 121:0.03125 128:0.062815657 129:0.53882576 130:0.36710859 131:0.03125 138:0.0025252525 139:0.36079545 140:0.60542929 141:0.96875 150:0.03125 151:0.03125 156:0.30397727 158:0.4135101 160:0.25126263 161:0.65593434 162:0.31281566 170:0.03125 171:0.96875 180:0.03125 181:0.01010101 185:0.018939394 186:0.39962121 187:0.14488636 188:0.24810606 189:0.15340909 190:0.024936869 191:0.01010101 195:0.0025252525 196:0.41603535 197:0.14015152 198:0.2405303 199:0.14520202 200:0.045454545 201:0.95517677 202:0.034722222 210:0.01010101 211:0.01010101 216:0.018939394 218:0.0012626263 220:0.96969697 221:0.85795455 222:0.13194444 230:0.01010101 231:0.88762626 232:0.10227273 240:0.01010101 241:0.01010101 246:0.13131313 247:0.39741162 248:0.1852904 249:0.15214646 250:0.12373737 251:0.01010101 256:0.27430556 257:0.25252525 258:0.22916667 259:0.15277778 260:0.081123737 261:0.98989899 270:0.01010101 271:0.01010101 276:0.16224747 278:0.013888889 280:0.81376263 281:0.93276515 282:0.057133838 290:0.01010101 291:0.98989899 300:0.01010101 301:0.041035354 307:0.24652778 308:0.44760101 309:0.13289141 310:0.13194444 311:0.041035354 317:0.031565657 318:0.59248737 319:0.15751263 320:0.17739899 321:0.95896465 330:0.041035354 331:0.041035354 336:0.36963384 337:0.01010101 338:0.15372475 340:0.42550505 341:0.86174242 342:0.097222222 350:0.041035354 351:0.95896465 360:0.041035354 
-0.1186908143208791 1:0.29528061 2:0.17538265 3:0.01690051 4:0.006377551 5:0.02869898 6:0.28093112 8:0.085459184 9:0.085140306 10:0.025829082 11:0.014987245 12:0.26881378 13:0.11096939 14:0.11798469 15:0.081632653 16:0.12755102 17:0.06122449 18:0.10586735 19:0.085140306 20:0.025829082 21:0.00031887755 22:0.017857143 23:0.12595663 24:0.35012755 25:0.22066327 26:0.0070153061 27:0.085459184 28:0.085140306 29:0.084821429 30:0.022640306 31:0.46524235 35:0.10395408 40:0.43080357 41:0.081632653 42:0.10012755 43:0.28348214 46:0.0022321429 47:0.19419643 48:0.12755102 49:0.081632653 50:0.12914541 51:0.014987245 52:0.26881378 53:0.11096939 54:0.11798469 55:0.081632653 56:0.12755102 57:0.06122449 58:0.10586735 59:0.085140306 60:0.025829082 61:0.31505102 62:0.098214286 63:0.12372449 64:0.092155612 65:0.06122449 66:0.18112245 67:0.093112245 69:0.027742347 70:0.0076530612 71:0.045280612 72:0.26052296 73:0.18431122 74:0.13233418 75:0.24649235 76:0.095663265 78:0.027742347 79:0.0066964286 80:0.00095663265 81:0.013711735 82:0.11575255 83:0.13616071 84:0.49330357 86:0.16422194 87:0.041454082 88:0.027742347 89:0.0066964286 90:0.00095663265 91:0.2869898 95:0.23565051 99:0.3622449 100:0.1151148 101:0.1151148 104:0.24936224 105:0.037627551 107:0.00095663265 108:0.034438776 109:0.34215561 110:0.22034439 111:0.045280612 112:0.26052296 113:0.18431122 114:0.13233418 115:0.24649235 116:0.095663265 118:0.027742347 119:0.0066964286 120:0.00095663265 121:0.03125 128:0.078125 129:0.49394133 130:0.39668367 131:0.03125 138:0.0015943878 139:0.35331633 140:0.61383929 141:0.96875 150:0.03125 151:0.03125 155:0.017219388 156:0.27742347 158:0.40720663 160:0.26690051 161:0.6463648 162:0.3223852 170:0.03125 171:0.96875 180:0.03125 181:0.010204082 185:0.1036352 186:0.31090561 187:0.14987245 188:0.24139031 189:0.15146684 190:0.03252551 191:0.010204082 196:0.44642857 197:0.11798469 198:0.2783801 199:0.125 200:0.022002551 201:0.94196429 202:0.047831633 210:0.010204082 211:0.010204082 216:0.10395408 218:0.035076531 220:0.85076531 221:0.90497449 222:0.084821429 230:0.010204082 231:0.92123724 232:0.068558673 240:0.010204082 241:0.010204082 246:0.15019133 247:0.37181122 248:0.23022959 249:0.17570153 250:0.061862245 251:0.010204082 256:0.23883929 257:0.31345663 258:0.2471301 259:0.13265306 260:0.057716837 261:0.98979592 270:0.010204082 271:0.010204082 275:0.0076530612 276:0.13392857 278:0.012117347 280:0.83609694 281:0.92251276 282:0.067283163 290:0.010204082 291:0.98820153 292:0.0015943878 300:0.010204082 301:0.041135204 307:0.38903061 308:0.36607143 309:0.14700255 310:0.056760204 311:0.041135204 317:0.12436224 318:0.58258929 319:0.18813776 320:0.06377551 321:0.9588648 330:0.041135204 331:0.041135204 336:0.28061224 338:0.13265306 340:0.54559949 341:0.875 342:0.083864796 350:0.041135204 351:0.9588648 360:0.041135204 
-0.05406131907362671 1:0.28093112 2:0.15433673 3:0.016262755 4:0.058035714 5:0.14764031 6:0.14477041 7:0.095982143 8:0.072385204 9:0.026147959 10:0.0035076531 11:0.2713648 12:0.10714286 13:0.12276786 14:0.094706633 15:0.12436224 16:0.06122449 17:0.11639031 18:0.072385204 19:0.026147959 20:0.0035076531 21:0.017857143 22:0.12595663 23:0.35491071 24:0.21364796 25:0.0079719388 26:0.095982143 27:0.072385204 28:0.087372449 29:0.023596939 30:0.00031887755 31:0.4502551 35:0.082908163 40:0.46683673 41:0.081632653 42:0.097257653 43:0.2713648 46:0.0035076531 47:0.19451531 48:0.12436224 49:0.094706633 50:0.13265306 51:0.2713648 52:0.10714286 53:0.12276786 54:0.094706633 55:0.12436224 56:0.06122449 57:0.11639031 58:0.072385204 59:0.026147959 60:0.0035076531 61:0.39253827 62:0.088647959 63:0.1221301 64:0.066964286 65:0.021683673 66:0.18144133 67:0.086734694 69:0.02997449 70:0.0098852041 71:0.051658163 72:0.30070153 73:0.13998724 74:0.12117347 75:0.25446429 76:0.092155612 78:0.02997449 79:0.0089285714 80:0.00095663265 81:0.01434949 82:0.11862245 83:0.140625 84:0.54081633 86:0.11352041 87:0.032206633 88:0.02997449 89:0.0089285714 90:0.00095663265 91:0.34566327 95:0.24617347 99:0.3622449 100:0.045918367 101:0.045918367 104:0.30165816 105:0.044005102 107:0.00095663265 108:0.038903061 109:0.3466199 110:0.22193878 111:0.051658163 112:0.30070153 113:0.13998724 114:0.12117347 115:0.25446429 116:0.092155612 118:0.02997449 119:0.0089285714 120:0.00095663265 121:0.03125 128:0.086734694 129:0.47608418 130:0.40593112 131:0.03125 138:0.0015943878 139:0.36957908 140:0.59757653 141:0.96875 150:0.03125 151:0.03125 155:0.022321429 156:0.29145408 158:0.4119898 160:0.24298469 161:0.67697704 162:0.29177296 170:0.03125 171:0.96875 180:0.03125 181:0.010204082 185:0.094387755 186:0.32334184 187:0.14732143 188:0.2442602 189:0.15146684 190:0.029017857 191:0.010204082 196:0.41772959 197:0.14732143 198:0.23915816 199:0.14700255 200:0.038584184 201:0.94547194 202:0.04432398 210:0.010204082 211:0.010204082 216:0.09247449 218:0.020408163 220:0.87691327 221:0.91358418 222:0.076211735 230:0.010204082 231:0.92570153 232:0.064094388 240:0.010204082 241:0.010204082 246:0.10267857 247:0.4317602 248:0.19228316 249:0.17538265 250:0.087691327 251:0.010204082 256:0.25031888 257:0.28061224 258:0.24107143 259:0.14413265 260:0.073660714 261:0.98979592 270:0.010204082 271:0.010204082 275:0.0076530612 276:0.13903061 278:0.012755102 280:0.83035714 281:0.92633929 282:0.063456633 290:0.010204082 291:0.98979592 300:0.010204082 301:0.041135204 307:0.41964286 308:0.35586735 309:0.13998724 310:0.043367347 311:0.041135204 317:0.15019133 318:0.57844388 319:0.17984694 320:0.050382653 321:0.9588648 330:0.041135204 331:0.041135204 336:0.28985969 338:0.13137755 340:0.53762755 341:0.87882653 342:0.080038265 350:0.041135204 351:0.9588648 360:0.041135204 
-0.04029205433056501 1:0.0115625 2:0.2440625 3:0.124375 4:0.2571875 5:0.150625 6:0.09 7:0.09 8:0.0203125 9:0.00875 10:0.003125 11:0.249375 12:0.0025 13:0.3378125 14:0.1715625 15:0.0578125 16:0.0965625 17:0.035 18:0.036875 19:0.005 20:0.0075 21:0.0165625 22:0.2421875 23:0.175 24:0.2053125 25:0.25625 26:0.030625 27:0.0325 28:0.025625 29:0.0128125 30:0.003125 31:0.010625 32:0.67625 33:0.00625 36:0.0425 39:0.08375 40:0.180625 41:0.1796875 42:0.0046875 43:0.1903125 44:0.4821875 45:0.0003125 46:0.046875 47:0.079375 48:0.00125 49:0.009375 50:0.0059375 51:0.249375 52:0.0025 53:0.3378125 54:0.1715625 55:0.0578125 56:0.0965625 57:0.035 58:0.036875 59:0.005 60:0.0075 61:0.0690625 62:0.1165625 63:0.2684375 64:0.24 65:0.0740625 66:0.0459375 67:0.0796875 68:0.026875 69:0.0609375 70:0.0184375 71:0.0540625 72:0.1225 73:0.11625 74:0.3859375 75:0.03875 76:0.1184375 77:0.0546875 78:0.0265625 79:0.069375 80:0.0134375 81:0.0540625 82:0.1225 83:0.13625 84:0.1821875 85:0.26375 86:0.0575 87:0.0765625 88:0.066875 89:0.025 90:0.0153125 91:0.03875 92:0.69875 96:0.07375 99:0.06625 100:0.1225 101:0.0834375 102:0.0390625 103:0.094375 104:0.4540625 105:0.1503125 106:0.0096875 107:0.0690625 108:0.04125 109:0.04375 110:0.015 111:0.0540625 112:0.1225 113:0.11625 114:0.3859375 115:0.03875 116:0.1184375 117:0.0546875 118:0.0265625 119:0.069375 120:0.0134375 121:0.03125 126:0.041875 127:0.426875 128:0.380625 129:0.094375 130:0.025 131:0.03125 137:0.02125 138:0.416875 139:0.4871875 140:0.0434375 141:0.96875 150:0.03125 151:0.03125 154:0.4465625 155:0.4746875 158:0.04625 160:0.00125 161:0.7775 162:0.175625 163:0.015625 170:0.03125 171:0.96875 180:0.03125 181:0.01 184:0.1409375 185:0.23125 186:0.1859375 187:0.213125 188:0.1078125 189:0.078125 190:0.0328125 191:0.01 194:0.023125 195:0.39 196:0.1625 197:0.2059375 198:0.1009375 199:0.0725 200:0.035 201:0.685625 202:0.2896875 203:0.0146875 210:0.01 211:0.01 215:0.28625 216:0.55 217:0.025 218:0.00125 220:0.1275 221:0.88 222:0.11 230:0.01 231:0.6809375 232:0.2865625 233:0.0225 240:0.01 241:0.01 245:0.25875 246:0.3215625 247:0.1765625 248:0.168125 249:0.055 250:0.01 251:0.01 255:0.449375 256:0.126875 257:0.1865625 258:0.1509375 259:0.0659375 260:0.0103125 261:0.7434375 262:0.24375 263:0.0028125 270:0.01 271:0.01 275:0.1775 276:0.270625 277:0.09375 278:0.26125 280:0.186875 281:0.911875 282:0.078125 290:0.01 291:0.7628125 292:0.225 293:0.0021875 300:0.01 301:0.0409375 305:0.06 306:0.401875 307:0.1528125 308:0.1653125 309:0.15 310:0.0290625 311:0.0409375 316:0.3375 317:0.2653125 318:0.1428125 319:0.175 320:0.0384375 321:0.9225 322:0.0365625 330:0.0409375 331:0.0409375 337:0.2021875 338:0.325625 339:0.02125 340:0.41 341:0.806875 342:0.1521875 350:0.0409375 351:0.93 352:0.0290625 360:0.0409375 
-0.0705884540190117 1:0.084951456 2:0.38228155 3:0.38501214 4:0.11438107 5:0.0045509709 6:0.0039441748 7:0.0094053398 8:0.0066747573 9:0.0048543689 10:0.0039441748 11:0.0069781553 12:0.36862864 13:0.47117718 14:0.12166262 15:0.0033373786 16:0.0030339806 17:0.0084951456 18:0.0060679612 19:0.0060679612 20:0.0045509709 21:0.0084951456 22:0.38470874 23:0.53246359 24:0.036407767 25:0.010315534 26:0.0069781553 27:0.0069781553 28:0.0063713592 29:0.0048543689 30:0.0024271845 31:0.019417476 32:0.040048544 33:0.60194175 35:0.10072816 37:0.12864078 38:0.089805825 39:0.016990291 40:0.0024271845 41:0.071298544 42:0.0036407767 43:0.51243932 44:0.097997573 45:0.034890777 46:0.20631068 47:0.068567961 48:0.0024271845 49:0.00091019417 50:0.0015169903 51:0.044599515 52:0.41808252 53:0.42870146 54:0.077063107 55:0.0042475728 56:0.0024271845 57:0.011832524 58:0.0057645631 59:0.0033373786 60:0.0039441748 61:0.022148058 62:0.059162621 63:0.040048544 64:0.09223301 65:0.025485437 66:0.48634709 67:0.13622573 68:0.072512136 69:0.044902913 70:0.020934466 71:0.061589806 72:0.025485437 73:0.040351942 74:0.14411408 75:0.17506068 76:0.34010922 77:0.10740291 78:0.075849515 79:0.01881068 80:0.011225728 81:0.030339806 82:0.056432039 83:0.053701456 84:0.14381068 85:0.29399272 86:0.27973301 87:0.08131068 88:0.005157767 89:0.04217233 90:0.013349515 91:0.016990291 92:0.13046117 95:0.046116505 98:0.64866505 99:0.11407767 100:0.04368932 101:0.10800971 102:0.0060679612 103:0.0097087379 104:0.062196602 105:0.058555825 106:0.011225728 107:0.075242718 108:0.40776699 109:0.23877427 110:0.022451456 111:0.061589806 112:0.025485437 113:0.040351942 114:0.14411408 115:0.17506068 116:0.33434466 117:0.088895631 118:0.08282767 119:0.016686893 120:0.030643204 121:0.03125 126:0.00030339806 127:0.046116505 128:0.28944175 129:0.46177184 130:0.1711165 131:0.03125 137:0.00030339806 138:0.086468447 139:0.69235437 140:0.18962379 141:0.96875 150:0.03125 151:0.03125 156:0.03276699 157:0.0048543689 158:0.32554612 160:0.60558252 161:0.96389563 162:0.0048543689 170:0.03125 171:0.96875 180:0.03125 181:0.0097087379 184:0.15533981 185:0.35679612 186:0.073725728 187:0.035194175 188:0.20418689 189:0.12348301 190:0.041565534 191:0.0097087379 194:0.033677184 195:0.43871359 196:0.10042476 197:0.037924757 198:0.14836165 199:0.20084951 200:0.030339806 201:0.58586165 202:0.39836165 203:0.0060679612 210:0.0097087379 211:0.0097087379 215:0.10194175 217:0.058252427 218:0.086165049 219:0.54126214 220:0.2026699 221:0.96419903 222:0.026092233 230:0.0097087379 231:0.5782767 232:0.28792476 233:0.12408981 240:0.0097087379 241:0.0097087379 244:0.0036407767 245:0.50333738 246:0.099514563 247:0.1256068 248:0.20024272 249:0.050667476 250:0.0072815534 251:0.0097087379 255:0.47694175 256:0.094053398 257:0.12742718 258:0.19811893 259:0.086468447 260:0.0072815534 261:0.70145631 262:0.28853155 263:0.00030339806 270:0.0097087379 271:0.0097087379 276:0.0012135922 277:0.02184466 278:0.064320388 279:0.81553398 280:0.087378641 281:0.98665049 282:0.0036407767 290:0.0097087379 291:0.65291262 292:0.33009709 293:0.0072815534 300:0.0097087379 301:0.04065534 305:0.0066747573 306:0.46996359 307:0.1711165 308:0.20782767 309:0.091626214 310:0.012135922 311:0.04065534 316:0.41353155 317:0.14987864 318:0.1871966 319:0.17415049 320:0.034587379 321:0.91717233 322:0.04217233 330:0.04065534 331:0.04065534 336:0.02184466 338:0.83070388 339:0.097087379 340:0.0097087379 341:0.95934466 350:0.04065534 351:0.88501214 352:0.074332524 360:0.04065534 
-0.0738294403939829 1:0.14356436 2:0.33230198 3:0.40655941 4:0.079207921 5:0.0046410891 6:0.0099009901 7:0.0092821782 8:0.010210396 9:0.0030940594 10:0.0012376238 11:0.053836634 12:0.40996287 13:0.41367574 14:0.082920792 15:0.0046410891 16:0.0080445545 17:0.01144802 18:0.0083539604 19:0.0055693069 20:0.0015470297 21:0.10550743 22:0.57332921 23:0.26949257 24:0.012685644 25:0.0095915842 26:0.010210396 27:0.01144802 28:0.005259901 29:0.0018564356 30:0.00061881188 31:0.0012376238 33:0.0012376238 34:0.017326733 35:0.46441832 36:0.25 38:0.24443069 39:0.018873762 40:0.0024752475 41:0.0012376238 42:0.0015470297 43:0.03960396 44:0.043007426 45:0.33972772 46:0.11788366 47:0.27196782 48:0.15470297 49:0.019183168 50:0.011138614 51:0.11664604 52:0.4217203 53:0.37128713 54:0.05259901 55:0.005259901 56:0.0077351485 57:0.01299505 58:0.0071163366 59:0.0034034653 60:0.0012376238 61:0.088180693 62:0.03279703 63:0.17264851 64:0.028465347 65:0.30105198 66:0.19152228 67:0.050433168 68:0.067141089 69:0.039294554 70:0.028465347 71:0.088180693 72:0.037438119 73:0.0058787129 74:0.12438119 75:0.34003713 76:0.17110149 77:0.1302599 78:0.051361386 79:0.02289604 80:0.028465347 81:0.01144802 82:0.084467822 83:0.10767327 84:0.33384901 85:0.18162129 86:0.093131188 87:0.063118812 88:0.071472772 89:0.0012376238 90:0.051980198 91:0.16924505 94:0.14789604 97:0.60365099 99:0.018564356 100:0.060643564 101:0.018564356 103:0.048267327 104:0.11726485 105:0.0037128713 106:0.0092821782 107:0.064975248 108:0.26918317 109:0.42883663 110:0.039913366 111:0.088180693 112:0.037438119 113:0.029393564 114:0.10086634 115:0.34003713 116:0.21813119 117:0.060334158 118:0.074257426 119:0.013613861 120:0.037747525 121:0.03125 127:0.084467822 128:0.37252475 129:0.47308168 130:0.038675743 131:0.03125 138:0.099009901 139:0.68502475 140:0.18471535 141:0.96875 150:0.03125 151:0.03125 156:0.040841584 157:0.30816832 159:0.61231436 160:0.0074257426 161:0.96875 170:0.03125 171:0.96875 180:0.03125 181:0.0099009901 184:0.063118812 185:0.35643564 186:0.19430693 187:0.033106436 188:0.044554455 189:0.24814356 190:0.050433168 191:0.0099009901 194:0.0018564356 195:0.3177599 196:0.2602104 197:0.057549505 198:0.041460396 199:0.23793317 200:0.073329208 201:0.64294554 202:0.34715347 210:0.0099009901 211:0.0099009901 215:0.10705446 217:0.16027228 218:0.10767327 219:0.40779703 220:0.20730198 221:0.89820545 222:0.091893564 230:0.0099009901 231:0.62561881 232:0.33972772 233:0.024752475 240:0.0099009901 241:0.0099009901 245:0.37438119 246:0.1980198 247:0.084467822 248:0.12933168 249:0.17790842 250:0.025990099 251:0.0099009901 255:0.045482673 256:0.51144802 257:0.074876238 258:0.14882426 259:0.14913366 260:0.060334158 261:0.77660891 262:0.2134901 270:0.0099009901 271:0.0099009901 276:0.0064975248 277:0.0043316832 279:0.77196782 280:0.20730198 281:0.99009901 290:0.0099009901 291:0.71844059 292:0.27165842 300:0.0099009901 301:0.040841584 305:0.00092821782 306:0.076732673 307:0.47122525 308:0.16615099 309:0.20420792 310:0.039913366 311:0.040841584 316:0.055074257 317:0.49381188 318:0.16615099 319:0.18100248 320:0.063118812 321:0.94214109 322:0.017017327 330:0.040841584 331:0.040841584 338:0.047648515 340:0.9115099 341:0.95915842 350:0.040841584 351:0.91924505 352:0.039913366 360:0.040841584 
-0.08482985094403978 1:0.027267157 2:0.44607843 3:0.35508578 4:0.13848039 5:0.0058210784 6:0.0021446078 7:0.009497549 8:0.0067401961 9:0.0073529412 10:0.0015318627 11:0.046568627 12:0.40318627 13:0.43964461 14:0.078431373 15:0.0052083333 16:0.0064338235 17:0.009497549 18:0.0058210784 19:0.0045955882 20:0.0006127451 21:0.0024509804 22:0.055147059 23:0.62561275 24:0.28186275 25:0.0030637255 26:0.0058210784 27:0.0070465686 28:0.0073529412 29:0.0070465686 30:0.0045955882 31:0.0098039216 33:0.51960784 34:0.0098039216 36:0.068627451 38:0.30392157 39:0.078431373 40:0.0098039216 41:0.026348039 42:0.051164216 43:0.51960784 44:0.026041667 45:0.35110294 46:0.0070465686 47:0.012867647 48:0.003370098 49:0.0015318627 50:0.00091911765 51:0.046568627 52:0.40318627 53:0.43964461 54:0.078431373 55:0.0052083333 56:0.0045955882 57:0.0085784314 58:0.0070465686 59:0.0052083333 60:0.0015318627 61:0.067708333 62:0.02879902 63:0.13265931 64:0.089767157 65:0.11121324 66:0.33762255 67:0.12990196 68:0.083639706 69:0.011642157 70:0.0070465686 71:0.067708333 72:0.03125 73:0.11917892 74:0.23927696 75:0.25183824 76:0.11427696 77:0.074142157 78:0.083639706 79:0.011642157 80:0.0070465686 81:0.013786765 82:0.06495098 83:0.15533088 84:0.20496324 85:0.16329657 86:0.26991422 87:0.10753676 88:0.0012254902 89:0.011948529 90:0.0070465686 91:0.23529412 95:0.078431373 99:0.52941176 100:0.15686275 101:0.15686275 103:0.013480392 104:0.12530637 105:0.096507353 107:0.10232843 108:0.11029412 109:0.38419118 110:0.011029412 111:0.067708333 112:0.03125 113:0.11917892 114:0.23927696 115:0.25183824 116:0.11427696 117:0.074142157 118:0.083639706 119:0.011642157 120:0.0070465686 121:0.03125 127:0.13602941 128:0.42800245 129:0.30698529 130:0.097732843 131:0.03125 137:0.0055147059 138:0.15778186 139:0.70526961 140:0.10018382 141:0.96875 150:0.03125 151:0.03125 156:0.10294118 158:0.48223039 160:0.38357843 161:0.96875 170:0.03125 171:0.96875 180:0.03125 181:0.0098039216 184:0.03002451 185:0.38204657 186:0.20404412 187:0.023590686 188:0.047487745 189:0.23897059 190:0.064031863 191:0.0098039216 195:0.33394608 196:0.26164216 197:0.037990196 198:0.041360294 199:0.24785539 200:0.067401961 201:0.64307598 202:0.3471201 210:0.0098039216 211:0.019607843 216:0.18627451 218:0.068627451 219:0.49816176 220:0.22732843 221:0.34405637 222:0.64613971 230:0.0098039216 231:0.62928922 232:0.35876225 233:0.0021446078 240:0.0098039216 241:0.0098039216 245:0.0073529412 246:0.54166667 247:0.065563725 248:0.12254902 249:0.15104167 250:0.10202206 251:0.0098039216 255:0.0625 256:0.49142157 257:0.077205882 258:0.13449755 259:0.15931373 260:0.065257353 261:0.7432598 262:0.24693627 270:0.0098039216 271:0.0098039216 279:0.76960784 280:0.22058824 281:0.99019608 290:0.0098039216 291:0.71599265 292:0.27420343 300:0.0098039216 301:0.040747549 305:0.0012254902 306:0.12346814 307:0.41207108 308:0.14552696 309:0.20710784 310:0.069852941 311:0.040747549 316:0.11151961 317:0.42279412 318:0.1338848 319:0.21323529 320:0.077818627 321:0.93014706 322:0.029105392 330:0.040747549 331:0.040747549 338:0.065257353 340:0.8939951 341:0.95925245 350:0.040747549 351:0.88939951 352:0.069852941 360:0.040747549 
-0.01403788090970761 1:0.10334158 2:0.44863861 3:0.2967203 4:0.11417079 5:0.0046410891 6:0.0040222772 7:0.0064975248 8:0.0092821782 9:0.0071163366 10:0.0055693069 11:0.042388614 12:0.40160891 13:0.45544554 14:0.06404703 15:0.004950495 16:0.0043316832 17:0.0074257426 18:0.0068069307 19:0.0080445545 20:0.004950495 21:0.0625 22:0.45606436 23:0.39727723 24:0.047957921 25:0.0027846535 26:0.0046410891 27:0.0086633663 28:0.0055693069 29:0.0068069307 30:0.0077351485 31:0.0012376238 32:0.47834158 33:0.0061881188 34:0.24009901 35:0.0061881188 37:0.1720297 38:0.077351485 39:0.0024752475 40:0.016089109 41:0.020730198 42:0.055074257 43:0.29981436 44:0.18347772 45:0.037438119 46:0.35581683 47:0.025061881 48:0.017326733 49:0.0037128713 50:0.0015470297 51:0.042388614 52:0.40160891 53:0.45544554 54:0.064665842 55:0.005259901 56:0.0034034653 57:0.0080445545 58:0.0080445545 59:0.0058787129 60:0.005259901 61:0.086943069 62:0.030940594 63:0.0625 64:0.097462871 65:0.12809406 66:0.37283416 67:0.12685644 68:0.073019802 69:0.015470297 70:0.0058787129 71:0.082611386 72:0.037128713 73:0.063737624 74:0.18966584 75:0.36293317 76:0.11571782 77:0.053836634 78:0.073019802 79:0.015470297 80:0.0058787129 81:0.012066832 82:0.010829208 83:0.079207921 84:0.49845297 85:0.09529703 86:0.10519802 87:0.17759901 89:0.015470297 90:0.0058787129 91:0.0024752475 92:0.17017327 93:0.0012376238 96:0.087871287 99:0.64542079 100:0.092821782 101:0.092821782 103:0.06404703 104:0.10612624 106:0.02134901 107:0.17821782 108:0.51361386 109:0.019492574 110:0.0043316832 111:0.082611386 112:0.037128713 113:0.063737624 114:0.18966584 115:0.36293317 116:0.11571782 117:0.053836634 118:0.073019802 119:0.015470297 120:0.0058787129 121:0.03125 127:0.042079208 128:0.44090347 129:0.33601485 130:0.14975248 131:0.03125 138:0.1302599 139:0.67512376 140:0.16336634 141:0.96875 150:0.03125 151:0.03125 156:0.081373762 158:0.43378713 160:0.45358911 161:0.94925743 162:0.019492574 170:0.03125 171:0.96875 180:0.03125 181:0.0099009901 184:0.04115099 185:0.31528465 186:0.23669554 187:0.045482673 188:0.041460396 189:0.20575495 190:0.1042698 191:0.0099009901 195:0.29331683 196:0.28774752 197:0.047957921 198:0.038056931 199:0.2029703 200:0.1200495 201:0.64294554 202:0.34715347 210:0.0099009901 211:0.0099009901 216:0.20544554 217:0.068069307 219:0.38118812 220:0.33539604 221:0.9842203 222:0.0058787129 230:0.0099009901 231:0.62902228 232:0.35055693 233:0.010519802 240:0.0099009901 241:0.0099009901 245:0.058787129 246:0.50030941 247:0.067759901 248:0.13087871 249:0.1352104 250:0.097153465 251:0.0099009901 255:0.00092821782 256:0.55105198 257:0.058787129 258:0.14418317 259:0.14758663 260:0.087561881 261:0.78032178 262:0.20977723 270:0.0099009901 271:0.0099009901 279:0.7710396 280:0.21905941 281:0.98917079 282:0.00092821782 290:0.0099009901 291:0.7085396 292:0.28155941 300:0.0099009901 301:0.040841584 305:0.00061881188 306:0.089418317 307:0.46441832 308:0.17295792 309:0.19925743 310:0.032487624 311:0.040841584 316:0.043007426 317:0.50959158 318:0.1457302 319:0.19523515 320:0.065594059 321:0.9477104 322:0.01144802 330:0.040841584 331:0.040841584 338:0.059405941 340:0.89975248 341:0.95915842 350:0.040841584 351:0.92667079 352:0.032487624 360:0.040841584 
-0.002441348654398589 1:0.018107477 2:0.099007009 3:0.14807243 4:0.21582944 5:0.46290888 6:0.02978972 7:0.010221963 8:0.0070093458 9:0.0084696262 10:0.00058411215 11:0.0096378505 12:0.1203271 13:0.12207944 14:0.63376168 15:0.075642523 16:0.020443925 17:0.011390187 18:0.003796729 19:0.0026285047 20:0.00029205607 21:0.0029205607 22:0.0067172897 23:0.375 24:0.47926402 25:0.11477804 26:0.0061331776 27:0.0046728972 28:0.0084696262 29:0.0017523364 30:0.00029205607 31:0.0035046729 35:0.018691589 36:0.10864486 37:0.10397196 38:0.71378505 39:0.036799065 40:0.014602804 41:0.015186916 42:0.058411215 43:0.06103972 44:0.11273364 45:0.0093457944 46:0.03942757 47:0.46758178 48:0.1489486 49:0.084404206 50:0.0029205607 51:0.086740654 52:0.049357477 53:0.15829439 54:0.44421729 55:0.20531542 56:0.032126168 57:0.007885514 58:0.010806075 59:0.0046728972 60:0.00058411215 61:0.039135514 62:0.13405374 63:0.10046729 64:0.028037383 65:0.18516355 66:0.22196262 67:0.1010514 68:0.048189252 69:0.082359813 70:0.059579439 71:0.0093457944 72:0.026285047 73:0.097254673 74:0.25408879 76:0.079147196 77:0.065420561 78:0.28504673 79:0.16296729 80:0.020443925 81:0.0020443925 82:0.013142523 83:0.092873832 84:0.1921729 86:0.16588785 87:0.21991822 88:0.2234229 89:0.088785047 90:0.0017523364 91:0.1010514 96:0.59579439 100:0.30315421 101:0.12003505 102:0.099591121 103:0.022488318 104:0.08703271 105:0.094918224 106:0.31921729 107:0.055490654 108:0.011682243 109:0.14047897 110:0.049065421 111:0.039135514 112:0.13405374 113:0.10046729 114:0.028037383 115:0.18516355 116:0.22196262 117:0.1010514 118:0.048189252 119:0.082359813 120:0.059579439 121:0.03125 127:0.06396028 128:0.13726636 129:0.31220794 130:0.45531542 131:0.03125 138:0.06396028 139:0.3291472 140:0.57564252 141:0.96875 150:0.03125 151:0.03125 154:0.011682243 155:0.10046729 156:0.0011682243 158:0.28475467 159:0.54030374 160:0.030373832 161:0.38639019 162:0.58235981 170:0.03125 171:0.96875 180:0.03125 181:0.0093457944 183:0.36010514 184:0.56863318 185:0.051693925 186:0.0029205607 187:0.0020443925 188:0.0032126168 189:0.0011682243 190:0.00087616822 191:0.0093457944 193:0.0096378505 194:0.82797897 195:0.1416472 196:0.0026285047 197:0.0032126168 198:0.0023364486 199:0.0023364486 200:0.00087616822 201:0.97809579 202:0.0073014019 203:0.0049649533 204:0.00029205607 210:0.0093457944 211:0.0093457944 214:0.057242991 215:0.0046728972 216:0.049065421 217:0.20443925 218:0.51168224 219:0.15420561 220:0.0093457944 221:0.53738318 222:0.35455607 223:0.071845794 224:0.023948598 225:0.0029205607 230:0.0093457944 231:0.94450935 232:0.038843458 233:0.004088785 234:0.0029205607 235:0.00029205607 240:0.0093457944 241:0.0093457944 246:0.057242991 247:0.20064252 248:0.22283879 249:0.29643692 250:0.21349299 251:0.0093457944 257:0.021028037 258:0.22254673 259:0.34579439 260:0.40128505 261:0.99065421 270:0.0093457944 271:0.0093457944 276:0.058411215 278:0.14836449 279:0.11799065 280:0.66588785 281:0.49094626 282:0.48101636 283:0.018691589 290:0.0093457944 291:0.94158879 292:0.049065421 300:0.0093457944 301:0.040303738 306:0.20035047 307:0.49328271 308:0.12091121 309:0.11360981 310:0.031542056 311:0.040303738 316:0.031542056 317:0.52628505 318:0.24707944 319:0.10221963 320:0.052570093 321:0.95969626 330:0.040303738 331:0.040303738 336:0.0046728972 338:0.10163551 339:0.26693925 340:0.5864486 341:0.30549065 342:0.60134346 343:0.05286215 350:0.040303738 351:0.95502336 352:0.0046728972 360:0.040303738 
-0.012447577284688 1:0.013068182 2:0.034659091 3:0.036647727 4:0.27414773 5:0.34545455 6:0.19517045 7:0.084375 8:0.0085227273 9:0.0028409091 10:0.0051136364 11:0.017897727 12:0.030113636 13:0.13380682 14:0.29119318 15:0.38409091 16:0.087784091 17:0.044318182 18:0.0039772727 19:0.0051136364 20:0.0017045455 21:0.00028409091 22:0.0056818182 23:0.021306818 24:0.73551136 25:0.18096591 26:0.043181818 27:0.0045454545 28:0.0034090909 29:0.0034090909 30:0.0017045455 31:0.0045454545 33:0.0068181818 34:0.044318182 35:0.060227273 36:0.37215909 37:0.025 38:0.42670455 39:0.047727273 40:0.0125 41:0.0022727273 42:0.021022727 43:0.046022727 44:0.038920455 45:0.19403409 46:0.040625 47:0.069602273 48:0.33920455 49:0.22585227 50:0.022443182 51:0.013068182 52:0.034659091 53:0.036647727 54:0.27414773 55:0.34545455 56:0.19517045 57:0.084375 58:0.0085227273 59:0.0028409091 60:0.0051136364 61:0.025284091 62:0.046590909 63:0.15255682 64:0.11647727 65:0.018181818 66:0.26960227 67:0.099715909 68:0.076136364 69:0.039488636 70:0.15596591 71:0.009375 72:0.015909091 73:0.040909091 74:0.13636364 75:0.24431818 76:0.12869318 77:0.069034091 78:0.20539773 79:0.13323864 80:0.016761364 81:0.009375 82:0.021590909 83:0.080965909 85:0.26875 86:0.19488636 88:0.11022727 89:0.20710227 90:0.10710227 91:0.072159091 96:0.60681818 100:0.32102273 101:0.14460227 102:0.16136364 103:0.046875 104:0.076420455 105:0.096875 106:0.16193182 107:0.11590909 108:0.0079545455 109:0.15596591 110:0.032102273 111:0.025284091 112:0.046590909 113:0.15255682 114:0.11647727 115:0.018181818 116:0.26960227 117:0.099715909 118:0.076136364 119:0.039488636 120:0.15596591 121:0.03125 127:0.099715909 128:0.35965909 129:0.25454545 130:0.25482955 131:0.03125 138:0.12869318 139:0.46647727 140:0.37357955 141:0.96875 150:0.03125 151:0.03125 155:0.073295455 158:0.4875 159:0.30965909 160:0.098295455 161:0.50198864 162:0.46676136 170:0.03125 171:0.96875 180:0.03125 181:0.0090909091 184:0.41420455 185:0.51676136 186:0.054545455 187:0.0034090909 188:0.00085227273 189:0.00056818182 190:0.00056818182 191:0.0090909091 194:0.088352273 195:0.81875 196:0.08125 197:0.00085227273 198:0.00085227273 199:0.00056818182 200:0.00028409091 201:0.98835227 202:0.0019886364 203:0.00056818182 210:0.0090909091 211:0.0090909091 215:0.0068181818 216:0.034090909 218:0.43636364 219:0.26818182 220:0.24545455 221:0.44602273 222:0.36051136 223:0.17073864 224:0.013636364 230:0.0090909091 231:0.97471591 232:0.015056818 233:0.00085227273 234:0.00028409091 240:0.0090909091 241:0.0090909091 246:0.054261364 247:0.19488636 248:0.19005682 249:0.33238636 250:0.21931818 251:0.0090909091 256:0.00056818182 257:0.080681818 258:0.29971591 259:0.35625 260:0.25369318 261:0.99090909 270:0.0090909091 271:0.0090909091 275:0.0022727273 276:0.0125 278:0.069318182 279:0.21590909 280:0.69090909 281:0.17073864 282:0.42414773 283:0.39602273 290:0.0090909091 291:0.89005682 292:0.10085227 300:0.0090909091 301:0.040056818 306:0.10625 307:0.59573864 308:0.15539773 309:0.079545455 310:0.023011364 311:0.040056818 317:0.45852273 318:0.36676136 319:0.098011364 320:0.036647727 321:0.95994318 330:0.040056818 331:0.040056818 338:0.47073864 339:0.37272727 340:0.11647727 341:0.41875 342:0.509375 343:0.031818182 350:0.040056818 351:0.95994318 360:0.040056818 
-0.03983064015948979 1:0.030671296 2:0.069733796 3:0.21325231 4:0.23119213 5:0.27835648 6:0.14641204 7:0.0060763889 8:0.0043402778 9:0.014178241 10:0.005787037 11:0.066550926 12:0.046006944 13:0.2337963 14:0.38657407 15:0.15364583 16:0.081886574 17:0.0063657407 18:0.0078125 19:0.011284722 20:0.0060763889 21:0.002025463 22:0.039351852 23:0.40046296 24:0.42997685 25:0.089409722 26:0.0046296296 27:0.009837963 28:0.0066550926 29:0.01099537 30:0.0066550926 31:0.017361111 32:0.0075231481 34:0.15393519 35:0.42158565 37:0.22685185 38:0.15393519 39:0.015046296 40:0.0037615741 41:0.017361111 42:0.0023148148 43:0.081018519 45:0.002025463 46:0.40133102 47:0.16030093 48:0.18287037 49:0.13049769 50:0.022280093 51:0.030671296 52:0.069733796 53:0.21325231 54:0.23119213 55:0.27835648 56:0.14641204 57:0.0060763889 58:0.0043402778 59:0.014178241 60:0.005787037 61:0.00086805556 62:0.0026041667 63:0.00086805556 64:0.14380787 65:0.1484375 66:0.2259838 67:0.16927083 68:0.091724537 69:0.15856481 70:0.05787037 71:0.00086805556 72:0.00086805556 73:0.0017361111 74:0.028935185 75:0.10648148 76:0.1796875 77:0.17621528 78:0.27806713 79:0.1796875 80:0.047453704 81:0.00086805556 82:0.00086805556 83:0.0017361111 84:0.0054976852 85:0.05931713 86:0.22858796 87:0.1484375 88:0.2271412 89:0.23148148 90:0.096064815 91:0.14814815 96:0.64351852 100:0.20833333 101:0.014756944 102:0.22251157 103:0.13541667 104:0.030381944 105:0.0092592593 106:0.069155093 107:0.21701389 108:0.098958333 109:0.079861111 110:0.12268519 111:0.00086805556 112:0.0026041667 113:0.00086805556 114:0.14380787 115:0.1484375 116:0.2259838 117:0.16927083 118:0.091724537 119:0.15856481 120:0.05787037 121:0.03125 127:0.06712963 128:0.31597222 129:0.26822917 130:0.31741898 131:0.03125 138:0.088252315 139:0.546875 140:0.33362269 141:0.96875 150:0.03125 151:0.03125 155:0.055555556 159:0.42592593 160:0.48726852 161:0.46643519 162:0.50231481 170:0.03125 171:0.96875 180:0.03125 181:0.0092592593 183:0.046296296 184:0.6634838 185:0.23900463 186:0.03587963 187:0.0023148148 188:0.0017361111 189:0.00086805556 190:0.0011574074 191:0.0092592593 194:0.55873843 195:0.41927083 196:0.0078125 197:0.0017361111 198:0.00086805556 199:0.0014467593 200:0.00086805556 201:0.984375 202:0.0040509259 203:0.0023148148 210:0.0092592593 211:0.019675926 213:0.0023148148 214:0.0023148148 216:0.09837963 217:0.39409722 218:0.21788194 219:0.25954861 220:0.005787037 221:0.16869213 222:0.50173611 223:0.25925926 224:0.059606481 225:0.0014467593 230:0.0092592593 231:0.94878472 232:0.038194444 233:0.0026041667 234:0.0011574074 240:0.0092592593 241:0.0092592593 246:0.089988426 247:0.1490162 248:0.23813657 249:0.32986111 250:0.18373843 251:0.0092592593 257:0.084780093 258:0.22540509 259:0.38454861 260:0.29600694 261:0.99074074 270:0.0092592593 271:0.0092592593 278:0.081597222 279:0.20949074 280:0.69965278 281:0.27112269 282:0.45630787 283:0.26331019 290:0.0092592593 291:0.91087963 292:0.079861111 300:0.0092592593 301:0.040219907 306:0.043981481 307:0.47453704 308:0.28443287 309:0.12615741 310:0.030671296 311:0.040219907 316:0.0083912037 317:0.47829861 318:0.30324074 319:0.14612269 320:0.023726852 321:0.95978009 330:0.040219907 331:0.040219907 336:0.0092592593 337:0.018518519 339:0.38310185 340:0.54890046 341:0.17274306 342:0.75231481 343:0.034722222 350:0.040219907 351:0.95978009 360:0.040219907 
-0.1112235042902692 1:0.084862385 2:0.017775229 3:0.072534404 4:0.36811927 5:0.19982798 6:0.17574541 7:0.05934633 8:0.0040137615 9:0.004587156 10:0.013188073 11:0.0077408257 12:0.12241972 13:0.23480505 14:0.35693807 15:0.16829128 16:0.066513761 17:0.020642202 18:0.0020068807 19:0.0068807339 20:0.013761468 21:0.0014334862 22:0.057626147 23:0.37872706 24:0.47677752 25:0.05733945 26:0.0054472477 27:0.0043004587 28:0.0060206422 29:0.0077408257 30:0.004587156 31:0.001146789 33:0.010321101 36:0.095183486 37:0.23308486 38:0.38646789 39:0.22477064 40:0.049025229 41:0.001146789 42:0.080275229 43:0.0014334862 44:0.016915138 45:0.010607798 46:0.052178899 47:0.38044725 48:0.17459862 49:0.1978211 50:0.084575688 51:0.084862385 52:0.017775229 53:0.072534404 54:0.36811927 55:0.19982798 56:0.17574541 57:0.05934633 58:0.0040137615 59:0.004587156 60:0.013188073 61:0.001146789 62:0.010607798 63:0.034977064 64:0.11095183 65:0.16399083 66:0.24483945 67:0.13044725 68:0.1559633 69:0.13618119 70:0.010894495 71:0.001146789 72:0.001146789 73:0.0040137615 74:0.031536697 75:0.10263761 76:0.30103211 77:0.045011468 78:0.46473624 79:0.043864679 80:0.0048738532 81:0.001146789 82:0.001146789 83:0.0025802752 84:0.005733945 85:0.069094037 86:0.24455275 87:0.11725917 88:0.23824541 89:0.23107798 90:0.089162844 91:0.0091743119 95:0.1766055 98:0.61754587 99:0.003440367 100:0.19323394 101:0.11811927 102:0.17459862 103:0.13044725 104:0.055905963 105:0.32110092 106:0.073107798 107:0.12213303 108:0.00086009174 109:0.0025802752 110:0.001146789 111:0.001146789 112:0.0060206422 113:0.03956422 114:0.11095183 115:0.16399083 116:0.24483945 117:0.13044725 118:0.1559633 119:0.13618119 120:0.010894495 121:0.03125 126:0.00086009174 127:0.086009174 128:0.32425459 129:0.25917431 130:0.29845183 131:0.03125 137:0.001146789 138:0.098337156 139:0.55447248 140:0.31479358 141:0.96875 150:0.03125 151:0.03125 155:0.064220183 159:0.43233945 160:0.47219037 161:0.45527523 162:0.51347477 170:0.03125 171:0.96875 180:0.03125 181:0.0091743119 183:0.0625 184:0.66313073 185:0.23079128 186:0.028669725 187:0.0028669725 188:0.0014334862 189:0.0005733945 190:0.00086009174 191:0.0091743119 194:0.55877294 195:0.42115826 196:0.0060206422 197:0.0020068807 198:0.001146789 199:0.00086009174 200:0.00086009174 201:0.98595183 202:0.0031536697 203:0.0017201835 210:0.0091743119 211:0.010894495 215:0.0068807339 216:0.1141055 217:0.003440367 218:0.43520642 219:0.18663991 220:0.24283257 221:0.14850917 222:0.55619266 223:0.23021789 224:0.055045872 225:0.00086009174 230:0.0091743119 231:0.95642202 232:0.031536697 233:0.0020068807 234:0.00086009174 240:0.0091743119 241:0.0091743119 246:0.041571101 247:0.19954128 248:0.16399083 249:0.3856078 250:0.20011468 251:0.0091743119 257:0.079701835 258:0.22591743 259:0.39334862 260:0.2918578 261:0.99082569 270:0.0091743119 271:0.0091743119 278:0.11353211 279:0.21043578 280:0.6668578 281:0.21473624 282:0.50946101 283:0.26662844 290:0.0091743119 291:0.93405963 292:0.056766055 300:0.0091743119 301:0.040137615 306:0.046444954 307:0.48738532 308:0.27178899 309:0.12270642 310:0.031536697 311:0.040137615 316:0.0077408257 317:0.49369266 318:0.2815367 319:0.14478211 320:0.032110092 321:0.95986239 330:0.040137615 331:0.040137615 336:0.0091743119 337:0.026376147 339:0.43463303 340:0.4896789 341:0.16571101 342:0.76519495 343:0.028956422 350:0.040137615 351:0.95986239 360:0.040137615 
-0.01295934693482973 1:0.030348558 2:0.079026442 3:0.28485577 4:0.13822115 5:0.19471154 6:0.17548077 7:0.036959135 8:0.030949519 9:0.022836538 10:0.0066105769 11:0.00030048077 13:0.0033052885 14:0.080829327 15:0.46634615 16:0.2515024 17:0.15955529 18:0.014723558 19:0.017427885 20:0.0060096154 21:0.00030048077 23:0.0063100962 24:0.28155048 25:0.42157452 26:0.234375 27:0.029146635 28:0.0090144231 29:0.0078125 30:0.0099158654 31:0.030048077 32:0.027043269 33:0.14483173 34:0.26862981 35:0.18329327 36:0.22776442 37:0.095552885 38:0.015625 39:0.0048076923 40:0.0024038462 41:0.030048077 43:0.021033654 44:0.052884615 45:0.21634615 46:0.22325721 47:0.19801683 48:0.18449519 49:0.026742788 50:0.047175481 51:0.030348558 52:0.079026442 53:0.28485577 54:0.13822115 55:0.19471154 56:0.17548077 57:0.036959135 58:0.030949519 59:0.022836538 60:0.0066105769 61:0.0036057692 62:0.031550481 63:0.12079327 64:0.0051081731 65:0.22115385 66:0.28155048 67:0.048076923 68:0.25871394 69:0.020733173 70:0.0087139423 71:0.0036057692 72:0.0018028846 73:0.027944712 74:0.059495192 75:0.069711538 76:0.14873798 77:0.039362981 78:0.29807692 79:0.28876202 80:0.0625 81:0.0012019231 82:0.0027043269 83:0.0036057692 84:0.030649038 85:0.20643029 86:0.073918269 87:0.21604567 88:0.30859375 89:0.1343149 90:0.022536058 91:0.11538462 95:0.52163462 96:0.012620192 98:0.057692308 99:0.28545673 100:0.0072115385 101:0.038762019 102:0.13882212 103:0.049278846 104:0.20402644 105:0.24278846 106:0.2578125 107:0.040564904 108:0.016526442 109:0.0030048077 110:0.0084134615 111:0.0036057692 112:0.031550481 113:0.12079327 114:0.0051081731 115:0.22115385 116:0.28155048 117:0.048076923 118:0.25871394 119:0.020733173 120:0.0087139423 121:0.03125 127:0.039663462 128:0.32151442 129:0.28094952 130:0.3266226 131:0.03125 138:0.070913462 139:0.39092548 140:0.50691106 141:0.96875 150:0.03125 151:0.03125 155:0.03125 158:0.42487981 159:0.34314904 160:0.16947115 161:0.43719952 162:0.53155048 170:0.03125 171:0.96875 180:0.03125 181:0.0096153846 183:0.20793269 184:0.67277644 185:0.086237981 186:0.013822115 187:0.0027043269 188:0.0015024038 189:0.0033052885 190:0.0021033654 191:0.0096153846 193:0.0012019231 194:0.75961538 195:0.21784856 196:0.0030048077 197:0.0027043269 198:0.0012019231 199:0.0030048077 200:0.0018028846 201:0.97896635 202:0.0051081731 203:0.0048076923 204:0.0015024038 210:0.0096153846 211:0.0096153846 214:0.0012019231 216:0.024038462 217:0.45192308 218:0.28064904 219:0.22295673 220:0.0096153846 221:0.44651442 222:0.37109375 223:0.11899038 224:0.048677885 225:0.0051081731 230:0.0096153846 231:0.92067308 232:0.060997596 233:0.0033052885 234:0.0048076923 235:0.00060096154 240:0.0096153846 241:0.0096153846 246:0.075120192 247:0.16586538 248:0.26682692 249:0.31189904 250:0.17067308 251:0.0096153846 257:0.0625 258:0.1655649 259:0.45973558 260:0.30258413 261:0.99038462 270:0.0096153846 271:0.0096153846 278:0.096754808 279:0.16887019 280:0.72475962 281:0.10396635 282:0.52764423 283:0.35877404 290:0.0096153846 291:0.89242788 292:0.097956731 300:0.0096153846 301:0.040564904 306:0.049579327 307:0.31159856 308:0.3344351 309:0.20643029 310:0.057391827 311:0.040564904 316:0.00030048077 317:0.25420673 318:0.4906851 319:0.17397837 320:0.040264423 321:0.9594351 330:0.040564904 331:0.040564904 336:0.0084134615 337:0.048076923 338:0.0012019231 339:0.29957933 340:0.60216346 341:0.045072115 342:0.8969351 343:0.017427885 350:0.040564904 351:0.9594351 360:0.040564904 
-0.02890973091016007 1:0.11776316 2:0.12631579 3:0.016118421 4:0.15921053 5:0.067105263 6:0.21513158 7:0.20131579 8:0.045065789 9:0.039144737 10:0.012828947 11:0.053947368 12:0.1125 13:0.039473684 14:0.017105263 15:0.15855263 16:0.25592105 17:0.25789474 18:0.098355263 19:0.0052631579 20:0.00098684211 21:0.0055921053 22:0.098684211 24:0.11480263 26:0.19671053 27:0.25 29:0.19802632 30:0.13618421 31:0.076973684 35:0.34210526 36:0.042105263 37:0.099342105 38:0.060526316 39:0.34736842 40:0.031578947 41:0.059868421 42:0.098355263 43:0.14111842 44:0.17763158 45:0.30888158 46:0.010197368 47:0.056578947 48:0.099671053 49:0.037171053 50:0.010526316 51:0.11776316 52:0.12631579 53:0.016118421 54:0.15921053 55:0.067105263 56:0.21513158 57:0.20131579 58:0.045065789 59:0.039144737 60:0.012828947 61:0.11480263 62:0.072697368 63:0.057565789 64:0.060526316 65:0.075 66:0.47368421 67:0.0019736842 68:0.066776316 69:0.011184211 70:0.065789474 71:0.11809211 72:0.10986842 73:0.090460526 74:0.32631579 75:0.17335526 76:0.038815789 77:0.01875 78:0.080263158 79:0.041447368 80:0.0026315789 81:0.0125 82:0.061513158 83:0.19638158 84:0.39473684 85:0.19013158 86:0.081907895 87:0.055592105 88:0.0059210526 89:0.00065789474 90:0.00065789474 91:0.0065789474 92:0.083552632 94:0.19144737 96:0.064473684 98:0.64473684 100:0.0092105263 101:0.19144737 104:0.00065789474 105:0.020394737 106:0.075986842 107:0.56414474 108:0.069736842 109:0.0092105263 110:0.068421053 111:0.11019737 112:0.066118421 113:0.037171053 114:0.076973684 115:0.076315789 116:0.47697368 117:0.0039473684 118:0.074671053 119:0.011184211 120:0.066447368 121:0.03125 127:0.0059210526 128:0.36118421 129:0.48289474 130:0.11875 131:0.03125 137:0.0059210526 138:0.35855263 139:0.54539474 140:0.058881579 141:0.96875 150:0.03125 151:0.03125 159:0.038157895 160:0.93059211 161:0.81217105 162:0.15657895 170:0.03125 171:0.96875 180:0.03125 181:0.010526316 185:0.0013157895 186:0.075657895 187:0.12269737 188:0.37203947 189:0.29144737 190:0.12631579 191:0.010526316 197:0.044407895 198:0.22664474 199:0.48092105 200:0.2375 201:0.98947368 210:0.010526316 211:0.010526316 214:0.0078947368 215:0.015131579 216:0.028947368 218:0.22302632 219:0.27960526 220:0.43486842 221:0.26875 222:0.44769737 223:0.26809211 224:0.0049342105 230:0.010526316 231:0.94375 232:0.045723684 240:0.010526316 241:0.010526316 245:0.0013157895 246:0.20723684 247:0.31973684 248:0.19868421 249:0.18980263 250:0.072697368 251:0.010526316 256:0.0039473684 257:0.40559211 258:0.25 259:0.15855263 260:0.17138158 261:0.98947368 270:0.010526316 271:0.010526316 275:0.048684211 276:0.010526316 278:0.20460526 279:0.10855263 280:0.61710526 281:0.29868421 282:0.64473684 283:0.046052632 290:0.010526316 291:0.94342105 292:0.046052632 300:0.010526316 301:0.041447368 305:0.011842105 306:0.55 307:0.27598684 308:0.058223684 309:0.036513158 310:0.025986842 311:0.041447368 316:0.68782895 317:0.16019737 318:0.059210526 319:0.031578947 320:0.019736842 321:0.95855263 330:0.041447368 331:0.041447368 335:0.043421053 338:0.85592105 339:0.056578947 340:0.0026315789 341:0.80690789 342:0.15164474 350:0.041447368 351:0.95690789 352:0.0016447368 360:0.041447368 
-0.01521377991711919 1:0.084773936 2:0.088430851 3:0.11469415 4:0.1306516 5:0.26662234 6:0.23337766 7:0.070146277 8:0.0076462766 9:0.0023271277 10:0.0013297872 11:0.10505319 12:0.032579787 13:0.15890957 14:0.27227394 15:0.4162234 16:0.0076462766 17:0.0033244681 18:0.001662234 19:0.0013297872 20:0.00099734043 21:0.058178191 22:0.089760638 23:0.14760638 24:0.31615691 25:0.24135638 26:0.14295213 27:0.001662234 28:0.00099734043 29:0.00033244681 30:0.00099734043 31:0.03856383 35:0.27659574 36:0.042553191 37:0.12101064 38:0.029255319 39:0.34574468 40:0.1462766 41:0.083776596 42:0.037898936 43:0.087433511 44:0.13530585 45:0.24534574 46:0.13597074 47:0.071143617 48:0.11901596 49:0.074800532 50:0.0093085106 51:0.084773936 52:0.088430851 53:0.11469415 54:0.1306516 55:0.26662234 56:0.23337766 57:0.070146277 58:0.0076462766 59:0.0023271277 60:0.0013297872 61:0.11336436 62:0.041555851 63:0.054853723 64:0.069481383 65:0.31216755 66:0.16456117 67:0.097074468 68:0.018949468 69:0.047207447 70:0.080784574 71:0.050199468 72:0.10272606 73:0.078125 74:0.33444149 75:0.16356383 76:0.036236702 77:0.049202128 78:0.08643617 79:0.088763298 80:0.010305851 81:0.0076462766 82:0.045545213 83:0.12167553 84:0.4005984 85:0.18650266 86:0.080784574 87:0.13663564 88:0.018617021 89:0.001662234 90:0.00033244681 91:0.065159574 93:0.125 95:0.070478723 96:0.71276596 98:0.025265957 100:0.0013297872 101:0.125 104:0.001662234 105:0.021276596 106:0.083111702 107:0.56615691 108:0.063829787 109:0.028922872 110:0.11003989 111:0.10871011 112:0.025930851 113:0.064162234 114:0.065492021 115:0.32712766 116:0.16023936 117:0.10073138 118:0.019281915 119:0.047539894 120:0.080784574 121:0.03125 127:0.095079787 128:0.22340426 129:0.51296543 130:0.13730053 131:0.03125 138:0.31482713 139:0.42652926 140:0.22739362 141:0.96875 150:0.03125 151:0.03125 155:0.069148936 158:0.74135638 159:0.15691489 160:0.0013297872 161:0.78523936 162:0.18351064 170:0.03125 171:0.96875 180:0.03125 181:0.010638298 185:0.0013297872 186:0.049867021 187:0.12699468 188:0.3700133 189:0.26761968 190:0.17353723 191:0.010638298 197:0.064827128 198:0.28457447 199:0.43982713 200:0.20013298 201:0.9893617 210:0.010638298 211:0.010638298 214:0.0026595745 215:0.0093085106 216:0.01462766 217:0.0013297872 218:0.22273936 219:0.26529255 220:0.47340426 221:0.29554521 222:0.39461436 223:0.296875 224:0.0023271277 230:0.010638298 231:0.93949468 232:0.049867021 240:0.010638298 241:0.010638298 246:0.1456117 247:0.29288564 248:0.21742021 249:0.19647606 250:0.13696809 251:0.010638298 256:0.0026595745 257:0.33344415 258:0.26097074 259:0.17486702 260:0.21742021 261:0.9893617 270:0.010638298 271:0.010638298 275:0.02393617 278:0.1981383 279:0.091755319 280:0.67553191 281:0.24301862 282:0.61768617 283:0.12865691 290:0.010638298 291:0.89494681 292:0.094414894 300:0.010638298 301:0.041555851 305:0.00066489362 306:0.58410904 307:0.25797872 308:0.060837766 309:0.035904255 310:0.018949468 311:0.041555851 316:0.45212766 317:0.38264628 318:0.057513298 319:0.03856383 320:0.027593085 321:0.95844415 330:0.041555851 331:0.041555851 335:0.039228723 338:0.75897606 339:0.15492021 340:0.0053191489 341:0.70412234 342:0.25432181 350:0.041555851 351:0.95545213 352:0.0029920213 360:0.041555851 
-0.1454210502948405 1:0.011635638 2:0.020279255 3:0.055851064 4:0.26296543 5:0.12799202 6:0.29454787 7:0.13530585 8:0.062167553 9:0.025930851 10:0.0033244681 11:0.006981383 12:0.0046542553 14:0.1306516 15:0.13331117 16:0.1150266 17:0.49401596 18:0.068151596 19:0.015957447 20:0.03125 21:0.0093085106 22:0.025930851 23:0.075797872 24:0.42253989 25:0.39228723 26:0.034242021 27:0.029920213 28:0.0083111702 30:0.001662234 31:0.029920213 32:0.0013297872 33:0.10305851 34:0.098404255 35:0.019281915 36:0.33976064 37:0.36303191 38:0.031914894 39:0.010638298 40:0.0026595745 41:0.027593085 42:0.024933511 43:0.084773936 44:0.11835106 45:0.10771277 46:0.076462766 47:0.31416223 48:0.097074468 49:0.1349734 50:0.013962766 51:0.011635638 52:0.020279255 53:0.055851064 54:0.26296543 55:0.12799202 56:0.29454787 57:0.13530585 58:0.062167553 59:0.025930851 60:0.0033244681 61:0.0013297872 62:0.084109043 63:0.13763298 64:0.091090426 65:0.17985372 66:0.14494681 67:0.097074468 68:0.098736702 69:0.097406915 70:0.067819149 71:0.0013297872 72:0.029920213 73:0.099734043 74:0.20279255 75:0.13164894 76:0.16323138 77:0.15757979 78:0.11170213 79:0.073803191 80:0.028257979 81:0.0029920213 82:0.025598404 83:0.06150266 84:0.16023936 85:0.34109043 86:0.12034574 87:0.061170213 88:0.17586436 89:0.046210106 90:0.0049867021 91:0.021276596 94:0.029255319 96:0.16589096 98:0.60605053 99:0.12632979 100:0.051196809 101:0.14594415 103:0.051196809 104:0.19980053 105:0.26163564 106:0.18085106 107:0.08643617 108:0.069148936 109:0.001662234 110:0.0033244681 111:0.0013297872 112:0.062832447 113:0.13597074 114:0.072805851 115:0.22107713 116:0.14494681 117:0.097074468 118:0.098736702 119:0.097406915 120:0.067819149 121:0.03125 126:0.008643617 127:0.10139628 128:0.73071809 129:0.09474734 130:0.033244681 131:0.03125 137:0.019946809 138:0.55152926 139:0.38297872 140:0.014295213 141:0.96875 150:0.03125 151:0.03125 156:0.027925532 159:0.080452128 160:0.86037234 161:0.82380319 162:0.14494681 170:0.03125 171:0.96875 180:0.03125 181:0.010638298 185:0.00099734043 186:0.019946809 187:0.21476064 188:0.31117021 189:0.25664894 190:0.18583777 191:0.010638298 197:0.066821809 198:0.21509309 199:0.4375 200:0.26994681 201:0.9893617 210:0.010638298 211:0.010638298 213:0.0059840426 215:0.0059840426 216:0.0059840426 218:0.13131649 219:0.46010638 220:0.3799867 221:0.31216755 222:0.26329787 223:0.37333777 224:0.040558511 230:0.010638298 231:0.80352394 232:0.18583777 240:0.010638298 241:0.010638298 246:0.15492021 247:0.2862367 248:0.23304521 249:0.23337766 250:0.081781915 251:0.010638298 257:0.18384309 258:0.33011968 259:0.24667553 260:0.2287234 261:0.9893617 270:0.010638298 271:0.010638298 273:0.0033244681 278:0.12300532 279:0.037566489 280:0.82546543 281:0.13962766 282:0.65591755 283:0.19381649 290:0.010638298 291:0.94082447 292:0.048537234 300:0.010638298 301:0.041555851 305:0.033909574 306:0.52925532 307:0.26628989 308:0.070146277 309:0.036901596 310:0.021941489 311:0.041555851 316:0.19880319 317:0.61136968 318:0.063164894 319:0.047539894 320:0.037566489 321:0.95844415 330:0.041555851 331:0.041555851 336:0.12234043 339:0.39893617 340:0.43716755 341:0.55618351 342:0.40226064 350:0.041555851 351:0.94913564 352:0.0093085106 360:0.041555851 
-0.07551728050620844 1:0.018617021 2:0.11402926 3:0.092420213 4:0.093085106 5:0.18583777 6:0.11303191 7:0.10837766 8:0.24800532 9:0.0066489362 10:0.019946809 11:0.017287234 12:0.063829787 13:0.082779255 14:0.11369681 15:0.029255319 16:0.29986702 17:0.31549202 18:0.037898936 19:0.031914894 20:0.0079787234 21:0.008643617 22:0.064494681 23:0.1193484 24:0.12765957 25:0.1356383 26:0.24202128 27:0.26396277 28:0.032912234 29:0.0026595745 30:0.0026595745 31:0.0033244681 34:0.027925532 36:0.40957447 37:0.017287234 38:0.53324468 40:0.008643617 41:0.010638298 42:0.064827128 43:0.1299867 44:0.17220745 45:0.25 46:0.32978723 47:0.0053191489 48:0.010638298 49:0.0066489362 50:0.019946809 51:0.055851064 52:0.1619016 53:0.0073138298 54:0.096409574 55:0.1825133 56:0.11303191 57:0.34242021 58:0.013962766 59:0.0066489362 60:0.019946809 61:0.0076462766 62:0.024601064 63:0.091422872 64:0.12134309 65:0.053523936 66:0.16422872 67:0.12400266 68:0.30917553 69:0.098071809 70:0.0059840426 71:0.017619681 72:0.0019946809 73:0.13696809 74:0.15292553 75:0.13796543 76:0.11236702 77:0.2869016 78:0.14095745 79:0.0043218085 80:0.0079787234 81:0.0033244681 83:0.034242021 84:0.015957447 85:0.18384309 86:0.21775266 87:0.40492021 88:0.12333777 89:0.0046542553 90:0.011968085 91:0.11303191 96:0.14295213 97:0.24734043 98:0.45146277 100:0.045212766 101:0.23869681 102:0.008643617 103:0.10538564 104:0.0076462766 105:0.045212766 106:0.0063164894 107:0.12632979 108:0.4112367 109:0.049202128 110:0.0013297872 111:0.018284574 112:0.13164894 113:0.10339096 114:0.10538564 115:0.050531915 116:0.13663564 117:0.11702128 118:0.23304521 119:0.096077128 120:0.0079787234 121:0.03125 127:0.10605053 128:0.25099734 129:0.31183511 130:0.29986702 131:0.03125 138:0.22207447 139:0.44115691 140:0.30551862 141:0.96875 150:0.03125 151:0.03125 156:0.24667553 160:0.72207447 161:0.96875 170:0.03125 171:0.96875 180:0.03125 181:0.010638298 186:0.031914894 187:0.15824468 188:0.39827128 189:0.3018617 190:0.099069149 191:0.010638298 197:0.048869681 198:0.12765957 199:0.58543883 200:0.22739362 201:0.9893617 210:0.010638298 211:0.010638298 215:0.010638298 217:0.0026595745 218:0.14029255 219:0.051861702 220:0.78390957 221:0.35405585 222:0.43849734 223:0.18849734 224:0.0083111702 230:0.010638298 231:0.93517287 232:0.05418883 240:0.010638298 241:0.010638298 246:0.020611702 247:0.34740691 248:0.24800532 249:0.26130319 250:0.11203457 251:0.010638298 256:0.2556516 257:0.35605053 258:0.19115691 259:0.16655585 260:0.019946809 261:0.9893617 270:0.010638298 271:0.010638298 278:0.1462766 279:0.51462766 280:0.32845745 281:0.40093085 282:0.54454787 283:0.043882979 290:0.010638298 291:0.9893617 300:0.010638298 301:0.041555851 305:0.0079787234 306:0.28889628 307:0.43617021 308:0.065492021 309:0.094414894 310:0.065492021 311:0.041555851 316:0.36735372 317:0.39228723 318:0.068151596 319:0.084773936 320:0.04587766 321:0.95844415 330:0.041555851 331:0.041555851 335:0.10106383 336:0.0079787234 338:0.64461436 339:0.17553191 340:0.029255319 341:0.69414894 342:0.26429521 350:0.041555851 351:0.95578457 352:0.0026595745 360:0.041555851 
-0.1751592068186453 1:0.0090277778 2:0.023958333 3:0.0125 4:0.016666667 5:0.25486111 6:0.16875 7:0.13159722 8:0.14479167 9:0.11979167 10:0.11805556 11:0.0090277778 13:0.023958333 14:0.086805556 15:0.16736111 16:0.29618056 17:0.14513889 18:0.041319444 19:0.15416667 20:0.076041667 21:0.0024305556 22:0.0065972222 23:0.0013888889 24:0.032291667 25:0.109375 26:0.30763889 27:0.27430556 28:0.15694444 29:0.10381944 30:0.0052083333 31:0.045138889 35:0.021527778 36:0.038888889 37:0.28263889 39:0.57152778 40:0.040277778 41:0.035416667 42:0.019097222 43:0.031597222 44:0.22152778 45:0.00069444444 46:0.103125 47:0.196875 48:0.23368056 49:0.14201389 50:0.015972222 51:0.0090277778 52:0.023958333 53:0.0125 54:0.016666667 55:0.25486111 56:0.16875 57:0.13159722 58:0.14479167 59:0.11979167 60:0.11805556 61:0.033333333 62:0.13472222 63:0.081944444 64:0.085763889 65:0.15659722 66:0.14375 67:0.045833333 68:0.178125 69:0.063541667 70:0.076388889 71:0.058680556 72:0.10069444 73:0.13611111 74:0.10104167 75:0.14270833 76:0.012847222 77:0.085069444 78:0.15277778 79:0.13125 80:0.078819444 81:0.00034722222 82:0.014236111 83:0.060763889 84:0.15416667 85:0.19027778 86:0.12673611 87:0.048611111 88:0.18784722 89:0.19375 90:0.023263889 91:0.023611111 95:0.055555556 97:0.15 98:0.054166667 99:0.44444444 100:0.27222222 101:0.15 104:0.032986111 105:0.26736111 106:0.22673611 107:0.20243056 108:0.037152778 109:0.063541667 110:0.019791667 111:0.045486111 112:0.1375 113:0.040972222 114:0.175 115:0.092708333 116:0.14444444 117:0.073958333 118:0.15 119:0.063541667 120:0.076388889 121:0.03125 127:0.088888889 128:0.11458333 129:0.58854167 130:0.17673611 131:0.03125 138:0.089583333 139:0.33819444 140:0.54097222 141:0.96875 150:0.03125 151:0.03125 156:0.13923611 159:0.12152778 160:0.70798611 161:0.73958333 162:0.22916667 170:0.03125 171:0.96875 180:0.03125 181:0.011111111 186:0.048958333 187:0.21180556 188:0.35381944 189:0.18263889 190:0.19166667 191:0.011111111 197:0.016319444 198:0.18402778 199:0.37708333 200:0.41145833 201:0.98888889 210:0.011111111 211:0.0125 213:0.0013888889 215:0.0013888889 217:0.0013888889 218:0.16041667 219:0.29305556 220:0.52986111 221:0.061111111 222:0.26388889 223:0.35729167 224:0.30659722 230:0.011111111 231:0.79722222 232:0.19166667 240:0.011111111 241:0.011111111 246:0.11944444 247:0.33229167 248:0.28611111 249:0.17534722 250:0.075694444 251:0.011111111 257:0.20347222 258:0.34375 259:0.225 260:0.21666667 261:0.98888889 270:0.011111111 271:0.011111111 277:0.0013888889 278:0.072222222 279:0.064583333 280:0.85069444 281:0.48402778 282:0.39930556 283:0.10555556 290:0.011111111 291:0.93923611 292:0.049652778 300:0.011111111 301:0.042013889 305:0.0027777778 306:0.098958333 307:0.58402778 308:0.21701389 309:0.032638889 310:0.022569444 311:0.042013889 316:0.046527778 317:0.79513889 318:0.05625 319:0.036111111 320:0.023958333 321:0.95798611 330:0.042013889 331:0.042013889 335:0.0048611111 336:0.020138889 337:0.046527778 339:0.22916667 340:0.65729167 341:0.35486111 342:0.60034722 343:0.0027777778 350:0.042013889 351:0.95798611 360:0.042013889 
